34 128
34 -0.013853263 -0.02681806 0.18359195 -0.0462656 -0.14043517 -0.17909417 0.016184539 0.0869625 -0.08841762 -0.0010662049 0.1977664 -0.093327805 0.00036094553 0.07619387 -0.022149764 -0.14226198 0.043779727 -0.011520991 -0.1406111 -0.08875269 0.059293617 0.027878119 -0.006159505 0.067192286 -0.041046813 0.041113067 -0.06594407 0.02470037 0.05267829 -0.1391878 -0.26360378 0.08456168 -0.06454367 -0.034337275 0.08024913 0.14737572 0.1814294 0.04461928 0.017907197 -0.02183254 -0.08035208 0.10265497 -0.055107027 0.022524564 0.103371106 -0.03783 -0.062166736 -0.09351848 0.13179255 0.08984643 -0.00079080026 0.10443824 0.045480434 -0.045892924 0.13555245 0.016437689 0.09725761 -0.014292832 -0.061068393 0.04169768 0.101521716 -0.09804851 0.0046934723 0.0045519546 0.14759955 0.049132276 0.01571539 0.0084331995 -0.004838261 -0.17405517 0.14780164 -0.03190394 -0.18671697 -0.15795699 0.1430293 -0.0679051 0.11797864 -0.11529783 0.081850424 0.07616796 -0.024250548 -0.0995572 0.18490358 0.178508 -0.06174041 0.07828431 0.07296969 -0.08519239 0.066398665 0.07818832 -0.015933545 0.03772105 0.097786754 0.13620111 0.15072168 0.18893488 -0.35228512 -0.2857324 0.015247555 0.008818331 -0.19522752 0.0741541 0.03193115 0.100067586 0.14402176 -0.016816236 -0.028668972 -0.14287232 -0.013525457 -0.045855686 0.039076306 -0.038327236 0.12754147 0.06068283 0.01979811 0.058630954 0.029783474 0.1387504 0.0353179 0.051460203 0.10524717 -0.05512571 -0.0068711042 -0.0136944195 0.008798202 -0.045008764 -0.08939432 0.06624281
1 0.10988627 -0.06551608 0.21947634 -0.12492625 -0.10007001 -0.10074239 -0.13337214 0.06256089 0.007188286 -0.0135706095 0.09558246 -0.118054084 -0.054422967 -0.01405077 -0.057336424 -0.25020498 -0.12692408 0.09164324 -0.093433894 -0.15549044 0.055500887 0.011674418 0.19117172 0.07111902 0.041639235 0.17345825 -0.015537877 0.023024386 0.20662236 -0.007715716 -0.21166465 0.17574409 -0.087702736 -0.011787602 0.01839146 -0.1023104 0.17287402 0.12872292 0.12671469 0.03139811 0.04188911 0.06632026 -0.10249858 -0.018614788 0.10468321 -0.0003783739 -0.09350104 -0.13725837 0.043970242 -0.01090234 -0.08927151 -0.032917537 0.041002274 0.21929237 0.008437439 0.14770074 -0.022631558 -0.051235832 -0.09367045 0.023024209 0.15256163 -0.11497056 0.14984897 0.17530844 0.07046897 -0.027773818 0.01884092 -0.07148696 0.058266908 -0.19465178 -0.02285008 -0.04917323 -0.11173508 -0.04926247 -0.047511406 -0.061973788 -0.041754756 0.11756093 0.0146156475 0.10853636 -0.11474345 -0.054580417 0.12374997 0.02889676 0.010212148 0.056823704 0.08691134 0.02036492 0.07911792 0.2081634 -0.1414868 0.025543714 -0.04806356 0.045138568 0.072778374 -0.021946609 -0.18263122 -0.15517002 0.024600713 0.051486503 -0.17200558 0.07708505 -0.0016244412 0.09589259 -0.014312873 -0.029524103 -0.050076067 -0.25020656 -0.0451937 -0.025074106 0.05153287 -0.10398092 0.059055865 0.116375 -0.048741616 0.095693134 -0.052640498 0.09625128 0.16041529 0.119456895 -0.01427507 -0.14735767 -0.024317732 0.15031277 -0.07718499 -0.22711451 -0.19255245 -0.063844964
33 -0.02615722 -0.024252295 0.17508432 -0.08471166 -0.08514715 -0.19174105 0.053088237 0.063413195 -0.12361425 0.0660928 0.23272564 -0.058504652 -0.0132279545 0.10438348 -0.041580416 -0.06387762 0.055182155 -0.017658375 -0.12791878 0.026559459 0.10710117 0.030128283 -0.05140805 0.08521624 -0.08496436 0.017588641 -0.095741004 0.057899132 0.0203823 -0.15770544 -0.25831267 0.022772364 -0.04114515 -0.00028969554 0.08124504 0.19528987 0.17373857 0.04537331 0.036595643 0.007835942 -0.12859134 0.07307683 -0.021411048 -0.0095668 0.06865016 0.0012100794 -0.0005005246 -0.07864428 0.0642114 0.07072463 0.017289782 0.12507159 0.049138095 -0.092445165 0.1423912 -0.024555659 0.1384679 -0.051482093 -0.018170437 -0.01403905 0.112736456 -0.09947595 -0.013411301 -0.03172583 0.14849998 0.065942526 0.037353795 0.07357959 -0.050330557 -0.17949371 0.18040237 -0.047458574 -0.20299868 -0.16741107 0.16988185 -0.091747895 0.0675048 -0.1577317 0.09250357 0.12265596 -0.030138101 -0.14101444 0.16337718 0.20142904 -0.06770594 0.09380997 0.06274685 -0.13892214 0.10625928 0.06683317 0.0031771532 0.008764111 0.12613903 0.16349909 0.13814898 0.21462807 -0.39727208 -0.33487132 0.039431572 -0.025936639 -0.2777754 0.10268118 -0.018877877 0.06755747 0.1261106 0.021465067 -0.01552362 -0.19461806 -0.04631858 -0.076816596 0.007217622 -0.014076139 0.16535749 -0.012578246 0.08761841 -0.0010037394 0.056089673 0.21368511 0.03766106 0.024886537 0.11956202 -0.044972412 -0.077274 0.036669675 -0.037595693 -0.052048765 -0.07662855 0.10749327
3 0.04753445 -0.036463913 0.22993137 -0.14654295 -0.11342131 -0.13436902 -0.10535886 0.008135425 -0.046178848 -0.041290097 0.1557587 -0.13728304 0.003451554 0.009597335 -0.046944648 -0.20729215 -0.062230587 -0.014036504 -0.10706714 -0.12432021 0.05682957 0.0062498758 0.05424636 0.06459872 -0.0583439 0.16089353 -0.042168215 0.0061937138 0.096881844 -0.062025856 -0.21674748 0.122258015 -0.13280027 0.01670365 0.094093695 0.027503407 0.122666955 0.123375796 0.004475469 0.011352243 -0.0073509617 0.057973776 -0.074346766 0.07184728 0.09963176 -0.049269043 -0.00045122457 -0.15516743 0.06575763 0.011062964 -0.0032340405 0.051532418 0.021775665 0.04810945 0.013801438 0.06540989 0.090910316 0.02166082 -0.08962576 0.0040225433 0.13112514 -0.13109185 0.09867709 0.019953217 0.13373764 0.005362139 0.0023708937 -0.071841285 0.046809033 -0.21360983 0.064756356 -0.116747856 -0.18406749 -0.099023215 0.0491797 -0.06819875 0.048651498 -0.07444783 0.06722023 0.07234154 -0.053099338 -0.090848446 0.16875058 0.11484092 -0.059743892 0.08019271 0.021594917 -0.0410915 0.055763785 0.091676794 -0.10449123 0.080474205 0.04748631 0.10995894 0.039593574 0.06093284 -0.21321905 -0.15443552 -0.0353916 -0.011681463 -0.16793329 0.036824502 0.012814365 0.11397407 0.06827356 -0.041383795 -0.04757575 -0.24220827 -0.011880536 -0.0008355666 0.0217632 -0.076382644 0.12132495 0.03120857 -0.043710075 0.07216317 -0.04637025 0.08604143 0.07509328 0.049105186 0.041160926 -0.08117151 -0.020624157 0.07825642 -0.06845393 -0.10685479 -0.14853428 0.03252224
2 0.01492162 -0.098658115 0.17740197 -0.21034095 -0.17132434 -0.114132255 -0.09100605 0.03654614 -0.10577956 -0.010487837 0.15201971 -0.12247367 -0.09994137 0.0626029 -0.046780456 -0.32298112 -0.104971685 0.021261867 -0.14449552 -0.23648866 0.04723466 -0.07821355 0.056702968 0.16462353 0.000699994 0.13590747 -0.022116145 -0.02848015 0.17662418 -0.06575304 -0.2444492 0.13711569 -0.09884514 -0.068271756 0.08523094 0.02577145 0.16596568 0.12832446 0.052115254 -0.022592578 0.10621043 0.12571217 -0.16440624 0.08081493 0.10109129 -0.07052114 -0.08423375 -0.15699111 0.14634559 -0.050470013 -0.015942201 0.02447778 0.039287694 0.037614994 0.03589758 0.13414064 0.021756401 -0.02273019 -0.015803447 0.073717594 0.17413074 -0.10376209 0.046040807 0.15093967 0.045247026 0.028651865 -0.04390691 -0.08750346 0.028475994 -0.23732805 0.059046295 -0.12772389 -0.122112624 -0.09269075 -0.017781492 -0.052259408 -0.0009382092 0.0017292146 0.14119709 0.08130894 -0.054624718 -0.08352088 0.15452905 0.0731937 -0.053204402 0.043037 0.06981109 -0.0157149 0.10633694 0.10053209 -0.10204116 0.13149917 0.021573147 0.06592759 0.021992326 -0.014114822 -0.1902403 -0.09199243 -0.08621316 0.062511995 -0.10118046 0.16380431 -0.04198658 0.09281157 0.10890802 0.029588958 -0.061610367 -0.2650508 0.01718838 -0.0002457488 0.08593276 -0.066424556 0.055791724 0.03340215 -0.057567958 0.07600143 -0.04927045 0.08826641 0.09624472 0.10637808 0.0228 -0.08698376 -0.047914684 0.103803344 -0.13295978 -0.08238086 -0.13243322 -0.071429655
4 0.07110234 -0.08737667 0.21958545 -0.19322406 -0.11420185 -0.08223343 -0.130658 0.006353257 -0.07127756 -0.039945334 0.12569606 -0.156795 -0.07240289 0.03527462 -0.056246582 -0.3062332 -0.12774238 0.014937375 -0.12094789 -0.20511515 0.051994395 -0.04131105 0.10528706 0.11224294 -0.002814882 0.17586511 -0.01902755 -0.0063593457 0.15150008 -0.037025403 -0.2204343 0.16591193 -0.10223408 -0.014364999 0.088188305 -0.06693514 0.13708009 0.15681565 0.028223937 0.018529173 0.075969785 0.06919544 -0.14497454 0.07519728 0.09332931 -0.055539563 -0.037101522 -0.1559037 0.0963898 -0.027508868 -0.059121598 0.028369151 0.026944662 0.11423549 -0.018012576 0.13007161 0.029491132 -0.0054382333 -0.06357541 0.052551333 0.18192105 -0.13916506 0.13161017 0.12624298 0.06863563 0.0050787353 -0.028838279 -0.10268779 0.03852053 -0.22501959 0.016989753 -0.12926024 -0.112055026 -0.072996035 -0.017138036 -0.05521671 -0.01621112 0.0037517783 0.065342985 0.058015864 -0.06375921 -0.0725673 0.13349685 0.054457404 -0.052293334 0.06629518 0.044539288 0.0049364413 0.061850913 0.13635801 -0.14016852 0.11355842 0.0066976394 0.06340758 -0.0006321551 -0.020806149 -0.16275965 -0.0865294 -0.07802325 0.034385104 -0.12256023 0.07864384 -0.018005742 0.10945226 0.042739283 -0.014984781 -0.06366158 -0.2633919 0.007912588 0.0040048445 0.043169755 -0.09528811 0.08386404 0.033873342 -0.07732989 0.09236054 -0.07059349 0.079672076 0.10682318 0.09288395 0.0034375496 -0.11005061 -0.024439542 0.13910054 -0.11830229 -0.118505225 -0.16736768 -0.02971861
32 0.041302662 0.014408177 0.27288425 -0.07866135 -0.021888494 -0.18435767 -0.0036537228 0.023949506 0.004144474 0.0072354036 0.16714555 -0.17444389 0.01015642 0.041725017 -0.029632047 -0.08135597 0.05153464 -0.016456848 -0.08001701 0.07696132 0.13060501 0.06905406 0.03825064 0.051924083 -0.18148765 0.16643369 -0.06343162 0.11756324 0.05007282 -0.11984594 -0.23047289 0.07577705 -0.15378562 0.049800035 0.04147342 0.1163088 0.11902768 0.100823134 0.05018076 7.628494e-05 -0.20280613 0.10225937 -0.013345252 -0.036030836 0.12416867 -0.001961011 0.03663043 -0.09544697 -0.0107378485 0.14332773 -0.02677791 0.09791421 0.0950403 0.026639804 0.04519488 0.0007405037 0.11388512 0.047301777 -0.108499706 -0.043695237 0.07184878 -0.09392525 0.091946624 -0.06302631 0.21891278 0.02427637 0.027409736 -0.01474084 0.022846343 -0.08897317 0.11831081 -0.04888043 -0.21664414 -0.114897676 0.14424908 -0.102564596 0.051635634 -0.08146868 -0.026045928 0.14393836 -0.015857883 -0.12842168 0.12800181 0.12687166 -0.022708308 -0.0012699515 0.06334411 -0.13889003 0.05328584 0.025068425 -0.0065575396 -0.10500457 0.032225206 0.102681324 0.11485269 0.13598715 -0.29143378 -0.2914912 -0.003922798 -0.054557413 -0.2665675 -0.018754724 -0.025501322 0.13504772 0.1107619 -0.019769765 -0.028199775 -0.20031923 -0.058670063 -0.039693914 -0.054317504 -0.06081341 0.15665297 -0.006307608 0.011501348 0.0056403624 0.046383858 0.1295986 0.07939475 0.007582331 0.07964687 -0.013956078 -0.03329692 0.07482783 0.04875268 -0.0931341 -0.056108173 0.10354071
14 0.06738572 -0.03967344 0.18819496 -0.18307735 -0.1260115 -0.08939637 -0.104149744 0.024438214 -0.06594958 -0.0016744862 0.09926147 -0.14234808 -0.047926582 0.05280066 -0.02482835 -0.25097802 -0.115033336 0.0144453775 -0.12790446 -0.14797533 0.06222556 -0.035683792 0.0646713 0.12606251 -0.0505201 0.1584411 -0.031262826 -0.000912409 0.1582475 -0.030241162 -0.24021293 0.14466463 -0.11235372 -0.03723602 0.07096173 -0.016992556 0.13994804 0.16212556 0.038711574 0.00776408 0.03818471 0.07677251 -0.1213303 0.07540546 0.087621205 -0.027957913 -0.057633337 -0.15639374 0.073190026 -0.024356915 -0.04193197 0.03788236 0.050187353 0.07697662 -0.0030240666 0.13231432 0.03491337 0.01677019 -0.05445091 0.029196033 0.116287075 -0.100794025 0.08731045 0.111449085 0.07905727 0.013480386 -0.030491767 -0.10513583 0.023212606 -0.24446845 0.029279547 -0.09974479 -0.15336725 -0.0701018 0.0058524515 -0.071479455 -0.023822611 -0.007909029 0.08067375 0.08757902 -0.055499673 -0.08560691 0.14622824 0.0562921 -0.04870851 0.041344054 0.046444286 -0.008937639 0.09394821 0.08850728 -0.12677377 0.07769786 0.024349073 0.08941636 -0.005757584 0.014299906 -0.16907895 -0.08860052 -0.05239238 0.011790457 -0.14894477 0.095007285 -0.023575066 0.109403 0.042419963 0.003521542 -0.03384419 -0.27248567 -0.023525765 0.008693491 0.04714178 -0.06896231 0.089925855 0.036156826 -0.057071988 0.07886595 -0.046619825 0.09301464 0.122941926 0.108734295 0.040086363 -0.11300184 -0.037198666 0.14095236 -0.100493506 -0.13165775 -0.13298082 -0.039388303
24 0.00064593146 0.04385987 0.23678714 -0.014379973 -0.0355567 -0.18301119 0.025522148 0.046479918 -0.02127564 0.047588475 0.16738558 -0.13372831 0.049296554 0.061273694 0.022131708 -0.08215507 0.072808094 -0.022037238 -0.09675424 0.06395475 0.05614338 0.08128367 0.018289253 0.074857764 -0.1413263 0.1317063 -0.053341687 0.114433065 0.032264158 -0.15329742 -0.2755449 0.09071365 -0.12453232 0.0026227369 0.04682917 0.13899757 0.12425955 0.07803722 0.03799166 -0.014243652 -0.2199466 0.12101636 -0.027650623 -0.025234682 0.13576533 0.0028459174 -0.04259624 -0.052149583 0.073962905 0.22364934 -0.00797299 0.16324617 0.12815465 -0.04387427 0.04138449 0.04168302 0.09433507 0.05590357 -0.07890632 0.042698327 0.021128515 -0.041624777 0.061312404 -0.01425594 0.21963796 0.03239168 0.057090573 -0.023837643 0.04479267 -0.07367268 0.11081258 0.017854247 -0.1666396 -0.15334079 0.16789313 -0.091187574 0.103769325 -0.03431122 -0.026517605 0.15094833 -0.0072016018 -0.11115927 0.10967902 0.13926344 -0.048384234 -0.020102013 0.09290378 -0.100832514 0.022136595 0.0014835217 0.03265093 -0.12708515 0.055982675 0.09364606 0.11534382 0.17002021 -0.32924607 -0.34247658 0.036644552 -0.058703102 -0.2564594 -0.037033066 0.004327684 0.17546172 0.1263381 -0.02509732 0.0032698587 -0.15459256 -0.045164924 -0.009340498 -0.006594516 -0.046096537 0.15908362 0.035486218 -0.05160449 -0.0021807584 0.021852817 0.1249518 0.08568621 0.07207548 0.08836647 -0.027185533 0.015001644 0.028764807 0.08930216 -0.06929654 -0.07202725 0.07750092
6 0.18291706 -0.014151373 0.022751061 0.048777707 -0.0067463703 -0.032199576 -0.024327831 0.15755087 -0.010889781 0.08517612 -0.029988639 -0.19582684 -0.15484037 0.10406617 0.115484826 -0.21962832 -0.079827406 0.12864657 -0.18319856 -0.021117037 0.115529664 0.08850673 0.17124711 0.22400536 -0.08163303 0.16231309 -0.013824188 0.13630219 0.19389069 -0.00035199628 -0.31720266 0.14590643 -0.01720117 -0.08086095 -0.14336607 -0.1653016 0.22732705 0.15009734 0.27510107 0.054011226 -0.15408964 0.12752464 -0.08525094 -0.08239975 0.059239425 0.045019094 -0.19580014 0.005498166 0.052278124 0.122625716 -0.21931821 -0.044059 0.277886 0.26156262 0.044020984 0.2517941 -0.06557448 -0.089647815 -0.13185756 0.12467685 0.11855367 -0.041830115 0.08455978 0.2592662 0.1674286 -0.056188762 -0.035582773 -0.08675775 -0.031163253 -0.17004044 0.01717879 0.12459417 -0.08892122 -0.0637855 -0.026989792 -0.12580809 -0.1674224 0.25976896 -0.09862093 0.23655091 -0.085119 -0.12023484 0.0015621692 -0.05573128 -0.018355498 -0.06094369 0.2279243 0.044734284 0.16396709 0.21556057 -0.04613655 -0.15644976 -0.1329739 -0.0018502444 0.122899346 -0.040217336 -0.22928299 -0.20171346 0.016575241 0.038701408 -0.18955684 -0.021769663 -0.045794487 0.0941341 -0.11959601 0.011901176 0.045091674 -0.13978332 -0.096136175 -0.034986973 0.052656285 -0.11335594 0.098127045 0.18392263 -0.061076157 0.056724813 -0.07130271 0.17816101 0.24920152 0.15667327 -0.036162373 -0.18529135 -0.01080144 0.24427585 0.012111312 -0.26928774 -0.044656523 -0.0924692
30 -0.054749634 0.048101805 0.17742032 0.0108320555 -0.13167869 -0.19752908 0.044672027 0.056245018 -0.079610296 0.03659318 0.20889367 -0.10834361 0.09480355 0.07652684 0.015703285 -0.09512546 0.10666279 -0.045801774 -0.1203114 -0.011492147 0.017906385 0.07093774 -0.063463084 0.054328155 -0.13482118 0.060138453 -0.08151253 0.05011039 -0.01811553 -0.16336292 -0.2888048 0.07572705 -0.12324446 -0.013999055 0.10230435 0.22101052 0.14331749 0.055821206 -0.023995103 -0.048069827 -0.16564889 0.11304081 -0.024290316 0.04101839 0.13813154 -0.025616977 -0.067766175 -0.08905462 0.12397702 0.1959131 0.043465126 0.1662292 0.08159588 -0.12716188 0.11891131 -0.017553179 0.11202014 0.054851633 -0.081070065 0.05613311 0.016159572 -0.054875754 0.006347816 -0.05836237 0.20473586 0.049370047 0.013974704 -0.015568714 0.027041124 -0.1743729 0.15168162 -0.011685536 -0.22244573 -0.19305146 0.20421559 -0.083759084 0.19927865 -0.15398197 0.03527771 0.10889933 -0.009643591 -0.08640572 0.19036198 0.2079306 -0.07775137 0.028678883 0.078584276 -0.11059144 0.044769455 -0.015281179 0.02059103 -0.047514524 0.12157562 0.16275235 0.150472 0.26466724 -0.3749948 -0.330771 0.048369776 -0.046922587 -0.2217818 -0.023364093 0.06345172 0.14396751 0.16692902 -0.032887843 -0.009349161 -0.09367656 -0.01681778 -0.0129652135 0.02042931 -0.013618478 0.19559772 0.047581367 -0.038185857 0.048880335 0.04511767 0.1217417 0.021505034 0.06774771 0.15282357 -0.02038686 0.011655132 -0.047558043 0.08756358 -0.033515695 -0.06445651 0.10836922
8 0.06603477 -0.085337475 0.17875224 -0.21908031 -0.15352698 -0.102229476 -0.12647536 0.034839272 -0.08275805 -0.01892174 0.12741642 -0.13746147 -0.07915395 0.056707367 -0.049595315 -0.28712964 -0.14000973 0.035178695 -0.13595721 -0.20613998 0.076493606 -0.053777073 0.0789484 0.13820104 -0.0036713185 0.14202762 -0.029795952 -0.039435472 0.18229772 -0.028632842 -0.24009712 0.14761376 -0.08715394 -0.04221582 0.076294325 -0.025280774 0.16682212 0.1611284 0.043898843 -0.00044313524 0.09335365 0.078245 -0.13651015 0.08143454 0.07529323 -0.048780352 -0.058536753 -0.17452551 0.10114484 -0.07330804 -0.04238948 0.020328216 0.027078172 0.091348745 0.015304542 0.14292996 0.038402844 -0.01060282 -0.04075981 0.025755724 0.16627826 -0.122578055 0.07641346 0.12382193 0.056180973 0.011746005 -0.038041297 -0.09550751 0.023746166 -0.2520586 0.036232147 -0.11587345 -0.13382669 -0.054600082 -0.03458682 -0.05954738 -0.04378236 0.0032418484 0.1131791 0.07645692 -0.061551716 -0.084224634 0.14758395 0.056999046 -0.04257857 0.0750872 0.047286723 -0.008379218 0.096522816 0.13320912 -0.14582875 0.14118391 0.012508276 0.07384771 -0.00095537823 -0.015514071 -0.1581847 -0.057452414 -0.07390997 0.038419157 -0.11888261 0.14329046 -0.034686536 0.07612408 0.036904152 0.0131936 -0.055243183 -0.2750584 -0.016088292 -0.0019874922 0.06728189 -0.07656218 0.058103126 0.04653648 -0.051231354 0.081506185 -0.063409515 0.09638305 0.11473176 0.10908711 0.012505704 -0.12820669 -0.051855665 0.12625408 -0.13952413 -0.11816549 -0.15608677 -0.045585487
7 0.18062748 -0.039739322 0.045125738 0.031694416 -0.022088602 -0.04040124 -0.06472731 0.18549398 0.009732012 0.0916397 -0.039959196 -0.17341201 -0.115409076 0.068844974 0.051807083 -0.24817428 -0.094835855 0.16133094 -0.17683904 -0.07323214 0.09869429 0.046402942 0.18760988 0.17811143 -0.01963344 0.107647456 -0.014961823 0.113182425 0.20604958 0.021070233 -0.273783 0.1660947 -0.0043511754 -0.059201654 -0.11913685 -0.16353554 0.21686564 0.12436126 0.26838815 0.07266046 -0.09332869 0.092794575 -0.109968044 -0.07967954 0.05608319 0.04909223 -0.18582691 -0.012655964 0.030678859 0.084039874 -0.23387608 -0.06751135 0.2037983 0.27815747 0.08144574 0.23053804 -0.095084205 -0.12325863 -0.12857352 0.12767884 0.12920527 -0.027063744 0.11779599 0.2882919 0.13213384 -0.05650033 -0.026994351 -0.07952198 -0.005449796 -0.1966752 -0.011277633 0.12489468 -0.09906447 -0.07341162 -0.027962532 -0.13762903 -0.12072352 0.25700378 -0.08032699 0.19998465 -0.1301899 -0.0743394 0.052416448 -0.064647295 0.015607252 -0.0074826377 0.20931725 0.05221073 0.1479462 0.24315232 -0.057550143 -0.13107975 -0.1233955 0.01856564 0.13423169 -0.023171319 -0.24005285 -0.22574456 0.05042831 0.075100765 -0.17682722 0.014939356 -0.038892683 0.058169167 -0.11871669 0.00018193464 -0.017694274 -0.15294524 -0.0705505 -0.024572568 0.030028809 -0.10937781 0.08606826 0.20299254 -0.060765084 0.085767314 -0.053488415 0.15320037 0.21232252 0.16649914 -0.026280345 -0.19513163 -0.019556822 0.2213352 0.011927292 -0.2458391 -0.068336695 -0.07299727
9 0.03664944 0.00055390317 0.1810454 -0.09539413 -0.08431201 -0.12207418 -0.011541161 0.0384911 -0.06513583 0.016414111 0.14994916 -0.14041919 0.010006867 0.059059855 0.0061254883 -0.14049232 -0.012514676 -0.0293624 -0.12319846 -0.050712373 0.057431646 0.026537444 -0.014487919 0.08742688 -0.12075057 0.105282195 -0.037424907 0.06829015 0.061310023 -0.061464198 -0.2253929 0.076213434 -0.10568253 -0.009644909 0.044126034 0.0680577 0.11969714 0.11844164 0.038835563 -0.007843213 -0.081866525 0.060057297 -0.05473219 0.03911539 0.09513562 -0.024489345 -0.013938063 -0.11537037 0.060448535 0.06538492 -0.017210193 0.06626367 0.07099652 0.003953629 0.059304062 0.032996483 0.09466033 0.007619293 -0.08602741 0.014186648 0.08648444 -0.09582173 0.046787348 0.000446577 0.1580618 0.028252963 -0.02689747 -0.04111693 -0.013039263 -0.21772908 0.1147671 -0.060877346 -0.2122569 -0.1169827 0.11639648 -0.09837697 0.05562195 -0.10061283 0.059057932 0.12209074 -0.035164647 -0.117999166 0.15099628 0.12473361 -0.070372194 0.04809242 0.058068763 -0.08001389 0.10124175 0.04314297 -0.05432262 0.006705542 0.07923182 0.13987264 0.066275045 0.13409628 -0.28097722 -0.22313002 -0.016579125 -0.027613653 -0.2227974 0.025626 -0.005901405 0.11651915 0.07021505 -0.014678605 -0.018220278 -0.220107 -0.035832945 -0.0071139657 0.017404465 -0.040372156 0.16352525 0.039333124 -0.00228442 0.055260178 -0.0064577833 0.14046666 0.08266308 0.052603688 0.095483445 -0.06484541 -0.026204813 0.10251353 -0.021862421 -0.11142767 -0.07645724 0.04652902
28 0.014211424 0.009873756 0.34049183 -0.113299444 -0.08416805 -0.21050252 -0.015928045 0.0020740593 -0.011992457 -0.024847807 0.19090492 -0.14347573 0.06606258 0.028213298 -0.04088117 -0.101085156 0.041505974 -0.03176072 -0.082093224 -0.0027573484 0.0883587 0.057098147 0.04492544 0.03142989 -0.100081235 0.15405722 -0.05287505 0.057842847 0.08599127 -0.15439717 -0.25272393 0.12131504 -0.14829192 0.02594239 0.08424304 0.15011844 0.14113653 0.08974202 -0.020991988 -0.022858799 -0.12959357 0.10306187 -0.023075232 0.004638408 0.124971345 -0.010414809 0.006247447 -0.15421446 0.06292736 0.11531837 0.04209998 0.14727394 0.025636975 -0.027936963 0.021202497 0.010858095 0.12397141 0.071212985 -0.0864888 -0.04584764 0.05677924 -0.092135586 0.08686865 -0.05358989 0.17705345 0.03361516 0.07219658 -0.033347588 0.07256918 -0.08641919 0.11481953 -0.044862095 -0.2190209 -0.10727036 0.15214199 -0.050580237 0.111024216 -0.105378605 0.023978822 0.08729447 0.0054176636 -0.09047245 0.17857927 0.14841577 -0.020038633 0.040910866 0.008637394 -0.12884845 -0.014649264 0.009376876 -0.02883775 -0.026050977 0.08269989 0.11305618 0.10378373 0.1667691 -0.2952753 -0.29140663 0.007138103 -0.04995881 -0.21385163 0.039619733 0.018258544 0.16098683 0.17801362 -0.03944687 -0.0294984 -0.20815733 -0.015170497 -0.011426644 -0.0040425784 -0.04871859 0.13001172 0.0050740507 -0.0061319196 0.018683715 0.03839539 0.09215524 0.055581544 0.04272032 0.11634236 -0.012773963 -0.0032940453 0.0032523451 0.054190993 -0.054372065 -0.14136083 0.09469272
20 7.207936e-05 -0.027930422 0.11283612 -0.1276834 -0.13880724 -0.102398455 -0.068898216 0.012330265 -0.08600412 0.013662112 0.15050244 -0.092122085 -0.01742168 0.054930225 -0.04402326 -0.19208337 -0.06651424 -0.008322251 -0.12650052 -0.13915338 0.0447326 -0.006600411 0.021841835 0.10542063 -0.0483268 0.10549118 -0.04882134 -0.014566984 0.09241352 -0.06558125 -0.23538409 0.088478595 -0.1043187 -0.02311814 0.09153759 0.06403822 0.14156304 0.11576783 0.026601125 -0.0040374324 0.008819155 0.0521014 -0.090582706 0.06131822 0.08364789 -0.031004924 -0.038979642 -0.1445063 0.08094268 -0.00888433 -0.007053243 0.057947073 0.03730286 0.013179409 0.041227873 0.06773896 0.07225437 0.0018881754 -0.05239207 0.026343234 0.11379082 -0.104781754 0.047769863 0.0527313 0.10118818 0.031335488 -0.021228408 -0.048002314 -0.0009087949 -0.26457772 0.082724184 -0.11020576 -0.17725447 -0.10579075 0.051011875 -0.08018488 0.026512858 -0.08137945 0.10457224 0.094746254 -0.047894713 -0.09266759 0.1648144 0.13790564 -0.072146796 0.08129299 0.038724296 -0.049415022 0.1011235 0.07687533 -0.09517612 0.0888923 0.0846526 0.12685123 0.04277604 0.083424196 -0.2346551 -0.14387222 -0.022553317 -0.006172231 -0.17737404 0.081840634 -0.0061266543 0.10301501 0.06473239 -0.010560862 -0.030062009 -0.22740726 -0.021863753 -0.020528868 0.042517126 -0.054693237 0.13004161 0.03737138 -0.023245355 0.06919715 -0.024534557 0.12573668 0.0814786 0.07286735 0.06612989 -0.09051014 -0.047822766 0.09483807 -0.093909204 -0.11631148 -0.12742664 0.00024909066
11 0.17652883 -0.01967775 0.112632416 -0.026609825 -0.0017219016 -0.034692064 -0.08236167 0.14237489 0.031420663 0.049124867 -0.04311992 -0.21909724 -0.121124156 0.07399965 0.068721384 -0.26677415 -0.12655932 0.12804693 -0.16325434 -0.07501502 0.10772472 0.04186215 0.19056736 0.18228939 -0.07612141 0.17362393 0.011763064 0.13551979 0.20795543 0.031158421 -0.27777594 0.17126359 -0.068154596 -0.055479594 -0.10280985 -0.18297389 0.17794037 0.17780246 0.24345514 0.047084868 -0.101845585 0.1124073 -0.12092135 -0.050254565 0.07720478 0.04177075 -0.13597941 -0.04562984 0.044846002 0.089259386 -0.2275048 -0.037668128 0.21461028 0.2781275 0.03399295 0.24843067 -0.0748897 -0.044414863 -0.14230372 0.11018495 0.12322437 -0.041993465 0.14442563 0.2570839 0.16411556 -0.053144254 -0.04697919 -0.12259238 0.018810399 -0.1620767 -0.013487379 0.08733885 -0.10282734 -0.054754872 -0.037123173 -0.13071294 -0.13206102 0.24611683 -0.087207176 0.20123184 -0.072179176 -0.08918165 0.03799693 -0.069164075 0.014392289 -0.047235645 0.1882408 0.032899417 0.11445599 0.17623796 -0.06847837 -0.12739326 -0.13541058 -0.0012177996 0.08310713 -0.06915142 -0.19264725 -0.17464712 -0.01749588 0.039319728 -0.17474093 -0.0052317847 -0.047640488 0.120316535 -0.11146723 0.004161726 -0.009629764 -0.20183797 -0.06969088 -0.008158008 0.01849828 -0.1255108 0.0702403 0.17542839 -0.09879394 0.081786215 -0.07471868 0.12824264 0.23155028 0.15252784 -0.04635158 -0.15456615 0.008024753 0.24625371 0.010319011 -0.2345402 -0.061610322 -0.08463996
5 0.16176525 -0.026915401 0.1253199 -0.0057117078 -0.015486138 -0.039396808 -0.0282348 0.11605492 -0.013956214 0.032036044 0.0060619693 -0.17587516 -0.14636527 0.06686914 0.086277336 -0.23339893 -0.09034891 0.097660616 -0.14347206 -0.0603178 0.08594903 0.07845688 0.16896519 0.16915056 -0.04092018 0.17554192 0.008888583 0.13869548 0.19247186 -0.008164571 -0.2666152 0.15624017 -0.045471683 -0.079026535 -0.108217664 -0.18381085 0.20332623 0.15399182 0.23020792 0.04335512 -0.09404615 0.112129204 -0.08341807 -0.059010934 0.08555751 0.03524824 -0.15625603 -0.022038136 0.07360737 0.104451805 -0.19666307 -0.015241888 0.2138261 0.25182503 0.008858276 0.21866888 -0.057206027 -0.06820705 -0.10832616 0.10772151 0.15043122 -0.08744862 0.104667455 0.23566435 0.14203896 -0.050327484 -0.037171405 -0.08866807 -0.014636588 -0.13199326 0.0073735192 0.06343121 -0.07431798 -0.04784766 -0.023068048 -0.10127271 -0.15057613 0.21935812 -0.063501455 0.19785632 -0.07269715 -0.1137031 0.011530345 -0.03328693 -0.019215671 -0.037152525 0.18664588 0.050854277 0.13210098 0.19874768 -0.08096607 -0.10308317 -0.118002005 0.0058467467 0.07747879 -0.049309663 -0.19134532 -0.17480211 -0.030104483 0.05233655 -0.18670279 0.0063991603 -0.03092075 0.12883408 -0.089259535 0.0072243237 0.042536754 -0.19397242 -0.0831664 -0.025226297 0.06075186 -0.10982879 0.07400087 0.15070659 -0.056927033 0.059593387 -0.07268541 0.14580594 0.21830101 0.11611052 -0.04924297 -0.14870897 0.009242684 0.2302589 -0.016126072 -0.25115058 -0.067105815 -0.094071314
31 -0.022579707 -0.009868049 0.06839332 -0.087355435 -0.137606 -0.12473872 -0.057058595 0.0363156 -0.10296431 0.02640517 0.18029371 -0.09085925 0.0020100302 0.057539973 -0.017851843 -0.17094532 -0.017514555 -0.017386144 -0.13042703 -0.11321167 0.02706653 0.0053562415 -0.02463577 0.10061553 -0.079032004 0.07761798 -0.05048752 -0.00018862287 0.032619935 -0.08336273 -0.23736127 0.057198636 -0.09538162 -0.014966352 0.08676294 0.10928314 0.1366989 0.11063314 0.016932277 -0.018641043 -0.03655007 0.043684673 -0.07781232 0.06801538 0.093429245 -0.046558663 -0.026803026 -0.12099217 0.08842251 0.04631999 -0.00894194 0.07670945 0.06337819 -0.013684029 0.08172665 0.037625816 0.0912771 -0.00075750845 -0.062310673 0.051280487 0.104478955 -0.09213206 0.026511049 -0.00010717075 0.14168808 0.05196428 -0.036680594 -0.03277039 -0.026255563 -0.29091382 0.12751783 -0.1109995 -0.19440259 -0.14912184 0.096824005 -0.09559758 0.063351035 -0.13104056 0.10235984 0.11288741 -0.053846244 -0.11132623 0.17499575 0.17347632 -0.10689511 0.08482319 0.059024427 -0.07597195 0.11373234 0.051854316 -0.079057515 0.07316181 0.118475206 0.1587626 0.06293526 0.15387614 -0.28745425 -0.1890268 -0.002362375 -0.028717449 -0.21874414 0.04018545 0.009420364 0.102761626 0.07026599 -0.020136368 -0.02541803 -0.20022364 -0.03811769 -0.023038348 0.025812432 -0.036307853 0.17104268 0.049764518 -0.024034094 0.0566185 -0.021641238 0.13966891 0.06104158 0.06922083 0.08193725 -0.09351804 -0.04185068 0.0627844 -0.068321586 -0.1089019 -0.085170045 0.04309792
25 0.06062149 0.024234705 0.37494755 -0.07995722 0.05572316 -0.20109667 0.007473379 -0.027526718 0.036965046 -0.06768132 0.15742464 -0.17670608 0.036374196 0.0005426361 -0.0074294847 -0.07836284 0.07764155 -0.013230127 -0.023332126 0.10626756 0.14118066 0.11851049 0.1390544 0.022051675 -0.10818281 0.24386899 -0.019447332 0.13787511 0.12209879 -0.17585331 -0.269374 0.15967545 -0.15937401 0.07238273 0.031482004 0.058601122 0.10643244 0.13498016 -0.023473833 -0.00073263375 -0.22621138 0.10834908 0.013200147 -0.053770617 0.14776672 0.017422397 0.03560148 -0.11982775 0.041015986 0.21670155 -0.034004174 0.16734087 0.10501408 0.0806813 -0.06486351 0.029408667 0.11245831 0.110139735 -0.12245432 -0.09929166 0.10456152 -0.1186719 0.17688635 -0.10883877 0.25391966 -0.0071321954 0.10348132 -0.034566816 0.10002153 0.015115953 0.10630412 -0.048878074 -0.18451524 -0.09578501 0.14276017 -0.039112233 0.026124358 -0.052618463 -0.09918352 0.13953093 0.032422267 -0.1415233 0.08767465 0.14742994 0.027872741 -0.004638188 0.02519088 -0.16441317 -0.051020678 0.02605812 -0.025233109 -0.12668103 0.03568341 0.077481024 0.09811452 0.14336358 -0.27005818 -0.32237056 -0.0024678383 -0.1058324 -0.2723474 -0.06573464 0.0012017176 0.20605831 0.14265013 -0.07001128 0.0008224548 -0.21294582 -0.0509055 -0.038054384 -0.046333205 -0.09739926 0.13199636 -0.027087027 -0.021159565 -0.057492558 0.048549563 0.09382403 0.09122762 -0.00045492765 0.04245269 0.0132668875 0.018359916 0.025755942 0.07380088 -0.09039405 -0.14329232 0.12217333
29 0.0506142 -0.016262764 0.21788183 -0.107482195 -0.057223346 -0.13280264 -0.0042846627 0.0061835726 -0.06772113 -0.015007229 0.15015016 -0.11774426 -0.005370227 0.03703704 -0.013157499 -0.123129256 -0.018935863 -0.023929099 -0.08996797 -0.030539442 0.08205198 0.036073677 0.018178578 0.07808097 -0.08860518 0.12284845 -0.02681645 0.078369886 0.07155808 -0.077517495 -0.218069 0.073458955 -0.084285565 0.006074523 0.051520664 0.05488535 0.103230804 0.11893172 0.011131811 0.008395847 -0.08432487 0.048367422 -0.052023903 0.03685735 0.10369824 -0.015421796 0.018897878 -0.119002275 0.042431407 0.06825936 -0.01828066 0.079714485 0.051095784 0.012370541 0.0233799 0.024652747 0.107617974 0.0016464014 -0.07271826 -0.027053358 0.116687015 -0.10998978 0.07851825 -0.025704464 0.14134657 0.015327242 0.0007339234 -0.024757126 0.0036958796 -0.17896518 0.12006616 -0.079251446 -0.19492562 -0.10727209 0.10061795 -0.06952763 0.026023047 -0.100740135 0.0538213 0.109948896 -0.025657866 -0.12599051 0.14271867 0.13669892 -0.05724372 0.0589995 0.03949746 -0.10490844 0.08794997 0.058991883 -0.06429906 0.020120546 0.09116249 0.13903068 0.058172002 0.13707133 -0.27489418 -0.23291701 -0.012490602 -0.046217628 -0.2453358 0.037035722 -0.011149492 0.1193878 0.06947433 -0.022080032 -0.012644272 -0.24896905 -0.05143766 -0.018696127 0.0071902196 -0.062195316 0.14446147 0.018019598 0.005333267 0.018703038 0.012875969 0.14654028 0.08155671 0.046108354 0.07732168 -0.06008494 -0.04256048 0.103205755 -0.045957614 -0.12246618 -0.12085792 0.0621991
26 0.046695665 0.024598906 0.34604093 -0.055376124 -0.0050386004 -0.2116316 -0.0105310185 -0.010814899 0.040861227 -0.052048866 0.1642405 -0.1667595 0.041811496 0.018853344 -0.028261349 -0.076719135 0.08048667 -0.015884252 -0.0540018 0.06057815 0.13361004 0.11894502 0.117943846 0.0023242563 -0.12651144 0.20686355 -0.051272187 0.10815909 0.09098711 -0.17359738 -0.2683133 0.14527315 -0.16776423 0.06855918 0.046687 0.10397855 0.13123849 0.09889653 -0.011747652 -0.0019876633 -0.22604142 0.10649511 0.021436507 -0.057044245 0.13413098 -0.0030365735 0.017530348 -0.12887296 0.03458779 0.20755292 -0.008348424 0.13748543 0.07745467 0.04912513 -0.016671704 0.009715672 0.11461485 0.08819626 -0.1406789 -0.0674144 0.086764224 -0.105996475 0.13938726 -0.09806521 0.24488276 -0.0019351428 0.091608465 -0.023806207 0.08537834 -0.018448692 0.11125992 -0.020677306 -0.20627505 -0.1114127 0.15464118 -0.061451282 0.061933048 -0.06726261 -0.08079885 0.1197961 0.020920632 -0.120505475 0.12358294 0.14475521 0.01466123 0.000606296 0.034795217 -0.14732319 -0.03985693 0.035450056 -0.012202416 -0.11471731 0.03580721 0.078643695 0.1373592 0.1580087 -0.2775253 -0.33279052 0.002224496 -0.07845763 -0.23240495 -0.0453042 0.020980697 0.18165798 0.1425463 -0.07970245 -0.007905719 -0.16345485 -0.04123273 -0.031644773 -0.053992976 -0.091013715 0.14712213 0.012713797 -0.02013752 -0.007075727 0.043024324 0.10608794 0.0873202 0.0021543722 0.07026525 0.005320614 0.009951897 0.012440952 0.105657496 -0.07458797 -0.13474318 0.1274211
21 0.0019465426 0.022595774 0.086318456 -0.019930854 -0.07538031 -0.13754177 0.04199972 0.07651382 -0.0782434 0.058355264 0.1561051 -0.08459484 0.019757902 0.08925531 0.016311593 -0.07012974 0.0531403 -0.023001578 -0.13011764 0.013131508 0.06813454 0.043439325 -0.06142176 0.083986044 -0.14092618 0.045806285 -0.06213756 0.0736022 0.010807424 -0.08894901 -0.23582712 0.0198117 -0.07228166 -0.001839113 0.030840708 0.14030503 0.124747775 0.072234906 0.053931538 -0.008385626 -0.14764392 0.061756633 -0.030901212 0.013293192 0.08888062 -0.0116295 -0.024332063 -0.068064526 0.041251533 0.09610086 -0.024477864 0.07678683 0.09607489 -0.038420774 0.12452049 -0.009162222 0.10363394 -0.01720943 -0.07185591 0.01538619 0.06324479 -0.06464862 -0.011170722 -0.02604839 0.17702858 0.040057287 -0.029840332 0.016342625 -0.05275828 -0.23427022 0.1579953 -0.033790406 -0.22753164 -0.16693555 0.16224426 -0.1143201 0.072497495 -0.13375914 0.051399734 0.14124961 -0.049374796 -0.1339009 0.16620684 0.17062022 -0.08243149 0.046162292 0.07988684 -0.11993993 0.13610597 0.040824257 -0.019189443 -0.035750296 0.1013422 0.17081086 0.11418279 0.20408994 -0.3393844 -0.28091052 0.043141298 -0.04126856 -0.2608193 0.012270017 -0.0058543887 0.078986175 0.06564074 -0.0002649585 -0.012222297 -0.16142806 -0.050867885 -0.034151614 0.0007157522 -0.012241985 0.1917314 0.04391953 0.032296326 0.038060788 0.028017292 0.17374629 0.06696401 0.036152117 0.11877072 -0.06662737 -0.04546689 0.07404757 -0.008085754 -0.103637666 -0.029457135 0.07552259
27 -0.036783826 0.043796893 0.19804735 -0.033159193 -0.11684287 -0.19040777 0.056500647 0.05060783 -0.10012322 0.08530962 0.211834 -0.11690206 0.10076764 0.09375389 0.027220037 -0.080495305 0.07448558 -0.06816381 -0.11499969 0.0171913 0.015428737 0.045462497 -0.10610345 0.08582304 -0.1685052 0.061846502 -0.06700165 0.09618013 -0.03818245 -0.12938608 -0.26243034 0.028407862 -0.10053038 -0.009133827 0.088490225 0.21297464 0.10300042 0.066253334 -0.005733231 -0.03597811 -0.16890377 0.10134726 -0.052567847 0.05331722 0.13214344 -0.01586974 -0.039804503 -0.063262425 0.08856272 0.17795971 0.043897312 0.1585626 0.077118166 -0.1560396 0.10482963 -0.019754402 0.12129379 0.02995998 -0.060370363 0.068453155 -0.007701573 -0.033646334 0.0033259634 -0.045657273 0.18871753 0.06424683 -0.0046688225 -0.02509302 0.008662953 -0.202031 0.1450745 -0.023411456 -0.22392443 -0.19474916 0.20861281 -0.10793303 0.19439918 -0.15554596 0.05562927 0.12298903 -0.033904966 -0.090625204 0.16878264 0.1813622 -0.10556008 0.013841895 0.080785915 -0.121617675 0.085499905 -0.04136289 0.026455598 -0.062296834 0.14235412 0.17855681 0.103954986 0.2528837 -0.38010412 -0.33759722 0.04963815 -0.04243039 -0.27057117 -0.014177047 0.032166522 0.13628668 0.1414239 -0.0057637724 -0.020571783 -0.15165612 -0.029994864 0.015692325 0.009391288 -0.006466214 0.21464837 0.024587706 -0.039551597 0.055023342 0.04160899 0.14846255 0.04014421 0.081934094 0.158527 -0.039224017 -0.022633731 0.029400807 0.053533766 -0.062453154 -0.06026223 0.093949184
22 0.05354067 -0.065317534 0.11197111 -0.15086569 -0.14763923 -0.06924415 -0.11348331 0.025596438 -0.08165325 -0.024979586 0.099598944 -0.11391201 -0.08442903 0.040873587 -0.025643378 -0.28246194 -0.11236389 0.0327101 -0.1361687 -0.20730118 0.05431123 -0.0266809 0.10389946 0.13712521 -0.0025929972 0.14681421 -0.028677259 -0.036362354 0.17065871 -0.046347257 -0.23853932 0.15422148 -0.093753986 -0.04995674 0.056157168 -0.044866625 0.16925363 0.1448572 0.051566675 0.0022440767 0.08303677 0.079057455 -0.12528908 0.0642692 0.07744763 -0.04381795 -0.07778837 -0.15186463 0.11414055 -0.042841394 -0.051384807 0.0080536995 0.067690745 0.11441877 0.0008899015 0.15505722 0.012552467 0.0034766763 -0.06068463 0.053264648 0.16736647 -0.121880576 0.075536855 0.14098413 0.07329768 -0.0020813139 -0.042176016 -0.094365 0.017228637 -0.28118014 0.042652316 -0.11574189 -0.124006994 -0.07103863 -0.028063111 -0.05853092 -0.044894375 -0.0035894706 0.09586701 0.0918148 -0.04852792 -0.091123514 0.13192812 0.07832563 -0.055779688 0.07556476 0.062323164 0.0070579113 0.10456083 0.13840517 -0.14350608 0.1274087 0.035037603 0.071816735 0.011459434 -0.008493056 -0.15166683 -0.060222447 -0.05621765 0.026559217 -0.11956133 0.099136285 -0.0016023116 0.0955617 0.020220978 -0.014476108 -0.03130044 -0.22304547 -0.0019349698 -0.011866185 0.06999171 -0.09030085 0.07402989 0.071350716 -0.06516443 0.07755119 -0.056652766 0.10023582 0.12671925 0.09941297 -0.003259428 -0.13354714 -0.027974214 0.11210598 -0.13920039 -0.14141408 -0.14704487 -0.075283974
17 0.21155061 -0.031501647 -0.031155204 0.11238252 -0.020836605 -0.004734473 -0.045280933 0.22271322 0.027727118 0.080968164 -0.053063966 -0.1601587 -0.15266372 0.08776531 0.115297124 -0.21665025 -0.114936136 0.14485528 -0.19013475 -0.07495714 0.072821975 0.083746985 0.19751914 0.17941013 -0.036207788 0.10252439 0.0014170995 0.16103894 0.19215557 0.05522291 -0.28346708 0.13612232 0.02591688 -0.10137788 -0.15443186 -0.21330392 0.22471775 0.12151777 0.3403958 0.072574355 -0.14769733 0.081282824 -0.098192744 -0.11476236 0.08598761 0.045833107 -0.21528286 0.031384524 0.05209167 0.14393935 -0.28537345 -0.10286398 0.26730675 0.33364794 0.110793576 0.2583438 -0.11321191 -0.12603587 -0.17223784 0.17922838 0.10302621 -0.03089828 0.10455055 0.3316246 0.15381682 -0.04845237 -0.04201317 -0.06160085 -0.060296714 -0.21229693 0.009589524 0.16050729 -0.079640485 -0.08954905 -0.016260516 -0.16488872 -0.1509108 0.2877307 -0.093063 0.23641661 -0.11726145 -0.115303144 0.023337087 -0.04767255 -0.0066167177 -0.02802878 0.2612954 0.08290587 0.19428244 0.27151853 -0.057481658 -0.16583525 -0.11718777 0.020369032 0.16870774 -0.0033860803 -0.26734298 -0.25016654 0.080501676 0.06375022 -0.22996235 -0.022484088 -0.028916439 0.095277905 -0.18971471 -0.00549113 0.039026514 -0.12796652 -0.12252471 -0.053945255 0.0419621 -0.11268876 0.09626577 0.28452176 -0.05587409 0.10530747 -0.06875965 0.1954273 0.27748033 0.19111188 -0.040067054 -0.22916022 0.0072297994 0.27740383 0.037008706 -0.3246296 -0.02779335 -0.12249881
16 -0.012028621 -0.005262844 0.11138214 -0.07381434 -0.11036913 -0.15500362 0.01630189 0.052461267 -0.12158072 0.03235033 0.20033969 -0.10338135 -0.009300464 0.083089024 -0.009116841 -0.11803695 0.03066899 -0.0414023 -0.13118587 -0.04403429 0.060628098 0.014708588 -0.06524853 0.105242886 -0.119713 0.04801725 -0.05874926 0.05565913 0.007912288 -0.10372479 -0.23401052 0.030048361 -0.07772765 -0.014608192 0.071425214 0.1410034 0.12788263 0.087546095 0.0172623 -0.013812778 -0.089154474 0.061050177 -0.05061778 0.04882095 0.08594216 -0.037265636 0.004011965 -0.09694209 0.074650444 0.070415616 0.0026125186 0.086283214 0.06925383 -0.06943122 0.11320979 -0.013725948 0.12600756 -0.011562996 -0.057112716 0.020458672 0.10665902 -0.08996121 -0.0034067163 -0.04591804 0.1596173 0.047902364 -0.040684994 0.0047493097 -0.046795942 -0.24745135 0.17185935 -0.08655574 -0.2146212 -0.16582118 0.14256102 -0.10350753 0.07564974 -0.1730103 0.08875239 0.1216982 -0.028421164 -0.13755524 0.17106724 0.17780033 -0.09229015 0.08138831 0.061036885 -0.121070586 0.12201021 0.042578932 -0.03621491 0.03823061 0.13653722 0.176185 0.085255146 0.19334361 -0.33218944 -0.2531167 0.0034389193 -0.0367664 -0.24684012 0.043623373 -0.011656254 0.087530226 0.096395195 -0.0058558853 -0.025628489 -0.184922 -0.03930088 -0.04028278 0.011278164 -0.028285861 0.18575987 0.018396018 0.031051578 0.029067516 0.024573678 0.17533574 0.045023352 0.031043809 0.10875893 -0.06071362 -0.05894814 0.058016665 -0.0454109 -0.07595086 -0.05072693 0.07455178
10 0.055256706 -0.024299107 0.21507765 -0.14057143 -0.09070185 -0.11654395 -0.0268483 0.024553701 -0.08518321 0.012552006 0.13595429 -0.12726241 -0.015919825 0.06285991 -0.0038886936 -0.15844412 -0.039789353 -0.026035944 -0.10950984 -0.06273627 0.0631094 0.0014213755 -0.0016916502 0.10800718 -0.07175497 0.112398066 -0.038584962 0.048673976 0.098965466 -0.06578086 -0.21531838 0.10128486 -0.081517205 -0.011627711 0.06753105 0.04396803 0.12630478 0.112430625 0.018685553 0.018876966 -0.044020846 0.05580567 -0.07096476 0.057680994 0.08360927 -0.020429712 -0.010893357 -0.11529445 0.06018262 0.015124441 -0.01559256 0.06666227 0.03986107 -0.002788067 0.03453543 0.06347328 0.07956655 0.00813401 -0.055300858 0.0005864623 0.09411157 -0.10055679 0.05707792 0.03921956 0.11963592 0.028452188 -0.0032156303 -0.05178223 0.0017921859 -0.21235833 0.09408227 -0.06954689 -0.18489449 -0.09969022 0.091395445 -0.069489434 0.030537812 -0.08557175 0.08562206 0.08332216 -0.0395075 -0.11233496 0.1432271 0.104814254 -0.07044746 0.06831283 0.027961366 -0.064031884 0.08608475 0.06864545 -0.07010609 0.052526202 0.08754425 0.1261218 0.041648798 0.10367608 -0.25803366 -0.19202 -0.012145233 -0.012733453 -0.1988507 0.06944793 -0.017881742 0.10142564 0.065298714 0.0013253237 -0.027878325 -0.24551177 -0.023191078 -0.0034719368 0.029729955 -0.057027716 0.13093305 0.010373226 -0.0023349405 0.045971397 -0.009130043 0.13286331 0.0756194 0.06258275 0.089009196 -0.082199275 -0.042070314 0.10962832 -0.07245678 -0.09322823 -0.11735221 0.030953782
18 0.0636936 -0.069482006 0.1147449 -0.11549203 -0.09387052 -0.07288455 -0.10581529 0.034218743 -0.053081468 -0.02969366 0.08980888 -0.13953874 -0.099483214 0.05973601 -0.022185242 -0.28124803 -0.097504884 0.048213605 -0.14533164 -0.16320552 0.08191241 0.0035599913 0.1369746 0.13886528 -0.011339153 0.17883448 -0.02588663 -0.004934772 0.17584845 -0.064806364 -0.26436624 0.16778354 -0.09155427 -0.023865305 0.04574377 -0.057656378 0.16979195 0.13742527 0.06303055 0.02981411 0.008520733 0.09188407 -0.1090677 0.026099212 0.069977365 -0.035801966 -0.07571881 -0.12152424 0.10856762 -0.0102504995 -0.0877535 0.025913974 0.09952904 0.1500348 -0.016306449 0.1616947 0.006525761 0.006654053 -0.072500445 0.043234646 0.18093164 -0.13001762 0.10078161 0.13587183 0.108021535 -0.0016592374 -0.022342773 -0.07690267 0.013570756 -0.21826807 0.036605652 -0.09840979 -0.10540419 -0.070520595 -0.0115916645 -0.066711865 -0.07335332 0.029611291 0.03866408 0.09788575 -0.038625974 -0.11027994 0.10547404 0.07218092 -0.04130719 0.051063117 0.07656703 -0.00053076545 0.079072274 0.1590736 -0.11088268 0.08340884 0.0026285057 0.049637664 0.039735623 -0.019335352 -0.16388968 -0.09736317 -0.054752078 0.008614915 -0.12561035 0.05443763 -0.01807998 0.102770716 0.010476862 -0.015012355 -0.032363765 -0.20309268 -0.0059968554 -0.0246295 0.052409016 -0.10414093 0.08335011 0.069218904 -0.055133764 0.05713097 -0.059144508 0.098350056 0.13660495 0.0748959 -0.020799093 -0.12046933 -0.012626308 0.12723565 -0.10863778 -0.13698652 -0.13024943 -0.05512075
19 -0.019958178 0.0130386315 0.15841196 -0.08321822 -0.10241958 -0.14913203 0.018405102 0.036224104 -0.11006707 0.05925754 0.19637242 -0.11206641 0.040301915 0.08963072 -0.008714102 -0.10653672 0.024686644 -0.046387825 -0.12601714 -0.012855518 0.05411591 0.011425649 -0.08732573 0.09465485 -0.14890535 0.058329392 -0.06809966 0.06275256 -0.002896054 -0.09506987 -0.23209366 0.037252538 -0.08992746 -0.0068485695 0.08365144 0.14590944 0.106489345 0.089434355 0.008588092 -0.0164944 -0.11015862 0.06433543 -0.062437076 0.05160775 0.09031913 -0.022387085 -0.0035413068 -0.09668864 0.060781952 0.083124496 0.014975489 0.11188969 0.059485402 -0.08118119 0.08573547 -0.009104983 0.11368301 0.0069404137 -0.05724949 0.034136873 0.060681894 -0.07425123 0.009935635 -0.032636937 0.15313806 0.05704213 -0.03369268 -0.0085547445 -0.02343396 -0.23468858 0.13827983 -0.072473 -0.22232425 -0.16105278 0.16355966 -0.107984155 0.09861665 -0.16608015 0.08058436 0.11838704 -0.03941138 -0.11793521 0.18032171 0.16900718 -0.095820755 0.0549245 0.049416404 -0.11508542 0.10629961 0.0013975023 -0.027992234 0.0071242787 0.124288246 0.18012992 0.07126473 0.18875228 -0.32589775 -0.25684145 0.01109902 -0.04225907 -0.25553268 0.030365204 -0.010948979 0.09819934 0.09500626 0.008175377 -0.02235792 -0.19632113 -0.028254427 -0.015396572 0.009600591 -0.014847809 0.19511366 0.007505102 0.0103000635 0.036979195 0.026009643 0.15816249 0.045902956 0.051204305 0.13138632 -0.054117903 -0.041582532 0.07167401 -0.025838213 -0.06979433 -0.055363465 0.07543911
15 0.015614739 -0.0046626492 0.093464606 -0.05440948 -0.09360289 -0.12647894 0.008904418 0.06650363 -0.08089575 0.04613217 0.16437705 -0.08550527 -0.0014839421 0.068248324 -0.015760787 -0.093238175 0.0064829695 -0.0030421966 -0.13864909 -0.024192711 0.071435675 0.029311057 -0.03106108 0.08411011 -0.10799587 0.031819474 -0.06373515 0.061312716 0.01759304 -0.0585798 -0.2192005 0.023736848 -0.059549004 -0.0039958674 0.037942287 0.10097356 0.14279096 0.07975667 0.069116615 0.013275584 -0.0988902 0.034133177 -0.03641556 0.01105914 0.068995774 -0.016518837 -0.009012622 -0.090408556 0.040262204 0.050495297 -0.033487435 0.04239715 0.06493126 -0.0017195182 0.116258934 0.012579496 0.09890222 -0.051620357 -0.07881619 0.026002647 0.097793154 -0.0867162 0.005828805 -0.007864843 0.14783487 0.036275603 -0.031877603 0.0059963022 -0.062824145 -0.25831467 0.14968136 -0.060953066 -0.22492465 -0.14907692 0.1280175 -0.12629351 0.05538954 -0.13203311 0.07588492 0.1398923 -0.053954966 -0.124095276 0.17843634 0.16554207 -0.085488394 0.08963939 0.06943256 -0.09847335 0.14665939 0.07857207 -0.050194744 0.008281616 0.103031166 0.17568934 0.11491526 0.17829221 -0.34322447 -0.2594495 0.0241132 -0.025447933 -0.26637462 0.043004677 -0.0034538861 0.077852406 0.044124387 -0.005309114 -0.012382167 -0.19920655 -0.059148908 -0.052132044 0.004596514 -0.02660889 0.18451005 0.061546285 0.050885558 0.04438593 0.0157426 0.17989253 0.067678586 0.037341103 0.10267952 -0.09039229 -0.06276412 0.102494635 -0.042349886 -0.12760769 -0.066654354 0.061697025
13 0.091511115 -0.057403546 0.21752523 -0.21224618 -0.08864874 -0.0732879 -0.13723268 0.031389758 -0.043929987 -0.018497724 0.07594097 -0.16905114 -0.09303586 0.029145192 -0.024536427 -0.29180917 -0.14200373 0.054898653 -0.11979331 -0.1756225 0.07222657 -0.030274088 0.12772477 0.13335572 -0.01650682 0.17969935 -0.0031620215 0.0058999634 0.19259642 -0.00844058 -0.24718848 0.16895202 -0.11426598 -0.044539146 0.03296518 -0.09969688 0.15934968 0.18304703 0.07059498 -0.00038804088 0.07446314 0.080135554 -0.14573056 0.06409485 0.078831516 -0.033318043 -0.058145393 -0.17818414 0.081680894 -0.032300256 -0.07076306 0.03133261 0.06913762 0.1540193 -0.018904993 0.17686152 0.027956136 0.0065083294 -0.062193144 0.050503902 0.15978554 -0.11414613 0.13611317 0.14736952 0.077304505 -0.011942806 -0.026122898 -0.12900454 0.043118045 -0.1927942 0.0127149215 -0.08086766 -0.12417827 -0.031432632 -0.05569365 -0.072940536 -0.078208156 0.06664793 0.05031635 0.103952274 -0.04726251 -0.07830334 0.11668165 0.017226946 -0.02123043 0.036772817 0.069537535 0.015879035 0.06721839 0.12505938 -0.15104988 0.07101485 -0.044101972 0.041621607 -0.011562289 -0.055224735 -0.14503513 -0.07080573 -0.10158215 0.030867225 -0.116629206 0.1071842 -0.03962135 0.1331099 0.030767906 -0.0012446922 -0.032827377 -0.30596182 -0.032979265 0.006594066 0.05797152 -0.09426994 0.041737825 0.067341134 -0.0922723 0.082224645 -0.07972967 0.072873846 0.14871162 0.12867753 -0.02116503 -0.123956755 -0.01607197 0.16381462 -0.09011202 -0.15999381 -0.16340187 -0.044894155
23 -0.04018867 0.022526277 0.16190912 -0.08696126 -0.12835814 -0.16902405 0.0073227757 0.019991117 -0.0864883 0.03999898 0.21748902 -0.09512734 0.05915233 0.06744431 -0.01835246 -0.09071193 0.05674734 -0.050843447 -0.11373569 -0.021724384 0.043632593 0.029336048 -0.08177442 0.06185396 -0.14442827 0.06945464 -0.079850346 0.03810415 0.00063627114 -0.12324081 -0.23104052 0.03568863 -0.12518398 0.0012691236 0.09677505 0.19659425 0.11806131 0.073991895 -0.012381444 -0.025062542 -0.11685295 0.07108414 -0.035526883 0.042272586 0.107122794 -0.033639308 0.0030867455 -0.1241467 0.060974836 0.08963734 0.050443474 0.11854682 0.0465461 -0.1012848 0.101264246 -0.02355631 0.1350343 0.02517342 -0.06438172 0.00905678 0.05373708 -0.07868227 -0.0071341065 -0.063610576 0.17483144 0.06199794 -0.0034228526 -0.008138684 -0.0149155455 -0.23346621 0.15280636 -0.0869404 -0.24569814 -0.16196686 0.18178736 -0.099614844 0.13481683 -0.18050818 0.08992782 0.11122112 -0.028593276 -0.11211771 0.19384868 0.19309932 -0.090198375 0.06720905 0.032461375 -0.13050348 0.09043806 -0.0057170037 -0.03293931 0.015673673 0.13284859 0.17977571 0.09939909 0.21686578 -0.3365787 -0.27585015 0.012194165 -0.047297325 -0.24811503 0.025758665 0.016863812 0.11048043 0.1403278 -0.0135328835 -0.028723674 -0.19669351 -0.028810835 -0.022532249 0.011277828 -0.010618167 0.20247462 0.015073062 0.016921328 0.047468457 0.020266786 0.13656406 0.031277884 0.03910422 0.14415073 -0.0359533 -0.04367745 0.03305865 -0.0068360562 -0.07145899 -0.072573096 0.08623129
12 0.07589586 -0.052871104 0.13989319 -0.114308916 -0.07682666 -0.07862572 -0.06327912 0.03877925 -0.05736391 0.009767024 0.0856145 -0.16147144 -0.095484756 0.060757425 0.0060549187 -0.26323926 -0.091511816 0.043144003 -0.13432327 -0.1299387 0.08508789 0.0024974716 0.09871537 0.16403657 -0.048137978 0.16975968 -0.021237085 0.042003874 0.16540797 -0.039867304 -0.26493916 0.15345438 -0.07910558 -0.041259345 0.019719183 -0.056855813 0.16619143 0.14971861 0.0978113 0.019831227 -0.0031034285 0.108838335 -0.12579976 0.027204348 0.07076233 -0.012690411 -0.08629661 -0.10251395 0.08624396 0.0155301 -0.08758638 0.025221214 0.11666629 0.12306273 -0.004219083 0.15514557 0.002347285 -0.0031803392 -0.072268456 0.06115626 0.1526487 -0.104658514 0.09556048 0.14313212 0.10544785 -0.016286528 -0.042136066 -0.09318803 0.011573727 -0.20162572 0.033167623 -0.062744185 -0.11583467 -0.068520665 -0.013453961 -0.08251016 -0.07021763 0.053882148 0.025146173 0.116827674 -0.041360956 -0.10404721 0.083040446 0.043962657 -0.032431547 0.017276518 0.10221595 -0.011264293 0.09881701 0.13287301 -0.09615359 0.039352003 -0.01851633 0.051220518 0.032095693 -0.029192554 -0.17873321 -0.120887876 -0.060490694 0.015786162 -0.14429054 0.053004112 -0.030107474 0.10437813 0.011622322 -0.0025335692 -0.024488494 -0.21556607 -0.011401435 -0.0093010785 0.048111975 -0.09726794 0.08129804 0.05394501 -0.06956648 0.05763352 -0.05105018 0.118075415 0.13250497 0.09792003 -0.005878523 -0.11576213 -0.021895736 0.15835959 -0.09134049 -0.14081395 -0.10424907 -0.05234402
