34 64
1 0.12906876 -0.14020318 0.12501843 0.11235058 0.0118667055 -0.14773314 0.09264362 0.1476724 -0.27621117 0.022984061 0.188436 -0.15298176 -0.06101728 0.21840653 -0.06920351 0.17706619 -0.019736258 0.0077041597 -0.11444144 0.12504663 0.31201306 0.07714765 0.38096875 -0.041591473 0.11796569 0.13454805 -0.28659227 -0.12827668 -0.35111386 -0.2102551 -0.030831937 -0.0010413267 -0.15002741 -0.28056532 0.072744094 0.12547924 0.2377581 0.11965259 0.16724284 -0.0060590794 -0.04499034 0.2092888 -0.13361534 -0.28464758 -0.08313253 -0.048464462 0.0015894648 0.03678225 -0.006646911 0.23040058 -0.058289554 0.17137516 0.027744213 0.14151698 0.31221953 0.20356771 0.19793049 -0.16570674 -0.06474291 0.10941689 0.14409548 -0.1739376 -0.11309626 0.103623524
34 -0.13134228 0.18503264 0.17343445 0.1109335 -0.10844013 -0.19257924 0.095194235 0.05338629 -0.0386544 -0.17792702 0.10055883 0.09099992 0.30665115 -0.12604411 0.077858716 -0.07123121 -0.2019358 0.061521456 0.15512986 0.09755009 -0.056149375 0.021495935 0.3298693 -0.1843263 0.074630335 0.16242522 -0.08782003 0.05512708 0.2693272 -0.018666789 -0.17532396 0.1899439 -0.39980644 -0.32959163 0.1634326 0.2560726 -0.04009128 0.42752695 0.22322679 0.015129788 0.35672128 0.04145124 -0.11698995 -0.21370709 0.12860096 0.0887095 -0.00045062153 -0.302021 -0.12864277 0.18995856 0.1346076 0.1555135 0.14390026 0.18804061 0.19252883 0.1684837 0.14203659 -0.009552882 0.03756936 -0.2229701 -0.041728567 -0.14757076 -0.09966374 0.023863284
33 -0.095627 0.12807241 0.18415835 0.04049997 -0.02257306 -0.20570503 0.081702754 0.011968029 -0.05140476 -0.14402363 0.05242791 0.1417867 0.25876665 -0.15944895 0.04767144 -0.025534805 -0.209339 0.07503805 0.20369622 0.088303596 0.013717542 0.0102098975 0.34640765 -0.20048195 0.11725895 0.15936396 -0.08020818 0.073345624 0.34358898 0.031749807 -0.14829975 0.20794155 -0.37584025 -0.2746062 0.14499122 0.2007506 -0.023234142 0.44955102 0.2891818 -0.028494857 0.38581693 0.03651943 -0.061143227 -0.23469462 0.13764462 0.095040575 0.022940215 -0.365622 -0.1495209 0.11483148 0.15730335 0.079391286 0.109477684 0.18317862 0.19022039 0.11979359 0.08649447 -0.031722076 0.039804757 -0.31131485 -0.027476873 -0.20861498 -0.07468302 0.024803504
3 -0.028120222 -0.098350905 0.18360415 0.045183886 -0.038222294 -0.22470924 0.04429459 0.0962142 -0.23676962 -0.07819208 0.1686345 -0.0092921 0.17686865 -0.0019189395 0.07455352 -0.051514428 -0.040760014 0.031406745 -0.043444548 0.13211712 0.109915085 0.039200444 0.33519363 -0.14903817 0.1863057 0.08159215 -0.29063463 0.01357912 0.017730305 -0.10258519 -0.20115194 0.17457953 -0.18950835 -0.36210442 0.17598274 0.14024423 0.08960393 0.31794342 0.20105532 0.090235606 0.23112825 0.058796596 -0.14355808 -0.18916504 0.07824455 0.10184597 0.120949574 -0.11646278 -0.05205226 0.26586777 -0.008993788 0.2694361 0.04391432 0.091183916 0.17348783 0.22780022 0.1203513 -0.037209883 0.10142549 0.041687634 0.036739007 -0.11376038 -0.15811287 0.110363156
2 0.04119119 -0.262461 0.16659102 0.007588268 0.011852515 -0.2561742 0.09751995 0.11823247 -0.40597066 0.02767184 0.24356815 -0.06254768 0.0072902096 0.082626835 0.09660443 0.04086892 0.07707908 -0.009772961 -0.16912475 0.19570231 0.2629946 0.07881819 0.36378348 -0.08935706 0.27064922 0.03064462 -0.3922112 0.0036771332 -0.14265056 -0.1763548 -0.19958597 0.14423394 -0.085078984 -0.35935605 0.09199779 0.10074477 0.24183694 0.23341444 0.2282576 0.11730581 0.17590071 0.1250638 -0.099426165 -0.23666656 -0.019598268 0.09453565 0.17018172 -0.0052544 0.025645094 0.25754896 -0.053031 0.29081777 0.010410558 0.046929974 0.21772599 0.28216422 0.15399274 -0.1250859 0.099292815 0.16797052 0.14582202 -0.10854994 -0.19091392 0.22327818
4 0.05536027 -0.29650676 0.22580874 0.021161525 -0.035910286 -0.26413262 0.0684447 0.1421053 -0.4014843 -0.010691054 0.26251143 -0.098221466 0.026940318 0.08250611 0.07169117 0.0015778079 0.115511976 -0.01635086 -0.20276767 0.19819649 0.24947898 0.06959989 0.3819654 -0.10106426 0.27936456 0.031037148 -0.4211208 -0.011094443 -0.1907592 -0.18296202 -0.19169062 0.18149862 -0.09968248 -0.39140862 0.13257258 0.069029205 0.24563783 0.24409488 0.214515 0.14148597 0.1440081 0.12719643 -0.1282035 -0.20574404 0.032552704 0.06657805 0.20642011 0.040597126 0.014774103 0.31094632 -0.09392713 0.34005427 -0.03616155 0.06367318 0.19316834 0.28254917 0.15263383 -0.07173608 0.11170984 0.23666757 0.1309907 -0.08160883 -0.17235099 0.21216053
32 -0.20107487 0.27898625 0.16985078 0.19093142 -0.14723581 -0.1509314 0.053412326 0.032560915 0.12618262 -0.05135712 0.37541458 0.041239996 0.3444192 -0.12216234 -0.06911981 0.039808135 -0.15307242 0.13214464 0.10363509 0.20329238 -0.20234588 0.07755252 0.13062584 -0.04124438 -0.23137684 0.22624458 -0.14607902 -0.14051846 -0.14936095 -0.105393544 -0.14428692 -0.04450443 -0.53607136 -0.2849404 0.2157444 0.29184988 -0.008265125 0.035543922 0.19488986 -0.06384327 0.06835998 0.28304252 -0.16245146 -0.25171024 0.15000528 0.036845256 -0.20728227 -0.17511396 -0.0117589915 0.17861219 0.304133 0.11078521 0.122366935 0.07902039 0.27124333 0.19997853 0.10498036 -0.008742458 0.0013752562 -0.01569319 -0.06349585 -0.0819638 -0.046361137 0.08304773
14 0.05980091 -0.15018801 0.17434992 0.052194335 0.025134835 -0.22167115 0.048787326 0.0747236 -0.27889732 -0.04497385 0.14499772 -0.058459453 0.09439741 0.053170417 0.033185862 0.073945254 -0.06334257 0.027593177 -0.025984164 0.15590742 0.19561328 0.069448784 0.355922 -0.06986606 0.16848496 0.10789981 -0.26152536 -0.033761263 -0.08615092 -0.10498983 -0.10915669 0.08072409 -0.20586075 -0.3280019 0.13994566 0.10871338 0.14271076 0.22005066 0.23776023 0.076111965 0.13122737 0.10008717 -0.09222946 -0.23457207 0.016071262 0.045702517 0.1120357 -0.11923052 -0.021119371 0.23359258 0.0022842 0.19810098 0.011299932 0.11956447 0.2165237 0.22991452 0.11994084 -0.09580946 0.039371353 0.051272288 0.09056445 -0.17612976 -0.13073373 0.1243842
24 -0.2693733 0.3109717 0.1945897 0.123040505 -0.18574634 -0.21321078 0.07376271 -0.0009240879 0.10594021 -0.09917926 0.3266279 0.14913277 0.4183508 -0.23294953 0.06318575 -0.07172106 -0.18191428 0.1425207 0.18107465 0.15691815 -0.27519694 0.03246752 0.16334517 -0.06696374 -0.122813545 0.17621402 -0.06993135 -0.00980395 0.17259201 -0.032424975 -0.25977454 0.06157333 -0.5582865 -0.33452922 0.19293189 0.2926331 -0.08422541 0.20889 0.25340208 -0.048745807 0.28023872 0.2201868 -0.16511558 -0.26500028 0.22348374 0.10815141 -0.14884323 -0.29801896 -0.02703086 0.17097965 0.34108192 0.09801494 0.13530989 0.09174377 0.2378879 0.2236232 0.07109824 0.010255048 0.06788492 -0.09747398 -0.09511406 -0.048426993 -0.07205672 0.08922351
9 -0.07051757 0.08994304 0.154614 0.105309784 -0.038559977 -0.19217066 0.10512607 0.041743983 -0.1090086 -0.11645633 0.10348913 0.052360933 0.19261451 -0.041360594 0.074776046 0.026595559 -0.17101468 0.044998657 0.117245 0.10340858 0.045517787 0.02918248 0.32114053 -0.14437374 0.10663981 0.1361738 -0.122241214 0.021970171 0.1308535 -0.050306283 -0.12649158 0.12200702 -0.3167886 -0.29538852 0.12762997 0.20301965 0.03742661 0.34689698 0.20067048 -0.006546525 0.27143303 0.096702844 -0.09721209 -0.2497621 0.06688717 0.060452424 0.016502488 -0.22145556 -0.07972492 0.17109835 0.10227338 0.104600675 0.09730214 0.16120788 0.23168236 0.1762654 0.12738155 -0.06445676 -0.01222648 -0.13667943 0.0033928638 -0.17711572 -0.10835047 0.027474888
8 0.075828224 -0.24447596 0.20420802 0.0080249775 -0.0023156432 -0.2521526 0.046858545 0.10679052 -0.3820375 -0.047698557 0.17997298 -0.10177202 0.07518007 0.07675014 0.06056304 -0.026807914 0.016818658 -0.00023938427 -0.1283346 0.13726394 0.22536658 0.061343472 0.40427127 -0.094820686 0.24964795 0.059645236 -0.37602827 0.0039402363 -0.10381156 -0.1432057 -0.18671992 0.19999573 -0.12880726 -0.36493748 0.14316075 0.075874425 0.218269 0.28928834 0.20577396 0.15837596 0.18988198 0.062222406 -0.14787748 -0.20697904 0.016461484 0.07605988 0.20467772 -0.06192275 -0.016613923 0.32405314 -0.1041585 0.32102317 -0.020426944 0.09104385 0.19391666 0.2898371 0.18248671 -0.09567843 0.08268736 0.1648772 0.13741188 -0.12783983 -0.16479346 0.19059107
28 -0.21792236 0.24009652 0.16905549 0.12787649 -0.18365294 -0.18876292 0.066421576 0.044329133 0.061784875 -0.04852086 0.34842405 0.040718056 0.35884038 -0.15472981 -0.018765476 -0.048273034 -0.08960898 0.12904398 0.0781131 0.17874727 -0.23920916 0.08990228 0.12629953 -0.031065531 -0.17718323 0.18780729 -0.17970558 -0.06804812 -0.061090097 -0.106510326 -0.21049808 0.040189143 -0.5190471 -0.31536704 0.17273775 0.2899758 0.03106006 0.10078346 0.1881631 -0.017631017 0.1499594 0.2147362 -0.17647167 -0.23008244 0.20023154 0.09803909 -0.16177535 -0.17856847 0.017362671 0.21462205 0.23471792 0.2163885 0.08794097 0.07144622 0.23592763 0.23332618 0.12548436 0.02444519 0.05375125 0.031046018 -0.056806706 -0.015838126 -0.08719982 0.15720512
6 0.2960814 -0.17868668 0.108964495 0.18027349 0.19333668 -0.035232656 0.08440645 0.17364533 -0.23204571 0.07807067 0.11229404 -0.2711959 -0.25774193 0.39515927 -0.34828773 0.52617335 -0.1204247 -0.005316497 -0.061601598 0.17477773 0.57860416 0.09989265 0.5640297 -0.06116765 0.02284936 0.3834321 -0.26750287 -0.36422458 -0.7109699 -0.34370917 0.25786683 -0.19706015 -0.30247393 -0.2335127 0.0651495 0.22518215 0.31229037 0.041132767 0.22573876 -0.221919 -0.27168757 0.35541916 -0.13629223 -0.4243208 -0.13933256 -0.19210058 -0.123535626 0.017757218 -0.09253136 0.12784852 -0.059181165 0.03267536 0.063159816 0.31559938 0.48265246 0.10277538 0.18301602 -0.2721161 -0.23344429 -0.07680085 0.22307429 -0.34913123 0.0049892464 0.12385186
7 0.28243846 -0.04996192 0.10475017 0.21507794 0.16934985 -0.011675872 0.0740452 0.14545912 -0.1493845 0.050356038 0.0530248 -0.20773745 -0.15578541 0.36267468 -0.33060962 0.5039655 -0.22714059 0.041318137 0.017318873 0.12912764 0.48891804 0.072976716 0.5432498 -0.07823773 -0.022946423 0.40317523 -0.16848704 -0.3790887 -0.6055342 -0.30505416 0.27998114 -0.22708541 -0.36978218 -0.24324289 0.08798352 0.24632782 0.18917216 0.059901215 0.196201 -0.2092979 -0.21680565 0.334895 -0.1551131 -0.40266395 -0.15222776 -0.19705069 -0.2009812 -0.09074051 -0.117309324 0.095733605 0.033602215 -0.012870305 0.1102318 0.33453482 0.4626129 0.094778486 0.14424641 -0.24983782 -0.25789472 -0.13722348 0.19042574 -0.36953747 0.018353479 0.0854442
31 -0.07951445 0.05550909 0.16272724 0.059652656 -0.06064356 -0.21042614 0.078167975 0.058247305 -0.15380354 -0.10105636 0.11472986 0.07077593 0.21012312 -0.099333465 0.11058502 -0.024652783 -0.12061583 0.034534615 0.059291545 0.13178937 0.028744455 0.030992797 0.3123649 -0.1470783 0.13577233 0.12054629 -0.16409256 0.050731454 0.19249588 -0.047539502 -0.20053634 0.17876418 -0.2954007 -0.32577154 0.14526968 0.19725242 0.055053923 0.36700583 0.217423 0.04801367 0.29993147 0.05975027 -0.07584545 -0.19948779 0.09293081 0.11300233 0.055507593 -0.22287536 -0.07564595 0.18286121 0.10367868 0.16571683 0.10130939 0.1360781 0.173215 0.2030406 0.12958948 -0.023503438 0.05418302 -0.12052774 -0.005211458 -0.146588 -0.113296345 0.076978214
30 -0.23742053 0.34219077 0.200062 0.122723475 -0.18396428 -0.21257064 0.08859023 -0.0107023595 0.08377281 -0.17032547 0.20547399 0.14622979 0.3914858 -0.23840085 0.107778385 -0.07439042 -0.21807425 0.0755228 0.20902759 0.134411 -0.18522093 0.036392204 0.24076311 -0.11287926 -0.041962203 0.16292319 -0.0572584 0.058079947 0.31326815 0.015022928 -0.28449842 0.14620188 -0.52406967 -0.32751635 0.18511768 0.29218274 -0.09533716 0.38182187 0.29070368 -0.03029295 0.36427143 0.12124038 -0.09748186 -0.29252025 0.18113206 0.11526938 -0.10532135 -0.3177379 -0.09343573 0.11979896 0.2781447 0.09798514 0.181321 0.14285347 0.23879834 0.20701073 0.13883702 0.022472972 0.047067925 -0.25613567 -0.1257618 -0.10749585 -0.061500005 0.019619716
25 -0.32359013 0.41111076 0.17426717 0.21546029 -0.23528045 -0.14558674 0.08570161 0.027094664 0.22423458 -0.031985115 0.5247523 0.07922158 0.4513934 -0.19983798 -0.036516897 -0.011216229 -0.11679223 0.14154655 0.09128189 0.24854578 -0.39292213 0.076691896 0.034591734 -0.012438385 -0.33706084 0.20478123 -0.14637749 -0.13426483 -0.15869883 -0.11019344 -0.23021972 -0.040284853 -0.63519156 -0.33763978 0.22293632 0.3499793 -0.037871115 -0.018433796 0.17865841 -0.07724924 0.06753011 0.36025503 -0.21670268 -0.29640493 0.23000155 0.06319086 -0.2825359 -0.13783152 0.033503745 0.23823328 0.3910441 0.16473404 0.13865355 0.0014220836 0.278164 0.2542193 0.14218467 0.0479979 0.056732945 0.058873292 -0.14273742 0.025455626 -0.06964388 0.11418248
29 -0.09601727 0.09058533 0.21993811 0.10377897 -0.09778817 -0.19221273 0.060261395 0.047739465 -0.03842894 -0.10015428 0.24269633 0.024388079 0.28346658 -0.08053096 0.042661328 0.002751412 -0.09347238 0.045018688 0.051008586 0.16279091 -0.049662225 0.046990875 0.26937264 -0.09592763 0.030590432 0.11679384 -0.1548676 -0.014605892 0.031764794 -0.083576776 -0.18667513 0.086098045 -0.3644567 -0.34193167 0.16165493 0.16786155 0.018913066 0.20782815 0.20618895 0.032496873 0.21646252 0.14388376 -0.13393696 -0.24716729 0.13634086 0.095994234 0.010780869 -0.1669038 -0.039146148 0.20605808 0.12047546 0.1590889 0.029556384 0.09319083 0.2077609 0.21824189 0.099171504 -0.01944841 0.08096 -0.024250414 -0.017262638 -0.06822801 -0.07813667 0.086876296
5 0.31608778 -0.19202778 0.11115581 0.1486384 0.16940406 -0.073806666 0.057294507 0.15737902 -0.2626094 0.047231257 0.084213965 -0.23916487 -0.19814712 0.39420578 -0.25312966 0.4425619 -0.15032238 0.024937028 -0.06980508 0.14625944 0.55017954 0.08653598 0.5542797 -0.052558824 0.07745699 0.3145433 -0.26895073 -0.31674367 -0.57827663 -0.26915443 0.17542434 -0.15138346 -0.21637829 -0.26175973 0.07200983 0.14520067 0.27779827 0.09214388 0.22381052 -0.12751924 -0.21024723 0.29238376 -0.13315417 -0.38910815 -0.17131317 -0.16636704 -0.08161683 -0.03281826 -0.08407653 0.15743093 -0.05612781 0.044255085 0.05139395 0.2866521 0.4252144 0.16940805 0.18574062 -0.27188337 -0.20524031 -0.030279014 0.20343299 -0.34150976 -0.051613104 0.08063656
11 0.34242782 -0.20874311 0.11125773 0.1355452 0.22885033 -0.06592436 0.041345302 0.16999209 -0.27919793 0.06730217 -0.02774418 -0.19152987 -0.2103323 0.40237716 -0.31281105 0.4715119 -0.19211751 0.04209025 -0.029142955 0.09359951 0.59409875 0.03791705 0.6072439 -0.09137612 0.11078314 0.35528988 -0.24999379 -0.34218904 -0.5531726 -0.2934809 0.26483434 -0.15486345 -0.2486386 -0.23212408 0.116392784 0.15536013 0.23548344 0.115821436 0.2470104 -0.15194637 -0.17796172 0.26694196 -0.10780518 -0.35381904 -0.20469287 -0.19432771 -0.062427502 -0.09210831 -0.13362165 0.13004173 -0.03639689 0.010607342 0.07266892 0.31732312 0.43440264 0.14301088 0.14493646 -0.28419736 -0.22256023 -0.11379141 0.24362436 -0.42236263 -0.038540415 0.09219538
26 -0.3662988 0.44987142 0.17810322 0.22875321 -0.28516254 -0.1729586 0.08638488 0.012439007 0.23174503 -0.051006313 0.52913547 0.070123315 0.5105508 -0.2472446 -0.05591376 -0.054409456 -0.0915544 0.18544908 0.13940723 0.2563501 -0.46241087 0.09914865 0.012336924 -0.0060825353 -0.37678155 0.20141988 -0.16740784 -0.15729266 -0.15171759 -0.11798293 -0.25819996 -0.015767423 -0.7133991 -0.3469286 0.26177898 0.38505217 -0.0356529 -0.014122884 0.18982196 -0.0857217 0.10029531 0.35707226 -0.21486792 -0.26503897 0.28438038 0.09569188 -0.3268311 -0.19436926 0.037489593 0.26635563 0.39885554 0.20888221 0.15243539 0.0061486014 0.3010067 0.24633692 0.10110168 0.08844845 0.07430745 0.049383875 -0.14907163 0.030609092 -0.044927653 0.143843
20 0.03381927 -0.11103832 0.16166784 0.05801351 0.0009921272 -0.19942257 0.06642978 0.09466507 -0.24471028 -0.038031783 0.162536 -0.05580581 0.08914354 0.047602434 -0.0027356348 0.06894189 -0.02724019 0.027240431 -0.03765279 0.15184669 0.19712937 0.05223711 0.38278335 -0.079059035 0.15718672 0.1096923 -0.267347 -0.040380117 -0.12233858 -0.12801495 -0.104252875 0.13589022 -0.21427748 -0.29347822 0.12029652 0.12287142 0.15708493 0.22397014 0.2255245 0.05293587 0.13888201 0.13424686 -0.1061682 -0.2289146 0.018671539 0.031215832 0.09332402 -0.06471751 -0.03864901 0.226215 -0.028793355 0.19821815 0.04417845 0.11518919 0.21457557 0.23640205 0.1622167 -0.073347494 0.030468045 0.0143554 0.10321998 -0.13456006 -0.09129461 0.14697896
13 0.07908737 -0.22722693 0.19217637 0.013788789 -0.022041125 -0.26126748 0.04386708 0.13693197 -0.3324173 -0.014352972 0.2487472 -0.10376628 0.061101194 0.104724124 0.020074913 0.021323234 0.023525348 0.03390833 -0.119609214 0.16697156 0.25012824 0.0566467 0.36235186 -0.060319677 0.19267614 0.056937844 -0.38432634 -0.057650436 -0.18113905 -0.14662495 -0.16451702 0.1467686 -0.13113448 -0.3432934 0.1461006 0.096745886 0.22541286 0.21042362 0.21974881 0.107112125 0.101123944 0.1504124 -0.13455826 -0.23620072 0.0060353535 0.02891671 0.12410294 -0.023430362 0.019029157 0.31360978 -0.064396314 0.29132053 -0.007737216 0.072971284 0.241542 0.29768765 0.1814173 -0.098462954 0.07053173 0.16269657 0.13620615 -0.12637004 -0.16139212 0.16360013
22 0.08927256 -0.18746664 0.14474161 0.039779134 0.030846227 -0.1797675 0.06911384 0.13797624 -0.31910738 0.025976852 0.20639761 -0.13333425 0.005157319 0.1175656 -0.040563922 0.105474636 0.03232567 -0.0037818335 -0.11313504 0.16099434 0.2650567 0.07996746 0.38108483 -0.071693175 0.14803626 0.1373931 -0.35992387 -0.0738125 -0.2918994 -0.18876897 -0.078342944 0.121856816 -0.18417451 -0.3007006 0.100079484 0.12896824 0.23331149 0.18006855 0.19324492 0.02664473 0.0387813 0.1742347 -0.13328058 -0.23956764 -0.027742598 0.017193154 0.08636866 0.020108482 -0.021934766 0.2656553 -0.07374511 0.23975313 0.011194391 0.10401403 0.23886326 0.24871656 0.18158668 -0.12367628 0.007833585 0.100003086 0.14942655 -0.11453655 -0.11722002 0.20655657
18 0.11282771 -0.23805745 0.15455954 0.055159863 0.05885187 -0.21647616 0.050189767 0.14178678 -0.33866248 0.04068935 0.19414163 -0.12377557 -0.0002926437 0.115893796 -0.05200761 0.105716355 0.025377408 0.036689542 -0.12098959 0.17668407 0.30075666 0.06322744 0.41678873 -0.060132287 0.17821734 0.12749173 -0.37756774 -0.099987924 -0.26745632 -0.20700842 -0.079247005 0.10821831 -0.16828614 -0.30499044 0.115661904 0.11588217 0.24902076 0.16688359 0.23213314 0.06526055 0.061431702 0.17129439 -0.12884143 -0.2546193 -0.043024715 0.0038058585 0.09876465 -0.015432038 -0.023212431 0.27439475 -0.05565606 0.2277716 0.022827366 0.12306521 0.25427258 0.25959903 0.15445882 -0.15363908 0.0106357 0.13261278 0.17679387 -0.15346737 -0.12267295 0.21331057
17 0.41097173 -0.18781246 0.106253855 0.1956575 0.3150053 0.0022030254 0.06686047 0.17256154 -0.21819033 0.047123767 -0.08815226 -0.25017154 -0.29617035 0.4732084 -0.40264088 0.6461352 -0.30485043 0.015017712 0.029076027 0.07828619 0.7240534 0.08497637 0.6940873 -0.114776574 0.083269335 0.48356065 -0.15183857 -0.4151459 -0.62189907 -0.3116435 0.38075927 -0.24252036 -0.3003994 -0.2350024 0.059931483 0.22666214 0.25115776 0.13481244 0.23870598 -0.28930786 -0.22944339 0.29436448 -0.12876499 -0.43485132 -0.20869525 -0.2399686 -0.16838628 -0.145387 -0.16018339 0.044660397 -0.0362921 -0.11236646 0.10369926 0.42647955 0.503159 0.056882933 0.13303569 -0.36367443 -0.3447434 -0.2650538 0.25289398 -0.48184603 0.02471981 0.06431886
23 -0.17626938 0.22523944 0.1345895 0.1346491 -0.09046431 -0.18522431 0.11983517 0.022853136 -0.0096058715 -0.12350757 0.15093407 0.10142351 0.31759015 -0.17306252 0.12922707 -0.023358313 -0.1991217 0.049698655 0.14680581 0.11159883 -0.098216966 0.05263834 0.2413038 -0.1454908 0.019478997 0.14707729 -0.07008893 0.05942999 0.272859 0.0012266419 -0.23366144 0.13295782 -0.4307174 -0.31600738 0.13851376 0.28093946 -0.02066317 0.38093907 0.26718774 -0.04614909 0.33672306 0.09013246 -0.06168153 -0.25233516 0.12187795 0.10193253 -0.057386648 -0.29794085 -0.07328184 0.12240239 0.23916782 0.07112393 0.16614354 0.1366916 0.23224138 0.1573227 0.14102091 -0.026507573 0.0047264555 -0.22724688 -0.08303189 -0.16135986 -0.10667313 0.008264235
10 -0.097372815 0.030659633 0.1991147 0.0560047 -0.11120179 -0.24625416 0.094887964 0.06578903 -0.18214625 -0.103644304 0.17215762 0.053748976 0.25419 -0.12978633 0.15104833 -0.05940413 -0.080669776 0.017975383 0.04013517 0.13597412 0.0008443416 0.044770487 0.32711977 -0.11449847 0.17851022 0.07398574 -0.16349743 0.08514446 0.21681991 -0.033799365 -0.24195078 0.21210419 -0.3015557 -0.36425674 0.12708142 0.17009251 0.06372666 0.37349135 0.2321047 0.08680866 0.3445677 0.039554965 -0.09360686 -0.22807375 0.12958455 0.1473885 0.114083566 -0.18998481 -0.048602547 0.2341248 0.09123325 0.2219048 0.05097436 0.13266501 0.1716404 0.22508083 0.14716235 -0.006629455 0.11209795 -0.054362215 0.011396357 -0.095009044 -0.11172769 0.1014077
15 -0.10687522 0.21393698 0.1676905 0.13744332 -0.051863838 -0.16581416 0.09180624 -0.010366182 0.044664387 -0.14677924 0.06188856 0.115516275 0.29903433 -0.13750365 0.067881584 0.06375081 -0.2733626 0.058656577 0.19338903 0.08778203 -0.038084444 0.05185091 0.30207598 -0.15449151 0.030478528 0.20277683 0.00010230348 0.023669692 0.27096996 -0.0052120127 -0.14864379 0.06646369 -0.42699176 -0.297128 0.1326756 0.2615849 -0.049917202 0.36218086 0.2724177 -0.06520245 0.2988953 0.084500566 -0.07240622 -0.26902786 0.12060839 0.09030991 -0.053585235 -0.35690638 -0.12352159 0.075989656 0.23914061 0.02789507 0.13807386 0.18995944 0.21678002 0.1293302 0.0992236 -0.038272016 -0.033388153 -0.28965268 -0.07822226 -0.20307654 -0.059808813 -0.0008994717
19 -0.14204098 0.22106259 0.1758015 0.13684486 -0.089410454 -0.17698283 0.118700534 0.030942712 -0.020227367 -0.12818243 0.11856969 0.111196995 0.3108908 -0.12866086 0.12764516 -0.0016859082 -0.2299588 0.06266301 0.19086915 0.10191351 -0.054725803 0.061805293 0.27825493 -0.15676555 0.03441239 0.1548376 -0.050225753 0.06308105 0.29925102 -0.00032352388 -0.20491467 0.10856465 -0.42117327 -0.33591145 0.16043255 0.25375888 -0.026350819 0.4062915 0.269271 -0.017138273 0.33671415 0.06969831 -0.067365564 -0.26789483 0.12351282 0.121425666 -0.029786943 -0.30643752 -0.11615797 0.13790125 0.21876656 0.06448759 0.15178518 0.1659496 0.237348 0.16975948 0.14594258 -0.025260871 0.0051693893 -0.24389328 -0.054687243 -0.19588819 -0.10279769 -0.020989
16 -0.16124159 0.2692639 0.14598262 0.103400715 -0.08078827 -0.17859536 0.086609975 -0.018404603 0.035945904 -0.16311312 0.027200153 0.1530356 0.3456102 -0.19427317 0.10712861 -0.0026082199 -0.2990538 0.055502836 0.23447469 0.07621667 -0.07398417 0.033378404 0.31425416 -0.17671764 0.06130038 0.1830608 0.00032227449 0.06980491 0.42330587 0.04910777 -0.2086403 0.14471671 -0.4614357 -0.31244487 0.16135661 0.28317034 -0.091298245 0.47520015 0.2889885 -0.04166615 0.4056302 0.016471902 -0.05433133 -0.25226054 0.1381245 0.12876798 -0.040981986 -0.40069455 -0.1572613 0.07504003 0.2288226 0.036251206 0.18238296 0.19291425 0.19024777 0.14158751 0.1122087 0.00048073474 -0.0012883772 -0.36627337 -0.10882718 -0.20435129 -0.07473781 -0.029005863
21 -0.11738114 0.1529381 0.15414083 0.07421237 -0.05531917 -0.20974311 0.09865677 0.022834292 -0.07181158 -0.114645615 0.04267971 0.11390143 0.24925385 -0.13228996 0.13320741 0.016923076 -0.21746245 0.05246587 0.17122829 0.111005835 0.0005286891 0.03802077 0.3188815 -0.17667137 0.13049941 0.15877886 -0.048699267 0.07526569 0.3488819 0.015542293 -0.18481474 0.14247303 -0.38596022 -0.30389088 0.12307812 0.24550053 -0.035534084 0.4561775 0.25534832 -0.018933583 0.37692854 0.03394357 -0.050854396 -0.24534158 0.1059841 0.10919995 0.006924877 -0.34079528 -0.120343864 0.10170155 0.17875504 0.06559504 0.15378328 0.20194098 0.20025155 0.15060431 0.1045104 -0.033865727 -0.0011728387 -0.2674139 -0.055841587 -0.20493522 -0.11050969 0.0033839568
27 -0.14032878 0.22398762 0.20090422 0.07592679 -0.101999216 -0.22605066 0.074598715 0.019090263 -0.0013729343 -0.16859736 0.06994983 0.12014199 0.3510765 -0.16639228 0.13958596 -0.073591836 -0.25307193 0.07951348 0.18198206 0.07944812 -0.06597562 0.021306165 0.32273233 -0.15601467 0.06466581 0.14147672 -0.033822615 0.117224984 0.374252 0.034889314 -0.24584924 0.16070965 -0.44164976 -0.3292745 0.14580916 0.23057319 -0.08768469 0.45568267 0.29330245 0.0060540945 0.38598973 0.055133823 -0.10343427 -0.25085035 0.14415258 0.15380345 0.018559735 -0.35367334 -0.1127457 0.12491213 0.17106733 0.09705962 0.13462995 0.18468097 0.21706109 0.20258088 0.09749645 0.00982204 0.02575869 -0.25197625 -0.07356822 -0.13873897 -0.08320019 0.030279458
12 0.17953253 -0.21330847 0.12899193 0.055429667 0.07486939 -0.17396583 0.03851195 0.14395444 -0.30593795 0.02524215 0.16085494 -0.1399538 -0.04580882 0.22441728 -0.10895472 0.18373656 -0.0031839118 0.035970796 -0.10546577 0.14049618 0.35794428 0.046471007 0.41003004 -0.07355951 0.1369885 0.11872067 -0.33956262 -0.16976722 -0.35952008 -0.20103666 -0.009784452 0.012892532 -0.15424399 -0.29500636 0.12271703 0.08800325 0.21200797 0.118921965 0.21419625 0.038709138 -0.05423582 0.1959777 -0.13385697 -0.27623752 -0.075949445 -0.043617275 0.03320699 -0.0145127475 -0.030365955 0.25191623 -0.07973564 0.20738816 0.015820017 0.12722495 0.3009486 0.23199748 0.14930442 -0.143781 -0.018475933 0.12163138 0.1607526 -0.20925337 -0.11016623 0.12628461
