34 100
34 -0.026896643 0.040152114 -0.054310437 0.13150139 -0.054279298 -0.01035904 0.11111281 0.08786723 -0.073975615 -0.0066175135 0.1023535 -0.043801304 0.04304208 0.10711398 -0.026507068 -0.10570792 0.2508561 -0.0012795171 -0.15048864 -0.3181491 0.12945807 0.036241695 0.19116789 0.08043707 -0.0014744157 -0.02396465 -0.038657665 0.13233335 -0.15781163 -0.03397806 0.12980086 -0.049017742 0.12962495 -0.21103264 -0.10259935 -0.07913741 0.10772546 -0.017975349 -0.09460877 -0.020042304 -0.08234302 -0.018953532 -0.019174028 0.063795544 0.14593755 -0.07932013 -0.17918296 -0.028750282 0.1323885 0.101560876 -0.028982036 0.008998103 -0.060541015 -0.07723859 -0.1456266 -0.090790994 0.15025747 -0.058944628 -0.109800704 0.09860354 0.10100412 -0.11809759 0.21338148 0.01942068 -0.17890112 0.12977701 -0.024821313 0.18273279 -0.12516247 0.0946188 0.06626583 0.16737682 0.030132411 -0.025426665 0.1751368 0.03961654 0.19312942 0.23394836 -0.088393964 -0.14462212 -0.16283512 -0.1677012 -0.077165395 0.1811611 -0.14065257 -0.06853418 0.1702038 -0.039624907 -0.036250602 0.06816157 0.05602204 0.085008994 0.05551183 -0.040344067 0.26923758 -0.02666488 0.086782716 -0.11310205 0.008163789 0.08870763
1 -0.05349863 0.100140356 0.10471507 0.00617297 -0.049404044 -0.06256123 0.048329905 0.2673325 -0.0043265596 -0.22001861 -0.023409523 -0.16704807 0.035955776 0.05932057 0.051557787 -0.013223988 0.2416039 -0.021348357 0.0092323115 -0.3067304 0.023483654 -0.03986937 0.1360427 -0.03453453 -0.15922576 0.10480037 -0.09505919 0.1247412 -0.0024401238 0.1881897 0.19012113 -0.18584388 0.013656608 -0.26542822 -0.058612052 0.10550817 0.18587585 -0.025146797 -0.12795736 0.15024313 0.17924659 -0.09241017 -0.07633081 0.122671165 0.115292564 -0.1483728 -0.0074773207 -0.20091814 0.016144907 0.04889499 0.09443241 -0.120595895 0.013947299 -0.017499099 -0.115740925 0.1003235 0.12216553 0.07948609 0.04587756 0.11480394 -0.06911632 -0.15810964 0.1569612 0.0677452 -0.049194526 0.17975707 0.06826804 0.040848915 -0.06025465 0.11182443 -0.00070964755 0.033510115 0.14643581 0.08749911 0.13654274 0.07534336 0.053542662 0.13333425 -0.025066482 -0.030255819 -0.23268417 -0.032562047 0.0043793153 0.07881633 -0.10950381 -0.05937113 0.08661283 -0.048437987 0.053890068 0.047856722 0.07651255 0.017962134 -0.0035680528 -0.15999053 0.10704339 -0.0483176 0.16698623 -0.0017119072 0.11738634 0.093756676
33 -0.08872837 0.06770359 -0.060034707 0.13265759 -0.0030689393 0.041940324 0.10924085 0.07689928 -0.115417376 0.039128996 0.073401906 -0.06668561 0.1316559 0.14196697 -0.0038070302 -0.117157355 0.2921029 0.047206916 -0.24112646 -0.33983153 0.11182401 0.046447903 0.16230753 0.042181417 0.026167875 -0.044601887 0.029203065 0.121180035 -0.18382293 -0.04057958 0.1530433 -0.01867437 0.08912524 -0.16792727 -0.11090031 -0.09640528 0.109444804 -0.018279007 -0.074328385 -0.013963598 -0.1282444 -0.011693907 0.04877825 0.08301086 0.20141454 -0.043309342 -0.18821771 -0.034769807 0.14998707 0.049221452 -0.008284857 0.049009904 -0.076138474 -0.1352181 -0.19829512 -0.093037054 0.15753163 -0.017834814 -0.12824519 0.07531212 0.17768067 -0.13654895 0.20087583 0.037061866 -0.19725858 0.11205123 -0.036334485 0.16222246 -0.11925005 0.16658108 0.048167557 0.13736096 0.0038645891 -0.00583492 0.12846166 0.028654233 0.2525623 0.2356759 -0.09486082 -0.10853143 -0.12553634 -0.19901194 -0.16225474 0.1737182 -0.1372056 -0.045352664 0.109485134 -0.040079802 -0.018288983 0.067299284 0.03438073 0.09452257 0.08005837 -0.05413375 0.24341063 -0.025488064 0.13163333 -0.119813845 -0.0031661103 0.033041824
3 -0.04707203 0.113972954 -0.02119735 0.08465418 0.0041343826 -0.02628462 0.056288905 0.14149652 -0.018269084 -0.13368978 0.058863457 -0.10815684 0.03736731 0.019100567 0.07160387 -0.065283924 0.14778203 -0.05733777 -0.085690305 -0.17702241 0.055724923 -0.027307883 0.17395946 0.063167974 -0.12546271 0.016779197 -0.010832586 0.15961854 -0.013721609 0.040725764 0.12985344 -0.19431573 0.018507695 -0.24734223 -0.051048543 0.02860447 0.21619192 0.0069098836 -0.14704525 0.111519545 0.05724983 -0.036450356 -0.054334775 0.093066536 0.15394336 -0.02881111 -0.03769851 -0.060875833 0.052076913 0.062799856 0.090243325 -0.09411762 0.024003316 -0.03945186 -0.22275037 0.012173897 0.15245232 0.049098298 -0.044067275 -0.005815551 0.046411578 -0.07886749 0.20665862 0.019727232 -0.12785707 0.16944477 0.042956214 0.2345331 -0.1368899 0.14038217 0.012901 0.118402205 0.17348887 0.097091265 0.0935936 0.061538436 0.037723474 0.25371647 -0.08749128 -0.09907204 -0.28848842 -0.14508894 -0.04164551 0.004197508 -0.09865496 -0.091569446 0.108758666 -0.0560685 -0.0046869223 0.0075783907 0.0944663 0.058175836 -0.07374529 -0.058169305 0.26053324 -0.05744424 0.11484046 -0.08684717 0.010286199 0.074124545
2 -0.091839306 0.09551676 -0.01388046 0.07946438 -0.06611691 -0.021279192 0.089914985 0.20632683 -0.04828617 -0.15396138 -0.015526872 -0.10333787 -0.06047867 0.08107463 0.037243545 -0.04911919 0.1507156 -0.044748705 0.011192168 -0.22018026 0.029975787 -0.043714836 0.20377238 0.07206886 -0.14241564 0.026530666 -0.0242817 0.14206079 -0.043251775 0.12569642 0.20995298 -0.21183097 0.034340817 -0.30609834 -0.056567017 0.024000088 0.15274106 0.03207584 -0.12517652 0.13229385 0.14569643 -0.09490183 -0.14518954 0.1081829 0.18568167 -0.11041207 -0.015568271 -0.13078466 0.069300205 0.048225854 0.08132745 -0.11771178 0.092642516 -0.004281055 -0.17109874 0.092601396 0.14108115 0.013742477 -0.020985447 0.028497491 -0.0072469525 -0.13801087 0.16993682 0.035995997 -0.08392469 0.15448537 0.08940244 0.16363601 -0.08759019 0.1704934 -0.00043630597 0.08121594 0.16281404 0.062445883 0.13861446 0.08902574 -0.00085181254 0.1871352 -0.0173642 -0.12791145 -0.2270699 -0.15900132 0.010340293 -0.0055679153 -0.05325424 -0.11803952 0.07818942 -0.05282984 -0.0064314865 0.032309048 0.0794471 -0.010289408 -0.06833967 -0.15373226 0.11564348 -0.04285233 0.16134922 -0.03744451 0.11687009 0.10642898
4 -0.09637633 0.10666767 -0.011343667 0.06285711 -0.05994307 -0.014909685 0.07644598 0.20135395 -0.030204423 -0.17294605 -0.0064479033 -0.11738653 -0.033059716 0.03342458 0.044211496 -0.06626039 0.11711628 -0.06942533 -0.021494158 -0.19592747 0.0010483082 -0.03645128 0.19326928 0.067384794 -0.17185862 -0.0021869335 0.019578975 0.13239755 -0.026526585 0.12050458 0.18703328 -0.24105473 0.008532021 -0.29655045 -0.07018654 0.043558072 0.196435 0.033454727 -0.13289794 0.13925827 0.14953902 -0.08632204 -0.12891702 0.09667729 0.20184274 -0.09489386 -0.003628418 -0.10756649 0.057914436 0.054326378 0.1039823 -0.12216758 0.11566671 -0.002617793 -0.21893197 0.08892211 0.15706147 0.03513509 -0.047776923 -0.010682624 0.032191906 -0.11994727 0.18891326 0.01661402 -0.09790022 0.16321205 0.075286165 0.18243049 -0.11103907 0.16396284 0.009925259 0.09060215 0.19977419 0.08537414 0.112830676 0.099456556 0.004615601 0.20746279 -0.04492092 -0.09772305 -0.22372499 -0.1766807 -0.027437035 -0.03354719 -0.06370403 -0.122758 0.045044385 -0.038327895 0.003080231 0.05455626 0.0939804 0.01904305 -0.096266545 -0.14570515 0.18104696 -0.040629316 0.16088843 -0.0627318 0.11145329 0.06266653
32 0.14026643 0.11419626 -0.010470243 0.17721148 0.0052976985 0.019191105 0.13746302 0.11612643 -0.051491093 -0.030102795 0.14335501 -0.104540505 0.10311543 0.084468424 -0.008373675 -0.035871286 0.22846334 0.042134423 -0.056270536 -0.19051355 0.13361958 -0.02968673 0.12025037 -0.0100118555 -0.029846808 0.06896243 -0.10991117 0.043877322 0.07550637 -0.10649219 0.24574639 -0.17175326 0.14504546 -0.22442769 -0.091563396 -0.16620998 0.16134807 0.030787827 -0.08647251 -0.109904066 -0.02125008 -0.09167294 0.08819312 0.097703435 0.01867433 -0.025751183 -0.17931254 -0.13179292 0.032876927 0.04070778 -0.03251373 -0.0999417 -0.1370145 -0.029267047 -0.1242441 -0.07788603 0.15051877 -0.04929676 -0.07691104 -0.0066292747 -0.020586807 -0.028200667 0.22156145 0.14823338 -0.2134285 0.25561494 -0.00064517977 0.19676802 -0.16274203 0.08576366 0.020640416 0.081043154 0.18497024 0.051456187 0.17750575 -0.071952455 0.11664006 0.25216562 -0.15512206 -0.07730585 -0.25733647 -0.22490956 -0.029322287 0.1254781 -0.049544454 -0.038096376 0.20466928 -0.07296413 -0.10421748 -0.005883279 0.14202097 0.01000557 0.07262431 0.061484076 0.17760584 0.02084384 0.1514111 0.019156035 -0.026606403 0.128454
14 -0.053408746 0.09138718 0.010570051 0.06424027 -0.021335537 -0.02549115 0.06191143 0.16690288 -0.043418463 -0.17067212 0.019795457 -0.11934812 0.028454194 0.049919255 0.06835204 -0.05663896 0.16902055 -0.032919053 -0.081879735 -0.22779833 0.032793183 -0.026363054 0.16946113 0.029180322 -0.121376395 0.022898331 0.0010083101 0.15804754 -0.041739505 0.10168043 0.11856666 -0.15977015 -0.0082743475 -0.2524667 -0.057225924 0.043454167 0.1776896 -0.010227361 -0.13694318 0.1269497 0.09673668 -0.053147707 -0.06270804 0.088031895 0.18394966 -0.042923868 -0.028949445 -0.078458555 0.05484236 0.053828705 0.093458086 -0.08994782 0.054788917 -0.042238723 -0.21863003 0.041265417 0.12746246 0.05573911 -0.04498582 0.017470647 0.05132467 -0.116218045 0.16368806 0.029696845 -0.10021388 0.18241142 0.048984706 0.18795542 -0.12095715 0.16085418 0.0063281646 0.10650169 0.15910558 0.09016166 0.09638166 0.08330083 0.06582522 0.22412008 -0.054152884 -0.086366065 -0.25140768 -0.13433975 -0.06488409 -0.0045980127 -0.09093895 -0.09161421 0.095545195 -0.050450217 0.019793801 0.029418858 0.085611686 0.040500768 -0.0855609 -0.09432251 0.21048611 -0.05852875 0.12684529 -0.09815684 0.052228507 0.070744224
24 -0.002002673 0.09351317 -0.023420133 0.17346 0.009156799 0.028625371 0.13120686 0.066301525 -0.104024954 0.008463441 0.117761865 -0.09093787 0.1399157 0.1041326 0.016586272 -0.058673847 0.27169162 -0.018176308 -0.14951661 -0.23809354 0.16325107 0.035850566 0.19459346 0.03295953 0.035896525 0.05373037 -0.09584331 0.08283412 -0.011233304 -0.0951201 0.21036902 -0.082439706 0.13811514 -0.20040473 -0.056893207 -0.13093896 0.14079295 0.028547753 -0.05945524 -0.08004471 -0.10104065 -0.027228074 0.09213912 0.06400848 0.06704964 -0.044706475 -0.22719559 -0.021739429 0.07671946 0.03215212 -0.035904966 -0.0134133985 -0.13568227 -0.07064596 -0.13086657 -0.10829926 0.1596873 -0.006933301 -0.050550576 0.025026634 0.046012424 -0.081443176 0.24826936 0.12940605 -0.21912318 0.15580808 -0.030142605 0.20014071 -0.15396681 0.116396606 0.029595802 0.114296526 0.08773581 0.041213274 0.13531087 -0.08894976 0.124520764 0.22605747 -0.15518677 -0.09131563 -0.23664024 -0.21985178 -0.036370575 0.17177881 -0.09986908 -0.022599043 0.18974508 -0.015257255 -0.10175479 0.0100288 0.10647411 0.06970654 0.069447435 0.026274275 0.22694811 0.023786727 0.12610143 -0.056187768 -0.035785284 0.10280513
9 -0.10049477 0.07638496 -0.009058643 0.079769306 -0.035850156 -0.009434826 0.07702472 0.14880782 -0.035730217 -0.0961489 0.033830002 -0.106668495 0.03651505 0.06846691 0.008851471 -0.0790439 0.21124814 -0.05612888 -0.09299469 -0.2720953 0.040961914 0.019315468 0.18317643 0.054375634 -0.11633585 -0.013471112 -0.01316843 0.1471851 -0.10190657 0.08509189 0.14964242 -0.13374615 0.048599143 -0.19780582 -0.10656695 0.033102226 0.14369456 -0.007471049 -0.12632412 0.097193755 0.048154756 -0.022926176 -0.074296206 0.09110486 0.19092631 -0.08386619 -0.07743768 -0.100149944 0.0921257 0.07739155 0.053730812 -0.05160774 0.037372496 -0.06921276 -0.18668558 0.016297122 0.13995376 0.03362292 -0.0326292 0.06076363 0.056918353 -0.14670262 0.19600245 0.004061618 -0.13966805 0.110321976 -0.0009153333 0.13211742 -0.09853554 0.13120641 0.035404447 0.12284983 0.098119505 0.03448346 0.11327602 0.05776668 0.11236071 0.1707261 -0.06259838 -0.0947849 -0.17768188 -0.12602459 -0.073308825 0.09073558 -0.10834311 -0.0970078 0.055855647 -0.041644983 0.024005141 0.06518415 0.04753222 0.061557822 -0.025804844 -0.11727918 0.20021443 -0.054477915 0.12823324 -0.06896346 0.08034663 0.05303238
6 0.079651386 0.11494455 0.24788047 -0.15166615 -0.09551701 -0.14776048 -0.018467523 0.38904917 0.03826911 -0.3694421 -0.04171705 -0.25331488 0.07970476 -0.004626658 0.06483395 0.03159955 0.33458772 0.00856015 0.10857033 -0.4540754 -0.024345148 -0.031665973 0.09184968 -0.11211323 -0.21313895 0.24833675 -0.2503677 0.07075509 0.12442302 0.30323437 0.14492261 -0.20652802 0.069139384 -0.25846124 -0.07324196 0.20060025 0.17742123 -0.07557926 -0.15759851 0.092712015 0.23956157 -0.124887 -0.05507176 0.22529665 -0.029797316 -0.25679117 -0.04331081 -0.3320847 -0.09679787 0.031834662 0.06144634 -0.18990317 -0.09247048 -0.017479334 -0.0065310113 0.10247449 0.0645581 0.07521008 0.1929441 0.22400841 -0.23429555 -0.22481784 0.21345596 0.16420762 -0.012202251 0.2545141 0.056615278 -0.08886853 -0.06578372 -0.0039978824 -0.003516244 0.043186277 0.14701635 0.13261618 0.18128066 0.15627065 0.08220765 0.015313004 -0.050799944 0.08154804 -0.21284589 0.120319106 0.10863445 0.18384579 -0.14826995 0.030785497 0.117831126 -0.02627907 0.122006446 0.0671531 0.14836772 0.047961332 0.056773037 -0.11872306 0.010483206 -0.058534242 0.20183995 0.09208044 0.18305048 0.11560142
8 -0.061836205 0.09648101 0.035913203 0.025108147 -0.05343151 -0.050454002 0.05149946 0.24294879 -0.020056227 -0.22399367 -0.01795355 -0.14321521 -0.03021606 0.053849895 0.06594648 -0.038154967 0.16822183 -0.057319906 0.011924755 -0.25524485 -0.009849295 -0.052497223 0.17051095 0.0068758945 -0.18833634 0.034595583 -0.032515656 0.16445623 -0.016002197 0.18899018 0.15910031 -0.23312756 -0.011347555 -0.2821109 -0.077813014 0.11236286 0.18412378 -0.002625832 -0.15331274 0.17838413 0.1962292 -0.08000348 -0.14061385 0.123410985 0.17992656 -0.099226475 0.017195377 -0.16447145 0.027794534 0.071605235 0.11543206 -0.1498705 0.09888137 -0.003949669 -0.18760984 0.10964381 0.14150606 0.07126511 0.013092736 0.048402913 -0.0388051 -0.16171944 0.16137595 0.015059699 -0.071601965 0.19055167 0.09047848 0.11784466 -0.08882036 0.15673687 -0.00638241 0.08522603 0.1821498 0.09279176 0.12189361 0.1172152 0.015090706 0.17268701 -0.025862884 -0.078554995 -0.24357702 -0.08138035 -0.0148074385 -0.013403674 -0.07032357 -0.105797976 0.04952128 -0.072568014 0.050840408 0.05521432 0.07527932 0.01564481 -0.10046851 -0.16404891 0.13544963 -0.063109934 0.15067877 -0.041015517 0.13077651 0.09417147
7 0.039385036 0.109065734 0.25492695 -0.16636851 -0.09913686 -0.12751922 0.0075179897 0.39192575 0.068650976 -0.36094573 -0.06868295 -0.24996424 0.04442077 -0.011321964 0.02782391 -0.020143587 0.32144827 -0.020051086 0.1146727 -0.46492076 -0.031092098 -0.009629441 0.09337731 -0.056742474 -0.23487753 0.22304265 -0.24521948 0.075763285 0.070348606 0.32848194 0.118146025 -0.20279226 0.06305139 -0.281664 -0.09737241 0.20065022 0.15393001 -0.077012196 -0.15719357 0.107490875 0.24169938 -0.11419265 -0.087868005 0.2207495 -0.003473184 -0.31170812 -0.03018072 -0.34325677 -0.072950505 0.062166616 0.07255036 -0.18287821 -0.037554022 -0.0387822 0.0045781923 0.1168523 0.07209732 0.07318972 0.18928601 0.25068715 -0.22624648 -0.26279852 0.22188286 0.13605002 -0.00442459 0.21831104 0.062022984 -0.084560074 -0.067846455 -0.0195485 0.024422975 0.04675794 0.14382693 0.09618537 0.18854938 0.16778892 0.08835699 0.0067980993 -0.047623686 0.059836917 -0.21282175 0.12897412 0.100915305 0.19936273 -0.1544088 0.01393731 0.12831138 -0.0155691095 0.122570194 0.0879879 0.13490112 0.04882194 0.06622208 -0.16852924 0.037223935 -0.05765092 0.19184256 0.089085594 0.21305695 0.11638638
30 -0.090783 0.07128655 -0.07097958 0.15291327 -0.018790832 0.01618121 0.10613698 0.035624977 -0.12332368 0.0534218 0.09735842 -0.051153354 0.13215768 0.11843976 -0.008288985 -0.09174669 0.33717287 -6.1675164e-05 -0.2172446 -0.33083674 0.1679483 0.07827617 0.20961358 0.057765834 0.06761057 0.004852372 -0.08248759 0.092935696 -0.1409992 -0.061337657 0.1890263 0.022008603 0.15503895 -0.17341761 -0.07540101 -0.127099 0.08771052 0.025436956 -0.04524764 -0.077460505 -0.1714388 -0.010707271 0.0979835 0.072714545 0.121564284 -0.099083446 -0.25713903 -0.0016638712 0.15945034 0.045781028 -0.050367206 0.064330146 -0.12953205 -0.124123245 -0.15183578 -0.11723314 0.16420029 -0.010011159 -0.0825954 0.11607489 0.14769131 -0.12069044 0.26374656 0.10177603 -0.20407645 0.088477895 -0.042730223 0.156687 -0.11425766 0.10591097 0.05361831 0.13070138 -0.03691905 -0.002725743 0.17031428 -0.026008368 0.20492198 0.2184603 -0.11672181 -0.11192264 -0.13625568 -0.18808503 -0.08272588 0.25887352 -0.14425124 -0.020115511 0.16404068 0.033408396 -0.05550133 0.046592798 0.08083601 0.11658171 0.11472544 -0.027107362 0.24376577 -0.022354 0.13607764 -0.10595662 -0.03896415 0.07446535
28 0.06138102 0.14500259 -0.03204642 0.16191378 0.048657794 0.025305234 0.10527834 0.095150635 -0.08260391 -0.043147948 0.11810134 -0.13000977 0.119646266 0.05783685 0.047881786 -0.0410555 0.22565058 0.0007696152 -0.108745515 -0.16774616 0.14808992 -0.012773578 0.14968896 0.003701127 -0.0009413798 0.0662266 -0.078588255 0.09111638 0.093726374 -0.10638094 0.20877141 -0.1781614 0.10631331 -0.24745607 -0.054451324 -0.16753489 0.210534 0.0733812 -0.063460976 -0.059401155 -0.05225209 -0.06250477 0.10370096 0.10822018 0.047014922 0.018987864 -0.17750171 -0.027245574 0.05079508 0.018503428 0.0076065473 -0.06094283 -0.09947774 -0.045927193 -0.1845433 -0.0881423 0.17683141 0.0069169328 -0.06539655 -0.03819348 0.03702739 -0.011264406 0.24329926 0.1596693 -0.20705144 0.23835315 0.031227477 0.26660833 -0.17650937 0.15080072 0.0074157184 0.09007757 0.19830148 0.07774794 0.123601444 -0.06974562 0.09826177 0.2852672 -0.16035657 -0.08776617 -0.31343922 -0.26600856 -0.039216526 0.06169303 -0.048363164 -0.026235512 0.17711177 -0.033094656 -0.11241797 -0.03812945 0.18268998 0.058023363 0.038652133 0.08711108 0.23680386 0.009012437 0.13330741 -0.018516526 -0.06763607 0.1235177
20 -0.115637794 0.08673112 0.013900499 0.071750164 -0.042007517 -0.017149778 0.080718726 0.19482914 -0.06610154 -0.100695424 -0.011327964 -0.13566025 0.04816149 0.1150261 0.0194762 -0.046571977 0.25125626 -0.020342875 -0.053145807 -0.29434034 0.04801043 0.016479174 0.16051945 0.008872951 -0.10262384 0.042522073 -0.054347184 0.109573826 -0.061850954 0.105781555 0.20934099 -0.13014375 0.05548642 -0.21528532 -0.07673855 0.03783686 0.13680199 0.00081843545 -0.10266878 0.09267604 0.08039463 -0.08083178 -0.038058862 0.12310878 0.1718162 -0.123505354 -0.103507936 -0.16260657 0.08933395 0.013507218 0.03602544 -0.060770143 0.015281479 -0.052873172 -0.13446179 0.07198162 0.15510596 0.05944217 0.024758253 0.10878428 0.017800635 -0.17607172 0.1792197 0.07834122 -0.08598948 0.10378164 0.02088921 0.076006085 -0.051366687 0.14744613 0.00091828767 0.040666785 0.081952535 0.048533387 0.14310454 0.043597084 0.08115202 0.12861596 -0.04125614 -0.069122255 -0.16480945 -0.1044051 -0.03813179 0.11937048 -0.08861357 -0.04259915 0.049041275 -0.0188507 0.03013593 0.05991108 0.05215367 0.0341287 0.013845275 -0.15614873 0.07783966 -0.02460829 0.18734145 -0.015851112 0.10442654 0.07235552
29 -0.042444937 0.098967955 -0.010868504 0.11011885 0.010317026 0.014077887 0.08178204 0.12968731 -0.06383735 -0.04994429 0.052104168 -0.12389015 0.097328775 0.08707477 0.018794473 -0.056183033 0.22932033 -0.009969891 -0.11563876 -0.24552031 0.09703418 0.012406148 0.153498 0.029423814 -0.044027064 0.03609768 -0.042836793 0.086451076 -0.021593787 -0.0053309835 0.20038693 -0.13574511 0.08548157 -0.20641294 -0.06986058 -0.055767644 0.15840521 0.025046524 -0.08344094 -0.0034741675 -0.024252042 -0.053867567 0.02646926 0.11631211 0.12009291 -0.0566808 -0.13490507 -0.08971315 0.08396096 0.0339199 0.02365125 -0.044317935 -0.049095675 -0.06661224 -0.16226938 -0.020143833 0.14780319 0.019159885 -0.04357464 0.03521141 0.058593307 -0.0818088 0.21107253 0.09330081 -0.16666971 0.15352026 0.0048670922 0.17271598 -0.10988573 0.1499562 0.029902559 0.09344999 0.12032726 0.05739154 0.12975092 -0.009491946 0.123715475 0.20630169 -0.09694529 -0.080528304 -0.21816665 -0.19146097 -0.068643324 0.10365806 -0.09499378 -0.043250054 0.097799875 -0.040563148 -0.034786142 0.020180553 0.11308248 0.06385357 0.046703354 -0.03322333 0.1854128 -0.015050904 0.13987666 -0.037262674 0.0067814267 0.07450367
11 -0.0034625053 0.105825536 0.1988839 -0.14088589 -0.08919219 -0.12393489 0.0136267925 0.3691975 0.03660019 -0.3261464 -0.08084657 -0.22713782 0.0488068 0.032628093 0.040069 -0.0062869317 0.33630884 -0.01821393 0.077262565 -0.46804535 0.0008989942 -0.003268495 0.10183016 -0.07900518 -0.20515448 0.17819467 -0.19772999 0.07910334 0.025123147 0.31254753 0.13733624 -0.17482246 0.03202423 -0.29489315 -0.08799128 0.21305472 0.14307497 -0.05093122 -0.13627483 0.11494795 0.23940308 -0.111003846 -0.06711235 0.19865341 0.07081436 -0.26721117 -0.053885907 -0.30728564 -0.018628657 0.056402337 0.076398 -0.12241639 -0.0014751957 -0.05222421 -0.00912245 0.11241827 0.088683054 0.094389446 0.1435848 0.23752105 -0.15938406 -0.2540753 0.17318553 0.12190391 0.023377689 0.18884894 0.07341608 -0.067710295 -0.024570232 0.025431685 0.007490924 0.013287468 0.10860941 0.0935425 0.18922694 0.14707947 0.10193921 0.04518059 -0.0055097123 0.03944273 -0.1944615 0.09349909 0.067278035 0.16559736 -0.13196716 0.00809542 0.11405341 -0.00616464 0.11311002 0.08345975 0.11093566 0.05899424 0.06121485 -0.19347692 0.03687041 -0.059879944 0.1566606 0.06501162 0.19185527 0.113948375
26 0.11958205 0.11101735 -0.040165715 0.2019681 0.048704647 0.018212093 0.13111435 0.095899 -0.117848806 0.02227422 0.13775696 -0.13392586 0.16859837 0.115499906 0.018312644 -0.044156373 0.2850827 0.060801327 -0.10531933 -0.20219186 0.19562581 -0.0007333186 0.09605245 -0.036048394 0.06552477 0.07178992 -0.14443977 0.04981828 0.09542259 -0.19318236 0.27500802 -0.13159494 0.1609483 -0.1966394 -0.07033367 -0.24533656 0.18282337 0.08696701 -0.019859888 -0.17077085 -0.12623435 -0.09240997 0.17912002 0.12119674 -0.022890275 -0.0079914 -0.26951206 -0.050099313 0.08798818 0.002020807 -0.07052536 -0.041320488 -0.18464544 -0.04430132 -0.1116279 -0.102197155 0.1781068 -0.036579315 -0.05528541 0.013222121 0.033868212 0.026456602 0.2601627 0.21179679 -0.23783389 0.2444909 -0.0049197897 0.23314138 -0.15945286 0.11108944 0.034535382 0.069640994 0.15509239 0.03026868 0.19195662 -0.11235703 0.15033185 0.27296036 -0.18787757 -0.09424071 -0.26883146 -0.2679162 -0.045066077 0.1848249 -0.03632545 0.014970984 0.19278888 -0.019972173 -0.121283315 -0.026236229 0.18723042 0.051226925 0.14698952 0.13498707 0.20974022 0.05596928 0.1558376 0.019364497 -0.080783755 0.121414535
5 0.021667833 0.09494015 0.19209026 -0.1231618 -0.11691657 -0.116437435 0.026176943 0.36453155 0.043259654 -0.32562503 -0.072166815 -0.22103219 0.04315445 0.035657052 0.032126985 0.016888408 0.3364944 -0.028527563 0.098000266 -0.44351092 -0.009920062 -0.003149659 0.09892243 -0.07065271 -0.22793 0.19556269 -0.20597221 0.059265614 0.057938375 0.30541188 0.16214539 -0.20128341 0.05967923 -0.27917174 -0.11050053 0.21481986 0.14271702 -0.06180469 -0.15523456 0.10711159 0.24795869 -0.0970987 -0.07524908 0.20949304 0.052440275 -0.24817584 -0.057741977 -0.3399215 -0.027019434 0.05126292 0.0400468 -0.15988398 -0.037268084 -0.03801428 -0.00025434885 0.13480093 0.0925784 0.07889867 0.17635942 0.22313505 -0.18561232 -0.25397635 0.18331009 0.122025765 -0.0010597588 0.1968705 0.036467507 -0.07530279 -0.03465599 0.017409448 0.005677936 0.023317471 0.12921794 0.08487291 0.18380657 0.12608913 0.09154032 0.034815256 -0.025827464 0.02430121 -0.19678852 0.07174627 0.07921989 0.17593564 -0.115508385 -0.0102733 0.09754775 -0.029274061 0.10139894 0.058233444 0.101868674 0.04674928 0.04106143 -0.16300745 -0.0073837982 -0.059245005 0.16121638 0.08537438 0.20783134 0.1303392
31 -0.1677351 0.050032757 -0.08268851 0.19423404 -0.011999374 0.044889294 0.1346248 0.0499942 -0.08289723 0.03446039 0.07391843 -0.054191187 0.080883384 0.13948803 -0.011796907 -0.10815743 0.23862864 -0.0637299 -0.17595363 -0.24624471 0.10474531 0.061297346 0.2164212 0.103491366 -0.0421948 -0.052951947 0.009542579 0.13558325 -0.18120317 -0.018375712 0.21523 -0.059843406 0.07872079 -0.17630608 -0.08767803 -0.061782807 0.12327579 0.016265236 -0.09135615 0.061087865 -0.060037784 -0.02524481 -0.015683701 0.048376407 0.2292675 -0.10382154 -0.16860472 -0.049344484 0.17129675 0.057091273 0.015436212 3.4817145e-05 0.0030275658 -0.09478489 -0.20339938 0.0031606336 0.18950209 0.035342373 -0.07330716 0.06381935 0.12960577 -0.15430738 0.23064514 0.019413535 -0.20025527 0.055282548 -0.057054803 0.14744669 -0.09342338 0.15565397 0.048318174 0.11326002 0.017471079 -0.0011233464 0.1336304 -0.023166317 0.124567784 0.20661676 -0.09311769 -0.13397795 -0.16013251 -0.1859251 -0.113313824 0.16531743 -0.1252132 -0.07929391 0.07632289 -0.00034029537 -0.02480581 0.07967151 0.0061675087 0.055693123 0.013217056 -0.12501864 0.225372 -0.027148368 0.18265356 -0.117562555 0.027247913 0.03578261
25 0.13843378 0.15022315 0.001317506 0.25184026 0.024753679 0.051483355 0.11550777 0.09195748 -0.09640433 0.03194028 0.14670517 -0.11009197 0.1693186 0.11436416 0.002300486 -0.015123575 0.23783089 0.047726758 -0.09947896 -0.14043292 0.19124594 -0.040983092 0.092593394 -0.03100151 0.0803092 0.10072134 -0.11908289 0.041333072 0.14425665 -0.19846986 0.2932258 -0.1829552 0.177464 -0.25334188 -0.03308556 -0.26964718 0.20032035 0.06212338 -0.025036756 -0.16701932 -0.10686196 -0.08080697 0.15439425 0.09459267 -0.030950163 0.0073450487 -0.20704922 -0.05298913 0.025075272 0.009875315 -0.027356096 -0.026097374 -0.19594815 -0.013863013 -0.11990331 -0.13557695 0.16360682 -0.042413376 -0.09957382 -0.047700174 0.0012466556 0.05978508 0.20819506 0.23358154 -0.2400185 0.2744093 0.049425762 0.2766091 -0.17766058 0.17993289 0.019271161 0.07488174 0.22098479 0.045297336 0.18161246 -0.15225911 0.12559366 0.3139818 -0.16182692 -0.086182475 -0.3476232 -0.3410185 -0.0154520655 0.115049414 -0.056875538 -0.0025558614 0.2318405 -0.08284659 -0.17328888 -0.025233207 0.2117092 0.002633924 0.12816168 0.120584324 0.20132586 0.050151374 0.10724682 0.053685028 -0.08948964 0.16442612
13 -0.0496532 0.104356505 0.076937065 0.018801074 -0.06301245 -0.08023392 0.045153636 0.27169043 -0.003142597 -0.27537155 -0.03161876 -0.16566038 -0.021505633 0.043931868 0.0821612 -0.015599442 0.15892383 -0.04677753 0.053499248 -0.24798281 -0.016575268 -0.056718018 0.14236979 0.008189613 -0.20521544 0.08405767 -0.060984556 0.1580807 0.016126512 0.2009625 0.1682468 -0.2322664 -0.025880184 -0.2997375 -0.0531591 0.13272777 0.21037005 -0.022460753 -0.17296852 0.20637354 0.2396175 -0.117678605 -0.14137167 0.12019622 0.16117282 -0.1273159 0.031668354 -0.1948695 0.008083921 0.041342247 0.135473 -0.16895473 0.08008737 0.016190993 -0.17066239 0.14784344 0.1290722 0.07172693 0.03764894 0.063091345 -0.07597444 -0.16320774 0.16337776 0.05088039 -0.03223409 0.20369068 0.07929321 0.09599507 -0.0883464 0.14532979 -0.023309864 0.06339672 0.19792874 0.104332946 0.12714203 0.1301608 -0.01460163 0.16775924 -0.010893964 -0.04928268 -0.26504123 -0.0566667 0.019530406 -0.017670386 -0.079478964 -0.090041965 0.06965954 -0.061342 0.077774204 0.053120337 0.08470006 -0.0070212167 -0.10562003 -0.16980784 0.1183293 -0.0748221 0.17980711 -0.02642592 0.13868266 0.09808328
18 -0.13048093 0.0755303 0.029389499 0.037932288 -0.07639095 -0.049997862 0.052704837 0.26951113 -0.028248532 -0.21772566 -0.06585224 -0.13846762 -0.060025204 0.09141994 0.070904694 -0.0068710623 0.17417799 -0.07521533 0.058211602 -0.24438879 0.010116714 -0.03936646 0.17392957 -0.014055211 -0.18307635 0.054771174 -0.029003805 0.15967855 -0.024066538 0.20037115 0.22662008 -0.23196898 -0.02676871 -0.3144327 -0.06193889 0.0980696 0.18972585 0.02090441 -0.13695642 0.21035068 0.23793301 -0.104579486 -0.13287903 0.10118947 0.22068565 -0.1449557 -0.00044873296 -0.17593814 0.06409103 0.044242382 0.110528626 -0.12706679 0.12958376 0.016066683 -0.16809124 0.16311905 0.16797216 0.10091608 0.036384396 0.06898131 -0.039386563 -0.17422968 0.15851438 0.06145791 -0.032449674 0.15611015 0.11005759 0.09005363 -0.043485112 0.19017938 -0.015198788 0.028267555 0.16022037 0.064082034 0.14752226 0.07717077 -0.0058870018 0.15194389 0.0044440613 -0.09046323 -0.22439703 -0.10848259 -0.0021584136 0.0034172523 -0.04728838 -0.09796948 0.020988604 -0.029649822 0.028972989 0.06741203 0.053438954 -0.015246297 -0.07630052 -0.22378264 0.07425863 -0.029102435 0.19150531 -0.012058647 0.1698435 0.11010062
15 -0.16168071 0.047286093 -0.05394978 0.15982577 -0.014052558 0.03754641 0.13253987 0.041537665 -0.09498128 0.07213092 0.07678017 -0.054890014 0.14364609 0.1461183 -0.04708793 -0.12281554 0.31377193 -0.0122397635 -0.2324888 -0.3245968 0.12091114 0.086818404 0.18176122 0.09484318 -0.008340391 -0.04032246 -0.008808332 0.10764295 -0.19456454 -0.051719867 0.19692004 0.021641929 0.11535535 -0.14158432 -0.09065959 -0.10419606 0.114705324 -0.026765667 -0.0685427 0.001957834 -0.14447169 -0.013991501 0.06134926 0.059204083 0.2056215 -0.119957864 -0.20290144 -0.048519008 0.18475185 0.034082353 -0.008311023 0.07927288 -0.057932056 -0.14016595 -0.16571538 -0.046843566 0.17487271 0.025999254 -0.06499836 0.119856454 0.16855304 -0.16618527 0.22703609 0.057068445 -0.1980308 0.03405647 -0.09019599 0.11466295 -0.10135628 0.1589224 0.05718901 0.1173441 -0.021525636 -0.020226803 0.14695393 -0.018862696 0.22087921 0.20069458 -0.09890584 -0.103348814 -0.12094875 -0.16911007 -0.13587236 0.25305414 -0.1600135 -0.039808515 0.09355839 0.018586436 -0.00882482 0.09255163 0.035982113 0.06943049 0.09235732 -0.104923554 0.23206054 -0.040260136 0.18196702 -0.11138214 0.01166463 0.014818668
17 0.044711005 0.097272195 0.25586295 -0.16473262 -0.09503105 -0.14822532 -0.010661757 0.39965853 0.047660433 -0.34538284 -0.07021256 -0.24865103 0.11514253 0.029935472 0.023724996 0.01465798 0.41236904 0.004183894 0.07356855 -0.54274356 -0.014185034 0.016775118 0.063022725 -0.13631362 -0.20358637 0.2349554 -0.27475038 0.06953972 0.046079844 0.33811945 0.13540387 -0.14333649 0.05164758 -0.26198414 -0.10068152 0.24552329 0.16251698 -0.09848912 -0.14782476 0.0932406 0.22188224 -0.12098741 -0.017535245 0.21290588 0.0076667583 -0.32681048 -0.09494766 -0.36237657 -0.055483796 0.03599528 0.044571772 -0.13490382 -0.10098042 -0.06555271 0.028282803 0.097563386 0.06662329 0.102768965 0.19640216 0.30665967 -0.20538656 -0.3012082 0.22071072 0.17251937 0.022343094 0.2041887 0.035280783 -0.1673646 -0.041055627 -0.03613901 -0.0010040691 0.0030049272 0.058617096 0.08753281 0.2016075 0.13499919 0.12206548 -0.00813713 -0.033366963 0.10219769 -0.1610685 0.18375078 0.07832265 0.2729646 -0.18595594 0.058994215 0.12736268 0.024981506 0.15128465 0.11387604 0.09021119 0.06761426 0.12109339 -0.18615991 0.014419125 -0.07402838 0.18825029 0.10102929 0.20397831 0.11185137
16 -0.14829335 0.064313084 -0.047846843 0.16563448 0.0030712038 0.04067781 0.12459795 0.05228026 -0.07485592 0.035057314 0.07180994 -0.05645297 0.11625933 0.11098946 -0.021638574 -0.112455055 0.25340593 -0.055251 -0.18438841 -0.25834924 0.10378759 0.054220375 0.2030684 0.08941164 -0.05651744 -0.035894934 -0.008195279 0.13550645 -0.1553448 -0.004257961 0.18058427 -0.04146616 0.08616006 -0.16074106 -0.082208484 -0.04910292 0.11949471 -0.018330952 -0.10476447 0.04934089 -0.07152673 -0.01932276 0.007573523 0.059856936 0.20159487 -0.09708507 -0.14904793 -0.06650499 0.15117162 0.047640447 0.020474037 0.0128677925 -0.026622325 -0.1119111 -0.19768909 -0.016853122 0.17169888 0.038230777 -0.067170955 0.070414305 0.12582344 -0.16431156 0.22028382 0.03240382 -0.19743563 0.060294185 -0.057508327 0.1535226 -0.11822764 0.1553205 0.048480842 0.11844266 0.03525214 0.015100671 0.11920053 -0.02165757 0.15945433 0.21227553 -0.10419859 -0.102928825 -0.18052623 -0.15822814 -0.11492019 0.18897822 -0.14667948 -0.07367046 0.09107641 0.0008433078 -0.00585579 0.069016956 0.043764688 0.057293124 0.021963092 -0.120407164 0.22643659 -0.0454163 0.17582394 -0.10896123 0.020494277 0.030983444
19 -0.06942587 0.09497194 -0.05325847 0.18743831 -0.00634777 0.033646278 0.14487219 0.05551602 -0.05643869 0.0438019 0.10673147 -0.07222058 0.09153264 0.108159535 -0.05317974 -0.11720896 0.25321138 -0.022288445 -0.15651609 -0.23855588 0.10261405 0.057705227 0.18172322 0.08756009 -0.053669866 -0.036260452 -0.04905702 0.094373904 -0.12656598 -0.057932694 0.20877899 -0.07189305 0.11553127 -0.17074361 -0.11632543 -0.122017466 0.11557721 0.01792421 -0.08969558 -0.030608827 -0.09351337 -0.03667472 0.01542318 0.064851284 0.14594044 -0.09471682 -0.18557571 -0.08670228 0.13800561 0.061209206 -0.01560485 -0.017580276 -0.041801184 -0.11058378 -0.16947381 -0.043365292 0.17231537 -0.011278585 -0.084150106 0.071534 0.09323626 -0.13781707 0.23920473 0.053238925 -0.21451962 0.096897855 -0.065829225 0.15550995 -0.12718831 0.11139131 0.05077734 0.12651141 0.05818421 -0.0081999125 0.15408349 -0.028014436 0.15132265 0.20747401 -0.123164274 -0.12236161 -0.16821271 -0.18270932 -0.085491724 0.19920482 -0.11230044 -0.07859857 0.11658465 -0.01480392 -0.026319785 0.068600915 0.065273315 0.04332394 0.059946693 -0.08494552 0.2259097 -0.024013411 0.17858459 -0.06179885 0.0019598638 0.050280992
10 -0.05545662 0.09426462 -0.0046795188 0.06655288 -0.007674733 0.0021743935 0.06882511 0.1451253 -0.057855446 -0.08558162 0.03988985 -0.13120091 0.11224039 0.0830791 0.031237967 -0.057998836 0.2633531 -0.023067681 -0.13849418 -0.28175023 0.0875866 0.012573039 0.16787462 0.03708923 -0.052977555 0.030576443 -0.030269403 0.12552713 -0.042287264 0.054233775 0.1427417 -0.1143225 0.060050376 -0.2173833 -0.07135609 0.018911002 0.16673012 -0.013147309 -0.104236 0.054904025 -0.008361977 -0.011744278 0.01005638 0.10058854 0.14165407 -0.042366724 -0.1154243 -0.077848084 0.06695377 0.050378118 0.03354034 -0.030961769 -0.047060695 -0.07866124 -0.16260958 -0.030158624 0.13580082 0.047898408 -0.031148529 0.06309079 0.068005964 -0.121239744 0.18373638 0.0571651 -0.13623992 0.12736467 0.0051073586 0.14846005 -0.09301357 0.14516656 0.029696131 0.09031398 0.10082059 0.0708926 0.10020023 0.023037812 0.12719749 0.19674495 -0.0896842 -0.061287407 -0.21939291 -0.14092298 -0.07576395 0.09826088 -0.13148914 -0.04601851 0.10586351 -0.03658849 -0.00896341 0.01659486 0.08354786 0.09558684 0.0072913733 -0.06161086 0.1944887 -0.03909476 0.10215877 -0.079681605 0.024451127 0.07574747
27 -0.15334135 0.029139785 -0.066619046 0.14069468 0.012462228 0.042074323 0.12338549 0.047701083 -0.12727281 0.04004618 0.056201324 -0.06747316 0.14528836 0.15444878 0.008160964 -0.10221479 0.31613135 -0.04630192 -0.21545745 -0.31076628 0.13145138 0.07477144 0.19897182 0.0660851 0.026157944 0.0011929609 -0.02122398 0.12325647 -0.15216683 -0.026621645 0.18714266 0.0048251576 0.07839707 -0.17381911 -0.059038173 -0.0659532 0.11345155 -0.010641227 -0.056125056 0.0235341 -0.11400681 -0.020381758 0.0737446 0.062036384 0.199312 -0.085318856 -0.23164968 -0.0140245 0.15989023 0.016060555 -0.01366719 0.049900133 -0.07567844 -0.11442544 -0.16350853 -0.05638883 0.18422651 0.04764769 -0.036283325 0.09095804 0.14058189 -0.1748 0.23230892 0.08245336 -0.18331307 0.04890499 -0.071961984 0.13622813 -0.10804015 0.1535453 0.042971008 0.10777481 -0.01836244 0.0035009144 0.1131658 -0.05695295 0.17269748 0.20413315 -0.09861605 -0.09659683 -0.1593054 -0.17850402 -0.117077254 0.20961317 -0.13231103 -0.025093997 0.10632837 0.036461703 -0.029219093 0.050236702 0.02447061 0.096799485 0.06687743 -0.07119036 0.2120309 -0.0031705634 0.16178435 -0.12457838 0.0003999131 0.037583992
21 -0.068911575 0.066858344 -0.028167037 0.16007455 -0.024637122 0.026337763 0.13444872 0.06914692 -0.06341091 0.03343238 0.09531945 -0.07890463 0.13673277 0.094435565 -0.039827902 -0.11483275 0.2741887 -0.03254739 -0.16399002 -0.29222056 0.12668055 0.05525466 0.1588858 0.075184405 -0.03114706 -0.006385126 -0.048749868 0.09268581 -0.13379143 -0.053979933 0.17527087 -0.031652566 0.13658366 -0.16439056 -0.09622816 -0.08849909 0.12373417 -0.015495057 -0.103723675 -0.011258653 -0.10856073 -0.025607163 0.049843587 0.08102762 0.14023933 -0.118451566 -0.19154869 -0.0772248 0.13200171 0.05673493 -0.030197823 0.024119113 -0.082453914 -0.106229715 -0.15423752 -0.058774035 0.16102996 -0.0060793487 -0.0651018 0.107679665 0.11039426 -0.15147369 0.23769279 0.06575383 -0.20309895 0.076869555 -0.08665055 0.14038636 -0.11223912 0.08765834 0.05837136 0.117745556 0.028027484 -0.0034723687 0.15380295 -0.01739002 0.18645345 0.20081358 -0.11456312 -0.094806276 -0.15977654 -0.15613659 -0.10262154 0.23299034 -0.1578858 -0.045279063 0.13318625 -0.0016882388 -0.012408522 0.06425823 0.049425177 0.07617542 0.0806965 -0.05516118 0.23337449 -0.02270469 0.13734704 -0.08211029 0.0063491035 0.03806436
23 -0.13222323 0.05998075 -0.047110375 0.18480341 0.0033138597 0.043771066 0.12406377 0.023239441 -0.0618713 0.05892007 0.10009594 -0.06226079 0.13183478 0.118458 -0.032870054 -0.110922255 0.26145446 -0.054536246 -0.17679669 -0.2399116 0.10954478 0.076156154 0.19997999 0.082264 -0.035465434 -0.02617982 -0.031808306 0.117910765 -0.14267288 -0.035654604 0.2009765 -0.03548129 0.11169186 -0.15045956 -0.0974058 -0.081448406 0.11581861 -0.010167817 -0.091052085 0.0037244488 -0.09917231 -0.021403644 0.04117256 0.060821716 0.18973868 -0.09425738 -0.19420655 -0.06439791 0.15196805 0.036254298 -0.0010405107 0.0217163 -0.038767207 -0.12465806 -0.18804276 -0.03321908 0.17093721 0.039856713 -0.051221382 0.08054769 0.123363845 -0.15554583 0.24246146 0.056766782 -0.20976594 0.050946675 -0.08403868 0.14739071 -0.116196476 0.14598346 0.047501616 0.12698035 0.026589438 0.004983938 0.13830101 -0.04714768 0.15970807 0.19847202 -0.117866956 -0.103707105 -0.1646207 -0.18434258 -0.112356104 0.21333387 -0.13845918 -0.061344724 0.090097725 -0.0019608128 -0.020336192 0.07671281 0.05085091 0.06233879 0.043385025 -0.10148214 0.22919424 -0.036437146 0.18344365 -0.082808696 0.00852906 0.02796404
22 -0.07509706 0.0736433 0.05063013 0.004805317 -0.06901078 -0.060311522 0.045042068 0.26405954 0.0082377475 -0.23558986 -0.029575424 -0.13561581 -0.027120486 0.044791944 0.054429762 -0.024567336 0.17801113 -0.06731454 0.030806113 -0.28712893 -0.01963227 -0.033399165 0.15856165 -0.0042143236 -0.19657762 0.05386782 -0.045061678 0.14877053 -0.034888674 0.22246486 0.16416965 -0.22184724 0.0023642078 -0.28102425 -0.07570538 0.13629875 0.17097703 -0.021518677 -0.14844972 0.1845803 0.20864648 -0.09624901 -0.14061737 0.117336445 0.18872641 -0.1623719 0.010514052 -0.19624107 0.035895824 0.07299478 0.09644932 -0.14411502 0.086136095 -0.006989719 -0.14442015 0.12741327 0.13666818 0.07960752 0.029721072 0.10035304 -0.052747004 -0.18552928 0.17270918 0.031220753 -0.051987838 0.16461223 0.07347919 0.076192535 -0.074716985 0.122906774 0.0072345855 0.05426658 0.16133365 0.07404587 0.12802091 0.10808675 0.020688094 0.13417941 -0.018805161 -0.06562547 -0.20145775 -0.050024692 -0.012085264 0.041602958 -0.07920699 -0.086670905 0.046969894 -0.041494288 0.0693928 0.075441904 0.044314057 0.01714099 -0.05893345 -0.1908814 0.11338094 -0.054175664 0.17014284 -0.02411354 0.1664301 0.072771356
12 0.004190587 0.11225462 0.08138896 0.015608504 -0.07519566 -0.06658688 0.05899252 0.3014791 -0.012888886 -0.24878325 -0.027516743 -0.17114523 -0.017673414 0.059263922 0.046957076 -0.0023439971 0.19750959 -0.030224623 0.077511966 -0.26247337 0.0043923776 -0.05167092 0.1298284 -0.029442366 -0.1625364 0.10287653 -0.09460331 0.10053514 0.05603982 0.17573148 0.21032393 -0.2558105 0.03841208 -0.30479077 -0.07772629 0.07403889 0.17938587 0.015904268 -0.124596745 0.108614884 0.1951672 -0.119338214 -0.09311293 0.15260199 0.11261855 -0.1413306 -0.030575285 -0.21676394 -0.0068313787 0.040874645 0.071681544 -0.14484291 0.026891612 0.001979778 -0.109664015 0.103499226 0.12577973 0.040866345 0.049163062 0.07695297 -0.1121603 -0.14995378 0.17514332 0.10931909 -0.054982137 0.21443444 0.09189141 0.07625768 -0.072230496 0.11433142 -0.0038338653 0.03362409 0.19030847 0.08464058 0.16735621 0.07643076 0.014050156 0.13094151 -0.027572868 -0.046651594 -0.22825721 -0.09209834 0.04718736 0.029888919 -0.04799716 -0.058362953 0.08629785 -0.06145042 0.034367785 0.049453016 0.10179298 -0.010618706 -0.011382011 -0.13546939 0.059145804 -0.023445709 0.16353235 0.0381167 0.15532173 0.11907539
