34 128
1 0.09785837 -0.07242185 0.18537876 -0.05687471 -0.086589955 -0.13817592 -0.020297254 0.08959287 -0.024340162 -0.09199022 0.15251358 -0.06440869 -0.06484692 0.032915793 0.04656512 -0.14969179 -0.0033833673 0.02212044 -0.10086923 -0.15263401 0.15110481 0.014791057 0.09243985 -0.01227336 -0.07241351 0.057284903 -0.042879656 0.00958052 -0.005399341 -0.05297938 -0.22692022 0.013387221 0.04785678 -0.023145322 -0.0045085303 0.04543026 0.11551076 0.09771432 0.073397055 -0.11511823 -0.021013347 0.11035843 -0.113264546 -0.0031267633 0.09289555 -0.016771499 -0.055586144 -0.041700587 0.10939184 0.14642036 -0.13327597 -0.056602355 0.059457958 0.1653695 0.19856878 0.012001988 -0.009569352 -0.037459884 -0.14344491 0.08247331 0.08633169 -0.04571624 0.010563666 -0.049969424 0.04693375 0.011718579 -0.040841132 0.03578364 -0.033153865 -0.17614345 0.11912084 -0.013598383 -0.07849659 -0.19333656 -0.023185484 0.045149647 0.054047912 -0.044691022 -0.037819874 0.05571854 -0.0047698366 -0.05064255 0.14889151 0.19823635 -0.049398143 -0.045890566 0.17736676 -0.12297705 0.08952292 0.02962239 -0.12304007 -0.021081539 -0.06475222 0.03853407 0.18231352 0.106439374 -0.2356347 -0.097012274 -0.022052843 -0.0021208506 -0.2153613 0.010917291 0.16833486 0.1027814 0.051186893 -0.10443127 0.043221917 -0.09508278 0.014420188 -0.10850998 -0.11538939 -0.029235514 0.0561398 0.07730797 -0.123922884 0.15846926 -0.060634993 0.23023178 0.10921685 0.1419869 0.010970692 -0.06996663 0.04767831 0.0032511146 0.026555179 -0.104913145 0.0017964919 0.12124746
34 0.030812854 0.10411549 0.16107409 -0.112504184 0.051091984 -0.10122924 0.09497915 0.021195956 -0.034124084 0.119813494 0.20540254 -0.040344767 0.019372404 -0.0658371 0.029255427 -0.053508528 0.020199 0.053477123 -0.14410146 0.07990873 0.06666956 0.12183529 0.018902393 0.008091044 -0.12834531 0.017804379 -0.06691821 0.19576536 0.022374157 -0.010371687 -0.16411965 0.04743294 -0.08413007 -0.009863493 -0.12764539 -0.037747204 0.21899427 0.18420888 0.17860937 0.04613484 -0.008341265 -0.0070875217 0.036471058 -0.09802458 -0.029933054 0.13498248 0.12358504 -0.13908929 -0.027958995 0.06425263 0.004611466 0.12697764 0.09212157 0.0050789844 0.10616053 0.071755916 0.18906613 -0.078065135 -0.029965585 -0.025226338 0.13356909 -0.11576856 -0.01945348 -0.022804556 0.16170937 -0.09635475 0.065792195 -0.0023393384 -0.1338508 -0.047625072 0.078652814 0.07894518 -0.07858167 0.051556513 0.050993953 -0.12829515 0.030083554 -0.0086433245 0.006140195 0.20557201 0.08976085 -0.064719096 -0.088802665 0.058992065 -0.016304575 0.19292334 0.08612267 -0.07900458 0.09771273 0.09051196 -0.12003987 -0.052866112 -0.0057325284 0.023302436 -0.032449342 0.024649475 -0.19301973 -0.26494157 -0.086421706 -0.06555014 -0.1958888 -0.010141234 0.116346754 0.064452805 -0.05098274 -0.06153344 0.05968052 -0.22727242 -0.023939177 -0.006138971 0.0018134892 0.043546643 0.09286657 0.01235288 0.07190871 -0.046782326 -0.08939741 0.15529075 -0.019121235 -0.03603501 -0.019992713 -0.010444217 0.004713877 0.11482249 -0.05220081 -0.07909474 -0.07017033 0.052015472
33 0.040442552 0.10143182 0.19177501 -0.17176683 0.115697086 -0.13714436 0.108365476 0.053398214 -0.078981705 0.12351841 0.262259 -0.019909434 -0.034543525 -0.07301473 0.06442373 -0.08457051 0.063391306 0.09016503 -0.16181302 0.11228941 0.1395412 0.14622445 0.030209906 -0.013116433 -0.13887337 0.027577657 -0.085688874 0.22102493 0.028956598 -0.022374177 -0.22490376 0.049114104 -0.06651902 0.020141507 -0.16083601 -0.05872209 0.26710173 0.23847876 0.1954308 0.069652386 0.0033254803 -0.0298358 0.03041952 -0.09888214 -0.05141793 0.17266528 0.17683737 -0.16648263 -0.07517195 0.03168536 0.00019801711 0.17116787 0.10555912 0.0067878533 0.14418566 0.0505925 0.21836577 -0.073887005 0.029670328 -0.10233711 0.16030307 -0.12595981 -0.015841534 -0.05738012 0.13550974 -0.1039981 0.08375587 0.058971267 -0.16676627 0.006504846 0.079624236 0.0731026 -0.02939709 0.08565625 0.031331338 -0.09591182 -0.035317317 -0.032260932 -0.0010109274 0.16018309 0.11118354 -0.08647073 -0.13326697 0.060122415 0.027195727 0.19629021 0.07686973 -0.10017971 0.09644084 0.10183041 -0.12539501 -0.0268517 -0.0048497273 0.014799149 -0.06937668 0.033335682 -0.14377365 -0.23952915 -0.05735195 -0.1164512 -0.16217703 -0.00039998363 0.10796284 0.0027662062 -0.06716197 -0.037012048 0.056291904 -0.21216697 -0.051441237 -0.028888509 0.0041481503 0.06896238 0.031873822 -0.027642975 0.10489873 -0.0993268 -0.05044495 0.11459655 -0.05888797 -0.05933371 -0.050732482 0.018272515 0.00500001 0.07334888 -0.095894806 -0.054321323 -0.036905546 0.07003336
3 0.049137037 -0.020990262 0.07491715 -0.01794771 -0.0026517785 -0.1796534 -0.025046162 0.07011534 0.012428499 0.03915747 0.24647218 -0.065862365 0.024365047 -0.015189047 0.03431575 -0.10292393 7.709392e-05 0.052747425 -0.06135793 0.019366084 0.1828514 0.10197038 0.08642603 -0.010948747 -0.10505357 0.09592854 -0.09963358 0.12723625 -0.044346537 -0.010274104 -0.20338711 0.008327267 0.024829214 0.10148555 -0.08395494 -0.036975265 0.24831796 0.16826274 0.19689597 -0.010374196 -0.013970328 0.067838125 -0.0031804373 -0.04575459 0.01849066 0.01807454 0.032348342 0.010593174 0.009611313 0.08778417 -0.03744058 0.013989538 0.0105715105 0.07022742 0.10203738 0.03301027 0.09500134 -0.08764395 -0.06242075 0.043815445 0.06618078 -0.08724803 0.022269372 -0.10409972 0.14164987 -0.033900525 0.024578134 -0.018390551 -0.0055610947 -0.09192582 0.031778574 -0.028897494 -0.03244997 -0.073552765 -0.05462219 -0.077263154 0.09028 -0.006301705 -0.054699287 0.11921377 -0.06557135 -0.03443048 -0.025594134 0.13447607 -0.046515003 0.070967294 0.18889597 -0.08373178 0.09481323 0.13645072 -0.114358716 -0.06593515 -0.09958364 0.011874545 0.09098791 0.03529911 -0.25245106 -0.18933451 -0.00789774 0.0227844 -0.29087502 -0.05445656 0.18746233 0.037830457 -0.0671568 -0.050658938 -0.012251014 -0.09145271 -0.06382563 -0.052992996 -0.09331609 0.0040414887 0.039737403 0.009410619 -0.096446306 0.10239698 -0.07974672 0.15980119 0.030610655 0.039388727 -0.110587664 -0.12012261 -0.027893592 -0.0006387705 -0.029996177 -0.13042316 -0.042205095 0.12651168
2 0.07528205 -0.13662791 0.14321078 -0.019486481 -0.08041906 -0.20308568 0.03711057 0.0993776 -0.059076186 -0.11915395 0.25207573 -0.053775262 -0.038173474 -0.029126218 0.12957767 -0.16658732 -0.04429068 0.12016652 -0.052287184 -0.07015456 0.17828137 0.049613748 0.021464704 0.04342774 -0.15815252 0.08274274 -0.034100525 0.14991331 -0.047851007 0.059428304 -0.2606403 -0.07487756 0.07980251 0.030735198 -0.048725907 -0.026929805 0.11416068 0.10679512 0.16183311 -0.07575277 -0.031245977 0.1715078 -0.14654772 0.04568567 0.13173133 -0.021622006 0.05533115 -0.07032015 0.08263163 0.06266625 -0.002237693 -0.1365816 0.04234173 0.13443545 0.18540464 0.03533441 0.011315994 -0.124961376 -0.15037894 0.08665378 0.0958042 -0.06630581 0.008514264 -0.080506414 0.0024984325 -0.049139895 -0.08443247 0.04008585 0.022077309 -0.13108954 0.15655941 -0.08294052 -0.11369218 -0.13825694 -0.05541385 0.01050186 0.12558538 -0.08575571 0.039729573 0.12633972 -0.022132255 -0.03790764 0.11367495 0.17859979 -0.060949568 -0.02105941 0.16256748 -0.16928838 0.18675867 0.043454535 -0.0822275 0.015326018 -0.07219829 0.08776604 0.22135372 0.06840957 -0.24259314 -0.13363343 0.028405491 -0.029125484 -0.2750808 -0.05738338 0.17262457 -0.027894348 -0.106372416 0.017384263 0.046423256 -0.122784555 -0.052196123 -0.11146623 -0.0025686305 -0.015579486 0.01972999 0.14875838 -0.060115952 0.053395297 -0.015679197 0.11886355 0.038759828 0.08753657 -0.08712585 -0.046240963 0.004158808 0.05191059 -0.069530025 -0.22707525 -0.05351708 0.054890912
32 0.101792015 -0.032367952 0.1523433 -0.07276007 0.1219027 -0.060036637 -0.04298967 -0.040468223 -0.08049674 0.047440235 0.14596826 -0.15650867 -0.108655125 0.024994388 0.0032168617 -0.13983905 0.041566238 -0.027246399 -0.08325817 -0.021830523 0.15923476 0.044469297 0.09312478 0.01917258 -0.11811612 0.098481305 -0.09865582 0.093014665 -0.031351287 -0.10033074 -0.17987762 0.07931681 -0.025268683 0.09440416 -0.041725747 -0.0945322 0.14965205 0.13341103 0.118386835 0.05463734 -0.0024343706 -0.025152242 -0.08422571 -0.03596889 -0.019355725 0.03472646 0.11443871 -0.06536943 -0.08398796 0.12739208 -0.10296987 0.0528065 0.08130355 0.09610588 0.10797008 0.0237145 0.09456833 -0.08358881 -0.08875194 0.07509211 0.17533582 -0.08083405 0.13354518 0.051515765 0.09517864 -0.072036 0.07618705 0.028485687 -0.064583115 -0.0498999 0.04171439 0.080063514 0.002138461 -0.0653344 0.0012783416 -0.03879135 -0.035827294 0.004370712 -0.12705374 0.071733356 0.0074956194 -0.047951423 -0.05190266 0.036142655 -0.041947708 0.08577723 0.10289468 -0.06124054 -0.006437295 0.09787562 -0.091241725 -0.08908176 -0.08030951 -0.046802793 0.024794443 -0.010040993 -0.21241151 -0.23926355 -0.109768696 -0.0073869685 -0.099430874 -0.046882976 0.07728743 0.06666587 0.003082339 -0.10617614 -0.011576461 -0.123462275 0.08704997 -0.02505036 -0.17408215 -0.048607882 0.13489588 -0.08042964 -0.13172238 0.10159386 -0.121166356 0.23516697 0.05547133 0.06823642 -0.009369027 -0.032410678 -0.023010012 0.14238414 0.007019932 -0.0069392775 -0.053868644 0.19408202
4 0.07846651 -0.14516744 0.074595585 0.011567761 -0.02043525 -0.12716022 -0.0097152395 0.066457175 -0.024793286 -0.033741992 0.20866987 -0.076780744 -0.06296613 -0.0087325005 0.10744828 -0.1372342 -0.044284306 0.061067916 -0.009415788 -0.049248602 0.20078872 0.08749958 0.071361 0.03829112 -0.13636434 0.089758985 -0.07048839 0.11741578 -0.07962374 0.015615159 -0.2693754 -0.030532751 0.12024617 0.07985663 -0.08094276 -0.07275234 0.24945939 0.14699171 0.24119453 -0.08893818 0.030832319 0.11786834 -0.1136176 0.007581453 0.058555268 -0.031849917 0.050503924 0.0076524634 0.036856085 0.07954898 -0.0017815344 -0.06535569 0.026267879 0.1075857 0.11125947 0.016548915 0.028485289 -0.06939281 -0.103389665 0.11640567 0.047914397 -0.08164847 0.07489944 -0.07244277 0.040401366 -0.029785726 -0.033239193 0.023694865 0.025157368 -0.07479234 0.087351404 -0.019074963 0.0024948784 -0.06745765 -0.111788824 -0.025075495 0.051225 -0.056935467 -0.026884574 0.09602944 -0.031225411 -0.053455833 -0.0027769073 0.16556531 -0.059472777 -0.0016540873 0.23875505 -0.093957014 0.10334595 0.11363583 -0.078797534 -0.012686911 -0.08345391 -0.009436723 0.16089056 0.016608706 -0.26620227 -0.15182139 -0.0072510205 0.015276134 -0.24604012 -0.03464089 0.1809369 0.033839375 -0.09210046 -0.04433924 0.021187168 -0.027136426 -0.026960935 -0.08113562 -0.10728689 -0.030595098 -0.010899251 0.054096956 -0.2018786 0.13383771 -0.03971343 0.22546405 0.07847903 0.14240927 -0.1378845 -0.12537223 0.0026811312 0.017843597 -0.01705226 -0.15775098 -0.028897848 0.15097268
7 0.09444328 0.018741801 0.14604308 -0.11451779 -0.09990172 -0.15208326 -0.08407229 0.219869 -0.09624754 -0.12915507 0.041529078 -0.077225216 -0.092475265 0.09150431 0.10070497 -0.17745784 0.12623924 -0.060635947 -0.16628762 -0.1538623 0.13633518 -0.044083685 0.11557436 -0.07495808 -0.007001527 0.10120893 -0.072226845 -0.20596762 0.11577087 -0.15606025 -0.37760043 0.13350119 -0.07597489 -0.01868565 0.0857278 0.18119708 0.22742024 0.23690538 0.019793741 -0.10462299 0.043910608 0.060116965 -0.079487815 0.11476225 0.10266386 0.08952734 -0.21950269 -0.084640816 0.07588999 0.09269485 -0.29204074 0.07229863 0.20114203 0.21989194 0.3368217 0.01051697 -0.05464335 0.13971494 -0.056579433 -0.08397518 0.06609505 -0.064761676 0.07312391 0.07255458 0.07689091 0.05242717 0.019885741 0.05709036 -0.15514317 -0.31568468 0.07520796 -0.021730704 -0.09777199 -0.24973482 -0.009464317 0.1365042 -0.08411296 -0.107172035 -0.10331975 -0.07505685 0.021518027 -0.07702281 0.19532844 0.22726092 0.032751918 -0.10725563 0.1393403 -0.0051979325 0.068886004 -0.02308035 -0.16156547 -0.039321385 -0.046003208 0.06936178 0.07586968 0.18660276 -0.15559626 0.07037251 0.07200327 -0.08117531 -0.06508317 0.05064449 0.15934332 0.15256073 0.19333819 -0.098559454 0.04799365 -0.063213 0.04482154 -0.12331295 -0.12981689 0.05249004 0.0145962695 -0.09466275 -0.092743024 0.17816588 0.009793396 0.112477615 0.11751063 0.142887 0.1298226 -0.029548155 0.07992407 -0.08612495 0.010826435 0.004146904 0.16304678 0.095938675
24 0.002255071 0.076746546 0.086296864 -0.03618647 0.08328852 -0.008549373 0.0010817365 -0.104126506 -0.021859726 0.165402 0.13954927 -0.06054866 -0.012707246 -0.03572304 -0.048195377 -0.07642353 0.09529202 0.025467444 -0.16261005 0.0017156175 0.12448007 0.15938312 0.08579752 -0.037153862 -0.14256999 0.029891094 -0.17540184 0.10342404 -0.03430064 -0.1180958 -0.10707675 0.09387187 -0.13027123 0.047481276 -0.0984628 -0.04822322 0.19092563 0.057058197 0.1423577 0.14005738 -0.029359987 -0.07311901 0.041694295 -0.18706651 -0.13975348 0.12093206 0.1126788 -0.098353416 -0.11689651 0.083121434 0.04062185 0.1204799 0.06414282 -0.027908128 0.014688957 0.048705928 0.13812879 -0.10218629 -0.046627063 0.06278821 0.18327542 -0.10316159 0.0086419 0.074507184 0.21514045 -0.125522 0.15175964 0.04614062 -0.15532032 -0.13117915 0.031962626 0.14507817 -0.07386527 -0.017669609 0.094741255 -0.16437994 -0.0055625094 0.01540464 -0.0939178 0.17963685 0.0951796 -0.049191467 -0.115517 0.10101558 -0.020619787 0.20111987 0.11801533 -0.03721696 0.05391554 0.11603298 -0.10673329 -0.11907317 -0.05480719 -0.024597447 0.065487206 0.0062176175 -0.23696688 -0.37387437 -0.16588083 -0.044049237 -0.13804467 -0.06482612 0.180268 0.12108321 0.011401114 -0.17939262 0.048013914 -0.1596679 0.11994435 -0.03050378 -0.1161356 -0.021062946 0.19506262 -0.008823756 -0.0422189 0.06641954 -0.13815013 0.2453749 0.00809486 -0.011278064 0.030145226 0.017383983 0.017123586 0.13094676 0.014163339 0.0038306827 -0.047486883 0.10335935
14 0.053894836 -0.046377312 0.09699843 -0.036064822 -0.021261498 -0.08848331 0.014128927 0.018550878 -0.024918698 -0.026138281 0.19982597 -0.05430964 -0.03577503 0.012855011 0.0880287 -0.11984308 -0.0113806 0.05368948 -0.084144704 -0.041888095 0.18747135 0.09811299 0.05046941 -0.003834459 -0.16014707 0.07993836 -0.093467124 0.090357564 -0.064666875 0.0032793337 -0.23046221 -0.004621589 0.053975824 0.034804028 -0.05967558 -0.042710043 0.16533665 0.13776687 0.12200497 -0.0606009 -0.01783522 0.08599212 -0.054304592 -0.0152772665 0.040922612 -0.003963327 0.024880597 -0.030579006 0.04224566 0.09321819 -0.014023104 -0.019112043 0.03380757 0.071507454 0.08401827 0.03920268 0.04971604 -0.04149749 -0.0809318 0.060723912 0.05568783 -0.08430268 -0.0112367915 -0.101589024 0.059870232 -0.02080507 -0.032555014 0.0052278307 -0.024789728 -0.0952726 0.08002764 -0.026411397 -0.036389466 -0.066068575 -0.042635348 -0.015636103 0.061648674 -0.059134528 -0.012348282 0.095495716 0.013504409 -0.053010117 0.0077686617 0.15951508 -0.06803951 -0.00087291736 0.1651883 -0.10156633 0.10570021 0.058240645 -0.104979135 -0.0038143478 -0.0693921 0.015077003 0.12543127 0.05354767 -0.20067343 -0.10916474 -0.05162719 -0.023691345 -0.22896126 -0.05070142 0.17877932 0.037402153 -0.0629651 -0.05705497 0.060252924 -0.08985736 -0.035618134 -0.07779369 -0.071155205 -0.0053496524 0.042524327 0.056676704 -0.1213727 0.09854952 -0.075806975 0.20216773 0.055984452 0.0964289 -0.06431698 -0.08268997 0.025435748 0.024368314 -0.025766274 -0.13320126 -0.0328118 0.12411444
6 0.055936635 0.0023100977 0.067042835 -0.03806672 -0.19180475 -0.16953263 -0.03766264 0.22519104 -0.070990376 -0.096530244 0.057811704 -0.09958825 -0.008575571 0.014817796 0.13117559 -0.12189009 0.1129205 -0.06907508 -0.11632318 -0.15622248 0.021732252 0.012670936 0.036249153 0.00953289 -0.05012914 0.07725946 -0.07324593 -0.22711432 0.09778938 -0.100522004 -0.42980713 0.0804702 -0.12200586 -0.06430998 0.1117091 0.24656074 0.30247575 0.2538395 0.16945423 -0.16597353 0.10339862 0.0908637 -0.071871676 0.17353286 0.16559839 0.10046246 -0.2605853 -0.104296975 0.10533306 0.078674264 -0.20844878 0.012276015 0.25960162 0.16288127 0.35698932 -0.0030644482 -0.08287913 0.17087278 -0.100820795 -0.029102612 0.011307817 -0.06313976 0.07660869 0.12992305 0.09842007 -0.021152074 -0.048352595 0.0052569746 -0.0973666 -0.36912382 0.10878064 -0.050312348 -0.16973679 -0.20213339 -0.06661473 0.048790023 -0.031364236 -0.09429965 -0.045252994 0.054163415 0.024039175 -0.054228313 0.20993517 0.27771854 0.06456832 -0.062328503 0.1732326 0.027536975 0.15775304 -0.0035455679 -0.13836007 -0.025430664 -0.04233602 0.13127391 0.14168061 0.1740593 -0.21164373 0.078544684 0.111011095 -0.081404924 -0.08687015 0.000984092 0.1428471 0.17882559 0.13930593 -0.059329942 0.061499678 0.0058710794 0.026340272 -0.14156292 -0.030987088 0.07220797 0.027599495 -0.017172178 -0.13664803 0.14855467 0.03449312 0.084344745 0.095845 0.18404317 0.10887602 -0.04030457 0.024348866 -0.06414676 0.017655157 -0.10306613 0.17883444 0.01611926
8 0.1149706 -0.082231484 0.1577135 -0.042836368 -0.06274465 -0.15821713 0.0072738547 0.1283744 -0.024611766 -0.08425588 0.18532617 -0.1066115 -0.023263833 0.0109439185 0.11334334 -0.1406306 -0.06215991 0.025654566 -0.063875586 -0.059154175 0.11968169 0.026608162 0.031016963 0.03710185 -0.12834908 0.090417534 -0.015014596 0.08567287 -0.013214585 0.038036406 -0.2762209 -0.015874134 0.057961963 0.011129781 -0.020858154 -0.008092656 0.15476942 0.17985402 0.15346174 -0.116503164 -0.00795427 0.13269217 -0.12690602 0.084347956 0.14847612 -0.025956655 -0.009008762 -0.039820824 0.09098901 0.112528704 -0.10387776 -0.050826814 0.08413758 0.14469557 0.18479176 0.041691907 0.033799797 -0.012466899 -0.13237213 0.06679126 0.038007013 -0.070315525 0.05364694 -0.05228475 0.041427042 -0.010904949 -0.07713386 -0.023570415 0.013809869 -0.12163482 0.10924127 -0.042709306 -0.07556036 -0.11409606 -0.061524827 0.0022348135 0.080211714 -0.051819365 0.003911865 0.090740785 -0.027203606 -0.060784318 0.10871053 0.15201232 -0.061379038 -0.029587857 0.17008588 -0.09498548 0.12158508 0.0535707 -0.10344382 -0.0056199958 -0.062390216 0.05588796 0.114344954 0.072514914 -0.22974028 -0.08561214 0.011557265 -0.01611807 -0.23232052 -0.030497063 0.11922993 0.058793474 -0.056019157 -0.021564739 0.025042424 -0.115217976 -0.052766573 -0.051660232 -0.05509953 -0.004211604 0.019295467 0.08023604 -0.13659069 0.10703802 -0.05435485 0.15781857 0.095953256 0.13715555 -0.055247128 -0.11232832 0.020754807 0.0528121 -0.016541194 -0.17452347 -0.027601114 0.10642862
28 0.10837645 0.027233886 0.19560532 -0.055909075 0.10383293 -0.1068265 0.064235926 0.0100644315 -0.080477834 0.1196295 0.16577223 -0.18115164 -0.047920357 0.008013933 0.050613213 -0.12934454 0.035269447 -0.053926516 -0.14114034 0.021246614 0.06516657 0.07302594 0.04066079 0.06691163 -0.07939556 0.058818743 -0.03988086 0.17344905 0.015569867 -0.10981501 -0.18045147 0.08487245 -0.025312558 0.030442853 -0.10754004 -0.063677646 0.18222508 0.113074966 0.15265115 0.07326647 -0.020298809 0.0030547224 -0.0029590547 -0.042203486 -0.042080216 0.081032485 0.07008033 -0.040799454 0.023579905 0.13145402 -0.10506614 0.10115975 0.114794135 0.040338807 0.077003025 0.07164351 0.09753198 -0.08492775 -0.06944647 0.09551406 0.15570763 -0.07271671 0.060919434 0.07410517 0.14585017 -0.06473527 0.072462745 -0.040831484 -0.06307301 -0.027342768 0.053362798 0.10589767 -0.0405134 -0.052947775 0.07011276 -0.08748973 -0.012984851 0.0296544 -0.0681337 0.12145563 0.012471232 -0.06905866 -0.045022577 -0.0109432535 -0.066685036 0.10252139 0.06907657 -0.0020747355 -0.018072374 0.07914236 -0.040238712 -0.09334372 -0.023701811 -0.016248219 -0.032166895 -0.0062508774 -0.22466962 -0.25949165 -0.12266113 0.037458636 -0.08756306 -0.0033885122 0.056195457 0.13303849 0.046455998 -0.11363391 0.01698805 -0.18080543 0.10455221 0.05335893 -0.114521384 -0.029349737 0.1668996 -0.07280007 -0.0772659 0.074747756 -0.15789312 0.23705724 0.063880414 0.0040462804 0.002967707 -0.046023205 -0.006398313 0.17564674 0.027532667 0.015085776 -0.042800907 0.13844234
9 0.07438807 0.04562582 0.17975095 -0.09780926 0.026715208 -0.06240825 0.06194222 0.05235632 -0.07973441 0.009858688 0.18417937 -0.10067396 -0.040245343 0.0005189791 0.083546616 -0.09972536 0.007011629 0.00055113353 -0.16484259 0.014778971 0.10029794 0.077252395 -0.004149951 0.015822006 -0.17123802 0.03729611 -0.07506121 0.08956149 -0.02631538 -0.008606233 -0.20487018 0.024201492 -0.026900223 -0.03175682 -0.036550242 -0.016792484 0.17354113 0.17676377 0.11709107 -0.028255597 -0.009736217 0.013087061 -0.043731242 0.013685926 0.038227968 0.067321196 0.06681617 -0.10707752 0.008537477 0.06585529 -0.07669726 0.086608805 0.13368472 0.07689792 0.1646209 0.05380154 0.13459225 0.0014692785 -0.06484027 0.0018954086 0.09310531 -0.13020855 0.016745286 0.0036712957 0.09127238 -0.03283175 -0.0032533323 0.022527594 -0.14134197 -0.10888421 0.11859586 0.027722923 -0.07272748 0.0013992788 0.036831807 -0.043802094 0.0047898735 -0.090185694 0.023110585 0.112194546 0.09610053 -0.08099562 0.005753289 0.110390656 -0.06123421 0.107678205 0.08560295 -0.04963806 0.09625698 0.037750877 -0.11408617 0.011610738 0.0036914719 0.04725979 0.014847413 0.070869654 -0.1941673 -0.12192487 -0.06507118 -0.08885975 -0.16677658 -0.023770962 0.09931633 0.07231309 -0.035707977 -0.035137106 0.07979456 -0.16024499 -0.012824271 -0.054327175 -0.017354438 0.045060143 0.068013735 0.023164224 0.0070906077 0.010810046 -0.05887008 0.15787068 0.023070497 0.05802098 0.025807839 -0.036992874 0.05436642 0.084936336 -0.036075618 -0.07986216 0.009186045 0.08782777
30 -0.00091318117 0.13599186 0.17485785 -0.13551041 0.051534433 0.00028347847 0.09050329 -0.058615483 0.005877043 0.08241835 0.14002149 0.009118729 0.026919998 -0.061882522 -0.013090813 -0.018392263 -0.00746816 0.026770944 -0.2049438 -0.04643861 0.08504232 0.16241433 0.08791663 -0.039902598 -0.069422744 -0.008295891 -0.020124337 0.16102257 0.029531986 -0.072750516 -0.13990772 0.043289315 -0.04706485 -0.09118631 -0.1586155 0.011516578 0.19450186 0.14356497 0.11078888 -0.013454751 0.010267667 -0.070716254 0.02716316 -0.18677276 -0.108463794 0.19778745 0.12931289 -0.19966336 -0.004976305 0.028542167 0.031527713 0.23070747 0.045043893 0.014984706 0.07192249 0.03396593 0.23716243 -0.045909017 -0.023381837 -0.0807814 0.1382969 -0.12491745 -0.022618556 -0.029522223 0.17840523 -0.03507021 0.13375486 0.061744004 -0.2267029 -0.066340476 0.11159728 0.16074997 -0.0748229 0.09906923 0.08934699 -0.054556265 -0.033319604 -0.0062688296 0.008199549 0.1519259 0.21320955 -0.051013753 -0.07188569 0.10906694 0.0041554044 0.22594799 0.077499725 -0.13254839 0.010277979 0.027083695 -0.16822654 0.011012465 0.077041954 -0.0025912554 -0.025721151 0.060401887 -0.21160106 -0.2778883 -0.1280065 -0.12667745 -0.17366192 0.07150581 0.19116922 0.1781218 0.06463965 -0.17967325 0.10862773 -0.24361159 0.037560996 -0.04510113 -0.026852576 0.054266777 0.043586954 0.041676544 0.10056175 0.0026072809 -0.08189305 0.2320034 0.0018437938 0.038216062 0.07825425 0.028596532 0.11704222 0.05694762 0.018385252 -0.058168203 -0.04530744 0.0661545
5 0.021333793 0.021554155 0.024224529 -0.008871101 -0.17521816 -0.07283702 -0.053392783 0.100032136 -0.044007447 -0.087199785 0.0005680286 -0.10566071 0.004929603 0.044655778 0.04647383 -0.079718605 0.07215787 -0.12253181 -0.097818464 -0.19415112 0.0011875662 -0.0060267043 0.052236315 0.014953839 -0.05981392 0.104559936 -0.06457534 -0.24371748 0.09119428 -0.112469494 -0.36485845 0.07436418 -0.17275377 -0.06490572 0.15050896 0.23400794 0.17174026 0.1856019 0.10272706 -0.15968807 0.06379338 0.05899823 -0.10885157 0.14468597 0.1759563 0.07446014 -0.25161383 -0.10578866 0.071533665 0.09739536 -0.20123944 -0.008868873 0.22319485 0.13958293 0.27628332 -0.022522716 -0.065179005 0.15648626 -0.13948135 -0.0056596226 0.025316872 -0.05554288 0.096686505 0.16258083 0.11243426 -0.032198906 -0.03868037 -0.0022468183 -0.08014021 -0.39471874 0.10120642 -0.021306261 -0.20230523 -0.22903977 -0.04241697 0.042186953 -0.012914041 -0.05613674 -0.066964954 0.08001076 0.017482216 -0.03771525 0.21746162 0.27592158 0.03266738 -0.07027021 0.14177732 0.00037277024 0.15515627 -0.018333722 -0.14432932 -0.076258995 -0.046482142 0.11802223 0.15284766 0.14118874 -0.24578167 0.014310385 0.05099905 -0.07143297 -0.09351632 -0.018642625 0.11963657 0.23194133 0.15878922 -0.10834042 0.058622234 -0.04374952 0.07595328 -0.12803708 -0.0665264 0.018221257 0.09363065 -0.015945172 -0.17122988 0.19908963 0.0003256005 0.15360023 0.13910702 0.19724749 0.16003443 -0.018746652 0.02212841 0.02182288 0.026435914 -0.11881385 0.102804326 0.020182347
11 0.04495738 0.006652014 0.04083982 -0.04769149 -0.11956811 -0.07885417 -0.06775888 0.14594741 -0.0622658 -0.12273675 -0.0026664038 -0.068360075 -0.043955807 0.07191411 0.11734766 -0.12713787 0.08987745 -0.08999728 -0.13188325 -0.22668056 0.087362245 0.019710751 0.0984724 -0.038195986 -0.020580715 0.09266378 -0.032205172 -0.18203242 0.07883076 -0.1355938 -0.37037116 0.06718718 -0.078364074 -0.040203914 0.06478283 0.18493861 0.18016331 0.17838737 0.059390277 -0.14134057 0.059484318 0.0298603 -0.10611257 0.09539097 0.09344506 0.10913809 -0.18747227 -0.09691393 0.07883624 0.06294483 -0.20694838 0.053715073 0.18782441 0.16299367 0.2924338 -0.013009203 -0.04802894 0.14437637 -0.08552835 -0.041696455 0.03605712 -0.05656248 0.091781214 0.11272567 0.121325284 0.023917284 0.014744002 0.056162335 -0.14476168 -0.35383773 0.112888746 0.016850395 -0.12512314 -0.20659673 -0.029173972 0.10518841 -0.0591342 -0.08705225 -0.0773209 -0.016422508 0.06873848 -0.051780134 0.15163909 0.27264065 0.03378355 -0.088160984 0.16682056 -0.029652119 0.09404529 -0.044134576 -0.14025706 -0.031730838 -0.006457865 0.07373932 0.1378405 0.17100143 -0.21683466 0.020588854 0.05486432 -0.092417866 -0.07052687 0.015687438 0.19410874 0.21380574 0.16615796 -0.12930411 0.060883906 -0.028549066 0.07316697 -0.12695494 -0.10251797 0.032123893 -0.0014572006 -0.0133730555 -0.16080064 0.22152294 0.011454432 0.14349239 0.12781884 0.19693592 0.12545687 -0.0076576783 0.09553197 -0.05185818 0.03732506 -0.07453798 0.1516095 0.059573818
26 0.08746523 0.053544253 0.15479042 -0.018130336 0.13070865 -0.030465353 0.033502594 -0.099827275 -0.055083152 0.15334156 0.10457291 -0.17012127 -0.04133831 -0.011277002 -0.009151426 -0.08971949 0.05090415 -0.07874163 -0.13653447 -0.021933371 0.03263551 0.115308926 0.06558885 0.06900833 -0.08747459 0.06502219 -0.063554466 0.17341433 0.006647914 -0.13139206 -0.13946466 0.10001841 -0.10903316 0.030956147 -0.09998481 -0.10137544 0.11761029 0.047659323 0.1500662 0.14649978 -0.039656777 -0.082013644 -0.010074076 -0.08743816 -0.08841414 0.096935794 0.10278787 -0.050863802 -0.072081245 0.13893527 -0.056384653 0.10476155 0.10808759 -0.023332104 0.0031924772 0.050738472 0.11475321 -0.08940151 -0.08570349 0.12784141 0.1854926 -0.045698617 0.08438724 0.15792547 0.18607728 -0.15346654 0.11195263 -0.026450535 -0.065756775 -0.05851108 0.04416725 0.1810473 -0.07058082 -0.07020589 0.08333746 -0.14213802 -0.037064005 0.080797695 -0.112401135 0.14610542 0.049912367 -0.060699068 -0.07159648 0.0036921166 -0.03680054 0.15738738 0.049296953 -0.0019534691 -0.014767406 0.10829827 -0.058214452 -0.13977148 -0.029611437 -0.017074319 -0.01591222 -0.03391443 -0.23568903 -0.37802494 -0.16395536 -0.0015551093 -0.049607083 -0.055943612 0.055204526 0.18839587 0.030047275 -0.18591785 0.024028743 -0.17953157 0.1592261 0.055518992 -0.12581225 -0.07480447 0.21193442 -0.039387155 -0.11549128 0.07805105 -0.18214464 0.2549616 0.062474657 0.0011766185 0.032531817 -0.0075491704 -0.0068103573 0.23695816 0.043166235 0.0155416 -0.08228515 0.11013658
20 0.05448526 -0.033452265 0.12491655 -0.054797087 -0.038067877 -0.06302757 0.0028112484 0.0036424382 -0.027466971 -0.05441713 0.12583806 -0.041504756 -0.03776586 0.00409452 0.057990126 -0.09877694 0.00019708465 0.014869414 -0.09794581 -0.13877133 0.13584067 0.08053691 0.086107366 -0.007885808 -0.09271041 0.051671803 -0.043578513 0.039422717 -0.021879785 -0.045518555 -0.22214843 0.003263025 0.0203624 -0.018106498 -0.0363824 0.021727486 0.13316625 0.11068783 0.09368975 -0.08394881 0.005650098 0.0348398 -0.086870596 -0.029697496 0.03463381 0.04542548 0.009516255 -0.0878366 0.053273305 0.08893159 -0.058090407 0.002630838 0.05689275 0.11125254 0.14156148 0.012591619 0.033685055 -0.02038278 -0.11438497 0.047492642 0.08120942 -0.06643062 0.035950348 -0.027017225 0.075903535 -0.017096609 0.0041990327 0.045374334 -0.084528394 -0.16218571 0.1254291 0.026259042 -0.07426282 -0.09232656 -0.02101089 0.021167811 0.021508522 -0.062869005 -0.023393983 0.08023647 0.072803974 -0.034624007 0.054340873 0.19293833 -0.0332814 0.017762357 0.14731215 -0.12208837 0.079247706 0.007048357 -0.1222659 -0.0031001605 -0.011896428 0.028891567 0.1454471 0.08800776 -0.2148576 -0.11320192 -0.04334241 -0.05270894 -0.17574063 -0.0080083525 0.18474361 0.11386621 0.015066476 -0.1148531 0.07606558 -0.092560396 0.023394402 -0.10568344 -0.09071583 -0.011373134 0.03682012 0.07245954 -0.10323669 0.1191402 -0.046051517 0.2129327 0.066999115 0.1294296 0.015514917 -0.026593989 0.057673052 0.025164273 0.015484139 -0.11506479 -0.0063833348 0.10083562
29 0.07257181 0.06445712 0.23548499 -0.15669958 0.13699201 -0.12582408 0.08562341 0.0044397195 -0.08452777 0.056900065 0.29200834 -0.08983604 -0.043081746 0.009793368 0.066330455 -0.12243317 0.016158352 0.05729704 -0.12069464 0.098849505 0.18146239 0.10090628 0.028417466 -0.013659599 -0.16758488 0.07754517 -0.06569329 0.25576764 -0.027600212 0.0061397986 -0.18371537 0.042351644 -0.00436679 0.066073835 -0.11423956 -0.12458356 0.13258815 0.2033676 0.06971031 0.03463395 -0.07260543 0.007659087 -0.011433539 -0.061538164 0.004751835 0.06503985 0.1698124 -0.097428225 -0.017093338 0.11494525 -0.06425398 0.11783328 0.046986714 0.053515986 0.09880431 0.059686124 0.18948694 -0.08309684 -0.032217618 -0.030087376 0.1435807 -0.1260271 0.009327761 -0.14766599 0.10114787 -0.041585203 0.02482824 0.0048318375 -0.0805529 0.040980436 0.07217937 0.017566662 -0.021119885 -0.0007087704 0.039815724 -0.043985482 0.041995633 -0.056921795 -0.028551718 0.10971073 0.038923286 -0.07751259 -0.09410236 0.046528887 -0.06871404 0.09055099 0.064931445 -0.1394542 0.05577122 0.06407983 -0.11592336 -0.04997106 -0.04284347 4.3077962e-05 -0.03788585 0.040002957 -0.16224918 -0.19791837 -0.10142525 -0.05616149 -0.2233919 -0.04573444 0.097933985 0.005643125 -0.08364888 -0.02321998 0.04420651 -0.24293864 -0.06964465 -0.012106997 -0.057382513 0.012248761 0.06914162 -0.03161874 0.013683198 -0.016681802 -0.09597904 0.16428076 -0.010304985 -0.03072085 -0.057179052 -0.026654515 0.018416928 0.10629269 -0.075615175 -0.06818164 -0.09831648 0.16754241
31 0.06055025 0.027566383 0.14735943 -0.098330595 0.050044265 -0.06783133 0.008492233 0.021288542 -0.04244277 0.008931349 0.15639415 -0.069262646 -0.047807064 -0.011908661 0.039511647 -0.10931184 0.012264476 0.028664058 -0.13360657 -0.024367034 0.16009212 0.087925024 0.0796192 -0.028835712 -0.12827359 0.06862516 -0.0741738 0.09800154 -0.009309868 -0.04476641 -0.22160146 0.039114695 -0.027087051 0.022217728 -0.07077584 -0.031752314 0.17617159 0.17606752 0.12219217 0.0028443227 -0.008097906 -0.006127183 -0.059352297 -0.043343153 -0.0048764157 0.08784791 0.09331992 -0.10653241 -0.053945895 0.051102147 -0.051895607 0.092608884 0.06695806 0.07869039 0.11461618 0.019432964 0.12254216 -0.029776512 -0.044472005 -0.032341167 0.104679696 -0.091769196 0.053181194 -0.019386094 0.09374139 -0.038780008 0.0510203 0.052291363 -0.11964003 -0.09457854 0.066814005 0.049700852 -0.04031029 -0.018357333 0.004640663 -0.015320694 -0.024655823 -0.040049646 -0.046635754 0.065485165 0.07467846 -0.054405514 -0.006113179 0.11477739 -0.008096573 0.077009834 0.111862145 -0.086497955 0.06421375 0.05154627 -0.12928098 -0.026105704 -0.032807734 0.012829865 0.03672477 0.055865884 -0.19020036 -0.17335145 -0.056083534 -0.09045125 -0.15773524 -0.0187965 0.14210008 0.07703382 -0.0062439935 -0.09373693 0.044597674 -0.15229052 0.0076952134 -0.06481884 -0.091185965 0.013969456 0.046295635 -0.0021578062 -0.038892433 0.06284688 -0.051214304 0.17002459 0.037270322 0.07377235 0.008871395 -0.019464118 0.04841975 0.062231954 -0.020258635 -0.082536355 -0.0098441355 0.119541526
25 0.040925793 0.030841017 0.11913673 -0.052316707 0.1250691 -0.054834634 -0.041872308 -0.09655326 -0.049008112 0.10261487 0.13159148 -0.09548214 -0.0659793 0.05578736 -0.027050786 -0.12549241 0.11499648 -0.03905532 -0.09127614 -0.045044854 0.15243801 0.09473716 0.14072701 -0.041815788 -0.04797038 0.11057436 -0.115879156 0.06378766 0.005549521 -0.18546876 -0.15466402 0.14237905 -0.08062292 0.1212979 -0.06847161 -0.06043366 0.13733314 0.074947886 0.041168276 0.10093537 -0.05145559 -0.059205923 0.021123163 -0.13156638 -0.08939142 0.055451807 0.027335407 -0.025304986 -0.048788723 0.17051217 -0.0993751 0.09983288 0.042556707 0.04290137 0.015028385 0.02136706 0.05829319 -0.07636694 -0.05365815 0.06766205 0.18980978 -0.062758066 0.072443485 0.023028072 0.16557902 -0.06275015 0.13188453 0.02025802 -0.059049282 -0.07461837 0.0033261466 0.11118021 -0.015682004 -0.14053996 0.06045606 -0.04296447 -0.03467284 0.03644201 -0.17713039 0.06428195 -0.011968943 -0.04891369 -0.08187145 0.06655252 -0.04348037 0.041819025 0.09518182 -0.051989246 -0.043408707 0.09046243 -0.08980226 -0.15997979 -0.090536825 -0.07046528 0.037008937 0.017807042 -0.19988568 -0.2870438 -0.14390981 0.022403982 -0.08712125 -0.045895632 0.13681875 0.14118111 0.07968408 -0.19607031 0.013144681 -0.13969167 0.13085839 0.0030284033 -0.21572676 -0.06554226 0.18735012 -0.11169788 -0.16459806 0.14904661 -0.17229386 0.28434175 0.07439803 0.0084233405 0.019299474 -0.010669314 0.0031083438 0.106409214 0.039193533 0.057310045 -0.06880337 0.2125627
17 0.084855564 0.013608329 0.069239795 -0.031706274 -0.092141345 -0.16862926 -0.09215395 0.27152145 -0.07518033 -0.08079084 0.025557123 -0.14611533 -0.026304793 0.06703561 0.10601308 -0.15703186 0.112020776 -0.10686059 -0.12000665 -0.08132044 0.033836514 -0.05588774 0.05772137 -0.0094255945 -0.042483624 0.15254077 -0.047787182 -0.1821515 0.13192548 -0.13418217 -0.39443657 0.11134218 -0.15168418 0.028321203 0.09852108 0.17478988 0.22882411 0.24353532 0.13596998 -0.08707047 0.024749424 0.081925586 -0.12887105 0.19860676 0.1876361 0.06604502 -0.2046965 -0.050652415 0.021872275 0.079887986 -0.29581302 0.05405603 0.26361158 0.20249373 0.32296714 0.0064483904 -0.042706657 0.1563449 -0.0770845 -0.045009065 0.04350243 -0.056739707 0.14148936 0.18962154 0.12733522 0.00096483825 -0.003836021 0.009176232 -0.075932875 -0.3348478 0.048913606 -0.022310762 -0.13869423 -0.2561311 -0.012543629 0.051865365 -0.060968287 -0.05356957 -0.1062123 -0.011922181 -0.06701909 -0.090282544 0.21421695 0.19537894 0.02803092 -0.09279633 0.13359201 0.058158617 0.111354016 0.028606474 -0.12211054 -0.10858722 -0.07861977 0.10262445 0.051432688 0.13911086 -0.21171018 -0.014887624 0.117951766 -0.065210186 -0.07520426 -0.025757907 0.07247104 0.17319253 0.1323388 -0.063739695 -0.020378202 -0.086735606 0.066888355 -0.04938819 -0.10789748 0.03825792 0.069378935 -0.08711625 -0.1617414 0.18562603 -0.011987508 0.064244635 0.15679279 0.13560091 0.094809674 -0.0750073 0.041926943 0.020219622 -0.007195617 -0.06751822 0.14895119 0.062262528
13 0.10312305 -0.11694072 0.07524578 0.008410592 -0.09179061 -0.10964141 -0.0476592 0.07513679 -0.026728816 -0.09035689 0.10420117 -0.108392164 -0.04692228 0.022056019 0.10167284 -0.13500494 -0.024387825 0.004062705 -0.038740378 -0.12980454 0.14715663 0.031686563 0.055011883 0.020265644 -0.15034959 0.08975824 -0.06605681 0.023811366 -0.042994794 -0.00029819406 -0.30075216 -0.006901082 0.024833284 0.02912623 0.009164951 -0.0023502833 0.13951898 0.13296565 0.1522564 -0.0935592 0.026394041 0.11340714 -0.15472835 0.08047138 0.11301278 -0.025087722 -0.031770855 -0.029801609 0.0362662 0.11580436 -0.07177206 -0.09350739 0.08428182 0.116798334 0.16941568 0.019117702 -0.027439646 0.0032907466 -0.15344003 0.12627502 0.038289182 -0.044697948 0.08996274 0.025583168 0.048043177 -0.05025393 -0.06287111 -0.01052038 0.011376163 -0.2040032 0.09250524 -0.020057982 -0.0831705 -0.16196692 -0.081334084 -0.0126736 0.06603125 -0.062860385 -0.048675533 0.07737964 -0.010431475 -0.039113674 0.10150645 0.19362414 -0.035357673 -0.056768723 0.2121209 -0.07722095 0.13741086 0.04216286 -0.10063432 -0.042983644 -0.08357425 0.04861588 0.17897862 0.06595371 -0.23698454 -0.101914085 -0.011763345 -0.0049011684 -0.18332845 -0.058718715 0.16740902 0.08270185 -0.034009296 -0.065607026 0.022610867 -0.040169448 0.015656682 -0.0776385 -0.109652735 -0.038466047 0.040122196 0.077414244 -0.2328908 0.18768384 -0.03662816 0.18505897 0.11426146 0.18201022 -0.04024755 -0.084342614 0.004606809 0.059720043 0.015377354 -0.16029263 0.0010140807 0.09735536
18 0.072082065 -0.088503964 0.11013942 -0.049821053 -0.09076688 -0.105906524 0.01399661 0.10994171 -0.022294551 -0.10456344 0.14027585 0.0037483652 -0.034509446 -0.036886707 0.118424304 -0.107348025 -0.03833901 0.076446526 -0.089315474 -0.13251843 0.1669809 0.09378017 0.08335431 0.01385397 -0.13281383 0.050327886 -0.041690733 0.046220183 -0.03329512 0.034174856 -0.29461518 -0.06054138 0.06900802 -0.024091227 -0.055976354 0.009510922 0.19008142 0.1485293 0.18513536 -0.13619153 0.03975776 0.09615709 -0.14851817 0.029048802 0.08963103 0.028237622 0.03334401 -0.0907413 0.056974176 0.020286864 -0.0066209114 -0.057715148 0.07313583 0.12529923 0.18507957 0.015479822 0.03289929 0.0049354555 -0.1060548 0.02553864 0.025512017 -0.06582992 0.03187979 -0.041386724 0.030252779 -0.035244443 -0.045392513 0.072335504 -0.045909256 -0.17476735 0.15098856 -0.017385494 -0.064816095 -0.06255875 -0.099947944 0.027117267 0.039226573 -0.10318824 0.038996298 0.08208667 0.0787393 -0.04358887 0.07960772 0.24476683 -0.007573249 0.010757579 0.19103399 -0.124279715 0.1577479 0.03176961 -0.10899962 0.056356356 0.0010536007 0.058348704 0.18411984 0.08926513 -0.20453008 -0.056133814 0.05086104 -0.095498756 -0.20739485 -0.015907634 0.19695182 0.048046805 -0.074780025 -0.0543205 0.07193607 -0.031361617 -0.037709884 -0.13813636 -0.025021868 0.0031061224 -0.06708196 0.15595444 -0.10946582 0.0803047 0.03278315 0.14774582 0.068433605 0.16390947 -0.06415598 -0.06482282 0.06679436 -0.02905726 -0.03944623 -0.19991569 0.00088614627 0.039556872
22 0.093341656 -0.14543945 0.08554569 -0.015175402 -0.085777864 -0.13228443 0.009753477 0.103593245 -0.041621473 -0.13571489 0.15920234 -0.05134192 -0.0451343 -0.033597056 0.16185312 -0.12703866 -0.05574728 0.067775324 -0.031150421 -0.1329244 0.14711984 0.072387315 0.045577507 0.063003436 -0.15996917 0.08017584 -0.020264845 0.09248873 -0.050883994 0.078410834 -0.33706093 -0.08535448 0.08025094 0.008191972 -0.027517095 -0.020021487 0.15071608 0.14515124 0.21003354 -0.13039589 0.038817883 0.1234464 -0.20107202 0.094627194 0.14621572 -0.0011423784 0.039035074 -0.08902679 0.058077153 0.04547417 -0.015305264 -0.13183999 0.09237266 0.14459538 0.2260613 0.015905917 -0.00069672504 -0.016624786 -0.16318052 0.08593033 0.028491223 -0.055598192 0.09067617 -0.017654518 0.011599003 -0.07122002 -0.08411031 0.043981597 0.0021916926 -0.1728028 0.17422096 -0.04609688 -0.08999054 -0.10315222 -0.13183232 0.011498652 0.07890256 -0.10630652 0.021215206 0.10308895 0.041368544 -0.033343107 0.0880273 0.23194522 -0.013896293 -0.021923855 0.20226657 -0.14435065 0.1874453 0.040562224 -0.094214834 0.035173275 -0.03099015 0.080466874 0.22568545 0.07264465 -0.23300116 -0.06711262 0.0703326 -0.07598028 -0.21164644 -0.07080357 0.17071952 0.021320837 -0.1217215 -0.010752141 0.052796867 -0.024139294 -0.04821426 -0.13909462 -0.017905876 -0.016455427 -0.057490807 0.17074868 -0.16179268 0.09490314 0.030658752 0.11854119 0.06596773 0.18657967 -0.09432395 -0.06634558 0.022572462 0.037236363 -0.042016085 -0.25670877 -0.017427705 0.046255555
19 0.043600626 0.09481992 0.19251965 -0.113679975 0.07318329 -0.095776424 0.10730188 0.012024821 -0.091151595 0.09819223 0.21991034 -0.09709664 -0.019517327 -0.04664641 0.041150678 -0.08857416 0.04519081 0.024223305 -0.19504924 0.045235336 0.08567297 0.11892124 0.012045705 0.027309272 -0.12984596 0.009756792 -0.06619892 0.1867837 0.005843105 -0.056342814 -0.1747638 0.041808054 -0.06995778 -0.03600241 -0.110607184 -0.021993259 0.18806611 0.1494698 0.13788287 0.057233337 -0.01085964 -0.023700181 0.018684454 -0.08402507 -0.062162004 0.15979838 0.13715115 -0.14777924 -0.017307773 0.04212316 -0.0148880845 0.15377171 0.11420558 0.006504215 0.12224857 0.057189487 0.1860037 -0.07978573 -0.02803445 -0.023274697 0.16275132 -0.11783459 -0.012504081 0.010961555 0.14981839 -0.078166924 0.07287328 0.027010225 -0.1678153 -0.055251326 0.09845777 0.07983735 -0.08177031 0.04345416 0.08734322 -0.09508792 -0.0073102517 -0.03179228 0.006185235 0.15959732 0.12254212 -0.060852323 -0.06725823 0.042688984 -0.016328467 0.19565804 0.04006767 -0.06498844 0.059295505 0.052078854 -0.09327578 -0.018614456 0.030896422 0.039320994 -0.030953083 0.036517616 -0.19278589 -0.2383201 -0.102516524 -0.07612255 -0.1429594 -0.00078356365 0.09971498 0.08016085 0.0062920474 -0.06990789 0.06410643 -0.21359721 0.025618114 -0.028500902 0.0022538514 0.035965316 0.1056039 -0.008008328 0.10309135 -0.041371744 -0.0732369 0.1513479 -0.0305335 -0.03592282 0.02798995 0.026277307 0.026283287 0.114940055 -0.038282774 -0.039687216 -0.023113728 0.05160836
16 0.02415024 0.11043703 0.1376082 -0.12716079 0.094011925 -0.056238893 0.08734978 0.0032363897 -0.06907516 0.11650002 0.17847458 -0.051571026 0.0036888295 -0.09826415 0.051693223 -0.035980027 0.04710176 0.051605493 -0.14233235 0.09563477 0.0639322 0.14931668 -0.0035068123 0.017541343 -0.18529914 0.01403192 -0.087622836 0.1898182 0.005446199 0.0069586965 -0.19961494 0.03750783 -0.12594596 -0.0009205774 -0.11091895 -0.048165835 0.23743261 0.21182658 0.2098037 0.069410294 0.022240082 -0.07327804 -0.009307718 -0.06423253 -0.036547355 0.18105821 0.20574172 -0.21593471 -0.12927552 0.006372 0.039808452 0.16131946 0.14121522 -0.004286197 0.14684483 0.052323334 0.22654562 -0.03124236 -0.023831097 -0.06782006 0.13486925 -0.1361555 0.055298198 0.045198936 0.16466536 -0.14239983 0.0940558 0.0438465 -0.19159214 -0.066856965 0.10680054 0.111806415 -0.08932907 0.11983518 0.042669836 -0.141746 -0.02175825 -0.06028462 0.008302216 0.19846684 0.16449031 -0.06597378 -0.12735718 0.07547548 0.025018472 0.25544077 0.066444606 -0.076132685 0.11697454 0.083869085 -0.1275656 -0.03456921 0.030231358 0.039758388 -0.03929493 0.031730805 -0.180162 -0.26996034 -0.06179465 -0.15211807 -0.13607751 -0.04375253 0.09743732 0.045746896 -0.08846728 -0.044239204 0.06510949 -0.19898319 -0.011397479 -0.032704044 0.02106342 0.05987034 0.05955705 0.015040865 0.08351518 -0.09672921 -0.02569439 0.09325443 -0.06316459 -0.013195302 0.002531705 0.034569684 0.009347955 0.135638 -0.06918209 -0.08663935 -0.043336604 0.039389238
10 0.074558765 0.0055124774 0.20465378 -0.097406425 0.09643614 -0.089187704 0.06002566 0.032921333 -0.05861567 0.039876904 0.2558693 -0.09488173 -0.04705483 0.012000482 0.057204653 -0.12879406 -0.0020485097 0.053750474 -0.13471092 0.06764306 0.16043858 0.09302899 0.023776198 0.0046173334 -0.16321704 0.06516323 -0.074549876 0.18161884 -0.055590652 -0.009294738 -0.13912785 0.013190821 0.040115096 0.04780186 -0.09207223 -0.09328062 0.15398012 0.13922572 0.1088354 0.0066280556 -0.07770421 0.035610743 -0.0366627 -0.053422075 0.01603259 0.017575966 0.14240158 -0.052181646 0.005333883 0.091120735 -0.06802685 0.08208591 0.06015139 0.09349756 0.0925211 0.060909268 0.14514884 -0.0791085 -0.05388485 0.027968407 0.12166583 -0.1295556 0.004224804 -0.08973061 0.08639886 -0.0010345018 0.004878349 0.02700361 -0.077451915 0.002511686 0.08448961 0.0071034995 -0.011761683 0.005099633 0.047698826 -0.046244267 0.03090846 -0.055768516 0.0042029903 0.09673227 0.025336482 -0.084541075 -0.041879807 0.06868301 -0.10255443 0.09323183 0.0904234 -0.0925747 0.05160887 0.080332175 -0.08555618 -0.003927489 -0.03597225 -0.0016772948 0.025335712 0.038134944 -0.20331846 -0.1919469 -0.088237554 -0.040377893 -0.23048717 -0.044455953 0.09749723 0.016029766 -0.085775495 -0.028109066 0.036318656 -0.18979344 -0.032488257 -0.028017657 -0.06177556 0.00875481 0.08342445 0.024609402 -0.007397534 0.011978179 -0.10238265 0.18770427 0.02100927 0.0109409 -0.05817462 -0.07422555 0.046379834 0.09028343 -0.051787954 -0.08340131 -0.054515656 0.16165747
23 0.027938668 0.09908121 0.1607635 -0.15004611 0.06072427 -0.07713225 0.086384706 0.093807176 -0.06986725 0.08219157 0.19151552 -0.0037126758 -0.019596184 -0.08885716 0.059566032 -0.06571406 0.038668647 0.08021826 -0.21539529 0.059919767 0.112817295 0.13252299 0.030432232 -0.011953025 -0.14792974 -0.008356858 -0.08477518 0.1420147 0.024724847 -0.024543269 -0.21455112 0.023446044 -0.060001466 -0.049517024 -0.13253291 -0.0003767783 0.2901214 0.22244981 0.22020788 0.018709537 0.031542964 -0.038196493 -0.02085954 -0.08184804 -0.046083096 0.19349085 0.1724135 -0.20825979 -0.07650726 -0.03308045 0.01289267 0.18291955 0.14234707 0.052243352 0.19354475 0.04877489 0.22933003 -0.03537726 0.0054708594 -0.10876796 0.1325533 -0.1451829 0.00042468772 0.022852551 0.13869737 -0.07189655 0.09430526 0.110431045 -0.23992029 -0.09503249 0.12349609 0.09732917 -0.058756478 0.11856373 0.04492247 -0.078582466 -0.058884405 -0.07574862 0.04750007 0.15466937 0.17935367 -0.08606187 -0.06784899 0.11391759 0.02930247 0.24432336 0.089111835 -0.07672733 0.11484316 0.073440805 -0.14281484 0.035070635 0.052625734 0.04473496 -0.025728691 0.064219035 -0.18775484 -0.22554912 -0.023394993 -0.174769 -0.16974455 0.023374561 0.13566332 0.037470564 -0.053964615 -0.049810093 0.082100265 -0.18853146 -0.019021958 -0.07634326 0.030683614 0.096964024 0.0072847283 0.03785454 0.15064755 -0.09816324 -0.0051107323 0.11059704 -0.043817524 0.009477817 0.0067172577 0.011806282 0.07189929 0.04622218 -0.078919835 -0.08321486 0.021004874 0.022904588
15 0.056063525 0.12308481 0.18158463 -0.15043232 0.097814344 -0.10987323 0.045075078 0.055898562 -0.08059056 0.086828 0.198631 -0.092052855 -0.012779381 -0.050606266 0.05055277 -0.09276664 0.07450788 0.055205435 -0.16337399 0.12645872 0.09869069 0.09169726 -0.00055204984 -0.029325822 -0.20421922 0.05212519 -0.11920168 0.16308986 0.021798238 -0.003235951 -0.23477861 0.08441791 -0.17116731 0.04642767 -0.06806236 -0.048545748 0.21848606 0.25364593 0.16118093 0.10737991 -0.019559376 -0.040034052 -0.003834546 -0.017068734 -0.003913281 0.14808153 0.1593289 -0.18799764 -0.14004903 0.037577715 -0.039916456 0.14997268 0.14930403 0.02795017 0.17249757 0.06357736 0.19720131 -0.021890296 -0.017697057 -0.08126107 0.14970833 -0.12862712 0.050371554 0.035801124 0.15522501 -0.1283316 0.0692997 0.022097996 -0.1725928 -0.09521618 0.06365183 0.060440663 -0.107337214 0.019639133 0.06332686 -0.12789066 -0.006535727 -0.067288175 -0.041542776 0.14910285 0.10096148 -0.078238316 -0.05545857 0.062029045 0.022516698 0.17921308 0.057002865 -0.05364611 0.12658556 0.08204031 -0.1448578 -0.081012554 -0.04418869 0.060113523 -0.05207855 0.05475322 -0.15532185 -0.24091733 -0.05715882 -0.14152384 -0.13909967 -0.06968835 0.083143346 0.025834555 -0.071833566 -0.015439172 0.035324357 -0.23685896 -0.026177693 -0.018778618 -0.010412 0.06500552 0.09671538 -0.031284012 0.079057 -0.068507634 -0.04318126 0.039501224 -0.041446656 -0.045257706 0.014854561 0.028787319 2.095131e-05 0.13916212 -0.07867536 -0.05946223 -0.02161656 0.06003652
21 0.034691736 0.08119236 0.12837057 -0.10402816 0.05643795 -0.059563454 0.059761755 0.005214194 -0.05645113 0.07746541 0.14682962 -0.040844087 -0.0061082714 -0.08331711 0.04305499 -0.053132195 0.04229266 0.04998226 -0.15562189 0.019965792 0.08372622 0.13884963 0.024223523 -0.0009720458 -0.15809457 0.012746152 -0.08882059 0.15014939 0.0045547783 -0.006721376 -0.19642316 0.027000517 -0.11712632 -0.013085701 -0.09862564 -0.037743274 0.19745891 0.16146208 0.18534523 0.069786556 0.02554707 -0.05852423 -0.023263419 -0.06651415 -0.04569791 0.16942634 0.16190496 -0.1974954 -0.10476764 0.003618046 0.033584576 0.11653186 0.120269276 0.006421213 0.15187094 0.045146752 0.18523897 -0.049659744 -0.04248322 -0.038716003 0.14206173 -0.11494891 0.037559327 0.06586575 0.15331726 -0.14397742 0.08978842 0.05646261 -0.179265 -0.11319945 0.10577197 0.1083253 -0.10785263 0.056551185 0.034791123 -0.12071558 -0.011858745 -0.044697583 -0.0046682283 0.1761232 0.15460147 -0.050701454 -0.07738049 0.10348333 0.032015566 0.21669896 0.08327824 -0.07349495 0.123759136 0.07507595 -0.12787744 -0.033439063 0.0054455264 0.04654521 0.01458767 0.034972582 -0.17997096 -0.2549399 -0.06832301 -0.13009043 -0.12063996 -0.037688423 0.13136882 0.05944652 -0.058595177 -0.06772685 0.06646001 -0.17704771 0.013925681 -0.052044876 0.011759799 0.04223323 0.05449712 0.04556388 0.060726874 -0.03958871 -0.03327331 0.09493592 -0.039931547 0.0032625676 0.011680888 0.04462531 0.022029916 0.117277324 -0.047998413 -0.08960362 -0.027931118 0.016995534
27 -0.014299295 0.15979502 0.14331524 -0.097365364 0.00601096 -0.045131378 0.083825655 -0.009189275 -0.024909737 0.10057632 0.16863497 -0.034326762 0.043072503 -0.02641423 -0.033171333 -0.0451505 0.07132323 -0.00016029063 -0.260246 -0.025857506 0.07122553 0.13571785 0.0533035 -0.046983495 -0.08791104 -0.008578968 -0.0979224 0.0778077 0.035019733 -0.119255655 -0.11143894 0.059480958 -0.12882945 -0.08451305 -0.087216735 0.07531404 0.17193072 0.10183502 0.080567546 0.04335418 -0.040042773 -0.05199728 0.07927529 -0.17159879 -0.09501601 0.19283289 0.065642856 -0.15692471 0.00958343 0.032313168 -0.029747311 0.18952395 0.087018885 0.0060460605 0.10787713 0.04907541 0.18677229 -0.06467166 -0.026989905 -0.061630823 0.16501789 -0.13121179 -0.091162235 0.022564244 0.23038776 -0.035665326 0.11926307 0.049850393 -0.23751187 -0.16506834 0.08712272 0.099663116 -0.12903865 0.01680038 0.1533575 -0.08853194 0.005422437 -0.0025831745 0.005781538 0.16403335 0.14873448 -0.04150923 -0.029684683 0.10355146 -0.011601398 0.2182187 0.030310798 -0.059798382 0.056766197 0.030635495 -0.13600367 -0.024275117 0.038058836 0.04650862 0.014237706 0.08254472 -0.21430512 -0.24405842 -0.1271134 -0.07877597 -0.17745039 0.01800502 0.1732722 0.15177165 0.08536424 -0.14243956 0.08272641 -0.22878385 0.062007353 -0.06123932 -0.0063963677 0.056693953 0.14451648 0.018059598 0.164097 0.011882274 -0.102101296 0.17803997 -0.01691262 -0.049720414 0.11030354 0.046704326 0.07602205 0.0621027 -0.005182819 -0.01930466 0.0069435397 0.013551444
12 0.050413135 -0.10361749 0.052366454 0.022370882 -0.08983855 -0.116476074 -0.026877638 0.032092325 -0.03371635 -0.081778616 0.12515813 -0.08514437 -0.035144586 0.004530977 0.0851275 -0.12557128 0.022597015 -0.0014198212 -0.017827047 -0.16155972 0.12014474 0.060152724 0.06878029 0.03455379 -0.08907757 0.09739216 -0.054692946 -0.012374562 -0.020975946 -0.037310597 -0.27854604 -0.00018269695 0.0016122225 0.032520648 0.011924475 0.039009035 0.14104638 0.09349542 0.14228949 -0.09466113 0.032895956 0.09163157 -0.11810397 0.046991926 0.08992563 0.0034296417 -0.0707706 -0.040164694 0.059421618 0.09699815 -0.05844761 -0.1004347 0.078054406 0.112633444 0.16155902 -0.01433492 -0.05480955 -0.013859421 -0.14931759 0.100530244 0.06304521 -0.04044102 0.076298356 0.014677519 0.055962212 -0.06300084 -0.047394995 0.013722281 0.015374301 -0.20526528 0.105257824 -0.02735575 -0.1024626 -0.17052828 -0.08575591 0.011163992 0.05236291 -0.046135318 -0.05840115 0.08740023 -0.015985528 -0.018666802 0.08638556 0.20873712 -0.013495477 -0.04902149 0.18173529 -0.0949177 0.121265166 0.041859478 -0.08897354 -0.041563418 -0.077474095 0.04968069 0.21173222 0.057952587 -0.2383192 -0.09439888 0.0042740675 -0.0036728021 -0.16165306 -0.059478655 0.16955371 0.09874851 0.00841731 -0.086326174 0.034694117 -0.017579567 0.04119064 -0.110904194 -0.08676492 -0.044132575 0.04929889 0.06034106 -0.20645204 0.17197248 -0.031157076 0.18681861 0.085500464 0.15149969 -0.018887054 -0.047369193 -0.0025678438 0.03241439 0.0071970234 -0.15645513 0.0014325681 0.08669487
