3327 100
brin98anatomy -0.39518222 -0.123863004 -0.21664676 -0.026841264 0.031620767 -0.50039786 -0.022345236 -0.112739936 -0.49701858 0.2630917 -0.11727296 0.040070735 0.027206512 0.3738257 0.5001266 -0.40790027 0.15874687 0.27983326 -0.4490369 -0.34637642 0.16804235 -0.112589866 0.13869502 -0.10863408 0.6931177 -0.34145117 0.13796374 0.52710795 -0.20685798 -0.7005929 0.32526037 0.2408477 0.069904685 -0.097314365 -0.3483112 0.017204382 0.27460814 -0.56873435 -0.33650422 -0.42885223 -0.39290768 0.0024124263 -0.099458575 -0.3487382 0.042822324 0.39000806 -0.08719298 -0.053763304 0.08146469 0.022100398 0.029838404 -0.046820924 -0.104308575 -0.40730038 -0.572135 -0.4027893 0.23800543 0.42371738 -0.46052185 -0.021291636 0.20320402 -0.10575389 -0.12700908 -0.10026109 -0.36119598 0.19744009 -0.42869872 0.32371992 -0.43573588 -0.2865988 0.54168713 0.35630926 0.06672455 -0.21047801 0.41705856 -0.59678143 0.60426795 -0.12144425 -0.53615755 -0.12836374 -0.13792652 -0.49566907 -0.21778286 0.061151505 -0.3242067 0.43364194 0.22901894 0.10959391 -0.027772592 -0.3233205 -0.2746543 -0.37124908 0.31931767 0.2892973 0.55086786 0.4344581 -0.21471554 0.03710597 0.65694666 0.109063216
rao95bdi -0.641964 0.5868729 -0.15434542 0.040084552 0.8561663 -0.13662323 -0.32868034 -0.011503461 -0.34243444 0.041816305 0.045169912 -0.20554619 -0.70195943 0.70112216 0.3203138 -0.0898033 0.49311253 -0.053035017 -0.55355096 0.0076595712 0.092970945 -0.0012117985 0.30245414 -1.0218282 -0.34224555 -0.002075069 -0.33390978 0.15576117 0.06753996 0.22324017 0.038652044 -0.30300084 0.0810916 -0.5056091 0.15592995 0.07219988 0.2145649 -0.13380104 0.06231325 -0.13628438 0.46864846 -0.4483712 -0.0109673785 0.51476544 -0.36633092 0.3405099 0.48027125 -0.25862414 -0.08899367 -0.14751711 0.31099936 -0.62110555 -0.21865621 -0.54583925 -0.39406836 0.17089753 -0.07053091 0.52044296 -0.16584648 -0.007056231 -0.34717566 0.22012796 0.06466544 0.45644948 -0.023764774 0.37786093 -0.21854621 -0.08810678 -0.10545144 0.10703746 -0.36279055 -0.61728203 -0.44045258 -0.18277386 -0.12872098 -0.5638262 -0.4621572 -0.111817494 -0.112039335 -0.20077069 -0.27658498 0.013724537 0.28143987 -0.2780434 -0.2108137 0.13054517 -0.24509141 -0.053567357 -0.29407468 -0.75458 0.33943564 -0.48762465 0.40009207 0.10347112 0.03867465 0.23013492 -0.6647543 0.23603025 0.138771 0.40434963
chakrabarti98automatic -0.4052433 -0.07226657 -0.51041293 -0.10613589 0.14987181 -0.13523577 -0.0015241028 0.1188759 -0.37654904 0.31233007 0.052522022 -0.21545793 0.09988957 0.08972302 0.26287422 -0.37134966 0.22165957 0.059679788 -0.7017553 -0.60481745 0.090779275 -0.30096534 0.45329958 -0.29014218 0.5922765 -0.25276318 0.32143095 0.32220355 -0.32076976 -0.5230364 0.3265239 0.12863976 -0.023014518 -0.09463701 -0.04651795 0.009211155 -0.07304762 -0.5651034 -0.3195248 -0.29260653 -0.33170548 -0.025706252 -0.04113354 0.11718067 -0.49000007 0.35551384 0.083496526 -0.23496194 0.054350287 -0.27775666 -0.104129836 0.083722144 -0.3913673 -0.63490134 -0.3882075 -0.5310522 0.21243863 0.23359011 -0.6784487 0.07640259 0.16716373 0.13579896 0.041919295 0.08192501 -0.6280558 0.29859024 -0.3903452 0.42692444 -0.21184812 -0.32160527 0.41977575 0.4755844 0.16603355 -0.13359942 0.4261378 -0.3497009 0.26233864 -0.48975977 -0.7838308 -0.20406002 -0.18140922 -0.027468488 -0.15168151 0.15832952 -0.7222671 0.23005271 0.66988224 0.15048182 -0.07137951 0.03541075 -0.25604236 0.43969962 0.7529907 -0.15478821 0.91452277 0.4088687 -0.6896957 0.31106633 0.014394079 0.03089784
bharat98improved -0.4794158 0.094326705 -0.3711266 -0.080160335 0.11305091 0.05466714 0.15695538 0.042880088 -0.28576192 0.35864267 0.05103316 -0.08544534 0.301644 0.11792135 0.35417047 -0.7524857 0.1221766 -0.14782682 -0.6195676 -0.2697632 0.03883565 -0.22535968 0.55787605 -0.021128256 0.34067708 -0.074942015 0.51421785 0.20485584 0.040811513 -0.7745896 0.7465304 0.086430274 -0.18210173 -0.20469412 0.17195767 0.20205763 0.20945333 -0.35971215 -0.23301706 -0.29106337 -0.30197334 0.02452823 -0.086581685 -0.49926558 -0.32914358 0.49617112 0.14697199 -0.004439093 -0.21195148 -0.016527753 0.023103883 -0.18816699 -0.4948197 -0.65113837 -0.34957284 -0.38085946 0.33647206 0.51317084 -0.69051445 0.105976634 0.18154499 -0.24059735 -0.01822318 0.15126817 -0.3541944 -0.00093088933 -0.4662116 0.3973328 -0.2374369 -0.49383044 0.7571405 0.25025848 0.20277633 0.059622824 0.64770514 -0.24570858 0.0427269 -0.0017644934 -0.7430962 -0.08484898 -0.5870441 -0.04797138 0.2749027 0.027623452 -0.59614575 0.25078666 0.78916514 0.005571606 0.0014467406 -0.3217197 -0.1668088 0.192163 0.37263757 -0.05151822 0.6405797 0.20601647 -0.25280362 0.10701998 0.5148731 -0.27401406
craven98learning -0.07154012 -0.09317561 -0.23843329 0.01924362 0.32242265 0.25662792 -0.13149197 -0.20802271 -0.3094541 0.4153234 -0.23721391 -0.45269665 -0.2527022 0.5361312 0.42413092 -0.7313486 0.27646086 -0.15378398 0.24222241 -0.5498465 -0.35160515 -0.4099127 -0.051981967 -0.043624435 0.626169 -0.27030328 0.46429738 0.32938072 -0.27719426 -0.5365557 0.6439629 0.17602174 0.19135499 -0.21833715 0.5455399 -0.35279998 0.41044638 -0.38934952 -0.5352626 -0.6719158 -0.3601116 0.24247356 -0.29571494 0.1618303 -0.3531294 0.38751593 -0.0016747775 0.0499451 -0.26673198 -0.49523365 -0.10372838 0.15458184 -0.7454109 -0.4312843 0.29256958 -0.31618682 -0.36448097 0.59198654 -0.6647966 0.10376803 0.22674005 -0.13969906 -0.09288879 0.16750638 -0.1869989 -0.17170133 -0.34005 0.2887126 -0.78363353 -0.23752828 0.0078666685 0.5239103 -0.35297182 -0.03853632 0.103755526 0.0155363735 0.23786367 0.3910066 -0.07808466 -0.3786808 0.04151219 -0.38001496 -0.2038832 0.14728765 0.068508156 -0.10663417 0.2097181 -0.01664574 -0.004833829 -0.116156325 -0.06307505 -0.07791642 0.39900163 0.034639582 0.2775918 0.3301345 -0.33852896 0.3333547 0.49943718 -0.11146326
jennings95controlling -0.46752313 0.5955327 0.03142041 -0.3705261 0.4210594 -0.12922724 -0.09483581 -0.23112452 -0.67955756 0.13020328 -0.28613937 -0.20566103 -0.37998295 0.23651052 0.020419978 -0.5401809 0.22362776 -0.2205575 -0.22105461 -0.5295472 -0.041659113 -0.06491872 0.4409071 -0.18218051 -0.4330335 0.14449751 -0.16120204 -0.18765223 -0.24990712 0.4882951 0.2670329 -0.08801118 -0.071948625 -0.7321915 -0.070692815 0.12332143 0.25996113 -0.38251984 0.19827266 -0.6499953 0.33902934 -0.45499998 -0.53688806 0.52477574 -0.358129 -0.04010687 0.4459579 -0.24152228 -0.72937363 -0.12068693 0.18167196 -0.57450664 -0.11158407 -0.27462083 -0.4110161 -0.3196488 -0.6318839 0.07323306 -0.29612425 -0.044707987 -0.292581 -0.15035003 0.20262714 0.623193 0.46424884 0.39485246 -0.5748757 0.09316637 -0.3580143 -0.7241817 -0.291044 -0.42683834 -0.32851782 -0.060911376 -0.25670844 -0.3335121 -0.21851917 0.023033854 0.13128325 -0.40166423 0.2763402 0.35274345 -0.22052248 -0.20567928 -0.39303482 0.03911103 -0.015425962 0.30104864 -0.1356854 -0.4019999 0.33796638 -0.70265967 0.24751063 -0.18898009 0.28287524 0.0055448324 -0.42495567 -0.56750256 0.55037117 0.14552219
lawrence98searching -0.23254405 -0.06657778 -0.33336255 -0.017422384 0.04187734 0.08130655 0.099816576 -0.06746256 -0.041988887 0.24643508 0.32947594 -0.30980697 -0.32202744 0.6264077 0.21573746 -0.50218254 0.05319808 0.16920044 -0.2745544 -0.49380705 0.10602267 0.22464883 0.17525141 -0.7062742 0.74664086 -0.29654843 0.3377871 -0.24799888 0.014344092 -0.56017524 0.21314402 0.12276528 -0.02666887 -0.34530023 -0.114242055 0.5139493 -0.25513762 -0.7657365 -0.22370562 -0.3162838 -0.06827043 -0.18644439 0.15506306 -0.59969306 -0.5852697 0.54090923 -0.22834784 -0.29808372 0.28074148 -0.04723151 0.29530987 -0.24467312 -0.5129042 -0.39568126 -0.43916696 -0.57370555 -0.058418665 0.19789732 -0.75226825 -0.0076032025 0.082282186 0.046412464 0.13916522 0.13163601 -0.39270747 0.041802898 -0.5416277 0.023753058 -0.26006633 -0.51511896 0.2564064 0.57110995 -0.306904 -0.32234642 0.41068164 -0.45807526 0.68692654 0.124328166 -0.50427526 -0.14855696 0.02451438 -0.49840283 -0.44617513 0.39321432 -0.5568447 -0.18743844 0.4701649 0.19643079 0.10148056 -0.3316389 -0.05690911 -0.02088698 0.19782549 0.29891187 0.78822905 0.35127094 -0.34222603 0.124057434 0.4627884 -0.19734408
kitano97robocup -0.06583804 0.27808046 0.03302079 -0.004662998 0.40435627 0.16242586 0.2809658 -0.32026967 -0.5833456 0.120966755 -0.29321864 0.15926377 -0.3641313 0.34243986 0.26758814 -0.59757334 0.20750342 -0.3619566 -0.2539298 -0.29687402 0.27616116 -0.057130232 0.4106173 -0.9810125 -0.9418823 0.29113933 -0.17261998 -0.07017435 -0.1865702 0.49470285 0.047923237 0.018361818 -0.11019507 -0.53832924 -0.1440002 0.070879504 0.38314858 -0.38605237 -0.42700654 -0.37954158 0.41470593 -0.6351219 -0.21550226 0.6565038 -0.28415713 0.25973544 0.53143144 -0.28538635 0.0879923 -0.2559297 -0.13935737 -0.6454131 0.4794466 -0.30549893 -0.35371867 -0.27469116 -0.3171763 0.35425013 -0.13315302 -0.0120223155 -0.23407325 -0.038742572 0.14768839 0.9324231 0.35279846 0.51302123 -0.5875382 -0.19743794 -0.23201108 -0.6782538 0.10017327 -0.45990723 -0.1750568 -0.3570055 -0.15157181 -0.58676076 -0.1898648 -0.24944057 0.06520186 -0.3196735 -0.26803273 0.2717049 -0.09779504 -0.29828167 -0.60455513 -0.13977139 0.5632557 0.45525607 0.11886789 -0.47374824 0.32239556 -0.6916716 0.26611713 -0.22817776 -0.05436519 0.118963994 -0.49059883 -0.3387328 0.7811673 0.39050308
87928 -0.45002076 -0.18909499 -0.52391994 -0.12707789 -0.016249271 -0.09527631 0.08914451 -0.5225672 -0.42415377 0.07802841 -0.21676536 -0.04909159 0.06628133 0.37993473 0.48992598 -0.5264482 -0.08173761 -0.45748624 -0.35197732 -0.93394816 0.15745509 0.0011324746 0.3101578 -0.263239 0.49884588 -0.54823524 0.3603116 -0.12649155 -0.20853639 -0.5047246 0.4902207 0.17791629 0.15109286 0.021004332 -0.105477564 0.1983856 -0.22032034 -0.3450791 -0.5405161 -0.6599355 0.011476473 -0.35237393 -0.34345594 -0.3653377 -0.14820771 0.052659903 0.27158606 0.098654985 -0.20622906 0.07564531 0.0074948096 0.11738582 -0.1899769 -0.24773842 -0.27024186 -0.19908434 -0.114888385 0.2768551 -0.28478968 -0.4152675 0.2177536 -0.60152215 -0.3317724 0.12356431 -0.31069252 0.06753092 -0.3468814 0.53927183 -0.15872408 -0.13203166 0.19202532 0.32491195 0.30198026 -0.11413789 0.5946085 -0.63477117 -0.2127241 0.44402936 -1.0155251 -0.2739451 -0.3079643 -0.2361186 -0.40742034 -0.015972791 -0.55996835 0.13705313 0.49918076 -0.028779833 0.08869639 -0.054264266 -0.27393383 0.054519285 0.040198963 -0.12404195 0.6537588 0.27988997 -0.61418885 0.19157422 0.5854209 0.07071794
lawrence00context 0.011887178 -0.20108631 -0.30474296 -0.12845747 0.28135216 0.00459854 0.051925834 0.33311352 -0.48649225 0.26326042 0.14808159 -0.38463193 -0.054358236 0.07929441 0.1514475 -0.6208542 0.40806258 -0.22811759 -0.089118525 -0.5300796 0.09458768 0.20545708 0.052365426 -0.012454858 0.87866527 -0.10834961 0.1449172 -0.012037642 -0.21215595 -0.39347526 0.3277903 0.27940682 -0.04772955 0.00045249704 -0.124114566 0.11101915 -0.03802144 -0.5774913 -0.14762889 -0.6649878 -0.052847724 -0.29915872 0.11673435 -0.37533557 -0.3261346 0.32465112 -0.19254312 0.053415157 0.06664817 -0.0968604 -0.029811248 0.023116343 -0.49419716 -0.49485403 -0.75431806 -0.68138605 -0.3633494 0.4316341 -0.58403826 0.10579095 0.23781864 0.12642929 -0.18390255 0.015166792 -0.3360828 -0.16669141 -0.7788281 0.22001982 -0.0711178 -0.23686329 0.49245286 0.30042532 0.06969126 -0.46714404 0.35556027 -0.37256464 -0.06525878 -0.046260096 -0.08926739 -0.57490313 -0.1667775 -0.33212617 -0.07731832 0.31874862 -0.86288935 0.0036396424 0.389384 -0.19362883 0.21002547 -0.068396986 0.3513701 0.16980723 0.2650031 0.7930396 0.42941806 0.1824367 -0.56064445 0.20679937 0.5678824 0.24400735
pavlovic97visual 0.32878247 -0.4425203 0.15567414 -0.2693181 0.28824586 -0.00010652236 -0.70978993 0.011110099 -0.73542905 -0.033510495 0.13892195 -0.13818944 -0.25470448 -0.11663435 0.25305545 -0.1752873 0.051609166 -0.22596171 -0.36473322 -0.17658484 0.075776674 -0.047011524 0.48613432 -0.53400594 -0.386901 0.33949926 0.3391513 0.13068743 0.11500185 -0.24273989 0.11597114 0.042034123 0.8076439 0.72770363 0.4506044 -0.20804508 0.7283512 -0.052562717 -0.2703223 -0.5671113 -0.047609992 0.21887945 -0.31924638 0.90849084 -0.8330147 0.34061462 -0.048884038 -0.063330665 -0.54796284 -0.0076766834 -0.25840497 -0.050430097 -0.62365514 -0.5567966 -0.08287769 -0.5250604 -0.8001448 0.01753935 -0.052283578 -0.031580552 -0.17073648 -0.27171746 0.52695423 0.5998689 -0.27553394 0.11305308 -0.64093155 0.15542713 -0.5738091 -0.49296156 0.3639601 0.10256944 -0.45411015 0.5330789 0.28228226 -0.2006526 0.29888147 -0.27899802 -0.25761917 0.13686332 0.28274363 0.28566802 0.75580406 0.3475157 -0.6325066 0.27840695 -0.32048416 0.5006666 -0.29634485 0.23362881 0.6019609 0.042090565 0.33319184 0.37033588 0.12740158 0.6958494 -0.248401 0.64334273 0.7021247 -0.24420963
soderland99learning 0.16108246 0.20565681 -0.18581414 -0.15641962 0.0882527 -0.050879642 -0.25971156 0.28557286 -0.32059675 0.16447261 -0.11669975 -0.40475348 -0.2393294 -0.0769486 0.18002957 -0.6870827 0.05477635 -0.42124182 -0.37475687 -0.89907366 -0.31316745 -0.18366656 -0.62337655 -0.29495418 0.36615345 -0.35451686 -0.038704343 0.25948334 -0.12760536 -0.27876115 0.45825475 -0.17659704 -0.20448427 -0.036468495 0.14275351 0.12727834 0.3253787 -0.8353883 -0.35991338 -0.94458896 -0.16700135 -0.02953161 0.0058151884 0.2417988 -0.15357564 -0.007195888 -0.011150808 -0.18134727 -0.34544003 0.26184973 0.011662943 0.076484844 -0.43320638 -0.23272873 -0.3315679 -0.13160701 -0.032939468 0.6209691 -0.26168737 0.18234445 0.007874863 -0.41063717 -0.14554043 -0.18256767 -0.37760875 -0.018158732 -0.46616495 0.44389328 -0.29512656 -0.22533514 0.5656615 0.8798637 -0.10592869 -0.28148374 0.1796232 0.26191813 0.097701125 0.20060948 -0.3122831 -0.6079183 0.16312592 -0.176988 0.1742123 -0.1950669 -0.29821494 0.18917389 0.10083879 -0.3064194 -0.047328454 0.109939635 0.12374955 -0.3063774 0.11599644 0.27654588 0.6515266 -0.11921485 -0.9321557 0.0524937 0.7748162 0.09621872
decker95environment -0.42721656 0.054636117 0.4397339 -0.64827055 0.38990948 0.20173311 -0.3468026 -0.04946141 -0.13119212 0.04272549 -0.30778402 -0.2736186 -0.9633403 0.5024401 -0.17579833 -0.526893 0.27475256 0.3415553 0.08807782 -0.46731135 0.26684874 0.10964005 0.3087717 -0.17160803 -0.42602098 0.09340944 -0.529155 0.34219003 -0.45540544 0.33072492 0.3595235 -0.076709904 0.37406853 -0.3139382 0.18519714 -0.42105708 0.3129041 -0.72763073 0.10141062 -0.006167837 -0.33030942 -0.48012912 -0.4836444 0.10541446 -0.4999043 -0.044187743 0.6896066 -0.5125657 -1.0745041 -0.0050586583 0.21876112 -0.7982542 -0.3784294 -0.37342986 -0.49118945 0.006282369 -0.49101892 0.2758717 -0.16917923 -0.28649357 -0.46523482 -0.6368278 0.27793363 0.4551601 0.57783985 0.25199303 0.14655733 -0.14854603 -0.44941545 -0.0426273 0.183065 -0.06675869 -0.47690085 -0.41518587 -0.3077394 -0.44826275 -0.26281542 -0.30863124 -0.30041453 -0.37543717 0.32253075 0.3312257 0.010842998 0.081448585 -0.6569495 0.10209195 0.03544756 -0.18459205 -0.43608153 -0.36271977 0.51790726 -0.67881775 0.3585506 -0.6225896 0.43734142 0.13393772 -0.37128395 0.23823272 0.91601926 0.56468606
wooldridge99methodology -0.8826162 0.7410747 -0.34535736 -0.5293271 0.44467622 0.0070384364 -0.14465113 -0.6090537 -0.22522055 0.3428541 0.053061906 -0.053261768 -0.5790731 0.52785736 0.47064632 0.079492964 0.18097883 0.3779693 -0.36705998 -0.4663778 0.47517017 -0.14086857 0.45763204 -0.92713934 -0.1777731 -0.20290163 -0.30027604 -0.12969021 -0.16996686 0.08378132 0.21627086 0.13657214 0.4165217 -0.12562491 0.4685158 0.07155048 -0.13475844 0.3451359 -0.08585648 -0.17117167 -0.17928405 -0.6846996 0.020856531 0.30272648 -0.2518327 0.09777654 0.011391869 -0.24528113 -0.30569968 -0.35240847 0.4862253 -0.17164965 -0.19479413 -0.7330514 -0.42809862 0.096444316 -0.10940599 0.6415962 -0.07161748 0.10966773 -0.17244443 -0.09180783 0.18890929 0.8664404 0.42186743 0.040377665 -0.05690618 0.29944566 0.35346434 -0.31603006 0.3503952 -0.6101752 -0.6880347 -0.14214289 0.5078758 0.08206407 -0.07993422 -0.29051313 0.00039908182 -0.3473881 0.01138629 -0.25017354 0.41096893 -0.045486927 -0.07715296 0.233499 0.40931934 0.08372859 -0.0027315975 -0.9041207 0.63826925 -0.5257756 0.034317385 0.012318124 -0.027242254 0.33357716 -0.6691862 0.20715441 0.0770272 0.57656544
aha91casebased -0.041633274 0.30015627 0.48677975 -0.21300508 0.014131084 0.15867521 -0.08704464 -0.16399482 0.27014777 -0.42997113 -0.06384049 -0.47920135 -0.4624843 -0.20145679 -0.4820293 -0.26466358 -0.24696188 0.0022598845 -0.35577092 -0.25806057 0.39856204 -0.04522582 -0.4927069 -0.65269923 -0.26767564 0.009713854 -0.20955539 -0.071486056 -0.48782182 -0.7331522 0.6147891 0.008276032 0.6471521 -0.062487364 -0.12193955 -0.80477935 1.0620933 -0.07373877 0.49241447 -0.014702558 -0.20033126 -0.33884934 0.52600884 0.77947533 -0.23021205 0.5717031 0.30467263 -0.5653926 0.09893514 0.12798177 0.6172356 0.1788219 0.008136028 -1.3065846 0.20353723 -0.32691973 0.27760896 0.25414243 -0.09097891 -0.50967973 -0.3267059 -0.7703508 0.43560115 0.14423132 0.00094597467 -0.09936113 -0.6966463 -0.86730754 -0.6530444 -0.5032361 -0.06729818 0.4919138 -0.0029774064 -0.3642781 0.6247486 -0.64805853 0.29967296 -0.18449478 -0.288099 -0.9541798 0.012967881 0.385851 0.21323815 -0.13394849 -0.27935365 0.25707537 0.48600698 -0.12585036 -0.14139824 -0.3273952 0.22175999 -0.50782377 0.52906436 0.022996208 0.99931234 -0.04288989 -0.5985521 0.42131126 0.9243446 0.58965474
kinny96methodology -0.7573347 0.4905226 -0.07858386 -0.2339943 0.5536977 -0.09129676 0.06799486 -0.4535629 -0.55843675 0.33243543 0.2620985 -0.1530243 -0.32049447 0.49093667 0.48644367 -0.21685252 0.25240448 0.3351808 -0.3861604 -0.38306725 0.25080237 -0.26222193 -0.03187632 -1.0925443 -0.6510782 -0.031264696 -0.19879244 -0.27422926 -0.100955315 -0.13571425 0.21439476 -0.2744563 0.4381779 -0.113545395 0.24480046 0.40204513 -0.0148061495 0.14792854 -0.09692241 -0.092239186 0.12907372 -0.74736595 -0.16108048 0.6705917 -0.37107402 0.21267186 -0.12340958 -0.073387414 -0.4082313 -0.6642122 0.186821 -0.0127443755 0.10933244 -0.43591046 -0.32491 0.016070634 0.11833635 0.5383282 0.09153815 0.014505479 -0.227942 0.003404026 0.010764928 1.0544475 0.29787976 -0.22304286 -0.24900319 0.09506162 0.33203137 -0.25313514 0.23882811 -0.55395913 -0.31704742 -0.22752333 0.720895 -0.022275994 -0.16579184 -0.42191112 0.15635446 -0.24613403 -0.29608688 0.16611566 -0.022132358 -0.07739926 -0.072987236 0.6311734 0.34943727 -0.04044393 -0.077022515 -0.68286407 0.61420757 -0.505741 -0.021613235 -0.09587164 -0.20173262 0.31653646 -0.74406385 0.14643858 0.22748595 0.52143335
marquez00machine 0.34852862 -0.26269034 -0.11583883 -0.29080176 0.07845456 0.14981319 -0.21633166 0.17113891 -0.18553504 0.122251175 -0.26804027 -0.3910081 -0.5365035 0.35767937 0.08636651 -0.45039824 -0.25140896 -0.052257206 -0.28828532 -0.38733307 0.11403055 -0.19785155 -0.19772646 -0.06784034 -0.101258315 -0.16209891 0.18343511 0.06586458 -0.026449924 -0.3225152 0.48231128 -0.052934583 0.35556042 0.09429977 0.3415504 -0.34149045 0.42170987 -0.60498255 -0.17366917 -1.0118417 -0.47969896 -0.39859816 -0.21429333 0.2837971 -0.3930636 0.38678646 -0.03256366 0.027798267 -0.1880306 0.25237757 0.19306542 -0.03265559 -0.5015836 -0.07831737 -0.025018485 -0.099080406 -0.10107513 0.36880788 -0.21145321 -0.15912229 -0.1342863 -0.83011305 -0.18644413 0.1803678 -0.09275151 -0.2787718 -0.27200273 0.22469454 -0.73837113 -0.09699464 0.33201674 0.81630677 -0.33153847 -0.3335977 0.45486715 -0.18423581 -0.0035306958 0.37886703 0.40106058 -0.31560683 0.47532102 -0.6949997 -0.17324878 0.08671634 -0.27461872 0.44680965 0.04881274 -0.21239941 -0.15530169 -0.11850015 0.09404945 0.11629337 0.5464374 0.271587 0.70027936 0.021778192 -0.5421125 0.30923733 0.87800103 0.02282418
iglesias99survey -0.57161224 0.28209454 0.032668836 -0.26581255 0.58205837 0.09172336 0.22006652 -0.42919773 -0.30583817 0.26238576 0.2914103 -0.4017761 -0.34093106 0.7780876 0.26148918 -0.08579047 0.026676547 0.10428101 -0.5329915 -0.47398254 -0.093592644 -0.4852901 0.20597832 -1.1071264 -0.6988509 -0.4679982 -0.012443203 -0.05087211 0.07453897 0.1198937 0.3570762 -0.15118316 0.5175738 -0.010066325 0.09530421 0.054735374 -0.13996968 0.20978978 0.22537753 -0.1233288 0.14619724 -0.74156433 -0.25245306 0.23926397 -0.3840741 0.26523045 0.2820777 -0.12274674 -0.38975734 -0.5641164 0.38019523 0.06296664 -0.10207635 -0.5792522 -0.35290024 0.15927793 0.13227147 0.68713915 0.2925556 0.19707169 -0.32935348 -0.05134788 0.11619043 0.7449816 0.15293 -0.11981873 -0.37141785 0.311208 0.10632586 -0.29074806 0.07937465 -0.59423053 -0.42706448 0.1750521 0.61327356 -0.07747547 -0.0667726 0.004298678 0.27188754 0.051560096 -0.06549349 -0.105651475 0.17627797 -0.090646125 -0.2425886 0.5358065 0.49912938 -0.17763087 -0.3762785 -0.8973555 0.5931101 -0.79455113 0.06662917 0.05385871 0.019025013 0.5775901 -0.7362423 0.39492756 0.01667249 0.4102899
howe97savvysearch -0.40154937 -0.71256024 0.06900801 0.21609552 0.5262092 -0.39704505 0.29819563 -0.023071425 -0.38014898 0.30747348 0.14574419 -0.54204583 0.061664578 0.010719385 0.22241646 -0.62262785 -0.1832004 -0.34755978 0.0039022455 -0.5499839 -0.19127229 0.17146307 0.13583936 -0.42107397 0.49543765 -0.3348145 -0.03253083 -0.13006926 0.0069077094 -0.6615353 0.6861874 0.19747107 0.24110532 -0.120210335 -0.06654888 0.63554496 0.27673784 -0.47665352 -0.06533923 -0.3985907 -0.052278616 -0.013193042 -0.046940897 -0.23296025 -0.5336019 -0.01874132 -0.16211917 0.044296227 0.13018297 0.19492541 0.148283 -0.014262813 -0.347222 -0.26316828 -0.22313452 -0.4335925 0.16124721 0.15705022 -0.43574256 0.008615571 0.15072128 -0.11485927 0.32395536 0.22487919 -0.040636744 0.11215726 -0.51413655 0.2674351 -0.33312675 -0.30005336 0.5300414 0.7211241 -0.029058402 -0.28642437 0.42287672 -0.7778292 0.03440493 -0.25028175 -0.66214824 -0.29524943 -0.6075581 -0.5764348 -0.34383798 0.099492155 -0.63240975 0.10696935 0.630443 -0.017206201 -0.0255749 0.02252955 0.020567168 -0.073599815 0.07013536 0.33583432 0.4534757 0.50355715 -0.60570353 0.4130481 0.7077008 -0.13372017
picco99lime -0.36117452 0.06281815 -0.19418927 0.17075801 0.123427294 0.033555 0.06986129 -0.7705751 -0.4247493 -0.10721427 0.41295096 -0.22711799 -0.19567889 0.13391314 0.25974795 -0.114598766 0.16656724 -0.35666308 -0.67413205 -0.38595122 0.10644896 -0.034732938 0.1279702 -1.2137686 -0.59534353 -0.13421087 0.16117337 -0.45111158 0.15879485 0.04868138 -0.004982188 -0.7562206 0.5919609 -0.4681636 -0.03032943 0.109370485 -0.33283284 0.0008163924 -0.075559594 -0.33123636 0.40419802 -0.4125753 -0.12282949 0.5495313 -0.108187646 0.4163854 0.24564274 -0.056833677 -0.7702987 -0.2959236 -0.57025605 -0.3799039 -0.5320431 -0.8632425 -0.45052814 0.14263226 0.113275014 0.56754184 -0.049864683 0.08761487 -0.23340225 -0.1602494 0.18143854 0.48183158 -0.010063291 -0.036573716 0.009664075 0.19357942 0.11778437 0.22941461 -0.216311 -0.45948246 -0.13003908 -0.36523187 0.0013639766 -0.42752483 -0.24874175 -0.04704019 -0.5014248 -0.28162357 -0.4034762 -0.2793367 -0.03810487 -0.038875733 -0.40087295 0.3060433 -0.18879798 0.040512484 -0.59858084 -0.6493878 0.3834572 -0.7394914 -0.08040739 0.412335 -0.33436954 -0.19277188 -1.1718781 0.7837062 0.39426872 0.21122728
starner98realtime -0.016087383 0.29433024 -0.30569828 -0.32378927 0.03377512 0.005994138 -0.77412015 -0.33336848 -0.2817323 -0.06855125 0.67262113 0.21936157 -0.24297725 0.2170414 0.21604371 -0.32282656 -0.28049776 -0.22491172 -0.52350205 0.0035910436 -0.36447752 -0.22877009 0.13808067 -0.28605416 -0.36855412 -0.13752513 0.49054408 0.24757615 0.00428392 -0.23824327 -0.50296414 0.022643745 0.7918876 0.5796033 0.36342242 -0.38063014 0.49746883 -0.0035200235 -0.08327425 -0.52830046 -0.089482434 0.032428935 0.016028095 0.72624296 -0.68924844 -0.122362025 -0.032059584 -0.19697444 -0.3854969 0.18752494 -0.096508615 -0.4426662 -0.101654924 -0.37426913 0.010013062 -0.4157803 -0.99352956 0.22111903 -0.44260666 0.07971496 -0.27196124 -0.3159961 0.2388039 0.44603646 -0.35532823 -0.0145780165 -0.3953103 -0.08150967 -0.62301433 -0.6066199 0.68173224 -0.015606535 -0.7505537 0.24546081 0.55740684 0.10385709 0.08077166 -0.43672472 -0.5209484 0.0047627576 0.009534086 -0.015701348 0.5843861 0.26260984 -0.29899165 0.29913402 0.21409872 0.61028564 -0.34317964 0.16520466 0.7455254 0.13564172 -0.07723152 0.38558677 0.09762783 0.28049335 -0.28182104 0.5599327 0.5016223 -0.3145895
liu98relationlog 0.1982063 0.5563359 0.87310547 0.4617265 -0.00048756297 0.36644948 -0.5287228 0.21347564 0.06265019 0.9555181 0.34469873 0.62091047 0.38830367 -0.0774067 -0.26358196 -1.2250687 0.5533844 -0.44605237 -0.36780998 -0.084388316 0.24542846 -0.37906018 0.054570727 -0.62454057 0.17032546 -0.425697 0.06405163 -0.15814668 0.16064747 -0.3609148 0.1880152 -0.13359629 0.87822235 -0.47523022 -0.11413418 -0.05995629 0.0056631523 -0.49455354 -0.10163819 -0.7151822 -0.47067145 -0.47723922 0.29610586 0.015161676 -1.0961702 -0.2912166 0.6825297 -0.22911409 -0.97996676 -0.105174415 0.8942776 -0.26828974 -0.59205544 -1.1680448 -0.6252725 -0.76507175 -0.20114526 0.28223678 -0.81213194 -1.0022199 -0.6719975 0.18691832 -0.1104573 0.4440942 -0.12274376 0.111638255 0.09890136 0.50249964 -0.32806632 -0.5405708 0.42444658 -0.0037425833 -0.1605232 -0.09780084 0.58984315 -0.85962737 0.55709904 1.0068119 0.5436869 -0.23498383 -0.28526157 -0.622054 0.60520655 -0.40529457 -0.6299511 0.05915255 0.3817565 0.3512061 -0.67311406 -0.45085394 0.29802108 -1.0474186 0.27300385 -0.12560016 0.3118038 0.041666016 -0.6497178 1.0031108 0.24492514 0.581547
lawrence98context -0.32873014 -0.3879461 -0.11433516 0.32332948 0.3375683 -0.025115333 0.19788183 0.09419321 -0.534956 0.03851453 -0.027053947 -0.27516073 0.114438765 0.46120593 0.3768062 -0.5160639 0.023223702 -0.14582643 -0.30430123 -0.46231598 0.21359587 0.028238283 0.010252614 0.025192227 0.842766 -0.14489667 -0.064291626 0.36559147 0.048415907 -0.43369892 0.33190694 0.31639737 0.008655322 -0.13064486 -0.058829296 0.28541192 -0.10332077 -0.63370407 -0.34015712 -0.26709947 -0.034546107 -0.002340787 -0.41279972 -0.3846018 -0.67263997 0.22796425 -0.25076944 -0.171634 0.038415823 -0.047153663 0.008824269 -0.28616348 -0.24890988 -0.2565585 -0.28063273 -0.19816962 -0.3687844 0.56678474 -0.40606543 0.0069691096 -0.113794915 -0.0580628 0.25981504 0.12534758 -0.2670728 0.20315735 -0.4078992 0.2541588 -0.13283156 -0.4979278 0.525124 0.78853846 -0.13259065 -0.53150773 0.5149134 -0.5568658 0.4381547 -0.14642967 -0.6307678 -0.21630499 -0.50510865 -0.42399004 0.18354571 0.2999228 -0.7322742 0.16595007 0.43230867 0.23613922 0.08292074 -0.005209865 0.23737615 -0.0046853917 0.0012089869 0.3313365 0.4710543 0.4644298 -0.6227699 0.3299287 0.73225576 0.27491212
448486 -0.5430634 -0.281252 0.44076234 -0.11002657 0.76963174 -0.23043679 0.16731764 -0.43740726 -0.08630775 0.787434 -0.31774735 0.0988681 -0.24557328 -0.2285309 0.61827904 -0.4007754 0.17090093 -0.7685495 -0.0676716 -0.5749621 0.19775483 0.4047686 -0.08087888 -0.31031913 -0.7749772 -0.18921548 0.47569332 -0.0679781 -0.09450398 -0.8802272 0.26328093 -0.16949163 -0.27864164 0.0367202 -0.024900274 -0.15120077 0.23758614 -0.14428248 -0.3387302 -0.30892834 -0.12098286 0.01471529 0.2233457 0.13541746 -0.13220575 -0.24673809 0.3929527 0.06240485 -0.25124195 -0.42416972 0.3397384 0.24610677 0.018008674 -0.58851326 -0.784619 -0.791731 -0.09812508 0.6703554 -0.24113274 -0.13696122 -0.49350247 -0.48140064 -0.01607809 0.13501847 -0.2831912 -0.2188147 -0.12719448 -0.09911405 -0.15353513 -0.21879186 -0.048273593 0.66242516 -0.7629872 -0.26364017 0.519698 -0.8654809 0.41266972 -0.20431423 -0.63426435 -0.13398334 -0.43614855 -0.09058649 -0.2936981 0.12940595 0.049161255 0.039086007 -0.30224255 0.076780304 -0.543432 -0.05603391 -0.046124764 -0.3701848 -0.025543237 0.0020637796 -0.16685915 -0.1404715 0.16190647 0.004090728 0.573072 0.40259564
jantke93casebased -0.15438406 0.19252779 0.54641855 -0.4180196 0.2899123 -0.0076314225 -0.15982726 -0.17980614 0.23812868 -0.36977872 0.09142256 -0.03457619 -0.49091405 -0.39993957 -0.41733816 -0.4327735 -0.17866951 -0.05202308 -0.3244224 -0.21183527 0.18684323 -0.15384847 -0.33520907 -0.5803968 -0.28065622 -0.17799361 -0.035523154 -0.2019264 -0.28823075 -0.78750205 0.5581204 0.04435887 0.5030116 0.5361422 -0.22021173 -0.6179385 1.1558532 -0.17535426 0.4456516 -0.21970432 -0.2717043 -0.4147911 0.5531515 0.6986788 -0.1718707 0.4007006 0.5398808 -0.42822468 0.18881105 0.065171555 0.7288755 0.16399546 0.1224217 -1.4312891 0.30960166 -0.5317815 0.149607 0.21221936 -0.21590994 -0.71942234 -0.2804144 -0.8551279 0.38450208 0.24326088 -0.07988911 -0.18153904 -0.8073335 -0.89614195 -0.7640774 -0.4590568 -0.20776697 0.3075704 -0.17590344 -0.16140655 0.514277 -0.39846545 0.35561934 -0.16162519 -0.2810747 -0.7644435 -0.028159605 0.4709808 0.30285782 -0.116537675 -0.052933756 0.30095378 0.38288152 0.1542924 -0.12618217 -0.35515502 0.3438635 -0.79170394 0.6310926 -0.09062963 0.5683981 -0.054959934 -0.7325879 0.49252355 0.9681127 0.4970574
parsons98agents -0.5560477 0.4557286 -0.3532743 -0.36411977 0.41024032 -0.4261319 -0.09833824 0.03431863 -0.46180683 0.27574423 -0.17210245 -0.1317079 -0.8521459 0.32310236 0.30081725 -0.33935174 0.38267112 -0.20107628 -0.31089014 -0.4118819 0.057464857 0.060052793 0.5166944 -0.5201071 -0.47568306 0.03555443 -0.17521067 -0.22004023 -0.2990564 0.4946767 0.43324512 -0.10445131 -0.09832323 -0.3791737 -0.16075371 0.3525455 0.43675607 -0.28937665 0.30446616 -0.22216706 0.25927818 -0.6210531 -0.43397626 0.52350837 -0.14189398 0.106072955 0.37483335 -0.19560732 -0.69195604 -0.5209867 0.08815759 -0.953351 -0.31472582 -0.26751685 -0.43983275 -0.04985087 -0.34103268 0.1382442 -0.37726244 -0.33456808 -0.2563022 0.1293621 0.21456203 0.3043803 0.37864462 0.40959144 -0.18144412 -0.16972096 -0.18127522 -0.39498025 -0.12156001 -0.6183137 -0.38966864 -0.04732435 -0.298741 -0.45295727 -0.4836466 -0.050584093 -0.19422837 -0.26393992 0.3507811 -0.0046399324 -0.012059793 0.092519574 -0.21600382 0.0043303617 -0.38161728 0.30747008 -0.5010743 -0.56782883 0.031339385 -0.60833836 0.21605374 -0.03869762 0.33409497 0.20209731 -0.7560656 0.19054833 0.028720248 0.08649751
sadri99computational -0.67554 -0.16029276 -0.15809037 -0.042855 0.75284845 0.043696877 0.1906801 -0.4229999 -0.31382212 0.47824752 0.045418918 0.2690828 -0.26454812 -0.3145302 -0.2067528 -0.8050257 0.75611925 -0.5763378 -0.3289795 -0.6971102 -0.27348563 -0.1179567 0.41520882 -0.6389024 -0.26078936 -0.97008425 -0.57391423 0.4143534 0.1022723 -0.24776705 -0.34788784 0.32186547 0.09946598 0.44519082 0.010449459 0.41886744 -0.29624632 0.17029057 -0.030167406 -0.08540755 -0.21042846 -0.3877334 0.21219636 0.042890523 -0.4567656 0.27689067 0.6895296 -0.25295955 -0.3480939 -0.47173122 0.4205134 0.10754751 -0.2478937 -0.07482169 -0.402182 -0.42875978 -0.31488422 -0.028376615 -0.83549404 -1.0123485 0.035702664 -0.77442217 0.61133844 0.22250561 -0.26731458 0.20627151 -0.09222892 -0.122890875 -0.30220613 -0.38678688 -0.39534903 0.1886132 -0.4997237 -0.17693911 -0.13116105 -0.37619114 0.047327887 0.23360556 -0.90316623 0.2977622 -0.13855878 0.11939343 0.32298726 -0.25212297 -0.0033990121 0.09661646 -0.3605566 0.019198863 -0.40006617 -0.29136086 1.0775396 -0.6709409 -0.09005362 -0.4776581 0.16464631 -0.21014883 -0.9370627 0.4781406 0.67984164 0.4325317
nigam99text 0.23753878 -0.34713003 -0.29086354 -0.24165927 0.114414506 -0.036751796 -0.13098639 -0.11954367 -0.47850266 0.3511221 -0.0947022 -0.28982195 -0.08927726 0.6486672 0.20690222 -0.5457346 0.2473481 -0.3733967 -0.24407987 -0.3787378 -0.41386202 -0.20392193 -0.20939432 -0.29248846 0.24030021 0.072659805 0.11798483 0.26897332 -0.11768862 -0.59004295 0.25522912 -0.101741746 0.21629928 0.0026193606 0.14161718 -0.32330516 0.25985786 -0.082329586 -0.54849076 -1.128607 -0.41676566 -0.025261363 -0.34164512 0.11725317 -0.53816736 0.18811268 -0.067520246 -0.25800633 -0.49962085 -0.063349456 -0.09164475 0.09556942 -0.52874213 -0.36569235 0.12631261 -0.15477568 -0.16688299 0.4984968 -0.34040564 -0.030614438 -0.09883495 -0.5583131 0.047153983 0.3103246 -0.3498256 0.06385588 -0.65369624 0.22731374 -0.7035728 -0.36424142 0.2745686 0.6447505 -0.27011555 -0.2307876 0.42749515 0.07412673 -0.13573402 0.3572172 0.1351699 -0.098045975 0.270891 0.12648816 0.4534633 -0.0027789788 -0.2298296 0.1550044 0.057291057 0.07706673 0.18695632 -0.19304885 0.09222221 0.44099236 0.06535693 0.15061681 0.15711497 0.13949981 -0.328111 0.46351373 1.0997525 -0.28491405
dean99finding -0.324477 -0.16082205 -0.43715093 0.10578161 0.10350401 -0.13357738 0.048339833 0.10724155 -0.43470165 0.2705192 0.12525111 -0.21980956 0.03629894 0.2701023 0.2890522 -0.28108144 0.418871 -0.19941866 -0.40324023 -0.37016144 0.3087732 0.15761521 0.7522682 -0.30181554 0.34111896 -0.38084742 0.1594546 0.43702364 -0.2311846 -0.6220246 0.27239084 -0.03871099 0.021790192 -0.3852119 0.062444136 0.0044067237 0.22984284 -0.41639304 -0.36491534 -0.47790352 -0.40123752 0.033585325 -0.4976346 -0.3948215 -0.39955363 0.064061254 -0.19969155 -0.24892291 -0.09403165 0.27570984 -0.07795995 -0.26875055 -0.33225253 -0.69932604 -0.2529634 -0.57423735 0.21010225 0.49259567 -0.5532643 -0.18572752 0.1918001 -0.2827416 -0.20647751 -0.08791199 -0.46980777 0.24567941 -0.40471643 0.53614664 -0.2846171 -0.36894408 0.6571415 0.24111968 0.23124468 -0.22200269 0.55983394 -0.56940603 0.18584256 -0.14461455 -0.90230715 -0.34033722 -0.2469348 -0.22790767 0.18109995 0.023547933 -0.7943581 -0.032575056 0.37028468 -0.11180021 -0.07125428 -0.06321688 -0.24381846 0.32186955 0.4992736 -0.17762117 0.6598982 0.38433895 -0.5937624 -0.07814884 0.4693334 0.15752609
21158 0.2579175 -0.5454961 -0.041906375 -0.40480563 0.19440797 0.20743676 0.06445917 0.069485374 -0.41768622 0.59169 -0.34971622 -0.23515983 -0.08761309 0.5742889 0.42772156 -0.564529 0.24589002 -0.30764627 -0.27974898 -0.31599006 0.011425214 -0.31986034 -0.14726701 -0.018626278 0.13940486 0.17586397 0.5249336 -0.036860466 0.28251335 -0.7334626 0.22205332 0.14627658 -0.01818439 0.33910143 0.4001144 -0.35827288 0.48317826 -0.5118313 -0.18188992 -0.7636254 -0.15447706 0.011194663 0.06605353 0.5050233 -0.47694778 0.17778736 0.008217811 0.39385512 -0.1111732 -0.21642733 0.064216144 0.15764785 -0.70737684 -0.43535295 0.08767019 -0.12946703 0.1237293 0.49832824 -0.23000048 -0.03367398 -0.11485913 -0.5016511 0.16613422 0.24394721 -0.10575458 -0.0690933 -0.09924087 0.33527002 -0.66691405 -0.35911435 0.084614255 0.45655328 -0.44383135 -0.6803497 0.019914946 -0.048384026 0.07419617 0.272208 0.0803488 0.06779897 0.008143711 -0.6415496 -0.23839177 0.17864151 -0.16104418 0.15936857 0.10770947 0.17276096 0.017965859 -0.30178437 -0.09427158 0.46769717 0.4570386 0.2404786 0.2894257 0.017871832 -0.48879442 0.21748948 0.83022636 0.26778585
dlrg02background -0.31712136 -0.036343347 -0.48642984 0.1440827 0.23054713 -0.04187939 0.011510724 -0.33101863 -0.36774898 0.41164497 -0.24242412 -0.23431385 0.017008042 0.4816817 -0.09037929 -0.6361479 0.024670536 -0.04494061 -0.7573294 -0.23537484 0.41546133 0.1961503 0.37860328 -0.24039595 0.4305824 -0.273799 0.23431367 0.30448908 -0.12685563 -0.64415866 0.30319202 0.0009118097 0.07813159 -0.46982965 -0.31184074 0.061645422 0.13515513 -0.34316993 -0.46714014 -0.21087381 -0.64451873 -0.18070221 -0.081193365 -0.3696526 -0.6555476 0.0079447795 -0.10851014 -0.18797345 -0.1175114 -0.075314686 -0.0732586 -0.20514189 -0.34518114 -0.39266363 -0.19008018 -0.573017 -0.11283721 0.5863913 -0.9671697 -0.14160731 0.38372177 -0.49117476 0.06945516 0.037164263 -0.39340994 -0.10597654 -0.4402332 0.39698768 -0.27884182 -0.14921497 0.5859395 0.72400105 0.16206442 -0.048918758 0.3703609 -0.36841395 0.09072079 0.26083085 -0.47789574 -0.39789844 -0.3287108 -0.00806727 0.21869393 0.19505036 -0.4546203 0.020731485 0.24163695 0.060522653 0.26620865 -0.042560462 -0.24256703 -0.032646704 0.40251383 -0.1288211 0.62046254 0.4217102 -0.5818578 -0.074779496 0.42101383 -0.17520466
dreilinger97experiences -0.096154265 -0.6433808 -0.2065752 0.112922184 0.09522803 -0.493625 0.21556444 -0.12867789 -0.42304903 0.3582709 -0.051652405 -0.4588403 -0.47399333 0.106335014 0.17310639 -0.3980307 0.25050524 -0.30142137 -0.2027908 -0.4140681 -0.10207963 -0.008722786 0.19497894 -0.3304121 0.8500067 -0.428277 0.2728064 -0.123953685 -0.22055502 -0.5035561 0.26787946 0.13261938 0.41169584 -0.09691195 -0.0831568 0.59931415 -0.12045493 -0.64994496 -0.20293424 -0.5947936 0.08166618 -0.3807932 0.048076056 -0.4584746 -0.60496795 0.26815918 -0.17266795 -0.17473607 -0.22891639 -0.028211284 0.30595145 -0.16342884 0.03655802 -0.3464249 -0.38309112 -0.55048513 -0.17358497 0.46762618 -0.36254022 0.28376725 0.19634771 0.10218354 0.20923083 -0.136943 0.052053913 -0.068328574 -0.62686825 0.0026226474 -0.345559 -0.41348746 0.44454703 0.844413 -0.1734028 -0.37259382 0.17922767 -0.483866 0.2609473 -0.2409563 -0.33037055 -0.19200294 0.18146376 -0.39271066 -0.018347107 0.038028978 -0.92068315 0.23497409 0.506258 -0.17623653 0.13761131 -0.24133195 0.10260632 -0.11344609 -0.1005797 0.50066066 0.42214876 0.20838115 -0.43893695 0.23766816 0.50269717 -0.13387293
24549 0.2940415 -0.051209815 -0.35950652 -0.8531626 1.0299375 0.41066477 0.002626912 -0.3736984 -0.07175401 -0.032326795 0.23254496 0.40071207 -0.7653809 -0.14672388 0.33528468 -0.4838096 0.12706874 -0.25660902 0.22056174 -0.07827709 -0.8698417 0.033865925 0.3186006 -0.63249665 0.35945734 -0.5704151 0.82932127 0.65361786 0.04869287 -0.039370816 -0.35982248 -0.8483836 0.5173679 0.09263254 0.36417186 0.09770968 0.1567647 -0.66978383 0.40099582 -0.19970882 0.1486788 -0.80292165 -0.33189416 0.4848453 -0.8721536 0.019121353 0.70119834 -0.37900135 -0.78127855 -0.07786595 0.43531322 -0.6215489 0.54463667 -0.45792052 -0.092424884 -0.6465681 -0.22287211 0.7697997 -0.574782 -0.0054873377 -0.40827098 -0.3366201 0.057766568 0.57481134 -0.38761458 -0.05190851 -0.16878976 0.6229877 -0.7611522 -0.2629727 0.84811586 0.23331298 -0.075748116 0.06477179 -0.41592354 -0.35027933 0.34753373 0.09240242 -0.5400533 -1.1887147 -0.35884508 -0.4592945 0.21836811 -0.03691411 -0.43743333 0.72888005 0.46340132 0.4675256 -0.48340958 -0.41809982 0.58904696 0.40837768 0.49982038 0.1812328 0.1413141 -0.2108034 -0.0669457 0.772123 1.1057836 -0.32514858
55740 -0.21850201 0.06961786 -0.083635725 -0.020442298 0.427776 -0.5035958 0.43925464 0.2089093 -0.7555971 0.04951675 -0.3376512 0.002886216 -0.51155007 -0.16132466 0.31742632 -0.98740906 0.43953368 -0.18021551 -0.13075571 -0.837938 -0.5217585 -0.10519705 0.3524876 -0.1644508 -0.0187881 -0.02410357 0.35910356 0.12655579 -0.16140497 -0.21956219 0.25125962 -0.42638487 -0.43656158 -0.29419035 0.11889001 0.009769428 0.12030188 -0.6571895 0.1255479 -0.9264947 -0.21086068 -0.04627973 -0.3927484 0.32261088 -0.03275986 -0.13353959 0.028396552 0.109011464 -0.69366664 -0.3204373 -0.12952809 -0.0916267 -0.564274 -0.566796 -0.60340446 -0.27263924 -0.66463375 0.40596363 -0.37610063 -0.21460387 0.25387424 -0.20232044 0.331977 0.05294232 0.061029386 0.08962853 -0.5951102 0.1743032 -0.6180442 -0.7181288 0.10061074 0.40904063 -0.21454494 -0.33593228 0.14332736 -0.11265074 -0.3912086 0.34253818 -0.013641316 -0.38056797 0.49806413 -0.21726322 -0.20269886 -0.0396753 -0.12282467 0.079769544 0.30769053 0.002347559 0.14550616 0.027508719 -0.048529938 -0.6102111 0.30824053 -0.28467247 0.23882356 -0.012766228 -0.4100495 -0.14907642 0.7105596 0.09905367
starner98visual -0.17513439 0.27454752 -0.20074989 -0.14034946 0.21362352 -0.012701663 -0.52820086 -0.67163765 -0.003346243 0.014974354 0.5853908 0.23162267 -0.49082023 0.26164988 0.054747805 -0.54048884 -0.63390875 -0.22620998 -0.64539206 0.26998955 -0.38751486 -0.120389 0.06319851 -0.2910469 -0.6182755 -0.393821 0.56615716 0.2608832 0.0027841693 -0.22607046 -0.6277161 0.12874933 0.64191395 0.44055897 0.23643541 -0.3187734 0.4225783 -0.16652024 0.013429961 -0.3526599 0.16610739 -0.061194297 -0.0073011937 0.38223353 -0.5210705 -0.04769799 0.08481292 -0.19657712 0.1619577 0.06909228 0.07577305 -0.44587937 -0.07230604 -0.8609023 0.055579122 -0.30828327 -1.137755 0.21263692 -0.20531356 0.05940743 -0.20533556 -0.068374924 0.31525388 0.32367408 0.0036488704 0.26822925 -0.24014589 0.43296054 -0.56170875 -0.39137548 0.48475447 -0.25822818 -0.7268473 0.13470419 0.4937617 -0.11375765 0.2271386 -0.55388796 -0.5630261 0.17870043 -0.04095351 0.076561615 0.4035902 0.47265476 -0.11172518 -0.07403184 0.19511093 0.38181517 -0.26417574 0.08754028 0.7348877 -0.103163324 -0.11460621 0.18763314 0.060497876 0.5709321 -0.51159656 0.3898932 0.63652927 0.15272936
minar99hive -0.42473552 0.6447205 -0.23939548 -0.5419031 0.045927413 -0.32348302 -0.46717942 -0.9118276 -0.34843045 0.38499114 0.7933241 0.06097715 -0.5271992 0.8770269 0.26405004 -0.29380217 -0.1926295 0.10696425 -0.66119796 0.43103454 0.04668793 0.07219809 0.4233602 -0.69530594 -0.38499117 -0.42415702 -0.2096662 -0.07046247 -0.16961077 0.051155668 -0.43122646 -0.06068469 0.6177714 -0.0030048722 0.3742535 -0.050592743 0.18985544 0.1597123 0.1678853 -0.34675545 -0.31833515 -0.17544246 -0.16583218 0.24446431 -0.33263865 0.14833733 -0.16753317 -0.17433284 -0.34433293 0.11764664 0.18520647 -0.19151084 -0.40135837 -0.95562196 -0.08989647 0.020573553 -0.8791708 0.5388094 -0.15846486 -0.039459925 -0.2723749 -0.087917395 0.22712196 0.45045638 0.08165736 0.21342273 -0.06459548 -0.0751058 -0.2210952 -0.43365464 0.2966096 -0.54837215 -0.713844 0.040859614 0.2535987 -0.18525735 -0.26381615 -0.37716237 -0.46672708 0.23210628 -0.2889621 -0.124873914 -0.042461414 -0.17589407 -0.08013943 0.17407945 0.40270284 0.22539054 -0.28061467 -0.37456846 0.7611064 -0.41969413 -0.25485286 0.102136634 0.031657916 0.5545734 -0.7807246 0.8840474 0.09027005 -0.27891776
bergamaschi99semantic -0.5872786 0.62058735 -0.5175482 -0.24159013 0.4125474 0.27999446 0.20102815 -0.27551946 -0.07247512 0.77057225 0.08598598 -0.4233346 -0.16993918 0.034285285 0.52845436 -0.3520415 0.067598596 0.113198206 -0.48737422 -0.25689793 0.29623058 -0.028795496 -0.5174114 -0.02975486 -0.91248745 -0.3113905 -0.26184574 -0.283482 -0.3916042 -0.3635564 0.11632226 -0.6210074 0.53633267 -0.36645594 -0.26559025 -0.024539929 0.2901492 -0.049368385 -0.10472156 -0.33350798 0.018140635 -0.3476413 0.035687756 0.54625654 0.03193595 0.0011626871 0.728338 0.042081323 -1.0105001 -0.5337234 -0.07509246 0.021745834 -0.38528726 -1.1246222 -0.34643048 -0.8463285 -0.046837386 0.1784906 0.3688489 -0.22576761 -0.37643313 -0.2054163 -0.07093586 0.46147802 0.32240057 -0.8789495 -0.2657806 0.30845892 0.17241053 -0.35353506 -0.14725307 0.23676439 -0.42534205 -0.29961863 -0.06962539 -0.52206826 0.40835088 -0.6074495 -0.3327198 -0.28462514 0.026344335 -0.028835371 0.047932968 0.1975843 -0.085047215 0.18739447 -0.16674525 0.12562698 -0.68450123 -0.525676 0.10906245 -0.6293808 -0.0172879 0.4959674 -0.053157717 -0.45730534 -0.50618947 0.43553576 0.82936054 -0.1696319
wood00overview -0.6429918 0.5492001 -0.085257895 -0.28539816 0.5841094 -0.027815266 0.051966462 -0.6060935 -0.3187587 0.2197426 0.16264915 -0.17100814 -0.48781624 0.39400804 0.2787159 0.11082031 0.26225457 0.38500747 -0.71673965 -0.21221957 -0.03557102 -0.18039607 0.2012467 -1.0639722 -0.75043184 -0.1640233 -0.07812639 -0.3054245 -0.07536572 -0.21088511 0.201816 -0.1474414 0.509487 -0.2001117 0.20944877 0.14287281 -0.5331661 0.2766388 -0.07250463 -0.14738359 0.20397472 -0.91418415 -0.3899181 0.53730494 -0.3060291 0.30386007 0.06421239 -0.16735493 -0.74820673 -0.419525 0.21959719 -0.34492347 -0.23285067 -0.48578644 -0.34840828 0.2929337 -0.052988634 0.46072727 0.123983905 -0.041201223 -0.14639795 -0.10527914 0.066898204 0.8649065 0.40972245 0.15232842 -0.42530912 0.27053 0.16149601 -0.19499874 0.066241324 -0.34205598 -0.3058036 -0.2143905 0.8155031 -0.16540796 -0.24311626 -0.020248776 -0.17124164 -0.052563194 -0.2202166 -0.03352291 0.20566432 0.049883645 -0.24114339 0.4061572 0.48230717 -0.14541069 -0.33303887 -0.92725945 0.34444177 -0.4666404 0.007979598 0.08447168 -0.0680022 0.059876733 -0.75187886 0.35115236 -0.023541257 0.24163
meng99estimating -0.36228138 -0.6759325 -0.35280913 -0.06725085 0.22902921 -0.33213064 0.1593496 -0.19379152 -0.33940256 0.31665653 -0.11372559 -0.5109941 -0.26265842 0.08928415 0.2703818 -0.4289502 0.26338893 -0.070650496 -0.10867171 -0.36663663 -0.061043367 0.09384038 0.3334817 -0.5600591 0.6977972 -0.5243971 0.19604969 -0.42439756 -0.12357465 -0.5441616 0.43916616 0.1229971 0.28608465 0.089136146 -0.19565144 0.51678073 -0.12956333 -0.58367366 0.030567454 -0.5707679 -0.024343308 -0.23851302 0.10703271 -0.4404926 -0.5532773 0.3183538 -0.07996495 -0.176614 -0.021571005 -0.04103656 0.28799033 -0.2739197 -0.13636069 -0.16399974 -0.39546558 -0.69525754 0.10409656 0.35476607 -0.5661776 0.124492474 0.23988001 -0.00069353025 0.07677481 -0.02722617 -0.025268199 -0.20342487 -0.60268307 0.0012112873 -0.38365766 -0.28858584 0.4125775 0.58533067 -0.24208687 -0.2278602 0.34859756 -0.62942207 0.035280235 -0.13529535 -0.5534596 -0.2251383 0.025832362 -0.7160398 -0.29655024 0.23105156 -0.59182376 -0.032844648 0.5259018 -0.08290448 0.02340015 -0.21678677 0.16510995 -0.07131962 -0.071099274 0.46084833 0.55895084 0.33881778 -0.6659572 0.17325518 0.4708748 -0.21702154
100157 -0.7446464 -0.07316703 -0.29510728 -0.46725467 0.45146817 0.04734165 -0.27188215 -0.2773674 -0.37535423 0.41121185 -0.047573328 -0.29153264 -0.54091924 0.33161762 0.18837595 -0.54515964 0.9143573 -0.22430405 -0.15554005 -0.4881279 -0.11206024 -0.41417524 0.3868325 -0.38520297 -0.276364 -0.29791364 -0.6390455 0.05082593 -0.44933325 -0.42987862 -0.18495621 0.14703666 -0.083323434 -0.17042477 -0.19317907 -0.26511648 -0.12724383 -0.2544238 0.08115859 -0.08360197 -0.2816854 -0.08187026 -0.43461314 -0.08446049 -0.3550156 0.06232534 0.54787403 -0.5147227 -0.37996337 -0.27771288 0.14066648 -0.16487904 -0.34719634 -0.30851978 -0.40835172 -0.11865031 -0.12761444 0.06936161 -0.49806172 -0.64286345 0.05767394 -0.38050085 -0.034397192 0.46732005 -0.26604152 0.17917426 -0.2629914 0.06753611 -0.18407512 0.08868914 -0.4481606 -0.35273507 -0.39732248 -0.14260337 -0.20208926 0.41229212 -0.3989636 0.29759067 -0.20962818 -0.19449143 0.3224776 -0.3974353 0.027056826 0.21235824 -0.1685734 0.10779595 -0.05745952 -0.043527197 -0.18417977 -0.7713511 0.4381408 -0.5529552 -0.71527463 -0.47888884 0.12851489 0.03483068 -0.9716378 0.5618483 0.4677584 0.045330595
271585 -0.5610721 -0.42751247 -0.32287386 0.16082281 0.22216107 -0.26940355 0.032391123 -0.20255749 -0.31195837 0.38212982 -0.0768749 -0.32285553 0.22523417 0.319892 0.011161756 -0.50867754 0.329177 -0.17723717 -0.4003113 -0.3558384 0.34456313 0.0076534036 0.42002583 -0.33168525 0.45475674 -0.10774766 0.1718175 0.37317315 -0.21040316 -0.58900934 0.2064643 0.21550563 0.08026352 -0.42148602 0.0010703276 0.11684267 0.09201617 -0.36145294 -0.36435658 -0.3240794 -0.51273906 -0.0030333705 -0.2707213 -0.18389548 -0.5898485 0.2807736 0.062530726 0.16046369 0.08323007 -0.028377082 -0.30500582 -0.19509506 -0.3590059 -0.52421576 -0.39943832 -0.39442194 0.16443655 0.32107475 -0.7336928 -0.060562283 0.359647 -0.43475935 0.25139034 -0.062455993 -0.45326474 0.07372369 -0.60988754 0.42992243 -0.2503602 -0.40243742 0.5493488 0.46485102 0.43426916 -0.20453236 0.34037358 -0.7825199 0.22974901 -0.25026253 -0.46734524 -0.2609994 -0.35554916 -0.1712668 -0.08993541 -0.19172825 -0.5679959 0.29526067 0.51401794 -0.16859068 -0.20390649 -0.09714935 -0.3114659 0.32898664 0.3485625 0.037373416 0.5500179 0.4874871 -0.8100956 0.28111982 0.4548637 -0.10773104
kosala00web -0.079527065 0.23657526 -0.058618758 -0.36730817 0.08068571 -0.27359602 0.10009475 -0.2281476 -0.3105956 0.11621959 0.002333682 -0.23674195 0.25130308 0.3103206 0.1767738 -0.75277776 0.1124186 -0.4947374 -0.6963297 -0.9099138 -0.3014492 -0.08933832 -0.13310036 -0.120892204 0.52755666 -0.45629355 0.3286514 0.40501782 -0.21492134 -0.48583475 0.4994378 0.07683887 -0.26661474 -0.08788798 -0.07902233 0.261939 0.2864874 -0.4769695 -0.5288327 -0.46207756 -0.30951014 0.35163963 0.1449931 -0.26370257 -0.18658736 0.4409381 0.07261206 -0.09118368 -0.58213514 0.17042941 -0.040558554 0.03543702 -0.7712457 -0.3450908 -0.21996027 -0.24066932 0.45161116 0.2657204 -0.42814726 0.122980766 0.36246958 -0.39055893 -0.100549124 -0.17248558 -0.26577494 -0.029993523 -0.8302845 0.14768864 -0.32608107 -0.15082763 0.60434246 0.534114 -0.117358275 0.063899554 0.32136303 -0.114856765 -0.018959556 0.20825787 -0.6218251 -0.5761683 -0.073150255 -0.075615436 0.07634662 -0.3094721 -0.50402373 0.18860568 0.1975201 0.23538901 -0.053460512 0.020827834 -0.055221274 -0.46144196 0.27233043 0.013988194 0.19650172 0.2890391 -0.36263034 0.049162023 0.8534976 -0.09084754
deloach99multiagent -0.5229448 0.6446178 -0.102305464 -0.37967688 0.6994748 0.0025711989 0.13709034 -0.53266346 0.0059568314 0.41163036 0.18443766 -0.10204234 -0.7088695 0.54053515 0.28750446 0.15029241 0.23992632 0.32001317 -0.4430805 -0.23099554 0.1868952 -0.33326027 0.27733684 -1.1295036 -0.6759489 -0.049273334 -0.02209686 -0.17966029 -0.23061652 -0.2016003 0.39024442 -0.20762093 0.5105575 0.122442745 0.192734 0.013411723 -0.13800387 -0.08270451 0.008093564 -0.03986215 -0.1333736 -0.87566936 0.03180907 0.44083786 -0.5184277 0.245626 -0.06366301 -0.025390564 -0.73606354 -0.5786835 0.21499655 -0.12764494 -0.0932898 -0.40632778 -0.44296023 0.15744954 0.038428806 0.6190208 0.25034478 0.03387766 -0.07646038 -0.05310902 0.19694199 1.1322621 0.41796193 0.0998646 -0.53440815 0.31432876 0.40378973 -0.16052496 0.19017021 -0.31791866 -0.5541315 -0.13543358 0.82767135 -0.26775405 -0.18207863 -0.13006556 0.0017614356 -0.30377254 -0.0067819227 0.0012479282 0.22486922 0.10778528 -0.31367004 0.5568317 0.84004575 -0.19294518 -0.20081517 -1.0945734 0.27676186 -0.652817 -0.032880314 0.008224817 -0.072373375 0.091293246 -0.5399703 0.27691427 0.086589985 0.21527565
cabri00mars -0.80112803 0.41479602 -0.080754176 0.006110995 0.22347806 0.0050319443 0.15951556 -0.70533574 -0.378027 0.20008786 0.3611246 -0.58843476 -0.13469991 0.43949166 0.47931677 -0.31720984 0.14702863 0.100605674 -0.47032312 -0.25869605 0.03406767 -0.14697373 -0.024146447 -0.6657173 -0.9010136 -0.33715096 -0.09434639 -0.46189505 0.015396966 -0.28239325 -0.01284316 -0.7380798 0.44482502 -0.47580266 -0.2051524 0.18108913 -0.024837498 0.18954173 0.016934084 -0.19957325 0.23217389 -0.35764152 -0.09849793 0.43519992 0.06094765 0.27959737 0.17229421 -0.29290262 -0.8898674 -0.58453435 -0.16025665 0.055249527 -0.2407631 -0.95790225 -0.071394935 -0.4506386 0.13678703 0.37967572 0.3093574 0.06636107 -0.1983358 -0.09433451 0.06836101 0.64396054 0.08983255 -0.58968794 -0.09816769 0.23938224 0.26069018 0.068825275 0.10309346 -0.43147367 -0.19938324 -0.1845944 -0.18615395 -0.24147375 -0.020142322 -0.5527298 -0.40470847 -0.2557738 -0.09113617 -0.18958822 0.08175014 -0.02776844 -0.30641007 0.7103385 -0.052394375 0.10618285 -0.45869416 -0.8241561 0.4715978 -0.76872057 -0.12379256 0.40980443 -0.34149712 -0.13228463 -1.1406993 0.5767082 0.65005034 0.1784202
kushmerick00wrapper -0.17658345 0.18708129 -0.31633857 -0.04293466 0.058102217 -0.25580698 0.1207005 0.4097666 -0.44040984 0.10709795 -0.070984386 -0.52087426 -0.35960308 -0.16375041 0.3693949 -0.77314574 0.37486055 -0.28773978 0.024382904 -0.5208377 -0.38934457 0.14404002 -0.10367095 -0.0952727 0.29045328 -0.07439316 -0.08798608 0.2267234 -0.03751084 -0.4124012 0.36649397 -0.22632034 -0.40534166 -0.041554738 -0.09281563 -0.18371859 0.21022381 -0.6117649 0.18811987 -1.1097611 0.0110634295 0.1108511 -0.19792575 -0.10573741 -0.17796655 -0.14666204 0.29475057 -0.18532579 -0.46719646 -0.41660705 -0.049028672 -0.18974712 -0.565494 -0.6554426 -0.59014267 -0.44464806 -0.17331925 0.6866974 -0.5075563 -0.016318183 -0.17261103 -0.10322409 -0.2529437 -0.14740707 -0.48371395 -0.09448672 -0.6418829 0.30884665 -0.32777482 -0.5552182 0.3009195 0.61027634 -0.09011933 -0.33650172 0.50188774 -0.042337347 -0.119909674 0.08802403 -0.18968509 -0.53401333 0.2501727 -0.36237714 -0.07278167 0.005213154 -0.0001648303 0.09628986 0.043490693 -0.44676048 -0.06750588 -0.043400384 0.15999636 -0.11901074 0.02705434 0.29499987 0.38156128 -0.22590579 -0.880228 0.06682085 0.5346051 0.032320477
chamberlin00quilt -0.24147867 -0.46033782 0.11273104 -0.118801765 0.7863879 -0.10445266 0.17637007 -0.40833893 -0.2968117 0.7787399 -0.20337084 0.1250058 -0.14834566 -0.16361898 0.7479414 -0.30158332 0.5925654 -0.51479894 -0.24634586 -0.5098989 0.1740634 0.19282171 -0.016341545 -0.21011302 -0.2409366 -0.003961882 0.9199994 -0.18988179 -0.07752859 -1.0674016 0.15191989 -0.17167255 -0.4839473 0.25088993 0.122531064 -0.29430294 0.17756148 -0.2833541 -0.2757218 -0.45418435 -0.5808443 0.17338029 0.21705787 0.43397537 -0.015552095 -0.03537932 0.08512344 0.34782475 -0.204435 -0.19484015 -0.16230871 0.01969826 -0.17672235 -0.7484478 -0.48376897 -0.5005314 -0.3369261 0.88762194 -0.4837762 0.07288203 -0.15402804 -0.27572703 0.2605112 -0.21807511 -0.45369035 -0.25191918 -0.3187697 -0.090506434 -0.35197863 -0.10052493 0.1057518 0.49386138 -0.6783618 -0.22513516 0.18994781 -0.4826687 0.41933382 -0.20142525 -0.4219448 -0.28595552 -0.37871584 -0.5679173 -0.34374732 0.49819472 0.2026463 0.25859305 0.10623236 -0.15717047 -0.24333584 -0.2402574 0.24251981 -0.100441575 0.04919007 -0.089201726 0.03926984 0.101475716 -0.029437846 -0.17800373 0.28701234 0.49741775
yu99finding -0.35136378 -0.7033473 -0.28284633 0.08580506 0.25857344 -0.34723553 0.19359669 -0.27111524 -0.32022053 0.36981073 -0.078215584 -0.472395 -0.3290202 0.14989445 0.21886255 -0.52451944 0.10200769 -0.15672673 -0.2858032 -0.35294437 -0.124280624 0.12225865 0.18335424 -0.6220268 0.59219867 -0.6362769 0.22095892 -0.36250463 -0.038118023 -0.48567197 0.55471 0.15555134 0.36180142 -0.034725964 -0.11774854 0.6286456 -0.15965112 -0.6002832 0.031479288 -0.5481529 0.00018685241 -0.1739244 0.006854671 -0.4690893 -0.5755965 0.30042136 -0.13510558 -0.30523995 0.19422986 0.008699997 0.32045344 -0.11364954 -0.14151835 -0.18432806 -0.2716925 -0.7158502 0.2205408 0.4202171 -0.43181756 0.19491819 0.24699323 -0.0045551383 0.06700938 -0.10554426 -0.04844344 -0.03536893 -0.6415597 -0.092277996 -0.36790875 -0.27032515 0.3828219 0.5987223 -0.197201 -0.33052266 0.3022595 -0.58961254 0.1220636 -0.11642459 -0.49533665 -0.17418104 -0.15152848 -0.49482074 -0.3407036 0.32428604 -0.728367 0.07161736 0.6414584 0.020491071 0.17556255 -0.26648787 0.12159924 -0.19336016 -0.17804074 0.3412609 0.46170872 0.32432377 -0.64147913 0.2378847 0.54557264 0.00518062
liu98statistical -0.30920234 -0.6989184 -0.28572482 0.03768322 0.22412524 -0.28198597 0.10746466 -0.3060743 -0.316229 0.20598228 -0.13240556 -0.45423338 -0.5339423 0.008018135 0.1744362 -0.4664908 0.098001316 -0.030932138 -0.22830887 -0.20562695 -0.1115422 0.16356234 0.15206407 -0.48571998 0.5325879 -0.5101129 0.25259775 -0.28112292 -0.16944268 -0.48284104 0.5142372 0.18974294 0.49323085 -0.0027165008 -0.14113988 0.4812861 -0.14458284 -0.6133233 0.10907022 -0.608117 -0.06982041 -0.2607377 0.05019263 -0.48006994 -0.5568274 0.22846079 -0.15293793 -0.25874946 0.08973734 0.1352741 0.29950014 -0.20741603 -0.09834221 -0.21848449 -0.43735513 -0.66431576 0.11592273 0.44570774 -0.50313294 0.22335862 0.3081856 0.013656764 0.054684438 -0.15866117 -0.029134179 -0.25679785 -0.6194846 -0.10252401 -0.53832954 -0.21795964 0.32746258 0.6721485 -0.16227707 -0.22359043 0.4730796 -0.66830933 0.15800564 -0.0751374 -0.5690338 -0.25234523 0.05103955 -0.6223371 -0.34599477 0.20335892 -0.6446534 0.096656464 0.6194699 -0.0063520717 0.13591276 -0.23303072 0.124535725 -0.15744598 -0.20281306 0.2536385 0.6129634 0.28824723 -0.7120195 0.22952144 0.584036 -0.11282743
labrou99agent -0.9122789 0.47453406 -0.014501494 -0.28172556 0.26537004 -0.14099504 -0.31557328 -0.40768722 -0.2529442 0.31869504 -0.05105177 -0.19264244 -0.5766449 0.5301899 0.5210016 -0.17372997 0.56197125 0.09230723 -0.13725665 -0.31993064 0.13369556 -0.2770835 0.22102094 -0.7497694 -0.5384863 -0.42102787 -0.7182397 -0.022019755 -0.21786287 -0.39429933 0.07844346 0.061730105 0.1811422 -0.2230197 0.0018862961 0.09902503 0.04756495 0.091709584 -0.19502337 0.015247234 -0.18726934 -0.3758897 -0.4902026 0.02241903 -0.34229827 0.18625455 0.39344418 -0.44025168 -0.4815714 -0.33484504 0.16710153 -0.21685162 -0.36864427 -0.38045722 -0.07695011 -0.2367699 -0.1327682 0.42924592 -0.21582372 -0.7450454 -0.019447923 -0.12068803 0.12206889 0.79591864 0.28306147 0.10106537 -0.015216049 -0.012072596 0.21230328 0.078307256 0.12268485 -0.52892977 -0.3947039 -0.00989299 -0.5173018 0.1801584 -0.35574755 -0.14595935 -0.091409184 -0.33489203 0.42224786 -0.3247826 0.25605282 -0.024026565 -0.29539895 0.35752192 0.29157835 -0.16908929 -0.35984218 -0.8988613 0.3028654 -0.63593876 -0.39678755 -0.11041052 -0.09020624 0.07234178 -0.96344393 0.5584749 0.290036 0.20264527
rao95formal -0.62389636 0.6490985 0.1038557 -0.3397332 0.69685465 -0.27861118 -0.036944013 -0.04501263 -0.46874171 0.41958767 0.0283324 -0.24634627 -0.7063788 0.22503741 -0.059435938 -0.342888 0.27761602 -0.046293434 -0.6083759 -0.30756807 -0.06996938 0.15440692 0.56058687 -1.0463016 -0.38506746 -0.2759859 -0.20341145 -0.13495514 -0.075360626 0.34876832 0.26849994 -0.018552357 -0.11736048 0.030513166 0.17849791 0.020118127 -0.04814247 -0.089011006 0.2642626 -0.13553888 0.14749046 -0.86645716 -0.34870258 0.29744282 -0.19532384 0.4056998 0.2437316 -0.4447723 -0.74590766 -0.7363632 0.441066 -0.92320913 -0.2543198 -0.5491906 -0.33939272 0.13264655 -0.27629 0.09802684 -0.39631954 0.08122998 -0.5716295 0.1539703 0.11958697 0.25759286 0.28153732 0.43010575 -0.32962412 -0.06490431 0.095213205 -0.57791823 -0.3438881 -0.52367705 -0.3265947 0.023319539 0.0976986 -0.09014495 -0.43678373 -0.31879577 -0.22472322 -0.10377993 -0.24108864 0.0045776684 0.19398306 0.1321065 -0.20485605 0.13799807 -0.4743065 0.10892971 -0.4047038 -0.21969824 0.651355 -0.47665247 0.3586167 -0.03585608 0.15396437 0.06001472 -0.46375597 0.18180306 0.0046103983 0.16377503
schapire98boosting 0.61637044 -0.08419509 -0.21111673 -0.23108767 0.07345318 0.38237372 0.09351082 0.3358832 -0.30970934 0.2934317 -0.30198163 -0.017464528 -0.48538154 0.66109794 -0.17651822 -0.3856198 -0.032299843 0.136336 -0.5350654 -0.14941674 -0.120737486 -0.32957938 -0.3971182 -0.073267154 -0.013812516 -0.31424785 0.3549488 -0.059805688 0.06885173 -0.24270125 0.14557062 0.18813978 0.33592698 0.13150305 0.15653256 -0.22525465 0.23181269 -0.31489432 0.033350203 -1.0450025 -0.06299677 -0.298541 -0.3108093 0.36878073 -0.43970516 0.22235611 -0.19541632 0.17361277 -0.25114435 0.031010909 -0.37348345 -0.48647544 -0.40719163 -0.46935293 -0.24964897 -0.13763663 -0.08517987 0.19602251 -0.05407072 -0.22246067 -0.15032889 -0.7822029 0.22528805 -0.145496 -0.5985985 -0.2905397 0.2512952 0.21836263 -0.72605306 -0.45869988 0.054096058 0.5205548 -0.15642808 -0.26969016 0.7401981 -0.239769 -0.16531496 0.6531799 -0.29285896 -0.37500417 0.28519335 -0.67104495 -0.15689997 -0.48580015 -0.17751497 0.12503812 0.501421 -0.15833728 -0.14190191 -0.4679536 -0.03127384 0.32261747 0.90967125 0.03077344 0.74711484 -0.039760638 -0.82293344 0.378017 0.8285426 0.35923386
zamir98web 0.0858215 -0.19508415 -0.27556103 0.27106434 0.54492134 -0.021474494 0.28144562 -0.08134203 -0.518347 0.27786228 -0.027090214 -0.14266229 -0.06227539 0.13653602 -0.037039235 -0.6204685 -0.23163132 -0.46442637 -0.31618538 -0.44457203 0.5378495 -0.032824714 0.28009972 0.06573304 1.064969 -0.09841501 0.4696387 0.25501633 -0.36946902 -0.5476287 0.17865734 -0.035201523 -0.15683344 -0.27031988 -0.07574032 0.3060914 0.2717596 -0.4889434 -0.26450524 -0.49655145 -0.3754298 -0.093714096 -0.0060294727 0.27178073 -0.6125787 -0.15940468 -0.064412765 0.08199124 -0.553238 -0.26447397 -0.05546312 -0.36952406 -0.57123715 -0.63894683 -0.17127316 -0.24944688 0.29329306 0.24288777 -0.796819 -0.13606372 0.44987732 -0.16042674 0.42840925 0.09412524 -0.47359043 -0.015580383 -0.35843524 0.3484625 -0.528091 -0.4412836 0.18569985 0.2142283 0.15568404 -0.4961383 0.17178938 -0.44510102 0.16018288 0.061551537 -0.41967538 -0.19785756 -0.081273906 -0.3265192 -0.35395396 -0.11400365 -0.45813787 -0.046741027 0.42232445 -0.115589604 0.36821023 -0.09652388 -0.62822264 -0.3810388 0.28440005 -0.104348116 0.49282578 0.45391232 -0.4113913 0.3392468 0.24095595 -0.0013893497
rickel98animated -0.36740592 -0.15823491 0.09689405 0.13726938 0.56175005 0.20326208 -0.19998305 -0.37721816 -0.48840764 0.2862495 -0.90004194 0.082621805 -0.22791295 -0.13126425 -0.07547333 -0.16805106 -0.0061664437 0.021495989 -0.23127067 -0.1177425 0.16955437 -0.36262238 0.3350603 -0.6810607 -0.18627167 0.14962992 -0.45855033 0.13108177 0.00041855316 0.162515 0.22354895 0.33831194 0.44064447 -0.2606414 0.063239746 -0.36066002 0.12512822 -0.5076321 -0.063148275 -0.6965485 0.49427423 0.078932814 0.07278701 1.0585041 -0.83544207 0.6925109 -0.39170688 -0.113749094 -0.40786922 0.16728444 -0.044871613 -0.4143895 -0.20478196 -0.50065625 -0.7532263 -0.35036027 -0.531189 0.16208631 0.08819943 0.105451986 0.044897053 0.3780597 0.43802118 0.5482616 -0.22924304 -0.17241305 -0.66244954 0.290577 -0.7861926 -0.4372161 -0.12876768 -0.88582176 -0.6437303 -0.07125078 -0.26831794 -0.7354128 0.17548092 -0.017478257 -0.78517616 -0.15425563 -0.00862955 0.56702405 0.106728055 -0.1971312 -0.5760932 0.20105964 -0.15000334 0.1305391 -0.89004695 -0.21129318 0.62187296 -0.30310112 0.48687848 -0.10694656 0.6178974 0.008025494 -0.10743797 0.051952463 0.114348836 -0.2334184
callan99automatic -0.3406852 -0.5439087 -0.26327553 0.06774049 0.1680189 -0.13813035 0.11750545 -0.2411309 -0.24103647 0.43855134 -0.17275447 -0.14109421 -0.8529612 0.054569248 0.21771519 -0.5929002 -0.16731034 -0.28899354 -0.16788584 -0.27708146 -0.05574373 0.0013569216 0.1484979 -0.35023364 0.8273824 -0.5732494 0.22665441 -0.38926825 -0.41089433 -0.6672374 0.46595138 0.28949815 0.3503391 0.036626726 -0.17786416 0.30211303 -0.1822921 -0.63595134 -0.081014045 -0.8219272 -0.025629612 -0.57406104 -0.00020575934 -0.5363563 -0.58157164 0.17942438 -0.3881543 -0.49417874 0.012824504 0.14796561 0.33923563 -0.46262524 -0.00700433 -0.21740119 -0.4467784 -0.530326 -0.027939849 0.55966216 -0.3845181 0.32678097 0.13830167 0.22265841 -0.15921816 -0.24325843 -0.078162335 -0.2694122 -0.47778445 0.19262831 -0.5872827 -0.024561778 0.054172818 0.434066 -0.45790133 -0.15214726 0.5517462 -0.56540793 0.05107691 -0.13314454 -0.50190175 -0.3365311 0.18841627 -0.396677 -0.34482786 0.30518672 -0.7879445 0.20376797 0.48066375 -0.032122355 0.052308973 -0.06884505 -0.16103391 0.007071361 0.014454988 0.41491604 0.729566 0.47296545 -0.74678445 0.39534193 0.25342232 -0.12220716
376145 -0.25257912 -0.62685347 -0.36486694 -0.018208254 0.13337128 -0.38517576 0.09526983 -0.13263814 -0.31843036 0.43459207 -0.1816236 -0.26034796 -0.31438294 0.12145977 0.4243831 -0.46361405 0.1666838 -0.28659937 -0.3392181 -0.2666064 0.02333032 -0.11909453 0.29174963 -0.50478274 0.67379165 -0.81901205 0.4180482 -0.13388483 -0.15567787 -0.5743386 0.28480414 0.2392341 0.39560542 -0.06862531 -0.3337634 0.499162 -0.38920712 -0.6176059 -0.03464813 -0.4744405 0.08365585 -0.3892839 -0.046201397 -0.5493286 -0.5789573 0.21454392 -0.11045648 -0.38318565 0.121454984 0.046526276 0.30015418 -0.27044 -0.07976722 -0.4505585 -0.24557705 -0.7313237 -0.03878551 0.40220517 -0.3042557 0.2562003 0.16505341 -0.05223177 -0.088191144 -0.18583822 0.08215218 0.017697183 -0.51580095 0.11650573 -0.34095883 -0.247048 0.27782717 0.5287275 -0.033698563 -0.14480524 0.60507154 -0.680691 0.03509964 -0.1223953 -0.5508435 -0.16647452 -0.05044853 -0.5599043 -0.2287123 0.14019153 -0.718127 0.039886784 0.41405186 -0.039598905 0.19441636 -0.26136714 -0.09055506 -0.15104549 -0.04890732 0.2559462 0.6110237 0.27294856 -0.65398157 0.15103799 0.45409784 0.064301305
stone98layered -0.26241237 0.08384945 -0.41410902 0.059418302 0.55376464 0.29806703 0.10292318 -0.39811096 -0.34344324 0.12181517 -0.46216568 0.20187856 -0.6315792 0.45623428 0.2646045 -0.16521084 0.13618617 -0.38234386 -0.34023157 0.04625309 0.08297326 -0.34218377 0.45177191 -1.1089607 -0.8966953 -0.07557269 -0.101191744 0.11055102 -0.08458536 0.602542 0.006965598 0.05164898 -0.0756431 -0.33313218 -0.23773852 0.00074337755 0.19489537 -0.14701349 -0.3963438 -0.31234828 0.37368625 -0.4106894 -0.35183066 0.60953474 -0.027716784 0.29372337 0.9122426 -0.21398036 0.25885648 -0.17158957 0.12304838 -0.8303024 0.3896698 -0.4631435 -0.30450737 -0.2548396 -0.45904723 0.2331633 0.00027234515 0.097128324 -0.10023195 0.06245598 0.051874444 0.7030058 0.34858048 0.6082347 -0.5629133 -0.14080624 -0.2881867 -0.7018566 0.20362285 -0.32071975 -0.02965931 -0.14845076 -0.1409571 -0.8074361 0.27169874 0.07319045 0.15604079 -0.25743848 -0.4515618 0.10039864 0.26924053 -0.46630695 -0.67484856 -0.17808272 0.57037276 0.4600587 0.1436397 -0.37204415 0.14306726 -0.725569 0.3444401 0.15177396 0.21420291 0.31815538 -0.7615996 -0.034586016 0.514833 0.49921572
holtman98automatic 0.10337623 0.5677111 -0.092358604 -0.5596337 0.18410225 -0.20364335 0.3148443 -0.21362764 -0.061514925 -0.44011855 -0.6645991 -0.10266561 -0.6653283 0.2521794 0.74464273 -0.47785386 -0.498269 -0.07805882 0.08002389 -0.2690469 0.6502898 -0.5085109 -0.08503132 -0.8401207 -0.12256093 0.41528752 -0.06237476 0.0066827303 -0.10831631 -0.3030621 0.0681324 -0.5303271 0.24978426 -0.076355346 0.747103 -0.051955815 0.043722846 -0.07815142 -0.14751756 -0.3685839 -0.48890412 0.016677622 -0.2777672 -0.14351162 -0.4213977 -0.067322694 -0.16549231 -0.926208 -0.54502934 -0.5873898 0.21509995 -0.16104488 0.26297507 -0.79756874 0.25147069 -1.0369438 0.25650817 0.25469992 -0.45219243 0.026049934 -0.38302833 -0.7740925 0.41741192 0.35576162 -0.50608224 -0.6663514 0.2079099 -0.5566198 -0.62007356 -1.1296517 -0.057861995 -0.13679057 -1.0371239 -0.44749832 -0.16179036 -0.4814403 0.36146763 0.32753664 -0.9821 0.014313739 -0.7069725 0.120533496 0.94080895 0.5807535 -0.97756106 0.42792436 0.03304659 -0.14104174 -0.7148559 -1.0236157 0.52632314 -0.14119864 0.066518545 0.061680272 0.70082444 0.15421057 -1.4730711 -0.16277388 0.57569915 0.82276887
rungsarityotin00finding -0.2263018 0.38881367 -0.27337074 -0.160682 -0.019292634 -0.23222555 -0.59634763 -0.53408796 -0.17640631 0.03544917 0.55713075 0.25433135 -0.6925605 0.23786101 -0.062681004 -0.6468948 -0.5091496 -0.2911627 -0.7323514 0.09465983 -0.44266888 -0.2164372 0.06973472 -0.19386894 -0.63110095 -0.45299646 0.682038 0.26500094 -0.058430232 -0.32544 -0.7805086 0.1127628 0.7227003 0.6857626 0.2084911 -0.44907352 0.40588894 -0.38004267 -0.04576314 -0.24649514 0.27679995 -0.1310958 0.18667792 0.26143125 -0.6213621 -0.19876996 0.17192726 -0.21369313 -0.09717059 0.013368855 0.19303806 -0.58175194 -0.093927465 -0.8016775 -0.09941597 -0.50598013 -1.0386548 0.04379452 -0.06937741 -0.27103055 -0.11121492 -0.11567865 0.48239577 0.06266806 -0.12256401 0.21678247 -0.4057221 0.40844515 -0.46398392 -0.3274033 0.3517278 -0.19407651 -0.54455394 0.31068856 0.6657232 -0.09461152 0.4825776 -0.6365961 -0.6971229 0.23323274 -0.1604039 0.13307974 0.418468 0.45126712 -0.18026094 0.0047104647 0.48951653 0.17225178 -0.35487688 0.07658864 0.7756819 -0.02726172 -0.050675567 0.19962753 0.06605905 0.596978 -0.5364939 0.08112377 0.7619316 0.15480901
501178 -0.37326312 0.32254502 -0.12832475 -0.3751785 0.6873905 0.05374465 -0.40703344 -0.1566565 -0.88343996 0.07114647 0.5418564 -0.15597282 -0.8192838 0.66310054 0.06941953 -0.50212634 0.23778221 0.14389986 -0.543372 0.41429782 0.16574855 -0.1151026 0.41605085 -0.9522333 -0.63791215 -0.009634771 -0.22907177 -0.01378592 0.06892598 0.08016109 -0.32529408 -0.50740725 0.10873123 -0.45548415 -0.26087376 0.22343528 0.1297999 -0.257698 0.25936717 -0.28475055 0.08820819 -0.30961385 0.20181566 0.121045545 -0.15552373 0.30375215 0.20481695 -0.18633324 -0.46862057 0.09199855 0.16305237 -0.29904893 -0.20991589 -0.50340724 -0.6804306 -0.10022102 -0.078802794 0.50284046 -0.17516218 -0.04411815 0.08284284 0.4132175 0.09958154 0.41988224 -0.17567447 -0.033253577 0.23287715 -0.56223744 -0.19245048 -0.036003843 0.1101035 -0.28942698 -0.26081502 -0.073717885 0.2093127 -0.5085719 -0.39588618 -0.079917505 -0.10625751 -0.28773153 -0.5111939 0.3407536 -0.1712155 -0.55653256 -0.13474241 0.17268036 -0.042239152 0.31028336 -0.36704883 -0.5513006 0.704357 -0.34916312 0.3800812 0.10982111 -0.2396906 0.374424 -0.8517119 1.0079975 0.13112964 0.17512475
cabri01engineering -0.6601351 0.1823464 -0.02131687 0.0073578334 0.37741065 0.13816276 0.15358223 -0.5734369 -0.6123784 -0.13604751 0.4134756 -0.65650445 -0.38927072 0.20399393 0.27442017 -0.071576774 0.1821842 -0.108364135 -0.65003675 -0.13088837 0.100028664 0.17059009 -0.13872589 -1.0511054 -0.6649619 -0.41595507 0.09626043 -0.29899836 0.06267229 -0.08859349 -0.07350021 -0.8313213 0.33532128 -0.7259355 -0.1870673 0.1356767 -0.07887182 0.12345684 -0.047102127 -0.5165421 0.28358692 -0.3561548 0.06864257 0.59468883 -0.05260384 0.40089187 0.1192843 -0.32425392 -0.8750681 -0.33382508 -0.43458244 -0.09356402 -0.27481118 -0.7768752 -0.25182992 -0.32741714 0.018124992 0.2805192 -0.014069046 0.1360354 0.028553903 -0.0037846034 0.0019744106 0.63582605 0.04519994 -0.40122962 0.16356577 0.24090125 0.30980548 0.28535575 0.2717409 -0.14500551 -0.16537258 -0.48472175 0.072333366 -0.49216974 -0.0524785 -0.15186016 -0.52759063 -0.350301 -0.009986945 -0.2181634 0.21773316 0.13666332 -0.499069 0.5470027 -0.4161375 0.08906767 -0.43675268 -0.8912176 0.4186888 -0.61222273 0.12016789 0.22803743 -0.32285163 -0.10568752 -1.0313814 0.9097329 0.6374451 0.22598934
mcroy95repair -0.10477627 -0.16459239 -0.0904453 -0.23347043 0.58823925 0.13736732 -0.13697901 -0.0433554 0.030335892 0.46525916 -0.4591402 0.584306 -0.85106415 -0.050042693 0.40193233 -0.9987131 -0.16340728 -0.77335894 0.6081594 -0.3719648 0.04726408 -0.038832307 -0.72819394 -0.44753534 -1.4404858 0.06941336 0.5977592 0.3489385 -0.4060628 0.73071414 -0.16486499 0.12655655 0.3628585 0.4699606 0.18054707 -0.1648964 0.50868374 -0.29637516 -0.64383763 -0.35205865 0.52967 -0.7246851 0.07797124 1.3502288 -0.14235175 -0.019301653 0.15601212 0.57199913 -0.9349335 0.23207195 0.46715003 0.32248688 -0.26397407 -1.071566 0.11210562 -0.6169531 -0.68528485 -0.57808447 -0.63067913 -0.7509794 -0.2277739 -0.6919819 -0.3158616 0.9483613 -0.46725643 -0.30679247 -0.4336414 0.057055958 -1.2719914 -1.0020956 -0.37029672 -0.5392576 -1.4731185 -0.5085889 0.66558444 -0.30225214 0.64611423 0.3216363 -0.010389199 -0.9607549 -0.07510624 -0.16614528 0.42195824 0.38995785 0.31672603 0.4330535 0.19002193 0.3853869 -0.56092894 -0.49682146 1.3617405 -0.6963414 -0.0042742305 0.41178903 -0.15456761 -0.019832201 -1.0058836 0.7237903 0.60419714 0.321352
brewington99mobile -0.1681387 0.2063619 -0.39560345 -0.38861272 -0.12498198 -0.03254871 -0.106180646 -0.7970952 -0.3838006 0.075188205 0.7781319 -0.18248995 -0.40568265 0.5678485 0.18924983 -0.60885495 -0.098642215 -0.5172133 -0.65894777 0.11472762 0.15439656 0.11526531 0.10705496 -1.4220626 -0.52999246 0.24944048 -0.21135175 -0.28382367 -0.13855788 0.36979303 -0.2004739 -0.102916345 0.42396083 -0.13253385 0.26751116 0.43952832 0.08499093 -0.15675569 0.08443264 -0.35662568 -0.19210547 -0.31660083 0.43037567 0.33074388 -0.110821076 0.22285435 0.162008 0.18327582 -0.4313118 0.0740452 -0.47716647 -0.32794806 -0.011150234 -0.92482907 -0.65798753 -0.038383268 -0.19476825 0.55429083 -0.4289191 0.24331708 -0.18229696 0.058719657 0.21225569 0.87975115 -0.08984066 -0.0026246815 0.19681747 0.03247394 -0.05599974 -0.3200118 0.25984287 -0.14335296 -0.3000805 -0.5721719 0.3440725 -0.42800778 -0.35426125 -0.42152217 -0.42282468 -0.29411027 -0.2994047 -0.20216368 -0.54901415 -0.52250314 -0.05870868 -0.13661614 0.5347716 0.27583793 -0.3757693 -0.37627786 0.81005687 -0.3291742 0.15559947 0.085975505 -0.5832716 0.034325294 -0.6661001 1.2778543 0.42553478 0.18447258
317766 -0.5353428 0.09605433 0.07226109 -0.26978952 1.1206892 -0.3333952 0.039195072 -0.18789916 -0.06659995 0.5383553 -0.51013833 0.22081073 -0.17414509 -0.20296378 0.90338856 -0.39457884 -0.10714944 -0.49616876 -0.08584772 -0.10259643 0.12758598 0.42261526 -0.23607929 -0.273451 -0.80077165 -0.19875431 0.4185926 -0.16727412 0.07956287 -0.7367769 0.23208062 -0.27016246 -0.17719615 0.11285929 -0.19268559 -0.45697597 0.4528294 0.14379756 -0.05025694 -0.480162 -0.04515551 -0.18592435 0.07250245 0.5329193 -0.16130807 0.019506697 0.66009945 -0.017627066 -0.4550961 -0.35845813 0.24350125 0.064429976 -0.013040633 -0.9806457 -0.896706 -0.94631344 -0.11317166 0.4537028 -0.40293935 0.08286628 -0.4901246 -0.18232471 -0.32541797 -0.17932451 -0.18584959 -0.56271374 -0.18368642 0.06100053 -0.1231177 -0.7610152 -0.32341018 0.4891858 -0.4878634 -0.03710221 0.36639574 -0.7393853 0.5510789 -0.66384906 -0.85279495 -0.0215664 -0.5952399 -0.12664121 -0.0033055036 0.39127108 0.17440923 -0.012778363 -0.5171664 0.25236696 -0.7056799 -0.03746999 0.14075725 -0.591503 0.045517087 0.15502456 -0.16321948 -0.33884692 -0.090387076 0.26295274 0.6030712 0.11648953
206655 -0.12896526 -0.5791497 -0.28126884 0.04371087 0.092810005 -0.23836973 0.1152996 -0.3600187 -0.29702178 0.41829374 -0.08882947 -0.34612888 -0.6005891 0.08081711 0.38302216 -0.2877196 0.110237464 -0.11043156 -0.17202036 -0.35778177 0.015453435 0.05090477 0.14252986 -0.5130955 0.697714 -0.51097065 0.41041827 -0.29145685 -0.22462544 -0.5676062 0.52696055 0.06520283 0.3825607 0.14469232 -0.13137053 0.40126118 -0.09185488 -0.71039927 -0.04202768 -0.5470561 -0.031967152 -0.38486278 0.044727772 -0.5191483 -0.45252725 0.34999475 -0.11011351 -0.27054444 0.018094093 0.13281326 0.20979288 -0.20620196 -0.022647517 -0.16265763 -0.32224634 -0.65159297 0.15203974 0.49475852 -0.4259974 0.27421665 0.20030075 0.017286394 -0.17632225 -0.22780634 -0.062667035 -0.27139133 -0.505272 0.045205027 -0.47053564 -0.14299986 0.48334593 0.6155676 -0.30448574 -0.2045384 0.49135652 -0.62338626 0.24718295 -0.18858358 -0.5788369 -0.34211645 0.105072044 -0.5749158 -0.33783302 0.13558796 -0.7118835 0.2545337 0.48636982 -0.07415567 0.12758003 -0.21440352 -0.00028744532 -0.12241838 -0.12737976 0.26483524 0.549543 0.3702753 -0.5926893 0.22294104 0.40940872 0.018292194
yu99methodology -0.5224064 -0.65961134 -0.13529545 0.10360311 0.14308894 -0.43710253 0.051240217 -0.17050004 -0.3498542 0.34707227 -0.022111014 -0.41241738 -0.29813895 0.10221447 0.2737827 -0.48272824 0.13435118 -0.20937395 -0.2952235 -0.35540307 -0.14344607 0.04442824 0.1756907 -0.5874412 0.6023114 -0.60946274 0.031288046 -0.115730196 -0.10740231 -0.42730102 0.36268938 0.18705484 0.31573695 0.08584824 -0.17507438 0.56426257 -0.19195403 -0.59464204 0.046782736 -0.61918575 -0.15748955 -0.09985276 0.08729943 -0.66388506 -0.59216225 0.45041284 -0.10930871 -0.28258294 0.19196789 0.13199145 0.2711808 -0.13716651 -0.22715452 -0.34221956 -0.34476313 -0.7530316 -0.02897116 0.38012397 -0.3860161 0.29492673 0.1627412 0.03363091 0.122389466 -0.12937126 0.023071911 -0.05123627 -0.67136097 0.05906076 -0.3606956 -0.2566571 0.54216826 0.57249904 -0.13039388 -0.20954455 0.35152864 -0.5480979 0.18861987 -0.34611663 -0.5526771 -0.23540826 -0.07543232 -0.3984976 -0.1990692 0.19922352 -0.5679399 0.10532834 0.36536846 0.0102689285 0.16185881 -0.23385915 0.075800054 -0.10273517 0.10013103 0.2871421 0.59407496 0.46333158 -0.60918194 0.13039263 0.4740145 -0.040423606
schmidt99advanced -0.1326906 0.054872584 -0.24133895 -0.009296862 0.1093822 -0.12004962 -0.42428818 -0.86912465 0.28141958 -0.17096534 0.20214681 0.22039084 -0.17825463 0.48067063 -0.36691067 -0.4606128 -0.7391027 -0.2517125 -0.6796241 0.19213408 -0.1961649 -0.20764892 -0.37435275 -0.09483852 -0.5856027 -0.42922762 0.48686552 0.5265603 -0.18715397 -0.08991667 -0.8088097 0.13995649 0.56434923 0.29319996 0.4428351 -0.17328687 0.6600103 -0.24074332 -0.26952505 -0.77721655 0.24994217 0.09504008 -0.18691215 0.03111439 -0.3111084 -0.4633495 0.11458251 -0.03971722 0.21318363 -0.16556029 0.112186216 -0.37104517 0.022548722 -0.78625435 -0.24882007 -0.18349525 -0.9643682 0.48599136 -0.3044139 0.2326892 -0.0720199 -0.020900473 0.13943553 0.44991496 -0.16591313 0.24867715 -0.6556405 0.43753934 -0.51432943 -0.11926319 0.7258718 -0.41595638 -0.96759444 0.05680314 0.63609797 -0.014931235 0.09454613 -0.6565605 -0.5255827 -0.11744723 -0.118805416 0.014015335 0.3165469 0.1612903 -0.2732045 -0.04516443 0.3632569 0.32885754 -0.69252074 -0.36509758 0.631035 -0.17079695 -0.06367792 0.12190058 0.15298498 0.5940356 -0.81530356 0.2678407 0.34828126 0.40359077
muslea99hierarchical -0.3275581 -0.041660115 0.0421127 -0.21209548 0.35327262 -0.6773917 0.0995747 0.10368058 -0.44460273 0.15232718 -0.10464062 -0.2652134 -0.51327366 -0.36759588 0.13388865 -1.1959773 0.22380285 -0.57910246 -0.20312376 -1.0362954 -0.5736871 0.094210334 -0.15786038 -0.1969503 0.09311871 -0.3912665 0.04717126 0.4743346 -0.1554035 -0.35745883 0.18660577 0.16683173 -0.42722198 -0.16606112 -0.12798692 0.25470617 0.067605615 -0.49662596 -0.0926182 -0.8694139 -0.08532675 -0.11561099 0.12103217 0.04307 -0.24409443 -0.0932401 0.048633136 -0.13965772 -0.3242678 -0.16021328 0.120895535 0.28899235 -0.6949438 -0.29939952 -0.50353855 -0.61482507 -0.3803186 0.21000005 -0.6100838 0.16731937 -0.042211473 -0.22136365 -0.010951686 0.035677224 0.101227194 -0.062449496 -0.65803343 0.12598263 -0.31593537 -0.44063163 0.15799528 0.6381937 -0.24360257 -0.27483982 0.2515806 0.067736685 -0.40824613 0.3228532 -0.38265285 -0.37446558 0.18714605 -0.16102219 -0.08621173 -0.059815716 -0.18187647 -0.04612453 0.03270728 -0.07460329 -0.16209391 0.19281799 0.13495845 -0.30790967 0.012291304 -0.3260597 0.28266856 -0.13502648 -0.866547 -0.10857661 0.8242364 -0.073867165
47625 0.09938343 -0.24304606 -0.31543615 -0.21902244 0.25551638 0.22919363 -0.104944386 -0.016317004 -0.5876757 0.56436884 0.115173064 -0.37063602 0.057393685 0.6015504 0.32586592 -0.5696102 0.34214377 -0.2984869 -0.25465998 -0.34836218 -0.19886625 -0.2579695 -0.027513236 -0.41146496 0.3484756 0.042422906 0.3840442 0.006357401 -0.062372383 -0.7578644 0.71228945 -0.06485447 0.07859435 -0.06692078 0.22107586 -0.21491322 0.5185094 -0.18260132 -0.5921183 -0.9105479 -0.5103987 -0.07243392 -0.27386394 0.30343464 -0.7284889 0.42146865 -0.20172092 0.15583195 -0.20713073 -0.24833703 -0.17095625 -0.0772801 -0.5700294 -0.28500253 0.046663936 -0.36812654 -0.200783 0.49487564 -0.53236 -0.20229794 -0.073206626 -0.31197053 -0.18585858 0.1792724 -0.054892417 0.12428874 -0.5359216 0.663282 -0.4542308 -0.18047802 0.20444195 0.48519543 -0.16388038 -0.45188347 0.3961031 -0.09370815 -0.023804681 0.17858237 0.13707711 -0.023243435 0.09523277 0.027558172 0.18759008 0.07472195 -0.4392267 -0.060332023 0.25750268 0.007777769 -0.031872932 0.08450651 -0.07660452 0.45160213 0.35316655 0.4324425 0.10792675 0.31918553 -0.51668483 0.5674597 0.90955585 -0.06514828
cardie93using 0.15479454 -0.21178013 0.27645716 -0.49826595 0.043551702 0.44115737 -0.5290264 -0.02587524 -0.051782396 -0.07478935 -0.37637287 -0.5064632 -0.4515907 0.17373838 0.14186974 -0.31462455 -0.13831545 -0.029237969 0.01936295 -0.24754626 0.35206085 -0.09636555 -0.42894992 -0.35185438 -0.07221341 -0.07989986 -0.13051857 0.1305497 -0.4249447 -0.1483172 0.5556782 -0.018517915 0.526784 -0.15284498 0.24039155 -0.84671474 0.5354563 -0.4734277 0.109361745 -0.33657408 -0.4753924 -0.45295906 -0.03933874 0.3980145 -0.4571273 0.19321455 0.3010726 -0.010372716 -0.3663573 0.17223436 0.35778934 -0.2855055 -0.5044642 -0.2251495 -0.1252488 0.16098522 -0.0006630721 0.015628839 -0.014373079 -0.24865626 -0.24129213 -0.87651676 0.17580535 0.09762494 0.37066486 -0.15497562 -0.14341144 -0.15319176 -0.6953295 -0.18116371 -0.24784015 0.687326 -0.28802505 -0.5845288 0.13961324 -0.1272767 0.049866047 0.1992401 0.103242174 -0.5271974 0.51828074 -0.38627696 -0.115741305 -0.015773218 -0.44675636 0.16202383 0.10976408 -0.07364732 -0.20586799 -0.24446611 0.19725332 -0.23714885 0.055057555 -0.32194924 0.9397619 0.09348563 -0.5439646 0.43069667 1.0699352 0.18677521
kushmerick02adaptive -0.17353289 0.14078623 -0.1640303 -0.123171315 0.13624567 -0.19403188 0.04054769 0.35593787 -0.4792884 0.14576013 -0.161368 -0.47824118 -0.329756 -0.19841118 0.2672118 -0.9152468 0.1589796 -0.09617669 -0.11558604 -1.0109377 -0.5500452 -0.037481766 -0.28663895 -0.44197324 0.2654678 -0.22499336 -0.20704933 0.37772357 -0.11092494 0.0741326 0.09005028 0.18938807 -0.14617726 0.09812535 0.18506117 0.019820036 0.11189728 -0.65650326 -0.21624383 -1.0958409 0.17141037 -0.16504619 0.18901107 0.33243954 -0.069241606 -0.11623796 -0.12414888 -0.22943352 -0.13205163 -0.2058999 -0.07338647 0.42192715 -0.7517073 -0.3494465 -0.72677654 -0.5832492 -0.11798644 0.47578245 -0.6039831 -0.0472585 0.035415348 -0.28191036 -0.06223722 0.084349334 -0.39480248 -0.16632268 -0.41935393 0.3895178 -0.22776192 -0.5934191 0.54460883 0.75539625 -0.0054758852 -0.3750226 0.22724906 0.13482578 0.09369928 0.22407554 -0.099933274 -0.69838095 -0.038473994 -0.2807516 0.07442881 -0.118239366 -0.30895716 0.14870818 -0.03376091 -0.37997955 -0.3489414 0.14987166 0.020666648 -0.041027952 0.012873056 0.04347638 0.6147973 -0.041206095 -0.9541623 0.07838385 0.652532 0.10793908
khaled98gado -0.12299912 0.49714452 0.47339666 0.11478077 1.0675967 0.22322786 0.33968696 0.22212677 -0.8202144 1.4215552 -0.46322787 0.09667474 -0.98882794 -0.06413832 0.16626677 -1.2789776 -0.382056 0.57260495 -0.09861656 0.18429038 -0.5521545 0.3839479 -0.22562197 -0.72548515 -0.22541274 -0.09688023 -0.17553416 -0.4941282 -0.03350131 -0.2005434 0.2701551 -0.46244615 1.1526574 -0.13747498 0.5074333 -0.06572963 0.2410001 -0.8032831 -0.060201924 -0.022668457 0.1224237 0.0037236298 0.22016247 0.7335597 -0.32405627 0.9606406 -0.008039992 0.17451668 -0.56251884 -0.5085523 0.45701042 -0.16496815 -0.3014118 -0.7199278 -0.15072148 -0.5373616 -0.1808703 0.68424803 0.58723 -0.7547723 -0.45890835 -0.13147986 0.29438844 -0.71031016 -0.2128974 -0.14568627 -0.46398404 0.21253285 -0.42486623 -0.07317152 0.32887164 -0.019217262 -0.50401604 -0.08508005 0.5809168 -0.28088585 0.49709868 -0.089943744 -1.0606358 -0.26325127 0.22325711 -0.23917711 0.61355877 0.08962136 -0.4739877 0.3311658 -0.18993989 0.44807392 0.13941243 -0.41054165 0.86235654 -0.43141115 -0.114037074 0.23570757 0.6519787 0.7939875 -0.47535554 -0.17095672 0.6132999 0.019578518
242172 -0.51104933 0.298995 0.08794897 0.028826997 0.6267988 0.23468879 0.0005520541 -0.3659361 -0.16808225 0.22083792 0.32473806 -0.3636606 -0.6469935 0.68288964 0.26336622 0.20871508 0.32705745 -0.12226467 -0.5286086 -0.55088025 0.082117 0.2925124 0.45357722 -1.0333399 -0.37112856 -0.00076627155 -0.049649693 0.082892634 -0.09440275 0.45065126 0.18280596 -0.60397124 0.29194343 -0.566653 0.16264272 0.327509 -0.043579485 -0.047554776 -0.12692693 -0.27012128 0.19428684 -0.2418419 0.1330222 0.6793709 0.00037438876 0.6817675 0.30984703 -0.4298288 -0.36532572 -0.35611093 0.017742196 -0.057751387 -0.10894008 -0.73788416 -0.2865761 -0.30043656 0.028727725 0.8399434 0.027760612 0.24529491 -0.26494604 -0.058785595 0.19362043 0.56074286 0.20692083 -0.0066557853 -0.12858117 0.047090795 0.62094796 0.11065959 0.29181698 -0.6279154 -0.55933696 -0.32755238 0.24686873 -0.23367251 -0.18012041 -0.03548932 -0.27117437 -0.1473587 0.0809399 -0.33970204 0.61050713 -0.046925075 -0.38403335 0.3712206 -0.3435732 -0.03570848 -0.4661297 -0.942726 0.71284753 -0.6697631 0.58265936 -0.020854112 0.084983714 -0.052430414 -0.66222835 0.3350841 0.13486676 0.36896354
kakas01abduction -0.7441964 0.0021370067 -0.17020743 -0.29172996 1.1592002 0.5696829 0.23011555 -0.30026683 -0.095596686 0.505599 0.23145421 0.3587467 -0.28637406 0.16239148 -0.21330324 -0.97294307 0.8209424 -0.41658998 -0.15262975 -0.6263276 -0.122152306 -0.27160338 0.22556798 -0.8383718 0.005519679 -1.113361 -0.41095284 0.42515054 -0.15536876 -0.13061263 -0.30153313 0.16717836 0.3347279 0.4536846 0.19963014 0.16538517 -0.258805 -0.044816844 -0.0005632575 -0.18309161 -0.2547139 -0.37293333 0.53772587 0.38303536 -0.6370923 0.5022401 0.74629164 -0.0226809 -0.043509386 -0.8434204 0.33668047 0.33651996 -0.3080537 -0.07350125 -0.041660126 -0.41725177 0.107417226 0.030247638 -0.6099814 -0.91038585 0.11198509 -0.4669535 0.5922488 0.30278462 -0.47162864 -0.11413611 0.18805261 0.18975066 -0.33445916 -0.46601823 -0.5359992 0.016598716 -0.68521035 -0.44427013 0.18733573 -0.46434325 0.17540516 0.18747379 -0.74050564 0.29203206 -0.040905867 0.38360065 0.60859907 -0.30632898 -0.12193071 0.3630955 -0.06719333 0.029575894 -0.27121982 -0.56536484 1.0873415 -0.69382054 -0.105954275 0.01782816 0.32509297 0.094438955 -1.0521964 0.021721873 1.0197984 0.5202398
48055 -0.38138017 -0.6613356 -0.09337984 -0.043872423 0.07527374 -0.45918885 -0.0011698894 -0.3991748 -0.68810284 0.32896957 -0.2543516 -0.34350896 -0.72295356 0.10330397 0.19047496 -0.91684645 0.27572867 -0.27526903 0.068059504 -0.31876615 -0.2727575 0.05344303 0.19574411 -0.29775107 0.7221462 -0.30269527 -0.01241214 -0.22304288 -0.21484886 -0.5176114 0.39163995 0.30875438 0.044522006 -0.101076916 -0.16125998 0.58600914 -0.25799704 -0.44980898 -0.016660098 -0.73848045 -0.06442247 -0.27944338 -0.2619404 -0.6658038 -0.47346088 0.015871609 -0.22686261 -0.6482835 0.09328738 -0.11036298 0.30752328 -0.102581054 -0.3020112 -0.3351712 -0.3919223 -0.54275453 -0.19720486 0.2941841 -0.18347123 0.1253213 0.36390314 0.10414434 -0.036126357 -0.16785379 -0.054352783 -0.07464831 -0.6477585 -0.029096846 -0.45298618 -0.25931883 0.39929727 0.49039644 -0.17397496 -0.17514582 0.44071883 -0.37980625 -0.045610096 -0.055115934 -0.5857414 -0.24628033 0.31728142 -0.3442885 -0.18213312 0.14102884 -0.77921695 0.12503636 0.43281156 -0.22015636 0.43615103 -0.25093544 0.18010777 -0.040030796 -0.22031982 0.19571969 0.5227669 0.11652081 -0.89385474 0.41315174 0.54257315 0.11404572
279508 -0.27466398 -0.62738186 -0.25208163 0.080863185 0.08144252 -0.38991782 0.2464887 -0.25908372 -0.34893954 0.34929517 -0.1434367 -0.42055815 -0.40445146 0.25200784 0.20562415 -0.46865666 0.23413405 -0.20543896 -0.2715496 -0.32334802 0.10702486 0.06874355 0.14794585 -0.47288465 0.62913775 -0.46624705 0.29813606 -0.2963598 -0.1259885 -0.40910828 0.44292605 0.10806127 0.2690085 0.05641224 -0.08359035 0.56761605 -0.19236721 -0.69418067 -0.018803395 -0.5115408 0.022725288 -0.27047816 0.0891283 -0.54823095 -0.41682777 0.3943451 -0.06652508 -0.34750518 0.12372844 0.051360454 0.25009608 -0.24087377 -0.10954722 -0.24854484 -0.46779487 -0.679337 0.045599494 0.5533351 -0.4901182 0.2114845 0.29864925 -0.0034963812 0.06333702 -0.1645258 -0.08148226 -0.12281742 -0.7204652 -0.07372323 -0.30966696 -0.25311282 0.4251308 0.6447112 -0.2805457 -0.28525645 0.45349702 -0.6457528 0.19102299 -0.10420264 -0.46242002 -0.256526 0.07745657 -0.58011734 -0.32852927 0.08142284 -0.6461561 0.17805545 0.43400955 -0.15153751 0.31877133 -0.19700484 0.11901206 -0.2454861 -0.06324901 0.22733913 0.6231916 0.3208272 -0.7112376 0.23318139 0.3472429 0.08631837
page98pagerank -0.61370546 -0.06426217 -0.55676687 0.12761451 0.19242749 -0.0063347104 0.449235 -0.03913297 -0.38877752 0.18576723 0.18368012 -0.079523794 0.28859544 0.32080445 0.3654061 -0.71865296 -0.22101355 -0.08562113 -0.5636147 -0.8813829 0.37916955 -0.14168444 0.2671075 -0.55431837 0.6561747 -0.36375162 0.20812178 0.20156264 -0.18681459 -0.83051467 0.21400496 0.026338313 -0.2687427 -0.064559735 0.20991738 -0.13551708 0.16370095 -0.45882896 0.033755668 -0.24749766 -0.04020857 -0.15622714 -0.17565621 -0.34241146 -0.24983564 0.24843715 0.13470551 -0.1012787 -0.17659739 0.0070950473 -0.17656897 -0.07606389 -0.3765899 -0.83609945 -0.10607237 -0.44202653 0.106064625 0.5637472 -0.13371299 -0.18021074 0.26314837 -0.45362628 0.22823091 -0.31231755 -0.35225734 0.19453748 -0.12266842 0.54348445 -0.40920025 -0.48214313 0.7541941 0.37532938 -0.048110314 -0.08952397 -0.12743546 -0.6544107 0.07255816 -0.47068468 -0.9547729 -0.091951735 -0.47865978 -0.34237027 0.016360296 0.32503635 -0.92296505 0.39639348 0.75828916 0.12982903 0.16519098 -0.64447427 -0.089536324 -0.37732673 0.18174046 -0.0018478014 0.83293396 0.33160117 -0.22243555 0.015690034 0.45977184 0.17607705
popescul01probabilistic 0.22513723 -0.13509585 -0.2701824 -0.5416291 -0.019330256 0.41679233 0.087483026 -0.42276007 -0.565817 0.71681446 -0.27777436 0.15277103 0.012043805 0.4996986 0.11892127 -0.62184167 0.25759166 -0.029124005 -0.50716174 -0.26960263 -0.2114088 -0.14372693 0.20151408 -0.2736435 0.38712126 -0.42370158 0.34052673 -0.092766926 -0.12661642 -0.77457327 0.27286822 0.20559156 -0.36943427 0.25915852 -0.05010959 -0.21086761 -0.095008515 -0.22500877 -0.06470802 -0.35867992 -0.0115835825 0.056776714 -0.20886607 -0.081141956 -0.2510366 0.54802835 -0.11825084 0.16324505 0.28597963 -0.36690074 -0.029396728 0.051179904 -0.65814704 -0.62515473 -0.37888175 -0.20109862 -0.0028365466 0.49301755 -0.020676997 -0.15381792 -0.13888355 -0.40302825 -0.20827924 0.19802502 -0.102991484 -0.24714129 -0.2417945 0.18059178 -0.5225852 -0.4808125 0.5326767 0.5841977 0.12340602 -0.6015532 0.4378653 -0.4316711 -0.05087803 0.4749499 -0.4797063 0.26195168 -0.13130069 -0.7092561 -0.0478903 -0.0572538 -0.5234211 -0.17423451 0.6722384 0.5388605 -0.07817814 -0.88298744 -0.19981013 0.6446899 0.36986536 0.02013657 0.3366258 -0.025648583 -0.55601513 0.19495296 0.7071408 0.47257832
51607 0.51202357 -0.17008851 -0.16538721 -0.21359162 0.13948913 0.21415706 0.17483674 0.28299284 -0.220782 0.323767 -0.3913624 -0.123986475 -0.5976745 0.65151477 -0.11350919 -0.35496926 -0.041200943 0.08995429 -0.5832951 -0.12521817 0.05502524 -0.3185839 -0.40265897 -0.03245345 -0.2074589 -0.22958109 0.28622833 -0.08750419 0.16025531 -0.25028583 0.2761472 0.18904825 0.31174353 0.13322659 0.276928 -0.17734714 0.34518567 -0.42361665 -0.04259914 -1.0976661 -0.25529855 -0.10457456 -0.34569 0.30517378 -0.44518054 0.39126647 -0.09199507 0.33776444 -0.31889024 -0.011806589 -0.32226795 -0.46258673 -0.54963666 -0.4210947 -0.20534348 -0.13426717 -0.0867858 0.21133204 -0.30277613 -0.11962546 -0.19204582 -0.89643216 0.14391635 -0.14567909 -0.5791456 -0.28317443 0.024856467 0.07887358 -0.6543577 -0.48775613 0.004827819 0.6125648 -0.13047673 -0.32466197 0.6881721 -0.21806896 0.03586759 0.53768575 -0.21973558 -0.11218324 0.45629317 -0.7028572 -0.12115107 -0.36063412 -0.20457736 0.13402556 0.38757086 -0.1546838 -0.15098985 -0.53635585 -0.08153031 0.2619936 0.91897935 0.018236753 0.7320793 0.04051005 -0.8991302 0.30798495 0.6770445 0.29789555
kobayashi00information -0.5097859 -0.17428957 -0.025733449 0.036336374 0.45399755 -0.14471203 -0.0028361676 -0.10063372 -0.04407297 0.15234807 0.39221907 -0.271815 -0.051341534 0.35947803 0.40707755 -0.54107136 0.025180206 -0.14951333 -0.3493192 -0.5339912 -0.30457425 0.011924627 0.05405832 -0.3884604 0.7908911 -0.2551949 0.26651537 0.17116487 -0.0315308 -0.43290105 0.7173833 -0.11258308 0.21270625 -0.12819743 -0.07967768 0.08365635 0.16173722 -0.9988704 -0.3673836 -0.35204843 0.017149197 0.42447835 -0.2719218 -0.3035864 -0.423479 0.46986827 -0.26801264 -0.21512489 -0.020622058 -0.2095608 0.056996487 0.058980696 -0.29590434 -0.10058249 -0.33582652 -0.35489446 0.17175733 0.4258045 -0.5389922 -0.2883042 0.04308188 -0.108421884 0.33220005 -0.19190437 -0.106963724 0.40977046 -0.45903483 0.2559995 -0.19616236 -0.44553226 0.48880258 0.45469084 -0.10266968 -0.4564146 0.22733851 -0.3740217 0.54143536 -0.07529133 -0.5979133 -0.56718737 -0.21954784 -0.50393367 -0.10938148 0.15445895 -0.5999625 -0.08822102 0.60210675 0.30885398 0.07884523 -0.02830371 -0.23834746 -0.054694507 0.44461685 0.17200358 0.8478935 0.60134685 -0.36974517 0.5578268 0.2654193 0.085420504
375424 -0.33132103 -0.56686753 -0.21073288 0.10185529 0.30919605 -0.11594876 0.04311973 -0.30908582 -0.36670405 0.49165693 -0.036706585 -0.32867482 -0.5619985 0.2644599 0.18311222 -0.4582975 0.04911765 -0.08885644 -0.2108878 -0.5200357 -0.11111718 0.066389404 0.08142099 -0.5200796 0.70865303 -0.64884853 0.35386539 -0.3234543 -0.23749973 -0.4350569 0.52190995 0.21450946 0.3463252 0.064839765 -0.13825363 0.44768798 -0.21688993 -0.6951625 -0.113098025 -0.5752062 -0.12441957 -0.29234758 0.04404298 -0.4085194 -0.49025106 0.32148197 -0.1910682 -0.37884444 0.2072193 -0.03840639 0.27272886 -0.36036864 0.042369682 -0.123876944 -0.36268908 -0.8082594 0.0812373 0.60272115 -0.5587855 0.256139 0.07890329 0.044436455 -0.113805994 -0.09081363 -0.002961732 -0.21928394 -0.5794672 0.058209483 -0.3126499 -0.11933964 0.4710033 0.5804479 -0.30749428 -0.25481737 0.5622554 -0.6565918 0.1756306 -0.005395442 -0.46348807 -0.12901428 -0.049201258 -0.53803605 -0.4494329 0.1276806 -0.69156575 0.0036336558 0.48128563 0.0019104242 0.15928438 -0.2292132 0.105896346 -0.20291752 -0.1714792 0.3948591 0.53548104 0.4139625 -0.6440607 0.2408911 0.43859544 0.035746597
9546 0.08147513 -0.106418036 -0.21732356 -0.3035174 0.17390758 0.046485614 0.16179532 -0.07540687 -0.41097382 0.5640462 -0.18179893 -0.11921794 -0.038622607 0.17112371 0.4945902 -0.72309595 0.3619428 -0.11044114 0.0015862898 -0.44322664 -0.16719727 -0.27183893 -0.11876397 -0.19783269 0.38510478 -0.04812432 0.30986333 0.3850683 0.12712172 -0.42432597 0.6580143 0.07981904 -0.071959846 -0.029263765 0.026387997 -0.23789117 0.44313014 -0.71693206 -0.42460674 -0.78471696 -0.36529762 0.40608406 -0.053468604 -0.012085815 -0.51832277 0.22869468 0.18936034 0.18316893 -0.5087072 -0.42348045 -0.19465876 -0.08046803 -0.76727605 -0.47837836 0.4380732 -0.35752812 0.019927004 0.53890437 -0.4344515 -0.04387829 0.060428385 -0.4260668 0.11970476 -0.07589746 -0.31138998 0.005755469 -0.4788784 0.46825495 -0.46226823 -0.2468631 0.11345686 0.28332913 -0.41747922 -0.37322786 -0.2874759 -0.02258041 -0.051243003 0.03821123 -0.1377175 -0.3774611 0.5022811 -0.30716595 -0.40747625 0.1057612 -0.056799117 -0.15104693 0.16349906 -0.09009106 0.36749253 0.049304977 -0.13384895 -0.07320526 0.73451763 0.23873354 0.059135173 0.34606743 -0.8240233 0.2812752 0.80767596 -0.06336121
shasha02algorithmics -0.6896182 -0.29518968 0.5171107 -0.4141681 0.6449628 -0.018090388 0.024720222 -0.2140491 -0.291535 0.8119508 -0.44226563 0.09151754 -0.2400379 -0.06042242 0.7383052 -0.61109126 0.07256316 -0.65544665 0.06616597 -0.23540674 0.08719103 0.62974894 -0.03987398 -0.19097638 -0.7196752 0.028922094 0.53328 -0.40555474 -0.17593296 -1.0303448 0.20782562 -0.32236335 -0.35265222 0.36040425 0.026778819 -0.5476049 0.45949307 -0.17009123 -0.31440264 -0.22177094 -0.10847484 0.2536922 -0.020997802 0.100187235 -0.19010238 -0.0695689 0.42493045 -0.0038378215 -0.13027896 -0.23215404 0.28971705 -0.30031037 -0.023910752 -0.86047375 -0.8655645 -0.8739316 0.07316526 0.9306131 -0.09522429 -0.22811055 -0.25693962 -0.33844662 -0.17029436 0.27020344 -0.40432793 -0.051627655 -0.049598437 -0.33320427 -0.312172 -0.4146511 -0.02471232 0.6399842 -0.9247976 0.0060072183 0.63549715 -0.69493634 0.21484177 -0.17128532 -0.6246656 0.20310122 -0.28522614 -0.019135002 -0.2649107 0.25492013 0.19903097 0.3172618 -0.14067523 0.20820348 -0.4732669 -0.07838523 0.41669196 -0.51272094 0.06253808 -0.16026269 0.025231238 0.05538642 0.04391932 0.076219566 0.3877394 0.44467726
22778 -0.4229042 0.021007573 0.2739713 -0.54219025 1.0869867 -0.13414448 0.13571991 -0.5776418 -0.4326694 0.5047185 -0.71555614 0.67381227 -0.7640781 0.033787023 0.67510545 -0.39596447 0.20159826 -0.18067773 0.099639386 -0.10623244 0.17342876 -0.23786612 -0.31561995 -0.39790723 -0.62530214 -0.38610786 0.8955832 -0.36365327 -0.25054345 -0.76794684 0.13342291 0.017433992 -0.33340737 -0.2581585 0.17202243 -0.3692374 0.5969555 -0.061253507 -0.14041038 -0.36337355 -0.32951346 -0.32461002 0.1799991 0.4252686 0.00024302171 -0.096293785 0.1219323 -0.24246256 -0.31013674 -0.12596497 0.40666345 0.247328 0.28005582 -0.88843477 -0.794264 -1.0619496 -0.23160565 0.19521615 -0.5291245 0.22966705 -0.59172356 -0.077452056 -0.14949365 -0.30009755 -0.86081195 -0.703564 -0.32397565 -0.111872435 -0.14761074 -0.5492583 -0.11550967 0.13248836 -0.55911905 -0.04959672 0.05404031 -0.94692206 0.46258307 -0.7069747 -0.5718832 -0.12866114 -0.1291693 0.019667836 0.16937204 -0.16990414 0.08717442 -0.33320594 -0.40140682 0.31190732 -0.4582639 -0.05572132 -0.077303156 -0.62637085 0.08648615 -0.04351283 -0.4091173 -0.16443498 -0.25005975 0.32544553 0.61069196 0.38165522
bergmark02collection -0.46239963 -0.16707458 -0.30398414 0.15083699 0.33377376 -0.13506359 -0.1279385 -0.22136864 -0.42005527 0.3210869 -0.24699809 -0.1716118 -0.09349805 0.30830055 -0.032518413 -0.50647926 0.15123509 -0.27320188 -0.48125172 -0.15419774 0.48152858 0.09648651 0.48069564 -0.3122127 0.42439303 -0.20319298 0.21262778 0.3541186 -0.24277826 -0.7521071 0.31168723 -0.027355535 0.010120859 -0.56321985 -0.20317388 -0.037963983 0.29823723 -0.38374043 -0.42966977 -0.2620783 -0.79877025 -0.05405434 -0.24884185 -0.25455672 -0.5051602 -0.058738176 -0.07877879 -0.12547174 -0.23118073 -0.16356827 0.15237683 -0.2469655 -0.33210516 -0.6577422 -0.30351198 -0.43722278 0.102235235 0.433207 -0.8038957 0.014768267 0.32946092 -0.362142 0.15081276 0.117711596 -0.515591 -0.11727767 -0.46966046 0.49030915 -0.15761672 -0.28221974 0.609467 0.41643915 0.33472863 -0.10625463 0.3252479 -0.6227427 0.23044743 -0.043806046 -0.5300668 -0.4133603 -0.18899962 -0.19636415 0.105983816 0.07948895 -0.43773028 -0.051477343 0.15705308 -0.03362196 0.13700247 -0.15625894 -0.6538762 0.02252702 0.5800692 -0.09384044 0.64427423 0.45977584 -0.45691806 0.08773156 0.40124875 -0.17620821
32521 -0.5815824 -0.2710136 -0.12622112 -0.52194107 0.33489338 -0.33523792 -0.14008293 -0.20698486 -0.6626844 0.34849608 -0.282165 -0.19311522 -0.50031924 0.3530554 0.21386787 -1.035718 0.33095056 -0.32726792 -0.12320447 -0.7750836 -0.38468122 -0.12896566 0.04579898 -0.14239058 0.10639907 -0.32511494 -0.15680532 -0.026144214 -0.18464097 -0.7519285 0.19627348 0.004904849 -0.2251493 0.035296522 -0.1905741 -0.057161547 0.03129538 -0.43968445 -0.0050362907 -0.7493621 -0.5704687 0.057478666 -0.33171192 -0.4063952 -0.3382466 -0.020144578 -0.10285347 -0.34914273 -0.20622873 -0.17357643 0.04170963 0.25392133 -0.6602287 -0.47899303 -0.29510152 -0.52414995 -0.16964528 0.3563601 -0.31421724 -0.114383005 0.26392323 -0.5039988 -0.10788835 0.44702855 -0.4634206 -0.1634824 -0.6944402 -0.009384837 -0.4618335 -0.12347205 -0.16955352 0.24051104 -0.111071385 -0.14765075 0.1847437 0.18681517 -0.53010565 0.6068542 -0.22388469 0.010010788 0.5006518 -0.24379127 0.18646473 0.23823953 -0.08929653 0.15916479 0.28911498 0.08799009 0.33805266 -0.30206686 0.08178757 -0.042043384 0.071347974 -0.30535123 0.17219207 0.17864993 -0.7610594 0.3454175 0.4291058 -0.34790307
150449 -0.021807184 0.48905316 -0.4464537 -0.027403641 -0.036364492 -0.4717094 -0.72156143 -0.6826654 -0.3093796 0.40563577 0.2894392 0.21267727 -0.99688035 0.19311307 -0.0890499 -0.7337114 -0.2512813 -0.38120237 -0.5757409 0.03447923 -0.263395 -0.21237113 -0.1102891 -0.31317785 -0.26525876 -0.5747715 0.83115906 0.24627495 -0.17399645 -0.27644396 -0.7491122 0.1899565 0.7077804 0.62785107 0.28528267 -0.453941 0.17549618 -0.5371875 0.21471319 -0.07805253 0.33152732 0.26039532 0.40151802 0.15220459 -0.5195051 -0.19823828 0.19583963 -0.0967441 -0.29570457 -0.08996093 0.3408758 -0.599324 -0.15666404 -0.8742116 -0.25682288 -0.49625453 -0.90891844 0.0438635 0.003133389 -0.7466158 0.06255899 -0.20025274 0.67423207 -0.054179125 0.08713602 0.32192984 -0.33745992 0.41033542 -0.13064833 -0.6043127 0.38204357 -0.21481211 -0.5506741 0.3469493 0.46565038 -0.39068732 0.5042486 -0.7459757 -0.6749026 0.13545647 0.039887257 0.06690232 0.58836776 0.25962886 -0.106190726 -0.03183434 0.7914449 -0.14153755 -0.4612512 -0.2786371 0.6405359 -0.04817808 0.004318827 0.19374418 0.16733405 0.5586428 -0.6639819 -0.03738024 0.71830064 0.05946567
