2708 100
1358 0.21352904 0.42142215 0.11951381 -0.16977707 -0.5590498 -0.122154996 0.054930516 0.3287025 0.061227966 -0.25657502 0.14607719 0.04641128 -0.17492077 0.026127659 -0.16073793 -0.29939678 0.025353491 -0.23656973 -0.42967764 -0.26527458 0.12608269 0.33386835 0.108609565 -0.056998312 -0.24204893 -0.10671245 -0.19059256 -0.2899301 -0.06726451 0.32852948 -0.62579703 0.21577734 0.4311461 -0.5912252 -0.046577305 0.6529062 0.08696419 -0.36769733 0.18775748 0.2554961 -0.006431316 0.19823295 0.16306682 0.34378543 0.15779424 0.18924963 -0.13423695 0.019593678 0.11020539 0.42695242 -0.29470414 0.075911425 -0.7836202 0.4873947 0.18986784 0.0041931365 0.27756703 -0.5905204 -0.15510744 0.5292926 0.0056451857 0.34085834 -0.33624366 0.07271156 -0.015414528 -0.015461369 -0.14376715 0.011828128 -0.018401008 0.46139127 0.12189336 0.23092575 0.14738347 -0.485768 -0.20064162 0.4255422 0.17403665 -0.03746839 0.19487126 0.24318624 -0.14518918 0.51177174 -0.47579998 -0.11019792 0.29285815 -0.14838539 -0.18970281 0.08134109 -0.026129398 -0.28791463 -0.008609343 -0.51332253 0.06534005 0.5682978 0.3044503 -0.0053921645 -0.31426474 -0.121112026 -0.24332117 0.17383792
306 -0.35847765 0.35979488 0.14387351 -0.67483944 -0.10196179 -0.22118248 -0.14000526 0.155655 -0.12641966 -0.6194043 0.1983924 -0.4642485 -0.58979243 -0.15371022 -0.28933796 -0.16405518 0.28827107 -0.38056517 0.05020914 -0.29251888 -0.06557131 0.41469383 0.2782209 -0.08151041 -0.9093196 0.65608436 -0.13618244 0.10731646 0.29077825 0.3088508 0.1525498 -0.38232085 0.04636648 -0.1359163 0.19162013 0.3714572 0.4678657 0.37328783 0.3566948 0.033827186 0.38267824 -0.054306366 0.260957 -0.03380468 -0.048054416 0.29882887 0.18078876 -0.30721498 -0.030972548 0.6842017 0.30079225 -0.37418187 -0.09559412 0.43164888 -0.16726086 0.0032877289 0.42488936 -0.18887073 -0.10512373 0.25553071 -0.20470718 -0.013545369 -0.12503587 -0.4202625 0.06016441 -0.07749998 0.620276 0.0055497354 -0.25774145 -0.084425636 0.31406397 0.3274294 0.15354833 0.5766776 -0.12945332 0.38128567 0.34184211 -0.2525593 0.020220276 0.38585356 -0.11139929 0.41321677 0.0625316 -0.40273136 0.17089312 -0.14784071 -0.4490302 0.1885451 -0.073764846 -0.08877663 0.17473091 -0.3896124 -0.09641256 -0.071058504 0.29351905 -0.019154433 -0.051712986 -0.060109425 0.20516412 -0.0052234554
1701 -0.68707776 0.45885965 -0.20998186 -0.32248428 -0.18071279 -0.28069443 -0.54029006 0.45517966 -0.61892474 -0.36981955 -0.18508777 -0.031964503 -0.23001783 0.0010772613 -0.2624599 -0.007048047 0.17292666 -0.3130301 -0.31157243 -0.28329334 -0.40120366 0.18785663 -0.22446677 -0.66016406 -0.1007917 0.26925352 0.03785736 0.39160013 -0.35946685 0.21526878 0.3514547 0.020486668 0.12755257 -0.07130429 0.071966596 0.5395852 -0.1936343 -0.031012474 -0.15005897 0.50198734 -0.20459074 0.6491883 -0.10003443 0.27311257 0.3118163 0.5281372 0.1850082 -0.5639642 0.47407487 0.4992969 0.093109034 0.3280212 -0.4357489 0.044495776 -0.4716639 -0.17280076 0.13245115 -0.3715364 0.07496685 -0.4980296 0.019716054 -0.1401896 -0.0041442616 -0.011845526 -0.39014083 -0.07247234 0.3050681 -0.24734962 -0.19955088 0.25621906 0.4167878 0.71341276 0.048278004 0.053911425 -0.14074041 0.38896412 -0.010717217 0.24933615 0.16227481 0.15496649 -0.1356975 0.020293174 -0.30615446 -0.2836123 0.23413756 -0.45731905 -0.27759966 -0.35052928 0.2651038 0.026512336 -0.12258082 0.21469103 0.19543725 -0.13369168 0.3574134 -0.25772053 0.12686181 0.23979631 0.16166738 -0.12564218
1986 0.0517969 0.53380907 -0.28610677 -0.8394162 -0.23589166 -0.54163224 0.15715839 0.09822096 0.008605244 -0.35981128 0.22975068 0.38650888 -0.063742146 -0.34235469 0.1343682 -0.16757563 0.2840038 -0.39208236 -0.2599163 -0.055641703 -0.077885985 0.23671885 0.0555362 -0.015743222 -0.44907844 0.3284722 -0.2622642 0.33262736 -0.23957744 -0.076375484 0.15492748 -0.25976014 -0.26535136 0.04036974 -0.17297979 0.8538417 -0.22368357 -0.05128942 -0.18894438 0.64391935 -0.41000807 0.55262125 0.06985414 0.1230632 0.38639376 0.18570074 0.21185613 -0.13311104 0.1972635 -0.099979565 0.28930157 -0.2125158 -0.31417653 -0.11876821 -0.12627095 0.23698616 0.13231416 -0.14061707 0.3470378 0.061640393 0.08008614 0.032892175 0.30065846 0.018864075 -0.6439756 0.19074261 -0.29598054 0.31905442 -0.07566011 0.16970007 0.5364973 0.59964484 -0.20966585 0.197938 -0.12005465 0.2115647 0.11322956 0.2563685 0.108692765 0.44866076 -0.22376062 0.3052761 -0.1810653 -0.025047438 -0.0229391 -0.21411572 -0.12160692 -0.27642933 0.2420849 -0.28462183 -0.25398034 0.24364465 0.6881668 0.047371224 0.03779204 0.06074733 -0.12629876 -0.20867288 -0.11957318 -0.30409908
1810 -0.5184299 0.16719042 -0.60243595 -0.6080042 -0.48191395 0.13502857 -0.21949331 0.04840843 0.17105834 -0.36202243 0.027245816 0.52046156 -0.16617045 -0.06947878 -0.3207101 0.026630262 0.54754996 -0.36265257 -0.021233208 -0.3690536 0.0996514 0.064781636 0.457521 -0.2997982 -0.843691 0.10466603 -0.3028633 0.54393005 -0.42261678 -0.25961834 0.4215664 0.31559595 0.11139699 -0.11575478 0.5077638 0.28541842 0.120226614 0.3330287 -0.21041031 0.15727481 -0.28335157 0.34770674 0.069099165 0.098841146 0.4876046 0.33517984 0.46903145 0.2540368 0.19991533 -0.137273 0.1728168 0.32066703 -0.44564602 0.38430423 0.1595022 -0.0952441 -0.53390914 -0.43697152 0.017250594 -0.47962686 0.16560815 -0.30450532 0.10575837 -0.14052492 -0.18459967 -0.11216866 0.43645325 0.051670264 -0.0061549502 0.0027629938 0.08430519 0.56782293 0.4466577 0.2732389 0.10311945 0.29112965 0.11153985 0.5322844 0.19943726 0.00085536676 -0.4821838 0.37424913 0.30957496 0.16417503 -0.032916006 -0.46851423 0.117454655 0.38685516 -0.46572322 -0.028396338 -0.09245871 -0.041012496 0.0843287 0.29108867 0.03214605 -0.3969548 0.40874943 0.15050843 0.14526501 -0.19999209
1623 -0.733458 0.5380867 0.35325095 -0.75066304 -0.3421569 -0.18797539 0.23644128 0.28330135 -0.022660173 -0.23326549 0.34196404 -0.23577976 -0.44704944 -0.22111681 -0.6874482 -0.3249424 -0.16344132 -0.3577551 0.0006617714 -0.10969315 -0.06491129 0.04397493 0.40597686 -0.054020654 -0.59941566 0.01713033 -0.2398627 0.23493534 0.1981316 0.1950964 0.24400577 -0.40458858 -0.097451076 -0.13166656 0.3306883 0.46733782 0.29473746 -0.15602235 0.17180899 0.037806872 0.057385325 0.38796544 0.031593863 -0.3726052 -0.07466972 -0.07859486 0.113214836 -0.14137898 0.19718306 0.65640354 0.42715552 -0.17552675 0.0066842777 0.7939135 -0.38694936 0.15837222 0.48671862 -0.21322194 -0.1823754 0.11544165 0.2432867 -0.17070761 0.14011562 -0.39164823 0.12046014 0.049616847 0.26038244 0.26605293 -0.28613538 -0.22078729 0.25090402 0.3205128 0.5652706 0.21828166 -0.40484375 0.5544374 -0.34925327 -0.22817811 -0.07990858 0.4435275 -0.09599881 0.57585764 -0.25100157 -0.3446212 0.028196102 -0.12959145 -0.75255245 0.22304605 -0.062605046 -0.38055575 0.36471015 0.20430316 -0.58881444 0.1583153 -0.07268117 0.35758525 0.1138739 0.20745265 -0.11692534 -0.18042599
2034 0.07373833 0.14369139 0.09241684 -0.7014411 -0.2522724 -0.13117611 -0.08758576 0.17152792 0.028480785 -0.4646891 0.26055562 -0.096957356 -0.31309083 0.42700773 0.077296756 0.48709288 0.36769906 -0.12284339 -0.55667585 -0.3605439 0.12147464 0.14489102 -0.14768657 0.1565642 -0.24353419 0.5366637 -0.23603544 0.40156594 -0.48093036 0.015420485 0.4082849 0.36120325 0.6164443 0.4271158 0.23765063 0.25593165 -0.21028526 -0.04042709 -0.37664095 -0.43103743 -0.016628476 -0.21775416 0.18653142 -0.1376504 0.33140033 0.038706705 -0.32177302 0.11797529 0.5672828 0.55217874 -0.203485 -0.25941834 -0.4738865 0.13005333 -0.16791527 -0.30061632 0.30855373 -0.2813714 -0.45864713 0.0717293 0.4104538 -0.30922273 0.3409944 -0.218305 -0.90462 -0.3682665 0.09489963 0.099349044 -0.1473932 0.09947697 0.44166076 0.42636088 0.3586867 0.65136254 -0.18310584 0.34699047 -0.016643329 -0.16898589 0.43746108 0.31607205 -0.42000207 0.35194108 -0.142228 -0.2403797 0.15634024 -0.29417878 0.29531294 0.19356424 -0.19623718 0.0034157543 -0.15154381 0.37067607 0.2761894 -0.15668562 -0.07424404 0.09168649 0.30006853 -0.32890642 0.2944123 -0.21480982
88 -0.13365346 -0.24927115 -0.5056112 -0.14057349 -0.21533175 0.038179446 0.08483205 0.45799533 0.312634 -0.73827326 0.1485394 -0.24737874 -0.11125933 -0.4152932 -0.34703222 0.31529135 -0.3514537 -0.4275875 0.11079531 -0.7404464 -0.43116876 0.7473452 -0.13583484 -0.23388973 -0.4731888 0.4350041 -0.15184872 -0.18229203 -0.20696327 -0.09508391 0.18096307 0.10431819 -0.02479385 -0.74876153 0.06961826 0.40997043 0.11359895 -0.5319194 0.24490598 0.06985597 0.33543807 -0.026675569 -0.08501276 0.37749133 0.1775397 -0.65192896 -0.14405179 0.11808901 0.21718258 0.0465239 -0.10798485 -0.52564305 -0.7771925 -0.15246789 -0.05478082 0.12200233 -0.100282446 -0.6250091 -0.010388303 0.18759611 0.45693406 0.04044501 -0.11282955 0.19621976 -0.49957067 0.054327603 -0.2904017 0.2307173 0.12569186 -0.28413305 0.03592876 -0.17498368 0.12701379 0.061245617 0.16012837 0.12578794 0.1288575 -0.22862159 -0.14658728 0.3644601 -0.29553136 0.24533354 -0.48797253 0.05732038 0.26486453 -0.12991786 0.105606996 0.79316205 0.23148237 0.20778352 -0.00025696386 -0.042732507 -0.28679484 0.55510557 0.10450739 -0.043619663 -0.010055599 -0.085882 -0.07737085 -0.74182916
1013 -0.42474237 0.43245342 0.3559594 -0.29156062 0.015835369 -0.42765796 -0.02883106 0.3486957 0.3466132 -0.35640228 0.12519918 -0.4231059 0.26914093 -0.42981693 -0.14355797 0.4083298 -0.37700224 -0.13964753 -0.13830572 -0.7464384 0.009407628 0.6035884 -0.27250248 -0.78941023 -0.41035825 0.5541585 -0.5538141 -0.073444344 -0.54208356 0.06486191 0.30124766 -0.6370763 0.08875483 -0.116836615 0.5348511 0.5111391 -0.1758231 -0.015850578 -0.05955238 -0.23463377 -0.20639041 0.23175983 0.04342624 -0.12757157 0.13296488 0.22624895 -0.1325415 -0.16927391 0.08779479 -0.020211289 0.09661115 -0.30979472 -0.16725731 0.4327873 -0.08066329 0.3475336 -0.04539434 0.08596664 0.5457731 -0.11509609 0.12100805 0.5483116 -0.346586 0.0060338634 -0.24252553 -0.4253557 -0.1585906 -0.0034369817 -0.11718782 0.22045806 -0.61376923 -0.14036071 0.06480669 0.23769942 0.08898929 0.17671615 0.0062697427 -0.231089 -0.18857184 0.17451245 -0.1321794 0.08824625 -0.3592594 -0.539572 0.36863974 0.14088194 -0.117239356 -0.14694437 -0.15841392 0.044294987 -0.18486172 -0.2429438 -0.28025645 0.4365017 0.7455841 0.0013663075 0.36236942 0.30624813 0.08659727 -0.23205638
598 -0.2801729 0.439384 -0.47858924 -0.39660823 -0.09504954 -0.46122447 -0.14172418 0.49011955 -0.3483965 0.0153739955 0.07729387 0.48584604 -0.3675485 0.3480107 -0.3986962 -0.111123055 0.024950305 -0.30447945 -0.16108371 -0.46753457 0.21120232 0.13209672 -0.43574998 -0.1183377 -0.1681191 -0.08563687 -0.6189817 0.15251343 -0.23563728 -0.2796274 0.50408465 0.096991934 0.47719237 0.37254435 -0.0824505 0.74546045 0.072239324 0.40691397 -0.001556495 0.47385737 0.37348077 0.51486665 -0.06449449 0.14327621 0.05106987 0.37622657 0.117519215 0.0038303137 0.1628944 0.4437137 0.26563033 -0.013960044 -0.1958125 0.31627733 -0.101193845 -0.357276 -0.2527062 -0.3792919 -0.12860048 -0.41831973 0.1253994 0.3273094 -0.011894926 0.17035785 -0.6840762 -0.7494304 -0.14801188 -0.056885887 -0.21395783 0.011111444 0.85420287 0.8751923 -0.038090836 -0.27919394 -0.058865428 -0.1344659 0.16575706 -0.122226685 0.1561022 0.4292794 -0.102523945 0.63966316 -0.08125764 0.04153178 0.23875564 -0.7677861 -0.52077127 0.01560917 0.17963007 0.10396069 -0.25135097 0.04513753 0.48590794 0.41024917 0.08061506 -0.63141656 -0.14715123 0.2410815 0.15712672 -0.10791075
1914 -0.44689643 -0.14567275 0.19460985 -0.86454725 -0.3310237 -0.7053676 -0.3476419 0.5079239 0.045634583 -0.24902861 0.41930985 -0.45354435 0.5243964 -0.28522947 -0.03547321 -0.2655432 -0.012149559 -0.29405633 0.09214443 -0.60478497 -0.5183009 0.3989604 0.60916436 -0.13014457 -0.33406278 0.25356835 0.01751903 -0.072975636 -0.16960536 0.42155704 0.72212696 -0.501004 0.31043294 0.12581289 0.4048447 0.50584984 -0.09113486 -0.58920646 0.12985659 -0.14495054 -0.030775573 -0.04207159 0.07864541 0.25232336 0.029373333 0.019810108 -0.23660797 -0.6759775 -0.22776067 0.084097944 0.24071358 -0.5726192 -0.29466185 0.1318095 0.6430209 0.38524088 -0.3641658 -0.14341214 0.20463596 0.029308988 -0.09246179 -0.09187292 -0.17521484 -0.040085025 -0.51369643 -0.1844746 -0.37749588 -0.15754066 0.053969204 0.21324284 0.23722838 -0.5091794 0.010690749 0.21458052 0.07555918 0.13047245 0.18681556 -0.62222606 0.38220212 0.37303478 0.21915422 0.09507862 -0.2976907 -0.7464549 -0.11870952 -0.17870234 0.15731229 -0.06329233 -0.044300724 0.38807833 1.0251422 0.08414719 -0.34651026 0.45846298 0.2659679 0.070299774 0.72120404 -0.31605154 0.0996289 0.062878974
2045 -0.09108702 0.6186799 0.47392184 -0.34573263 -0.35397542 -0.26607153 -0.049994737 0.4277078 -0.1419376 -0.26846987 0.0942591 -0.40246886 -0.5434279 -0.3442342 -0.19831999 -0.20354933 -0.018029533 -0.24385564 0.04301011 -0.31569147 -0.51860595 -0.039215177 -0.19105943 -0.7570511 -0.71050704 -0.08433425 -0.17832363 0.4696669 0.018887255 -0.2409397 0.21422134 -0.057800904 0.059085727 -0.16965176 0.27158412 0.24079056 -0.11593232 -0.28359646 -0.011045862 -0.17220913 -0.22558442 0.4714524 0.10980093 0.18517569 0.040669255 0.15654255 0.13079815 -0.19409311 0.14939295 0.83201885 0.4428333 -0.3365678 0.23074925 0.5054509 -0.39033443 -0.20313111 -0.09618008 -0.40564063 0.17448674 0.120035164 -0.30444136 0.12300506 -0.29281652 -0.13572325 -0.19671097 -0.17145467 0.40356758 0.085594565 -0.44358787 -0.11092602 0.16077903 0.59928507 0.07698838 0.3051984 0.031792015 0.5799149 0.26641133 0.21880385 -0.037770797 0.05976278 -0.54974824 0.40871018 -0.11502858 -0.5224519 0.0039594183 -0.16825287 -0.43212888 0.3157667 -0.10476823 0.18387368 -0.088681415 -0.053971868 -0.42409223 0.106166475 0.0070049814 -0.2501229 -0.04971371 0.35418093 0.46168774 -0.026038915
109 -0.2961264 0.44809943 0.3259925 -0.9218897 -0.64148414 -0.39924073 -0.09229606 0.48261753 -0.19713818 -0.9059589 -0.180441 -0.38227615 -0.5467144 -0.40210882 -0.2364725 -0.49833646 -0.033193618 -0.2744183 0.24014948 -0.37499067 0.10726556 -0.20970578 -0.22052795 -0.18487771 -0.35598496 0.026243975 -0.17957245 0.11169743 -0.02614338 0.23682714 -0.044882406 0.19712007 0.037580922 -0.06925596 0.12236468 0.33060944 0.0699182 -0.014287962 0.3372974 -0.074166134 -0.36884633 0.2525971 -0.3028206 -0.16879752 -0.36985934 0.18833554 0.2710853 0.006703306 -0.13699324 1.0185487 0.3225723 -0.5613471 0.21465497 0.0011402057 -0.36227506 0.22829838 -0.09846544 -0.2254675 -0.10299673 -0.13595483 -0.5545195 -0.0071537546 -0.017127372 -0.26260895 -0.08239116 0.0258713 0.32079223 0.34879902 -0.26333138 0.19313811 0.4113472 0.3281725 0.43109775 0.0438259 -0.12826781 0.5108632 -0.057440247 -0.50805783 -0.31745657 0.6249017 0.096409366 0.2509116 0.20125271 -0.2754469 0.035983227 -0.14239691 -0.08169926 -0.10899333 0.12742572 0.048239518 0.17461765 -0.082012 -0.016447054 -0.29414195 0.33385298 0.17616978 0.38026452 0.35141078 -0.039359305 -0.27882314
733 -0.57566094 0.60750806 -0.4167048 -0.837806 -0.45672324 -0.25136557 -0.1451095 -0.18761082 -0.15262358 0.015580717 -0.059774835 -0.14563131 -0.61411035 -0.53390294 -0.0442752 0.21223028 0.09589127 -0.34674224 -0.3125514 -0.30551952 0.79756784 0.23375936 0.15933077 -0.33535483 0.06832585 0.2083052 -0.43764347 0.08012029 -0.4427306 0.18046579 0.37223342 0.07193953 0.10903901 -0.40202186 0.43525574 0.6606425 -0.699303 0.20405695 -0.2994201 0.5225335 0.14288847 0.15994447 -0.08948211 0.46855342 0.2385331 -0.3592123 0.28219923 0.034953717 0.30693737 0.15464981 -0.16826673 0.20417063 -0.32210833 -0.0732405 0.13700311 0.2262933 -0.0785653 -0.6355467 -0.11642036 0.3425835 0.5219367 0.19013737 0.2037092 0.07856488 -0.101350784 -0.36476406 0.12751837 0.28765947 0.29897645 -0.3178365 -0.13629934 0.26605654 0.13091926 0.3449858 0.03055718 0.2201525 -0.4074318 0.42327726 0.37143362 0.020132782 0.17483875 0.21934529 -0.121217 -0.3682286 0.49606034 -0.2322598 0.4975844 0.3084077 -0.13410741 -0.29118353 0.11202702 0.5525813 0.4402623 0.033568412 -0.16275379 0.49658632 0.6402044 -0.08853309 0.68732643 -0.46612734
1072 0.3507847 0.78735805 0.008288362 -0.39971942 0.013613513 -0.52639455 -0.10975626 0.34724563 0.19507115 -0.4101875 0.4242047 -0.28554314 -0.42154637 -0.5076947 -0.3357732 -0.35980254 0.03701011 -0.2900066 0.33285612 -0.5388176 0.17619196 0.4159259 0.40117076 -0.46825835 -0.8762746 0.3201535 -0.22933736 -0.081456095 0.48396245 0.082347944 -0.18986957 -0.17579757 0.2183157 -0.6835781 -0.20602375 0.3290758 0.3079686 0.06487801 0.1459566 0.07627496 0.39240643 -0.42867318 -0.031002108 -0.123406455 -0.15861915 0.32727093 -0.26328754 -0.107418515 0.40223488 0.86885744 0.31114733 0.18889895 0.017018087 0.1304706 -0.02718922 -0.32433236 0.33991414 0.074877374 0.03911755 0.00038825453 0.11529964 -0.22305626 0.12854943 -0.0014837221 -0.19163413 0.24770208 0.036194645 -0.35593382 -0.3689013 0.13126692 0.23574947 0.22949122 0.5774185 -0.25947377 0.19361195 0.05567852 0.38094005 -0.02044513 0.35644954 0.53639776 0.18145926 0.2857855 0.08488769 -0.14962138 0.34655482 -0.031468198 -0.33618426 0.07325773 -0.33753735 -0.12779713 0.36977658 -0.17019571 0.13821557 0.19752394 0.15315294 -0.26106724 0.3155353 0.03737563 -0.5560541 0.389433
1542 -0.014691553 0.43048102 -0.80223393 -0.37308505 -0.47018835 -0.41595042 -0.21512972 0.4824517 -0.62759113 0.07768481 0.081648156 0.5097674 -0.57600313 0.2894214 -0.6744019 -0.12787174 -0.11687071 -0.7178786 0.04296349 -0.4171201 0.10054775 0.062062837 -0.006635496 -0.6344142 -0.66623837 0.02705823 -0.32544088 -0.08198716 -0.6833169 -0.22642651 0.23152678 -0.326349 0.20739324 0.26968634 -0.18663648 1.1098549 -0.35442668 0.012023261 -0.3422924 0.16312662 0.2686064 0.0742612 0.059024725 0.45453373 0.5773612 0.2217351 0.36547366 -0.67091584 0.43153784 0.21575001 -0.011192023 0.20768961 -0.68802 0.35997778 -0.09443191 -0.110887855 0.31505486 -0.706626 0.19272953 -0.12244131 -0.06892422 -0.088763416 -0.47895765 0.16446099 -0.3274023 -0.6374282 0.45248827 -0.02998453 -0.07991242 0.54663074 0.5262853 0.06115592 -0.086134225 -0.2253697 0.5565822 0.03475782 -0.16601665 -0.38613826 0.19853434 0.23516133 -0.07961492 0.53313917 0.07036438 0.26129016 0.10865511 -0.3445075 -0.35802284 -0.05575086 0.8198197 0.4509829 -0.11440913 -0.15855563 0.41614097 -0.32113448 -0.6292427 -0.19369596 0.7762216 0.27728125 0.39330184 -0.006996358
1224 -0.42118633 -0.21563293 0.18973021 -0.4959588 0.14532486 -0.31524557 0.033212624 0.20673516 0.45133394 -0.32358068 0.013513599 -0.3534657 -0.048898716 0.12637264 -0.7089408 -0.056203585 -0.029193431 -0.44553196 0.22164957 -0.44824192 0.0908673 0.48126584 -0.13728854 -0.3872175 -0.18516214 0.6472874 0.14744172 -0.14702001 -0.060138855 -0.08021807 0.33215895 -0.10168693 -0.110038355 -0.28390166 0.06255492 0.61569107 0.0584424 0.0043045096 -0.26780578 -0.505907 0.055987533 0.19301102 0.021688273 0.21946888 0.84079444 -0.042927895 -0.34922764 -0.046752285 0.25109103 0.17246926 0.2975417 -0.74342805 0.23937732 0.5068916 0.3351442 0.5387686 -0.6429886 -0.8899285 0.003940524 0.31327984 0.18873721 0.24991265 -0.5996108 0.07955647 -0.26308754 0.2977422 -0.20161438 0.24582738 0.22233681 0.31445274 -0.03260843 -0.005063242 0.12619223 0.076743975 -0.19674547 -0.21525367 0.2583659 -0.42469788 0.14835997 0.36225057 -0.18314919 -0.30831236 -0.60523516 -0.79521203 0.24804905 -0.03526922 -0.43884754 0.08319493 -0.15658116 -0.19245888 0.99659413 0.50359356 0.1658498 -0.028407978 0.07275504 0.20964165 0.1302522 -0.014922944 -0.0104985 -0.38842535
1441 -0.15532318 0.2751107 -0.5202859 -0.5239756 0.120742835 -0.5902656 0.5449447 0.55760765 -0.2250462 -0.365883 0.28355947 -0.13253273 0.22724538 -0.1061376 -0.3408309 -0.21283272 0.009248274 -0.6606493 0.039653137 -0.672378 -0.04913622 0.63609374 0.08185138 -0.08058941 0.44869065 -0.06258225 -0.15786174 -0.53472495 -0.10311908 0.1546265 0.068660475 0.094630525 -0.18761264 -0.31113762 0.21334253 0.6889152 -0.21146296 -0.15057106 0.39199036 0.0144821415 -0.095793106 -0.28977063 0.3448139 0.0075353533 0.6727456 0.0056270026 0.008021873 -0.6185043 -0.04295077 0.49048263 0.6076723 -0.35703203 -0.30089208 0.37189975 0.597225 0.32963526 0.10002246 -0.098949686 -0.11110085 0.0132058645 -0.02259406 0.010314 -0.4521063 0.1552705 0.3668328 -0.9377129 0.3359884 -0.25959083 0.22926332 -0.37209427 0.20539078 -0.7486671 0.5712183 0.20354034 0.009611903 0.61039066 0.058949832 -0.052738648 0.77271837 0.18781544 -0.83347815 -0.061039098 0.09530813 -0.20733123 0.22857618 0.20044006 -0.20763871 0.4128682 0.5106769 -0.19386472 0.8488784 -0.14500824 0.2102192 -0.11914402 0.56877273 -0.266463 0.36569262 -0.22249572 -0.80092597 -0.4094476
1042 -0.012963844 -0.026670115 -0.21957228 -0.6774083 -0.3840667 -0.35794902 -0.11890588 0.18411247 -0.0005724285 -0.1633234 0.23611009 -0.6957621 0.009196407 0.23090315 -0.26028496 -0.16918077 -0.33192995 -0.5763524 0.18610969 -0.037478536 0.26659766 -0.10079893 -0.044415515 -0.09457751 0.38087142 0.17816879 -0.28078696 0.1850483 -0.2912502 0.06607377 0.70376307 -0.06195162 0.36795837 -0.14641434 0.99870133 0.20541382 0.15148203 0.47368973 0.27719116 0.19940594 -0.3521126 0.17798476 0.18809547 0.06461269 -0.002802971 -0.06849362 0.027076999 -0.07255786 0.19253427 -0.10416471 0.32312903 -0.79452103 -0.5898548 0.42571476 0.83266526 0.3969985 0.2389808 -0.041723367 0.5826686 0.19909742 0.43893465 0.27098837 0.047972385 0.16134553 -0.49290907 -0.02485915 0.22618857 0.30469126 0.03717955 0.31335685 0.27639106 -0.42771956 0.30161914 0.22073655 0.8271936 0.07502171 -0.40247938 0.042010773 -0.19320807 0.38882104 -0.12019493 0.387273 -0.9490176 -0.04127397 0.6092107 0.23401785 0.04003655 0.020321073 -0.47104436 -0.27543083 0.5223566 -0.19803819 0.08147249 0.28622472 -0.222456 0.4603461 0.95909125 -0.16926436 -0.059710074 -0.011329864
1169 0.18599014 0.4958049 -0.050439492 -0.00975603 -0.7621542 -0.41725197 0.11081411 0.4267683 -0.046933603 -0.7732987 0.13520765 0.010811167 0.11610487 -0.004617147 -0.37758988 -0.34534472 0.5935275 -0.37583286 -0.1795593 -0.09656634 0.5802602 0.42166078 -0.111541964 -0.07390705 -0.53699803 -0.31930068 -0.106975846 -0.4634156 0.1332919 0.0004418211 -0.17661668 -0.098937824 0.14153028 -0.2942408 -0.06139 0.5241649 -0.27010533 -0.23459797 0.07016004 -0.1535675 -0.26070887 0.11013076 0.29321828 0.2623594 0.28729156 0.1082338 -0.1526383 0.21145332 0.096030414 0.3734336 -0.48163772 0.016063495 -0.93484724 0.4291772 0.60729593 0.610728 0.17264937 -0.4644881 -0.31419218 0.6468 -0.19334283 -0.15633166 -0.42524952 0.38713554 -0.18619747 0.24244575 -0.27582005 -0.009642777 0.20450576 0.17766084 -0.27682596 0.1475176 0.2772643 -0.36736745 0.39116144 0.24660358 0.069534324 -0.089087956 0.28042936 0.44572812 -0.2465924 0.54079837 -0.4771302 0.008079352 0.050750937 -0.33955684 -0.061801847 -0.07490221 -0.4207815 -0.14882027 0.11298282 -0.13186006 0.17749894 0.78032285 -0.09456608 -0.2377017 0.026025407 0.35387477 -0.29588786 0.5934781
415 -0.20512982 0.1604447 -0.6917751 -0.349965 -0.29676366 -0.10507211 0.04614531 0.286406 0.17370582 -0.51239574 -0.059852306 -0.58954066 0.2537965 -0.48441955 -0.5066804 0.18189108 -0.6574176 -0.18609798 -0.0032386233 -0.33592716 -0.5244943 0.8055035 -0.41418642 -0.5849344 -0.24678414 0.39575624 0.28540522 -0.48630622 -0.43577918 0.116751626 0.09174905 -0.5371934 0.19658872 -0.5226885 0.28183544 0.16391043 0.5387284 -0.3483455 0.39177498 0.40144107 -0.001401639 0.53972274 -0.17594036 0.17241278 0.44567266 -0.32379586 -0.2459069 -0.14693984 0.42289525 0.12784718 0.27487594 -0.46057153 -0.8669322 0.017200174 0.10562071 -0.18635936 -0.14888778 -0.47055906 0.0868863 0.23454441 0.0128550995 0.13667427 0.07079246 0.10023105 -0.42182666 -0.15393505 -0.28547728 -0.03618747 -0.2931784 -0.21585454 0.05246794 -0.57687384 0.077164985 0.11320531 0.14286698 0.007376638 0.061542753 -0.08890272 -0.13600865 0.116729505 -0.5494696 0.4729901 -0.6922766 -0.023073772 0.38828707 0.19737037 0.072084166 0.7448707 -0.049761206 -0.014891577 -0.08202113 -0.20809461 0.16397572 0.40979 0.2809029 0.29243714 0.148555 0.054494932 0.34153563 -0.6256806
95 -0.10367081 0.46179304 0.14671041 -0.2469874 -0.21685125 -0.20077144 0.43784377 0.31952542 0.26775682 -0.43081993 0.3596875 -0.36692402 0.31734762 -0.4765243 -0.6116037 -0.2912997 -0.28629616 -0.6072487 -0.3885223 0.000101644 0.3155528 -0.36353663 -0.29541415 -0.0010334547 -0.16037838 0.14626572 -0.24357256 -0.10847909 -0.11764426 0.22541748 0.5992023 -0.07289471 0.41119176 -0.37803105 0.79638106 -0.04987129 0.13553655 0.18908463 0.16518012 0.031657975 -0.10638294 0.38970268 0.51933974 -0.3324375 -0.27690402 0.18312293 -0.0046188943 0.017774947 -0.0019427468 0.22501953 0.41413197 -0.47096744 -1.0005348 0.49904934 0.29788196 -0.17419414 -0.23577152 -0.09303679 -0.18281022 0.49038002 0.059863035 0.02086294 -0.13922775 -0.0133026475 -0.55383205 -0.13840705 -0.024947206 0.42740974 0.01575057 0.123083696 -0.27581897 -0.39716712 -0.017914152 0.12917937 0.77643716 0.10773908 -0.2879194 -0.2564061 -0.018803066 0.3180597 -0.10599369 0.46811542 -0.06667312 -0.004224261 0.4686465 -0.20318776 -0.20782134 -0.19211067 -0.7691916 -0.23062152 0.7079132 0.08716349 0.27382585 0.42547366 -0.03773986 0.31930047 0.67756075 0.076273374 -0.14203212 -0.47055978
1483 0.302852 0.6514591 -0.10474398 -0.6213523 -0.6445656 -0.4833931 -0.31688395 0.5415588 -0.056037176 -0.62007713 -0.05460927 -0.28290996 -0.33483568 -0.15701135 -0.19245748 -0.16490377 0.2602389 -0.068977825 0.024114912 -0.4308195 -0.17835234 0.778433 0.13419138 0.514972 -0.72254145 0.10007409 -0.034815848 0.012359737 0.056125302 0.039543297 -0.3742021 -0.04190184 0.25649047 -0.32275745 -0.1626479 0.4389689 0.45397013 -0.5763554 0.22178794 0.44549736 0.21437939 0.017147671 0.060350224 -0.1875322 -0.14043932 -0.11526457 0.2547243 -0.5234313 0.2713913 0.115456104 0.09260178 0.2581484 -0.44262084 0.46916333 0.12782428 0.059451725 0.027458157 -0.6197782 0.03971923 0.48538986 -0.075013444 -0.26235846 -0.20970373 0.028451702 0.059188396 -0.14887913 0.22045867 -0.32408068 -0.46455032 0.011715832 -0.014042844 0.2038719 0.45838606 -0.16693245 -0.14625368 0.14738579 -0.17744333 -0.202925 0.33929348 0.40590033 -0.43114495 0.53711927 -0.4358438 -0.33096626 0.25730634 0.19575644 -0.44177276 -0.02111897 -0.3884674 -0.17816305 0.41439065 -0.5552637 -0.3964898 0.03303339 0.11872476 -0.17111494 -0.25714153 -0.13621408 -0.21841529 0.5189689
1131 -0.49641496 -0.5519313 0.3825284 -0.5266223 0.16981941 -0.10971732 0.16397841 0.28747106 0.5086541 -0.30838045 -0.3113208 0.49762848 -0.48770466 0.39130074 0.14183863 0.049439598 -0.005870157 -0.76199377 0.19527869 -0.46774805 0.2495745 0.5416391 0.27869883 0.046789546 -0.18071641 0.40057477 -0.36403856 0.09871831 0.09459066 0.53386176 0.60901284 -0.122238524 0.33425704 -0.21948206 0.4297999 0.28195107 0.03205285 -0.3930808 0.09021217 0.25229672 -0.028792968 0.053019743 0.6619309 0.018598128 0.5115782 0.43410704 0.069797516 -0.33356416 0.06517171 0.66804194 0.15485203 -0.3414329 -0.24498753 0.38084388 -0.09398217 0.40926892 -0.21557075 -0.3080761 0.2912342 0.01979911 0.033451594 -0.084341735 -0.15428795 0.50640297 -0.31533647 -0.35752907 0.059839163 -0.14361656 0.32034874 0.14048746 0.30429703 -0.21466807 -0.31089637 -0.2768252 -0.18218996 0.21028805 -0.057352673 -0.2616925 -0.066010036 0.22737396 -0.24861601 0.03487584 -0.40183783 -0.38230342 0.6240034 -0.15994334 0.03634199 0.47746626 -0.54043925 0.40722802 0.22890238 -0.29193738 0.17816058 0.00037230327 0.35680744 0.3683289 0.2426924 0.22757208 -0.057986386 -0.5907578
963 -0.43371603 0.06184869 -0.12685421 -1.2022097 -0.633277 -0.7503004 -0.07010737 0.22063504 -0.07162473 -0.5130208 -0.05703043 -0.03990047 -0.28479892 -0.0022336747 -0.027867228 -0.06364628 -0.11085265 0.15515 -0.15769684 -0.070457 -0.40109673 0.049992487 -0.52022 0.08301691 -0.4716558 -0.23005642 0.07289577 0.003617011 -0.4328888 -0.16685462 0.785528 0.106657386 0.3702472 -0.09177335 0.39980444 0.1418068 -0.045037393 0.08563962 -0.026860135 0.32152262 0.12969476 0.124629594 0.29100412 -0.21620412 0.8194407 -0.11352375 0.26313215 -0.26725227 0.23448351 0.2646837 0.3871032 -0.2720132 0.43052316 0.33130017 -0.56263834 0.4376766 -0.0700749 -0.39223507 0.13529336 0.37522805 0.632119 -0.12020549 -0.08552665 -0.066591755 0.24694309 0.27544576 -0.3594792 -0.5116716 -0.33832276 0.5194946 -0.091323376 -0.11921912 0.7277109 0.63093895 0.17209971 0.41852447 -0.35391536 0.08829585 0.22036408 0.46309862 0.36044803 0.26170334 -0.28106478 0.43725884 0.292546 -0.25303212 -0.046811093 -0.19509968 0.17514408 -0.05213368 0.31038737 -0.63389415 0.4627434 -0.062134095 0.17018215 -0.21521209 0.8996829 -0.27153102 -0.0051356363 -0.79675823
118 -0.488496 0.14241695 -0.12707078 -0.9641472 -0.39322948 -0.0912519 -0.004361911 0.5494969 0.3205969 -0.7867247 0.085460655 0.025789537 -0.16548869 -0.013105207 -0.26143306 -0.12258361 0.4380575 -0.5988874 -0.21347088 -0.5974985 -0.20305176 0.6150093 -0.20543803 -0.6252455 -0.159043 0.4450029 -0.45904243 -0.446568 -0.50048673 0.0817636 0.19534522 -0.53690296 0.04264993 -0.23779191 0.46421877 0.67518383 0.45468935 0.018712997 -0.08002572 -0.19147891 -0.16173846 -0.25457758 0.21394253 0.06504629 0.33979627 -0.094833955 -0.13479596 -0.34779325 -0.23548947 0.04411427 0.50321573 -0.5138628 0.11367676 0.38705862 -0.044236735 0.10012999 -0.31328005 0.06252015 -0.35815927 0.08892507 0.23965928 -0.14289005 0.057034694 0.19578189 0.3614793 -0.3450524 0.32016543 -0.47750613 -0.40143782 -0.15858074 0.1710114 -0.8339054 -0.3451895 0.06506206 0.07687801 0.4427603 -0.44577762 0.06382848 0.14910068 0.652739 0.1406354 0.40735182 -0.112848684 -0.41887087 0.19454311 -0.28340417 -0.12990199 0.59701496 -0.35510984 0.37821242 0.4400702 -0.15160617 -0.26765224 -0.0599307 0.66016203 -0.14640558 0.06080286 -0.014142987 -0.30267754 -0.124729656
1413 -0.4127494 0.27040341 -0.9127516 -0.23870288 -0.5208591 -0.7120894 -0.11807087 0.8174693 -0.7805952 -0.01574666 -0.21114929 0.4143217 -0.46137163 0.30795872 -1.0894253 -0.2074628 0.1615808 -0.8555171 -0.06875181 -0.72722703 -0.1705176 0.016568812 -0.1349938 -0.8572251 -0.7582236 -0.111310184 -0.5299696 -0.02313472 -0.57608527 -0.15389962 0.024699638 -0.30711997 0.49862918 0.06846231 -0.12778892 1.2173896 -0.63859665 -0.15936723 -0.3270675 0.008424463 0.21632485 -0.22783554 0.1539913 0.5056831 0.58886945 0.05394468 0.54372406 -0.56098545 0.3524524 0.065378845 -0.18874961 -0.048683472 -0.5928813 0.27670136 0.19973806 0.070641816 0.41548505 -0.6241775 0.17049274 -0.017149758 -0.13450238 -0.13082445 -0.80408347 0.28734896 -0.69163203 -0.32616848 0.51311487 -0.2264522 -0.03773734 0.92030543 0.55639964 0.006296088 -0.04852305 0.014453467 0.49800807 -0.44027945 -0.15851128 -0.37477905 0.1707039 0.39002103 -0.022503605 0.54700285 -0.011909051 0.36669785 0.09161846 -0.27425027 -0.3323022 -0.0015479745 0.65354925 0.31628853 0.19624604 -0.3756062 0.4288679 -0.60098195 -0.7179011 -0.29148695 0.7740098 0.20370029 0.3895365 0.06297437
2182 -0.30755228 0.27567017 -0.43693542 -0.70395726 -0.42260632 0.123410344 -0.12082571 0.09235995 0.24009468 -0.29213345 0.024309479 -0.5051634 -0.03945134 -0.68637764 -0.546959 -0.40582356 -0.33705345 -0.60111725 -0.08126719 0.0117537165 0.067129314 0.28816792 -0.02274655 0.1468059 -0.45676738 -0.079812236 -0.18097018 -0.03783347 -0.50941545 0.015885973 0.23928484 -0.51233494 0.48024547 -0.57306105 0.7738665 -0.0873495 0.103599384 -0.013312063 0.16401744 0.42131707 -0.10715856 0.22909123 0.02167839 0.10241486 0.424192 0.019043045 -0.22829282 -0.30377072 -0.040058933 -0.15026969 0.09889081 -0.88492984 -0.63089734 0.4323495 0.57440656 0.14995526 0.27286896 -0.09873606 -0.2530648 0.6614759 -0.33353487 0.0022110774 0.15274285 -0.42552957 -0.6451836 -0.36931062 -0.017327921 0.3352916 0.07477244 -0.24803647 -0.21585147 -0.51080006 -0.17710578 -0.33646923 0.4101505 -0.0045159324 -0.40146878 -0.10839824 0.14310823 0.26704934 -0.44129905 0.44705272 -0.5768124 -0.13329707 0.36102197 0.08112833 -0.067107216 0.14857079 -0.4837157 -0.18133 0.17614758 -0.1754478 0.20596159 0.20112014 0.020294834 -0.107921 0.8800084 0.059716783 0.1512235 -0.54849184
1257 0.3532619 0.18523622 -0.24868171 -0.7628924 -0.74660414 -0.24415094 0.57556766 0.56571984 -0.1800394 0.59975594 0.039378528 -0.33243975 -0.120554134 0.46210673 -0.5703854 0.1436742 0.3788224 -0.6138987 -0.20216344 -0.0305 0.27834746 0.5886199 -0.044700347 0.11359856 -0.19187658 -0.4801435 -0.55038023 -0.75016016 -0.2889038 -0.115717836 0.8556193 0.0010025445 1.069475 -0.78087825 -0.15823579 0.45853034 0.3295442 0.4657749 -0.7677836 0.07169267 -0.30633485 0.5615975 0.21718112 -0.49757674 0.2897575 -0.03314232 0.3400733 0.19265452 0.33524972 0.75333124 -0.49445528 -0.104348555 -0.09776318 -0.012126998 0.32164973 -0.030302735 0.32248053 -0.2957355 0.5728823 0.6806383 0.66735625 -0.69016594 -0.34535766 -0.30849817 -0.46373972 -0.71203107 0.01862746 -0.03451135 -0.5463759 -0.19696797 0.6095737 -0.25842667 0.8707009 0.700295 0.30700105 0.11795737 -0.38550043 -0.08569676 -0.049793903 0.54290533 -0.00466896 0.21439938 -0.61158085 -0.43669435 -0.4117899 -0.56812483 0.2391342 -0.053126052 0.18266907 0.20424987 0.3460138 0.17071503 0.44083267 0.10327267 -0.05638432 -0.48733494 0.4486152 -0.178025 -0.24924998 -0.33429855
1416 -0.082084306 -0.34416613 -0.041026853 -0.82052946 -0.032243244 -0.81655145 -0.09091507 0.09198723 -0.27208272 -0.2668218 -0.03305003 -0.088690884 0.2397299 0.123335436 -0.29752785 -0.045012694 -0.38992554 -0.4813608 -0.084973454 -0.26794946 0.29109386 0.15125656 -0.5356048 0.1421706 -0.06629651 0.33020762 0.340739 0.666238 -0.3849477 -0.019666553 0.26843014 0.17077772 -0.060098805 -0.4484394 0.94480616 0.28811762 0.13353385 -0.19493563 -0.41050538 0.16451387 -0.003917904 -0.09901491 0.41297388 0.19508055 0.24189822 0.12938355 -0.30351308 0.35285527 0.32763764 -0.13536637 0.3255812 -0.5201816 -0.47017324 0.5682039 0.8960345 0.36690742 0.31792375 -0.0970034 0.36387128 0.26657012 0.2676944 0.3363595 -0.0005402278 0.50407434 -0.57193583 -0.05942207 -0.014416654 0.57593966 -0.48664024 0.2032155 0.07748491 -0.19039801 0.11968224 0.07842689 0.28229615 -0.094844855 -0.2080242 0.4340676 -0.10944487 0.67911935 0.0035741657 0.041130938 -0.634564 -0.5861218 0.25815642 0.13849945 -0.46140075 0.31909025 -0.3847111 -0.17851278 0.25757346 0.043353587 0.04509382 0.39614886 0.43909517 0.4487856 0.5638465 -0.08511928 -0.2391907 -0.095722616
1692 0.17451237 0.5631771 -0.54593116 -0.35324973 0.07808986 -0.25205904 0.55568177 0.1673894 -0.12751213 -0.43410084 -0.19050935 -0.407204 -0.37369597 -0.3633862 -0.49666452 -0.08354269 -0.32004383 -1.0214282 0.07718754 0.04522213 0.7895743 -0.22947514 0.33595458 -0.67354155 -0.37675342 0.43775815 -0.4495734 0.24657036 -0.49728146 0.066036224 0.6306637 -0.2949022 0.09141317 -0.22967434 0.6901266 -0.38685837 -0.39250195 -0.005769359 -0.33908007 0.81739277 -0.5516736 -0.19892666 0.47208932 0.16999029 -0.07308685 -0.3925427 0.565894 0.4904317 0.10476753 0.120093726 0.22191581 -0.21025605 -0.085431404 0.24385087 0.43442267 0.28318182 -0.23354843 -0.5648999 0.065839715 0.48520517 0.20701165 0.095995575 0.42960262 0.43561375 -0.55928856 -0.17395425 0.21301238 -0.2908208 0.08640085 0.33906358 0.79612756 0.35981026 0.049859505 0.3145679 0.050233144 0.22878532 -0.06564282 -0.17152633 0.0695217 0.367358 -0.37745064 0.26104993 -0.6554887 -0.03525329 0.05282016 -0.22619697 -0.16199139 0.13433702 0.022845907 -0.27042735 0.2743252 0.2452743 0.48332432 0.08266882 -0.55650365 -0.06596793 0.7316225 -0.024829611 0.11479212 -0.37828967
973 0.084597066 0.20093302 0.036937427 -0.9623216 -0.18398549 -0.18022716 -0.072621584 0.47264132 0.1954661 -0.6982024 0.5326917 -0.20236056 0.04760647 -0.35974813 0.11630694 -0.50841445 0.13081664 -0.45929575 -0.04671001 -0.80312055 -0.14055462 0.15445267 0.00048999494 -0.58182216 -0.48897675 0.38037392 -0.39262986 0.15812579 -0.23601457 0.3304863 0.39547428 0.26685402 -0.20256111 -0.013974923 0.021264436 0.49553946 0.31946108 -0.09187124 0.21752498 0.17295593 0.4008948 -0.06604097 -0.26185313 0.23103733 0.42686993 0.39957368 -0.30371964 -0.21414284 0.17347173 -0.21669629 0.45913938 -0.6485099 0.100126214 -0.5539919 -0.3703055 0.5659207 -0.5874273 -0.017073309 0.11885659 0.1996731 0.12598263 -0.22377421 -0.52105916 -0.3338556 -0.13327616 -0.23887879 0.04447064 -0.25161752 -0.20590027 0.23921065 0.44012108 -0.16619028 0.007878308 0.14783275 0.07495255 -0.0719773 0.19536863 0.060997948 0.22791757 0.5237716 -0.16692057 0.31075352 -0.46324095 -0.48467824 0.23837428 0.042194225 -0.59505934 0.0790557 -0.052720223 -0.26794443 0.570007 -0.026032312 -0.3719008 -0.2581762 0.15120493 -0.38773203 0.23686732 0.17390801 -0.38217115 -0.21049619
436 0.04866816 -0.5800488 -0.39747342 -0.40171334 -0.20603612 -0.26086268 0.48203063 0.68780637 0.6629058 -0.84874064 0.18108636 0.15088753 0.054460417 -0.006964132 -0.33439222 -0.009675506 -0.20537134 -0.9120995 0.20951547 -0.45395705 0.08428149 0.22036731 0.24636404 -0.2330826 -0.22473928 0.43666705 -0.75531906 0.38056034 -0.04762155 0.39153782 0.4897919 -0.25861317 0.11862351 -0.046410777 0.12113118 0.27890456 0.11207935 -0.7104423 0.094257064 -0.045006197 0.080163084 0.03155337 -0.19464205 -0.20586798 0.34280628 0.16059811 0.11375968 0.34115097 -0.09194948 0.26448163 0.11624784 -0.15547073 -0.0076929815 0.34129533 -0.0025750354 0.328874 -0.20304585 -0.2246456 0.16699713 0.59063315 -0.32035175 -0.21498719 0.22206448 0.5338562 -0.3322038 -0.36021912 0.46114436 0.08049997 -0.17445344 0.29331386 0.121827446 -0.5282299 0.1720728 0.2071813 -0.2765849 -0.062352132 -0.19548763 -0.09148988 -0.07474184 0.26145065 -0.15054889 0.19445737 -0.7712582 -0.36025575 0.35713485 -0.010075679 -0.0037235222 0.6156283 -0.006554007 0.05153612 0.21695091 0.06611145 0.40688246 -0.100055926 0.051521245 0.32742652 0.48186302 -0.3694526 0.44428113 -0.98552287
507 -0.26968196 0.18297343 -0.75546664 -0.10693679 -0.38847274 -0.6233211 -0.04679494 0.9899346 -0.6123338 -0.12164741 -0.18311968 0.47545183 -0.75005597 0.27252996 -1.0891234 -0.18843174 0.19570078 -1.0483502 -0.145317 -0.50924367 -0.074602716 0.069255956 -0.10240654 -0.88847506 -0.74743795 0.04166514 -0.41729608 0.025920026 -0.49975556 -0.050863914 0.20090765 -0.41797957 0.3147871 0.11598271 -0.047565125 1.1025716 -0.8034215 -0.051463883 -0.31834757 -0.053000055 0.07215205 -0.17951667 0.22951855 0.39166352 0.75469625 0.20572452 0.53325355 -0.32293114 0.4155327 0.2083918 -0.17290641 0.083255105 -0.5440117 0.31253424 -0.042856302 0.1675594 0.56776947 -0.65301883 0.3703624 -0.045852978 -0.16406475 -0.011019062 -0.813221 0.10416786 -0.67368436 -0.30218324 0.5139792 -0.23014519 -0.06820848 0.95743454 0.3907006 -0.16461208 -0.020903029 -0.16522054 0.50976497 -0.2148517 -0.23814018 -0.35832408 0.34715605 0.24731545 -0.08255487 0.47519106 -0.16157475 0.12171981 0.13930793 -0.18409231 -0.19417045 -0.1671973 0.5593108 0.44712585 0.05010493 -0.5387308 0.6407807 -0.5348568 -0.8401455 -0.22617954 0.46044236 0.029912736 0.6562226 -0.06734545
1765 0.22631563 0.38333368 -0.2445004 -0.35887697 -0.73445624 -0.41733924 0.06314164 0.45472473 0.23700641 -0.49334055 -0.036024142 0.1852993 0.13843048 -0.19470687 -0.4198786 -0.10115443 0.50895184 -0.35781845 -0.53594565 -0.6243352 0.29278994 0.23242219 -0.13237336 -0.41244614 -0.5509132 -0.63075006 -0.1939579 -0.33767688 -0.06383353 -0.016868405 -0.4601604 0.2298825 0.44373995 -0.39401835 0.13838658 0.35364786 -0.4308807 -0.24662237 0.25418025 0.29455012 -0.21950455 0.18150888 0.1897757 0.0070121684 0.44673854 -0.16797037 0.19846399 0.20919786 0.061188772 0.42077008 -0.38930073 -0.1472869 -0.68962795 0.5284012 0.5932128 0.31082 0.3417426 -0.39066523 0.16214941 0.3972062 0.21812987 -0.14061512 -0.11359162 0.079848394 0.16322409 0.12650175 -0.053659443 -0.1599018 0.12072421 0.50484455 0.23494841 0.47014856 0.47360268 -0.7622828 -0.23773074 0.1417943 0.12530962 0.23871817 0.21672103 0.46070585 -0.5415228 0.20561154 -0.43985775 -0.36357552 0.061669745 -0.24357274 -0.28361985 0.018767938 -0.31156537 -0.26740274 0.18999268 -0.439639 -0.044431966 0.7931482 -0.14375743 0.10262303 -0.4498586 0.16775532 -0.40230542 0.47515148
310 -0.31413633 0.22258085 -0.6911825 -0.85509425 -0.625014 -0.006531976 -0.33258727 0.20108633 -0.44611883 -0.26406154 -0.095083766 0.76540416 -0.7778685 0.105475195 -0.39914382 -0.03548972 0.03864718 -0.36139697 0.13477118 -0.23076572 0.24462852 0.0185663 0.4273413 -0.91665035 -0.68510157 -0.022820244 -0.26068673 0.047824647 -0.5490776 0.022971874 0.4727343 0.07292976 0.2925616 -0.0059336447 0.46118528 0.62513053 -0.6065935 -0.07060482 -0.5583873 0.23961744 -0.30366093 0.21196522 -0.032468077 0.3668014 0.7778623 0.09410029 0.8817867 -0.04283356 0.68671125 0.23425846 0.027801286 0.2123486 -0.6600044 -0.035674497 0.45025557 -0.040863357 -0.16405953 -0.699531 -0.19370058 -0.2179735 -0.34055942 -0.17142208 0.047127552 -0.25036442 -0.1408012 -0.48688802 0.3976821 -0.01738546 0.13297844 0.35459387 0.543905 0.29649207 0.26324785 -0.095706895 0.2620689 0.07722622 -0.15020308 0.09657109 0.19464254 -0.07766914 -0.5262171 0.2837957 0.020454517 0.029914932 -0.006689985 -0.55902106 -0.06792748 -0.19843808 0.06177645 0.49107555 -0.043532807 -0.36903208 0.027809238 -0.24968338 -0.42313242 -0.3557856 0.5874255 0.30918792 0.04396273 -0.19045763
2248 0.30086005 0.26432166 -0.30809674 -0.7432918 -0.28871912 -0.36652812 0.5633598 0.48431602 -0.028192818 0.71450377 0.46838447 -0.4593239 -0.05199676 0.33301875 -0.46757066 0.26592067 0.093668856 -0.5619015 -0.2992517 -0.070832066 0.04195697 0.41031954 -0.07555092 0.1721245 -0.33547065 -0.49472493 -0.47158536 -1.0149832 -0.48943862 -0.3124918 0.5180738 0.082201056 0.97471416 -0.49965414 -0.29460147 0.4904621 -0.020356037 0.44546562 -0.691027 0.023153055 -0.33599627 0.45665878 0.41828656 -0.43121368 0.20323928 -0.02253594 0.2134147 0.05474094 0.39161032 0.8037252 -0.38236302 -0.23393023 -0.2561543 -0.046358977 0.45583338 0.10031611 0.29417133 -0.41359386 0.5522935 0.38719282 0.43947992 -0.63775337 -0.74094343 -0.23694155 -0.26890975 -0.6334134 0.18949044 0.022339597 -0.46467066 -0.2714655 0.44352606 -0.46899968 0.58957785 1.0124682 0.07453045 0.28923756 -0.54322857 -0.36591017 -0.1279843 0.3743024 0.02625666 0.19321783 -0.45545435 -0.70739615 -0.3278994 -0.7362749 -0.017581072 -0.0829757 0.28153265 0.11145257 0.051691335 0.032484256 0.58914006 0.3541393 0.0125259785 -0.5709405 0.3917399 -0.31989688 -0.0626268 -0.1730864
1703 -0.20616181 -0.069912106 -0.16839279 -1.1974863 -0.3629574 -0.66546446 0.1830526 0.12679023 -0.28623596 0.08765473 -0.109391876 -0.05517985 -0.51443017 0.2618081 0.057443675 0.13628413 -0.120168135 -0.023581939 -0.5062393 -0.22953638 -0.21626526 0.17787927 -0.2964387 0.18576217 -0.40781727 0.029819375 -0.03566376 0.28818685 -0.3721267 -0.20102163 0.78526163 0.13512169 0.22899972 -0.09894562 0.08710347 0.18545842 -0.36000714 -0.091859505 0.16472298 0.2981013 -0.20628819 0.14719449 0.27923727 0.17751522 0.6937691 -0.03240981 0.10272107 -0.16086976 0.30704588 0.49320668 0.07495154 -0.51513636 -0.046831716 0.35326847 0.012510632 0.024333078 0.16193086 -0.55786115 0.0404904 0.466059 0.9714592 -0.011197234 0.5264907 -0.1990238 -0.21377572 0.41154858 -0.28084654 -0.346763 -0.06687737 0.06139851 0.03464816 0.09037465 0.7181799 0.23327434 0.3905323 0.5475522 -0.5303081 -0.17973106 0.16262765 0.2213533 0.6698322 -0.079916984 -0.25138292 0.25476173 0.33687636 -0.077116124 0.40398705 0.34731007 0.24797215 0.3748685 -0.04869699 -0.03079046 0.8850095 0.50730246 -0.003578947 -0.431432 0.65496457 -0.15963472 0.31398764 -0.60643756
1628 -0.34805116 -0.16914156 -0.045443267 -0.6035826 -0.33918232 -0.3610907 -0.12124069 -0.12709793 0.17388815 -0.59925807 0.3577929 -0.6390174 0.2959874 -0.3291092 -0.6544802 -0.11889201 -0.5527436 -0.6630032 -0.14860158 -0.042126574 0.33230034 0.054841883 -0.22619699 -0.34530532 -0.1319473 0.5101189 0.038235337 0.28662977 -0.10862069 0.052376747 0.51336926 -0.27377835 0.3632058 -0.08201634 0.7921155 -0.09111858 0.017692795 0.44213423 -0.11145044 -0.22513357 -0.34494692 0.10343711 0.5989353 -0.009674168 0.33969134 -0.027198652 -0.05585965 -0.2691415 -0.16316633 -0.11612259 0.2980568 -0.7450282 -0.73292077 0.31790397 0.62112325 -0.27499902 0.089657515 -0.104390614 0.0941799 0.65379125 -0.018228263 0.1571182 -0.09573531 -0.41706568 -0.49171725 -0.20194983 -0.057623282 0.31146666 -0.25447398 0.036769222 0.3444992 -0.50781626 0.43039852 -0.08192597 0.5133991 -0.17405964 -0.9292072 -0.15257385 0.27215898 0.14837056 -0.3736888 0.4958207 -0.53340346 0.23921555 0.64335716 -0.02523719 -0.28151506 -0.06479014 -0.106608935 -0.25823098 0.24586342 -0.21864212 -0.053267613 0.12640384 -0.28642192 0.31216252 0.66244286 -0.16555701 0.18220909 -0.36649767
1624 -0.3253736 0.5238318 0.12248328 -1.0787728 -0.45225632 -0.37378997 0.14129288 -0.23138565 -0.045120534 -0.5330921 0.1616579 -0.5764935 -0.49256352 -0.2881406 -0.19051595 -0.993514 -0.15520202 -0.3667366 0.40893278 0.04642011 -0.047323886 0.17878748 0.19832139 0.003945096 -0.8512949 0.39754423 -0.35389087 -0.2080375 0.03217427 0.11597601 0.062593386 0.01716831 0.5449097 0.5510971 0.691404 0.24873275 0.09113891 0.4772918 0.12071325 0.08353927 -0.0054437243 0.3921476 0.11409002 -0.030909989 0.04809361 0.1925369 0.21378675 -0.24848129 -0.016109888 0.8246022 0.071808174 -0.3464918 0.2885937 0.3802678 -0.40928516 0.40297076 0.117931046 -0.29854572 -0.26548263 -0.056989122 0.24389982 0.1309473 -0.03903718 -0.3704214 0.27779788 -0.0030396872 -0.03231309 -0.13523692 -0.36128962 -0.08317062 0.32531023 0.4027649 0.8639954 0.10306835 -0.33408192 0.2108456 -0.21505642 -0.015221792 0.13567728 0.21616359 -0.053925768 0.77332956 0.11959123 0.053047452 0.12442872 -0.030285927 -0.37491447 0.097391896 -0.20801336 -0.15434498 0.1090724 -0.4212688 -0.39167076 0.010002864 0.10355128 0.38056278 0.6318718 0.12734932 0.28406087 -0.4918936
2155 -0.6199794 -0.42394897 0.123325676 -1.0321655 -0.09305652 -0.30099344 0.19477466 -0.0016329039 0.27014616 -0.27707317 -0.033543456 -0.2670684 -0.10113062 0.12525333 0.020950856 -0.051363874 0.023469571 -0.59875375 0.3231302 -0.24720459 0.048271608 0.649271 -0.06440123 -0.2339888 -0.030717526 0.8956367 0.09507981 0.037842073 -0.41520482 -0.11212595 0.7717301 -0.14447883 0.4218592 -0.2374558 0.41694778 0.2479456 0.02097768 -0.41859272 -0.19192843 -0.0068456605 -0.21147713 -0.08126556 0.4840741 -0.16244675 0.20562178 0.19373238 -0.34481058 0.058336534 0.52049893 0.3886028 0.3099676 -0.4165306 0.15558656 0.5286445 0.20883846 0.35568893 -0.31357718 -0.38340357 0.29018575 0.33247012 0.119536266 -0.38093647 -0.21774085 0.16469552 -0.013220609 0.42644414 0.004144003 -0.3981317 0.12770993 0.53554946 -0.080459975 -0.19403139 0.30238885 0.2690389 0.40848848 -0.19877253 0.017076269 -0.6115737 -0.17146921 0.6355293 -0.0010129347 -0.024234617 -0.800571 0.039518747 0.11688124 0.24327584 -0.09865754 0.18342432 -0.7605996 -0.25330928 0.53856283 -0.5356531 0.1872546 0.074800424 -0.3879583 0.50589377 0.2321727 0.14322457 -0.15748774 4.1345287e-05
429 -0.43972832 0.6957871 -0.2981471 -0.8909783 -0.023395492 0.002901154 0.059370615 0.32193017 -0.1048228 -0.06053232 -0.39795092 0.04002831 -0.07427436 0.08867265 -0.12380185 0.12130651 -0.14322253 -0.2805761 0.17073135 -0.44621864 0.31980446 0.4133416 0.52794164 0.1962601 -0.07084295 0.54393196 -0.17939049 0.20350102 -0.47728848 -0.40940458 0.4055419 0.20797484 0.41592047 -0.37124702 0.33518505 0.1180491 -0.09768758 0.2660856 -0.1587823 -0.10993084 -0.36185092 0.21132694 -0.00014636356 0.009378776 -0.03900029 -0.12045005 0.073839016 0.059643507 0.09886984 0.51562554 -0.07725405 -0.7144547 -0.42495266 0.43615064 -0.15645555 -0.22111635 0.2649352 -0.63014114 -0.16349314 0.17735572 0.65567005 -0.16555172 0.11179843 0.19155088 -0.633071 -0.24253228 0.17739303 -0.028975617 0.35516486 0.5465577 0.8043697 0.45743 0.50017047 0.66622514 0.33876795 0.12751324 0.12343732 0.49996978 0.15132827 0.30267787 0.03954039 0.5263255 -0.41525206 0.11384247 0.022654118 -0.05630844 0.024204526 0.22419494 -0.44340596 -0.033813 0.4719287 0.54742885 0.65870464 -0.20972386 -0.80836314 -0.22460961 0.4807539 -0.10222891 0.045975253 -0.19080332
1103 0.61685574 0.0112295505 -0.12364422 -0.33845356 -0.40416557 -0.52812725 -0.28772783 0.59418184 0.45582733 -0.28734422 0.081172064 0.23145208 -0.15057991 -0.1694158 -0.5404874 -0.33054298 0.06073522 -0.62603533 -0.30752015 -0.5222103 -0.2764088 0.21132927 -0.055192214 0.002086558 -0.12185696 0.06917596 0.06768045 -0.17210461 -0.2732439 -0.15342128 -0.28876087 -0.17115538 0.24022652 -0.54218 -0.23870029 0.59294105 -0.2467038 -0.5814825 0.10077605 -0.023520889 -0.11145077 0.13461496 0.37016973 0.25813067 0.24635023 0.2277527 0.03478693 0.23563588 -0.11029819 0.67196757 -0.34366894 0.23383053 -0.45526206 0.988692 0.11294576 0.0754097 0.029746395 -0.73044336 -0.010362364 0.96165216 0.009207736 -0.34151804 -0.43389657 0.017551633 -0.10444856 0.18893044 -0.5219478 0.16387421 -0.28261176 0.42895117 -0.12523307 0.5090188 0.552789 -0.37521085 0.24387328 0.012554499 0.31737545 -0.20575255 0.24724361 0.080464505 -0.20371781 0.45709905 -0.74457 -0.23326194 -0.16978164 -0.35044804 -0.11698932 -0.32136336 -0.122353405 -0.28030428 0.015226228 -0.5336784 -0.045931183 0.495188 0.046616193 -0.038295384 -0.26359946 0.106434815 -0.5567145 0.31437904
1309 -0.013565255 0.03707773 -0.3627217 -0.39072585 -0.4413731 -0.08301422 -0.11862738 0.50143456 0.46094295 -0.66031903 -0.16110554 -0.42264318 0.20261584 -0.19525352 -0.26244462 -0.0912833 -0.5687438 -0.3363388 -0.040068958 -0.37187296 0.17255394 0.68602705 0.11134695 -0.45942 -0.33563837 0.2895307 0.17112708 -0.11117986 -0.22796224 -0.18544357 0.18972537 0.57495123 -0.04085947 -0.6638815 -0.04319358 0.17372707 0.16003063 -0.48294455 0.19245946 0.36234862 0.27202496 0.054469798 -0.32009816 0.76825076 0.5190448 -0.02903919 0.14601696 -0.2793975 0.38367286 0.14479217 -0.08063933 -0.57324797 -0.49055904 0.06549049 -0.062806904 -0.013302773 0.44825107 -0.47440383 0.30665943 0.58195984 -0.21759191 0.06438698 -0.1023374 0.21559484 -0.5726624 0.23538223 -0.34256095 0.39680713 -0.18150079 -0.25107074 0.09193921 -0.50712913 0.19571368 0.19456188 -0.030380849 0.24712391 0.15843397 -0.15416667 -0.045608442 0.13595478 -0.19887634 -0.023178833 -0.2614024 -0.20714122 0.4116972 -0.29976168 0.07566219 0.67926836 -0.08865794 0.28554732 -0.14179458 0.19087373 -0.30805102 0.54366827 0.4051487 0.37261644 0.2917615 -0.011815657 0.074010715 -0.6094853
661 -0.4042244 0.02358913 -0.4792033 -0.3260729 -0.46948618 -0.4004276 0.6113745 1.0300864 -0.1726884 -0.4772384 0.30897766 -0.3911834 0.08745034 -0.09327681 -0.41399634 -0.063749805 0.05236983 -0.32960624 0.6977088 -0.47473827 -0.031115131 0.38260466 -0.05056293 -0.14844495 -0.27123114 -0.15701146 0.10679223 0.114013724 0.16516034 -0.19572213 0.0737106 0.10141843 -0.563694 -0.07803017 -0.0054361345 0.5208141 -0.04179842 -0.5595324 0.20005171 -0.17009667 0.23196794 -0.2515693 -0.34721756 0.1420288 0.47172436 0.22886518 0.30528736 -0.42539102 0.18749216 0.4476313 0.27273935 -0.36053178 0.07852065 0.2392477 -0.18615547 0.19961685 -0.47237232 -0.49010944 0.2534958 0.35205957 -0.11494282 -0.29073036 -0.014270742 -0.68369997 -0.5188861 -0.3889043 0.19799086 -0.54407316 0.23435108 0.025010094 0.4274455 -0.3721557 0.67143595 0.4202423 -0.42574453 0.36215395 -0.48217288 -0.2401411 0.2811765 0.1888727 -0.080758266 0.039414268 -0.3385174 -0.42838547 -0.084531985 0.17001724 -0.03596802 0.40262777 -0.19907151 -0.39442098 -0.24921784 -0.27803 -0.20668562 -0.077201106 0.53282654 0.21236943 0.29138017 0.2789936 -0.07918136 -0.119046524
2001 0.20904261 0.86734575 -0.36055303 -0.5671109 0.2031154 -0.31583336 0.27328393 0.15987246 0.16525012 -0.32022256 -0.09232633 -0.028187219 -0.2163471 0.0057506976 -0.47277665 -0.3434096 -0.2847261 -0.57466024 -0.0048720203 -0.38732588 0.3790745 -0.056812126 0.17962731 -0.29890952 -0.15972286 0.34216797 -0.24926135 0.5487897 -0.5729976 -0.15021308 0.28691617 -0.088667914 0.07240866 0.06447114 0.17877443 0.3255722 -0.30187926 0.466113 -0.35398102 0.37248912 -0.39766705 0.41203913 0.3054878 -0.19722834 0.113986224 -0.04176817 0.32815078 0.33899733 0.03383649 -0.029158236 -0.27963203 -0.039418958 -0.3188053 -0.011361335 -0.26125494 0.07377921 -0.3080194 -0.5035126 -0.072634414 0.16935895 0.37868342 -0.1545387 0.05613149 0.0513868 -0.41589308 -0.06134902 -0.2707345 -0.25380877 0.25838897 0.36527094 1.0183067 0.6930916 0.17945871 0.5703319 0.1634999 0.5214128 -0.16417857 0.27632102 -0.26084048 0.18642922 -0.074374445 0.7996003 -0.26112726 0.31669357 -0.16698508 0.19367974 0.0969849 0.4734814 0.1326807 -0.07766667 0.27882075 0.29793522 0.639942 -0.063469894 -0.45934087 0.17829597 0.5384403 0.030714715 -0.0068997745 -0.35778975
1725 0.47183222 0.5241925 0.1516546 0.030775592 -0.42599747 -0.53725153 -0.6134582 0.283666 0.19278297 -0.6014943 0.49888062 0.010536383 -0.13778487 0.12607788 -0.069236025 -0.44953674 0.41256806 -0.28282234 -0.420664 -0.37934005 0.21025057 0.535997 0.039867006 -0.049785063 -0.58924085 -0.015038854 -0.5799818 -0.38085774 0.1188493 0.18989302 -0.19850942 0.17833415 0.08477178 -0.609235 -0.13720557 0.124870814 0.23387806 0.09556436 0.06635582 0.2681167 -0.25631258 0.14657573 0.026164815 -0.1461319 -0.026856693 0.5569709 -0.16402377 -0.112603895 0.17752402 0.9526919 -0.066015236 0.13280797 -0.48170182 0.5452373 0.26041275 0.31668985 0.21886781 0.04943404 -0.11774855 0.26762372 -0.08275408 -0.04722076 -0.20153873 -0.17684798 0.13754578 -0.29496065 -0.19696197 -0.0138880145 0.27552933 0.10482438 0.13224587 -0.014280378 0.75817007 -0.30028656 -0.1957517 -0.27301505 0.41426337 0.31648892 0.615583 0.11531564 -0.11982637 0.5396118 -0.5061451 -0.11179314 0.08648985 -0.11547077 -0.08147921 0.5647331 -0.11284046 -0.23619287 0.36987117 -0.36409605 0.15602632 0.6567325 0.10929582 -0.2897494 -0.088081196 0.041327246 -0.12318846 0.16105728
2394 -0.17489493 -0.10460133 -0.65104985 -0.3204614 -0.37528965 -0.40226927 0.05107492 0.41481552 0.008924196 -0.42849398 -0.38482633 -0.30832818 0.35755447 -0.36635083 -0.4791334 0.037211806 0.048832424 -0.46364093 0.113199145 -0.27850655 -0.24887241 0.6210322 0.18699287 -0.51416904 -0.12001454 0.21109848 -0.41872358 -0.16838217 -0.60787654 -0.2635366 0.14925165 0.024129115 0.0061956467 0.07631958 0.17687808 0.80155915 -0.047449797 -0.4438657 -0.37625778 0.34294492 0.46359554 0.22862014 0.1744883 0.5092448 0.1835913 -0.44052505 -0.34118524 -0.45153785 -0.10494539 0.2070441 0.034231145 -0.421861 -0.5716235 -0.12066829 0.08557147 0.42399725 -0.24955508 -0.7085648 0.14378437 0.09073453 0.5616188 0.12100395 -0.19292757 -0.07917089 -0.19857565 -0.5105199 -0.289195 -0.05735284 -0.13636221 -0.29710034 -0.27920568 -0.053067297 0.2103309 0.33209634 0.65889716 -0.4487848 0.207564 -0.29249132 -0.2422544 0.32617682 -0.29153267 0.092893206 -0.34577262 -0.56512547 -0.033308376 -0.50271195 0.18595067 0.7422592 0.15775849 0.2848649 0.23125304 -0.11218156 -0.17012624 0.40626934 0.32660437 0.25639838 0.14730512 0.0010624203 0.21606573 -1.126044
1229 0.5826268 0.52822036 0.092926584 -0.4232678 -0.48052293 -0.8604991 -0.2591478 0.36954254 -0.13121113 -0.4111202 0.21662717 -0.09910338 -0.15061988 -0.19309655 -0.403945 0.31883293 0.09221194 -0.17397328 -0.34487802 -0.60108376 0.17487752 0.28106606 0.51853937 -0.7253862 -0.7242791 0.14295532 -0.47730866 -0.17118636 -0.17647375 -0.43048415 -0.51182485 0.5893478 0.8212076 -0.15949075 -0.2809842 0.1385732 0.39289948 0.04127842 -0.0013888995 0.27759504 0.050858315 0.2353132 0.4847484 -0.0889958 -0.024671387 0.378885 0.058146223 0.15702604 -0.15205832 0.68077254 -0.5643568 0.33037 -0.95292383 0.2830988 -0.2577622 0.26574695 0.33402875 -0.4144403 0.059803307 0.107964166 -0.20974256 0.5291614 -0.49202186 0.4745939 0.4613841 0.013011013 -0.17352462 0.23047033 0.092240654 0.3543426 -0.19044276 -0.19889523 0.38776162 0.15266033 -0.19564794 0.27508795 -0.24599417 0.09152401 -0.06335616 0.3812209 0.17630027 0.79983443 -0.561753 -0.18406388 -0.11067541 -0.048019893 -0.1664526 0.20949593 -0.10559898 -0.24782845 0.120813906 -0.70089227 -0.24701516 0.44226512 0.04776013 0.052721187 -0.06633013 -0.0012420192 -0.51062196 -0.004182799
1950 -0.23753251 0.21407449 -0.6053168 -0.74537945 -0.18474548 -0.15140691 -0.40064323 0.38991663 -0.52476656 -0.34328303 -0.061425064 0.72533923 -0.97639775 0.038511854 -0.6986268 0.011714823 0.018343622 -0.6690888 -0.09379305 -0.10098852 0.12807555 0.09718574 0.3807134 -0.83119327 -0.60379684 0.1267245 -0.16409148 -0.043716535 -0.5396178 0.09309224 0.48689792 -0.1629162 0.26791492 0.14739029 0.53592026 0.75748473 -0.7034211 -0.003857406 -0.45427254 0.11887802 -0.28446236 0.10723288 0.015438597 0.16870366 0.6529702 0.22608861 0.7293649 -0.04097493 0.6237764 0.4282192 0.029300006 0.27417526 -0.5925344 0.024652997 0.42346656 -0.0002858888 0.052086186 -0.7015766 -0.09257244 -0.47987616 -0.039983742 -0.15421864 -0.006843733 -0.28280458 0.10537763 -0.5296402 0.42191908 0.075014085 0.007592525 0.45446032 0.55704814 0.10157195 0.006539043 -0.36951253 0.16461854 0.39098606 -0.24283093 0.08324946 0.101553515 0.0060625896 -0.5683476 0.37747663 -0.123550385 -0.05067986 -0.31620052 -0.44177842 0.035101987 -0.26815188 0.1566246 0.61922616 -0.038690727 -0.41225186 0.20553567 -0.22404674 -0.51075375 -0.25271368 0.589908 0.28735507 0.15517268 -0.26498985
2671 0.1514128 0.05771903 -0.22428651 -0.77659714 -0.6653601 -0.3598778 0.8651878 0.6619649 -0.13197894 0.3684066 0.3615299 -0.3192171 -0.12253183 0.5392591 -0.49957767 0.09368055 0.41283765 -0.6752869 -0.45059156 0.0055350214 0.37371674 0.43556327 0.011734191 -0.053005893 -0.19626096 -0.47889704 -0.46910083 -0.9116299 -0.22525547 -0.09148165 0.78338623 0.20361875 0.9133518 -0.9143762 0.033956576 0.45538592 0.24735717 0.45253313 -0.42938483 0.095945135 -0.08605793 0.5998045 0.22445217 -0.32093373 0.16862467 0.005776571 0.20438929 0.25972593 0.40437177 0.64251655 -0.41935846 -0.05819926 -0.3647034 -0.30296746 0.4374904 -0.16388516 0.48944837 -0.16635671 0.68937516 0.7919486 0.7156348 -0.80903625 -0.24576369 -0.18544798 -0.7080488 -0.9504015 0.15064596 0.2601318 -0.4817402 -0.2973879 0.5382511 -0.23427989 0.7739621 0.78266597 0.35114676 0.05453461 -0.26544735 -0.06374299 -0.005158865 0.550651 -0.046110053 0.31248936 -0.8949978 -0.8197757 -0.43361342 -0.78370094 0.25849587 0.08759877 0.029117256 0.17104205 0.2231991 0.08941522 0.16732825 0.22875865 -0.070254676 -0.35839337 0.40736163 -0.024261007 -0.2763361 -0.38543218
1742 0.49379817 0.721312 0.012950018 -0.42407048 -0.42536864 -0.5624108 -0.7121158 0.4776437 -0.20868406 -0.41232413 -0.00046936725 0.071264416 0.19067068 -0.5374584 -0.1822255 0.2423584 0.34556752 -0.120322555 -0.5046871 -0.5089829 0.4362776 0.40729907 0.15438332 -0.17775775 -0.5571983 -0.32436597 -0.38584957 -0.18950555 0.20580615 0.22301432 -0.36576763 0.30337214 0.7068391 -0.5538101 0.3269696 0.28944466 0.25004944 -0.11835315 -0.033694375 -0.06808573 -0.32616886 0.08059676 0.23905225 0.16188198 0.10684482 -0.22596428 0.2378643 0.12773614 -0.22808711 0.39292878 -0.71501255 0.005613968 -0.45730898 0.40612173 0.25824508 0.07441164 -0.057655856 -0.5134807 -0.23980561 0.0010861944 -0.05365312 -0.11376235 -0.31053635 0.4278271 -0.08727032 -0.14242597 -0.18613067 0.5093465 -0.10268952 0.320918 0.1426519 -0.032972626 0.5005973 0.06563191 -0.18356207 -0.09362971 0.17703246 0.18591332 0.8529025 0.29247105 -0.41612872 0.4914251 -0.7168482 0.28315434 -0.23680331 -0.081033915 -0.52468854 0.4319424 0.1213562 0.11048927 0.002538808 -0.5863457 0.21744859 0.65755826 0.2529421 -0.1710666 -0.17925608 -0.068818375 -0.52428925 -0.05155682
1973 0.19032723 -0.23748453 -0.44587067 -0.35037604 -0.2370552 -0.23578012 -0.22604813 0.5572484 0.08750127 -0.31700295 -0.07206653 0.1304817 0.38743487 -0.2957187 -0.533737 -0.29481843 -0.26156098 -0.57841784 0.0013005785 -0.2603658 -0.022445546 1.042658 0.34130463 -0.15258412 0.24897377 0.16304164 -0.50980467 -0.26463655 -0.47055987 -0.31899408 0.4837173 -0.26416644 -0.061027244 -0.27619365 0.511182 0.5999931 0.3908796 -0.29378843 -0.066919975 0.0473133 0.20398143 0.46166313 -0.004928796 0.18027063 0.4974053 0.2855066 -0.16078556 -0.44948456 -0.08265604 0.34824878 0.4340203 -0.44479677 -0.16715509 -0.059416555 0.24076656 0.36322588 -0.3093758 -0.3069948 -0.10376549 -0.10344868 0.21285562 -0.11507897 -0.41909948 -0.04181649 -0.43165216 -0.05469116 -0.5366538 -0.62575114 0.36473748 0.19063567 0.09490751 -0.47812995 0.14952613 0.14428721 0.33480605 -0.37564108 -0.03235403 -0.73417675 -0.008029908 0.42739734 -0.45033324 -0.1514922 -0.39313808 -0.88022494 -0.0012791809 0.06719987 -0.34299248 0.4043766 -0.44617116 0.21552289 0.2612045 -0.41861182 -0.1288222 0.0771637 0.2850948 0.6136016 0.26812178 0.31676528 -0.010595165 -0.5219642
1894 -0.0010421033 -0.03994376 0.31303272 -0.46983072 0.318867 -0.45254946 0.104992464 0.4944571 0.12723011 -0.64139956 0.057219636 0.44019642 -0.5463207 -0.05229025 -0.026245486 0.22397491 0.5824706 -0.72111666 -0.2646585 -0.21713233 -0.39180642 0.7733553 -0.05562068 -0.513595 0.0023850885 0.19920495 -0.24862322 0.3698296 -0.10886413 0.2957769 0.43763056 0.48781416 0.3959867 0.03973723 -0.095343865 0.67813045 -0.5713352 0.10872603 -0.1225869 -0.22284429 -0.29924494 -0.14059171 -0.09688143 -0.18571894 0.2358299 0.18204167 0.1336543 0.3498596 0.53511745 0.3640121 0.019203253 0.2291654 -0.728447 0.41660705 0.22702721 0.13072291 0.19011937 -0.5835509 0.23905551 -0.29067966 0.13935067 0.06475729 0.1640373 -0.069730505 -0.45423213 0.2304722 0.12696071 -0.22386676 -0.26614094 0.29008943 0.4594195 -0.18207216 -0.27763954 -0.33899352 0.16665766 0.30842283 0.4927864 0.10158845 0.034423914 0.056702584 -0.026227726 0.39128792 -0.82719964 -0.2428104 0.03788993 -0.023371935 -0.31279126 -0.16095106 -0.37840724 0.2358127 -0.18224315 -0.053616837 0.49814823 0.22221398 -0.3666954 0.036683064 0.34228247 0.021535432 0.3617654 -0.11543775
687 0.24889268 0.11557255 -0.13030097 -0.19194907 -0.43984768 -0.7008876 -0.19745915 0.5579714 0.22857237 -0.38311064 -0.30572268 -0.11639781 -0.10311368 -0.16840306 0.00067100883 -0.12470858 0.825459 -0.17467661 -0.34223694 -0.50824445 0.086914554 0.2964419 -0.23569308 0.2255126 -0.25233003 -0.25019625 -0.57756984 -0.038236666 0.28605708 0.3436168 -0.50173616 0.0317063 0.5023229 -0.41530505 0.10961338 0.30595148 0.0018165212 -0.34464356 -0.029986376 0.18009494 0.051976617 0.4334668 0.32667983 -0.07919772 0.53123206 0.6833631 -0.01711985 -0.3032733 0.39665142 0.6401968 -0.12829748 0.3408302 -0.52494 0.44576734 0.054614436 0.17919621 -0.1331265 -0.38773924 0.6161939 0.12059355 -0.3228438 0.37977925 -0.15362574 0.28302577 0.058654603 -0.13259648 0.22433268 -0.030390788 0.07758648 0.09438641 0.47660148 0.45400384 0.39948606 -0.33766752 -0.086052485 -0.1723884 0.29426432 -0.23909469 0.00452823 0.015505261 -0.53622675 0.5726788 -0.5911377 -0.13469623 0.015050109 -0.038040265 -0.42619574 0.24856582 0.16051172 -0.020321185 0.31379938 -0.04293611 0.3200215 0.5992795 -0.071038075 -0.539715 -0.07251998 0.35694996 -0.21178561 0.27931273
2367 -0.42983624 0.48498294 0.22527702 -0.46279642 -0.41522 -0.85071665 -0.5538517 1.0046026 -0.5867745 -0.4585878 -0.11548561 0.21986733 -0.07989032 -0.34227797 -0.44621226 -0.45705327 -0.57921934 -0.29629943 0.24798337 -0.3774928 -0.40164083 0.31982493 -0.22630145 -0.4918914 -0.6675233 0.4313708 -0.65883046 -0.07282846 -0.6469507 -0.0003368433 0.6782279 -0.3511981 0.24043773 0.2324026 0.3549902 0.20483065 0.12805238 0.004019174 -0.41151786 0.045563124 0.2883336 0.6983677 0.63478 0.13879697 0.16655876 0.47462887 0.9185334 -0.2168971 0.60524154 0.059350193 -0.42915952 -0.26246706 -0.5930746 0.32909915 0.7393017 -0.13037358 -0.039861914 0.033297576 0.21337716 0.17905405 0.009304302 0.346544 0.24192883 -0.07517354 -0.70086175 0.2661626 -0.22761883 -0.8323076 -0.19956367 0.73848414 -0.52246207 -0.5564226 0.28549805 -0.019908166 0.65954345 0.34822685 -0.28205568 -0.061351754 0.50105745 0.050371766 -0.42480537 0.13861166 -0.46310398 -0.8225019 -0.4787347 -0.556022 -0.052873194 0.123246744 0.2720847 0.18609095 0.57943976 0.031173056 -0.26091304 -0.2351531 0.50090295 -0.20870677 -0.0040239627 0.009636694 -0.121462844 -0.12259299
525 -0.2893512 0.21879888 -0.23539723 -0.31155136 -0.52952796 -0.37875882 -0.08954072 0.039589617 0.2741416 -0.7374457 0.068227716 -0.44353005 0.3546031 -0.51983476 -0.65123993 -0.0040643835 -0.8232052 -0.42266318 -0.06754659 0.07166921 0.36619517 0.18123282 -0.39693308 -0.21507323 -0.15072873 0.30606332 0.044997297 -0.20438676 -0.3248805 0.0688374 0.45004532 -0.3613106 0.5101616 -0.24129048 0.6891386 -0.1546172 0.061571945 0.06977218 -0.005874001 0.38978356 -0.18100367 0.32067376 0.12925524 -0.07961557 0.25096825 -0.21530251 -0.07039753 -0.1334053 -0.15837994 -0.12286691 0.5000543 -0.5113911 -0.880657 0.22095217 0.5254506 -0.3127895 0.17759605 -0.43900305 0.007962961 0.684314 -0.07720558 0.13399969 0.037197784 -0.2923699 -0.6728212 -0.5215802 -0.11696498 0.38515273 -0.18732315 -0.11806251 0.035523664 -0.65003324 0.26826409 0.064151555 0.54691815 -0.041161586 -0.46590587 -0.10585056 -0.087587215 0.395904 -0.7457631 0.58188444 -0.65630674 0.12217896 0.39617684 0.109842904 -0.21661003 0.15831064 -0.43876648 -0.37306023 0.42485094 -0.10301078 0.094991416 0.15431134 -0.010305271 0.0070226593 0.61440945 0.011953995 0.22651543 -0.58924127
1119 -0.39682317 0.3264351 -0.084547125 -0.6878169 0.0051096785 -0.865517 -0.011128913 0.4177929 0.0572202 -0.15485923 0.5320235 0.23891006 -0.29135647 0.25866607 -0.2773461 0.59749705 0.014882524 -0.6464526 -0.9183187 0.015308613 -0.41018754 0.34234875 -0.27663076 0.24984473 -0.5075214 0.19116972 -0.75808096 -0.12278031 -0.22552554 -0.09724489 -0.2908773 0.23225902 0.30303538 -0.22125167 -0.09234767 0.5044313 0.007102088 0.071237355 -0.20241411 0.240295 -0.63360626 0.4057194 0.43311805 -0.22579691 0.39423624 0.44949132 0.47618428 -0.09951967 0.49433923 0.76530606 -0.10344562 0.027512684 -0.13264479 -0.59226674 0.6184114 -0.049952384 0.35724816 -0.61956495 0.32098526 0.25828832 0.5080618 -0.3740471 -0.0065067215 -0.06495259 -0.6699807 0.18262401 0.6738615 0.07696961 0.2235863 -0.11020593 0.50731987 0.4557608 0.12978142 1.0505441 0.49886972 0.18901603 -0.28049082 0.18220586 0.48623732 0.6735986 -0.4878721 0.23457533 -0.5161561 0.034885645 -0.37467197 -0.5145565 0.088598765 -0.08544304 -0.30270478 0.58699197 0.16528946 0.5445602 0.4935884 -0.1576689 -0.13888772 0.3205024 0.4647062 -0.24638052 -0.24463294 -0.217027
1740 0.43609133 0.6218413 0.01082393 -0.31324446 -0.35000065 -0.81625175 -0.11515562 0.7729082 0.12711854 -0.65683156 -0.07075075 -0.48174548 -0.35727617 -0.1268365 -0.5245124 -0.5925533 0.39949846 -0.23390691 -0.5271917 -0.46795112 0.12630908 0.12406538 0.22554739 -0.47415304 -0.55166847 0.23702857 -0.44199792 -0.34252185 -0.014360463 0.30902413 -0.36853483 0.059233706 0.6325321 -0.3394745 -0.22537915 0.040848915 0.52310914 0.25302094 0.080423936 0.29872677 -0.019286577 0.31551912 0.29921868 0.009893325 -0.33749038 0.7833179 0.031515725 -0.12188285 0.27918422 0.6556396 -0.13892205 0.06919662 -0.31562528 0.07405354 -0.14384598 0.22144738 0.5436256 -0.17198534 0.077818915 0.32550424 -0.064121045 0.30697897 -0.50581896 0.033585414 0.16495031 -0.036003664 0.024500161 0.2536406 -0.17529282 0.010817295 0.12173613 0.08882951 0.86499673 -0.055758175 -0.358067 -0.19660561 0.09392288 0.023555297 0.048054565 0.008846917 0.032285925 0.5141538 -0.34518048 -0.08640333 0.16473526 -0.06566541 -0.08256837 0.18955731 -0.35584378 -0.23108172 0.40594703 -0.41398627 0.1934 0.5793867 0.121705644 0.022776442 -0.0911875 0.041877635 -0.3858228 0.589922
239 -0.62716794 -0.04233471 0.028059458 -0.48608297 -0.38393053 -0.25090727 0.049401175 0.017936328 -0.024214543 -0.7487308 0.16229549 -0.4947695 -0.030997677 -0.6098552 -0.32185093 -0.14273503 -0.029882029 -0.2996072 -0.24231727 -0.3407753 -0.1402527 0.17700197 -0.12094537 0.2412075 -0.57770526 0.44970152 -0.23026775 0.27420673 -0.06532551 -0.007420362 -0.09795546 -0.26296836 0.34054393 -0.5745376 0.81098783 0.06447742 0.07044107 0.029953368 -0.2411556 -0.09389375 -0.09213835 0.31454942 0.638764 -0.12924267 0.83998245 0.3698705 -0.3720008 -0.430216 -0.2243139 0.11029809 0.048153322 -0.7929639 -0.13447332 0.52214867 0.23495154 0.292848 0.055948786 0.062013514 0.31811947 0.3764783 -0.17872588 -0.035276227 0.06385326 0.0042834934 -0.27026474 -0.49842596 0.29715148 0.61978227 -0.4516615 -0.24586755 0.027128728 0.4801381 0.21810175 -0.83824134 0.030465566 -0.08169489 -0.6100937 0.122032985 0.39383474 -0.2082031 -0.4654845 0.2357337 -0.40388554 -0.10694802 0.4158332 0.14725612 -0.3062294 0.3328794 -0.17728493 -0.38873684 0.04403366 -0.22707824 -0.07260549 0.348308 -0.1747116 0.3899285 0.25632426 0.080359936 -0.028813882 -0.43426523
1927 -0.112730674 -0.4663797 -0.11113376 -0.4967945 -0.34975123 -0.663233 -0.20250991 0.26802176 0.3074618 0.065328985 0.017185876 0.07479854 0.0091682905 0.73048323 -0.06955627 0.34660614 0.083672754 -0.6215463 -0.25391105 -0.87790966 0.19291799 0.41792575 -0.293498 0.37367353 -0.35576102 0.6042181 0.07166852 0.48590136 -0.59698653 -0.15515247 0.8921701 0.46367034 0.11980857 -0.37911287 0.5325396 0.60594445 -0.09724044 -0.493667 -0.26507044 -0.17588454 0.16701542 -0.13074186 0.506603 0.33817205 0.028582046 0.29588518 -0.31445375 0.234581 -0.045548517 0.24873321 0.73610324 -0.3480413 -0.47701207 0.028103886 0.6944179 0.26252225 0.15599133 -0.18079118 0.5073735 0.08753794 0.09479102 0.15810242 -0.30120984 0.19182836 -0.36729437 -0.10658899 0.11055848 0.41343313 -0.3300184 -0.16496657 0.1098482 -0.13837533 0.12786856 0.1531684 0.45381185 -0.02028716 -0.34534347 0.17028737 0.15265583 0.48048702 0.23386858 -0.18740201 -0.29565385 -0.46356755 0.5251974 -0.3806975 -0.12171427 0.58663785 -0.030555794 0.14561032 0.3155305 -0.19831505 0.2506892 0.4266256 -0.14877857 0.27354947 0.43074036 0.053867955 0.004638057 -0.2793084
1015 0.20023476 0.43955594 0.24511379 -0.9639915 -0.39759618 -0.085030615 -0.15081674 0.116172455 -0.009431236 -0.33247635 -0.4171276 -0.5203255 0.07512392 0.03612051 -0.08817734 -0.4494599 -0.18516791 -0.25201014 0.014704973 -0.4244744 0.16302757 0.527191 -0.01065544 0.032644708 0.12827912 0.67954654 -0.19820526 0.29608023 -0.54527974 -0.40373787 0.5181762 0.052156825 0.23435576 -0.013907836 0.88542783 0.33831477 0.29384762 0.40380743 -0.21729535 -0.32395872 -0.040725376 0.482633 -0.11513825 -0.31116572 0.21098146 -0.19872786 0.048070446 -0.1102667 0.10244602 1.0597504 -0.14369835 -0.6029563 -0.06258188 0.41390637 -0.24681847 0.09498984 0.11268521 0.24386537 0.45553145 0.17660524 0.59404886 -0.21724601 0.014417967 0.14095554 0.09437992 -0.013834199 0.32109484 -0.23050609 0.02257288 0.06622603 0.3173752 0.4274479 0.32317105 0.47885734 0.22697857 0.40103602 -0.17834966 0.010206259 0.10436682 0.60603607 0.5646256 0.6722403 -0.53678447 -0.004977039 0.40119943 0.24839951 0.15443231 -0.057836413 -0.4552877 0.014913028 0.28733176 -0.19295757 0.19952741 -0.38454282 -0.06485715 -0.15613884 0.65029806 -0.03258267 0.24819261 -0.27938727
1505 0.4351276 1.0283505 0.14885779 -0.33504018 -0.29643592 -0.8867982 0.36162445 -0.061251685 -0.18517005 -0.57260454 -0.13395092 -0.62961155 -0.35812092 -0.61305004 -0.17153446 -0.5585763 -0.28263307 -0.61510247 0.37040007 -0.3937336 0.037741728 0.2786992 0.37372375 -0.27280685 -0.68448526 0.37090525 -0.11113743 -0.36824208 -0.26639113 -0.17581145 -0.09624804 0.028388275 0.52859396 0.15319875 0.23878801 -0.02120932 0.13312785 0.4178354 0.28263214 0.050539363 -0.091612406 0.09438511 0.19806634 -0.11605583 0.06478494 -0.12426281 -0.24997866 -0.32991564 0.004155393 0.48437205 -0.012032625 -0.11170001 -0.14284138 0.21915007 -0.6267206 0.005029623 -0.0020208708 -0.05911225 0.14213209 0.09827324 0.33189493 0.18801577 -0.24659795 0.054608904 0.35087922 0.00034180545 0.17044914 -0.13412891 0.0001835483 0.048465714 0.58593136 0.25301334 0.56925154 0.22702152 -0.14319833 0.21200927 0.29946306 -0.20011869 0.09026912 0.086202815 0.17743032 0.56033224 -0.18945868 -0.13252136 0.15552773 0.14303724 -0.46511772 0.25906122 0.05201122 -0.10261069 0.0996157 0.09017649 -0.1552091 0.0076076984 0.06463515 -0.026022693 0.89671504 0.2998733 0.055944484 0.04020482
350 -0.46766362 0.5459176 -0.19512948 -0.82100683 -0.5168123 -0.3360808 0.08083174 0.35377887 -0.3344736 -0.7903466 0.28843775 -0.15832369 -0.6094341 -0.33967197 -0.3760536 -0.18085602 0.11697675 -0.4941516 0.12120677 0.027950885 -0.086797126 0.24901895 0.25532645 -0.26891342 -0.76727384 0.29780108 -0.38266125 0.23551176 -0.2922656 0.24971342 0.25786224 -0.2960668 0.333395 0.18721017 0.21402985 0.22022642 0.4119241 0.35316572 0.24664004 0.14358471 0.3517652 -0.025961095 0.19232358 -0.2049148 0.11693014 0.11449741 0.10486081 -0.2693033 -0.06824293 0.8107194 -0.07768988 -0.22350508 0.13211267 0.6667642 -0.0737548 0.048090328 0.60420847 -0.12822488 0.14391252 -0.07624715 -0.32729924 -0.21106198 -0.019451298 -0.19799139 0.11064716 -0.38719484 0.58724505 -0.007851522 -0.38947818 -0.36657736 0.3047562 0.036242813 0.6081043 0.35133973 -0.2079712 0.20816217 -0.17738236 -0.076272205 0.03268153 0.4923923 -0.07996536 0.65484476 0.13668367 -0.30016232 0.31282696 -0.25517836 -0.98979837 -0.07024866 -0.12778541 -0.482086 0.10963159 -0.06463446 -0.4608477 -0.2126461 0.15435529 0.11515872 -0.11441147 -0.09712513 0.11397267 -0.107176304
2464 -0.29090062 -0.02435512 -0.79326475 -0.70594156 -0.24112666 -1.2448833 -0.11387072 0.70975757 -0.3693971 -0.40596724 -0.33524376 -0.07913423 -0.44403058 0.31786993 -0.22777377 -0.013190435 0.17101744 0.18143344 -0.14081712 0.18053882 -0.290719 -0.14541598 -0.6058681 -0.3029398 -0.41808185 -0.19157661 -0.3691165 -0.6289899 -0.20658788 -0.12627175 0.5146641 0.23757775 0.3917613 -0.051616352 0.2614944 0.5879284 -0.23418926 0.3471085 -0.4276248 0.1749974 -0.19390626 0.3011602 0.9495321 -0.28437757 0.014183154 0.08640211 0.13196422 0.0044079632 0.14818886 0.93857634 0.38974994 -0.199892 -0.078083225 -0.0755268 0.079224974 0.45826817 -0.09698221 -0.7936178 0.3761782 0.8620239 0.5698481 -0.17373419 0.37262842 -0.004103234 0.36349127 0.20749116 -0.8116271 -0.41082692 -0.020979684 0.28230205 0.18932854 -0.41551626 0.7569522 -0.13394947 0.22386828 -0.08974901 -0.71000266 0.06412598 0.58185196 0.4182328 0.12100349 0.7015153 -0.3753593 0.16817442 0.0838647 -0.532024 -0.099499084 -0.34463122 0.68606406 -0.44152725 0.15987787 -1.1767826 0.2734562 -0.0065075452 -0.40790048 0.058627408 1.3750703 -0.52775735 -0.1601213 -0.68467796
2130 0.021010544 0.06908104 0.06431602 -0.779803 -0.41703483 -0.043002367 0.17384925 0.33010766 0.061122436 -0.09849962 0.21375419 -0.3407215 -0.15425186 0.22307985 -0.0581015 0.5855759 0.33088672 -0.555658 -0.2910509 -0.015014591 0.12404931 0.24157803 -0.08418945 0.16301453 -0.23264663 0.23313451 -0.62389815 -0.19423847 -0.44089594 0.0025382051 0.6019332 0.37807152 0.72225887 -0.14238006 -0.14977379 0.2501877 -0.03799498 0.22535509 -0.43208757 -0.13763203 -0.5799765 0.08253456 0.37293357 -0.47988966 -0.04157404 0.13104886 0.11021189 0.1445005 0.5649266 0.7892514 -0.30208647 0.089692235 -0.4863773 0.03276343 0.09020823 -0.45341656 0.28095087 -0.7199468 -0.2969219 0.40914974 0.45032552 -0.7959151 0.14961778 -0.18198006 -0.9021642 -0.30370727 0.49341965 0.32668668 -0.4033998 -0.050307725 0.6803393 0.10747659 0.30511454 0.83201677 0.59881645 0.14447337 -0.18745746 0.019656861 0.24936768 0.62618726 -0.2073198 0.18658717 -0.3059774 -0.25847584 -0.23871721 -0.46756607 0.4012789 0.09736078 -0.17435062 0.31236863 -0.06488048 0.6510929 0.31108928 -0.015153101 -0.3775091 0.027763223 0.35597554 -0.2472073 -0.062803976 -0.20363417
55 -0.37828922 -0.5642297 0.01829475 -0.7669075 -0.24612854 -0.5313866 -0.15492341 0.18084458 -0.37666383 -0.5550889 0.4260136 -0.22898209 0.19297019 -0.32125363 -0.2402979 0.30719504 -0.33087182 -0.20975736 -0.013353128 -0.80674547 -0.30047548 0.26887673 -0.048412014 -0.122806 -0.46180412 0.6067123 -0.34626397 0.18714088 -0.40951088 0.06792467 -0.026678188 0.014624958 0.20187439 -0.29619902 0.54781955 0.48470342 0.00841858 -0.28575096 -0.18275376 -0.17799237 0.2716287 -0.20512868 -0.06396333 -0.061553605 0.2549955 -0.034999743 -0.30736935 -0.38321376 -0.21318454 0.037179116 0.054889154 -0.43115115 -0.21760687 0.18990977 0.6240227 -0.13654932 -0.40023842 -0.112007625 -0.31424448 0.4712368 0.32073766 -0.39848465 0.034458797 0.07959143 -0.43964502 -0.07384671 -0.07816032 0.66699594 -0.69606644 0.16728953 0.10021748 0.22006193 0.29625928 0.20113581 0.07479391 -0.07458155 -0.297345 -0.20802955 0.39577186 -0.1945735 -0.2484833 -0.1914747 -0.5500494 -0.2488462 0.42661002 0.0019296259 0.07615526 0.809477 0.4282194 0.3064511 0.22456221 -0.26097634 0.5862726 0.46160194 -0.041389182 0.47853115 0.61261123 0.07730014 0.012656935 -0.37192956
2025 -0.36652613 0.11886751 -0.14019471 -0.2513542 0.24993117 0.0306707 0.078856185 0.320573 0.09246413 0.06030983 0.07165026 -0.35027748 -0.055048782 -0.15353592 -0.34230155 -0.25021797 -0.30425233 -0.7144482 -0.31140432 -0.376129 0.4769104 0.3208644 -0.38884476 -0.46103668 -0.6161661 0.5439192 -0.35383877 0.69300365 -0.407566 -0.19846237 0.42986506 0.5238495 -0.40781167 -0.3085502 0.56144184 0.6297846 0.47225192 -0.15914337 -0.03718638 0.030916614 -0.101862654 -0.19952065 0.5326953 0.17828164 0.28786314 -0.072639234 0.048585206 -0.07077106 0.3271572 0.0148568675 0.20223828 -0.59573936 0.17593488 -0.14385562 0.28204414 0.5476908 -0.2503157 -0.120645806 0.4591404 0.026417496 0.055927187 -0.013965954 -0.26353934 -0.05115174 -0.15961094 -0.05156601 0.0137317795 -0.19473234 -0.56036675 0.63139313 0.4152296 0.34412438 -0.2512793 0.092850775 0.034214903 0.24587739 0.03262603 0.1640067 0.2177097 -0.014651632 -0.41910365 0.449017 -0.53349465 -0.81415385 -0.21927784 0.006560684 -0.7305872 -0.057285774 -0.16065586 -0.287214 0.33613655 0.071765944 0.08763596 0.4608839 0.46024677 0.34633154 0.25359964 -0.04924807 -0.26330486 -0.4604049
1966 0.23450452 0.122081116 0.33450842 -1.3313186 -0.36077392 -0.8664819 0.20169112 0.15727347 -0.41784596 0.22617902 -0.23115559 -0.030332962 0.016240288 -0.03601724 0.019004803 0.023153733 0.09569372 -0.3983487 -0.3820954 -0.060918003 0.41806722 0.3825206 -0.19302367 0.2857096 -0.19218355 0.00050729135 -0.004675596 0.0011481589 -0.36886984 -0.13856345 0.79622066 0.31026116 0.6565718 -0.11638095 -0.019180495 0.32871473 -0.15440367 0.08491057 -0.2628676 0.25573358 -0.039966825 0.12283924 0.11981269 -0.15388048 0.8250398 0.008292882 0.40663865 -0.055054374 0.08947706 0.4936752 -0.064384535 -0.47474712 0.029815946 0.18079999 0.3427976 0.01004713 0.15411042 -0.7055777 0.38111264 0.3419736 1.0004271 -0.029067094 0.021141328 -0.27589136 -0.019926308 0.11239544 -0.15723352 -0.18843035 0.007249442 0.26442656 -0.027919902 0.023054231 0.7599853 -0.005042723 0.46725908 0.38791516 -0.77795535 -0.1564356 0.24591592 0.29620254 0.5826966 -0.4194842 -0.7099828 0.07373196 0.2373837 -0.23756751 0.7497413 0.05279992 0.20377755 0.15071003 0.3294576 0.25363204 0.7135371 0.30909738 -0.10504664 -0.33681303 0.73499024 -0.12682308 0.3572006 -0.6492815
577 -0.5583859 -0.028399233 -0.56256306 -0.7243035 -0.47472888 -0.67474324 -0.30526167 0.34381044 0.12198559 -0.38210383 0.35390598 0.9681048 -0.4171415 0.043413702 -0.36788207 0.36583185 -0.027827723 -0.68269914 -0.9684428 0.045348916 -0.47620156 -0.030100405 -0.04626543 -0.42192242 -0.6119803 0.07367172 -0.6737262 0.036640517 -0.22554487 0.16453291 -0.3503688 0.11247865 -0.46352056 -0.026215235 0.2791843 0.59798354 -0.2916463 0.14816834 -0.18175247 0.46024737 -0.58568865 0.3460343 0.30065662 -0.13626617 0.8706307 0.39833668 0.6953356 0.13643953 0.17863923 0.2879257 0.3637836 -0.05550057 -0.30067304 -0.2478456 0.375341 0.108838 0.12987097 -0.7415922 0.16064821 0.16950445 0.041497275 -0.54510903 -0.11640688 -0.02308575 -0.13849232 -0.120034866 0.4963851 0.11396653 0.30425355 0.0818983 0.58502936 0.67152846 0.4001035 0.94585574 0.24663419 0.109975465 -0.5562526 0.42781663 0.64710516 0.7483766 -0.8951305 0.48064506 0.013766687 0.20975009 -0.15568368 -0.5439218 0.26259732 0.09181612 -0.5226344 0.39269206 0.11350208 0.077154696 0.11028157 -0.08905375 -0.3818131 0.25809866 0.43226153 -0.44482598 -0.27218616 -0.11032604
565 0.5306862 0.43844843 0.32629102 -0.636584 -0.3477824 -0.7386827 -0.4732503 0.8142857 -0.06512628 -0.19157228 -0.3422798 0.07976109 -0.5424242 -0.47868457 -0.21221939 0.060312722 0.63633305 0.070526965 -0.20984727 -0.018912137 0.22871348 0.33526802 0.16032225 -0.1074701 -0.48053852 -0.24083664 -0.37652823 -0.22917715 0.5049602 0.30720973 -0.4943294 -0.16058874 0.70729667 -0.715167 0.42278942 0.4764362 -0.0021531498 -0.06530949 0.24322233 -0.082850106 0.109470256 0.119020365 0.19816378 0.15795715 0.18741241 0.524843 0.036910936 0.07955041 -0.18150692 0.49369738 0.041864563 0.4812162 -0.75038904 0.43576002 -0.051833462 0.18738063 0.115095355 -0.26030642 0.6592316 0.28168947 -0.04463821 0.6580772 -0.31254527 0.14927657 0.059145857 -0.10964197 -0.24633211 -0.02195331 -0.011745439 0.34974003 0.3599627 0.25929898 0.70572114 0.21022506 0.08480682 -0.48542133 -0.13519058 0.14829527 0.26309893 0.031499658 -0.31061545 0.7169139 -0.50112844 -0.17032278 0.09263939 -0.094704315 -0.6060231 0.28508398 0.38632527 0.06143593 0.32580304 -0.38654974 0.085094996 0.7447704 0.40996572 -0.05163393 0.01914011 -0.13835219 -0.5848408 0.07435325
657 0.37100527 0.55928415 0.23813091 -0.45414293 -0.43001056 -1.0906435 -0.15194537 0.9079242 -0.16743603 -0.43905437 -0.26212388 -0.21260165 -0.28450644 -0.4855844 -0.34578595 -0.0845035 0.17855257 -0.15494983 -0.41741264 -0.5193773 0.24800824 0.2511764 0.1923472 -0.8760889 -0.6598039 -0.31306294 -0.40523744 -0.079381384 0.043948002 -0.17812075 -0.48436156 0.21951838 0.83789784 -0.29214448 -0.038195018 0.18231471 0.47666174 -0.109456725 0.15441239 -0.07662041 0.0770964 0.1815599 0.20541044 0.05709651 0.06022988 0.8846437 -0.017972827 0.022390876 -0.09942082 0.35361633 -0.3917506 0.21039245 -0.8614052 0.31557375 -0.21281156 0.19506434 0.45319438 -0.38780954 0.44452375 0.070498526 -0.29111934 0.5374029 -0.6109091 0.42471194 0.2323288 -0.005081288 -0.27855465 0.22236918 0.08999496 0.4503329 -0.28348783 -0.373823 0.53813934 0.26898938 -0.06701865 0.0329152 -0.3200683 0.049724374 -0.023063313 0.17328964 0.2976755 0.7378844 -0.27915043 -0.20542474 0.065116726 0.10571688 0.02355613 0.34158757 -0.22891575 0.059572134 0.3448126 -0.48864788 0.060304917 0.3820251 0.1528839 0.24902198 0.05975363 -0.026095357 -0.2542018 0.28550324
279 -0.12429929 0.111163855 -0.12943752 -0.6180564 0.10993011 -0.055037465 -0.18997435 0.4411104 0.17558672 -0.62361765 -0.0944426 0.55471885 -0.23800999 0.042630207 -0.45188075 0.1059624 0.33895648 -0.78611845 0.1821986 -0.25547096 -0.33726776 0.6433149 -0.27776447 -0.13452436 0.41936395 0.26861992 -0.23509486 0.1829337 -0.4406924 -0.35132974 0.16662666 -0.044762645 0.14187954 -0.093098216 0.29506046 0.72228885 0.3784759 -0.0695309 -0.32241568 -0.28132173 -0.010425158 0.67243314 0.3168558 0.22667755 0.7774911 0.49346223 -0.033210874 -0.37112665 -0.10080517 0.44305724 0.4235539 -0.03180093 -0.36853796 0.31421167 0.29629764 0.23951687 -0.22962256 -0.44218606 -0.13284378 -0.1222646 0.1629518 0.18816313 -0.2678198 0.46773997 -0.23496798 -0.036471657 -0.26988512 -0.41017187 -0.25600296 0.17428474 -0.055242464 -0.4533935 -0.30113396 -0.33438572 -0.007729695 0.3458934 0.026536692 0.023608236 -0.15265796 0.4326348 -0.15208678 0.16580054 -0.4148899 -0.7973211 0.7840227 -0.108981505 -0.39839143 0.53808564 -0.22830749 0.5266375 0.39676788 -0.571886 -0.03190374 0.22985251 0.441611 0.7508974 0.40972883 0.5105893 0.19950466 -0.47144967
734 -0.32769418 0.4349857 0.058894187 -0.14396022 -0.28514972 -0.4513619 0.083991475 0.43080014 -0.20854345 -0.39820847 0.23641984 -0.1347264 0.24598381 -0.27862975 -0.49946123 -0.16062947 -0.38121012 -0.69129694 -0.14035793 -0.035899434 0.22998494 -0.035606433 -0.43813232 -0.6500404 -0.33835483 0.33628762 -0.04845746 -0.46952084 -0.14115329 -0.031428892 0.58007574 -0.25218132 0.34436852 -0.16043521 0.8980724 0.119810715 0.2255712 0.023767548 -0.10319047 -0.02520673 -0.4619211 0.3660435 0.4403129 -0.30296007 0.12587686 0.36770675 0.05926744 -0.123282075 -0.10225192 -0.038970925 0.39269522 -0.7834295 -1.0817536 0.5056285 0.61516166 -0.45421785 -0.06388587 -0.109570734 0.061790142 0.3194075 -0.113323346 0.4028595 -0.56548285 -0.04649394 -0.68751585 -0.37950373 0.27906558 0.43258312 -0.05179695 -0.0013607175 -0.4000291 -0.69016314 0.105564736 0.3765087 0.30301216 0.06938998 -0.43043327 -0.07778373 -0.18112461 0.35923365 -0.38989624 0.28100607 -0.7364614 0.08048049 0.40190068 0.06782317 -0.05407253 -0.3520164 -0.60774773 -0.29142436 0.33769345 -0.08928328 0.050378222 0.32320055 0.19884384 -0.13859092 1.1109457 0.007156075 -0.05575524 -0.5290784
218 -0.1420601 0.6435485 -0.12630789 -0.95499706 -0.06007137 -0.020743007 -0.30995268 0.24364623 -0.11681433 -0.0011301885 0.06461463 0.095497504 -0.45456108 -0.10051778 0.1783944 -0.0058393395 0.51457345 -0.21211718 -0.48789823 -0.59038556 0.6121284 -0.07345463 0.27524215 0.17784953 -0.53667736 0.72346884 -0.030318787 0.26212996 -0.31866905 -0.27366668 0.27402207 0.15162586 -0.09525673 -0.15219875 0.046447594 0.0890553 -0.15351829 0.40307814 0.014905413 0.27930102 -0.32045874 0.41680446 0.58299786 0.36162814 0.11115405 0.016287385 0.38295427 -0.42993006 0.41940445 0.40235257 -0.06508878 0.0013554613 -0.4559452 0.07210976 0.50582427 -0.13390312 0.1603524 -0.6867031 0.36552906 0.36055642 0.1742742 -0.6330285 0.22901237 -0.07918568 -0.2949405 -0.5734861 -0.02919159 0.24601687 0.4016058 -0.28372025 -0.13526094 0.1343959 -0.2828042 0.49462536 -0.26084054 0.4052323 -0.12517574 0.08248574 0.6983843 0.18205929 -0.030549813 0.4136834 -0.060490783 0.1481144 -0.011452014 -0.3347245 -0.36578956 0.59850013 -0.24798065 0.106791735 -0.11527077 -0.09062524 0.34564355 0.15280588 0.17078258 0.55033 -0.1839281 -0.04584255 0.38656917 -0.47051153
441 -0.4561401 0.4772533 -0.24625073 -0.69174945 -0.54591244 -1.0231637 0.31337953 0.30237037 0.54245603 -0.18045783 0.27477178 -0.47941002 0.24629317 -0.15674801 -0.04002692 -0.26704928 -0.2618995 -0.3987896 0.41722938 -0.63514394 -0.18250047 0.40056273 -0.004018613 -0.36047596 -0.17795731 0.36697498 -0.4400759 0.054377504 -0.22294438 -0.25651315 -0.08273987 0.12683564 -0.2776713 -0.33672893 0.29683298 0.3510491 0.053968858 -0.41581145 0.42184183 -0.008816693 0.082608074 -0.6154957 0.30318567 0.07486371 0.30241796 -0.49975193 0.347648 -0.42910716 0.038672604 -0.20613022 0.46301442 -0.46797308 -0.51689607 -0.015451602 -0.0067891683 0.41831082 -0.04843746 0.117431864 -0.22582684 0.23702991 -0.069360666 0.38029715 -0.33515114 -0.020743892 0.6057478 -0.13629553 0.14629869 -0.5154412 -0.40710592 0.17453662 0.54675484 -0.13828968 0.45246074 0.67197293 -0.08700045 0.599644 -0.22258916 -0.23846668 0.5770092 0.2057919 0.0022340105 0.19609216 -0.38130957 -0.7186246 -0.1323467 -0.056374937 -0.44158438 -0.10561131 0.3911787 -0.38487697 -0.14770924 -0.42367217 -0.29761288 0.22860806 0.6772477 0.013184662 0.4605727 0.1610861 -0.33658913 -0.101648666
519 -0.6454197 0.4023483 0.25057787 -0.78410786 -0.6071448 -0.3276499 -0.18603855 0.3989862 -0.015913516 -0.62733 -0.23871826 0.08572576 -0.5251457 0.04767099 -0.17213245 -0.019721365 0.06727076 -0.2253459 -0.17144431 -0.2627917 0.07864456 0.22748472 -0.08039661 -0.21520212 -0.52559465 0.45290253 -0.45652288 -0.0078699095 -0.2767746 0.050449196 0.21883579 -0.29515404 -0.2604579 0.081164986 0.009472972 0.36956114 0.19902927 0.19531849 0.5386815 0.06925064 -0.060275283 0.6982962 0.046654787 -0.050424594 0.012577678 -0.014430841 0.15110281 -0.18336047 0.12130278 0.4280537 0.62379366 -0.0071219867 0.09542715 0.33543766 -0.17611517 -0.04001201 -0.22060117 -0.17402355 0.27763528 -0.11030891 -0.45988002 0.11674364 -0.073378816 0.04124822 -0.2851027 -0.13915765 0.21877746 -0.02569941 -0.051104736 -0.12139721 0.67661554 0.72539383 -0.074850395 0.016147291 -0.34462878 0.15165971 0.116367094 0.07304464 -0.3487757 0.6099437 0.14020367 0.43593663 0.112927295 -0.20757432 -0.19839056 -0.10869802 -0.19861577 0.13265225 0.10689515 0.025855357 -0.112473615 -0.05385702 0.11666542 0.041037258 0.21054578 0.18164405 0.18306386 -0.14091042 0.023710378 -0.35996786
645 0.13102287 -0.08709809 -0.21686505 -0.21215326 -0.35378233 -0.49770263 0.47795525 0.119554356 0.28405905 -0.5232608 0.7442272 0.09135088 0.13170344 0.2798808 -0.23020563 -0.22589907 0.34472528 -0.043728195 -0.17289057 -0.594142 -0.63732463 -0.1028118 -0.08084572 -0.3096704 -0.40177232 -0.10470544 0.15975237 -0.24285182 0.15772022 0.044749215 -0.160118 -0.071355104 -0.19462456 -0.49343532 0.10250402 0.5775999 0.23237592 -0.5125548 -0.23557438 0.06159568 -0.07522051 -0.008860256 0.13247418 0.22548398 0.16360189 0.09367204 -0.19909798 -0.07660522 -0.023571087 0.61686856 -0.275401 0.14111315 -0.88895833 0.3282305 0.5478199 0.14348097 -0.0204832 -0.33647233 -0.07912656 0.593177 0.1363863 0.72866374 -0.08043084 0.31190866 0.20052473 -0.27607846 -0.10873426 -0.35026675 0.07047269 0.41431615 0.45309687 -0.043279395 0.2593168 -0.40165967 0.33636543 0.6751379 -0.22931935 -0.33928284 0.45540643 0.27270046 0.38591185 -0.30833992 -0.25932673 -0.41175726 -0.111286834 0.1004109 -0.10655466 0.6473189 -0.0026016291 0.14479607 0.65754104 -0.15829824 -0.06616397 0.28328758 0.28762 0.09049029 0.2467948 -0.28501892 -0.8325601 0.100106366
1655 -0.36143172 -0.20267195 0.48532173 -0.3339565 0.42176077 -0.13115658 0.48923773 0.4102158 0.24975537 -0.31184098 -0.07501538 0.3484816 -0.09143301 0.05063114 -0.017738786 -0.059175238 -0.023984568 -0.6434444 -0.36034945 -0.19291121 -0.055660356 0.79841846 0.089331776 -0.3389561 -0.29562694 0.42366612 0.033126935 0.40083325 -0.18744925 0.05854273 0.50282776 0.53569984 0.15655193 -0.034314007 0.46971977 0.8293079 -0.2177837 -0.42933583 -0.016093308 0.11279614 -0.17774901 -0.30681434 0.49208695 0.19280793 0.45329508 0.17668149 -0.030366138 0.18535055 0.26268625 0.36837238 0.1778786 -0.363886 -0.34012908 0.354679 0.42784566 0.20854624 -0.060635004 0.0066022472 -0.058994755 -0.13457492 -0.067093305 -0.5283124 0.06279514 -0.021098869 -0.3316919 -0.27801356 0.051010795 -0.2762219 -0.10638969 0.43806276 0.1097309 -0.31253687 0.0813095 -0.20576636 -0.07764141 -0.07960816 0.110309295 -0.045225725 -0.042493373 0.21225116 -0.3569282 0.29459217 -0.7210282 -0.5494936 0.20366123 -0.07525161 0.1249891 0.340269 -0.8431027 0.16176066 0.113688976 0.21337979 0.37723777 0.39132828 0.022445194 -0.014102017 0.73008615 0.15910415 0.2656682 -0.5725008
1776 -0.21151237 0.6964873 0.35690388 -0.41533044 -0.56776184 -0.44988447 -0.4802446 0.436135 0.19692431 -0.49007502 -0.111545525 -0.34454772 -0.59107447 -0.0038806533 -0.5195822 -0.19642235 0.07786867 -0.09490798 0.103853755 -0.35573804 0.0013051867 0.25869444 0.20641385 -0.1578477 -0.83702075 0.12984627 0.057669993 0.16256844 0.1263488 -0.0025593685 0.14133944 -0.003837701 0.05413711 -0.117767766 -0.04288248 0.7441756 -0.0913613 -0.79976755 0.42892092 -0.21637218 0.0014441377 0.5814971 0.54812557 -0.1698081 0.18594214 -0.017256377 0.00333873 -0.15775983 -0.18676852 0.58838505 0.26337993 0.18716472 -0.21160911 0.44484115 -0.3367625 -0.026571702 0.24573047 -0.6101539 -0.10098517 -0.03250758 -0.19257806 -0.09923002 -0.18863566 -0.063604765 0.15671618 -0.29584444 0.570669 -0.13680163 -0.5790063 -0.42066145 -0.16804649 0.48254764 0.32894158 -0.48826325 -0.19942354 0.8046093 -0.10302872 -0.12891302 0.051437587 0.6061322 -0.14337583 0.2681118 -0.41425568 -0.36011747 0.09860253 -0.17272168 -0.54328096 0.1245922 -0.2877183 -0.027189389 0.12381007 -0.43732125 -0.21374013 -0.0646778 0.0064629707 0.01462197 -0.27701685 -0.051649775 0.019687414 0.033885185
73 0.34194922 0.5749661 -0.030966345 -0.43582317 -0.04230965 -0.6109499 -0.31529316 0.40527806 0.6232802 -0.31581876 -0.181968 -0.07896588 -0.3488666 -0.04072359 -0.31382388 -0.24044356 0.2124941 -0.17572401 -0.27982533 -0.27815297 0.119353235 0.052220557 -0.082431585 -0.102475576 -0.6540394 -0.25989628 -0.07127518 -0.29118153 0.24746203 0.39580405 -0.36655 -0.11824441 0.3252269 -0.18205617 0.32572937 0.22183147 0.012124366 -0.30822974 0.024884537 0.054032907 -0.33311233 0.4387079 0.31877252 -0.08742898 0.022969544 0.5126939 -0.04570271 0.07036054 -0.10210827 0.64036894 -0.12467635 0.25049955 -0.6499628 0.5260566 -0.01761174 0.30959737 0.31783396 -0.18720588 0.1861501 0.3958089 0.076018974 0.62551457 -0.7482098 -0.05169978 -0.14229524 -0.30204982 -0.07082579 -0.1997306 -0.25362384 -0.23511189 0.2649241 0.022168461 0.6117315 -0.72700524 -0.42704457 0.21173947 0.002232926 -0.061462674 0.013295664 0.04722909 -0.22804086 0.17121907 -1.0184883 -0.19809705 0.30697587 -0.34061718 -0.32094595 0.14669529 -0.0049253725 -0.20772997 0.39926124 -0.32065904 0.12176723 0.6807005 0.042264707 -0.44086024 -0.18741381 -0.467378 -0.28625312 0.3085233
487 0.015325586 0.27339467 0.12009314 -0.81676066 -0.39059764 -0.033280306 -0.15906744 0.37307724 -0.21136804 -0.29135877 0.4805198 -0.46877575 -0.54606384 0.04379227 -0.31700808 -0.38225487 0.18454127 -0.24515232 0.20829195 -0.18501125 0.21990311 0.4000438 0.17780654 -0.106052645 -1.0958273 0.55537456 -0.17300692 0.381017 0.24360281 -0.2084921 0.34597504 0.14078334 -0.13655177 -0.018305527 0.022658942 0.40516236 0.5530501 0.06807894 -0.1368167 -0.22722137 -0.097812444 0.13870084 0.24575578 0.08272649 0.0821374 0.0043993727 0.1822258 0.18209948 -0.22725028 0.86114 0.2754122 -0.46968958 0.25376096 0.28630695 -0.17980202 0.4424057 0.6034644 -0.46994 0.3445451 0.17073072 0.06306517 0.16652296 -0.065988794 -0.16914493 0.07358218 -0.16520841 0.43371275 -0.2008242 -0.17725809 0.31807953 0.32832736 0.38886023 0.24110198 0.29941314 -0.33157676 0.38001242 -0.1873488 0.106274515 -0.10301595 0.17786391 0.21198368 0.4448201 -0.06963617 -0.6134143 0.16067742 0.1813394 -0.8732303 0.20149957 0.059948638 -0.16397773 0.42187345 -0.1524647 -0.3827517 -0.24776436 0.0060080984 0.012118253 0.03251567 -0.38614056 -0.0065792575 -0.17423373
154 0.19100837 0.31915677 -0.0016580776 -0.37092793 -0.47292265 -0.5859428 -0.20503092 0.41154715 0.12096777 -0.51210785 -0.06587598 -0.08723875 0.3805126 -0.038921937 -0.38712022 -0.37230134 0.1903865 -0.49276102 -0.05715738 -0.52137774 -0.0047010295 0.5424473 -0.06571076 -0.2611298 -0.44468325 -0.18983708 -0.14016606 0.3530872 0.3029689 0.31432652 -0.53545576 0.64026946 0.113985576 -0.49671802 -0.06801073 0.4777733 0.31086168 -0.17431885 0.14320436 0.016734416 -0.245499 0.20218709 0.20101443 0.555302 0.1703228 0.21446675 0.091842666 -0.023750268 0.41769168 0.18322447 -0.61041147 0.1318137 -0.6337943 0.758949 0.30793214 -0.18747526 -0.04528328 -0.49946696 0.0147238495 0.80838305 0.018833272 0.3238545 -0.59719145 -0.19959152 0.12855469 -0.37907243 -0.47664776 -0.1351411 -0.04239105 0.24816903 -0.37671986 0.36933398 0.84513944 -0.16181152 -0.2523826 0.38813597 0.03772821 -0.18598002 0.02877459 0.25947183 0.33095345 0.6631485 -0.20124826 -0.047111608 -0.14308125 -0.55933017 -0.30667067 -0.20688565 0.05548464 0.018912502 -0.24065048 -0.70972216 -0.05945224 0.5060654 0.032661647 0.33722538 -0.018760793 -0.08682627 -0.24377233 0.34238625
454 -0.6997733 0.092873916 -0.22408354 -0.96885675 -0.0652168 -0.44234738 -0.051492307 0.381352 0.07761015 -0.41436946 0.4370997 -0.49251053 0.23078838 -0.43423623 -0.035123743 -0.5782661 0.02970047 -0.26684892 0.4089284 -0.73071945 -0.10039644 0.3247608 -0.099601075 -0.508651 0.13416125 0.45513973 -0.6431253 -0.22193119 -0.35003203 -0.2645969 -0.26228562 -0.06670534 -0.2150816 -0.29712945 0.32656753 0.5776129 0.016533691 -0.024891084 0.54139143 -0.27429122 0.1472384 -0.41208172 0.18866102 -0.210558 0.22502811 -0.06769558 -0.23568529 -0.480429 -0.04695773 0.098987 0.6821077 -0.7599865 -0.17501912 0.13081305 0.225923 0.26091695 -0.089068435 0.011373198 -0.22872135 -0.07855813 0.20937762 0.14174782 -0.049164914 0.038593885 0.36565667 -0.4237255 0.2872545 -0.04268533 -0.25720292 -0.07282861 0.28434113 -0.55108374 0.01584066 0.09350266 -0.04423861 0.7609814 -0.4176095 0.18377237 0.5221491 0.5148316 -0.17659515 0.15646504 -0.10783996 -0.48430142 0.027145982 -0.21827963 -0.48768649 0.21072252 0.25464493 -0.09823563 0.5961874 -0.24672483 -0.022852056 -0.09193252 0.6084426 -0.06387985 0.59781426 0.09515576 -0.33209568 -0.15326332
2450 0.3925715 0.3339913 0.10484208 -0.6979239 -0.5384449 -0.605982 -0.32682818 0.544427 0.01676562 -0.657251 -0.06171651 -0.5756145 -0.21269901 -0.12271219 -0.48162016 -0.18578757 0.013187507 -0.13714987 -0.15139206 -0.4848922 -0.24107754 0.79681945 0.053945515 0.06373573 -0.3517568 -0.13233143 -0.046730783 0.043068327 -0.19909096 -0.19139442 -0.44615844 -0.12593023 -0.033286672 -0.6074422 -0.18242566 0.63484776 0.07409475 -0.773017 0.12655124 0.29359156 0.15200123 -0.21587428 0.12579508 -0.20512788 0.01252688 -0.23194636 0.10666286 -0.30876076 -0.027351486 -0.16318455 0.04222739 0.17795126 -0.6210741 0.5024331 0.15523641 0.08297881 -0.23988701 -0.6455809 0.06481553 0.7671924 -0.05620122 -0.2972542 -0.047708903 -0.19815628 0.07740689 -0.48640105 -0.036075864 -0.070456974 -0.5364049 -0.017714784 -0.22991066 -0.16267364 0.4041864 -0.38637802 0.08993794 0.3294933 -0.01709636 -0.31732267 0.30584592 0.10114467 -0.9072041 0.4479907 -0.39494988 -0.32673416 0.076059975 0.37080607 -0.19034384 0.3744241 -0.121228606 -0.25863937 0.3402099 -0.7417257 -0.15731521 -0.02854686 0.13301608 0.06689971 -0.14097886 -0.26253805 -0.24015906 0.0038457979
94 0.06314473 0.4424725 0.028441131 -1.2389143 0.0060753743 -0.4384988 0.17643732 0.19112757 -0.19989388 0.08184451 -0.18381801 -0.25435767 -0.12040182 -0.36114013 0.19646901 -0.15764914 -0.10535438 -0.7226387 -0.36270708 0.062331956 0.3269871 0.6307758 -0.1996427 0.075604066 -0.007774403 0.5420689 0.1417852 0.14208731 -0.7774889 -0.3964897 0.9307958 0.10802677 0.47019672 0.1334699 0.11101761 0.64306027 -0.13746844 -0.0066626007 -0.15760662 0.26383942 0.20544572 0.23313281 0.029232748 0.02119132 0.59621084 -0.15449367 0.12718333 -0.14304937 0.25390765 0.9539159 -0.26258233 -0.2988364 -0.09312218 0.26593113 0.5182 0.23385762 -0.17689005 -0.24079041 0.35659927 0.1586418 0.6203003 0.04618873 -0.023159038 -0.023150418 0.2176824 0.04060404 0.54158086 0.33381757 0.5865759 0.0853584 -0.25641134 -0.07619923 0.07899743 -0.0020274175 0.32338294 0.3832087 -0.33534515 -0.090857446 0.67409194 0.3452884 0.35380083 -0.44382575 -0.32011214 -0.29536465 0.45648128 -0.11161167 0.5063135 0.07687593 -0.3822516 -0.175179 0.3534738 0.14391358 0.31046978 0.1453449 -0.239264 -0.29970714 0.974889 -0.030707601 0.60030156 -0.24485268
1050 0.4624033 0.143294 0.29394698 -1.2665036 -0.18724315 -1.1949388 0.11863991 0.3777431 -0.5160056 0.5790417 0.07053129 -0.42002538 0.48503476 -0.008957365 -0.62885535 -0.12989657 -0.07054814 -1.0178882 -0.43934733 0.20968468 0.32621163 0.2390568 -0.40828955 -0.16231099 -0.2817534 -0.25047493 -0.5099791 -0.6657673 -0.39529428 -0.38793564 0.5996824 0.16309087 0.7446778 -0.38193077 -0.24219543 0.65946615 0.08003731 0.306055 -0.4618674 0.06257327 -0.12737261 0.19068806 0.29664585 -0.22337976 0.93524605 -0.052020166 0.59858143 0.29211116 0.32487813 0.7728957 -0.33324656 -0.39609945 -0.12939626 -0.26827306 0.6759001 -0.34349793 0.687246 -0.8775442 0.20877567 0.5870623 0.93756473 -0.4059891 -0.43318668 -0.1908785 0.10122748 -0.16936746 0.25539073 -0.64554304 0.15740503 -0.073319204 -0.0670994 -0.3284441 0.60498816 0.6730161 -0.191926 0.26119497 -0.6434104 -0.20730464 0.06033784 0.19679657 0.32154948 0.1430027 -0.6502173 -0.068605624 -0.027636856 -0.6203892 0.68944937 -0.08391953 0.46524775 0.28048837 0.092481695 -0.26158905 0.6658084 0.16214675 0.3405501 -0.5391766 0.28870168 -0.18722476 0.18573274 -0.36419737
