2708 100
35 0.028626801 0.16826011 -0.19582103 -0.12313264 0.15764646 -0.23706202 0.44780138 0.4626332 0.12779956 -0.04074446 -0.1827707 0.22418752 0.17293867 0.13367225 0.13275762 -0.17171566 -0.25035378 0.15186314 0.10111935 0.20927195 0.23904198 0.055836953 0.15845981 -0.41395357 -0.058604363 -0.33083406 -0.28949475 -0.0034546142 -0.6855064 0.52098435 0.017888565 0.12829567 -0.23634753 -0.40782267 0.056961447 -0.42995155 -0.07038064 -0.22419442 0.2232586 -0.03536424 -0.4059038 0.3231555 0.29624587 0.1051061 -0.019037032 0.68992496 -0.22673424 0.64154154 0.40686083 0.05518821 -0.040174212 0.07598513 0.39047405 0.3819039 0.07121374 -0.23222694 -0.09754182 -0.08484352 0.0456381 0.16133665 0.2593617 0.29873595 -0.11875296 -0.42154402 -0.03543213 0.41938317 0.3083109 -0.0977933 -0.07715929 -0.121199764 0.42234758 0.3103868 0.44891912 -0.9008223 0.18886659 -0.33705232 -0.018527122 -0.095394954 -0.3475478 -0.06095982 0.27773175 0.4886176 -0.23273103 0.53274953 0.18870036 -0.24774653 -0.007264092 -0.5484527 -0.36666593 0.07264339 0.46183336 -0.52871764 0.25397268 -0.050978262 -0.06421431 0.4450059 -0.036000952 -0.11098453 0.4686743 0.30960438
6213 -0.28777087 0.5249495 0.06484385 -0.1990336 1.023333 -0.033312257 0.10962229 0.51946115 0.17310031 -0.29474095 0.054371215 -0.15140553 0.021792749 -0.039500978 0.42770788 -0.037837345 -0.05192317 -0.19865347 0.24768466 0.010068617 0.11418681 0.008141689 -0.14034496 -0.14332631 -0.14242171 -0.03073853 0.020701615 -0.273215 -0.29339072 0.24335372 0.3712021 0.14936556 -0.3330187 -0.18340465 -0.044022758 0.21174733 0.37380406 -0.5242899 0.2643272 0.3234686 0.33919013 -0.27573273 -0.053802278 0.15520632 -0.23075557 0.3862693 0.22178379 -0.045255702 0.0034559146 0.59632725 0.23360431 -0.18239489 -0.33921316 0.13103276 -0.89761084 -0.037092566 -0.10948734 -0.18626437 -0.39204445 -0.18614672 0.05626637 -0.09281332 0.112384066 -0.091482356 -0.26409388 0.37388372 0.33106786 -0.17235163 -0.1142358 0.15848683 -0.20897588 0.31990385 0.107884906 -0.48437914 0.46305537 -0.5474092 -0.5763601 0.2648007 -0.058619946 0.035349958 0.087958746 0.7655851 -0.029074045 0.06333109 0.0010979207 0.27959442 0.20172475 -0.044844743 -0.3257523 -0.15635167 0.27267486 0.40912873 0.38413516 0.28028855 0.23803943 0.41310263 0.6510759 -0.28731662 -0.347432 0.2364163
1365 -0.06864052 0.14221023 -0.08788371 0.16141482 0.24476254 0.25992745 -0.4935533 0.4170632 0.2789495 -0.2028914 -0.32851106 0.114701234 -0.102923565 -0.25337812 0.41116384 -0.042170096 -0.5489769 -0.17423742 0.14956121 0.5334797 0.16849427 0.07579143 -0.123759754 -0.30971348 0.58402383 -0.4429519 0.25535667 0.3098894 -0.21972197 0.3206899 -0.18049766 0.065022156 0.11640188 -0.0221996 0.19880052 -0.3159759 -0.06089991 0.23973073 -0.034699332 0.85817164 0.2725752 0.16518623 0.28932709 0.034750372 0.07887923 0.21591254 0.30485067 -0.4523401 0.15034989 0.08216622 0.17629632 -0.54174703 -0.38566518 -0.06258263 -0.60475296 -0.47954407 0.13450591 0.061993375 -0.18147519 -0.17175536 0.25137433 0.3143222 0.08352658 -0.087907106 -0.56571144 0.38649777 0.61678267 0.2899376 0.085254386 0.41418007 -0.13162905 0.29248792 0.13164236 -0.47997653 0.022850847 -0.25267878 0.14404894 0.21971999 -0.22930479 -0.38910797 0.23976743 0.26821697 -0.41084316 0.03835473 0.49340525 0.052384518 0.030269174 -0.13622732 0.12090347 0.3281379 -0.037876893 0.29377687 0.07031819 -0.3829684 0.5121534 0.44377708 0.5693452 0.22684221 0.24737479 0.04745127
3229 -0.21689218 0.38922784 -0.2769305 0.21152687 0.2073755 -0.074831 -0.45065185 0.323123 -0.037203487 -0.48753896 -0.038398243 0.2679372 0.014876279 -0.40841714 0.18757272 -0.36473405 -0.16233414 -0.014033996 0.0024959983 0.21804434 0.12173691 -0.17516583 0.5470381 0.53785604 0.36225182 -0.6090472 -0.27573207 0.4556407 -0.5950954 -0.009477598 -0.08176426 0.18982743 0.3170876 0.1312716 0.17288022 0.06639936 0.39505216 -0.3086801 -0.30873674 0.4380698 0.6436663 0.36016443 0.122006714 0.05695575 0.37765443 0.07257717 -0.30846524 0.05134942 0.31132716 0.0042139897 0.43227422 -0.18740158 -0.11543427 -0.10901621 -0.51840496 -0.090264924 0.23848067 -0.1736119 0.23808615 0.08132992 0.70081526 0.46889445 0.07318117 -0.044793285 -0.60936296 0.3460105 0.24333465 0.274446 -0.06699732 0.12515938 0.06572702 0.070228636 0.023316676 -0.4450875 -0.104418874 -0.31596255 -0.26276547 0.26280457 -0.037181478 -0.1536941 0.031627554 0.2023182 0.067928694 0.7334296 0.24616687 0.09838226 0.51170385 0.06849868 -0.4060127 -0.37171915 0.29465792 0.05792262 -0.19359432 -0.12005561 0.46788406 0.05465428 0.015225163 -0.031900153 0.19727747 0.085146494
910 -0.36966023 0.45026916 -0.44174126 -0.15572461 0.09802825 0.29889584 -0.120144166 0.3632466 0.08657507 0.11870435 -0.27263135 0.8278981 -0.18735196 0.22199915 -0.038394243 -0.20910838 -0.6986779 -0.06741729 0.13558646 -0.073949985 -0.09371281 -0.483681 -0.16254272 0.38879427 0.45291534 -0.52258474 -0.072929196 0.0710094 -0.18125692 0.17886338 -0.050567046 0.11898173 0.18185942 -0.20637341 0.518646 -0.22367391 -0.26773366 0.037010517 0.2570127 0.43016925 0.1369582 -0.4002719 -0.32201988 0.06398421 0.18080682 -0.2386693 0.031154867 -0.15471406 -0.12962605 -0.16666062 0.10545684 -0.053167854 0.056470152 0.05063058 -0.18786547 -0.621539 -0.38565347 -0.20993905 -0.018387042 -0.6024396 0.34079155 0.29008877 0.3367675 -0.084116414 -0.11421706 0.19781026 0.62637645 -0.10470939 -0.3854314 0.55683464 -0.30521518 0.17794868 0.03248067 -0.36027437 0.34737954 0.1634176 -0.52142155 0.3688848 0.10295261 -0.19731326 0.29129034 0.2458028 0.01070945 0.23616108 0.22811899 0.2581876 0.48175046 -0.12907837 -0.63872623 -0.12494132 -0.021036595 -0.14045691 0.27768114 -0.7209716 0.50264424 -0.020077517 0.5626229 -0.260338 -0.021043878 0.43393737
4330 -0.29596853 0.34499997 -0.20371595 0.112458065 0.004747916 0.34812632 -0.21513173 0.25972882 -0.29050842 -0.28235346 -0.47762957 0.08432275 -0.23948954 -0.82562643 0.5363994 -0.37015393 -0.2891142 -0.27583057 0.14485483 -0.11755992 0.41561925 0.018132092 0.27883413 0.3031598 -0.0261234 -0.6194887 0.38302892 -0.14432026 -0.1907757 0.5412466 0.39440125 0.06480635 -0.5899307 -0.39065245 0.2139515 0.22930859 0.2700776 0.39947808 0.052239988 0.33389884 0.5615914 -0.6750922 -0.19905737 0.0132629 -0.29689515 -0.00033965136 0.05241145 0.25369972 0.099404365 -0.22291575 0.18818773 -0.38486433 0.18670794 -0.025063293 -0.58395183 -0.70408756 0.13193002 -0.5773353 -0.2829665 -0.05966865 0.54736376 0.003289295 -0.097663246 -0.030693531 0.22736856 0.52154106 0.21958296 -0.02347816 -0.38800147 0.13276 -0.1998868 0.3200795 0.50071865 -0.34873125 0.19333272 0.24138482 -0.68554366 0.38299486 -0.05340066 -0.107534826 0.22128704 -0.22847527 0.25905812 -0.16867422 0.0037469082 -0.26516256 -0.050955363 -0.002691887 -0.12397835 0.31213742 0.40618005 0.19413573 0.24138945 -0.17605984 0.40095198 0.075138785 0.046813633 -0.459465 0.24863926 -0.29556683
114 0.06027773 0.20902517 -0.22442332 -0.046323787 0.63971025 -0.019677283 0.44199887 0.46319732 0.29581308 -0.15865503 -0.0707097 0.13855857 -0.03523039 0.21700281 0.278324 -0.4480683 0.35911578 0.14905383 0.36767322 0.33565447 0.29081854 -0.08761413 0.38548946 -0.034014862 -0.2707085 -0.17753686 0.09037751 -0.39713195 -0.033492688 -0.031080348 -0.0911172 0.44814503 -0.19002452 -0.016686184 -0.20752588 0.6843335 -0.11977993 -0.651359 -0.023103977 0.3495534 0.20359778 0.017745346 0.5582809 0.1803125 -0.38181636 0.15034232 0.15374885 0.10288831 0.0010882701 0.26897642 0.30351648 -0.54504776 -0.46939483 0.13819914 -1.1209849 -0.23206438 -0.09846553 -0.0917233 -0.52017504 -0.24526663 -0.10131983 0.35565758 0.3145842 -0.030237198 -0.29794267 0.5861442 0.3156601 -0.25711542 -0.39870605 0.047461055 -0.30857792 0.46055287 0.3725752 -0.078390315 0.41499746 -0.447755 -0.062295604 0.17179625 -0.13492204 -0.29830572 0.28484976 0.48517957 -0.10824317 0.3548024 -0.24852905 -0.07051355 0.37501898 0.049048647 -0.15581396 -0.29809758 0.30578372 0.28480792 0.40398887 0.12123167 0.17784403 0.25534078 1.005914 -0.35641295 -0.41126746 0.43489262
3231 -0.048240453 0.36628285 0.27132535 0.28197482 0.40417436 0.57618135 0.04697515 -0.19587915 -0.25935632 0.2377683 -0.64147526 0.41810665 0.1459969 -0.50853175 0.083444335 -0.026899304 -0.5334626 0.069058575 0.44931674 -0.4213461 0.021005051 0.0872546 0.103795186 -0.2294643 0.2814545 -0.30722624 -0.5259296 -0.060887232 -0.62185997 0.4280897 -0.15851063 0.2749494 -0.041215606 0.03389833 -0.01239643 -0.060177296 -0.13022192 -0.7500241 -0.43179092 -0.25191712 0.08528293 -0.23810326 -0.27485675 0.38471723 -0.3518048 0.18011393 -0.46975827 0.0006338717 0.009055579 0.08711647 -0.029643476 -0.12676081 0.591188 -0.33841753 -0.20858432 -0.3580894 -0.5975684 0.14032082 0.037678096 0.23975259 0.3210348 0.13131914 -0.6370397 -0.33189952 0.062222805 0.6806546 -0.36797267 0.33684605 -0.24206342 0.13206135 -0.6131763 0.5686611 0.17539115 -0.21231669 0.19993019 -0.3287936 0.20405613 0.0145599935 0.2403316 -0.4299031 0.29546255 0.45165744 -0.10656939 0.58891815 -0.2915756 -0.14484444 0.4732475 0.40521702 -0.08074388 0.12559779 0.49321797 -0.28089246 0.027856518 -0.33046576 0.52185625 0.018397989 0.25029555 0.062262207 0.064970665 -0.040294427
1272 -0.5417215 0.5026049 -0.09061483 0.336335 0.65571964 0.06700046 -0.20116417 -0.0031386202 0.039487083 -0.042385217 -0.42143854 -0.10457586 0.22469804 -0.23120336 0.45157796 0.36325845 -0.7359718 -0.17504439 0.16071406 0.08363614 -0.20054789 0.49054033 0.14473285 -0.20791216 0.32343546 -0.1317691 0.059860025 -0.74803853 -0.14816044 0.21661879 0.11314118 -0.0959399 0.26818487 0.46813485 0.29580775 0.46595743 0.03203726 -0.5779443 -0.34461045 -0.35248494 -0.056804843 0.25582778 0.14691852 -0.30510393 -0.23115036 -0.1381846 0.38646293 0.042880815 0.09165518 0.20429488 0.30734208 -0.16132392 -0.10174865 -0.76526505 0.05001067 -0.5221026 -0.5616944 0.27336192 -0.24291101 -0.0069516706 -0.016673358 0.027237186 -0.03196623 -0.07822558 -0.016836746 0.21754538 0.05049242 -0.19542779 -0.06485223 0.13927507 -0.28978217 0.435386 0.040420935 -0.016771132 -0.02297963 -0.37964612 0.03326245 -0.079727605 -0.43843138 -0.031403914 -0.14506632 0.53750926 -0.1802905 0.5361321 0.06353599 -0.59521645 0.38514754 -0.86023563 -0.34321287 0.44192183 0.32607242 0.03177176 0.026247168 -0.24333063 0.3868778 0.57262 0.13783923 0.08803772 0.044199366 -0.027146442
19621 -0.19023693 -0.016854066 0.022451082 0.24361092 0.23087728 0.10010955 -0.27343625 0.5480282 -0.10849074 0.25692388 -0.07661809 0.09104174 -0.35148075 0.059948944 0.29228714 -0.11587499 -0.9267414 -0.2046497 0.32502285 -0.14366245 0.6090421 -0.08109669 -0.018862657 0.16697055 0.380877 -0.7903833 -0.09873345 0.53492475 -0.07763622 0.3018292 -0.013797285 -0.0019773743 -0.0050719 0.281656 0.12297416 -0.1542476 0.13140768 -0.21362507 0.23092578 0.5299357 0.6163154 0.28691837 0.08049642 -0.23398964 0.31886047 0.16271946 -0.008893569 0.49132136 -0.1638745 0.40427852 0.45189738 -0.06315313 -0.48972097 0.22769101 -0.37517425 -0.7874187 -0.1558765 -0.28232953 -0.13812463 0.042618267 0.30836287 0.39345056 0.3061757 -0.28070393 -0.29674694 0.38367864 0.8596166 -0.16281529 0.04302649 0.7062489 -0.064576685 0.04956809 0.25428933 -0.43645552 0.059680004 -0.31714892 0.24295358 0.12935524 0.07513163 -0.633033 0.5010408 -0.011582199 -0.12439494 0.32161513 0.1336753 0.06283217 0.26132497 -0.15298107 -0.12459787 0.50781786 -0.3139023 -0.078730896 0.1901376 0.30994934 0.5496531 0.48553324 -0.2591658 0.37104794 0.34255445 0.33305967
2440 0.031027945 -0.21488182 0.2568161 -0.3965247 0.32900548 0.4905084 -0.24462014 0.35796723 0.089881204 0.22186466 -0.22209258 0.18461163 0.18950938 -0.37697157 0.14473303 -0.16785975 -0.4085661 -0.46129534 -0.34823555 0.025145888 0.39730266 -0.05477644 0.22212094 -0.048469175 0.36628035 -0.0064159506 -0.20436695 -0.6799553 -0.21554168 0.5861853 -0.23115265 0.55991 0.627811 0.13761409 0.107185364 0.52707696 0.2390043 -0.5798326 -0.43412492 0.27185333 0.029033186 -0.15493065 -0.2256514 0.1759338 -0.38810372 0.5434154 0.42835656 0.12668632 -0.16576336 0.30064535 -0.04426299 -0.41160387 0.07485178 -0.3791569 -0.08127101 -0.6072344 -0.18875615 -0.20467329 0.12098165 0.19499634 0.0887852 -0.11385291 -0.4691558 0.18818259 0.39773205 0.10844404 -0.17968719 -0.35529777 0.48484603 0.39546457 -0.21378183 0.093342386 0.29257545 0.3834015 0.012106416 0.1516194 0.33333465 -0.5638213 -0.3974252 0.19801435 0.3861374 0.87314224 0.014678794 0.523319 -0.29427966 -0.5272421 0.57061094 -0.1721197 -0.33092043 0.6412088 0.97673744 0.4190888 0.1891099 0.13782126 0.1716946 0.44192672 0.5655195 0.0688345 -0.0836633 -0.090305366
4584 -0.2382281 0.3172189 0.08177114 -0.010708624 0.6796383 -0.15002368 -0.094893456 0.6004929 0.27454713 -0.13659517 -0.10771783 0.024844117 0.09870204 0.119411394 0.5545892 -0.46797282 0.023108846 -0.5567068 0.24740742 -0.16323669 0.046981122 -0.1967091 0.04226843 -0.33615303 0.20599307 -0.7355322 -0.42909053 -0.08339249 0.08563175 0.2660876 0.12638664 -0.15987131 0.21360591 0.0076561747 -0.0023680483 -0.0904824 0.1743521 -0.38960835 0.04299475 -0.1099679 -0.07753693 0.2697286 0.30866048 0.48545906 -0.09761922 0.21907887 0.15952452 -0.22674075 -0.15463014 0.7050151 0.37130383 -0.51135707 -0.101719 0.31134188 -0.87237555 -0.3229539 -0.3947094 0.16593477 -0.20682071 -0.009716523 0.046096247 -0.2066858 0.4027 -0.03892691 -0.35897267 0.40895292 0.7760687 0.35140958 -0.25267947 0.24049121 0.002298346 0.92435944 0.25958228 0.0032316092 0.15948568 -0.21742304 -0.35645297 0.45674172 -0.2861182 -0.15923248 -0.033821534 0.44323707 -0.05758704 0.030379703 0.15763883 -0.20669757 0.18677364 -0.19556236 -0.5490185 0.35935858 0.13122283 -0.15272342 0.15461208 -0.21468107 0.034455113 0.49983957 0.46794268 -0.38650542 0.18163075 -0.038024537
6214 -0.3629775 0.04080951 -0.08640692 -0.40189147 0.6103317 0.276968 0.34392968 0.8283967 0.20323795 -0.37383848 -0.03597454 -0.15420537 -0.08249618 0.28448457 0.50030845 0.031591702 -0.18546483 -0.59162784 0.036183137 0.15613797 0.0010107555 -0.10203122 -0.22232732 -0.15315557 0.059363317 0.037186243 0.3267964 0.09121092 -0.3193672 0.17657521 -0.027280094 0.00977407 -0.23565161 0.023007916 -0.5632132 0.084828496 -0.0032594518 -0.3230671 -0.35321075 0.10740088 -0.06339035 -0.14130838 0.56109405 0.2516501 -0.28898823 0.1599064 0.0038961463 -0.00019478545 -0.38320222 0.53892064 0.5569049 0.07202166 -0.5560432 -0.16676414 -0.8746701 -0.21001406 -0.23862208 0.12169323 0.1050573 -0.08307232 0.043732353 -0.021348817 0.44779664 -0.030951126 -0.49976352 0.4578825 0.45671362 0.1948788 -0.44426802 0.17146523 -0.0797271 0.45473891 0.18687566 0.060445394 0.25798362 -0.40945464 -0.06895114 0.17767009 -0.39157233 -0.047467522 0.06586445 0.49804127 0.047492173 0.23771815 0.38328376 -0.12060435 0.03191031 0.31651014 -0.42429963 0.32159197 0.5393231 0.2542786 0.6125139 0.19120969 0.20647533 0.123322725 0.33943528 -0.29494953 0.21585378 0.04312949
24966 -0.28832504 0.33008057 -0.41003042 -0.530621 0.37791282 0.06120501 -0.2882243 -0.18234737 -0.19370362 0.28007627 -0.5030662 0.6286639 -0.25734943 -0.1236951 0.50440866 -0.12727931 -0.37810212 0.279142 0.43550107 0.055270225 -0.11390544 -0.17535251 0.15751003 0.43044034 0.032641917 -0.336457 -0.056958627 -0.27881992 -0.3664521 0.9588277 0.23717432 0.007924466 0.2966588 -0.45878568 0.41111478 -0.18876575 0.0998977 -0.34691605 0.06566677 0.27988666 -0.32296166 0.06316133 0.4683496 -0.16499121 -0.10692717 -0.12972279 0.36807093 0.0029901594 0.34275725 0.12544446 0.23373121 0.25270918 -0.27868792 -0.38796216 -0.65123576 -0.6508716 -0.1253724 -0.05676349 0.12032328 0.49791208 1.0689715 0.44379866 0.14257896 0.105556265 -0.3066091 0.022965288 0.39017954 -0.04630882 -0.25699237 0.8703044 -0.26991436 -0.10806607 -0.24564059 -0.25703305 0.735774 0.02334097 -0.33782429 0.11968996 0.28578684 -0.38522986 -0.003993668 -0.48683944 0.577936 0.750894 0.101051666 -0.014077749 0.116275616 -0.24095014 -0.30114284 0.083816305 0.5805243 0.40915552 0.1058306 -0.22685602 0.04867738 -0.17291486 0.22920185 0.19685668 -0.21066573 0.13119182
887 -0.39229473 0.6253945 0.5002306 -0.4265464 0.90548694 -0.30053586 -0.06231223 0.5978687 0.23318921 -0.32734016 -0.09381808 -0.045174167 -0.24315989 0.08752338 0.05128736 0.1746553 -0.29808992 -0.20869282 0.10477227 0.23420633 0.33187485 0.44716835 -0.09927622 -0.056934766 -0.22689816 -0.22495437 -0.06809093 -0.12917463 -0.38546985 0.29892996 0.085217796 -0.21983427 0.044410903 -0.31347123 -0.1001944 -0.44163176 0.4334665 -0.46934617 0.18983163 0.2555062 0.32525566 -0.0286143 0.20229922 0.23791312 -0.03311263 0.35344434 0.027325591 0.41667643 0.058359746 0.31810924 0.21312237 -0.10357555 0.19500044 0.23528685 -0.16091792 -0.18566175 0.2732457 -0.025582228 0.0010333351 0.040188782 0.16792616 0.20156759 0.2986298 -0.30919617 0.043911014 0.6199093 0.3541675 -0.25537637 -0.46942466 0.009731549 0.24730912 -0.48500082 0.20492585 -0.10305637 0.09726769 -0.28425363 0.21255703 0.21886162 0.24198022 -0.26441866 0.19687934 0.930801 -0.11922808 -0.18234687 -0.10414318 0.2032866 0.019257896 -0.21947557 -0.58979785 -0.27815384 0.6875754 0.13850519 0.45735255 0.22478206 -0.15560172 0.45191464 0.6898225 -0.0725663 -0.16894788 -0.15513343
2665 -0.43166006 -0.13730827 -0.5299054 0.07282804 0.3516437 0.45065352 0.24670856 0.73444974 0.529763 0.09370954 -0.08614871 0.15669934 -0.51173735 -0.108141065 0.05376758 0.05129655 -0.7847399 -0.12305237 -0.12934583 0.41956446 0.2856379 -0.25242653 0.0503255 0.27611083 0.61903167 -0.6922295 0.17899951 0.46313044 -0.23890802 0.040733848 0.16558175 0.0073072338 0.5376344 -0.2747983 -0.05157849 0.30662474 -0.2451377 -0.63263524 -0.16857557 0.56700355 0.58196324 0.1589982 -0.34635004 -0.42447382 0.30341128 0.3817021 -0.018113416 -0.15080023 -0.16449569 0.24024108 -0.31380945 -0.14380997 0.05760968 0.45115188 -0.40546656 -0.421 0.2378578 0.09865039 -0.38199437 0.8227987 0.49563724 0.31849158 -0.50079554 -0.021817693 -0.59449905 -0.021160783 0.6464536 -0.013698222 -0.34439805 0.6858828 -0.39858773 -0.013299791 0.46456614 -0.44819114 -0.037513416 -0.08686658 -0.30382732 -0.11828756 -0.07612675 -1.1824417 0.2367894 -0.09879865 0.05882538 0.6510369 0.7064822 0.14571334 -0.13356815 -0.3657419 -0.15108256 0.5650633 -0.12019454 0.11267745 -0.19662192 -0.4969038 -0.02293374 0.9215133 0.3443081 0.38953245 0.20432699 0.32675365
8224 -0.06042593 -0.1970328 -0.48838788 0.018089565 0.8430882 0.40653813 -0.21702671 0.53891945 -0.31009167 0.16847228 -0.33614522 0.3409185 -0.18930641 -0.2129041 -0.12616447 0.04445926 -0.67805576 -0.05851665 -0.06103011 0.13036558 0.0045962413 0.2623404 -0.04797452 -0.021946972 0.24037977 0.07950706 0.3236495 -0.6328332 -0.38344038 0.31896874 -0.16977881 0.19074 0.12531056 0.008411497 0.10859231 0.77082187 0.58062804 -0.17995973 -0.4858477 -0.20766531 0.16258503 -0.0970297 0.5465267 0.43372864 0.16128734 0.030327499 -0.07553168 -0.10035054 0.23153163 -0.046270054 0.188667 -0.36103514 0.23591915 -0.41692683 0.528487 -0.21391417 -0.6394852 -0.41932267 -0.005473841 0.13553326 0.40036374 -0.04247876 -0.50019 -0.028647073 -0.24795295 0.31305155 -0.28244972 -0.26358867 0.23397139 0.56763464 -0.21143511 0.54194003 -0.089004606 -0.107699655 0.23206839 -0.59140867 0.14016609 0.074938565 -0.41829875 0.19434176 0.17618215 0.64652234 -0.022175277 0.52530164 -0.39211428 0.13050811 0.21188405 -0.118105315 -0.27551663 0.43334493 0.94734925 -0.25068277 0.7107408 -0.034022253 -0.07700612 0.027125156 0.06316073 -0.060309675 -0.45211348 -0.17460863
20193 -0.48099548 0.62102807 -0.5078591 -0.29016536 0.78346324 0.07343439 0.10397627 0.72356075 -0.010708966 0.45582154 -0.3514878 -0.31608668 0.15135676 -0.10091307 0.1548153 -0.40969026 -0.46088833 -0.41990063 0.27435973 -0.11684445 0.30509242 -0.20383137 -0.020800155 -0.0823592 0.0112234745 -0.17264992 -0.34808704 -0.60956967 -0.18105596 0.11037589 -0.45975614 0.5422312 -0.2033512 -0.120963074 0.25006202 0.7170573 -0.92785233 -0.39797735 0.15180299 0.16335616 0.7266076 -0.30302754 0.5927793 0.56700295 0.06788567 0.1917312 -0.031161303 -0.34332725 0.43340057 0.32562786 0.51005995 0.32824236 0.5170664 0.04266276 0.2336933 -0.33240965 -0.0020930527 0.27995455 0.28805363 0.11494428 0.112250745 -0.21864355 -0.6025745 -0.180271 0.17846341 -0.16452345 -0.084895246 0.043435402 0.6880191 -0.13494228 -0.2585282 -0.41075698 0.59795797 0.24842238 0.18135685 -0.02912918 0.16586924 0.20058209 -0.38588113 0.18262228 0.5543304 0.75279224 0.23221146 0.35088274 0.16422357 0.2535677 0.41261476 0.070034795 -0.03561915 -0.14803943 0.66506124 0.33624187 0.43802938 -0.35573673 0.510516 0.78389335 0.39221722 0.13763867 0.30572402 -0.10269454
82920 -0.086996816 0.042533103 -0.49807262 -0.099516004 0.30505836 -0.30584377 0.20382833 0.25624236 -0.121783756 0.44704902 0.12767126 0.21986428 0.07445076 -0.052081633 0.16435066 -0.17250621 -0.1987761 0.1575557 -0.033049226 0.6383297 0.6089991 0.13594453 -0.22763763 -0.48154944 -0.16697027 -0.39941734 -0.43387106 -0.09537373 -0.7086111 0.31651595 -0.26482946 -0.031272568 -0.006269999 -0.6679853 0.28709057 -0.08820525 -0.118504316 -0.08333354 0.19571356 -0.117877394 -0.14567009 -0.053865127 0.27640197 -0.013344913 -0.49483585 0.5808765 -0.46231568 0.5744886 0.50878745 0.107270785 -0.042151466 -0.05240787 0.38640597 0.34352303 -0.08740079 0.20594186 -0.45390955 -0.20876272 0.4385729 0.017812815 0.18456385 0.4781983 -0.05465728 0.04011562 0.29390332 0.8698374 0.27162898 -0.085568346 -0.049839754 -0.03590751 0.585941 0.056580193 0.6900592 -0.43989912 0.19751799 -0.22765785 0.14116393 -0.21353945 -0.27026325 -0.5492142 0.059585523 0.45857874 0.3020963 0.5226833 0.5432643 -0.19504228 0.28755623 -0.6539856 -0.12449326 0.22565715 0.632455 -0.8289954 0.23109712 -0.12607421 0.041426316 0.2908938 -0.016520368 -0.30301425 -0.1623777 -0.033144124
12182 -0.48798373 0.3514398 -0.6463824 -0.2434421 0.035723593 0.59151053 0.17460258 -0.042739574 -0.05427178 0.3823193 0.2495198 0.21896046 -0.41707316 0.15701248 -0.008246455 0.07453353 -0.54375905 -0.056840997 -0.19810124 0.052765712 0.051965836 0.47315004 -0.12259061 0.46136567 -0.81610465 -0.06983596 -0.16978273 -0.48221573 -0.08024461 0.2444971 -0.14176272 0.46292886 0.6159148 0.03884943 -0.2104461 0.94849724 0.45071054 -0.1599731 -0.85494804 0.66610503 -0.13442834 0.48495087 0.41145656 0.2870218 0.2555348 0.54811704 0.06767123 -0.2157076 0.011408843 0.00848496 0.17614964 0.06626794 0.16456135 -0.35308558 -0.32633698 -0.7537615 -0.111547194 -0.09129764 0.28498435 0.45382833 -0.020167848 -0.07163871 -0.07214759 -0.5535929 0.11521468 0.4778349 -0.1991624 0.030376617 -0.3435634 0.22169046 -0.04899706 -0.124711476 0.5990001 -0.2690675 -0.090605006 0.302888 -0.30513716 0.44682983 -0.553826 -0.4106757 0.31874827 0.23767398 0.74751484 0.26681167 0.117000796 -0.47773534 0.37956786 -0.21896592 0.06094507 0.22357245 0.5953526 0.3397322 0.42110884 -0.33847463 -0.1172412 0.2039046 0.04633491 -0.11450615 -0.49780208 0.73662794
22563 -0.1528085 0.16870356 -0.8640036 0.09905139 0.28790888 0.35801873 -0.55524194 0.07154071 -0.09540613 0.36453593 -0.5398286 0.36289555 -0.06182547 -0.03734927 0.30349767 -0.3021277 -0.8822651 0.11666723 0.016960984 0.011927008 0.1408239 0.4771528 -0.07363155 -0.34043407 -0.046613835 -0.22095108 0.22270805 -0.35893032 -0.5900134 0.10342905 -0.076935984 0.5807358 0.26629958 0.09679758 -0.20359108 0.6440863 0.25959152 -0.26016024 0.19151929 0.16509226 0.1404778 0.10081685 -0.090910055 0.56746507 -0.18668197 -0.069466814 -0.12838618 -0.0029364633 0.27167714 -0.22249378 0.08388121 -0.06282894 0.43121898 -0.7451514 -0.18869019 -0.32414463 -0.33577377 -0.24286108 0.024703082 0.26954767 -0.00018594551 0.2486628 0.039048415 -0.46540916 0.0944261 0.022476645 0.18549542 -0.29512206 0.08096517 0.119342 0.10141508 0.26030162 -0.43835813 -0.22944061 -0.028392648 -0.07101085 -0.4449644 -0.01941091 -0.36771014 0.33894557 0.11860533 0.4297988 -0.12717001 0.2776489 0.03754322 0.49322626 -0.03305652 -0.20065644 -0.25203294 0.61825407 0.15931588 -0.3368666 0.39430562 0.48623258 0.5311524 0.55217755 0.47667897 -0.36821824 -0.026234534 0.20633118
10169 -0.27099627 0.18316667 0.0461775 0.68566966 0.040181823 0.5861903 0.16871138 -0.028418357 -0.6354468 0.6340957 -0.78266585 0.048524253 0.2307813 -0.31432083 -0.029751955 -0.099762015 -0.49808976 -0.048860487 0.22985497 -0.2994158 0.16600634 0.4978167 -0.15277912 -0.2863558 0.049408145 -0.12342877 -0.7433668 -0.42308605 -0.39310494 0.20907138 0.0049395193 -0.102891 0.28709275 -0.32220635 0.3910967 -0.08504316 -0.013062945 -0.8184962 -0.43343174 0.06611805 -0.07853759 0.24762094 -0.19439964 0.30130047 -0.2589912 0.2967456 -0.016594177 -0.11864106 -0.013810865 0.04621693 0.28476608 -0.016243005 0.19702066 -0.4435437 -0.19575326 -0.7397384 -0.21306263 0.366069 0.024535604 0.24141592 -0.104638144 0.099311925 -0.4642805 -0.11861877 0.056323558 0.44176552 0.014985038 -0.009263858 -0.027928114 -0.2826974 -0.33130896 0.33529612 0.3040758 -0.057511833 0.068524964 -0.7105008 0.04481978 0.13467515 0.026413336 -0.22175108 0.109851085 0.5088062 0.33019096 0.6321733 -0.06255969 -0.33492 -0.015285739 0.35741812 -0.22856681 -0.14104384 0.561016 -0.1522373 0.23827146 -0.2557184 0.9786214 0.17040275 0.13405253 -0.037213437 -0.17443828 0.34354806
12350 -0.028391572 0.44134912 -0.34521964 -0.34954733 0.11667817 0.38153398 0.1221378 0.1007865 0.13285427 0.45202342 -0.17308013 0.30854297 0.33428174 0.20848927 0.17496 -0.005984586 -0.72325 0.036925547 -0.18332346 0.3427307 -0.005757744 0.73653656 -0.5494906 0.41933528 -0.25143233 -0.51115936 -0.5626844 -0.65209603 -0.4212778 0.16576311 -0.2633792 -0.13992085 0.38957202 0.18952142 -0.11596362 0.51863 0.24923433 -0.59445596 -0.570954 0.40926373 0.07462112 0.2261389 0.33380502 -0.33874494 -0.28028902 0.23889315 -0.037793882 -0.37644777 0.18405175 0.19264506 0.39348707 0.04566637 -0.034855455 -0.3523224 -0.38151583 -0.061510198 -0.31952733 -0.6405819 0.29179308 -0.023187298 0.024610557 -0.23115648 -0.06931573 -0.033058085 0.41803163 0.46295384 -0.2521525 0.29380614 -0.21328332 0.12955692 0.053259425 0.14259312 0.8570837 -0.32237038 -0.062246773 0.29802662 -0.40873602 -0.23932847 0.020549092 0.02277649 -0.080490865 0.43178838 0.7926638 0.38600588 -0.074743204 -0.4821838 0.32380196 -0.1804127 0.17211136 0.44297192 0.37843013 -0.06554805 0.506524 -0.35973933 0.21861227 0.15537946 0.22635005 -0.39607018 -0.10433482 0.2878226
12576 -0.54197115 0.60682625 -0.13399643 -0.12095845 0.37405306 0.16285352 0.26075763 0.7365455 0.10087697 0.39263585 -0.09339573 0.10809612 0.15641522 0.15534842 0.10054098 0.11441218 0.2012673 -0.3850658 0.22384593 0.27605036 0.45756644 0.27562168 0.09196221 -0.47673342 -0.19229719 0.23688756 -0.83212614 -0.36453974 -0.16401431 0.0036740662 0.3079776 0.03689302 -0.8001922 -0.1086423 0.028925883 -0.4794284 0.12573719 -0.46977007 0.25462613 0.29799318 0.023304196 -0.1707015 0.15810573 0.029253729 -0.28214374 0.6483142 -0.058199737 0.29590288 0.103523016 0.18157437 0.041819576 -0.22182672 0.3529967 0.38128284 -0.5056569 -0.046513632 0.038486682 0.13420847 -0.16840327 -0.25610048 0.18094553 0.3186135 0.06912675 0.12195486 -0.2728777 0.66113085 0.20890974 -0.44128224 0.3395883 -0.058525816 0.14298622 0.26960245 0.47447807 -0.6280111 -0.03810622 -0.44591722 -0.13269004 -0.0014289073 -0.6777371 0.012897348 0.27204433 0.885575 0.19739722 0.23903346 -0.35656512 0.26016942 0.24618822 -0.37547612 -0.29347825 -0.19983053 0.6506408 -0.35751852 0.1002162 -0.28685942 -0.060108885 0.28753886 0.5005433 -0.073377624 0.1984837 0.2843348
31353 -0.5772933 -0.24232022 -0.6157055 -0.14481397 0.18105489 0.3952315 0.0071608503 0.35437313 -0.17496322 -0.44042963 -0.15789542 0.6818063 -0.5304966 -0.39102817 0.093323916 -0.1397715 -0.19508517 0.31088814 0.4150562 -0.10331147 -0.50274664 0.41614214 -0.16847202 0.47726396 -0.20137991 -0.5301987 -0.34432188 -0.37026578 -0.23072849 -0.15139006 -0.04209399 0.32532293 0.46754724 -0.38620496 0.20368032 0.37928158 0.7053311 -0.58088243 -0.5016047 0.45538867 -0.03254975 0.13060918 0.8865757 -0.62542015 -0.073064186 0.23821798 -0.2881152 -0.03738192 0.37469125 -0.075880446 -0.08563807 0.3224209 0.37845764 -0.13888502 -0.8422611 -0.12872088 -0.5236111 -0.13014422 0.3519739 -0.076141536 0.26949257 0.32694387 0.061539013 0.10477191 -0.09404996 0.22158737 0.13418339 -0.28400412 -0.2316201 0.86325103 -0.096429326 -0.1991862 0.19348894 -0.1631282 0.26476386 0.579986 0.009098765 0.76488197 0.41040322 -0.36758432 0.21368133 0.2893848 0.5429999 0.84208846 0.2670367 0.07495882 0.3616859 -0.0451956 -0.10561876 0.23795535 0.15286922 -0.1856275 0.7189509 -0.35061538 0.1059995 0.3230387 0.35419798 -0.42719904 0.5140941 0.5568853
8703 -0.24707414 0.038352832 -0.34980214 -0.15582076 0.28778705 0.14918503 -0.34317335 0.7261695 0.19412336 0.69263554 -1.0031058 0.17510338 0.020625504 0.25375077 0.16841245 -0.0105781965 -0.22877958 -0.28715053 0.077422746 -0.32591864 -0.13862486 0.3521968 0.23529907 -0.30335796 0.6152833 -0.38639104 0.16315445 -0.36659303 -0.3431177 0.25168753 0.012425912 0.38077882 -0.02870317 -0.10443924 0.10185679 0.42511058 -0.18926272 -0.7906227 0.32562932 0.25512287 0.1701034 -0.23596008 0.114095874 0.50968105 -0.5726041 0.21628465 -0.1435396 0.031522766 -0.06985922 0.35925773 -0.028318899 -0.12542368 -0.3139783 -0.2826655 -0.10467567 -0.0022775868 -0.80686307 0.21189636 -0.3197934 0.07909941 0.41214725 0.097688936 -0.47223416 0.14781839 0.5527789 0.09066567 0.3308649 -0.32936305 -0.10909638 -0.5109359 -0.46391565 0.02241972 -0.16954243 0.3283071 0.52410364 -0.16978689 -0.1804236 0.61803436 -0.52129585 0.043575224 0.3366339 1.0330397 0.105465405 0.25235468 -0.24640456 0.045707725 0.3627687 -0.23953332 -0.023163686 0.11707315 0.5490404 0.52012813 0.5712541 -0.15470122 0.20150132 0.43258372 0.42154288 -0.042477548 -0.14274088 0.4581889
39890 -0.7669811 -0.12666307 -0.76961195 -0.0041318075 0.6868153 0.68289447 0.05519803 0.23328187 -0.61079484 0.27929994 -0.44736245 0.38895825 0.28985947 -0.20426643 -0.25519055 -0.14811608 -0.049904447 -0.37946478 -0.3851862 -0.17059425 0.1933986 0.23404063 -0.040418502 -0.2739812 -0.001133879 -0.3556143 -0.27843818 0.19179241 -0.13132407 0.43667653 -0.27971232 0.6817906 -0.3429573 0.66081333 0.047935866 0.5102531 -0.2913835 -0.07993604 -0.40598777 0.7932806 0.2271805 -0.29870504 0.022225594 -0.061662216 -0.022341877 0.13646723 0.3940874 -0.15061085 0.36560777 -0.23966645 -0.29268858 0.37649593 -0.1011292 -0.4183531 -0.9116018 -0.35431185 0.25265414 -0.13632096 -0.49997768 -0.12590314 0.73404616 -0.32379392 -0.17454043 -0.19558634 -0.39581555 -0.19831978 0.57395804 -0.312287 -0.4501715 0.06879343 0.6112339 0.119034156 0.18702993 0.15517013 0.24772252 -0.40963447 0.21147399 0.28952715 -0.34839302 -0.16517931 0.19518907 0.5472035 0.22627978 0.5613826 0.30733395 -0.6647613 0.2506794 0.028911542 -0.27133775 -0.107507855 0.60215 -0.233351 0.08095341 -0.14794679 -0.3096998 -0.22805661 0.3011964 -0.4074233 -0.054075282 0.23298347
15429 -0.5130516 0.17743908 -0.37314907 -0.040851254 -0.08628679 0.5117585 0.217334 0.066457875 -0.16195124 0.884114 -0.45470428 -0.13675074 0.18700965 -0.019622674 0.04051379 0.02137609 -0.38553107 0.0032490129 -0.12176889 0.24746822 -0.068945214 0.5066279 -0.0676895 0.47151452 -0.24797967 -0.29000044 -0.6755613 -1.1287866 -0.5362378 0.3852125 0.18145704 -0.087224394 0.3420751 -0.29752183 -0.23429912 0.411298 0.24852571 -0.30178773 -0.1978689 0.3484192 0.05349417 0.21037622 -0.035755068 0.04362211 -0.16190824 0.3163042 -0.36152667 -0.080625854 0.11457212 0.38797602 0.25871953 0.0006618999 0.20240615 -0.57239753 -0.707911 -0.15494671 -0.22524521 0.2146992 -0.044056498 -0.18934414 -0.24609052 0.31201813 -0.53590584 -0.07800833 0.55853677 0.1760333 -0.3357373 -0.11975108 0.20321201 0.18886694 -0.11537943 0.36967298 0.37931293 -0.4697892 0.39632228 -0.42755127 -0.40459216 0.08738499 -0.32823253 -0.57115215 -0.14136304 0.11953003 0.55381876 0.642767 0.12913856 -0.65182334 0.1683878 -0.21793276 -0.24266057 0.0032986712 0.48963156 0.0076471786 0.34606704 -0.12882823 0.66293615 -0.019951537 0.47761238 -0.15872152 -0.5372447 0.34019762
2653 -0.062142983 0.5344999 -0.8650924 0.53819335 -0.07130144 0.33734196 -0.047589105 0.022890747 -0.29587364 0.47585067 -0.06302941 0.5388924 -0.32689127 -0.20300484 -0.03195772 -0.3018397 -0.35982558 -0.4279636 -0.01604328 -0.08035042 0.2617693 0.8818144 0.2430327 0.7243687 -0.47164 -0.48442513 0.09593619 -0.6314439 -0.13381095 0.38255277 -0.10682998 0.7364862 0.791708 -0.5339442 0.14427535 0.74450594 0.54236466 -0.19668469 -0.47089913 0.32709423 0.019390583 -0.22933562 0.049982477 0.22388418 0.1615038 0.5467061 -0.07588424 -0.19171442 0.31642056 0.03287015 0.029618211 -0.34368345 0.18648447 -0.17880982 -0.098925486 -0.28346083 -0.6354746 -0.06275673 0.4346437 0.26234344 0.16890396 -0.1829025 0.19472995 -0.47357896 0.3401656 0.29964137 -0.31893232 0.1910627 -0.31875926 0.13495219 0.022907343 0.12239618 0.24455893 -0.03410639 -0.18040967 -0.39366502 -0.06680693 0.2688755 -0.581986 -0.5057692 0.20267291 0.37309745 0.04542207 0.33884716 -0.15441741 -0.52724725 0.42124143 0.10169929 -0.1828445 0.35229012 0.33771646 0.4455415 0.21899484 -0.07226752 0.07421327 0.024865879 -0.09261186 -0.0060260165 0.041255534 0.5121803
3191 -0.44711125 0.22060755 -0.7370913 -0.09567954 0.5398382 0.7071139 -0.050721206 -0.22042967 -0.48317057 -0.04858903 -0.24186096 0.6060195 -0.05998865 -0.36664757 0.42461213 -0.6986972 -0.01922302 -0.18265456 -0.37951615 -0.28569406 0.04765558 0.2624419 0.229577 -0.14350832 -0.077450044 -0.4142023 -0.37285838 0.21395758 -0.37897235 0.6563698 -0.20964763 0.7538058 -0.10850882 0.25471076 0.24407549 0.49870253 -0.19044408 0.38111472 -0.4758795 0.964127 0.021503896 -0.12325578 0.0071442043 -0.036816437 -0.070408836 -0.09423285 0.31410438 0.12785311 0.19470055 -0.06718425 -0.17050989 0.41509995 0.17413357 -0.23223399 -0.7500679 -0.8848239 0.17025957 -0.3777501 -0.15045221 0.45018944 0.3717059 -0.41880432 -0.26558894 0.020685172 -0.13041282 -0.27807644 0.44059756 -0.3439635 -0.37493232 0.24365324 -0.17963867 -0.17191677 0.000746722 -0.120976515 0.046048153 -0.5011892 0.20340201 0.2573709 -0.12728803 -0.22606872 -0.14107268 0.4235281 0.15608339 0.8719088 -0.22681044 -0.30973667 -0.062657 0.16102964 -0.14694785 0.13996726 0.21614948 -0.24376369 -0.5348872 -0.6015919 -0.2367523 -0.21908723 0.07795307 -0.5437916 -0.26807696 0.14044163
643221 -0.59894365 0.5092505 -0.42083967 -0.05701231 0.5655607 0.5992804 -0.30227965 0.20762883 -0.35092896 0.34342784 -0.18958038 -0.54229486 0.28132582 -0.22343938 0.08956993 -1.186207 -0.23846965 -0.46863538 0.9598682 -0.099958904 0.73464406 0.19312426 -0.16750135 -0.25882873 -0.42506644 -0.39425346 -0.21660587 -0.21256693 -0.20899096 -0.028906746 -0.04039083 0.5561705 0.24463941 -0.4818812 -0.17734452 -0.06677117 -0.12872261 0.10508838 -0.6108651 0.5075835 0.0917677 -0.45830467 0.053186074 0.032621827 0.058263343 0.43058446 0.3582264 0.47618157 0.17808095 0.12663366 -0.35028327 0.0032335208 0.1635961 0.28450277 -0.4116958 -0.44132003 -0.09898176 -0.79442245 -0.88058794 0.0925037 1.1538332 -0.30667642 -0.3609079 0.081094995 -0.34873134 0.053055495 0.45447233 0.11782807 0.41027525 0.19594629 -0.5215079 -0.64883065 0.45563403 -0.331365 0.17337866 0.26916853 -0.23633695 0.22721922 -0.12882398 -1.0785888 -0.09290902 0.49777228 -0.2457275 0.8107108 -0.2280827 -0.14624183 0.19257091 -0.7376922 0.111474484 0.46542692 0.4357879 -0.09865744 0.10895449 0.065804124 0.08128671 0.26600823 -0.5147217 -0.46898538 -0.5746827 -0.024183393
3220 -0.24558641 0.12561204 -0.24005432 0.41378903 0.14276385 0.5841961 -0.06478486 0.18822765 -0.31472468 -0.040720623 -0.282788 0.074011885 -0.25305948 -0.34788674 0.13650359 -0.53934413 -0.49172878 0.00088799954 0.04140631 -0.46359542 -0.113362506 0.7181969 -0.07059265 -0.08732534 0.22177406 0.040827088 -0.110488296 0.07015231 -0.18714847 0.13462184 0.27622542 0.26608837 0.5309547 0.074351974 0.40937248 0.7993987 0.36298522 -0.63401496 -0.22178318 0.0022862472 -0.022144856 -0.50157183 0.50915617 0.47273782 -0.021657633 -0.014027775 -0.49677953 -0.22402501 0.18295975 -0.45038614 -0.15490271 -0.019429492 0.81548804 -0.3985577 -0.5256273 -0.64346063 -0.16114326 0.2293119 -0.054887522 0.11874244 0.72476745 0.58617663 -0.47824362 -0.27593815 0.49401268 0.060610805 -0.29799178 0.022555385 -0.23887815 0.50141895 -0.4675734 0.11355186 -0.25843525 -0.014801589 0.17310935 -0.025918398 -0.14374837 -0.0061169798 -0.36980918 -0.13883267 0.464591 0.6202804 0.08872916 0.65285724 -0.2353658 0.38861394 0.21273333 0.09296915 -0.08881031 0.20522872 0.44615602 0.126145 0.8132268 0.28627977 0.40912488 0.41462204 0.6347578 -0.4844639 0.47616264 0.1883825
2658 -0.5996649 -0.12244735 -0.55875397 0.2592366 0.38766757 0.68879163 0.30590254 0.82210994 0.56003433 0.10423532 0.108528696 0.22348514 -0.6232598 -0.23885322 -0.043091003 -0.32422507 -0.63164634 -0.27873078 0.02717671 0.668389 0.19552346 -0.024262836 -0.062347133 0.23526365 0.47657293 -0.6629859 0.27692184 0.39625767 -0.0359517 0.2934086 0.035172537 0.0726997 0.74909884 -0.041837152 0.23533191 0.5613828 -0.3570655 -0.69099915 0.036624715 0.46902412 0.3060545 -0.029823456 -0.29263556 -0.5392221 0.2911678 0.6057951 0.012256 -0.13628206 -0.07335023 0.31400773 -0.47439757 -0.2516692 0.24927542 0.308286 -0.2890153 -0.34549284 0.26486707 0.24641892 -0.32327127 0.97700614 0.5237756 0.161822 -0.5927468 -0.1997392 -0.59577763 -0.02172271 0.46415144 0.23807074 -0.4233524 0.6555144 -0.3938961 -0.2557678 0.5550771 -0.48998767 -0.24092513 -0.19381428 -0.15250514 -0.16126937 -0.40551138 -1.6423566 0.24125713 0.053066894 0.22355175 0.6579734 0.77828497 0.12533297 -0.06533947 -0.36547104 -0.32513493 0.8063728 -0.09076963 -0.09165244 0.03840552 -0.5478606 -0.15976939 0.75464624 0.6755215 -0.19226234 0.34809896 0.33220077
1688 -0.26542386 0.2626278 -0.20295446 -0.39689448 0.17473951 -0.09250052 0.23971331 0.14902642 0.16440862 0.36125454 0.119270466 0.11651055 -0.43960273 0.095784165 -0.30918777 -0.13159245 -0.045791306 -0.4261988 0.19832525 0.72866595 0.28375348 0.10290941 0.04232427 -0.6817946 -0.12094097 0.053574238 -0.21687858 -0.30492908 -0.8901938 0.55855656 -0.17850503 -0.30986518 -0.3732956 -0.6029876 0.25656796 -0.06728431 0.026788611 -0.17593616 -0.17972475 -0.067651555 -0.5024668 -0.45317647 0.17391483 0.2108663 0.14740239 0.6793404 -0.23243219 0.6302118 0.29108977 0.18116567 -0.3535025 -0.18606068 0.33603084 0.06744435 0.015448767 -0.098687366 -0.115745865 -0.40703857 -0.022068016 -0.31763247 0.5253492 -0.0015049652 -0.36454576 0.16075005 -0.31315216 0.80213505 0.23119803 0.04363135 -0.17797898 -0.0454706 0.41853604 0.4875351 0.16950196 -0.48169765 0.36353642 -0.6540312 -0.3186938 -0.10339099 0.004740287 -0.42111173 0.41351667 0.59420663 -0.25060228 0.63285875 0.37589806 -0.48163873 0.57036203 -0.6260337 -0.3158422 -0.041622773 0.5815046 -0.5313047 0.110914916 -0.17063035 -0.025489252 0.34365752 -0.045963403 0.14178334 0.5949645 0.16837233
23738 -0.46245408 -0.122197025 -0.8613624 -0.16187057 0.4856734 0.6172364 -0.32874462 -0.050777484 -0.1888544 0.373473 -0.37100035 0.1299388 -0.27154154 -0.07518059 -0.27506876 -0.13263594 -0.52606434 -0.10387365 -0.23786908 -0.23967303 0.6719321 0.6209037 -0.14631605 0.010844292 0.11542587 0.2990378 0.112908386 -0.58094645 -0.12934752 0.5277372 -0.19729324 0.6253575 0.36997178 0.30944848 0.036327604 0.72272867 0.2037853 -0.13937289 -0.60451823 0.37186766 -0.098395154 0.035408765 0.37452203 0.09744945 -0.15103357 0.024572624 0.039804615 0.4425372 0.25504827 -0.25530002 -0.37444785 -0.030832628 0.17406039 -0.8976481 -0.06387927 -0.001964174 -0.34049338 -0.38776088 -0.11739595 0.082701914 -0.13074474 -0.078750096 0.34213987 -0.21141687 0.021473132 0.46909052 0.23567826 -0.22227457 -0.20125544 0.23793297 0.10971036 0.59438574 0.112110324 -0.20812811 0.10229873 0.13575873 -0.39915 -0.02396271 -0.110562 0.37196076 0.21975201 0.60571975 0.16749538 0.18518484 -0.14167157 -0.05395553 0.21379389 -0.15959366 -0.14841826 0.21903503 0.78227216 -0.14037125 0.5941471 0.11586682 0.13203059 0.076425195 0.274899 -0.23200709 -0.34984136 0.2539499
1481 -0.26362872 0.29339162 0.0053282967 -0.008706814 0.7556777 0.9522219 0.64911366 0.30344304 -0.081039555 -0.18119405 -0.1741898 -0.09992738 -0.13324945 -0.26549098 -0.15702358 -0.5313167 -0.627849 -0.5598333 0.031448264 0.10789111 0.8334805 0.012947821 0.08430538 -0.66750926 0.41193128 0.01912288 -0.04917525 -0.19249526 0.25046676 -0.1062574 0.26804668 0.757134 0.011743445 -0.09155815 0.18455656 -0.42404968 -0.38201627 -0.8942356 0.014025997 0.03706456 0.19803514 -0.10861964 0.31999505 0.14511943 0.034346875 0.15292856 -0.03734436 -0.038910106 -0.1013747 -0.009437028 -0.0917519 -0.030507218 -0.13015573 -0.27707696 -0.3535141 -0.2562337 -0.14471129 0.058694255 0.19163086 -0.19435403 -0.042165514 0.17541574 -0.39116585 -0.39042968 -0.16781326 0.14698306 -0.04299374 -0.34372193 0.09919313 -0.09566024 0.03141883 0.2466051 0.57660973 0.33834592 0.095772296 -0.46288913 -0.24886501 0.10740306 -0.7325013 0.35488108 0.34108496 0.5906309 0.07064544 0.6846152 0.150191 0.2467906 0.1482652 -0.13470946 -0.07863487 0.16356584 0.37117004 0.16687393 0.51948166 -0.27825692 0.065541886 0.15648769 1.1807019 -0.02376993 0.16033182 -0.27003685
4804 -0.8425163 0.41248363 -0.6183763 -0.13053177 0.0060021644 0.4589408 0.09173452 0.15150721 0.09537123 0.32785165 0.09353874 0.31498462 0.3688058 -0.25766262 -0.23744218 -0.19942965 0.00028614808 -0.19845895 -0.20804335 0.2538676 -0.02789984 0.54153395 -0.3839969 0.46392098 -0.34377947 -0.33428162 -0.39108527 -0.45582813 -0.19425549 0.23487666 0.07014076 -0.08226541 0.32638976 -0.25149298 -0.15648542 0.673838 0.3302021 -0.33722362 -0.6618644 0.3626709 -0.31092653 0.67473584 0.14359364 -0.049073655 -0.32346916 0.2320592 -0.16209783 -0.3562735 0.16215219 0.51439744 0.021532172 0.24916363 0.3712672 -0.10232326 -0.9044945 -0.6858183 -0.48795003 -0.427311 -0.10474318 0.1258492 -0.20541967 0.07151937 -0.5684359 -0.49200848 0.43218476 0.26484525 -0.19118923 0.0911285 -0.19591999 0.07745399 -0.07607369 0.29732227 0.6270729 -0.2945507 0.2621551 0.25651577 -0.29982293 0.016946273 -0.465735 -0.30189085 0.08954942 0.36470556 0.5387165 0.545593 -0.27252358 -0.9251106 0.12884541 -0.05557791 0.17558551 0.10573634 0.17129615 0.2780576 0.7856807 -0.33891943 0.2577192 0.2066594 0.22250175 0.19307935 -0.35925514 0.25233835
2696 -0.41358805 0.110718 -0.45581567 -0.40079635 0.24844866 0.44628 0.30011696 0.704925 0.49472636 0.10934557 -0.15078855 0.708029 -0.5496457 -0.08844501 0.2272594 -0.0094268 -0.9589699 0.17543955 -0.012865333 0.47131088 0.13111298 -0.2588344 0.27770364 0.2044721 0.3894799 -0.351281 0.18612494 0.21932355 0.018086499 0.49448568 -0.39237273 -0.10059501 0.54205114 -0.6162109 0.03829154 0.38322788 -0.39436916 -0.026490891 0.1605381 0.5797803 0.43967944 -0.15899655 -0.2339067 0.020669388 0.14705078 -0.1857318 0.34542525 -0.01698186 -0.028906386 0.114823475 -0.22985625 -0.0844062 -0.035695866 0.19366205 -0.62705827 -0.5268573 -0.15607211 -0.16158159 -0.30983925 0.06085523 0.6852663 0.15333354 -0.33991084 0.1848653 -0.37915018 -0.057681907 0.6429939 0.15090136 0.026177535 1.0136151 -0.2576666 0.1093117 0.37966943 -0.50431436 0.2508123 0.14966369 -0.6407232 0.28888658 -0.11388976 -0.78670806 0.12497103 0.07741107 -0.13147798 0.43561792 0.5953482 0.4695707 -0.103756495 -0.15465148 -0.52537405 0.1395834 -0.24841583 -0.077932574 0.22934483 -0.67469466 0.110893555 0.57728326 0.37665835 -0.16070816 -0.45023167 0.21267809
230879 -0.66077363 0.062944174 -0.56916344 0.3220532 0.38236895 0.6612716 0.31255487 0.9778575 0.522539 0.07969689 0.0493802 0.13790214 -0.6688982 -0.17190334 -0.007292623 -0.5455022 -0.67220485 -0.13481902 0.17273742 0.88250506 0.43560365 0.10101166 0.02619125 0.13516225 0.7860792 -0.47930992 0.43145594 0.20776078 -0.10490388 0.296896 -0.08279112 0.1444582 0.68856966 -0.25293633 0.061565958 0.6845193 -0.3729489 -0.45718434 0.24254867 0.27909508 0.3280256 0.0943038 -0.22480594 -0.42034742 0.085970215 0.44337696 -0.053476956 -0.3079245 0.18741702 0.27327234 -0.3424303 -0.2426715 0.541481 0.252344 -0.23838685 -0.3849621 0.21801162 0.3438869 -0.5681361 1.1144843 0.5641658 0.033041783 -0.6689164 -0.27418435 -0.5825563 0.031644166 0.6308506 0.353415 -0.33330187 0.67161566 -0.49098942 -0.31761783 0.61953306 -0.44852284 -0.3871072 -0.09834121 -0.08576005 -0.07347293 -0.24760284 -1.4214956 0.41336486 0.12470296 0.11247919 0.44442075 0.82242334 0.05191693 -0.08278811 -0.3240794 -0.15710078 0.7455211 -0.22642136 -0.0107972445 -0.04228207 -0.4572829 0.0028873135 0.8936513 0.6318798 -0.28609532 0.5337748 0.16892216
16819 -0.62501574 0.43102983 -0.78150344 -0.27819917 0.42600995 0.8858631 -0.04494357 0.022970388 -0.08081416 0.308901 -0.08752723 -0.83569056 0.29644313 -0.13888988 0.3413656 -1.0960006 -0.23220494 -0.2618345 0.98919123 -0.07170276 0.9310747 0.079580165 -0.0060621686 -0.15931417 -0.6461946 -0.4513884 -0.051706564 -0.42935416 -0.024118165 0.087973416 -0.15820144 0.2648851 0.41015336 -0.21850476 -0.14029841 -0.0995127 -0.1871342 -0.043727323 -0.4275473 0.50150925 -0.059001036 -0.3381733 0.16565153 0.31951573 -0.12672386 0.1586495 0.4145105 0.69528633 0.11293724 -0.12492887 -0.32942027 0.15157269 0.3220718 0.4330549 -0.40114844 -0.50181425 0.08418213 -0.6870289 -0.88212615 -0.016047424 0.93568724 0.13224545 -0.6120165 0.1787146 -0.26992586 -0.046846744 0.48376006 -0.063987784 0.17541502 0.15491971 -0.5737488 -0.63338375 0.28058475 -0.42292926 -0.038256142 0.3229344 -0.30376932 0.1808826 -0.054677773 -1.1264393 -0.21200469 0.72674066 0.014144005 0.8146367 0.039282154 -0.1607831 0.28218153 -0.4622319 0.19685487 0.3239213 0.10087659 -0.19027115 0.06595211 0.016532328 0.13404863 0.2482079 -0.34272107 -0.24604903 -0.29659578 0.02996384
10796 -0.117449306 -0.004570013 -0.10803204 -0.008311547 0.46522725 -0.10635847 -0.20288676 0.65503573 0.37599322 0.03660028 -0.3841766 0.33520013 0.04129032 -0.19594263 0.22458954 0.14663729 -0.76564395 -0.8222864 0.1841185 -0.20746453 0.28000507 0.23461919 0.35620332 -0.16440487 0.31272584 0.045804065 0.02387285 0.05827633 -0.008418976 0.1349848 0.34369168 0.41245183 -0.0333268 0.15925507 -0.026438862 -0.08571399 -0.027206745 -0.35400662 -0.090490274 0.48658627 0.19391525 0.2579974 0.058013625 0.017774593 0.07740689 0.19193697 -0.28258008 -0.1546967 -0.12374519 0.15597752 0.08120655 -0.05264636 0.22437839 -0.4931085 -0.118758634 0.18160687 -0.30694878 0.109921806 -0.16794729 -0.18683438 0.21206768 0.2911302 -0.31258634 -0.5900229 -0.4051244 0.1835658 0.093244515 0.26329738 0.20637183 0.49494645 0.009057411 0.40169105 -0.1692363 0.09692977 0.3316791 -0.43578714 0.013962091 -0.010846573 0.2033924 0.034480717 0.14670639 1.1359565 0.1238425 0.061432324 -0.028245892 -0.4824153 0.5156126 0.19171508 -0.3089184 -0.20089117 0.91254145 0.38831013 0.78825843 -0.09018391 -0.016752532 0.43722865 0.5847791 -0.38761643 -0.051911514 0.27536362
117 -0.4050879 0.41157678 -0.61197644 -0.33702973 0.75608265 0.20835337 0.36296657 0.627694 0.04437305 -0.35718927 0.07133905 -0.084300235 -0.04164525 0.16772695 0.1987799 0.014905936 0.118569635 -0.28480428 -0.038836006 0.21954983 0.06429706 0.21729402 -0.09162259 -0.065322086 -0.08282181 0.16855197 -0.0033300058 -0.13663484 -0.4561998 0.07320339 -0.111898966 0.24584596 -0.5181302 -0.17904158 -0.18319878 0.7235876 0.18924522 -0.34592497 -0.034066416 0.104656555 0.029409211 0.12816876 0.19465242 -0.0025914693 -0.49372694 0.045090947 0.3170875 -0.16581243 -0.20941222 0.221259 -0.013063864 -0.15626925 -0.5540824 0.029392028 -1.0139328 -0.46502504 0.059179533 0.085877344 -0.7538117 -0.37292463 0.12399333 0.0854879 0.284823 -0.18201973 -0.37385163 0.2714733 0.37708068 -0.19210644 -0.29706034 0.2655249 0.51276106 0.08679825 0.1659271 -0.07482593 0.4261702 -0.10941778 -0.04215418 0.1845385 -0.30152735 -0.6263359 0.19671845 0.20619227 0.30060056 0.105442956 0.3432246 -0.3966347 0.26760122 0.1367073 -0.52025163 -0.3358302 0.54908365 0.050503787 0.31456998 0.33784252 -0.40231776 0.11283665 1.0167757 -0.38832906 -0.32807907 0.295957
85352 -0.20971985 0.30710924 -0.39273053 -0.5195108 0.5298191 0.022789625 0.43629745 0.29397702 0.036926273 -0.16411917 -0.004630084 0.85320556 0.009305431 0.22821712 0.4767588 0.10993765 -0.30732182 -0.23719111 0.14808384 0.4983116 0.31046543 -0.08565302 -0.12335186 -0.4410596 0.16452417 -0.3257739 -0.25064513 -0.42862487 -0.21234703 0.3026111 0.050622907 0.07816774 0.05776517 -0.67657685 -0.18773797 -0.26403072 -0.0088806385 -0.10567597 0.5065953 -0.3364998 -0.3778385 -0.23755103 0.26454926 -0.1760976 -0.09648824 0.6363561 -0.35829994 0.7487792 0.48781633 -0.115513496 0.18096599 0.26942998 0.78286433 0.22942767 -0.01695736 0.013695995 -0.053276915 0.22556224 0.34442964 0.06959402 0.55290496 0.02347745 -0.010300307 0.00567297 -0.020986069 0.67700505 0.6097496 -0.14656144 -0.36960796 0.07385495 0.22977933 0.21339637 0.5268446 -0.41370764 0.12494781 -0.39520898 -0.047806464 -0.13808656 -0.20680301 -0.73215884 -0.036814943 0.39247012 0.20120125 0.6166564 0.46927565 -0.31493902 0.27799678 -0.73297906 -0.20414566 0.13197218 0.41532317 -0.659235 -0.08312012 -0.4063326 0.22225058 0.30502445 -0.28022948 -0.09578752 0.13407718 0.2861932
35922 -0.37371463 0.013548297 -0.3166932 0.06014023 0.3852249 0.2524355 -0.13876039 0.38401872 -0.1259055 -0.6170065 0.046287294 0.23732714 -0.22872879 -0.3532705 0.31158316 -0.4594062 -0.5695093 0.12208933 -0.042650674 -0.30270186 -0.45357847 0.10153768 0.21084398 0.24125041 0.07236725 -0.62390125 -0.29269326 0.4382141 -0.48401603 -0.398264 0.10048046 0.39369097 0.14516355 -0.016052404 0.065771826 0.42354032 0.31173795 0.09441567 -0.7974662 0.7157277 0.3604691 0.07907679 0.44932425 -0.61576515 0.13791054 0.31147945 0.10693231 0.22839431 -0.06311999 -0.014443956 -0.2258288 0.08565894 -0.06278575 0.036133762 -0.5938513 -0.47691843 -0.15994509 -0.48565164 0.39535353 -0.10991519 0.36530605 0.29659024 0.25924975 0.33775508 -0.6117543 0.3877557 0.53126085 -0.07390967 -0.8230719 0.43793666 -0.15902787 -0.15700386 0.34010753 -0.23756848 0.09787767 0.40461704 -0.13740039 0.6405176 0.38687643 -0.34770155 0.27799025 0.17983894 0.56938857 0.5936529 0.40779138 0.16071635 0.09039244 0.07629608 -0.02722459 -0.042485822 0.50290143 -0.122237414 0.4340036 -0.0737786 0.1767456 0.33425888 -0.06619622 0.13802925 0.21432738 0.595099
6334 0.097984634 0.30236724 0.037178557 0.3592916 0.469588 0.8858861 0.10695728 -0.17038919 -0.49903888 0.22648 -0.77891296 0.07121777 0.15022565 -0.5184706 0.25057834 -0.47856966 -0.49910977 -0.2066813 -0.018669909 -0.32965758 -0.15469308 0.2881677 0.17110123 -0.36772513 -0.17608714 -0.06073291 -0.25925818 -0.06444705 -0.34863704 0.7550945 0.16283171 -0.039973848 0.07013356 -0.579101 -0.046221092 -0.18943344 -0.25938752 -0.8176352 -0.18092771 -0.48682597 -0.1406017 -0.010301698 -0.19078359 0.3588874 -0.31954417 0.051237322 -0.31969443 -0.052011274 -0.08237533 -0.25672305 0.23420209 -0.19032894 0.22671728 -0.3298944 -0.3242329 -0.25344732 -0.5290428 -0.12070441 0.5496901 0.32507777 0.26877603 0.14344175 -0.08913021 -0.061461348 0.05937749 0.6037513 -0.5417916 0.13711461 0.07797136 0.23281787 0.025822291 0.3412324 0.13165122 -0.06283607 -0.28462565 -0.79702103 -0.027214225 0.0976496 -0.22791566 -0.33464977 0.14587127 0.279131 0.32131827 0.7333469 0.008461362 -0.3073714 0.454256 0.14865863 -0.35285038 -0.013328936 0.42804432 -0.029735804 0.5368959 -0.2312126 0.14304586 0.1532225 0.14861871 -0.08705631 0.3035423 0.24487413
4335 -0.675038 0.07022721 -0.7178192 -0.2973857 0.48245987 0.53144926 -0.278287 0.020983204 -0.2815038 -0.21921726 -0.43091157 0.48573875 0.023362298 -0.45537925 0.46952465 -0.6220358 -0.6651987 0.012499819 -0.015379549 -0.43676388 0.4244414 -0.23545246 0.03181896 0.56093365 -0.16238254 -0.5157135 0.026740268 -0.06969909 -0.595069 0.108801335 0.32261798 0.43453303 0.43251306 -0.2028402 0.18769963 0.25957575 0.29960778 0.24587215 -0.7124053 0.6087123 0.47744414 -0.27072853 0.07769698 -0.11784096 -0.25506046 0.24969116 0.0023131482 0.53520083 0.01001992 0.2601757 -0.04371683 0.015822787 -0.17043544 -0.16418636 -0.4171846 -0.43467677 0.11886617 -0.1889935 -0.03517979 -0.10351544 0.13134377 0.3162876 0.31278798 0.3649679 -0.2654824 0.37026948 0.28838974 -0.17688392 -0.78525484 0.37955227 -0.29357865 -0.008101886 0.4229612 -0.45973825 -0.00958958 0.7073056 -0.2448623 0.47904623 0.27435267 -0.21141456 0.479431 -0.11864038 0.65713596 -0.08452996 0.3589623 0.0034510347 -0.14313368 0.113064244 0.13437647 0.21247014 0.7203974 -0.023938354 0.25880352 -0.12055094 0.1325245 0.11719381 0.32121575 -0.12099846 -0.29709592 0.4278495
210871 -0.14464469 0.6867876 -0.14785579 -0.110179864 0.64029247 -0.034135383 -0.06751645 0.4754962 0.092768066 -0.23953213 -0.14781126 0.12019195 0.16514459 -0.12353788 0.21579638 -0.14880742 -0.3184244 -0.44702783 -0.08492753 0.20262708 0.041846015 0.10417891 -0.493359 0.0012332258 -0.12855625 -0.9025196 -0.15747361 0.00657418 -0.65668815 0.32794794 -0.14411214 -0.03286898 -0.43626243 -0.5704248 0.10867272 -0.35322386 0.005668294 -0.27402025 0.4875975 -0.0015209807 -0.040102627 0.41116798 0.12187168 0.35011676 -0.14727166 0.78603196 -0.12771198 0.24724592 0.046398703 0.09781163 0.22165953 -0.06863569 0.4539518 0.113929756 0.6025674 -0.05694646 -0.10661218 0.10339936 -0.3178933 -0.10980259 -0.00089166476 0.1822967 -0.18291916 -0.01114199 0.29965654 0.66734606 0.3477831 -0.13772608 -0.032072477 -0.01595315 0.83244395 -0.12997095 0.52705604 -0.64113057 0.14595512 -0.34241533 0.16411604 -0.19295031 -0.035190888 -0.579513 0.43292803 0.21375152 0.15594715 0.2999601 -0.37172097 0.19079512 0.32550883 -0.4007833 -0.10581219 0.14706795 0.48905057 -0.38083324 0.114937924 0.4165226 0.019902699 0.3496437 0.45251727 0.091478676 -0.027074387 0.07916359
39127 -0.23056023 0.068047255 0.1259714 -0.058512557 0.3161682 0.91034937 -0.073359676 -0.1246016 -0.38617203 0.6746819 -0.9019111 0.049436886 0.21175578 -0.70088136 0.029563276 0.08601918 -0.42234308 -0.13089827 0.15109028 -0.03686116 0.30273208 0.4224492 0.28700438 -0.2804354 0.46888372 -0.16889234 -0.53713447 -0.28675687 -0.50649226 0.058437426 0.20231515 0.28324407 0.19906138 0.020177025 -0.06770497 0.3770218 -0.5267922 -1.0281324 -0.6656868 -0.07387829 -0.07882405 0.3712415 0.4351302 0.29902908 -0.23166305 0.3653263 -0.15566622 -0.18372281 0.011880657 -0.07238713 0.099006675 0.02381425 0.10842785 -0.106228024 -0.009081397 -0.7217809 -0.40454057 0.021880208 0.1692418 0.3542871 0.8402275 -0.061030015 -0.8509798 -0.31658444 0.19705299 0.53998446 0.46349752 -0.27754918 0.13067389 0.51085293 -0.6196131 0.5142105 0.20397985 0.024914801 -0.060072236 -0.102971815 0.10775678 -0.16601175 -0.08141206 -0.1991499 0.37002987 0.28604007 -0.3789427 0.44778097 0.29729068 -0.26627132 0.5019728 0.20595357 -0.70394677 0.5753325 0.24028192 -0.013290977 0.266584 0.25140488 0.39698908 -0.09766171 0.075044304 -0.052287027 -0.13882902 -0.20516114
642894 -0.78592956 0.49285594 -0.3819049 -0.4102897 0.49393946 0.53597206 -0.10386364 0.4647161 -0.40980598 0.432565 -0.26580933 -0.43613645 0.22200747 -0.27381828 0.44124925 -1.2122808 -0.2620904 -0.18804803 0.9241496 -0.28777736 0.78663206 0.08610205 -0.20244117 -0.22585234 -0.33261383 -0.41149467 -0.039799467 -0.20149505 -0.32012177 -0.22677036 0.0034824486 0.5929005 0.4751205 -0.48594004 -0.20426795 -0.06334941 -0.06536668 0.048087224 -0.7438666 0.31291154 -0.026515737 -0.36857873 -0.26046455 0.16273479 0.086586565 0.56121564 0.4261457 0.42399022 0.03908726 0.17612141 -0.164221 0.062281422 0.24938756 0.20744477 -0.3104196 -0.409454 -0.060608227 -0.6075766 -1.1998711 -0.08105616 1.1292204 -0.0989898 -0.3937324 0.3320261 -0.2840847 0.2199235 0.44375333 0.0512526 0.22355942 0.21525614 -0.583625 -0.6954839 0.5649577 -0.24250256 0.024234833 0.47451007 -0.3620267 0.26074868 -0.19367237 -1.0832574 -0.021739269 0.3865896 -0.14963123 0.9213819 -0.28621963 -0.049534723 0.48307565 -0.74233913 0.34222355 0.5505535 0.5169161 -0.14636779 0.22360332 -0.09197986 0.27786368 0.34137303 -0.41388127 -0.46279258 -0.40251753 -0.26971442
34257 -0.7739226 -0.15239887 0.09360741 0.38632947 0.3214068 0.6019663 -0.35686556 0.426136 0.39710432 0.03209568 -0.41418487 0.12507468 0.23925689 -0.16084966 0.13945234 -0.8441047 -0.39671087 -0.6021335 -0.05392716 0.6410145 0.23405968 0.33280662 0.40980226 -0.59084076 0.40973818 -0.46124482 -0.45700067 -0.5164942 -0.34739065 0.78146017 -0.21678545 -0.14701715 0.17430945 0.18426971 0.34186625 -0.03313853 0.04315998 -0.6270596 -0.76583 0.07592195 0.23044463 -0.0630978 0.6262165 -0.33878183 -0.09687545 0.74572766 0.6619316 -0.4336547 -0.20670564 0.69057876 0.22271672 -0.48130432 0.11214736 -0.44922516 -0.51770765 -0.45570642 -0.08526797 -0.09433813 -0.3723236 -0.5145692 0.3770228 0.1462026 -0.008087246 -0.0055697695 0.6586717 0.099755205 0.1363412 0.005231417 -0.06997065 0.11102522 -0.11453321 -0.43428347 0.10101273 -0.70862556 -0.29084128 -0.38954747 0.22487287 -0.16732568 0.2277057 -0.22122839 0.28738743 0.4253155 -0.31563944 0.25829694 0.5788702 -0.46967125 0.25823748 -0.0013200542 -1.1768507 0.68957746 0.7429208 -0.008002718 0.03030884 -0.4749379 0.16432369 1.0383856 0.33630863 0.63134956 -0.7413681 0.5043918
54131 -0.6411224 0.41246775 -0.60614026 -0.60528326 0.31197622 -0.2532309 0.11547729 0.6705038 -0.30907613 -0.17485914 -0.1466903 0.585227 0.22979036 -0.112459525 -0.003971357 -0.4101123 -0.20533307 -0.09566984 0.22819005 0.08723055 0.1194621 -0.40620998 -0.37310642 -0.20767932 -0.19837828 -0.6152821 -0.47675264 -0.23577008 -0.3974192 0.53113526 -0.4839862 -0.04996721 -0.38090816 -0.9126517 0.4533676 -0.1945884 -0.19470407 -0.2932064 -0.006109472 -0.35705417 -0.29039788 0.017785156 0.24031766 -0.00472994 -0.5667997 0.76266307 -0.057427336 0.68156433 -0.12836106 -0.24496919 0.10674158 -0.11875684 0.5297722 -0.0497564 0.10225924 -0.24516757 -0.10160153 0.23041089 -0.09486125 0.022738388 0.38498798 0.32076046 -0.21224955 -0.29177397 -0.42766425 0.29853863 0.3903916 -0.08290345 -0.27793652 -0.11573758 0.16417736 -0.07825436 0.3988987 -0.961322 0.011934344 -0.3395811 0.00641329 -0.00171782 -0.068447284 -0.45653796 0.42258066 0.3991563 -0.15940043 -0.09675983 -0.055620838 0.019534005 0.35345155 -0.7158812 -0.16147433 0.20409203 0.062005293 -0.34117836 0.32608828 0.077551305 0.25647512 0.009247275 -0.0006592008 0.18430872 0.21016142 0.24701008
5348 -0.43652385 0.16358271 -0.35097837 -0.32693437 0.18267398 0.33458257 0.26772925 0.7965661 0.31437308 -0.08564651 -0.2822327 0.46817487 -0.7016163 0.020484872 0.44588673 -0.035579853 -1.0210553 0.30200016 0.07274267 0.5224284 0.21970926 -0.20189275 0.2828702 0.16250242 0.62844425 -0.33018458 0.25177008 0.26842552 -0.17363915 0.416863 -0.51557815 -0.14082591 0.81430864 -0.69062287 -0.019647587 0.5112789 -0.47725788 -0.058064044 0.30856365 0.34487358 0.3298885 -0.116535105 -0.12440364 0.08078324 -0.15634161 -0.40213308 0.44146004 -0.103245065 0.11968305 0.26666862 -0.21836475 -0.08686662 0.11992044 0.17057602 -0.6950861 -0.59569097 0.06887198 0.005835435 -0.33912343 0.26413777 0.6797931 0.02823981 -0.3903878 0.28412077 -0.34375596 0.19758317 0.6322858 0.09354986 -0.010091142 1.009299 -0.42462698 -0.12768707 0.52247643 -0.5833168 0.37456062 -0.0497772 -0.76931727 0.44127196 -0.058283407 -0.7137766 0.12298752 0.3061995 -0.1889298 0.40196776 0.6603278 0.4128085 0.018353356 -0.23658149 -0.2617698 0.24653858 -0.29003507 -0.19629648 0.030790914 -0.43929097 0.28701866 0.7586725 0.41997755 -0.238026 -0.15479708 0.14833707
3218 -0.09747505 -0.11024413 -0.5512763 -0.33776724 0.21527539 0.662122 0.13801336 0.38024592 -0.313759 0.42705154 -0.758987 -0.45339832 -0.22630967 -0.17250545 -0.03651743 -0.11856623 -0.7884003 -0.5568331 -0.25268954 0.032034233 0.36407816 0.49069 0.3253836 -0.11787483 -0.002100959 -0.0005543718 0.0902203 -0.024061011 -0.20560847 0.28719053 0.32214385 0.13127439 0.42589873 0.33625245 -0.054208312 0.45311314 -0.07777397 -0.78256977 -0.21190928 -0.06740032 -0.057771653 0.2620277 0.1215181 0.3914376 -0.23662639 0.54224765 0.14939743 -0.19950886 -0.3243967 -0.20292819 0.19667351 0.123550534 -0.05724094 -0.3608912 0.31397682 -0.405372 -0.32237977 -0.23843029 0.31569183 -0.03291773 -0.06613927 0.17690995 -0.7021562 -0.19348492 -0.26595134 0.67851764 -0.23008998 -0.3810296 0.46890768 0.5191883 -0.20824257 0.20268674 -0.08211064 0.15092199 -0.25996354 -0.58836263 -0.13805443 -0.18710695 -0.3646012 -0.15519913 0.55416995 0.7706743 -0.14257132 0.41325596 0.1363436 -0.029213086 0.3030886 -0.11818324 -0.5164323 0.08274668 0.7155973 -0.4340591 0.26695058 0.14602928 0.595242 0.3214004 0.16727322 0.017606234 -0.48530516 -0.13609901
35061 -0.039209444 0.5688676 0.24689023 0.07085472 0.5356639 -0.1569552 -0.08516624 0.5102771 0.32200786 -0.34332958 0.31235936 0.057263296 -0.011826927 0.3015826 0.62925184 -0.5025102 -0.27686134 0.08558961 0.06835126 0.020682665 0.2723354 0.15495175 -0.5764199 -0.39900637 -0.041766763 -0.2911593 -0.23082414 0.016588323 -0.6129725 0.12426181 -0.08930128 0.21611138 0.05177905 -0.26227117 0.12756762 0.012357902 -0.06118754 -0.03066045 0.18470724 0.17958571 0.328776 -0.23926184 0.11312545 0.18864906 -0.0936771 0.79959303 -0.48863247 0.38592267 0.08104679 0.10468365 0.48302522 0.019552823 0.6887188 -0.011281828 -0.044763207 -0.20941792 -0.30205426 0.31036037 -0.07733048 0.064340115 0.36504993 0.107578 -0.0765069 -0.14569823 -0.011028963 0.7651022 0.50674105 -0.6297083 0.3062311 0.3721724 0.3336295 0.27629554 -0.0030305414 -0.5582466 -0.28675047 -0.3041184 0.41545412 -0.20076334 -0.15589777 -0.54250866 0.4383972 0.38254976 0.19937001 0.26668477 0.05840257 -0.0791215 0.17307879 -0.8764409 -0.38522127 0.14651623 0.081005566 -0.6499151 0.16517103 0.043307576 0.2681932 0.12753473 0.052888118 0.37191328 0.5002094 0.6046175
10177 -0.5982418 0.35587245 -0.4141085 0.2762873 0.08159252 0.63503253 0.43389627 -0.07388844 -0.22710347 0.5974678 -0.1901591 0.06355285 0.32814065 -0.3239226 -0.30069447 0.05999858 -0.36154494 -0.14060932 0.19681479 0.07123226 -0.01946997 0.57837635 -0.1590219 0.48404452 -0.40214399 -0.35572913 -0.7151093 -0.7226597 -0.15952556 0.050504092 -0.026070746 -0.3072006 0.59049046 -0.52339244 0.12494178 0.60918933 0.10648166 -0.7918479 -0.5153324 0.31984478 -0.12758915 0.30945352 0.3350771 -0.17855142 -0.3378323 0.47402835 -0.03664187 -0.26408365 0.3078283 0.2576583 0.12393667 0.16606237 0.18234417 -0.5653952 -0.8332489 -0.49442577 -0.31911308 -0.013999 0.12521994 -0.10438851 0.14890078 -0.05060182 -0.53610903 -0.059298757 0.3898851 0.2351872 -0.3070303 -0.13208358 -0.1038004 0.035514522 0.02035092 0.42266074 0.71321833 -0.10642741 0.34104246 -0.09422226 -0.33973172 -0.015892873 -0.060844533 -0.4319637 0.09331078 0.27226597 0.66262424 0.64295244 -0.18596457 -0.56443226 0.19449784 -0.023896098 0.07201442 0.11533044 0.45049402 -0.03735772 0.5350504 -0.49710035 0.8618448 0.29680556 0.2536168 0.008553701 -0.15809363 0.3249515
35797 -0.34929073 0.3132063 -0.09102214 0.12095782 0.1741233 0.54674226 -0.23324287 0.6682691 -0.062074665 0.19619559 -0.14050192 0.48968086 -0.644632 -0.38688338 0.58949167 -0.39086053 -0.3601469 0.23463503 0.37602642 0.534315 0.19570865 0.3639007 -0.14810033 -0.27572763 0.2929814 -0.30159 0.32048488 -0.01229067 -0.604446 0.41606754 0.00548947 -0.22291161 0.5167987 0.13805819 0.14051594 -0.1308671 0.32788837 0.5778744 0.16440527 0.15416655 -0.008427085 -0.3534491 -0.053147614 0.33535108 -0.32704973 -0.24169819 -0.046174876 0.27407077 0.15505815 -0.24605301 -0.26464987 -0.28007764 0.37226623 -0.30642542 -0.17586362 -0.32845652 0.040094998 -0.07819554 -0.15088819 0.5531242 0.4170685 -0.1280607 0.30219916 -0.042682312 -0.07881795 0.5897307 0.40867 0.22533453 -0.3250894 0.21629012 -0.17024057 0.17965406 0.27756423 -0.4418189 0.00091682596 -0.23058145 -0.25397012 0.039336964 0.101324804 -0.32427245 0.43422058 0.673227 0.37508467 -0.07988796 0.1623755 -0.035711516 0.025331566 -0.2952552 -0.06979167 0.4517391 0.0918724 -0.08604714 -0.33799976 -0.12932102 0.7853857 0.4275203 0.13579488 -0.5734142 0.2639722 -0.07817763
54129 -0.028240906 0.57824737 -0.29860148 -0.017013138 0.64219415 -0.13990211 0.24220219 0.5547876 -0.18051293 -0.3808141 -0.67540395 -0.15921733 0.104565635 -0.24139957 0.36537343 -0.08700992 -0.29860097 0.1749836 0.36578646 0.8707517 0.2720355 0.16208346 -0.17990692 -0.20474918 -0.17271021 -0.19876052 0.08142965 -0.20952232 -1.0100844 0.43307802 0.04961082 -0.3040303 -0.6549903 -0.3744721 -0.050485205 -0.11324378 -0.29259264 -0.7841784 -0.08256569 -0.02151891 -0.43123925 0.10342104 -0.052206818 0.013601185 -0.45369828 1.0587907 0.062592074 0.5173604 0.3385957 -0.062004585 0.121250086 -0.26205808 0.6891234 0.14202507 0.23105098 -0.38263753 0.035699856 0.055142835 -0.023605693 0.11338173 0.12228808 0.08215382 0.17245658 -0.25270364 -0.59876245 0.004261847 0.28304684 -0.13698807 -0.4149176 0.055442415 0.34544215 -0.42144224 0.36649016 -0.7207778 -0.0008691385 -0.18326937 0.043628186 0.311118 -0.25561664 -0.751846 0.30879235 0.65103877 -0.0999005 0.44982642 -0.34650183 -0.4263639 0.7326015 -0.58982986 -0.1278848 -0.100922115 0.16040526 -0.20590176 0.5858377 -0.2144463 -0.33738023 0.15020466 -0.14618622 -0.46508747 0.3733346 0.41207916
28350 -0.19638316 0.7399168 -0.14586894 -0.24329178 0.8263077 0.19610187 0.12282905 0.47165158 0.12084759 -0.42271733 -0.18624878 -0.04699054 0.08307396 -0.29232 0.27245462 -0.42193177 0.059351765 0.040972043 0.5252287 0.268641 0.36939555 0.33286354 -0.14664076 0.32885626 -0.06405358 -0.06029574 -0.16947177 -0.14786753 0.041141927 0.07857412 0.3464387 -0.09020387 -0.558744 0.20306605 -0.14320908 0.30967826 0.23498724 -0.5943647 -0.002230514 0.28351885 -0.0032707895 0.018025527 -0.031196997 0.41639745 -0.34540302 0.3122949 0.4221232 -0.22220695 -0.012148805 0.71813583 0.39606673 -0.60780406 -0.48049578 0.06338277 -0.905824 -0.08820763 -0.07755846 0.16823398 -0.650643 -0.019257516 0.20587556 0.0852282 0.018903097 0.030344725 -0.05408303 0.3018419 0.51373947 -0.31192717 0.025853189 0.07831098 -0.2107681 0.2956478 0.39978623 -0.4804389 0.40944508 -0.50498265 -0.30326062 0.04896641 -0.28227586 -0.36333144 -0.12608534 0.552508 0.01241567 0.37639537 -0.27853596 0.047231495 0.04139699 0.0934172 -0.39714965 -0.2820581 0.18116336 0.24063371 0.5279585 0.047190126 -0.027759444 0.5488472 0.6986638 -0.53512305 -0.27525035 0.45294663
6910 -0.20815757 0.52740467 -0.6489981 0.010608604 0.25191447 0.7481343 0.15814649 0.44444138 0.5108564 -0.21350065 -0.2698426 0.15032725 -0.08446771 -0.41247374 0.34591302 -0.9391043 -0.18235946 -0.31344438 0.3582636 0.3336134 0.28687197 0.09719811 0.10406163 0.106512636 0.7106773 -0.92887414 -0.10979006 0.14689463 -0.3215059 0.2914642 0.1199016 0.69407713 0.17843665 0.1983376 -0.14773156 -0.06508837 0.23688161 0.002940144 -0.16558652 0.8575878 -0.23849732 -0.4950678 0.12800644 0.17561798 0.02762827 0.17936352 0.23125127 0.35526672 0.46121824 -0.3242247 0.5808404 -0.27805728 0.393521 0.15793177 -0.54465455 -0.44882956 0.38548806 -0.5339597 -0.21843825 -0.0010905603 0.95822334 0.09702671 -0.05399121 0.15803464 -0.21889822 0.39694196 0.31364143 -0.12393318 0.22110768 -0.4692835 -0.9900706 -0.055301007 0.28327763 -0.2540988 -0.7517708 0.38161895 -0.5865395 0.41393754 0.5845151 -0.6082105 -0.23792373 0.09355529 0.43587482 0.49951547 0.2037897 -0.053922232 0.49194425 -0.3329157 -0.11542708 0.40537423 0.39571482 0.27658296 0.4103412 0.05319919 0.37779644 -0.1116718 -0.24585134 0.1255489 -0.02164678 -0.09339078
38205 -0.1604817 0.62352467 0.059076387 -0.47830898 0.82270825 0.0406587 0.30154988 0.3328838 0.5424472 -0.2466208 -0.3748667 -0.42010543 0.05584258 0.103104725 0.48940483 0.094218925 -0.12957673 -0.0548383 -0.117524765 0.13131739 0.2442618 0.43494594 -0.26893815 0.11746557 -0.51693714 -0.5055914 0.01067823 -0.27890953 -0.677972 0.010676254 -0.23019257 -0.27235743 -0.3767056 -0.48735458 -0.33711374 -0.0777711 -0.005578226 -0.28041282 0.45814425 0.56763506 -0.2535559 -0.06588949 0.13714404 -0.10642154 -0.009028843 0.8563234 -0.10489084 0.26789927 -0.03232402 0.41815907 0.4221375 -0.087198354 0.45535135 0.015119202 0.34705177 -0.023893546 -0.12265571 0.13670085 -0.3503373 0.13341184 0.30577865 0.08996669 0.17335482 -0.2571891 -0.03815368 0.30137804 0.2760127 -0.07199479 -0.12969603 0.32030034 0.70668995 -0.24845465 0.30843383 -0.71520495 0.065711744 -0.44105175 -0.15211038 0.07592687 0.02047379 -0.49766752 0.6662661 0.53708017 -0.28870896 0.4714302 -0.11803977 -0.18168299 0.48298302 -0.15908901 -0.17444 -0.10223614 0.41446415 -0.38853577 0.26307636 0.061572105 -0.4779639 0.38892138 0.2494217 -0.19213937 0.31213388 0.270606
18777 -0.6195258 0.4284265 -0.59689784 0.21445587 0.33320862 0.21823168 -0.061402526 0.06539258 -0.62857515 -0.05036792 -0.07985998 0.026821556 0.26989445 -0.032689024 0.1939212 -0.041394424 -0.2950384 -0.34317583 -0.018466523 -0.36397663 -0.048342593 0.2778111 -0.22507077 0.33077347 -0.21932487 0.15927915 0.26291087 -0.04065483 -0.69385624 0.41118732 0.3307088 0.4456462 0.113023214 -0.13218135 -0.20250498 0.37169304 0.3117172 0.07887426 -0.6146076 0.5414114 0.16590488 -0.031286016 0.6789305 0.3665948 -0.2035122 0.4143912 0.30010796 0.28382757 -0.32270506 -0.12921686 -0.07362413 -0.26089513 -0.67522544 -0.15729173 -0.5087271 -0.45144284 0.06097806 -0.6009013 -0.34462786 -0.1120758 -0.020721301 0.053894807 0.22620833 0.19920157 -0.29120108 0.050307386 0.56692004 -0.35850233 -0.5401305 0.34713936 -0.21404266 0.08374912 0.21694008 -0.3830957 0.18232891 0.14366286 -0.4161009 0.42475903 -0.46500963 -0.509281 0.5771741 0.51500773 0.73270696 0.11149902 0.24453267 -0.5358574 -0.1449313 0.29924095 0.0808105 -0.32537752 1.1172158 -0.24675357 0.28574598 0.014464203 -0.39142022 0.32260206 0.32916132 -0.066069424 -0.44238606 0.09343444
2654 -0.026570955 0.7398978 -0.6306426 0.341627 0.35735312 0.48530507 -0.24551052 -0.18770756 -0.20130584 0.24779783 -0.6275666 0.4537857 -0.1069332 -0.28077728 -0.19332074 -0.3238097 -0.6032247 -0.17916799 0.016571576 -0.10055436 0.7462147 0.51735985 0.081336334 0.31578657 0.090695515 -0.4152213 -0.10147211 -0.41109982 -0.2993978 0.8288132 0.18507634 0.52185255 0.26619142 -0.1472416 -0.27532646 0.5947115 0.29714054 -0.036226284 -0.38207263 0.57499015 -0.20810518 -0.54243803 -0.24358802 0.07089133 -0.100553766 0.3856787 -0.37860885 0.019513654 0.30346236 -0.12829787 -0.41874543 -0.018597981 0.19453824 -0.3829771 -0.23870131 -0.3882961 -0.4112716 -0.5829888 0.31450504 0.8109319 0.3158899 -0.26124087 0.05675285 -0.46494663 0.10780577 0.18216853 -0.08249068 0.035648514 -0.19208059 0.6319556 -0.20591073 0.4152325 0.036883935 -0.15425609 -0.34184903 -0.040492494 -0.08379614 -0.20118624 -0.3811534 -0.14656827 0.007859686 0.1891924 -0.26311755 0.07995737 -0.1555364 -0.03021818 0.46146253 -0.27918404 -0.011843192 0.46278784 0.2451344 0.710667 0.3032658 -0.26457432 -0.117997974 0.20759119 -0.115803726 0.034590688 0.057282794 0.23466039
89547 -0.58519 0.9820147 -0.38024643 -0.30558005 0.35821512 0.1907776 -0.23873165 0.41500896 0.15279263 0.20174687 -0.4755578 0.3481728 0.368365 0.14751083 0.23393817 -0.13002749 0.0689614 0.114211775 0.08209094 0.07228191 0.20166332 0.4607974 -0.05363118 0.2151585 0.25844157 -0.075665586 -0.30784807 -0.82215047 -0.35805333 0.014946007 0.059280984 0.07205787 0.26137072 -0.39539412 -0.38807547 0.62036014 0.33051538 0.09144777 -0.13102852 0.43819094 -0.11553285 0.18869567 -0.24357101 0.33072403 -0.07001596 0.21581827 -0.44816372 -0.39224178 0.38853717 0.29320145 0.083143964 -0.37260684 0.31451598 -0.18363005 -0.59285647 -0.2888919 -0.09417626 -0.15159166 -0.28485683 -0.37651965 0.040921506 0.22677733 -0.2545657 -0.0029119353 0.24780132 0.16472629 -0.10244201 -0.07465653 -0.10715372 0.18962216 0.10945691 0.9297267 0.15950345 -0.58106625 0.34862763 -0.30204728 0.14622016 0.021938939 -0.8080939 -0.39175045 -0.34471357 0.17886606 0.10442189 0.4594237 -0.23896158 -0.7641149 -0.0033491761 -0.11224408 -0.35940456 -0.30044517 0.2513805 0.051284906 0.44958648 0.21303855 0.3677138 -0.16539083 0.72952026 0.26472914 -0.29956892 0.5594884
153063 -0.3807225 0.16228646 -0.7227605 -0.49802932 0.43677118 0.750806 0.11452962 0.34333065 -0.21751198 -0.04862941 0.3312006 -0.080858216 0.18444677 -0.24602504 0.21605211 -1.1974087 -0.1642846 -0.4366444 1.1950492 -0.09520454 0.08110406 0.24551608 -0.003987329 -0.27425563 -0.20954919 -0.6357545 0.13371667 -0.47582078 0.086527795 0.6883571 -0.37930962 0.37319204 0.16289978 -0.3897918 -0.053339235 0.2878022 -0.71552217 -0.07322541 -0.46957773 0.7837075 0.109669544 -0.086050995 -0.08155272 -0.16869865 0.017412882 0.23812108 0.75448054 0.14361869 -0.23361523 0.01756209 -0.2907095 0.10629056 0.19440354 0.13714348 -0.49054956 -0.56039053 0.0072395755 -0.38369852 -0.35498637 -0.005318037 1.4085386 0.36462227 -0.28088963 -0.31426626 -0.0627091 -0.3344701 0.55826443 -0.5608891 0.10904499 0.10950302 -0.256951 -0.25084594 0.3110071 0.080665536 0.01912799 -0.49980566 -0.33629447 0.18551958 -0.21995638 -0.774738 -0.46381035 1.1481916 0.31837186 1.1738535 -0.014482755 -0.15901548 0.04578172 -0.16991578 0.57788503 0.5609249 0.25057456 -0.4827553 -0.5580549 -0.12406609 -0.54788333 0.31862232 -0.28097245 -0.03973573 -0.29323766 0.27501622
5086 -0.44051254 0.07228325 -0.651426 -0.09403968 0.7489687 0.59807384 -0.24728578 -0.14169517 -0.59562624 0.10440538 0.01249434 0.31041756 -0.12054944 -0.27399433 0.33838016 -0.8192248 -0.121533476 -0.32981125 0.35379782 -0.10029169 0.017079955 0.20949061 -0.35315913 -0.1312757 -0.22201762 -0.27445796 -0.34744632 -0.073474675 -0.51071244 1.0539175 -0.35984424 0.59678173 0.026455732 -0.11003053 -0.15854554 0.29529905 -0.33318642 0.6397357 -0.5989234 0.8037591 0.17674531 -0.06958533 0.06512203 -0.17933363 0.08836864 0.020322092 0.36965337 0.065427236 0.23304498 0.066781655 -0.35539046 0.1951473 0.122600324 -0.15388933 -0.6863277 -0.95564324 0.48359954 -0.33967447 -0.11275766 0.2143048 0.73092693 -0.2935542 -0.23775241 -0.1385901 -0.16894075 -0.37172142 0.35495424 -0.5241242 -0.27947134 0.44219005 -0.39638588 -0.39036486 -0.030667247 -0.15573089 0.024068335 -0.2773104 -0.112443395 0.19619933 -0.25232086 -0.41746253 -0.20169404 0.46485034 0.2869781 0.56702983 -0.43232155 -0.2700591 -0.22581913 0.0026954971 0.23677543 0.10386454 0.633846 -0.16982017 -0.3974792 -0.42888668 -0.33917874 0.005258077 -0.14027832 -0.69929445 -0.31304273 0.15597725
17476 -0.49449828 0.41780037 0.038883943 -0.42947575 0.70532674 -0.12055832 0.035111066 0.32266423 0.43928775 -0.47776538 -0.37327635 -0.42264095 0.11533587 -0.114490144 0.29003105 -0.15812087 -0.02742237 -0.22496708 0.35103142 -0.15187936 0.047219608 0.32321677 -0.09782274 0.124414265 0.118639156 -0.049384583 0.19010255 -0.08681436 -0.63642883 -0.049746655 -0.05923745 -0.026853008 -0.26618987 0.16364339 -0.0049306615 0.09292612 0.39348906 -0.5770497 -0.34230933 0.19852771 -0.095075235 0.6543517 0.6419457 -0.098978065 -0.4808503 0.65617716 0.34639978 0.09841573 0.07972484 0.29514444 -0.11615121 -0.10162617 -0.02169449 0.017027434 -0.14734286 -0.7481935 0.2734385 0.18402481 -0.054303385 -0.24603267 0.07270971 0.34741178 0.43562296 0.15184154 -0.3376037 0.04881368 0.3085567 -0.51314986 -0.5242613 0.3398949 0.511761 0.030550536 0.24918821 -0.03518601 0.2649906 0.05663242 -0.013033055 0.30410355 -0.1995626 -0.5956918 0.2474714 0.6712988 0.77050966 -0.05824966 -0.10447897 -0.07599609 0.2533476 0.07612446 -0.099682294 -0.15248285 0.62934625 0.0124940025 0.3078534 -0.13592389 -0.39668766 0.7653168 0.6017594 -0.40423587 -0.31599203 0.27897575
3243 -0.4203004 0.51870686 -0.4045149 0.071981445 0.32986796 -0.10609467 -0.49946287 0.7598033 -0.071377486 -0.3435668 -0.32048306 0.7727653 -0.20588201 -0.5180706 -0.049274437 -0.33279982 -0.46977925 -0.59489715 0.27864486 0.09765262 0.23464876 -0.0127294045 0.5116641 -0.02843423 -0.20912646 -0.14017758 -0.16707654 -0.405945 0.13954592 0.11076369 0.048249375 0.4038141 0.6380787 0.24852526 0.46993792 0.17111832 0.56138617 0.119714916 -0.25260103 0.2546968 0.1791354 0.05993325 0.5529049 -0.33575803 0.012573588 0.14130804 -0.13012922 -0.15209706 0.47852755 0.06300785 -0.1553423 -0.2935056 -0.24410048 0.039961305 0.26174453 -0.38185427 -0.8225554 -0.10610585 0.050376832 0.13631195 -0.049430456 -0.15109864 0.03532976 -0.2961794 -0.11766273 0.21092662 -0.28851607 0.37098578 0.18687525 0.120694414 -0.50096744 0.6641452 -0.13150677 -0.10495795 -0.13769162 -0.31009945 -0.30105603 0.3615804 -0.24116679 -0.28662297 0.09165919 0.79230076 -0.14019437 0.39710715 0.08681137 -0.30939975 0.1976742 0.15331054 -0.39869425 0.08147545 0.21777987 0.3161077 0.80839723 0.05467791 0.036994692 0.19096607 0.36085021 -0.35229978 0.14566603 0.7155259
1956 -0.12238441 -0.3080326 -0.2447093 -0.15120187 0.308067 -0.18919018 0.2757202 0.17672552 -0.25295874 0.019222844 0.042995375 -0.032431014 -0.10031897 0.1243064 0.47562394 0.0751394 -0.54143125 -0.10760887 0.13639982 -0.007893191 0.13332132 -0.020588178 0.57692283 -0.5202963 0.22104816 -0.46048823 0.14441678 -0.1638344 -0.7245406 0.5697786 -0.38638318 0.47015414 -0.029706614 -0.5488104 0.18728414 0.096141644 -0.27510387 -0.24518299 -0.5106268 -0.30355933 0.15937114 -0.10143187 0.0046107047 0.30525243 0.08773416 0.8665855 -0.5526962 0.46799275 0.42684418 0.06595823 -0.26761395 0.21817444 0.6283992 0.5254748 0.13041455 -0.04727243 -0.2662422 0.1337189 0.41339314 0.12970772 -0.040150966 -0.06660818 -0.5933663 -0.12033504 0.39889908 0.20727392 0.13116488 0.11177761 0.34650868 -0.19583496 -0.15459679 -0.08940535 0.5269647 -0.14513743 -0.2730982 -0.22711815 0.29882002 0.49490526 -0.77393913 0.0077067954 0.25360674 0.70278126 -0.1532611 0.53512585 -0.4933235 0.1658094 0.29039305 -0.3023208 -0.28176504 0.22442193 0.51260793 0.20400855 0.33099073 -0.12966534 -0.13161683 0.28039488 0.3887143 0.11337213 0.33033335 0.0860738
6913 -0.27948225 0.38221246 -0.2824723 -0.020731768 0.17407823 0.6389523 -0.008344186 0.12182832 -0.04160524 0.04961344 -0.4307686 -0.4370708 -0.10903003 -0.6084862 0.34497914 -1.0266548 -0.19546504 -0.27998662 0.24801366 0.1702879 0.6796528 -0.045715142 -0.03860509 0.2582039 -0.2987955 -0.7140199 0.14851168 -0.15099962 -0.3002227 0.36535993 0.2299592 0.12847842 -0.04600481 -0.3344061 -0.20310646 -0.08378375 0.43793654 0.16943002 -0.29861283 0.50838995 0.3615167 -0.44184217 0.14831895 0.07681462 -0.15295798 -0.046898596 0.32172477 0.76410234 0.0387957 -0.0216237 0.012515744 -0.2653031 0.4414659 -0.15602955 -0.7529117 -0.35501134 -0.040115595 -0.8293188 -0.37231576 -0.25956932 0.7554485 -0.11664408 -0.28485492 0.02012021 -0.14829415 0.2911831 0.4189537 -0.002206367 -0.1293517 -0.09719157 -0.5166936 -0.16689926 0.4472687 -0.3156687 -0.30317572 0.8390871 -0.3261973 0.5689213 0.1382105 -0.51222944 -0.11698155 0.12855768 0.18714835 0.098847374 -0.20507532 0.039763696 -0.049154405 -0.45643395 0.05181509 0.4606857 0.51058286 0.19160803 0.15188135 -0.41279927 0.44904134 -0.06907674 -0.189389 -0.49563518 -0.22037399 -0.22114487
65074 -0.8129081 -0.27595368 -0.91598076 0.025744526 0.35403892 0.7920137 0.32159504 0.24339667 -0.6874619 0.53195727 -0.30084276 0.029576404 -0.107832655 -0.45219907 0.15882443 -0.043482643 0.04786123 0.25439066 -0.26164252 -0.09711486 0.37117413 -0.01666947 -0.6242527 -0.28112093 0.31618473 -0.5835834 -0.7550366 -0.18037331 0.37275046 0.50427896 -0.7640731 0.70644236 -0.45151556 -0.08008064 0.07669214 0.7222463 -0.11524408 0.20810637 -0.3113478 1.0210245 -0.048678182 -0.77993155 0.18703602 0.1206802 0.55690056 0.7859864 0.27225465 0.22461003 0.5531986 0.1158896 -0.16179846 0.60283077 0.034684975 0.16372204 -0.93791765 0.23403433 0.544194 -0.09837641 -0.46549943 0.68328726 0.80682343 -0.17187789 -0.86765325 -0.08988808 -0.33264333 0.16625535 0.6517615 -0.0071484204 -0.029160894 0.001899877 0.22549842 0.3354766 -0.0075208526 0.21990144 0.035054203 -0.41585472 -0.4319055 0.7605262 -0.051873393 -0.23577203 0.49038294 0.78854483 0.41398954 0.993981 0.29411268 -0.44718954 0.70413077 -0.062193487 -0.47756988 0.35545197 0.9492088 -0.5740151 0.38036907 0.3465686 0.12950864 0.42894962 -0.160511 -0.3137106 0.09049845 0.5427544
36140 -0.632073 0.39542824 -0.7913851 0.08589423 0.05573431 0.1413184 -0.4570614 0.3068947 -0.10994398 0.46190214 -0.63185656 0.5002397 -0.5988682 -0.4472328 0.24383275 -0.7127955 -0.69202536 -0.039597474 0.21752836 0.05486705 0.0029503966 0.32059535 -0.15586804 -0.09528101 0.0628609 -0.3559299 0.1121591 -0.53659683 -0.4061229 0.53468984 -0.4378477 0.6128685 0.3626565 0.3691364 0.25864634 0.4838332 0.40920722 -0.039948735 0.1561124 0.19022311 0.2901717 -0.11388371 0.092715606 0.5613131 -0.39372817 -0.36187607 -0.24211396 0.048271094 0.12737194 -0.3061028 -0.2020759 -0.075775415 0.3944927 -0.48280984 -0.15912203 -0.20365761 -0.20392458 0.06473444 0.20863971 0.47318396 -0.3257291 -0.003318894 0.22916831 -0.05241056 0.41410962 0.62842435 0.17500322 0.21918203 -0.013112964 0.58068776 -0.19774589 -0.008388133 0.27423137 0.19110663 -0.24608968 -0.21043763 -0.74145603 -0.075794786 -0.1196215 -0.10173615 0.108165875 0.5443731 0.15953799 -0.07499692 0.14482392 0.1899858 -0.07821728 -0.034102023 -0.3141045 0.5133336 0.25306895 -0.0323674 -0.06865173 0.23078716 0.35357362 0.2349274 0.3647453 -0.3911928 0.1431609 0.10070577
46491 0.059663493 0.20323242 -0.87212 0.04689719 0.10382235 0.60672706 -0.36976895 0.9551656 -0.3183624 0.70697325 -0.62660265 0.035339758 -0.00604255 -0.1777267 0.3859128 0.3148629 -0.51755524 0.07331141 0.07629865 -0.19251272 0.20257029 0.6541344 0.23682949 -0.32768515 0.4371289 -0.41442937 0.392128 -0.020749008 -0.7982497 0.6475281 0.025035981 0.3405418 0.6015997 0.022417253 0.049315937 0.3254405 0.09034344 -0.21048343 0.19173989 0.039600234 -0.54194933 -0.15312956 -0.055153586 0.5503892 -0.25945935 0.50994956 -0.05115696 -0.33323163 -0.08940677 -0.12346072 0.20858775 0.054342408 -0.21103612 -0.30986443 0.07770137 -0.35924098 -0.43846816 -0.17326199 -0.0450242 0.06342788 0.03953571 0.08137673 -0.18991305 -0.1541682 -0.16283591 0.33348912 -0.03124923 -0.012961609 0.17806625 0.0496526 -0.36372504 0.44978085 -0.06811997 0.01039626 -0.49670428 -0.23451272 -0.18577722 0.23594582 -0.6999035 -0.09066145 0.82404757 0.5025377 -0.15269682 0.32787478 0.042867377 0.33054826 -0.0021043874 -0.46814975 -0.61328864 0.09672049 0.16687772 -0.19218929 0.20560461 0.025104076 0.9499298 0.7751063 0.0070085637 -0.056075584 -0.012414569 0.2976685
31489 -0.6572044 0.61201125 -0.4941556 0.032381453 0.22684354 0.5320279 0.35656965 0.6704332 0.53504676 0.12447751 -0.18251073 0.507584 -0.02789508 -0.4711825 -0.053443886 -0.8275708 -0.13696525 -0.19113068 -0.12797101 0.83694136 0.12533805 -0.24725801 0.13867961 0.08554301 1.0452232 -0.7704266 -0.39200613 0.4459657 -0.1739796 0.37474692 -0.53208554 0.39797175 -0.30442917 -0.14731848 -0.03906113 0.6653302 0.31444383 -0.2853017 0.22212563 0.92598057 0.057125792 -0.56189936 0.04358561 -0.05501419 0.29810193 0.22236748 -0.14616457 0.18710965 0.18361446 -0.08968802 0.35748148 -0.09414574 0.21480872 0.3259209 -0.07451284 -0.6498986 -0.054254647 -0.25938332 0.24060783 -0.3636086 0.9185681 0.19872424 -0.053128783 0.07498789 -0.3693598 0.46251446 0.5288495 0.31447285 0.223873 -0.039023545 -0.9581328 -0.31554577 0.07595498 0.10315706 -0.3292292 0.3425572 -0.9431 0.3343502 0.5673228 -0.61989915 -0.025939416 -0.23112361 0.097768374 0.6158001 0.07254248 0.09067517 0.9231433 -0.2735234 -0.7254448 0.14538045 0.22462822 -0.02942725 0.35861555 -0.5090792 0.30777395 0.33697897 0.09920591 -0.020774951 -0.2285821 0.26251653
41714 -0.08697245 0.59767866 -0.10230056 -0.19998093 0.5134899 -0.2766858 0.30296543 0.20485955 0.114964075 -0.12525004 0.18305507 0.1070531 0.027302785 -0.007852017 0.5227831 -0.030591879 -0.3393734 0.07008767 0.06946046 0.56723166 -0.14071941 0.3178158 0.016682945 -0.3576392 0.04120174 -0.45553327 -0.29908282 -0.49127614 -0.6326074 0.430531 -0.4371546 0.11024414 -0.3817501 -0.390482 -0.5904428 -0.4742636 0.0594013 -0.187602 0.140776 0.042717613 0.058382567 0.31751123 0.54756266 -0.37520486 0.07009481 0.77183163 -0.42905492 0.30479103 0.23846577 -0.26401082 -0.09055265 -0.08737315 0.4506982 0.4794892 -0.20344122 -0.48090994 -0.4010361 -0.15431887 -0.4203581 0.23714915 0.3851749 0.15056862 0.027110476 -0.34892845 -0.20537099 0.50868523 0.39703646 -0.5118243 0.27732944 -0.129024 0.76094913 0.41646343 0.07481044 -0.32003307 -0.2597558 -0.02452768 -0.12272273 -0.04956537 -0.29104227 -0.749402 0.5536728 0.6960976 -0.058841456 0.40616414 -0.19418043 0.05509859 0.6076586 -0.545194 -0.074875265 0.36415184 0.352873 -0.32256034 0.033664316 0.10603734 -0.088035114 0.16129762 0.06275293 0.14590476 0.27316338 0.20045888
79809 -0.30696818 -0.09403813 -1.0034047 -0.05855776 0.77462804 0.27846223 -0.5653071 -0.055328574 -0.020286046 0.30203703 -0.2729542 0.14253703 -0.19662659 -0.0775315 0.32768494 -0.15356866 -0.4950586 -0.18683451 0.37152544 0.030534493 0.15900372 0.102210596 -0.46178097 0.26105955 -0.29382077 0.3290764 0.2657927 -0.721677 -0.72817796 1.1621194 -0.11868676 0.52894765 0.37952873 -0.27222148 0.007965166 0.15318781 -0.07341564 0.36716262 -0.37802052 0.58370495 -0.05981948 0.12568305 0.51276237 0.020171903 -0.23982055 -0.13198586 0.30800653 -0.12453743 0.06220811 -0.38640663 -0.102729194 0.034769017 -0.32442465 -0.23664995 -0.3805073 -0.69101566 0.2226018 -0.46778628 0.28277603 0.12953179 0.46320534 0.3820849 0.13461463 0.14283848 0.03458118 -0.11428092 0.419707 -0.62067306 0.00860904 1.0577509 -0.37948903 -0.21896578 -0.4499734 -0.37436354 0.33092532 -0.31970805 -0.27815852 0.051749013 -0.06277754 -0.29253358 -0.264562 0.52228713 0.5179359 0.36052528 0.114834316 -0.35295802 0.08361649 0.1565813 0.12483775 -0.14659606 0.7681055 -0.22210999 -0.12885256 -0.75660414 -0.44474483 0.37421918 0.14460197 -0.41501597 -0.37787902 0.14673957
22229 -0.53823435 0.74437433 -0.22926854 -0.24730515 0.4646742 -0.11032317 0.07588512 0.6890597 0.1851274 -0.38845333 -0.26876393 0.04046211 0.28349194 0.46562833 0.26942632 -0.65467805 -0.39727545 -0.007059146 0.29460508 0.30315763 0.2156449 -0.02303241 -0.21903242 -0.50661814 -0.19207053 -0.22327308 -0.12798098 -0.1687227 -0.40787786 0.3345476 -0.6424047 -0.17770612 -0.34376344 -0.4646926 0.08452228 -0.042878103 0.23232587 -0.2976263 -0.04032509 0.27504653 0.33331195 0.0048218477 0.10269109 0.36268026 -0.027007045 0.74191856 0.08181822 0.69806945 -0.403645 -0.2570884 0.09268006 0.10378938 0.67105794 0.16152564 -0.19443615 -0.30842835 -0.40821996 0.7995033 0.0023376837 0.2710213 0.36047292 0.15122703 -0.18549909 -0.5340714 -0.28845948 0.79075927 0.2984976 -0.617571 0.1090663 0.023827326 0.43139908 -0.14761044 0.14478031 -0.3536228 -0.42158723 -0.26977462 0.2609646 -0.1625207 -0.26540872 -0.4430202 0.4244924 0.69225854 0.09421531 -0.20964503 -0.012862842 -0.3607767 0.23687413 -0.89050025 -0.24565086 -0.017988369 0.039720066 -0.56090575 0.24510606 -0.2401321 -0.17748211 -0.0629197 0.103053 0.08487885 0.50022525 0.3490598
3233 -0.25771114 0.5234773 -0.25297117 -0.18936165 0.31856617 0.3641696 -0.5071596 -0.051279355 -0.21855289 0.20735975 -0.531435 0.5203542 -0.23295814 0.07064303 0.14828596 -0.18196212 -0.056396924 -0.072360575 0.05862854 -0.35336486 0.8873522 0.3110254 0.36810258 0.26322275 0.124757506 -0.24276565 -0.25845373 -0.4991543 -0.21929829 0.6586211 0.1080211 0.0485173 -0.093594104 -0.20071948 0.0059142215 0.5989657 0.2726025 -0.24424611 -0.070086546 0.2078627 -0.017973663 -0.15842299 -0.2424905 -0.008328837 -0.31311482 -0.12727785 -0.27710798 -0.47084114 0.3722067 0.19633427 -0.23542085 0.04315671 0.44347197 -0.36153188 -0.39029342 -1.1079059 -0.0133363465 -0.17383598 0.17201543 -0.024549142 0.2921376 -0.33078122 -1.0010967 -0.21830373 0.2581076 0.36441007 -0.08434096 0.26671594 -0.49549448 0.31948447 -0.53058237 0.16371222 0.29069972 -0.081209555 0.03881298 -0.10329117 0.31414184 0.026624648 -0.25126538 -0.03826924 0.3617979 0.16750917 -0.26151296 0.49956653 -0.38143116 -0.6572535 -0.13134639 -0.07406602 -0.17683043 -0.075145856 0.4528364 0.23541169 0.67217666 -0.11266679 0.4874465 0.048415255 0.30889854 -0.045425415 0.057273477 0.009629158
6163 -0.44354498 0.4869576 -0.48862457 0.043029487 0.8307669 0.16259839 0.35481423 0.5004432 0.06110809 -0.8803903 -0.07307778 0.27273184 0.02071697 -0.017797412 0.433147 -0.26986876 -0.051515438 -0.42102242 0.1868524 -0.14304237 0.0052906866 -0.16415389 0.0099078575 -0.191435 0.04203693 -0.10964503 -0.13050571 -0.08480111 0.12601648 0.34671926 0.31806082 0.25110537 -0.09547013 -0.14266872 -0.23902833 0.15605141 0.24888909 -0.33657265 0.017301023 0.083725184 0.26849493 -0.22268517 0.43643135 0.36866057 -0.2680462 0.39756218 -0.16374442 -0.19760692 -0.08838646 0.3305898 -0.13438843 -0.45266905 -0.2525802 0.65632653 -0.4924045 -0.061367687 -0.18566705 0.0740477 -0.57329094 0.11753848 -0.32972923 -0.16415386 0.083280444 -0.04864527 -0.35317641 0.3202294 0.48000106 0.09592312 -0.17437586 0.1708089 0.051982254 0.07549477 0.1417476 -0.6215547 0.28011966 -0.44057044 -0.40936044 0.22646 -0.09169755 -0.2923355 0.1758234 0.64919144 -0.23645099 0.2312187 -0.18677823 -0.20924379 0.22676767 0.19837642 -0.031050485 -0.21185072 0.32811892 -0.04222127 0.66593766 0.22453958 -0.073854454 0.10364645 0.9209749 -0.63853997 -0.17647359 0.48511377
287787 -0.23641202 0.1860672 -0.23854487 -0.15308274 0.6851095 0.1161416 0.4034152 0.3484995 0.18939862 -0.12413249 0.049771734 0.44897848 0.43521753 0.17671473 -0.24407294 -0.07904847 -0.41272146 0.28757313 -0.6774864 0.22737236 0.034072742 0.4410415 -0.026630167 -0.775564 -0.08898618 0.2635167 0.018039173 -0.09207606 -0.67956436 0.21370922 -0.1358187 -0.11885658 -0.26326883 -0.31371498 0.41896492 -0.2835855 -0.3303623 -0.3662316 0.30215812 -0.06675064 -0.55060136 0.1869582 -0.106056765 0.45730752 0.023862882 0.56705606 -0.13841905 0.67063236 0.26998368 -0.00061711925 0.038535606 -0.1978782 0.2909143 0.12447865 -0.34968582 -0.4402927 -0.059288457 0.20147713 0.12251872 -0.102913745 0.44097787 0.18143934 -0.008260291 -0.2165861 -0.12305596 0.6130861 0.09134509 0.0023586724 -0.03767595 -0.062681764 -0.005379786 0.16453132 0.66790426 -0.86483043 -0.09241182 -0.25428334 0.006631826 -0.2658 -0.50424707 -0.63570887 0.32301039 0.6804353 0.04064597 1.0186566 0.08865907 -0.3070486 0.70433867 -0.43105787 -0.19166292 0.12278378 0.32713783 -0.32480538 -0.1316487 0.049744304 -0.08778348 0.28063682 0.1924011 -0.10156217 0.649807 0.116147555
20601 -0.61437637 0.39459202 -0.2213296 -0.0171235 0.09944536 0.5102928 0.2091545 0.02515899 0.39441046 0.6898654 0.028291142 -0.18126401 0.68741864 -0.12423528 -0.1730061 0.20898436 -0.6923115 -0.34094143 0.20483734 0.4575523 0.06386918 0.7185124 -0.36614946 0.25593555 -0.5226062 -0.5509927 -0.22188762 -0.91364896 -0.2887947 0.34377968 -0.53480583 -0.23564422 0.7054635 0.008632491 0.34749627 0.80777895 0.0005685821 -0.53886324 -0.51814455 0.591159 0.1357738 0.16292515 0.3967344 -0.3398269 -0.109797165 0.4102713 -0.0812714 0.015911218 0.16143699 0.294455 0.4049659 0.077638745 -0.018114176 -0.31862846 -0.60054046 -0.4677289 -0.5023842 -0.20109014 -0.13643074 0.17305768 0.13791712 0.26542684 -0.38587466 -0.15247972 0.7056906 -0.0005259423 0.07015051 0.25466064 -0.035774667 0.037368335 0.11397258 0.0972948 0.49781063 -0.15110461 -0.06218077 -0.1306206 -0.28910074 -0.16549446 -0.36975855 -0.42115834 -0.017255813 0.3887567 0.80578935 0.43453974 -0.005358838 -0.8558682 0.020409292 -0.16657837 -0.120620474 0.38303572 0.120297715 -0.25969616 0.30178162 -0.39340925 0.31267512 0.47336754 0.020457497 -0.24266312 -0.011338253 0.36715785
108047 -0.2994453 0.6657461 0.106863156 -0.14284106 0.8037755 0.124300726 0.026853312 0.55763775 0.27496743 -0.32227683 -0.5439295 -0.59729624 0.21911915 0.10720444 0.5757029 -0.17577018 -0.32178408 0.03541997 0.118694976 0.6153879 -0.028222494 0.25857875 -0.12586567 -0.4163421 -0.37461573 -0.2843086 0.19815366 -0.54660887 -0.6330477 0.3406418 -0.14754848 -0.4335263 -0.37293115 -0.33080524 -0.026192809 0.08635172 -0.16821343 -0.7377946 -0.053956535 -0.058203317 -0.31087202 0.043434814 -0.040427517 -0.19673309 -0.33267152 0.77005905 0.12467004 0.47662503 -0.041803177 -0.069777906 0.43665418 -0.5135578 0.60197496 -0.21243025 0.3669854 -0.2632526 -0.49539512 0.25718814 0.049889505 0.2929862 0.2835922 0.22156458 -0.021432532 -0.5776868 -0.06697208 0.051103335 0.27220047 0.0036432275 -0.4540492 0.21697463 0.46056464 -0.46496177 0.026264599 -0.70919776 -0.1284659 -0.34273067 0.11107277 0.22842959 -0.069523595 -0.57975185 0.370082 0.5621869 -0.254842 0.7491359 -0.044014342 -0.8908859 0.51694417 -0.4628801 -0.060619444 -0.016561514 0.16358481 -0.41713142 0.2597014 -0.21348372 -0.30559236 0.47561565 -0.18384248 -0.19922669 0.45222223 0.41994187
56115 -0.46091515 0.6019714 -0.23843686 0.035163373 0.14630254 0.15787798 0.19734631 0.37158486 0.118651345 0.6192424 -0.20572573 0.044261742 0.015404831 -0.14061375 0.06349731 0.03632807 0.2468769 -0.3797879 0.14094673 0.36511222 0.5789267 0.36865917 0.086102664 -0.40645018 -0.03121089 0.20879114 -0.908808 -0.54864675 -0.24720356 0.36688972 0.090185784 -0.06516792 -0.9045217 -0.12190626 0.29743713 -0.3599302 -0.046149146 -0.5027899 0.12757385 0.26818654 -0.030116325 -0.05560829 0.15416376 0.12217441 -0.28893125 0.73764217 -0.3169134 0.24607208 0.049426872 0.17816661 -0.12431229 -0.05795974 0.3267168 -0.009714803 -0.39657357 -0.27078435 0.37325475 0.21609479 0.04763097 -0.065072715 0.21507646 0.22577591 -0.36918524 -0.06476137 -0.30446032 0.41272545 -0.07000858 -0.004661373 0.20223248 0.034848984 -0.1397526 0.5298464 0.3951261 -0.40580553 0.2690131 -0.23501436 -0.20405504 -0.14897878 -0.40002266 0.09837857 0.35420254 1.0764211 -0.1296425 0.5417196 -0.30053478 0.24495922 0.052818727 -0.5053817 -0.2363313 -0.24613102 0.7691963 -0.32069984 -0.049417406 -0.3162676 0.3917934 0.25276965 0.3699461 0.28167877 0.29507896 0.022830078
6184 -0.023764107 0.4308313 0.014812494 0.54746723 0.27595615 0.3264733 -0.1305792 0.5658667 0.37624985 -0.4429242 -0.30656826 0.12674268 0.17826928 0.27983856 0.4212172 0.27334413 -0.38478002 -0.34932387 0.17969468 -0.035873774 0.001360026 -0.3278338 0.015167888 0.06284166 0.16310002 -0.67883927 -0.1411842 0.21524651 -0.4472419 0.19720091 0.0077762976 0.08409514 -0.17934655 0.11591606 -0.08016345 0.28921062 0.5075601 -0.47437352 -0.0035982477 0.15226668 0.43119684 0.14751214 0.2223122 0.17914608 0.17452602 0.06505547 0.019319488 0.29161564 -0.37593853 0.6423606 0.37295198 -0.086315885 -0.28616714 0.08696176 -0.67565906 -0.32617542 -0.038880076 -0.0444786 -0.26432502 -0.15097228 0.5342328 0.2723623 0.72118336 -0.044833235 -0.48076674 0.020241318 0.65452236 -0.07009225 -0.06022672 -0.028055824 -0.29334265 0.2988609 -0.19669421 -0.2024787 0.26731294 -0.31173187 -0.01784993 -0.027871322 -0.38294646 0.051186223 0.3344416 0.51425534 0.0109198885 0.55096126 0.24180956 0.32115644 0.1218701 0.13748384 -0.47384527 0.1106394 0.40870932 0.021661032 0.5409065 0.17607877 0.32562456 0.21483754 0.056163732 -0.22493179 0.1285074 0.20627554
45605 0.03751981 0.460553 0.13851844 -0.25202748 0.67081326 -0.04119626 -0.14481585 0.40992373 0.09146208 -0.3006407 0.30712464 0.31004995 0.0057819043 0.25156957 0.70732546 -0.34960166 -0.42372298 0.13241348 0.030512113 0.23461945 0.3285607 0.22661486 -0.30209514 -0.20676693 0.1856861 -0.23615961 -0.2927374 -0.21177195 -0.6687264 -0.17443931 -0.251895 0.061443333 -0.08720819 -0.1628606 -0.5333786 0.024191327 0.054565664 0.00865496 0.4803744 0.02180718 0.28741837 0.101144634 0.4494467 -0.31573313 -0.15556027 0.55806255 -0.5137057 0.26980868 0.3800393 -0.17855473 0.17962413 -0.03498143 0.64269716 -0.15066038 -0.061706122 -0.680483 -0.31429157 0.06387698 -0.49348235 0.32926536 0.48295408 -0.026974712 0.027572636 -0.16168039 -0.13818017 0.4909362 0.5795344 -0.335565 0.35671526 0.4315117 0.6190113 0.4479826 -0.13550444 -0.49973586 -0.0022808765 0.097121045 0.16647139 -0.016640484 -0.33767205 -0.7047359 0.6179991 0.5854441 0.09901174 0.31601825 0.06455351 -0.054867133 0.38338935 -0.43830073 -0.3086527 0.30198684 0.12455019 -0.53441054 0.064099796 0.22372907 0.3195651 0.1992855 -0.22933754 0.37780032 0.25850433 0.41542512
202639 -0.42454374 0.67516655 -0.6516616 -0.22816159 0.46105698 0.053457204 -0.27094403 0.3287854 0.25824192 0.05695067 -0.5019101 0.41674995 0.3695567 -0.35773924 0.44948658 -0.20187683 -0.17204836 0.2961768 0.3328227 -0.10402887 0.036683094 -0.2396395 0.19022825 0.67231435 -0.08584557 -0.26711363 0.0041075563 -0.21179558 -0.30847254 0.5726424 0.06138927 0.07596763 0.037346665 -0.49304563 0.4858112 0.16127867 -0.21586111 -0.1750528 0.14942124 0.07590045 -0.0825873 0.283645 -0.09967718 -0.15917036 -0.021645315 0.36079195 0.025461737 0.20195842 0.059898008 -0.03174369 0.4083196 -0.016191628 0.026732145 0.077320546 -0.6842516 -0.32113323 -0.21561094 -0.8257317 -0.15295254 0.48155245 0.32770115 0.15908594 0.0009522554 0.058611017 -0.27871123 0.12652785 0.81310785 0.070564464 0.04176274 0.17829844 -0.08856354 -0.25492302 -0.2203158 -1.231227 0.009245008 -0.4094092 -0.723803 0.31564647 0.13608527 -0.02093852 -0.1731272 -0.0007305922 0.49310133 0.43506187 0.22660938 0.5759102 -0.039947588 0.20339969 -0.20995256 -0.20101687 0.2698975 0.18513009 0.1629884 -0.34429565 0.008573677 -0.25404975 0.24858288 -0.043253954 0.36934552 0.22027636
10183 -0.5150773 0.14306976 0.14315861 -0.30166718 0.8529576 -0.091254495 -0.018227732 0.47057825 0.07023797 -0.10617717 -0.16216107 0.31601486 -0.06846903 -0.35849163 0.024875456 -0.39256322 -0.48888564 -0.771104 0.33825073 0.29626483 0.5470445 0.10174722 -0.17035295 -0.11473027 -0.025432598 0.36392912 -0.008518771 -0.05689942 -0.26041076 -0.23790361 -0.16920303 0.49042538 -0.23103069 0.27967033 0.4048841 -0.07554955 -0.10625919 -1.0448444 -0.52635986 0.23028861 -0.13176203 0.15686601 -0.17842837 -0.12515365 -0.433616 0.26649764 -0.09041489 -0.10519377 0.35772145 0.47584948 -0.30578968 0.03425627 -0.23102297 0.1764395 0.17325294 -0.4821216 -0.5065386 0.34310007 -0.11873846 0.095815994 0.2613455 0.11503454 0.13903457 -0.57106763 0.11262091 0.07512682 -0.09698468 -0.010014827 0.3306215 -0.33656472 -0.40632463 0.09519524 0.6196487 0.09412547 -0.012732441 -0.24613379 0.12597826 0.59199643 -0.7733909 0.010067269 0.17859524 0.71234435 0.10231285 0.6370065 0.3759495 0.18314403 0.45820338 0.04275363 -0.34720254 -0.40311188 0.7543834 0.8624484 0.53508955 -0.49289423 -0.39096317 0.29066533 0.6516744 -0.5525726 -0.13233148 -0.046012893
205196 -0.38673308 0.16902116 -0.12839761 -0.7188047 0.41387454 0.3473532 0.21141241 0.4399149 0.35538238 0.17202947 -0.44445735 0.5100844 -0.0017542855 -0.27892882 0.22088626 -0.12961894 -0.6470131 -0.41982445 0.41185343 -0.19047263 0.47239438 -0.35012138 0.0074024727 -0.036448054 -0.24764664 -0.39549923 -0.28299823 0.5564729 -0.7243756 0.36327377 0.30520537 -0.17453443 -0.5242153 0.14641735 -0.09492008 0.097343355 0.24769594 0.26706296 0.35328358 0.02359599 0.8721995 -0.67585456 -0.2935928 0.3653737 0.35696143 0.9495005 -0.0044099386 0.96971107 0.44935498 0.25277823 -0.12902921 -0.62499285 0.4650042 0.23160285 -0.26900887 -0.19017142 0.5056585 -0.67729515 -0.6506464 -0.24461561 0.43959382 0.16473863 -0.058342315 0.0219085 0.20308863 0.30079022 0.7912335 0.3206086 -0.97335696 0.40270287 -0.1866956 0.41865766 0.34750545 -0.4703572 -0.38680694 -0.20504382 0.06640231 -0.16588207 -0.05467567 -0.5820261 0.37075588 0.18863794 -0.24047591 0.17937522 -0.13546963 -0.47968543 0.29419643 -0.15345292 -0.56369984 0.49322423 0.4985365 0.08640776 0.4248464 0.0753258 0.7357164 0.12823014 -0.46811584 0.13499705 0.33826154 0.0017809037
