2708 100
35 0.37005097 0.17929378 0.5776508 0.2048252 -0.4668929 0.23211482 -0.014551165 0.0658375 -0.038245738 0.3252344 0.21528244 -0.09142197 -0.20475179 0.5168865 -0.09615517 -0.10176317 -0.16369621 0.46269622 -0.365798 0.080912545 -0.030774193 0.4275708 -0.3456835 -0.13287082 0.10507751 -0.2697551 -0.07166199 -0.031735346 0.04692323 -0.093609646 -0.2474832 -0.01894551 -0.016978081 -0.10082518 0.33160573 -0.24359274 0.029062074 -0.61344504 0.077711426 0.09296847 -0.26987684 0.18265536 0.1982844 0.19267097 -0.20084576 0.36491433 -0.81174934 0.273531 0.6495247 0.07940989 -0.27943057 0.42814758 -0.007052078 -0.18133153 0.4264626 -0.45858663 -0.19227917 0.09472538 0.12235886 -0.349308 0.0131065585 0.035941247 -0.12703563 -0.48825938 -0.10824259 0.07527847 -0.27599573 0.07783106 0.05623901 0.047028955 0.36752066 0.14282118 -0.3550202 0.07808729 0.22558722 0.36986297 -0.021632047 0.06477606 -0.31659165 -0.44617924 0.11370865 -0.17673449 0.21230471 0.5726519 -0.5872601 0.15007575 0.2760362 -0.41923445 0.038366884 -0.14284156 0.19739217 -0.11703586 -0.15729658 0.62803745 -0.070798546 0.26539287 0.123116136 -0.47249088 0.4922785 -0.09254278
6213 0.32055697 0.020505212 0.48487243 0.1931381 0.41883364 0.40886766 -0.38378435 0.20714791 0.4310123 -0.57600904 0.29703572 -0.19020252 -0.24695311 0.09228685 -0.27307785 -0.17590065 0.41702986 0.32597253 0.11032357 -0.06633033 -0.23752758 -0.08170621 0.061383184 0.052824285 -0.37566078 -0.04701654 0.09293279 -0.02034964 0.593896 0.00451155 0.11304865 -0.34361705 -0.17353293 0.19815892 -0.049529303 -0.5708759 -0.1653996 -0.33885342 0.077506915 0.61796135 0.025562393 -0.0885977 -0.0802486 0.26114786 -0.08661066 0.79869425 -0.04725747 -0.062037203 0.37106892 -0.049551968 -0.051866483 -0.13670124 0.18936396 -0.19405481 0.1962558 -0.040147845 -0.10473999 0.037746742 0.11115394 -0.28826228 -0.687184 -0.42201492 0.033939175 -0.4459378 -0.08194481 0.6165729 0.3980572 -0.23412451 -0.22675133 0.40300804 -0.23969977 0.29500988 -0.16599083 0.39621314 0.3322874 0.4738859 -0.3143457 0.25113025 -0.6253907 -0.14909503 0.06788254 0.11428784 0.036346916 0.08938624 -0.13666947 0.14574455 0.16703825 -0.13959801 0.27632916 0.02884297 0.16973151 -0.3166311 -0.21352172 0.41525292 -0.07699088 -0.11167132 0.46446863 -0.3273044 0.5967718 -0.16911833
1365 0.0026322615 0.18875714 0.083929524 -0.06025906 0.8188415 0.081058234 -0.8849244 0.4233866 0.2884962 0.06406644 0.24664298 -0.37624878 0.11541196 0.12164555 0.060782265 -0.54213434 -0.019683046 0.19660626 -0.13603333 0.30460152 -0.60390985 -0.07662425 -0.041516162 -0.08617294 -0.03867271 -0.42460856 0.2650549 0.052499563 0.283538 -0.16782248 0.1903149 -0.59914637 -0.30488932 -0.09843638 0.046790812 -0.22625346 0.11596335 -0.38121128 -0.35101822 0.7300615 -0.0729607 0.15529811 0.0005011663 0.33181828 0.07921688 0.83542675 -0.12589402 -0.04996209 0.03074427 -0.2626258 -0.052112374 0.346761 -0.2473798 -0.07978152 -0.7517025 -0.30489844 -0.26224896 -0.04272849 0.10583509 -0.15985774 0.10540553 -0.41296205 0.13781083 -0.30564347 0.23035544 -0.18515038 -0.37825292 0.3188917 -0.36656517 0.3257593 0.15232378 0.6443974 -0.084353015 0.35670727 -0.26947418 0.6555824 0.097842306 0.27190378 -0.06244186 -0.15956417 0.24487364 -0.13734695 0.033790972 0.18730238 -0.334346 -0.15934381 -0.0056211236 -0.22542103 0.26201394 -0.023088152 0.09501007 0.4289942 -0.16366252 -0.13630322 0.2648529 0.115539484 0.10652888 -0.02905989 0.3207163 -0.1513366
3229 -0.07032427 0.27405158 0.21049759 -0.012002677 0.26866323 -0.16288804 -0.608121 0.16024655 0.39524576 -0.45457968 0.48300704 0.12179898 -0.11264611 0.28183368 0.2633183 -0.339189 0.37225443 -0.0067915567 0.24458851 0.16616091 -0.35883033 0.16758692 0.031399753 0.27082166 -0.3124051 -0.460447 0.34062245 -0.034586694 0.25987926 0.09637043 -0.10428526 0.094489224 -0.4823325 -0.24665408 0.6666176 0.22992562 0.4861562 -0.25012448 -0.44879922 0.49548241 -0.08703952 0.31394303 0.27330908 0.20141292 0.103817806 0.69337666 -0.16441555 0.2521679 -0.18528211 -0.2167824 -0.05155533 0.5268498 -0.19027105 -0.3318395 -0.53855264 -0.5138467 -0.41828707 0.25429967 -0.056869462 -0.25343415 0.40072727 -0.0318147 0.20344533 0.2194877 0.44722703 0.024237406 -0.040317748 0.60611063 -0.14043097 0.2668474 0.27619845 -0.3596019 -0.15752588 0.37263027 -0.0078692045 -0.0469305 -0.19775157 0.29048944 -0.25077337 -0.14025892 0.15263973 -0.2813301 -0.22753896 0.17571108 0.09540741 0.23470232 -0.06387245 -0.061934642 0.31779048 -0.4415419 -0.29737335 0.052151773 -0.43890512 0.0954593 -0.2787207 -0.017919835 0.6977699 -0.45585722 0.17442575 -0.27588645
910 -0.40070376 0.31154487 -0.5228937 0.12200749 0.62533516 0.07536859 -0.6470986 0.29014575 0.3840721 0.10947278 -0.08515751 0.19020535 -0.1776099 -0.04336247 0.060881693 -0.6987997 0.118569404 0.35924098 0.59714335 -0.25961375 -0.65157396 0.023799734 -0.08613113 0.41406906 0.19798012 -0.6814761 0.14066331 0.20013885 -0.063803606 0.06768791 0.39099458 -0.3140548 -0.32166845 -0.2228327 0.7168203 -0.21306305 -0.078419924 0.02592699 0.08130521 0.54727215 -0.44376802 -0.011704687 -0.37065482 0.32835716 0.21464334 0.10625993 -0.42698812 0.13491748 -0.16450575 -0.62020665 -0.14972207 0.4063859 0.08470513 0.28202903 -0.3144276 -0.22397797 -0.21540114 -0.27067748 -0.16597185 -0.03431502 -0.04357032 -0.19999003 0.0007883716 -0.07369112 0.12230495 -0.22641341 0.20725243 -0.30093262 -0.2807663 0.60051996 -0.061212815 0.37196743 -0.13097191 0.21361968 0.17691697 0.4093457 -0.45251298 0.43701476 0.107310236 -0.63255197 -0.3808405 -0.43942833 -0.10706535 0.06707495 -0.65424657 0.31489155 -0.011578317 0.024980457 0.13010506 -0.15436703 0.25750014 -0.12643367 -0.15607293 0.34465763 -0.40061843 -0.46907476 0.49333173 -0.11169133 0.51788276 0.011182032
4330 -0.09192499 0.025542086 0.11829254 -0.37405542 -0.20301603 0.67504835 -0.20436269 0.19324435 0.21856135 -0.1976605 0.2988531 0.06841313 0.028969418 0.45830482 -0.19640268 -0.7313649 0.061252177 0.3231634 -0.16247195 -0.21664147 -0.66196054 0.26266435 0.15579292 0.6827644 -0.2913187 -0.45924124 0.08478695 0.16489318 0.36960813 -0.051871363 0.31574398 -0.12473975 0.014959814 -0.5999778 0.30553886 0.022367224 -0.5133018 0.23006281 -0.054085996 0.010099289 -0.17635332 -0.029828899 -0.27444172 -0.14022985 0.13889189 0.4860412 -0.1825594 0.15654024 -0.20094226 -0.26086783 -0.11708071 -0.06988064 0.32137653 0.3429111 -0.51166236 0.20841475 -0.10732814 -0.5347439 -0.33883315 -0.056283966 0.29181355 -0.4183354 0.33756667 -0.30788636 0.6217798 -0.06282746 0.11741522 -0.24033904 -0.3048517 -0.18332765 0.18298914 0.25070712 0.22003512 0.48934647 0.06639618 0.5209476 -0.14524779 0.09651333 -0.31282437 -0.22806142 0.42920423 0.02686728 -0.2908284 0.10216112 -0.22592893 0.04141677 -0.40499243 0.3838402 -0.013507207 0.024213238 0.31145257 -0.19162752 -0.49682054 0.34706506 -0.303807 0.6373066 0.4493039 -0.79007065 0.35006994 0.45244876
114 0.36528644 -0.15160607 -0.025898188 0.30584064 0.3413744 0.2992591 -0.42006484 0.4542255 0.34173584 -0.60849386 0.51532936 -0.12412254 -0.36743242 0.4572073 -0.2808969 -0.15406035 0.08720787 0.23950756 0.05924199 -0.19294544 -0.42430356 -0.061015382 0.047198918 0.09779643 -0.7992475 0.101084575 0.23377447 -0.055788886 0.43702918 0.06805368 -0.35762867 -0.17667992 0.02276033 0.54508054 -0.034319848 -0.21228951 -0.29115885 -0.5177851 0.054724075 0.555441 0.18221498 0.26260108 0.39534077 0.2580787 -0.19638424 0.8521709 -0.16118307 -0.38794696 -0.34698457 -0.3442274 0.030645948 -0.31067523 0.096787155 -0.050830945 -0.033225622 -0.5236225 -0.1665308 0.12739745 0.25447983 -0.46072719 -0.25766855 -0.4543104 -0.18581563 0.13159384 -0.24896665 0.56086826 0.47309667 -0.18061434 -0.20864977 0.52143013 -0.09910013 0.28937662 0.29564732 0.18881057 0.7389112 0.3243792 0.012777393 0.56161433 -0.38658652 -0.37570238 0.038395748 -0.023270056 -0.07490943 0.41287687 -0.275289 0.16891499 0.060300592 -0.22933309 0.17138241 0.14806357 0.21738584 -0.5034921 -0.45236117 0.10482493 0.17465574 0.06423365 0.3622272 -0.30477464 0.41908938 0.66006476
3231 0.42039055 0.11551229 0.56756884 0.21644497 -0.6006032 0.28667024 0.007911396 0.31725368 -0.17555963 0.213937 0.69989866 0.04119249 0.15619376 0.32435498 -0.09473882 -0.12305791 0.3741004 0.028905064 -0.01042422 -0.33412516 -0.40983388 0.27936932 -0.17899337 -0.4130395 -0.25074697 -0.08618278 -0.3350941 0.08529996 0.27452844 -0.064467184 -0.3005204 0.017460868 0.1482493 -0.11349835 0.46758136 -0.2948267 -0.30714342 -0.24119122 -0.24348329 0.07819492 0.35548344 0.26306203 0.16470863 0.4866431 0.5042069 0.20213063 -0.37320045 -0.35326844 -0.056193635 -0.14776649 0.063691325 0.79122543 0.097805664 0.06997316 -0.15813163 0.057490453 -0.75180286 -0.044119477 -0.19463047 -0.22970507 0.3199778 -0.23003538 -0.31339508 0.1847613 0.17604402 0.009471511 -0.35965973 0.16391283 -0.49948815 0.15691243 -0.3567456 0.32632625 -0.06884895 0.19004495 0.2667904 0.3015174 0.06413354 0.22596933 0.31785682 -0.051970605 -0.4518125 -0.07358832 0.23787533 0.45933908 -0.17585419 0.07548566 -0.20492153 0.68426263 -0.46933377 -0.1077234 -0.034816574 -0.6413766 -0.57966006 0.62466985 -0.6481987 -0.025272463 0.12825336 -0.23790787 -0.09888215 -0.25476572
1272 0.42461136 -0.019664584 0.45308533 0.22288315 0.31413096 -0.22703849 0.25399408 0.051023595 -0.21519157 0.0880409 0.32146573 0.11422029 0.47354418 0.054831646 0.32833803 -0.4168939 -0.3664782 0.55263793 0.31120655 -0.053541955 -0.69108325 0.089168005 0.015265338 -0.38369596 -0.060635157 -0.38557932 -0.034452844 -0.3265872 0.5532566 -0.28762606 0.18993871 -0.74089617 -0.15036193 0.091301195 0.07562084 -0.49646068 0.097690344 -0.6726772 0.21030201 0.0423941 0.188797 0.23294857 0.16031653 0.3824335 -0.24345526 -0.20766278 -0.18072703 0.3446048 -0.20740622 -0.30758718 0.6028867 0.62782246 0.18608603 0.040964674 -0.27830616 0.12599143 -0.2658795 -0.08047709 0.3006181 -0.17825527 -0.4175448 -0.417022 -0.17680731 -0.18163064 0.13351843 0.033851646 -0.28050357 0.27800542 -0.40632436 0.17500737 -0.536453 0.07934766 -0.628794 0.49027383 -0.10297092 -0.3979691 -0.25908247 -0.3252199 -0.38423336 -0.09832253 0.09763144 -0.19364856 0.27134293 0.5686426 -0.096149236 0.1529098 -0.25226596 -0.104751155 0.045158528 -0.01267031 0.09283909 -0.6114642 -0.7116239 0.03614665 0.06572906 0.108104944 0.07725366 0.1981411 0.1524965 0.14189239
19621 0.2221862 -0.25684872 -0.36522904 -0.23985656 0.21339445 0.4176655 -0.901077 0.120138995 0.21626191 -0.15636547 0.13420181 -0.14577127 0.2461821 -0.20358314 0.14106983 -0.6331461 0.15013464 -0.15878959 0.6755745 -0.014449073 -0.47870597 0.30762732 -0.40843996 0.2755449 0.34096628 -0.6295437 -0.1229953 0.37350416 -0.02542429 -0.60409147 0.3216008 0.07905298 -0.11291176 -0.0021168971 0.04122623 0.10335718 0.1081223 -0.08922975 -0.2403117 0.5809932 -0.0340858 0.3540183 0.2834322 0.22450799 -0.19798766 0.7801361 -0.40210038 0.58799887 0.38430446 -0.16000515 -0.2824442 0.27098367 -0.13601199 0.1303217 -0.65246075 -0.27530771 -0.34683928 0.018949915 0.069867775 -0.94671017 -0.1593728 -0.14450452 0.04083244 -0.107041046 0.36044186 -0.11951185 -0.33738208 0.21888468 0.3726251 0.3391041 0.5464725 0.19753055 0.017700901 -0.03120292 0.15561989 0.27951145 -0.066924214 0.030659048 -0.11287791 -0.26733926 0.31261808 -0.040104847 -0.31774947 0.50061184 -0.44925845 0.3228653 -0.2821347 0.2352263 0.13170263 -0.011699084 -0.2716247 0.15287317 -0.3743299 0.30409455 0.2992552 -0.119074404 0.25203195 -0.10254341 0.8446941 -0.21433654
2440 0.47938251 0.13880101 0.5596552 -0.3678956 0.087116525 0.24306135 0.069731496 0.3325912 0.045814127 -0.07180932 0.19298942 -0.51681405 0.53519905 0.18820776 0.09130234 0.11399438 -0.33994552 0.33383843 0.38592005 0.15551077 -0.919276 0.14272511 0.43886366 -0.15574005 -0.10955439 0.3783185 -0.44403297 -0.23490632 0.7264468 0.025779685 -0.20831347 -0.47117558 0.20568663 0.5649314 0.8124166 0.13789336 -0.11144077 -0.19944894 -0.11301557 -0.30341575 0.40178713 -0.09374982 0.27575046 0.34453636 -0.35916874 0.12911949 -0.6526741 -0.27330184 -0.48866513 0.020722382 0.2702278 0.036978588 -0.0037258612 0.5187201 -0.24182907 0.18921357 -0.7365912 -0.14435917 0.50699526 -0.038656164 -0.33286777 -0.21813507 -0.20104145 0.43287554 -0.023824554 0.3110803 -0.6996544 -0.049388465 0.1220909 -0.29400656 -0.12887442 0.27401352 -0.09878231 0.34085536 -0.2089608 0.072514 0.19412638 -0.21436246 -0.06154745 -0.12015932 0.324653 0.5561769 0.41197595 0.0135213295 -0.25969887 0.35549557 -0.31887642 -0.24179731 0.29646084 0.5253111 0.14159459 -0.3809693 -0.38230458 0.3991544 -0.5162224 0.47929117 0.5519523 -0.34723315 0.57591426 -0.40709913
4584 0.5823521 0.20921917 0.08142359 0.012113978 0.23942177 0.09149472 -0.5008882 -0.011394214 0.52887523 -0.4025838 0.23825437 -0.02618051 -0.14852202 -0.041489527 0.36906108 -0.1800658 -0.07251129 0.1191877 0.083728865 -0.22859952 -0.722801 -0.11905767 -0.34195322 -0.0898588 0.06975456 0.044800036 0.18109843 -0.11607016 0.11769577 0.1893477 0.009621547 -0.372146 0.06181371 0.04124037 0.30709442 -0.48862886 -0.30346662 -0.6277831 -0.059761953 0.73669785 -0.24190049 0.22617143 0.04362228 0.031010188 -0.23053776 0.47366393 0.19710849 0.4193668 -0.23577014 0.21464707 0.35011536 0.18908915 0.025330879 -0.06262739 -0.21633044 -0.5204191 -0.69475716 -0.1392167 0.22746088 -0.2912206 -0.6435314 -0.43828034 0.4550873 -0.6437016 -0.08380569 0.28173724 0.12177693 0.07944632 -0.71769524 0.20842656 -0.088404156 0.41303918 0.03970607 -0.031307258 0.3179751 0.12541318 -0.48803517 0.13369125 -0.013114966 0.11161766 -0.12507485 -0.18238957 -0.13219337 0.07870459 0.07121139 -0.13629793 -0.030551154 -0.3157994 -0.24119496 -0.038469203 0.28913766 -0.10705983 -0.4510738 0.37281662 0.15265092 0.08081541 0.27943465 -0.27121988 0.7836069 0.026049063
6214 0.6129054 -0.26315346 0.21611276 -0.036749203 0.37426588 0.5741915 -0.4251682 0.32507503 0.2404603 -0.98122454 0.49465472 0.036223467 -0.66905874 0.34804967 -0.082521446 -0.37031877 0.15025419 0.16461031 0.34572977 0.28380045 -0.36238113 0.06380982 0.030667055 0.17656088 -0.118702404 -0.052559167 0.15684068 0.03719831 -0.041374538 -0.21901508 -0.1284335 -0.5122247 -0.06099498 0.27776304 -0.070252836 -0.51176375 -0.28770125 0.027814323 -0.055444177 0.54752254 -0.19776395 0.0520169 0.28854465 -0.041676562 -0.38915288 0.43183568 -0.24131088 -0.43163472 -0.59576195 0.23131512 0.32149765 0.041686717 0.1287398 -0.079891235 -0.36119974 -0.5340021 -0.41666773 0.13985771 -0.0619246 -0.35467365 -0.6381526 -0.33016932 0.1936259 -0.4424763 -0.089884974 0.25315222 0.37334135 -0.25604734 -0.43322542 0.8494515 0.14766847 0.25750878 -0.19535132 -0.041586656 0.15931098 0.1491579 0.1563678 -0.3229604 -0.20645939 -0.4054505 0.18748245 0.36784172 -0.07015556 0.36908185 0.023746403 -0.01039846 -0.01568646 -0.51880884 -0.06237644 -0.19619447 -0.075066686 -0.18844825 -0.3220159 0.33643514 -0.048359577 0.38727894 -0.062149752 -0.06083081 0.10297592 -0.3096269
24966 -0.09937925 0.45380527 -0.084171884 -0.19630998 0.47538868 0.0249786 -0.27784678 0.23645493 0.25456914 -0.07083291 0.21461667 0.13315661 -0.29242337 0.19174094 0.18797255 -0.43700463 0.68183374 0.71130615 0.57106483 0.4006047 -0.6229941 0.66748923 0.28544214 0.11616902 -0.012223508 -0.13246578 -0.15581562 -0.08746537 0.15129744 -0.2406635 0.49553728 -0.663885 0.035574775 -0.29513028 0.5328882 -0.33273578 -0.26380768 -0.22465897 -0.040389728 0.043708306 -0.37674603 0.063831806 0.512622 -0.023472728 -0.0782269 0.54586756 -0.5199332 -0.21235333 -0.050605934 -0.3086419 0.41662368 0.27312446 0.21319848 0.3308373 -0.30731004 -0.13554974 -0.1990025 -0.3380965 -0.39518675 0.26393944 0.48038757 -0.35857368 -0.16792594 0.4826043 0.55504113 -0.09272256 0.45913804 0.5508779 0.12550476 0.64433455 -0.002053399 0.08088875 -0.352715 -0.04034869 0.9954205 0.46619797 0.058805432 0.043733485 0.1542471 -0.32562906 -0.049562268 -0.17432724 0.4236908 0.17488867 -0.25524017 0.1554131 0.32142907 0.7472847 0.13292067 -0.23053415 -0.022996992 0.13706705 -0.25300944 0.057783198 -0.1360835 -0.12324103 0.15806322 -0.19995113 0.27566737 0.25020668
887 0.43843123 -0.28994694 0.1124776 -0.086222805 0.26807594 0.31996998 -0.2348766 0.5247879 0.17902935 -0.3451481 0.24587013 0.013851165 -0.3558534 0.27760273 -0.3055863 0.3290699 0.15676622 0.33661366 -0.073456295 -0.07146262 0.033093113 0.11522433 0.28702444 -0.67553836 -0.04405934 -0.33860573 -0.04845109 -0.4917835 0.8206457 -0.117843546 -0.44820657 -0.34012055 0.13404855 0.19726428 -0.038313072 -0.2815526 -0.052708354 0.018777033 -0.18339634 0.21833995 -0.17109223 -0.09147332 -0.08710402 0.5507931 -0.17668618 0.6444301 -0.110341825 0.2459881 0.23559298 -0.015563832 -0.22440477 0.15854888 -0.08928652 -0.37872395 0.30195802 -0.37946162 0.067457385 0.05715742 -0.09819951 -0.047994033 -0.44475603 -0.44766435 0.07906011 -0.32793716 0.5215488 0.12146596 -0.3981398 -0.0870224 -0.44804898 0.58876616 0.15219717 0.17593445 0.096941695 -0.08304079 0.30804482 -0.12843475 -0.5153555 -0.07188542 -0.58729446 -0.56135434 -0.24845502 0.06254652 0.010659106 -0.15588284 -0.38790658 0.61670035 0.087422535 0.07945084 0.12698162 -0.41081196 0.27565747 0.2900699 -0.22383487 0.66318786 0.09352521 0.1320084 0.30249843 -0.3955549 0.5349167 -0.031290524
2665 -0.011998194 -0.47566703 0.1725461 -0.006594568 0.36815047 -0.03223564 -1.1761632 -0.10347696 0.2912878 0.16011445 0.32070103 0.07689277 0.24616852 0.29940927 0.39991015 -0.66017354 -0.2017716 -0.0239987 0.41201115 0.55411273 -0.33956033 0.4552323 0.04603587 0.04903105 -0.0473162 -0.2819412 -0.08099859 0.73271143 -0.06982619 -0.21765138 0.1386393 -0.1338978 -0.21015128 0.049517147 0.096795164 -0.015384066 0.22160095 -0.17882566 -0.5330946 0.88540006 -0.05368877 -0.1253311 0.29531464 0.39523137 0.45752797 0.8447912 -0.94559735 0.0032415094 0.15452047 -0.16350147 -0.11745542 0.48876983 0.7467783 0.10198957 -0.5590841 0.042514652 0.053490773 0.28599986 0.032091416 0.15574335 -0.047196247 0.10376059 -0.35929012 -0.43143302 0.8286488 -0.616483 -0.4949294 0.4220765 0.23096745 0.38074142 -0.047042057 0.47995964 0.3358107 -0.120855846 0.47293875 0.55100393 0.050395362 -0.32754853 0.34711766 -0.09960278 0.1244726 -0.17008081 -0.21852711 0.14495844 -0.75320435 0.13959457 -0.5113819 -0.31839046 0.2602697 0.4899142 0.4835117 -0.02944075 -0.5269942 -0.006700491 -0.28722796 -0.37570465 0.23337626 -0.10795581 0.93270874 -0.34566087
8224 0.50061584 -0.33087736 0.4393932 0.041666098 -0.06986367 0.4096447 -0.3810212 0.46567497 -0.03698905 -0.0066296197 0.0068983613 -0.18794999 0.11033486 0.5914026 -0.29455099 0.0068744514 0.28607234 0.67481756 0.6757699 -0.2434403 -0.48993555 0.34171462 0.10832576 -0.23248963 -0.08572864 0.24904966 -0.26968488 -0.32409713 0.7379651 0.069829136 0.28129977 -0.42639962 -0.22058918 0.0008511436 0.2301145 0.019321332 0.16038992 -0.5786707 -0.26322836 -0.07545023 -0.19023828 -0.3902071 0.16324556 0.35578364 0.17509273 -0.14712942 -0.4860472 0.27341378 -0.07222865 -0.11165385 0.12894745 0.44439635 0.325499 0.24122599 -0.060527653 -0.08744988 -0.9533203 -0.8966141 -0.042690564 -0.069555715 -0.012370123 -0.6976981 -0.68099564 0.23121305 0.27420682 0.40314606 -0.26953486 0.2814913 -0.26358318 0.26356554 -0.55882716 0.09350524 -0.027329646 0.02763935 -0.07969723 -0.50352734 0.3082163 -0.0485636 -0.055033594 -0.13247348 0.38359284 0.1467992 -0.21796352 0.18882385 0.22037259 0.323205 -0.06528107 -0.2635266 0.008607606 -0.11145749 0.074019186 -0.6441274 -0.06700676 -0.048531763 -0.26915503 0.07944407 0.12107137 -0.37540722 -0.20144041 -0.3124062
20193 0.85582656 0.0023093247 -0.10723336 0.21051115 0.5129586 0.6147035 -0.0107067665 0.13801736 -0.18148506 -0.33443427 -0.22997937 -0.3884764 0.55992854 0.3337615 0.10635759 0.15616119 -0.3967876 -0.08359065 0.5028883 0.19531588 -0.2427504 0.07556878 -0.4848802 -0.40200523 -0.31688747 -0.03668225 -0.37672466 -0.82290757 0.57314473 -0.08768337 -0.57571065 -0.28085518 -0.19895804 -0.23321274 0.8779939 0.03147395 -0.45102862 0.66679174 0.25612 0.36346212 0.32830468 -0.5244293 0.5797155 0.610881 0.8791223 -0.36170134 -0.869047 0.108749315 -0.03270663 0.15586184 -0.06449376 0.58307934 0.93907374 -0.04751565 0.32639253 -0.34215355 -0.24530642 0.107630536 -0.0763569 0.14288616 -0.24793555 -0.5467799 -0.49544987 0.068708666 0.51425934 0.37987074 -0.04891375 0.14496708 0.06886285 -0.0310104 0.25524086 0.06451226 -0.063597195 -0.025091767 -0.0057709906 0.50185585 0.5124603 0.21309203 -0.34632337 -0.23051625 0.26885843 0.18817383 0.5228765 0.3554599 -0.09875559 0.099543005 -0.07841817 0.08427302 0.5805117 -0.1928669 -0.10939628 -0.26043332 -0.23114173 0.43390688 0.022726968 0.40516344 0.22109629 -0.5108973 0.828262 -0.43740463
12182 0.5816942 0.05298277 0.12777348 -0.5143877 0.50457484 -0.14981617 0.065179676 0.0677411 0.19883302 0.38625452 -0.066765346 0.40856388 0.0059236763 0.47452345 -0.067453094 -0.16953096 0.16510087 0.8544082 0.2620174 0.28409997 -0.40204218 0.1865053 0.1455358 -0.6138543 -0.34038052 -0.38139424 0.008953793 0.18253109 0.5573609 -0.043265723 0.06962023 -0.6457951 -0.34330776 0.005383746 0.09269835 0.039716117 0.03508131 0.108257376 0.2551029 -0.10486615 0.22794399 -0.6683417 0.6973918 0.08097854 -0.15621074 0.32703376 -0.29779068 -0.02169342 -0.051979147 0.13949265 -0.19297762 -0.16087832 0.10885498 0.88295156 -0.5308514 0.21796787 -0.44378552 0.34266824 0.22205716 0.69558555 -0.21198793 -0.32112026 -0.37547863 0.23233151 0.70644194 0.68063664 -0.14216858 -0.4293296 0.413275 0.24757206 -0.55284137 -0.59827024 0.123901606 -0.16539103 0.3112246 -0.14032158 0.076389186 0.16253647 -0.37394074 -0.48942056 -0.18215805 0.6382708 -0.19447543 0.55111367 -0.23352158 -0.017455496 -0.23552711 -0.28250062 -0.13743936 0.3205788 -0.10010219 -0.27676216 -0.65912163 0.3389125 0.0112825325 0.30503088 0.32751185 -0.6930551 0.039030712 0.11560762
82920 0.08821579 0.16051973 0.29967543 0.11191052 -0.68401176 0.5011687 -0.19929783 0.04505611 0.047471438 0.26889405 0.29429895 -0.10825043 -0.68237096 0.18517897 0.11895229 -0.24281977 0.23391062 0.31910998 -0.032970216 0.14006712 -0.23204459 0.32168764 -0.3111599 -0.25517264 0.055004276 -0.28986102 -0.19435522 -0.25220543 0.44499037 0.15008123 -0.23732498 -0.14231081 -0.21376725 -0.44205496 0.2417873 0.1836298 -0.1783771 -0.5002482 0.16265734 0.119414635 -0.46753925 0.27765447 0.28964382 0.22183378 -0.18655577 0.21009189 -0.85527116 0.49445784 0.34921193 0.4101494 -0.37424776 0.6450169 -0.012397513 0.08181378 0.32834032 -0.12936273 -0.17850545 -0.0618643 0.35030094 0.0758069 -0.17802633 -0.24915028 -0.21784647 0.07291756 0.19668172 0.33960584 -0.35473537 -0.41483974 -0.050666213 0.2118994 0.08127527 -0.14784247 -0.15381135 -0.20940076 -0.112217404 0.57433045 0.6967168 -0.029968532 0.002518087 -1.0153209 0.23866947 -0.32934543 0.3663184 0.50422895 -0.3689497 0.38387585 0.08878879 -0.83588254 0.14606191 -0.50492585 0.3024682 0.055123374 -0.013787188 0.5486532 -0.17995201 -0.0036691122 -0.26500714 -0.54910594 0.32552513 0.2970497
12576 0.5136414 0.012642581 0.5394197 0.42648587 -0.14019579 0.13836055 -0.08769647 0.13022932 0.44383678 -0.21003999 0.31114483 -0.24570017 -0.32507667 0.56005526 -0.13944966 0.024637219 -0.39002028 0.33822986 -0.1725883 -0.13248175 -0.50092095 0.16618378 -0.48496646 0.039560147 -0.39785972 -0.123320416 -0.11155445 -0.535591 0.14116956 -0.111851014 -0.046730552 -0.3171615 -0.025290584 0.17556535 -0.005016907 -0.07603634 -0.08277123 0.012246298 0.075655855 0.11296643 -0.16957246 -0.1066004 -0.10126071 0.74591166 0.06839243 0.28954595 -0.5706563 -0.12475528 0.48282826 0.25183347 -0.16621289 -0.068240665 -0.16524501 -0.42579505 -0.14471541 -0.107986875 -0.32142755 0.28042868 0.057525713 -0.43168107 -0.078211606 -0.32905582 0.07022413 -0.75283694 -0.0064475555 0.4020143 -0.42668685 -0.044447217 0.1847317 0.4168653 -0.1638601 0.15098822 -0.1838009 -0.27312797 0.6119894 0.5770809 -0.28193277 0.18358158 -0.40234625 -0.10588107 0.055360466 0.048402417 0.2747107 0.10541714 -0.3195108 0.37931314 0.11096563 -0.4323233 0.09938452 0.21829195 -0.108913 0.2741896 -0.20106865 0.8823883 0.084826045 0.13557823 0.09692222 -0.7355441 0.3737439 0.18174824
10169 0.73419976 0.14466216 0.5328262 0.11547333 -0.17775197 0.37851045 0.41892406 0.22142565 0.07958028 0.45392525 0.36039016 -0.24714157 0.30171284 0.32772923 -0.23227228 -0.31040397 0.5053944 0.40984863 0.1173467 0.011533851 -0.6069388 0.620265 -0.24106066 -0.025486045 -0.5142673 -0.68006504 -0.52726775 -0.19771588 0.3525931 0.035167422 0.037430152 -0.24803637 0.21591984 -0.18925777 0.5843439 -0.3387204 0.018490497 -0.2836736 0.25383914 0.1566803 0.24929485 0.115339324 0.14169964 0.14155303 0.21214041 0.004728575 -0.2881388 -0.17185491 -0.07859151 -0.35816428 -0.012564312 0.6809825 0.21755767 0.43639562 -0.69373745 0.26114917 -0.37328562 0.71166563 0.13738385 -0.39272183 0.15345512 -0.22262302 -0.22677737 0.5519322 0.46682003 0.24057792 -0.5714913 0.22567146 -0.3516163 0.12786716 -0.23927018 0.094383515 0.17115746 -0.20534983 0.2185087 0.04295576 -0.11728824 0.13057832 0.012807548 -0.010281445 -0.5770125 0.077273436 -0.06391658 0.46053752 0.1107614 -0.2985407 0.06647441 0.23426712 -0.1808484 -0.056657746 -0.101199165 -0.28402647 -0.3870894 0.49455255 0.057382558 -0.15829729 0.07981613 -0.4467004 -0.32838553 -0.38169193
22563 0.31892493 0.19771756 0.038735386 0.19076592 0.039363727 -0.031650506 -0.2638354 0.1791505 -0.22553428 -0.37079602 -0.14150316 0.45534763 0.35224575 0.43780804 0.19674021 -0.008348275 -0.04323028 0.50970787 0.19423056 0.24462537 -0.34224844 0.38643116 -0.26474953 0.11252738 -0.12838373 -0.07724477 -0.6783595 0.53861165 0.59178454 -0.47646692 0.20307754 -0.34015355 -0.3660156 0.03200458 0.43372682 0.41766363 -0.19083275 -0.70292485 0.30591065 -0.032389645 0.01122817 -0.43944228 -0.19659445 -0.073381394 -0.115352914 -0.06434964 -0.29086655 -0.15392755 0.3215409 -0.15097219 0.4093828 0.96011823 -0.33710185 0.6428077 0.09686212 0.2450369 -0.6131407 -0.23673552 0.0032970875 -0.31206343 0.07328528 -0.8172186 -0.44618228 -0.15523547 0.36449152 0.5207581 -0.3779403 -0.55340654 -0.18475388 0.55432725 -0.075137205 0.50647116 -0.16437146 0.2977254 -0.06767258 0.20188963 0.0637114 0.5083842 -0.18916118 0.012294866 -0.022455433 0.131984 -0.058773126 0.21419497 0.25290164 0.2395078 0.15750052 -0.11943674 0.50875396 0.081781566 -0.055123817 -0.34826657 -0.14879657 -0.009320202 -0.051414795 0.33833593 0.41104412 -0.24239618 0.6450607 -0.063157655
12350 0.07218376 0.27341986 0.1414453 -0.4740505 -0.25139394 0.23007384 -0.2931242 0.12922339 0.21506679 0.44829836 -0.13016084 0.1869503 -0.15671231 0.21425897 -0.007977082 -0.28074738 0.29063013 0.12878461 0.45968136 0.28867948 -0.1618472 0.1608557 -0.009922219 -0.4454967 -0.31518775 -0.3460366 -0.33139274 -0.5643993 0.6237022 -0.0025041744 0.5130937 -0.52556634 -0.093182385 0.12496609 0.3459984 -0.2719825 0.11018332 -0.26993823 0.24970365 -0.019778868 0.16072145 -0.122412734 0.44727528 -0.25934657 0.06662177 0.11377532 -0.2919048 0.07081301 -0.45972863 0.15774691 0.44720733 0.090941176 0.19032347 0.5671414 -0.46728954 0.42071548 -0.08787365 0.36166942 0.056262273 0.07919642 -0.36701927 -0.3438138 -0.20463781 0.52860343 -0.002413067 0.4603197 -0.038322587 -0.39660043 -0.088739835 0.66091263 -0.3286878 -0.08041264 -0.36741143 0.13055155 0.03385063 0.072489426 0.51890075 0.02822326 -0.006107365 -0.5935459 -0.26829606 0.11848422 -0.28211054 0.8700385 -0.21731092 0.117154196 -0.26336345 -0.4130506 -0.43409452 -0.064290576 0.1651795 -1.0146778 -0.3227856 0.24486691 -0.09936005 0.5011392 0.80590206 -0.70649064 0.32800058 0.004806311
15429 -0.031494237 0.18876126 0.1991486 -0.29008743 -0.054792445 -0.091783546 0.29241338 0.34438142 -0.049559303 -0.1867134 0.05332089 0.076053545 -0.12763913 0.19194417 -0.24516523 -0.062356997 0.1615017 0.77630734 0.07583632 0.07902388 -0.6895447 0.34328187 0.10759406 0.17981587 -0.47690138 -0.3203673 -0.26288825 -0.63412666 0.54265046 -0.5792667 0.21778513 -0.118760586 0.18164748 0.06687547 0.8381152 -0.6233006 0.039074536 -0.23319699 0.54325634 -0.03520496 0.111860104 -0.059051607 0.44414443 -0.07957827 0.26315495 0.24763942 -0.32987726 0.03276055 0.13037263 0.010442222 0.14184913 0.4241107 0.30196866 0.54702556 -0.60274327 0.3846054 -0.24606152 0.82746494 0.22563693 -0.10776644 0.06772191 -0.38428262 -0.65619487 0.5262343 0.15138796 0.55821604 -0.047370497 -0.36497062 -0.038948283 0.2742311 -0.3616576 -0.18086773 0.12320981 -0.17149955 0.4750291 -0.030714309 0.37077308 0.40657756 -0.12856352 -0.30388212 -0.32038543 0.15234746 0.00952483 1.0515655 0.24544342 0.2722684 -0.019846806 -0.3871628 -0.23200904 0.24962851 -0.12367762 -0.5191945 -0.37985042 0.38195458 -0.28641322 -0.21041767 0.47564316 -0.47294506 0.45685443 0.2512759
2653 0.41912752 -0.20490046 0.118734516 -0.032332182 -0.4885449 0.283063 0.09575019 0.31985307 0.029396027 0.3054823 0.38356075 0.47552764 0.2166785 0.2941823 0.0876359 -0.13240701 0.3354592 1.0168182 -0.060515877 0.017960628 -0.5966491 -0.10506901 -0.17622139 -0.12760115 -0.2909991 -0.48336414 -0.35501105 -0.09190928 0.6890029 0.118080534 0.21453723 -0.5216821 -0.6974041 -0.005149341 0.31268707 0.28759784 0.26699224 -0.27769637 0.039296336 -0.049101308 -0.07134259 -0.17143181 0.30928493 -0.045847014 -0.047908492 0.39916086 -0.37067208 0.13640456 -0.27480006 -0.054546107 -0.31827605 0.32036567 -0.10287583 0.55774236 -0.18354042 -0.17666565 -0.9239326 0.05588866 -0.3347294 0.32972482 -0.19049765 0.0038706216 -0.48844934 0.106819525 0.86897093 0.24733378 0.005417312 -0.49946502 0.07986123 -0.13788976 -0.502878 -0.45776853 -0.2912264 -0.021563057 0.13613445 0.03458986 -0.09470898 0.21140963 -0.04622812 0.0481087 0.13853255 0.6514188 -0.19203079 0.47280475 -0.45075595 0.20944607 -0.1304741 -0.24618708 -0.39347902 0.24872263 -0.36103278 -0.39026657 -0.17022067 -0.19887853 0.017317802 0.02398305 0.10618103 -0.5368284 0.3602228 -0.025333595
8703 0.31832024 0.16588223 0.09191071 0.54033196 0.6198961 0.71820253 0.22017552 -0.14218925 -0.31671083 -0.14999397 -0.12299902 0.13803592 -0.27036 0.4574339 -0.18694733 -0.14199826 -0.12125309 0.56647223 0.30834922 0.12478035 -1.1137768 0.16577078 -0.11238503 -0.39149314 -0.4705369 -0.20557755 -0.34578854 0.05457478 0.7264324 0.27442852 -0.16210885 -0.39264187 -0.048732642 0.67556787 0.5911289 0.026888631 -0.5012431 0.11070855 0.08750561 0.41454336 0.38711792 -0.058331605 0.37574717 0.56636745 0.24040887 -0.08433182 -0.08918425 -0.4188382 0.30536804 -0.04453138 0.14631961 0.74062896 0.26033652 0.002160213 0.018308409 0.06844232 0.03459981 -0.06244468 0.22620386 -0.19636555 -0.36768982 -0.38647747 -0.56947947 -0.4803526 0.11121493 0.38954616 0.030395972 0.023499133 -0.13793494 0.050815184 -0.12945038 0.34479198 0.050509874 0.053269446 -0.39132196 -0.2630285 -0.31832528 0.1346833 -0.2916047 -0.12805775 0.08504048 0.4583978 0.1500683 0.4036142 0.27031535 0.16039306 -0.20427303 0.24381039 0.108632036 -0.27661413 -0.009245376 -0.5993329 -0.57730615 -0.09642348 -0.28831455 -0.3711998 0.42899498 -0.24819931 0.78602004 -0.2592534
39890 0.16821676 0.19428632 -0.1372867 0.49217024 0.68834895 0.5186403 0.06538264 -0.31642556 0.2818089 0.21595895 0.69737697 -0.58949155 -0.057557363 0.5048089 -0.0059604375 -0.7347679 0.11304633 0.29311424 0.25377527 0.39776033 -0.5653215 0.76976585 -0.079070985 0.41317773 -0.142394 -0.23461999 0.09967127 -0.17570953 0.022110755 -0.24294357 -0.3609237 -0.37529734 -0.060489733 0.0013469635 0.5335819 0.1984676 -0.17490247 0.21469997 -0.045374162 0.35298398 -0.49775982 -0.29912385 -0.057017088 0.077965386 -0.017540993 0.8507071 -0.49246478 -0.31479192 -0.080458105 0.28512058 -0.186882 0.09715271 0.538715 0.3481667 -0.20589492 -0.2945038 -0.8627943 -0.021673754 -0.45128343 0.41723263 -0.5064623 -0.1910638 -0.849068 0.12768951 0.10809981 0.24141593 -0.2790862 -0.21682182 -0.32094115 0.43199596 -0.5193298 0.06354948 0.04101007 0.12324105 -0.07729188 0.0857181 -0.51151454 -0.045073792 -0.06885202 -0.46059933 -0.53287166 0.06397094 -0.32313672 -0.15924938 0.28494 -0.33178785 -0.48671848 -0.38975102 0.30103397 -0.015983626 -0.5505509 0.35766503 -0.36005512 0.07936325 -0.35384017 0.3965194 0.8176621 0.118737474 0.037854444 0.4032729
31353 0.4389513 0.015690057 -0.2419317 -0.0023133864 0.27415475 -0.04536388 -0.4676038 0.034698386 0.11729389 0.019836186 -0.3837656 0.44627744 -0.07133538 0.4340912 -0.087013476 -0.09180931 0.64011127 0.3805455 0.6782961 0.14571682 -0.30196851 0.47609863 0.3972041 0.3605289 0.20620795 -0.11511692 -0.24132659 0.25435978 0.29272643 0.2040789 -0.09812967 -0.50349206 -0.5970688 -0.1922602 0.6393911 0.035314504 -0.11724255 -0.12273079 0.084440626 0.48060682 0.034241315 0.09437545 0.657392 -0.44046697 0.42542815 0.56875527 -0.27531973 0.35967723 -0.18194965 0.465551 -0.037777208 0.5758744 -0.064735346 0.20297651 -0.34729564 0.043989196 -0.5975194 0.41671285 -0.073594525 0.31341955 0.050807416 -1.0709857 -0.017810708 0.834353 0.39343178 -0.32225215 0.018461835 -0.16441728 0.27360854 0.9242742 -0.11604504 -0.3626139 0.18750457 0.58151454 0.51228184 0.22539803 0.27066824 0.3660128 -0.30357972 -0.09147031 -0.19129415 -0.17524394 -0.47904795 0.17133649 -0.8537093 -0.03778907 -0.072351605 -0.067661665 -0.7834237 -0.33466542 0.7099373 -0.44184992 -0.46944022 0.24915679 -0.61919856 -0.10536604 0.2881161 -0.28842247 0.2683323 0.4720347
3220 0.39816868 -0.6555372 0.24423257 0.3355074 -0.035738762 0.4851249 -0.23937534 0.37651289 -0.3653388 -0.10410292 0.15312877 0.15557055 0.26015228 0.7636848 -0.10200522 -0.01128902 0.17413211 -0.0762055 0.23876035 0.11607279 -0.81848735 0.4461695 0.23090872 0.19192667 0.028374692 0.3425237 -0.25546694 0.44816172 0.3655827 -0.0002634754 0.071444616 -0.18900853 -0.6162886 0.42825565 0.5890612 0.17369665 -0.19917782 -0.27628857 0.51463735 0.16807704 0.12645368 -0.20333822 0.39725357 -0.06785193 0.19943367 -0.2995133 -0.3750449 -0.10067355 0.013243866 -0.54262686 -0.13058887 0.7078417 0.038395125 0.48796976 0.117676854 0.49423897 -0.65494496 0.2727975 -0.0148704825 -0.06929046 0.26115525 -1.2352728 -0.60417676 0.24761252 0.29079005 -0.31824216 -0.35015416 -0.32097307 -0.23722178 0.59875405 0.20363688 0.17966215 0.17294633 0.30617255 -0.012559855 0.0442823 -0.20671187 0.3573759 -0.25177526 0.31611204 -0.5141598 -0.029472996 -0.11423427 0.35702154 -0.21573645 0.23773265 0.11225679 0.1568157 0.031213598 -0.18741493 -0.3723166 -0.5504933 -0.45977575 0.40398052 -0.11160071 0.35441676 0.3755698 -0.7055692 0.10634939 0.052844077
1481 0.70297897 -0.28398415 0.5661247 0.37970787 0.08585125 0.42372134 -0.0045728586 -0.32534415 0.16344193 -0.5970683 -0.16686378 -0.99988854 0.44971037 0.105521984 -0.08135394 -0.029504916 0.039455634 0.023527535 0.5323977 -0.06841526 -0.44917834 0.08498047 -0.08916858 0.48255435 -0.12268008 -0.0029881992 -0.20182657 -0.39297697 0.110834494 -0.054810002 -0.72756535 -0.57109976 -0.075485416 0.06931982 0.29158702 -0.42490616 -0.32783452 0.011381262 -0.25834638 0.51766473 -0.22758377 0.16888602 0.45072955 0.59876204 0.17704989 -0.14618652 -0.0754217 0.18707363 -0.36580786 -0.039456543 0.035630193 0.4132602 0.060756646 0.9279206 -0.03333067 -0.3228526 -0.25933823 0.1041737 -0.34846509 0.5472207 0.11631592 -0.9227199 -0.07747004 -0.4733595 0.048682954 0.25602737 -0.09603938 -0.15883729 0.1470654 0.29378736 0.048796915 0.45581836 0.3020672 -0.07890502 0.13018365 0.5337152 -0.2583297 0.18366086 -0.32380694 -0.37168425 -0.3154689 0.108664304 0.62603676 0.12402467 0.12575863 0.34809384 -0.35573757 -0.45128992 0.28465903 -0.036538176 -0.4270937 -0.6146823 -0.59040594 0.5047865 -0.1359197 -0.10226966 0.061744127 -0.46392196 0.16562994 -0.15073635
2658 0.100839525 -0.7061532 0.35317308 -0.17765318 0.1471952 -0.14797892 -1.0196114 -0.49030337 0.8195728 -0.13747418 0.38298774 0.01473588 0.1380226 0.3743821 0.0067744623 -0.7988386 -0.35789892 -0.039475907 0.549207 0.6910437 -0.39973733 0.5343484 0.071224876 -0.05212517 0.20817125 -0.2968673 -0.1225611 0.7472983 0.16076505 -0.19563764 0.0630162 -0.20591342 -0.16354436 0.018281782 0.12740962 -0.03646384 0.3171897 -0.23557006 -0.4995487 0.8254778 -0.062028624 -0.14875339 0.3231786 0.38052788 0.413232 0.62442935 -1.125883 0.18358095 0.14212129 -0.25342742 -0.088765584 0.75101185 0.7625856 0.010951108 -0.60898215 0.286149 -0.16905524 0.33852047 0.34854218 0.34012902 0.019798972 -0.12610532 -0.5949798 -0.3455463 0.91253483 -0.64199334 -0.75804037 0.42535967 0.35525048 0.52379286 -0.32493147 0.5795043 0.5435472 0.0346346 0.66236395 0.47032455 -0.08994392 -0.38959762 0.2543335 -0.3389409 0.0498371 0.059313536 -0.024938874 0.00045317155 -0.77622646 0.03592049 -0.47165155 -0.6744356 0.13356555 0.55690247 0.554915 -0.17655759 -0.73234665 -0.08315981 -0.087142214 0.044275332 0.06823795 -0.19614847 0.9860335 -0.519269
643221 0.07796951 -0.24135634 0.08107792 0.07176011 0.40717962 0.43635413 -0.64118105 -0.09892261 -0.10672296 0.71467423 -0.28707728 -0.8656142 -0.032068796 0.34919995 0.27470645 -0.5225574 -0.48450413 -0.13866414 0.12798664 0.10024971 -0.7500567 0.029576207 0.04730851 -0.070538566 0.2045633 -0.31107828 -0.8659768 0.12459104 0.27047527 0.004274621 0.13085467 0.16227388 0.028088279 -0.36765933 -0.12951246 0.11164683 -0.5612028 0.31908348 -0.027672546 -0.01780614 -0.16398114 -0.09219567 0.8869455 -0.3515278 0.13426688 0.9742842 -0.167542 0.23197986 -0.23883064 0.48462236 -0.18320146 -0.36395064 -0.100543514 0.16213769 -0.22123161 0.012315666 -0.6830004 0.41280267 -0.447121 -0.12035945 0.55688727 -0.63667405 -0.5537839 -0.03502394 0.8099155 -0.027629653 -0.044126693 -0.09137424 -0.23507003 -0.15874287 -1.0450733 -0.35129896 0.42964673 0.18735605 0.5705913 0.14240701 -0.3246007 -0.03895316 -0.46802923 -1.048686 0.25397816 -0.625036 -0.30105007 0.187223 -0.46473446 0.12073538 0.46630865 -0.18859498 0.54572135 0.297993 0.016708892 -0.51344347 -1.0979542 0.5512921 -0.65157443 0.52798164 0.4359943 -0.580371 0.74916434 -0.48216823
10796 0.95504063 0.21617897 0.3708284 0.2579988 0.28710273 0.7992211 -0.42542338 0.34723613 0.07441041 -0.56033367 0.54869676 -0.2207391 -0.2328701 0.25279075 0.019928653 0.3245903 0.23846117 0.14609979 0.5508171 0.21849108 -0.4270958 0.11010104 0.034168314 -0.21735053 -0.4432322 0.07217193 -0.22920316 -0.23203681 0.3342642 -0.0042995713 -0.06704006 -0.3140731 0.16711514 0.31201157 0.028593577 -0.10880574 -0.20345809 -0.024392677 -0.59458154 0.86688715 0.37393162 -0.42888743 -0.12162588 0.22450489 0.3994739 -0.033423297 -0.16485043 0.43297565 -0.02320698 -0.37940866 -0.27438813 0.4770976 -0.13154593 -0.045799322 -0.13807143 -0.19042613 -0.7302164 -0.1765366 0.27717257 0.12438558 -0.11379545 -0.5793527 -0.3548807 -0.34026667 0.18183234 0.2638221 -0.31395933 0.05534081 -0.10687478 0.07348954 0.06568949 0.19699156 -0.48975354 -0.005661791 -0.11360804 -0.14277157 -0.18076901 -0.034830637 -0.36341745 -0.2770663 0.10068634 0.31534168 0.4506839 0.38726103 0.04540519 0.3167386 -0.107971005 -0.23898879 -0.5505758 -0.28045005 -0.1372593 -0.007206614 -0.21343917 0.023429386 -0.409004 0.1363191 0.2173705 -0.28380966 0.38247493 0.16530587
117 0.31087738 -0.049743176 0.2816675 0.059612308 0.75990486 0.3702223 -0.6572963 0.34586778 0.3162674 -0.7271652 0.44989562 -0.22055255 -0.5215224 0.3407533 -0.16770203 -0.19776861 -0.20379837 0.46300542 0.41116834 -0.04239753 -0.5001778 0.1962579 0.01705156 0.4446365 -0.31499782 -0.50381356 0.4130837 -0.029585673 0.25811294 -0.115576304 -0.35239956 -0.3482647 0.015816022 0.42568374 -0.0076599987 -0.6951395 -0.39296398 -0.42235258 0.083470196 0.43581057 -0.28552693 -0.3142531 0.1911463 -0.10781703 -0.34448585 0.7290765 -0.6818686 -0.12520711 -0.18490733 0.14988036 -0.14966968 -0.09817048 0.41093642 -0.20084278 0.07125043 -0.15795565 -0.5032257 -0.06693771 0.18855241 0.14292254 -0.76709014 -0.17371638 0.046865154 0.14474358 -0.034154005 0.352109 0.3828177 -0.269373 0.08401855 0.37294286 -0.30697736 0.16097526 0.15876372 0.13702595 0.34882423 0.39096507 -0.10926362 0.08450202 -0.2327908 -0.38324168 -0.20534503 0.24406569 -0.4939694 -0.032971323 0.34060135 0.21090312 -0.13742833 -0.3046624 0.29031473 -0.20298986 -0.02800908 -0.35042498 -0.47220752 0.21377887 0.1882498 0.48849615 0.36051744 0.143657 0.36933735 0.5977286
85352 0.46989352 0.07855184 0.13217814 0.047816478 -0.910228 0.0064935666 -0.5442847 -0.11735649 0.11367883 0.113628834 -0.032704033 0.25528505 -0.6274122 0.4752645 0.11551357 -0.18703987 -0.3470095 0.26736593 -0.31551313 -0.06698989 -0.18621962 0.5067657 0.24030553 -0.19519538 0.07591069 -0.29811165 -0.07927947 -0.4820245 0.33085677 0.14416157 -0.16002336 0.30619168 -0.20663384 -0.5312299 0.40455082 -0.025307307 -0.2524424 -0.52250725 0.13947193 -0.09033045 -0.30597553 0.3353799 0.0835971 0.25308925 -0.018581633 0.36792654 -0.9626518 0.21944173 0.21347958 0.56910866 -0.22441515 0.68131864 -0.25982088 -0.11533906 0.42476055 -0.50119257 -0.65495247 0.37582618 -0.05487687 -0.06501388 0.045772687 -0.2537847 -0.104195744 -0.31767416 0.13436273 0.19234736 -0.31498307 -0.2671919 0.043778293 0.12096861 -0.036939424 -0.054479115 0.027920196 0.041571338 0.3709311 0.67258817 0.18509921 -0.0135571575 -0.27262843 -0.5050399 0.08323134 -0.29520938 0.15627624 0.5321754 -1.0168641 -0.06594766 0.34602836 -0.64037377 0.38062835 -0.61229926 0.27635106 0.33211482 -0.23526895 0.52411544 -0.109675944 0.118300304 -0.17023137 -0.48453614 0.26412982 -0.044947412
6334 0.42610437 -0.275686 1.0143657 0.13351466 -0.64531994 0.22859485 0.025223214 0.18336296 0.10611236 0.08691994 0.25411344 -0.028771034 0.22003058 0.21565829 0.10551317 -0.33067393 0.6181864 0.39143038 -0.035622787 0.14804602 -0.7106789 0.28613484 -0.43359798 0.15035768 -0.18594536 -0.030217057 -0.33022928 0.073732644 0.51395005 0.024425749 -0.11328132 -0.35542268 0.029451849 -0.20684414 0.60599536 -0.70849216 -0.5622744 -0.029070636 0.113337316 0.12280589 0.055698983 0.053773765 0.50063396 0.29104134 0.0059301523 0.075034924 -0.15470627 -0.06793583 -0.12585121 -0.35742134 -0.2243452 0.52571654 -0.21159124 0.43589416 -0.15554807 -0.29688817 -0.45213875 0.23784493 -0.17040381 -0.11086058 -0.10310173 -0.23870704 -0.48999122 0.24939653 0.3897574 0.041856684 -0.56078327 0.12142044 -0.3152948 0.025482295 0.32352787 0.028461024 -0.38574114 -0.1244364 0.18370205 -0.018814705 -0.07703518 0.4473582 0.23865044 -0.16637279 -0.40468276 -0.035208676 0.21311109 0.49492046 0.011794075 0.08683043 -0.25260732 0.16380239 -0.1309924 -0.0920643 0.007672323 -1.0908204 -0.09234886 0.35691258 -0.40555307 -0.022345196 -0.103982285 -0.33296266 -0.107805245 -0.024415534
23738 0.317067 -0.071467586 0.34143168 0.3384591 0.27649665 -1.2087529e-05 -0.03485226 0.23487756 0.101229765 -0.16772582 0.23286825 -0.05834439 0.07679283 0.86705476 -0.040104173 0.19107626 0.03015445 0.5903739 0.17116988 0.44152546 -0.40880242 0.29595625 0.36960262 -0.35178682 0.14735542 0.18711755 -0.4615967 0.037509903 0.70321363 -0.1895502 -0.045941766 -0.25823405 -0.18078794 0.18524064 0.3520897 0.55767906 -0.118419565 -0.43323046 -0.07313247 -0.06489712 0.0420794 -0.20276833 0.13428342 0.029106097 0.11697415 -0.06767136 -0.41816184 -0.019211592 0.21435001 -0.12591547 0.17443861 -0.059279513 0.095922105 0.6660133 -0.343405 0.13732275 -0.7237226 -0.40698582 0.016332885 0.36758372 -0.3996479 -0.30035385 -0.26895398 0.006320711 0.22884956 0.7973442 -0.6172833 -0.6683196 -0.3414301 0.55082333 -0.47330645 0.25279018 -0.2828769 0.31286994 -0.09859788 -0.2156491 -0.12476762 0.30840358 -0.030905226 -0.35719424 0.21661168 0.11650898 -0.51884305 0.15008092 -0.16342445 -0.017382832 -0.21641348 -0.16235746 -0.19489048 -0.0065340763 -0.23539817 -0.42068458 -0.24889839 -0.11012088 -0.37020427 0.26561648 0.3341357 -0.93656045 -0.26007956 0.16932891
1688 0.29021752 -0.006480012 0.74878496 0.06816897 -0.71924317 0.60210437 -0.1395301 -0.17186414 0.009967071 0.067607336 0.2612477 -0.09939687 -0.7310331 0.37887326 0.102574214 0.060131084 -0.31232426 0.51692367 0.016465954 0.30418342 -0.1918994 0.10670845 -0.33319762 -0.27496198 0.7389128 -0.4357121 0.3206143 -0.31395152 0.5584598 0.06213537 -0.23013544 0.12392401 -0.14002755 -0.42745778 0.359213 -0.016728148 0.66250306 -0.2542881 0.013265217 -0.19095178 -0.35514832 0.16760969 0.21279275 0.24005611 -0.1697646 0.6353828 -1.1507444 0.02815308 0.6609712 0.1880463 -0.5110571 0.48496148 0.2320428 -0.34031224 0.0936632 -0.15888798 -0.66240686 0.23658118 0.26540822 -0.19137056 -0.13145198 0.07607405 -0.29639736 -0.23305857 -0.26017138 0.1407091 -0.39240745 0.01869513 -0.29899198 0.35371155 0.081299596 -0.16349044 -0.06255347 0.17100021 -0.14502715 0.20452711 0.35763896 0.16280553 -0.40102613 -0.57754624 0.13390282 -0.26632223 0.4423787 0.10811743 -0.36397037 0.03638722 0.42531267 -0.21327394 0.3351843 -0.19767685 0.1465708 -0.2992038 -0.6024032 0.60477775 -0.53071386 0.33028916 -0.23245403 -0.9280106 0.0154895 -0.058069732
3191 -0.22022538 0.47045174 0.039140046 -0.113495916 0.29485822 0.18454519 -0.20709793 0.024014477 -0.09088158 0.4470334 0.59504765 -0.32866257 -0.18119788 0.15707928 -0.07207314 -0.64725393 0.010472349 0.11762535 -0.18712507 0.7405264 -0.44381365 0.9744483 0.4805248 0.5612403 -0.38416162 -0.05122944 -0.122905344 -0.004169994 0.09607335 -0.3271738 -0.19419643 -0.3629951 -0.1398707 -0.25774056 0.61627054 0.41699088 -0.1758611 0.13094427 -0.18585266 -0.33463833 -0.43273488 -0.16064434 0.7076493 0.25883308 -0.059964024 0.70042545 -0.013018418 -0.34182736 -0.12775297 0.119466275 -0.055631153 0.056257665 0.4273221 0.38466775 0.07032184 -0.15487382 -0.8658349 -0.17672725 -0.36452636 0.29461497 0.23833567 -0.34971195 -0.7346617 0.12716483 0.37019444 0.14674614 0.012559205 0.18563491 -0.19398545 0.12407486 -0.29432774 -0.13521847 0.0035625838 0.52788603 -0.08196017 0.4394954 -0.23745404 0.12631814 0.0901713 -0.4145729 -0.2665817 -0.008951038 -0.638411 0.01954131 0.22055931 -0.38937905 -0.70312935 0.10320434 0.41609317 0.25907242 -0.28088412 0.21612139 -0.5539817 0.5131962 -0.64866287 0.23055077 0.38520756 -0.026863597 0.22610798 0.10452258
230879 -0.2074413 -0.70858246 0.42386293 -0.141563 0.057011496 -0.16525488 -0.82622975 -0.6156038 0.68072885 -0.18386179 0.30437022 0.05761398 -0.0022464595 0.36318845 -0.03421901 -0.7872937 -0.40379763 -0.03697211 0.4629273 0.5943443 -0.3434094 0.5422715 0.07090513 -0.0738544 0.17514822 -0.4998215 0.018535603 0.59685504 0.12640557 -0.245047 -0.058273986 -0.12651041 -0.27904785 -0.071974255 0.26691407 0.15403606 0.1407893 -0.2724374 -0.5501678 1.0139942 0.19976006 0.08494515 0.397222 0.33348542 0.52591467 0.5608446 -0.9699044 0.23190954 0.3701078 -0.34231287 0.21129374 0.48289236 0.99238896 0.15078597 -0.6479298 0.38735336 -0.036443505 0.20010623 0.2998312 0.35802066 -0.018947404 -0.6375202 -0.5498865 -0.5622046 0.9314907 -0.49217296 -0.56463957 0.47320443 0.2180183 0.6810376 -0.25244024 0.5297979 0.685766 0.17305191 0.73028123 0.601552 -0.06894772 -0.42867807 0.3496395 -0.19572435 0.010550801 -0.08264269 -0.0799559 0.060216196 -0.7532891 -0.27991796 -0.45198995 -0.6751927 0.44560277 0.51149887 0.6044077 -0.18330252 -0.671381 0.20535624 0.084467724 0.2349077 0.008292819 -0.4128975 0.97529954 -0.62484163
4335 0.13086946 0.26527178 0.15716963 -0.49828115 0.8979758 -0.28291184 -0.4997965 0.11359259 -0.010028626 -0.07389721 0.068863824 0.059090782 0.10281286 0.3332509 -0.26024717 -0.6022313 -0.20842561 0.18233001 0.27883464 0.025579138 -0.5105626 0.44768438 0.41723505 0.32694536 -0.009801561 -0.44325653 0.42704594 0.10222047 0.2071799 -0.2811652 -0.43012217 -0.12237353 -0.11038754 -0.4738526 0.19067392 0.11407361 -0.20660217 -0.029736513 -0.15591067 0.54277456 -0.2361314 -0.32230237 0.17944528 -0.11609873 -0.33553302 0.57334816 -0.243121 -0.09621146 0.27418098 0.27668935 0.065957166 0.13909127 -0.06213072 0.48120236 -0.51041603 0.06473201 -0.12947115 -0.29865706 -0.4977474 -0.030254563 0.1996785 -0.18033375 -0.1223794 0.1950145 0.4540089 -0.09983036 -0.031122861 -0.5018844 0.061241746 0.54932034 -0.1539638 -0.24852462 0.0007138427 0.25102893 0.66713774 0.2827788 0.17957163 0.4595145 -0.17560582 -0.4074517 0.38660592 -0.08750144 -0.7760624 -0.013327345 -0.46750385 -0.15766233 -0.107063286 0.42257112 -0.38537255 0.03127092 0.53365886 -0.18018267 -0.5454273 -0.026824204 -0.8368764 0.116342716 0.4212793 -1.1557193 0.23772854 -0.016655007
4804 0.45912856 0.07111438 -0.02037607 -0.5587135 0.11608634 -0.19549721 0.23209274 0.23583634 0.16023417 0.29245332 0.4009745 0.2529 -0.19071558 0.377639 0.0464165 -0.41063035 0.18020724 0.50996345 -0.29717508 0.25082383 -0.5191897 0.0043923175 -0.10091963 0.1623296 -0.22880015 -0.7238048 0.09098229 0.08503423 0.776073 -0.080303036 0.15686248 -0.23554513 -0.12409175 0.45681274 0.7044438 -0.7617118 0.024708757 -0.2602793 0.43735492 0.23821692 0.31303987 -0.5626889 0.46276507 -0.2415533 0.5977055 0.038310584 -0.44107747 -0.069311015 -0.35027137 0.18596378 -0.056935105 -0.025010165 0.43800712 0.91065484 -0.37959647 0.4189246 -0.19357637 0.31165972 0.34344622 0.621335 -0.28441554 -0.3811991 -0.37379184 0.2580972 -0.08696218 0.2534125 -0.05399404 -0.18414305 -0.01762575 0.21855709 -0.53539145 -0.43758395 0.028401118 0.2519892 0.5533721 -0.07840401 0.3924318 -0.116629586 -0.20235743 -0.45311663 -0.089995965 0.34685293 -0.26791653 0.91395736 -0.33490035 0.18848838 -0.41042888 -0.42375216 -0.17181848 0.1576779 -0.1436252 -0.5378523 -0.48041064 0.3070413 -0.06949616 0.04432622 0.41453904 -0.40550166 0.34510282 -0.10896111
39127 0.39832294 0.06835641 0.4652802 0.36354074 0.027569225 0.17177607 -0.26902404 0.17913665 0.27862895 0.2696145 0.46301574 -0.13521706 0.26183167 0.4534888 -0.06487341 -0.37803575 0.081683524 0.1045723 0.20834842 0.11926536 -1.3473059 0.18455297 -0.25920498 -0.21672787 -0.08792142 -0.060398336 -0.48074102 0.2256722 0.5862162 -0.65263075 -0.15838414 -0.066228956 0.13724546 -0.48720816 0.2839539 -0.1630976 -0.49954575 -0.6353588 -0.45503965 0.14379285 0.27013412 0.4943367 -0.29030377 0.32239965 0.51108915 0.38969693 -0.39480814 0.05515806 -0.4347383 -0.21561612 0.03816984 0.49214426 0.6155569 0.447728 -0.23664837 0.0160889 -0.42807364 -0.13066526 0.04824924 -0.16527502 0.061766304 -0.519189 -0.62354887 0.76413655 0.23630749 0.20550223 -0.39309183 0.14015517 0.03689395 -0.25779065 0.052634433 -0.22587638 -0.11551874 0.19139217 -0.016803868 0.12443755 0.14585915 -0.3223693 0.09476976 -0.12642817 -0.9194811 0.22088857 0.2477047 0.34202737 0.09639732 0.2810339 0.07645413 0.3393592 -0.009176544 0.07489218 -0.034605164 -0.6997291 -0.7694716 0.56111485 -0.4732188 0.07927777 -0.117786504 -0.23480277 0.13898323 -0.25591478
210871 -0.14828478 -0.23232856 0.17493485 0.12539028 -0.1742101 0.57205933 -0.06981464 -0.06146784 0.34961137 -0.038695246 0.3244314 0.32176998 -0.13971584 0.19566464 -0.31582975 0.10342432 0.15427208 0.19368885 0.14067891 -0.14824037 -0.012048536 0.15742081 -0.049181443 -0.13086319 0.0018507048 -0.3154839 -0.46001107 -0.10386827 0.7831129 -0.16742323 -0.40565708 -0.20228359 -0.32287312 -0.067472145 0.0587365 -0.48460016 -0.30014536 -0.2812166 0.340053 0.09258782 -0.62922436 -0.14600007 -0.2242737 0.1857141 -0.213989 0.3013046 -0.43812013 0.32108355 0.3312482 0.20342182 -0.06155927 0.6271054 0.06839814 -0.6951748 0.5947937 -0.43056017 -0.443754 0.4836721 0.16191465 -0.03046249 -0.3290823 -0.30078167 -0.15444098 -0.1454089 -0.02085211 0.01983363 -0.915916 0.20883526 0.057181615 0.10449347 0.2542898 0.15172958 -0.39973444 0.027763829 0.2602467 -0.096631646 0.27194718 0.056662984 -0.44268408 -1.0333903 0.5031483 -0.24316746 -0.02636998 0.07906408 -0.5156255 0.24214412 0.16619356 -0.3834391 0.4753521 -0.22428644 0.13830604 -0.020873975 -0.3264298 0.4039873 0.371854 0.14798263 -0.013237842 -0.5155718 0.68619365 -0.07940634
35922 0.6181829 0.33045033 -0.48528785 -0.40598384 0.647487 0.047047738 -0.62872446 0.2219531 0.16722824 -0.06100524 0.20170616 0.55720335 0.008774268 0.43621317 0.036480494 -0.32965615 0.05132431 -0.04896718 0.66147053 0.6244137 -0.28725278 0.7387307 -1.8860574e-05 0.30122134 0.050539147 -0.5673342 -0.011740655 0.26851958 0.11366016 -0.14941795 -0.25793368 -0.3865019 -0.2799237 0.01345547 0.28442052 0.32756108 0.16911285 -0.20170604 -0.23685835 0.6742723 -0.35775214 0.12037972 0.51567185 -0.33652607 0.23650911 0.46703693 -0.2922187 0.06264264 0.024390787 0.19786553 -0.12721623 0.22545345 -0.2267159 -0.20167284 -0.5175229 0.07198679 -0.3877349 0.02850573 -0.41012055 -0.14905262 0.1369255 -0.122093305 0.010131679 0.4241517 0.4989946 -0.029925687 0.014668028 -0.1329134 0.14136091 0.6813428 0.0434833 -0.37061626 0.11868165 0.28560326 0.54564977 -0.254957 0.16437474 0.1827793 -0.6143453 -0.3152368 -0.029661248 -0.527069 -0.24230331 -0.22836854 -0.28410125 -0.060507372 -0.3255949 0.43621972 -0.35224822 -0.243817 0.30079246 -0.15403122 -0.6207526 0.271054 -0.2163647 -0.38105467 0.3009274 -0.675469 0.12543255 -0.055913508
2696 -0.44869927 -0.019690882 -0.3016402 0.35133108 0.47702804 -0.16570081 -0.9972151 0.083176 0.37079552 -0.31071645 -0.2949326 -0.055338368 -0.27401504 -0.18314527 0.60274583 -0.36131558 0.15146296 0.12172281 0.24906853 0.45869112 -0.77177835 0.29431126 0.10549109 0.02450149 -0.13476878 -0.312684 -0.10318587 0.25615752 -0.2467988 -0.09024118 0.49485853 -0.5126776 -0.14507087 -0.11517709 0.6433644 -0.22460574 0.17530979 0.07550327 -0.19295086 0.76893646 -0.3377572 -0.06427685 -0.25493252 0.3440484 0.5374509 0.7229323 -0.63739663 0.19710815 0.18864003 -0.3264555 -0.092394345 0.5079232 0.60149765 0.50943637 -0.51147634 0.0024010655 -0.19312167 -0.16358298 0.18099271 0.22216497 0.25074434 -0.04420604 -0.40329224 -0.1799142 0.59883356 -0.22082254 -0.25956675 0.057765838 -0.18053344 0.5767794 0.02677177 0.2958871 0.470681 0.53734684 0.2551839 0.45832774 0.021560933 -0.010071379 0.36057222 -0.76363945 0.1106795 -0.35243684 -0.049805533 0.21282966 -0.70454293 0.314711 -0.063563325 -0.34885582 0.13865732 0.32554862 0.6737361 0.13927063 -0.25970736 0.610444 -0.6336722 0.029281544 0.21140374 0.17765658 0.95292723 -0.18191208
642894 0.025865322 -0.21569924 0.39950907 0.13759156 0.38929504 0.39013624 -0.7175149 -0.22872172 -0.016036289 0.85794246 -0.46887934 -0.9125279 -0.0052975486 0.17776428 0.023037584 -0.46877667 -0.569082 -0.14136332 -0.05324286 0.072861016 -0.731085 0.035468377 0.018064814 -0.098120786 0.26270807 -0.4312138 -0.817831 -0.029207317 0.43646422 0.16178922 0.4243444 0.11950274 -0.2226433 -0.39336097 -0.1824195 -0.04810537 -0.77311224 0.2992421 0.017866498 0.012388505 0.0014754834 -0.2640572 0.6028652 -0.11993106 0.11653333 0.888938 -0.19181573 0.09926111 -0.27433994 0.36076072 0.03461756 -0.37642702 -0.27729166 0.14823677 -0.24095125 -0.17169003 -0.6459783 0.30465382 -0.34298372 -0.380232 0.670169 -0.93976164 -0.46468884 -0.10224453 0.80751157 0.037921324 -0.006326051 -0.08561699 -0.47800174 -0.082191795 -1.0977219 -0.11832584 0.47586632 0.3602599 0.55565774 0.21671444 -0.25195974 -0.039842755 -0.2693182 -0.7173806 0.36256707 -0.58908385 -0.28568473 0.29586998 -0.464006 0.08457173 0.713388 -0.20347562 0.6245007 0.33569163 0.041879732 -0.5627155 -1.0244143 0.6530605 -0.50174046 0.5558954 0.63974077 -0.6654866 0.89056236 -0.43960223
16819 -0.03566503 -0.03146022 0.3900846 0.22579944 0.40042067 0.30353993 -0.9972762 -0.060104653 -0.33775944 0.61473787 -0.28498608 -0.7363819 -0.020980738 0.37126717 0.1833133 -0.44141743 -0.47590753 -0.060573142 -0.05539486 0.19390485 -0.7550535 0.04383385 0.12919226 -0.07514875 0.3606023 -0.28758523 -0.62703323 0.022994827 0.41659674 -0.07585378 0.16598551 0.3736935 0.13752253 -0.3576457 -0.2930201 0.056696553 -0.43368274 0.78042984 -0.15216479 0.09514152 0.07419313 0.12781206 0.80645084 -0.06506224 -0.025253287 0.9417246 0.06666386 0.07700282 -0.22888204 0.44767267 -0.11510038 -0.16011228 0.24380593 0.06909241 -0.09366447 0.2513929 -0.84223884 0.13092157 -0.26277065 -0.05498751 0.7667522 -0.62532437 -0.6420773 -0.11494528 0.6817896 -0.07601938 -0.07656713 -0.11619536 -0.16875656 0.034066625 -0.81510687 -0.3775142 0.24936321 0.1990647 0.8100757 0.21674463 -0.5457499 -0.1544511 -0.33711973 -0.93262446 0.2108566 -0.35503167 -0.14354523 -0.011461295 -0.5035227 -0.04089324 0.4138618 -0.46936655 0.7224173 0.29467076 0.3605572 -0.602891 -0.86649346 0.70618623 -0.47784433 0.39714798 0.30623978 -0.42354533 0.5670337 -0.47082862
3218 0.5657038 -0.2216543 0.36882612 0.13710737 0.27845675 0.14120689 -0.16696367 0.04828555 0.17524193 -0.12551081 -0.18751608 -0.43908644 0.70077944 0.2990857 -0.4150405 0.04290351 -0.060298555 -0.03518834 0.09599597 0.47317562 -0.948242 0.39546597 -0.10861394 -0.34285522 0.0016577101 0.07383292 -0.07672752 -0.046833344 0.55125636 -0.27848804 -0.16630204 -0.21904093 0.4499191 0.0727911 0.037152812 -0.08974104 -0.26789284 -0.4488009 -0.2904718 -0.065568656 0.0037098299 0.11641764 -0.3345421 0.67502713 0.14649929 0.039262768 -0.6460338 -0.27341813 -0.07165761 -0.32921302 0.09404613 0.6966746 0.086202174 0.47647467 -0.7169028 0.057120223 -0.45967713 -0.29528517 0.38255948 -0.091642424 -0.53233904 -0.648809 -0.32960534 0.10700596 0.40790454 0.51823175 -0.4666971 -0.09654729 0.008402647 0.1801158 -0.24791951 -0.16941763 -0.21925783 -0.044172246 0.072774604 -0.33643815 0.21218511 0.03873931 0.28992122 -0.28353274 -0.04785589 -0.08699735 0.013067713 0.47045302 0.25786218 0.753343 -0.06217548 -0.20901465 0.0072536343 0.054526348 -0.54837334 -0.9212209 -0.28330028 0.21128611 -0.26472113 0.22792897 0.029872648 -0.7017822 -0.03364532 -0.5712461
35061 0.25212675 -0.5169544 -0.18107918 -0.24227525 -0.0795701 0.16506754 -0.063383125 -0.038767006 0.11014848 -0.04676588 0.22742032 -0.068211645 -0.56471926 0.6777329 0.08497396 -0.47982728 0.013137262 -0.02390318 0.008293933 0.21274021 -0.08740431 0.22175254 -0.69888824 0.0028919477 0.06421404 -0.47762752 -0.118445955 -0.088852465 0.664771 -0.5313174 0.066242054 0.08130542 0.2076022 -0.18524286 -0.053574953 -0.23521358 0.051306933 -0.49474356 0.3554331 -0.20720343 0.043246914 0.077325135 0.16385527 0.24671319 -0.2786881 0.30771366 -0.66260487 0.23045458 0.045011602 0.08589222 -0.37248278 0.7998964 0.038725924 -0.49525166 0.4499141 -0.68115044 -0.35910997 0.20311181 0.38160202 -0.00022176247 -0.06028231 -0.29308584 0.21631236 -0.38552526 0.1945944 0.22936668 -0.5105857 -0.012516057 -0.07886569 0.2101022 0.045355722 0.5412464 -0.77102774 -0.15344974 0.29354036 0.060779653 0.10481094 0.12447623 -0.2102512 -0.30379242 0.504946 -0.5760785 -0.02245196 0.16438222 -0.516396 -0.20263639 -0.12759788 -0.36018896 0.45973444 -0.14079832 0.38927698 0.1415732 -0.19358708 0.67427486 0.13924588 -0.10806415 0.37261805 -0.28813776 0.62641436 -0.21239068
10177 0.39001828 0.11932031 0.21316023 -0.1983697 -0.16005035 0.10581149 -0.047739435 -0.009230715 0.071312755 0.13509731 0.25698304 0.2253378 -0.13953213 0.49414754 -0.012145103 -0.40810964 0.39753792 0.55847335 -0.2022 0.264296 -0.50165164 0.12065918 -0.23275724 -0.040858794 -0.35252652 -0.5963647 -0.28972608 -0.32541305 0.52232176 -0.020747446 0.1652297 -0.41004828 0.034274507 -0.048772354 0.6700707 -0.63288337 -0.14387439 -0.18973264 0.37688994 0.3433616 0.1960032 -0.13772246 0.49745783 -0.26406005 0.6102477 0.11345542 -0.17846298 0.23685294 -0.34412643 0.31191507 0.07415285 0.2673847 0.4031696 0.9451942 -0.5737909 0.45625576 -0.24731192 0.83866197 0.2958968 0.1500578 -0.0065052905 -0.5173766 -0.550796 0.72003156 -0.080916956 0.28782058 -0.2185042 -0.45555598 -0.09927555 0.38209343 -0.48968667 -0.31975165 0.05217561 -0.031681992 0.60467404 -0.23078066 0.17478877 0.08068245 -0.061260678 -0.047574177 -0.41337782 0.060708866 -0.14316747 0.80584306 -0.3013074 -0.037122004 -0.19635633 -0.38878983 -0.27824634 0.06806551 0.020699523 -0.55452996 -0.52145714 0.13884373 0.055411313 0.0604666 0.5230811 -0.48004183 0.31102905 -0.1470032
54129 0.3251138 -0.18334733 0.5686582 0.62368375 0.023854759 0.13502952 0.17924714 -0.01686853 -0.042705085 0.047307767 0.093869135 0.23940301 -0.49863574 0.079604335 -0.18599717 -0.6431835 -0.028036324 0.45747414 -0.00934188 -0.19915552 -0.41255477 0.8149571 -0.16723713 -0.09169475 0.17350273 -0.6204946 -0.27672052 -0.49442312 0.39700815 0.093706064 -0.47318408 -0.22743315 0.27057946 -0.14041819 0.23499547 -0.24769644 0.07874548 -0.37004176 0.19298658 -0.243335 -0.23937647 0.46845028 -0.018429823 0.24349035 -0.15472132 0.87429196 -0.74807185 0.49979803 0.39106143 -0.25359654 0.06392322 0.19656518 -0.43736592 -0.6379488 0.86136144 -0.27269843 -0.469274 0.2811689 0.47827393 0.09032352 -0.39649326 -0.07621953 -0.2570257 -0.27190343 0.36992317 -0.1448265 -0.3970269 0.31182575 0.114121035 0.20991379 -0.09452547 -0.24201038 -0.097635135 -0.15600191 0.70989764 0.4199846 0.20509377 -0.322192 -0.52954787 -0.68374103 0.2363276 0.22080642 -0.12002001 0.40250927 -0.9637017 -0.25682518 -0.2805528 -0.39707157 -0.1217857 -0.2056769 0.322241 -0.61392754 -0.5843861 0.73831004 0.3366046 0.25956133 -0.010606914 -0.24792308 0.40190113 -0.08938274
5348 -0.2813401 -0.13162753 -0.08013383 0.23044915 0.6691961 -0.17726739 -0.911409 0.089332186 0.5682533 -0.24893159 -0.29547608 -0.06473121 -0.17242007 -0.090644434 0.6910505 -0.54411256 -0.01073232 0.2563622 0.069041654 0.45935464 -0.7280756 0.53067386 0.12628597 -0.08324605 -0.09414958 -0.42068243 0.17825434 0.010071746 -0.123725235 -0.10147609 0.3191491 -0.37554294 -0.2262729 -0.1594207 0.57898223 -0.11867154 0.26217824 -0.16092764 -0.17506002 0.8192226 -0.1950112 0.055613242 -0.36223522 0.23327099 0.54691356 0.87872136 -0.67234814 0.20345235 0.3198187 -0.2990198 0.017294746 0.44552746 0.6565486 0.6093746 -0.56276655 0.0817478 -0.23550479 -0.107450195 0.11552418 0.16859972 0.14193726 -0.18461084 -0.3940968 -0.51691973 0.8522409 -0.52658045 -0.22163132 0.07580726 -0.08814531 0.61176956 0.24737132 0.30620039 0.67622054 0.69372416 0.29100892 0.38308963 -0.065830514 0.023141958 0.51781344 -0.3740066 0.15193339 -0.29684606 -0.05123758 -0.03634939 -0.843473 0.22741681 -0.13563238 -0.48832062 0.18949227 0.13365763 0.77502364 0.18155305 -0.33324844 0.88893133 -0.3858605 0.21302198 0.11293025 0.31050646 0.97953784 -0.176468
35797 -0.30801082 0.0607509 0.026490834 -0.45746627 -0.14383204 0.08658434 -0.32126144 0.30426165 0.038284935 0.14468212 -0.24261093 0.31110594 -0.014797306 0.18967138 -0.21487167 -0.40595242 -0.09694214 0.34673068 -0.25341132 0.2446852 -0.3129818 0.6313029 0.37310094 -0.42362493 0.08661329 -0.4990996 0.18303478 0.06606717 0.3006761 0.032677006 0.038193785 -0.21776536 -0.0037745303 -0.2130601 0.33662263 0.4791977 0.27639335 -0.46382493 0.11287146 0.3172659 0.1709584 -0.042075455 0.032077838 -0.19656754 -0.046866465 0.4451108 -0.16025907 0.31197944 0.24164982 -0.2886571 0.21260491 0.38681966 0.010711576 0.21639834 -0.41558334 0.03495344 -0.55273837 -0.42067182 0.089075185 -0.16521579 0.31520116 -0.7235573 0.060356125 -0.8320283 0.76029164 0.13261792 -0.4731341 -0.07284652 -0.28266814 0.38405126 0.17116994 0.33357182 0.08843562 0.44945708 -0.17053735 0.35378435 -0.37082016 0.19593416 0.06881182 -0.1247235 0.0060279714 -0.38379738 -0.22331373 -0.07948325 -0.42335993 -0.32568565 -0.43323576 -0.3576197 0.4378586 0.061892755 0.3272978 -0.028431782 -0.16563399 0.98902345 0.23648874 0.48222145 -0.118664734 -0.5444611 -0.08953116 -0.0014365488
54131 0.025594475 -0.20600086 0.4641982 0.45165572 -0.20791988 0.11916268 0.15229258 -0.4275324 0.1332999 0.15007803 0.38999137 0.024212852 -0.22068918 0.43191606 -0.10131523 -0.5530986 0.019553652 0.20956539 0.0541704 0.048034 -0.25836387 0.3421694 -0.15066803 0.22108012 0.023545926 -0.35165134 -0.07627139 -0.2728899 0.5235864 0.06375423 -0.4491613 0.38480264 0.028119529 0.09247808 0.46661115 -0.3905162 -0.03573199 -0.28888962 0.20475866 -0.0506814 -0.3040207 0.14245537 -0.1674999 -0.10019503 -0.12790012 0.1373721 -0.40487835 0.24870199 0.23073746 -0.18572114 -0.24132553 0.47800136 0.16780943 -0.70406896 0.7299731 -0.3795867 -0.3058829 0.17979798 0.02555712 -0.37054944 0.18446048 -0.3865609 -0.0028950833 -0.30936557 0.18576925 -0.13006674 -0.5296979 -0.07029014 0.16077995 0.30015558 -0.49808267 0.20223503 -0.35831445 0.08345697 0.66232806 0.4317524 0.23721148 -0.23074028 0.39813963 -0.66797197 0.2667119 -0.22459643 0.16222322 0.40705854 -0.8061413 -0.28884932 0.3184887 -0.2980755 -0.26073518 -0.49008587 0.53543025 -0.00860259 -0.48418674 0.5791843 -0.06303351 0.10186936 -0.059632994 -0.8183116 0.5775732 -0.32329172
38205 0.27354115 -0.37817252 0.33059257 -0.0483341 -0.11148085 0.5734135 -0.25521883 0.283938 -0.0462881 0.1514797 0.12848602 -0.045061395 -0.6449353 0.16053753 -0.20407578 -0.3665224 0.019742107 0.23383713 -0.087897666 -0.22419696 0.0034947703 0.4601686 -0.28349572 -0.43604362 0.002934703 -0.30202696 -0.24045023 -0.4626375 0.38585165 -0.15079473 -0.34720346 -0.21213496 -0.1648257 0.012303654 0.017004747 -0.45556006 -0.10028533 -0.13980444 0.20656815 0.40474346 -0.4249067 -0.35903203 -0.332326 0.48277158 0.049052984 0.620783 -0.38840422 0.13448457 0.14764383 -0.13251601 0.25436863 0.13501064 -0.3217937 -0.58835644 0.5720529 -0.39528546 -0.49583814 0.19743566 0.23821777 0.2549907 -0.46754873 -0.30071014 -0.3008337 -0.47914436 -0.059674677 -0.08174392 -0.628265 -0.24926513 -0.030251112 0.18958744 0.32078353 -0.07786573 -0.50158906 -0.20442437 0.5228005 -0.24572268 0.38125777 0.25994417 -0.8912924 -0.79679805 0.19272365 -0.03796275 0.23378189 0.10426657 -0.48189032 0.08292951 0.15271771 -0.25599363 0.06255828 -0.3560779 0.21946552 -0.068148255 -0.48712775 0.5075251 0.087120414 0.46171653 -0.09965021 -0.2994885 0.7563809 0.2347365
89547 0.31232277 0.2802088 0.34916854 -0.37590572 -0.01720166 -0.12324922 -0.12201065 0.4361422 -0.21771663 -0.41172633 0.56426567 0.041354235 -0.58678234 0.3666017 -0.11110043 -0.08908716 0.043495886 0.6635452 0.12736681 -0.47556558 -1.1433042 0.02336861 -0.27863875 -0.15015113 -0.2684776 -0.6820888 0.27406508 -0.116916664 0.4553378 -0.07479573 0.039694868 0.19359677 -0.119890526 0.37975088 0.33442056 -0.5306238 0.44267917 -0.6399747 0.49975702 0.04322711 -0.24866182 -0.5392653 0.16323681 -0.047753748 0.27709043 0.23410892 -0.3092374 0.04287383 0.04823031 -0.17244588 -0.0703924 0.3010072 0.2762912 0.5231361 0.32061836 0.027949376 -0.39760593 0.7259634 0.072738364 0.2271627 -0.015672928 -0.6557878 -0.31033924 0.037264828 -0.0058381297 0.5666442 -0.092528574 -0.14484377 -0.26965463 0.17749783 -0.31794623 0.13495561 -0.1662153 0.20669815 0.2874949 -0.0048516486 0.2425585 0.31143242 -0.038541056 0.10633068 0.16427043 0.37480083 -0.11194413 0.74062914 0.27300054 0.0075636907 -0.22641653 -0.36572817 0.29453483 0.18880005 -0.17136802 -0.20908624 -0.25882992 0.23821206 0.026771992 -0.32759356 0.5315314 -0.38509858 0.53330535 0.4413687
34257 0.29340127 0.12512954 -0.08857565 0.51135206 0.26879114 0.543565 -0.14422227 0.13520476 0.58789754 0.06555885 -0.0047501265 -0.4435455 0.025669433 0.07321132 0.011077037 -0.38101757 -0.21726951 0.74442136 -0.23344173 0.64358974 -1.2868018 -0.23467545 0.33940643 0.05553153 0.4491444 -0.4680022 -0.59048164 -0.8341393 0.5899852 -0.0052745324 -0.11069518 -0.2432627 -0.44999447 0.46077564 0.35934818 -0.29528362 -0.23803315 -0.49833405 -0.072189465 0.71332306 0.41029757 0.07582681 0.65217555 0.09991797 0.09769123 0.7018955 -1.0710856 -0.26408634 -0.1265789 -0.28420255 0.36072972 0.30456325 0.2274931 -0.18239385 -1.0166026 -0.09305875 -0.24945505 0.1262431 -0.3095502 -0.2679314 -0.26842543 -0.046353575 0.12845062 0.056637112 0.7140995 0.36675832 -0.97571176 -0.2859244 -0.14358556 -0.5196945 -0.5794692 0.03483473 -0.22249565 0.2520651 -0.09541047 -0.22631043 0.21399562 -0.12362506 -0.20797864 -0.72190917 -0.1792664 -0.5062089 0.5586273 -0.018789815 -0.109065324 0.32772535 -0.1203884 -0.5532441 0.015943026 0.44889733 0.87432146 -0.097934544 -0.7598458 0.45331436 0.0835484 0.51985437 0.13195625 0.3777758 0.5323439 -0.36950946
2654 0.24099568 0.22467002 0.29931372 0.025028888 -0.5984528 0.33319795 -0.15520583 0.08506818 0.036291238 0.33839294 0.31406027 0.118340306 0.07590129 0.2351734 0.42531163 -0.20626745 0.061944436 0.6378542 0.11479821 0.3837715 -0.8663854 0.24842818 -0.1444232 0.047279257 -0.061942108 -0.30668607 -0.6601827 0.40246856 0.53650427 -0.23786554 0.17024063 -0.44461524 -0.16248865 0.08527796 0.24203128 0.58308977 0.099976115 -0.2567758 -0.24424425 -0.3074575 0.5652233 -0.3685803 0.24420258 0.23625311 -0.018950833 0.39601025 -0.59377587 -0.19320388 -0.21235634 -0.2326156 0.039560884 0.051557347 0.2698184 0.666534 -0.04786423 0.10127437 -0.87164 -0.16079584 -0.67325133 0.4709643 0.12691893 -0.52464914 -0.3156806 -0.3074274 0.52100414 0.08591972 -0.2707851 -0.44536054 -0.24080618 0.085716136 -0.33569536 -0.05254933 -0.41085237 0.018741472 0.14323388 0.025110312 -0.18378885 0.34544197 0.45046702 -0.4072944 0.15746468 0.25205952 -0.4957115 0.42320868 -0.49572197 0.27569273 -0.24921305 0.74225014 -0.21610981 0.27405903 -0.2729805 -0.7586073 -0.0025188227 -0.0654258 -0.024856945 0.10579579 -0.0075920695 -0.5364227 0.37457192 -0.324683
28350 0.25742596 -0.19212502 0.27001745 0.33359239 0.420077 0.49545318 -0.60772455 0.59563684 0.38667876 -0.8599216 0.09216137 -0.211887 -0.111976534 0.4237554 -0.095211655 -0.20604865 0.057138927 0.12095902 -0.027960867 -0.3484409 -0.7596409 -0.087497756 -0.014606049 0.050964918 -0.29574743 -0.08416075 0.37392667 -0.15663186 0.64174205 0.1184 -0.10642564 -0.3921704 -0.43570358 0.39245704 0.12650654 -0.5765602 -0.31817442 -0.27174026 0.25123236 1.0293691 0.1870212 -0.30432636 0.19454978 0.23671648 0.08407822 0.5879381 0.005730043 0.19771051 -0.06758364 0.046004105 0.37785718 -0.1488757 0.14495298 -0.44582453 0.18621679 0.1473704 -0.089353025 0.08223596 0.21159203 0.008218812 -0.5415657 -0.30628967 -0.28375244 -0.21421693 -0.08407223 0.43501708 0.36036888 0.1359241 -0.12559223 0.7061329 -0.15870911 -0.014334682 0.13353886 -0.09532931 0.77525723 0.52941835 -0.23849665 0.040627956 -0.32737684 -0.03336401 0.2876161 -0.12762815 -0.16746105 0.41233546 -0.17982058 0.19005522 -0.03577464 -0.056807864 0.21380478 0.1423778 -0.0024380833 -0.11637886 -0.28717965 0.7267473 -0.16355936 0.17756428 0.47740316 -0.2551307 0.62234974 0.21628737
6913 0.067309424 -0.0077498653 0.46144477 -0.21595435 0.17336638 0.29372367 -0.45331362 0.12311017 -0.10001315 0.36424673 -0.16653584 -0.25202653 -0.19396444 0.06803831 -0.16310373 -0.60087526 -0.15382838 0.117172666 -0.07050318 -0.15288223 -0.4857603 0.07051223 0.26887622 0.4288303 0.029516226 -0.5601262 -0.48645642 0.113952704 0.6895447 -0.00791169 0.23259863 0.17554232 -0.110949025 -0.35194898 0.11322906 0.11735247 -0.45275176 0.5777371 -0.17451692 0.13134629 0.14980905 0.08563002 -0.14821556 -0.2239796 -0.14750661 0.55555934 -0.11127013 0.11762669 -0.26688343 0.2606806 -0.124363124 -0.30111617 0.35274538 0.42644018 -0.8157073 0.07837979 -0.10243743 -0.06780924 -0.2144273 0.0035197595 0.7143606 -0.5112393 -0.2301919 0.089321174 0.7623026 -0.28049073 -0.017948506 -0.23216698 -0.62423027 0.19579831 -0.21356851 -0.02366007 0.22248489 0.105839096 0.2356106 0.5333153 -0.4203101 0.24330008 -0.37540084 -0.50284326 0.6285778 -0.29657382 -0.2704521 0.2085691 -0.189776 -0.3271316 0.21582648 0.46209973 0.29344708 0.05694153 0.45664164 -0.3732529 -0.594447 0.51518077 -0.49035567 0.74165785 0.40636295 -0.9652643 0.56143814 0.08495128
6910 0.1338353 -0.18912917 0.46507913 -0.2395813 0.1949416 -0.08504484 -0.69668555 0.08242627 0.091345415 -0.0626809 0.16447808 -0.38165656 -0.29434618 -0.11687062 -0.21783939 -0.8781103 -0.30596325 -0.24543534 0.12020271 0.071118616 -0.5961863 0.4303656 -0.16631082 0.668795 0.108657494 -0.51600844 -0.4537578 0.0060617365 0.9595723 0.23658073 0.34475833 -0.0032674978 -0.5616302 -0.1967772 0.23670998 0.18921657 0.28728724 0.3172951 -0.007867267 0.12368247 -0.1408848 0.30179602 0.38381794 -0.13179106 0.09480364 0.5296198 -0.19977424 -0.37329796 -0.430805 0.46783566 -0.029449165 0.33131883 0.21602611 -0.11527171 -0.8046871 -0.27203304 -0.58341503 -0.44459018 0.1084839 0.26135504 0.5020193 0.42620003 -0.2805319 0.046262402 1.1451119 -0.52766424 0.36204976 0.11464206 -0.42302352 0.18955411 -0.35901073 0.10186725 -0.108182915 0.6290628 0.21616754 0.25458905 -0.3352523 0.21408838 -0.19147474 -0.37276477 0.43806717 -0.34952205 0.03744877 -0.2579483 -0.1916838 -0.5000389 -0.031681783 0.21021728 0.18515643 -0.32979193 0.13890867 -0.38243386 -0.37684587 0.5689445 0.28596714 0.938076 0.6174925 -1.0577896 0.696971 0.38802823
18777 0.38925967 0.28698727 0.16983162 -0.40934318 0.6591548 0.18336886 -0.25847012 0.29334563 0.06312659 -0.26477477 0.1650304 -0.15499507 0.1361758 0.7570176 -0.35335532 -0.45683965 -0.2853782 0.47411156 0.6181711 0.46011177 -0.7365799 0.21418585 0.15246196 -0.29547563 0.048442267 -0.7265041 0.18212357 -0.29795635 -0.067447215 0.41237515 -0.4651834 -0.625652 0.09056658 0.026439631 -0.177542 -0.038080495 -0.3104656 -0.1904369 -0.13213894 0.082756534 -0.46788454 -0.63519746 0.06090164 -0.18502893 -0.096475534 0.66375333 -0.08394832 -0.19128473 0.3045249 0.009627851 -0.16330437 -0.1568284 -0.107751325 0.49322513 -0.476972 0.2760401 -0.30901518 -0.3127068 -0.117772914 0.016256113 -0.63513345 -0.4119279 -0.66219175 0.16178985 0.48128626 -0.15166971 0.22625323 -0.3522717 -0.12240356 0.3903287 -0.45608255 -0.40915295 0.018259926 -0.09511757 0.64461046 -0.058092874 -0.038667317 0.35507995 -0.44046766 -0.30374265 0.16736619 0.064606056 -1.0465935 0.066470005 -0.048365507 0.12184446 -0.22097756 0.114502914 0.37732992 -0.15983896 -0.18522333 -0.25667483 -0.75253785 0.058595274 -0.12520117 0.20926657 0.30916035 -0.36275765 0.3094866 0.54161584
153063 -0.40313005 -0.29086864 0.24085292 0.01682643 0.56716883 0.16329004 -0.40030664 0.27436122 -0.27860835 0.29365045 0.0048772395 -1.0403389 -0.28543124 0.46504766 0.53674465 -0.8570544 -0.15152662 0.41324645 -0.3213722 0.80437607 -0.7977971 0.29801524 -0.76767796 0.24160485 0.31439012 0.43030605 -0.64088225 0.10243151 -0.12234128 -0.08238014 -0.3326637 0.201829 -0.10444731 -0.47143582 0.055029675 0.31948885 -0.24696004 0.11111236 -0.101275355 -0.14113288 -0.298632 0.38608438 1.2957596 0.38936344 -0.20445529 0.7853862 -0.066257074 -0.10155407 0.12575832 0.15839428 -0.0545674 -0.065365635 0.57087284 0.21370009 -0.41007036 -0.027822554 -0.9038895 -0.0439642 -0.16786794 0.18099816 0.30066288 -0.851055 -0.9380896 -0.17962106 0.28636783 -0.0056944885 -0.2293166 0.13613705 0.06693406 -0.13424346 -0.9389633 -0.79845995 0.146339 0.16747889 0.6687946 0.09979032 -0.25942197 -0.030265296 -0.09170705 -0.9355001 0.16223957 -0.04265511 -0.25801304 -0.28076562 -0.20433661 -0.22917163 -0.1434001 -0.22334129 0.8245782 0.00043103154 0.027231826 -0.5763641 -0.7933975 0.4779265 -0.23178475 0.72950053 0.29484195 -0.6789696 0.4332969 -0.26379794
1956 0.6884024 -0.032639798 0.08645397 -0.21042565 -0.19253476 0.25500447 -0.21121657 -0.3413261 -0.35137248 0.7212962 0.47613028 -0.13322048 -0.07585242 0.53834534 -0.38920152 0.43250504 -0.010636409 0.29196557 -0.18655089 -0.117945924 -0.4771342 0.13579082 -0.20871082 -0.15541758 0.13945779 0.23906642 -0.03941731 -0.56922656 0.5317469 0.23876646 -0.35659882 -0.26798305 -0.1306599 0.5177756 0.43978387 0.21296467 -0.28205952 -0.1375207 0.18949868 -0.30113545 -0.05582315 0.44198525 0.33681178 0.8651051 0.27364698 0.2215015 -0.7434997 0.048736226 0.13752584 0.14766459 -0.52642894 0.7080409 0.16517007 0.22587988 0.5324489 -0.22289847 -0.6432319 -0.067403786 -0.17159013 0.069817446 0.2838654 -0.018197276 -0.39857817 -0.18479823 0.0915294 -0.03848081 0.10462978 -0.09587642 0.19768254 -0.006528377 0.02708327 0.24013557 -0.12599337 -0.032652035 0.023227988 0.2568174 -0.11306353 0.06888519 -0.16808513 -0.4959717 0.60809785 0.7757627 0.57906806 0.21113351 -0.009260299 0.004226754 -0.13179125 -0.3755386 0.2125542 -0.24064486 0.37492606 -0.55740005 -0.25647497 0.531045 0.09217813 0.13746865 0.20780173 -0.11942477 0.55081546 -0.61909646
3233 0.25114337 -0.0352291 0.88464737 -0.43243948 0.0780272 0.04119517 0.105446994 0.24543124 0.29226613 0.38727435 0.7349805 0.043403376 0.46491668 0.042765785 -0.19014286 -0.2953707 0.4811049 0.43835813 0.09116926 -0.27239996 -0.85623515 0.30848938 0.30826426 0.014608352 0.019651417 -0.2611931 -0.054293003 0.019303886 0.654358 0.08276063 -0.3188199 0.060505807 0.08433466 0.6136701 0.25432506 0.1306658 0.10520846 -0.45833367 0.039589707 -0.25573164 0.09740244 -0.3007934 0.15976939 0.26001123 0.7175457 -0.05365071 -0.50631994 -0.3246161 -0.25918478 -0.046063624 -0.16447675 0.110982485 0.62357014 0.49080735 -0.060315233 0.30464366 -0.65216184 -0.14066812 -0.32843107 0.27759704 0.20589237 -0.7053322 -0.11805114 0.11276761 0.10714108 0.2710947 -0.28551444 -0.053987913 -0.51601213 0.026969654 -0.10532905 0.069227114 0.14068578 0.13889046 0.35823432 0.3218755 0.10058293 0.040567048 -0.1035177 -0.16382374 -0.25112608 0.11346457 -0.013012312 0.62260824 -0.2803218 -0.013569185 0.106103845 0.29052502 0.052342232 0.5336651 -0.37623775 -0.08282764 -0.44095457 0.13707547 -0.32442647 0.20183194 -0.081888825 -0.3507568 0.84338367 -0.095795006
65074 0.3253304 -0.2815794 -0.3781319 0.75683427 0.40016264 0.55460614 0.167532 -0.8049307 -0.06942334 0.69275427 0.5489406 -0.35444912 -0.33517548 0.5495948 -0.051820606 -0.2966619 -0.17972757 0.013168891 -0.0777377 0.08695504 -0.9647606 1.0219709 -0.47778183 0.66459244 -0.17310193 0.51753724 0.15968196 -0.2698143 0.4472471 -0.18973227 -0.16122973 -0.032651182 -0.40483746 0.2883413 0.9925186 -0.24807273 -0.32901388 0.010786185 0.17214885 0.0530319 -0.3477816 -0.36702573 0.06897712 0.34566697 0.37828207 1.2623857 -0.91886896 -0.08889479 0.09504808 0.49579138 -0.093796715 -0.040459853 0.6827511 0.19088031 -0.6463022 -0.2575668 -0.63462865 0.15814056 -0.640364 0.41836545 -0.48608047 -0.040198445 -0.87291 0.20474955 0.3940644 0.4067301 0.05494224 0.033654787 -0.011707619 0.29896772 -0.6782746 -0.053363707 -0.0146391485 0.42763615 -0.31997445 -0.3154912 0.3975345 0.34828126 0.3060877 -0.40945968 -0.24466406 -0.20766729 -0.53122926 -0.43052542 -0.3658603 -0.29946306 -0.13412887 -0.48772457 0.25308332 -0.21141441 0.31078607 0.4365791 -0.91989684 0.4478097 0.3083805 0.46592674 0.6022543 -0.37254924 0.46438584 0.460241
31489 0.18975458 0.049126927 0.06546324 -0.15656112 0.38738587 -0.039540064 -0.30695412 -0.18418656 0.5867559 -0.018772269 -0.2606014 -0.15779157 -0.4051978 -0.22494888 -0.08716852 -1.0111468 -0.42270723 -0.1272868 0.40605462 -0.100754865 -1.036338 0.8071182 -0.43520764 0.7509255 -0.33235875 -0.5608468 -0.24989036 0.08952471 0.58377826 0.52507365 0.22247256 -0.42675602 -0.99578696 -0.03960799 0.5506441 -0.0076467884 0.6182812 0.28441375 -0.082454026 0.7074059 -0.33904943 0.14730841 0.0010750052 0.23766434 0.4124899 0.41882986 -0.6631279 0.15146099 -0.5351544 0.12612638 0.06052202 0.46374255 0.41596952 0.017931877 -0.42010424 -0.40884772 -0.956378 -0.3691184 0.38394567 -0.013889778 0.25496212 0.6613437 -0.27743965 0.038950752 0.66036785 -0.35177776 0.7245566 0.28653276 0.15127432 0.30322552 -0.13774623 0.06932793 0.09437916 0.6004478 0.13219637 0.05503155 -0.2795513 0.454602 0.31873083 -0.6772933 0.15519431 -0.76298964 0.27118903 -0.2239482 -0.52740884 -0.06771 0.4293283 -0.16721605 0.15064408 -0.1714019 0.24894342 -0.2868847 0.028758889 0.73463714 -0.053408213 0.07780116 0.62646127 -0.72485745 0.79419833 0.3148855
41714 0.6461035 -0.04328876 0.39144856 -0.25998393 -0.461398 0.15325154 -0.3056132 -0.16044545 0.56709135 0.2325195 0.39615875 0.07524317 -0.4724325 0.2968457 -0.10601624 -0.103512086 -0.24495469 -0.022268625 -0.19388172 0.18573894 -0.13650876 0.45023957 -0.8668695 -0.16091156 0.1118557 0.034824055 -0.27508342 -0.10470219 0.29140255 -0.37944278 -0.32884872 -0.030188514 -0.29115194 -0.45826587 0.28603145 -0.5821386 0.12466795 -0.5079524 0.46958497 0.1676158 -0.32609144 0.34231815 0.42018992 0.32680967 -0.2920046 0.48698032 -0.8006323 0.38678792 0.6165904 -0.0558957 -0.08811041 -0.09605775 -0.059142347 -0.45211452 0.49802023 -0.24390219 -0.2506765 0.48106816 0.17797513 0.09398249 0.051569365 -0.55677885 -0.18100938 -0.30089217 0.09053514 -0.055628873 -0.40848508 0.12456563 0.32038486 0.3108502 0.35169068 0.3136948 -0.47187534 -0.038834162 0.062332764 -0.0710228 -0.31399065 0.34695467 -0.08142526 -0.9733477 0.50773627 0.13334459 -0.27795702 0.34917605 -0.6414893 -0.04855382 0.35188124 -0.33654752 -0.0058489726 -0.1979934 0.32629094 -0.19392763 -0.5661191 0.54833686 0.040501848 -0.022799391 -0.15378739 -0.28941363 0.48147976 0.12326685
108047 0.278813 -0.24244133 0.67410123 0.45352387 0.0118669495 0.1428859 0.17825183 -0.03844141 -0.22655916 0.27018917 -0.0033992871 0.4037439 -0.28843498 0.058287762 -0.04489174 -0.92556095 -0.042204298 0.4001442 -0.049473833 -0.10452478 -0.3339442 0.71099764 -0.1413676 -0.31857058 0.2964759 -0.5572545 -0.26151192 -0.49981308 0.5365824 -0.12378487 -0.24090838 -0.2737069 0.3823353 -0.24232155 0.42677557 -0.49334207 -0.042408433 -0.5043627 0.28481066 0.07367635 -0.040251687 -0.039955847 0.13823217 0.54585683 -0.046701163 0.8128044 -0.46838123 0.49643716 -0.05896667 -0.26652664 0.16018403 0.20497721 -0.4415488 -0.57082987 0.5168289 -0.34387428 -0.40930134 0.05315753 0.53030807 0.17800997 -0.417358 -0.0728751 -0.37167957 -0.4193164 0.32749656 -0.18257879 -0.65190005 0.05661536 -0.033582784 0.09665201 -0.25962982 -0.20592046 -0.42932945 -0.21572411 0.43094164 -0.21293822 0.5034101 -0.32987633 -0.5767454 -0.6516161 -0.02771583 0.14291836 0.18490043 0.33271003 -0.353428 -0.2142246 -0.09757619 -0.37493435 -0.11373186 -0.16732289 0.32779276 -0.4234023 -0.54072607 0.66218734 0.15753846 0.343023 -0.025346922 -0.062723696 0.39057872 0.05601862
46491 0.43116125 0.06939573 -0.08562392 0.34004542 0.055973195 0.34547082 -0.4795091 0.15072398 -0.1115711 0.2206036 -0.44471723 -0.108581096 0.36394855 0.47178257 -0.011402487 -0.27100813 -0.030812785 0.6459249 0.14501072 0.5864856 -1.1105865 0.5004177 -0.16721386 -0.3996255 -0.16067794 -0.5466443 0.26114085 0.39064965 0.2742373 0.24706273 0.23331875 -0.4362696 0.33887467 0.44567218 0.28425667 0.45307118 -0.13215625 -0.4252985 -0.21637323 -0.16555353 0.12321123 0.1858955 -0.00056123117 0.45977658 0.018811692 0.28293157 -0.67869455 -0.06758858 0.35281056 -0.4602996 0.05187386 1.082389 0.11068828 0.1465083 -0.365444 0.12812217 -0.22636041 -0.15764685 -0.01676601 -0.1121823 -0.13353197 -0.7214866 -0.3734329 -0.4155058 0.3395898 0.17125835 -0.40378317 -0.3938582 -0.3345114 0.1716381 0.05767858 0.2538386 -0.32720032 0.36110345 -0.20619215 -0.17896989 -0.24867983 0.4884834 0.14730507 0.012246745 0.03838326 0.0819061 -0.019476205 0.48048696 0.15503395 0.34203258 -0.22705342 -0.3302995 0.078268416 0.49881598 -0.4724562 -0.90256315 -0.119436145 0.22701928 0.5341523 -0.10422151 -0.2498888 -0.76751107 0.21454886 -0.6074587
5086 -0.21960287 0.019978179 -0.0014889671 -0.2939031 0.5269219 0.25800535 0.03390385 0.1951486 -0.009402494 0.64967096 0.48825493 -0.4463426 -0.4865154 0.41149533 0.2619561 -0.8253013 0.20066212 0.21883254 0.033467673 0.6416587 -0.40358227 0.6689905 0.1482814 0.18099798 -0.015071933 0.23914783 -0.43512523 -0.15525422 -0.072401285 -0.30240324 -0.34818596 -0.3855871 -0.013236774 -0.27313754 0.5665847 0.63506943 -0.1263893 0.11953533 -0.23355044 -0.26314765 -0.3777231 0.09833286 0.88514984 0.4012101 0.0035545188 0.73931324 -0.0127459755 0.14000297 0.093341775 0.22892329 0.095224135 -0.20352544 0.37805238 0.7272173 -0.15965286 -0.012355374 -0.86129266 -0.3072919 -0.5368394 0.15797105 0.3061889 -0.7396729 -0.6743423 0.28897774 0.53790456 -0.08515504 -0.047318365 0.2971503 -0.36790553 0.068189986 -0.63061917 -0.41987494 -0.040025473 0.323886 0.49061137 0.3664363 -0.25141013 0.29609305 -0.031489626 -0.7432383 0.16622917 0.03245364 -0.5712213 -0.07907907 0.116941966 -0.16468287 -0.28200188 0.13342874 0.41506135 0.37843728 -0.18178323 -0.13719682 -0.5282394 0.26628363 -0.35232 0.7568192 0.50385493 -0.07312565 0.1158706 -0.11515517
3243 0.89983976 0.2146596 0.3053368 0.15896219 0.276107 0.5025906 -0.45104447 0.3369682 0.12311881 0.05233695 0.49719065 -0.022738175 0.11484669 0.1622871 0.3274555 0.047131423 0.03741896 0.44061092 0.38790068 -0.31164473 -0.37552202 -0.03620387 -0.15698647 -0.04976464 -0.15468642 0.1948962 -0.17216237 -0.16163774 0.50769204 -0.0012386036 0.24936247 -0.11548885 -0.27677494 0.2751826 0.73104614 0.13496123 0.294821 -0.5761618 -0.4071293 0.31235304 0.26446506 0.0373207 0.040254794 -0.47524962 0.094928846 0.04266002 -0.09192751 -0.032988507 -0.3615821 -0.090764776 -0.56715876 0.666026 -0.24701878 0.39428303 -0.17274997 -0.24104814 -0.60213876 -0.21184364 -0.3354902 0.26636478 -0.5107817 -0.8759199 -0.34819221 -0.56149143 0.8410514 0.38270706 0.2327068 0.029387144 0.18885043 -0.2320414 -0.07486793 -0.4169896 -0.38368645 0.6466251 -0.12840006 0.0050518466 -0.2992958 0.22279339 -0.49394804 -0.1497898 -0.028845122 -0.10312611 0.07458279 0.3376741 -0.67917866 0.10917346 -0.10569628 -0.26143575 -0.63153946 0.21327911 -0.029157372 -0.2384618 -0.20855962 -0.005929361 0.020228108 -0.49905866 0.34980193 -0.4223156 0.3008878 0.42580354
10183 0.62942237 -0.09202249 0.665536 0.49191064 0.5465252 -0.025852324 0.15789051 0.6136416 0.49053288 -0.12647673 0.16600975 -0.5846725 -0.19051328 0.17827415 0.13175446 0.62576085 -0.046965457 0.023548467 0.513066 -0.066463664 -0.7260511 0.18515852 -0.23099706 0.098704524 -0.08625419 -0.30150756 -0.37363514 -0.3207944 0.2723517 0.10356186 -0.58725756 -0.39747974 -0.36893466 0.78917193 0.39320564 -0.44502854 -0.3306006 0.38629225 -0.051054813 0.48217097 0.37217453 0.13180673 0.5327587 0.1924469 0.45634803 0.24496171 -0.2137024 0.26929137 -0.14522637 0.34767157 -0.16437826 0.85953456 0.22580121 -0.0001295486 0.034228344 -0.7968054 -0.22170831 -0.22250824 0.14900911 0.1526869 -0.90484625 -0.48645222 -0.38613203 -0.28556478 0.31827343 0.1860309 0.21952634 0.11978192 0.4811061 -0.07562297 -0.4125708 0.08771919 -0.18491961 0.41453603 0.014378929 0.34449804 -0.301823 0.19108242 -0.8907766 -0.37994695 -0.25406677 0.38466442 0.24632202 0.17678632 -0.33323637 0.121147394 -0.10249403 -0.010901901 0.1798018 -0.122600816 -0.30701917 -0.3622207 -0.08326777 0.5189751 -0.32827675 -0.18077053 0.17003949 -0.2425366 -0.081116006 -0.23796254
36140 -0.22066976 0.18760101 -0.04647405 0.14614171 0.0757027 0.2765689 -0.35711107 0.47738352 -0.054592155 -0.086099625 0.06805295 0.52871567 0.24342747 0.17090105 0.06544436 -0.23921907 0.23988488 0.36703882 -0.004238559 0.3257962 -0.30500504 0.09609101 0.068038695 -0.39652765 -0.2380422 -0.22355837 -0.031811684 0.114784084 0.58645886 -0.590146 -0.089991055 -0.290187 -0.23209393 0.2149233 0.83670735 0.3910052 -0.23322532 -0.49463078 0.21168834 -0.0003314566 0.067590244 0.18607467 -0.1456937 -0.30592278 -0.20213668 -0.46515927 -0.18923531 0.21291009 -0.19999292 -0.24389379 0.24871293 0.6894379 0.117789276 0.8223484 -0.22203486 0.26201203 -0.65772486 -0.42962322 -0.16494569 -0.002026423 0.01786131 -0.6793415 -0.22693951 -0.48870465 0.95847994 0.29893968 -0.341916 -0.44438872 -0.13218984 0.23397234 0.1697858 0.14638634 0.19943044 0.35745054 -0.05917599 0.09397665 0.28886476 0.28751794 -0.15887786 -0.11290731 -0.18209708 -0.34176755 -0.29938126 0.09087341 -0.42485592 0.40573844 -0.21706292 -0.052960522 0.20947546 0.1829796 0.1840287 -0.43173283 -0.018122602 0.6441362 -0.053207614 -0.004135222 0.41597435 -0.6177048 0.27400517 0.20119442
17476 0.5521569 0.05115893 0.15945877 -0.19023941 0.8140107 0.15466876 -0.33499315 0.62024355 0.2607609 -0.12350635 0.14179753 0.007213742 -0.64522743 0.5886124 -0.08474771 0.19085994 -0.18034476 0.34789672 0.6109429 0.07922207 -0.51593703 0.3174472 0.088863395 0.16484664 -0.20868507 -0.50267446 -0.057963077 -0.2498292 0.27491248 -0.0075053954 -0.95631593 -0.5471855 0.05879674 0.29339242 -0.091440775 -0.46117413 -0.1485851 -0.20641454 -0.012643848 0.35851112 -0.35362738 0.13679792 -0.002522279 -0.16196403 -0.20593354 0.72366315 -0.33818257 0.28608564 -0.10858621 0.09250414 0.08342655 0.0678698 0.013232336 -0.71388 0.38057417 0.18317473 -0.13413899 0.2611788 0.3221187 0.0715274 -0.66987157 -0.64204466 -0.0101474235 -0.14953159 0.37742004 -0.12031323 -0.36537394 -0.23376927 0.08018171 0.5610581 -0.04019172 -0.01908334 -0.0527678 0.25624576 0.5941794 0.19207275 -0.24553563 -0.05185337 -0.5204828 -0.064904384 -0.055853914 0.1526332 -0.37754813 -0.1042872 -0.12682137 0.20736554 -0.21021532 -0.01989395 -0.09547621 -0.08464496 0.3033498 -0.5666416 -0.50016344 0.27052373 0.13626404 0.24585734 0.19175702 0.1347347 -0.06868033 0.37553477
6163 0.54263127 -0.0456122 0.2990749 0.19671373 0.38168442 0.6845542 -0.6009825 0.11719075 0.09732806 -0.29575843 0.7368641 -0.23591526 -0.22607833 -0.0048054457 -0.30353504 -0.07390294 0.26804587 0.016108895 0.068610944 -0.2568967 -0.48072842 -0.057677507 0.22118604 0.116463214 -0.13581064 0.023476453 0.027771993 -0.11734814 0.46309602 0.44608334 -0.11696371 -0.4250876 -0.106194526 0.3896258 0.24992967 -0.5895576 -0.21061356 -0.48876 -0.004358503 0.70496404 -0.12808558 -0.44581273 -0.034231465 0.27397203 -0.37095076 0.664675 0.04826167 -0.24037924 0.26769042 0.0641711 -0.12531728 -0.023714881 -0.16209802 0.07325108 0.22134449 -0.18701293 -0.4743442 -0.04027827 -0.3857569 0.034476236 -0.64968777 -0.7745201 -0.15054272 -0.33396953 0.248799 0.17379704 0.35375595 0.0047905985 -0.16243525 0.6436533 0.07224638 -0.2467435 0.04339334 -0.09793156 0.21677388 0.2216801 -0.5083006 0.2262182 -0.48396036 -0.17317219 0.5031976 0.33193478 -0.5359402 -0.07915236 -0.47457373 0.2586441 0.061668698 -0.41193512 0.084888496 0.20729434 0.290275 -0.42485243 -0.6280779 0.3108482 -0.018107539 -0.18327005 0.21326065 -0.19540507 0.6606763 0.3048391
28287 0.33648753 0.2550847 0.44656026 0.2566581 -0.25397024 0.25497577 -0.5761783 0.093307555 0.74238575 -0.6307899 0.52294165 -0.25435555 -0.5050661 0.16586588 0.3247718 -0.051665302 -0.032178257 0.085307166 0.15581448 -0.09737838 -0.78186905 0.10745035 -0.38174918 -0.35387674 -0.10292912 0.028651185 0.13935551 0.028085522 0.20082289 0.14871766 -0.19362958 -0.46457124 -0.14642806 0.050944056 0.30062726 0.12124859 0.091787405 -0.34546882 0.35753348 0.42285505 -0.18956198 0.1674223 0.009952558 0.59513354 -0.1470249 0.23837692 -0.30526608 -0.33279595 0.54231685 -0.051852856 -0.015369788 -0.25488904 -0.008560975 -0.54089326 0.28669575 -0.3186714 -0.15024081 0.38100627 0.15008153 -0.71364254 -0.22650324 -0.30877215 -0.04755718 -0.39979875 -0.081328794 0.4658301 -0.1802159 -0.10341454 -0.37142292 0.60144377 -0.17808226 0.43612945 0.3325291 -0.04538411 0.1730613 0.354234 -0.5246779 0.36763293 -0.13103017 -0.41960302 -0.03469242 0.017214643 -0.072835766 0.33196816 -0.37207386 0.107856594 0.1633538 -0.4121185 0.25354993 -0.21813704 0.18193191 -0.26323333 -0.6621793 0.58816046 0.54231703 0.05316766 0.34125698 -0.13165186 0.35955852 0.17791685
20601 0.19477557 0.32017514 0.09127185 -0.14469537 0.27835104 0.123058215 -0.19708546 -0.06925628 0.012268982 0.5166805 0.28630367 0.24833004 -0.34992605 0.418442 0.3815039 -0.561276 -0.05628443 0.41574973 0.39684895 0.22734559 -0.35388732 -0.15557286 -0.2877456 -0.44409344 -0.15563318 -0.31182092 -0.080121435 -0.5959015 0.7809627 -0.2903479 0.40337905 -0.5342036 -0.36141795 0.085990846 0.57701284 -0.33240452 -0.020052765 -0.24012372 0.3673277 0.5385275 0.430061 0.041286938 0.59458345 -0.17712297 0.2656737 0.09240396 -0.41630733 0.2981484 -0.2974733 0.17139193 0.6271723 0.0063066254 0.35561368 0.9774661 -0.49885827 0.6182892 -0.1643589 0.65699816 0.14312026 -0.05640023 -0.3076934 -0.10422965 -0.74380404 0.3692863 0.592219 0.09213291 -0.4046098 -0.25441715 -0.46429065 0.031787153 -0.3338848 -0.16018167 -0.35059318 0.114163876 0.34007448 -0.14558692 0.45724082 -0.07873087 -0.061291732 -0.39990246 -0.10720619 0.20655854 -0.15224889 0.9106602 -0.113291256 0.108903274 -0.28933242 -0.9234112 -0.38487205 0.18560158 0.15712775 -0.57603997 -0.19464889 0.34229106 0.20280105 0.4903051 0.60940695 -0.5785189 0.51173085 0.19795027
6184 -0.0387263 0.31268856 -0.11362586 0.10062758 0.36186975 0.27557945 -0.74919045 0.47084922 0.14386818 -0.44423816 0.34131527 -0.051097363 0.050106563 0.3392496 0.024833838 -0.44032928 0.3217206 0.14099446 0.3632165 0.3897046 -0.67678916 0.1972576 -0.12127885 0.37929288 -0.5593907 -0.114891134 0.021825653 0.15824024 0.15712593 -0.23065497 0.25049716 -0.33503067 -0.3179282 0.29811916 -0.008582087 -0.012045289 0.19760136 -0.28509566 0.12341735 0.88181937 0.10286322 0.27645332 0.5017811 0.07997234 -0.53678775 0.47743693 -0.08632017 -0.21907975 -0.015241987 -0.040705834 -0.0031118246 0.10836683 -0.19399378 0.037128765 0.076499134 -0.48252428 -0.29701298 0.23343904 0.25998616 -0.5609458 -0.3919887 -0.44000456 0.034740463 -0.45468873 -0.07666091 0.015202803 0.17324868 0.023187678 -0.45507517 0.49312207 0.021147702 0.13248241 -0.27675042 -0.072512776 0.052864827 -0.2726119 -0.41921714 0.17636505 -0.3818511 0.08263941 0.3016767 -0.0016679771 0.13294882 0.29218113 -0.025310114 0.11720497 -0.17842919 0.08016234 0.17137979 -0.3433069 -0.06599074 0.08547724 -0.20843334 0.3223637 -0.14592667 -0.13284169 0.1728241 -0.3273964 0.46242833 -0.40231502
56115 0.6262591 -0.008277976 0.63484615 0.42254743 -0.35440502 0.4339755 0.20123895 0.11158728 0.45171544 -0.120457746 0.3580725 -0.2911674 -0.038641017 0.39403796 -0.031936564 -0.07037355 -0.3851447 0.15598223 -0.21449865 -0.07644419 -0.793551 0.37637377 -0.6785686 -0.07080987 -0.37181234 -0.15163831 -0.19431016 -0.8608699 0.23015489 0.20958902 -0.26194477 -0.38051745 0.08304755 0.18665706 0.38524878 -0.13039522 0.066509664 0.097052455 0.03273899 0.019560384 -0.18284316 -0.03158469 -0.10977279 0.7111956 0.31670117 -0.0073329117 -0.8691692 -0.028855199 0.43595767 0.29046005 -0.40714675 0.09787084 0.21817327 -0.3192495 -0.0011709087 -0.08063996 -0.29997635 0.6749123 -0.0057162275 -0.40870336 0.25197294 -0.4959873 -0.015749373 -0.5350671 -0.21207477 0.69144934 -0.5582556 0.33873564 0.011557099 0.27522397 -0.20602207 0.0399295 0.15832444 -0.026450405 0.47546184 0.41642058 0.05983512 0.31415328 -0.30336925 -0.051858034 -0.24946946 -0.024513848 0.51588243 0.24414718 -0.3666757 0.1728479 0.040242 -0.38385946 0.19564551 0.11107502 -0.06728087 0.03449924 -0.1771618 0.76336247 -0.13414918 -0.018134393 -0.018971464 -0.69079655 0.14357165 -0.042316865
79809 -0.22237888 0.4609896 0.3517557 -0.16478932 0.43772617 0.2014563 -0.2424409 0.52091223 -0.1904536 -0.28479928 0.33158296 -0.17442858 -0.35733056 0.5035487 0.30343327 -0.8425642 0.16531305 0.91399145 0.6173958 0.5976919 -0.28220332 0.052053675 0.27116588 -0.19494782 0.35639673 0.3159917 -0.4894315 -0.5912739 0.034648385 -0.19248699 0.0692908 -0.43131137 0.2695913 -0.3178583 0.41485903 0.3248994 -0.1579893 -0.12553136 0.006825087 -0.04349838 -0.34398735 -0.08458519 0.75093967 0.1504079 -0.051871076 0.30624315 -0.11550744 0.18117541 0.18046784 0.01321523 0.10424889 0.1234596 0.33681074 0.72033095 -0.39841762 -0.028976034 -0.6547864 -0.3731468 -0.1653334 0.004713882 0.002635715 -0.49069428 -0.45590284 0.44215748 1.0065967 -0.19619362 -0.01816776 0.2262275 0.04188993 0.4692264 -0.36169517 -0.37990883 -0.34572542 -0.041112136 0.75771844 0.5810394 -0.109344296 0.43576473 0.02200966 -0.22873048 0.46529013 -0.090362914 -0.48147467 0.036223557 -0.1913415 0.4226156 -0.21239187 -0.21542601 0.4245074 0.13260952 0.07487677 0.0043951785 -0.34756464 0.0494388 -0.07448865 0.65140724 0.21045025 0.00497116 -0.0122550875 0.22029549
45605 0.7265974 -0.26623234 -0.042791832 -0.4947935 -0.29988796 -0.22204699 -0.51582485 -0.025050562 0.0394884 0.10851737 -0.09105285 -0.2006714 -0.3526009 0.5589263 0.11630478 -0.36478505 0.051643807 -0.33053458 0.044385735 0.14300375 -0.2771885 0.4083256 -0.8261108 -0.33906153 0.19964375 -0.23226017 0.03162075 0.056074448 0.4558422 -0.6765023 0.011279197 0.17458588 -0.04135175 -0.29679096 0.026873007 -0.34495163 0.28367913 -0.41780448 0.3981233 0.042618904 0.12737137 0.13921328 0.4200172 0.5518136 -0.11857388 0.38128918 -0.65342736 0.41055265 0.14546306 -0.21817078 -0.11056754 0.38309878 0.07681483 -0.257703 0.5703687 -0.16630526 -0.6705856 0.44185853 0.0864653 0.07013049 -0.047338594 -0.57059723 -0.030860892 -0.42151523 0.25504684 0.115102105 -0.58146507 -0.28241697 0.120800324 0.16864696 0.22443926 0.726056 -0.74518514 -0.030080238 -0.047328405 0.006808277 -0.08809212 0.31644183 -0.056616824 -0.4540265 0.5060807 -0.41817728 -0.18557812 0.21361943 -0.7151348 -0.18077645 -0.017317977 -0.43488395 0.077319115 -0.2644133 0.17687686 0.27249005 -0.6253496 0.34508005 0.12373169 -0.040957883 0.0927162 -0.007852585 0.64436394 -0.11865024
287787 0.6174962 0.06766345 0.8180166 0.40039197 -0.7473342 0.29330695 -0.045600425 0.08131627 0.09967173 0.66573286 0.030260477 -0.30931473 -0.5760539 0.69793504 0.31343043 -0.17037395 -0.001818798 0.26172328 -0.37367076 -0.06710515 -0.11857251 0.5318539 -0.25275385 0.23903769 0.27941492 -0.20274238 0.1881167 -0.09940335 0.39701715 -0.1120343 -0.46259242 -0.19135836 0.0076534674 -0.0035247772 0.6050067 -0.2257546 0.30810472 -0.6145965 0.07523953 0.31003568 -0.5738477 0.19099826 0.19025649 0.26949033 0.3508913 0.15479869 -0.6655737 0.28892347 0.3623406 -0.012789458 -0.31015986 0.44063097 0.15093437 -0.38663697 0.35595703 -0.6130128 -0.36630654 -0.01956304 0.54606587 -0.041776124 -0.05543644 0.090080924 -0.14938429 -0.34422234 -0.31869712 0.007624092 -0.5182254 0.035169985 0.15788703 0.13446082 -0.21278372 -0.12949106 -0.39992273 -0.040527046 -0.030620826 0.6153998 -0.1726334 0.20663798 -0.0435194 -0.64793116 -0.37312457 -0.20825681 0.32306093 0.18408671 -0.28174853 0.25159934 -0.24815965 -0.35392103 0.3385488 -0.2844734 0.06475191 -0.52185047 -0.28621933 0.7421044 -0.07772793 0.17327398 -0.21268575 -0.19802769 0.54169255 -0.016033223
103515 0.41113618 -0.19603193 0.520175 0.43102714 -0.3550427 0.20616055 0.044528026 -0.5007315 0.10504129 0.37739187 0.46821812 0.27088627 -0.097362064 0.39095393 -0.0941387 -0.5356412 -0.12606998 0.42681435 0.12427122 0.04783462 -0.25874263 0.617485 -0.61186177 -0.22040935 0.026013255 -0.11585289 0.11408747 -0.31733957 -0.072024085 0.085699886 -0.32806563 0.23350471 0.0928563 -0.029478358 0.3669432 -0.16215795 -0.036676515 -0.5913552 -0.017360492 -0.08063413 -0.48327947 0.44964215 0.12818961 -0.12584224 -0.08849623 0.4830234 -0.5819396 0.17314729 0.3276412 -0.19968233 -0.13647063 0.32647035 -0.4833506 -0.6301036 0.45700917 -0.21434146 -0.26263317 0.13205063 0.15776798 -0.2240869 0.4457083 -0.27753404 -0.07868349 -0.42041546 0.10697192 0.08769887 -0.36946464 -0.5062031 0.17692573 0.2131644 -0.34908 0.18053624 -0.051853716 -0.13206646 0.5133 0.25820163 0.45336014 -0.5489683 0.006349376 -0.72878826 -0.082826875 0.029328 0.4084866 0.3418448 -0.23551698 -0.08923071 0.3179263 -0.49751964 -0.07694419 -0.38020837 0.55100435 -0.069945686 -0.42573527 0.86407286 0.15796883 0.38552484 0.17965297 -0.8056084 0.681797 -0.16260652
22229 0.6168039 -0.3263606 0.36758402 0.37918675 -0.030815843 0.28488377 0.042324618 -0.2154345 0.19935805 0.42366365 0.15166453 0.19039539 -0.28929734 0.2741089 -0.3630486 -0.5422134 -0.32707128 -0.18182968 -0.1582835 0.16803983 -0.27383953 0.32810163 -0.30043143 -0.07529158 -0.108054705 -0.759064 -0.27564636 -0.03571619 0.6081721 -0.5830878 0.20029278 -0.10825958 0.7061525 -0.20507017 0.40679252 -0.40152213 0.13037287 -0.5807984 0.47936627 -0.14309457 -0.011444877 0.20689493 -0.0011727934 0.7160419 -0.16023372 0.5572951 -0.45673263 0.65828174 0.45293543 0.20172328 -0.36103326 0.37903672 -0.23112167 -0.68097925 0.52976424 -0.3955012 -0.5661577 -0.02520288 0.27500948 -0.31038067 0.21361056 -0.5031867 0.023305543 -0.4880576 0.503785 -0.13973477 -0.23550974 0.024640787 -0.08339978 0.5069274 -0.40893477 0.019763794 -0.60799474 -0.10831439 0.29195923 -0.35217074 0.3481434 -0.0044207224 -0.20063064 -0.6997419 0.32663852 0.25691134 0.09277557 0.33231333 -0.5631837 -0.12332783 0.30378118 -0.24883612 0.32314676 -0.107426666 0.65310186 -0.002529491 -0.13255693 0.59725505 -0.020242536 0.10012534 0.2943087 -0.21080853 0.60930514 -0.09242382
