2708 100
35 -0.38115406 -0.16506179 -0.31021872 0.33753216 -0.7296653 -0.3601747 0.09415874 0.41262063 0.38744327 0.3544149 -0.28859907 -0.16508125 -0.0014772047 -0.35458744 -0.36392492 -0.33141348 -0.33102098 -0.087542824 -0.45877668 -0.29203773 0.18397303 0.18108858 -0.033108074 -0.27046815 -0.13927592 0.17305121 -0.2267336 -0.16911347 0.16582565 0.16100354 -0.4755557 0.39215633 0.01925007 -0.12359177 0.1235668 -0.25506476 0.39529645 -0.058161393 0.045154154 0.044506434 0.08675072 -0.17077723 -0.18641777 0.26668724 0.2914481 0.6720623 -0.30249402 -0.052834053 0.575246 -0.057039313 0.0849576 0.28425187 -0.06764239 -0.22478227 0.43660596 0.33831155 0.35043833 0.21046564 0.07977439 -0.031678434 0.10569293 0.032431826 0.0020412756 -0.3802145 -0.4103521 -0.087521225 -0.057002183 0.00799858 0.12846977 -0.3330291 0.47217402 0.23422651 -0.057003036 -0.41274112 -0.35917938 -0.099695094 0.034999505 -0.5355809 -0.118758425 -0.33516344 -0.31873846 0.31018895 0.5104252 0.11209129 -0.13071674 -0.036453087 0.3560526 -0.12406379 0.24353123 0.654729 -0.1441874 -0.36337167 -0.30008763 0.05337779 0.080065 0.19064066 -0.23431702 -0.06030144 0.047451876 -0.021044202
6213 -0.7411126 0.65463054 -0.37341893 -0.014355614 -0.411204 -0.18664506 -0.05024887 0.2994264 -0.14353648 0.3436425 -0.030740343 -0.63005865 -0.40232882 0.21799819 0.15228058 0.027582878 0.051260695 0.0611814 -0.03323958 0.014801479 -0.168453 0.16547094 0.11370946 -0.01336923 -0.21494511 0.55302614 -0.19870001 -0.05946805 0.13243222 0.13271178 -0.059812196 -0.091995224 -0.02013704 0.2381895 0.124310255 0.19726539 0.1789442 0.34762523 0.032674048 0.43910578 0.0039710607 -0.4743981 -0.547888 0.25608 0.33909434 0.55534273 0.1661452 -0.042842314 0.11955412 -0.055278264 0.41373426 -0.19108863 0.22384427 0.38306123 -0.23531614 0.36302227 0.4454502 0.122327626 -0.5699741 -0.7245713 -0.23718986 0.30849156 -0.018167937 -0.18405674 -0.4923322 0.06439396 0.25869656 -0.117412046 0.19304623 -0.04574687 0.097088896 -0.09479723 0.25769237 0.20879795 -0.100915395 0.5898038 -0.8859317 -0.43501768 -0.048926596 0.08339166 -0.24583638 -0.04943449 0.33540317 -0.22988403 -0.110328585 -0.27054083 0.21718368 0.08577143 0.25661856 0.72238034 -0.21297032 0.17160185 -0.08651498 -0.22085129 -0.1719429 -0.015957402 0.0051209773 0.15822509 0.14123021 -0.38900757
1365 -0.36073565 0.39280194 -0.71265763 -0.2075289 0.1274855 0.092237875 -0.054637764 0.33020332 0.016722944 0.19224341 -0.5245545 -0.01565313 0.30844787 -0.32290214 0.3464097 0.055309337 -0.19171181 0.28384823 -0.5198046 -0.1862148 0.43252072 -0.19873723 0.50500906 0.33467045 0.10562458 0.2955845 0.29526836 -0.036072746 0.023845905 0.3081092 0.32157204 0.279986 -0.13268925 -0.35180038 0.08751168 -0.32210675 0.021113206 0.17450972 0.15177657 0.75565934 -0.44782534 0.07976745 -0.662965 0.04351591 0.46189356 0.21040379 0.074181445 -0.3227557 -0.07889023 -0.24646576 0.3716974 0.23857975 -0.42001757 0.067508906 -0.0581296 -0.31333804 0.35494065 -0.012748987 -0.14449646 -0.54231536 -0.028491583 0.20890652 0.23321946 0.2416096 -0.59295917 -0.15375249 0.032123484 0.33544996 0.079387 0.14451723 0.44941178 0.083491474 -0.2199869 0.07565558 -0.07781989 0.18420766 -0.32416448 -0.15100884 -0.3641888 -0.2306716 -0.47811922 -0.5761015 -0.07545079 0.30365163 -0.18792893 -0.43334123 0.1407143 -0.6653052 -0.033697188 0.32344264 -0.022119561 -0.28336772 0.32294545 -0.114478275 0.40236905 -0.09326051 0.080866314 0.06402484 0.46647063 -0.42179823
3229 -0.53695905 0.24359617 -0.23388442 -0.08118039 -0.18548267 -0.023731945 -0.07649154 0.5101634 0.10969291 -0.15840083 -0.36324173 0.24562271 0.029854963 -0.32010388 0.05093235 -0.023920005 0.46144605 0.10539365 -0.34275475 -0.3153223 0.3950013 0.13428675 0.23750047 0.52761924 -0.3823146 0.2690152 0.3866875 -0.1362598 0.091981925 -0.14060636 0.118289545 0.14240591 -0.12008363 -0.39402893 0.1373807 0.08386854 -0.121012464 -0.18757682 -0.30971384 0.87460035 0.041527435 0.09157003 0.36750066 0.09954765 0.25366628 0.43276462 -0.33783865 -0.04441477 -0.2245921 -0.28969914 0.15817332 0.24436975 -0.3731465 -0.17148963 -0.2288115 0.12817487 0.26744166 0.43503168 -0.19305691 -0.51696104 0.08263105 0.37891147 0.2643781 -0.11308994 -0.61536676 -0.81169885 0.17856637 0.31317484 -0.21481466 -0.2612465 0.4666409 0.10295141 -0.2648957 0.026065687 -0.034001466 0.056512445 -0.4207786 -0.23501496 -0.20722188 -0.08480118 -0.43223748 0.01883887 0.101402014 0.06577479 -0.14649789 -0.07182258 0.14025044 0.4204674 -0.012049101 0.08598837 -0.6651666 -0.4777413 0.15477876 0.119078495 0.18109165 -0.25744784 0.5001679 -0.04930888 -0.15818292 -0.23586209
910 -0.42729658 0.6216047 -0.5974574 0.16228198 -0.31151333 -0.18052663 -0.24005988 -0.025830064 -0.076224394 0.07289198 -0.78905296 0.4418661 -0.44810605 0.060928605 -0.26857662 -0.18960479 0.102557704 0.095748715 -0.27690458 -0.03289732 -0.20588808 0.09136553 0.22127241 0.08587564 0.0062832506 -0.09347905 -0.3113098 -0.12365447 -0.41535804 -0.23467089 0.44100475 0.7561064 0.08642574 -0.45621955 0.51745147 -0.2559963 -0.21694376 0.040100258 -0.17840229 0.2580458 -0.20098232 -0.26473483 -0.41325387 0.11495184 0.53839684 -0.13864002 -0.30932423 0.051389456 -0.1687882 -0.3360928 0.2236355 0.82845324 0.13800783 -0.1384676 -0.064177684 -0.14093514 0.38141668 -0.29849774 -0.58942395 -0.5854585 -0.17069545 -0.24933039 -0.06844808 0.22915687 -0.34152573 -0.34986645 0.25612265 0.5393821 0.058017652 0.50792164 0.013732749 0.5217131 -0.081275694 0.10511155 0.34245944 0.39965835 -0.31386986 -0.06339915 -0.007284655 -0.32933158 -0.75270146 -0.12676585 0.12654376 0.1022258 0.033242777 -0.3676556 0.04133641 0.26801187 -0.4020168 0.14284335 -0.070468634 -0.20506388 0.14802727 0.036110267 0.043161016 -0.15974993 0.17940268 0.05894569 -0.09455305 -0.48836735
114 -0.54378605 0.30553746 -0.3519931 -0.31032336 -0.34327787 -0.30733395 0.09403131 0.38798562 -0.12934361 0.042727176 -0.13474366 -0.14237002 -0.2365026 -0.26200235 -0.02163486 -0.27436703 -0.075780764 -0.13505764 0.05787003 -0.29370353 -0.04159714 -0.15349083 -0.052593537 0.21085584 -0.4456242 0.88947 -0.22759278 -0.070738174 -0.07172075 0.3483863 0.2547742 0.007520216 -0.029333439 0.08585859 0.24665044 0.52014005 0.017043816 0.17777912 0.20182277 0.47377163 -0.33471027 -0.7481984 -0.8278369 -0.16991737 0.020230455 0.120111264 0.31251785 -0.17127748 -0.36695507 0.1532572 0.14926058 -0.4367826 -0.09651683 0.114995085 -0.26200715 0.33132064 0.28053722 0.1000368 -0.7115501 -0.6412455 0.2661439 0.20436975 -0.07611751 -0.052141856 -0.7777134 0.14859776 0.0034002124 -0.14967293 0.15924321 -0.2559074 0.22762723 -0.22843347 0.18130739 0.18093316 -0.24698631 0.5184964 -0.88282335 -0.01341598 -0.08615337 -0.40542883 -0.2872786 0.10611293 0.3766222 -0.21128726 0.2576584 -0.061462395 0.3331278 0.26587304 0.18271719 0.7506328 0.08997857 -0.329952 -0.35833555 -0.31698218 0.039871335 -0.057696644 -0.28723115 0.14108694 -0.19521262 -0.90132713
4330 -0.42068055 0.6177624 -0.37694368 0.17729114 -0.5201596 0.33565605 0.055256646 0.06391441 -0.49019632 0.3168099 -0.43532935 -0.008070869 -0.09011279 0.01906004 -0.047416855 -0.5116572 -0.31283832 0.064444974 0.009110768 -0.3092649 -0.021222675 0.14885747 0.42299458 0.41824022 0.30661687 0.3471958 -0.10788053 -0.5424178 -0.48593813 -0.014657868 0.4198856 0.7276088 -0.01992863 0.023672651 0.2512167 -0.09263018 -0.36050412 0.24180068 -0.183085 0.12210816 0.12143683 -0.39956024 -0.055415906 -0.32998174 0.42897454 0.42952427 -0.085467316 0.07336311 -0.33751592 0.15524608 -0.12077788 -0.27081427 -0.34064478 0.20165049 -0.3539148 0.1442025 0.47230104 -0.40263847 -0.4748881 -0.52320594 0.048074912 -0.04238502 -0.078377895 -0.14146288 -0.09324341 -0.57185835 0.16762954 0.38152927 0.034966417 -0.5064973 0.34272426 0.3401209 0.08134976 0.0643876 0.117411554 0.5350909 0.26683116 -0.4957188 -0.18595082 -0.004411818 0.39175764 -0.2313472 -0.26674354 -0.3377549 -0.34857723 -0.17264271 0.15975183 -0.09408428 -0.2564869 0.54541826 -0.093798116 -0.32590935 0.10526173 -0.24077065 0.13078351 0.18760605 0.47609773 -0.44681016 -0.5130363 -0.07824655
3231 -0.41106278 0.35525286 0.2068524 0.25653434 -0.47499782 -0.18785 -0.14433597 -0.06678364 0.14602046 0.048217423 -0.2971376 0.26080778 0.31630805 0.3708843 0.12485612 -0.093218386 -0.33364722 0.3600552 -0.4225383 -0.18797761 -0.183527 0.8270881 -0.08725736 0.23359168 -0.28796503 0.3997502 -0.22729227 -0.15038538 -0.13262233 -0.3616883 -0.44862974 0.4400976 -0.40893117 -0.2087852 0.033884306 0.057986647 -0.38295227 -0.058626678 -0.2757899 0.15256153 0.26238555 -0.34901813 0.068215676 0.26902932 0.06477571 -0.50374484 -0.11807134 -0.50370735 0.29581937 0.095727526 -0.30615768 0.18996313 -0.25568715 -0.3147588 -0.22957051 0.16800073 0.24442525 0.12844725 -0.26365247 -0.38576555 0.707423 0.45573384 0.08665471 -0.16045336 -0.2682583 0.01726328 -0.9966873 -0.046823945 0.17582223 -0.3495936 0.64830047 0.3454082 -0.0042352076 0.48245296 0.21340069 0.3130457 -0.0071903896 -0.542987 -0.32803613 -0.28612897 -0.4439812 -0.3585382 -0.014757477 0.0731658 -0.21406065 0.17733477 0.009169189 0.31580046 -0.21890159 0.2165917 -0.22207335 0.1194687 0.0062690466 0.31934983 -0.44770598 0.48372072 -0.030053446 0.19907996 -0.037183866 -0.44115284
1272 -0.12806782 0.5220879 -0.26005098 0.041045 0.21215814 0.10114939 -0.6195271 0.40043536 0.3607744 0.3984959 0.500161 -0.24038239 0.25016648 -0.18931362 0.37530562 -0.13130519 -0.67009807 0.1825116 -0.13667762 0.1487998 0.11959933 0.45710993 0.0047033867 -0.6582671 -0.46552852 0.09105095 -0.18318339 -0.06039026 0.08171785 0.0449799 0.16769877 -0.10265427 -0.5458915 -0.010592725 0.059558883 -0.15898949 -0.7440238 0.22890969 -0.008767569 -0.12326685 -0.45923284 -0.035159785 -0.20456079 0.033091046 0.2600619 -0.16844627 -0.162516 -0.21375246 -0.14995109 -0.31068093 0.040446755 -0.046470013 -0.3798314 0.006741157 0.3919382 0.3652079 -0.053280633 -0.062159725 0.038381208 -0.6989731 -0.17264177 0.21453613 0.4295155 -0.13830099 -0.8927423 0.11398177 -0.10181355 -0.23885587 0.68760544 -0.33625975 0.10726144 0.37182465 0.26416475 0.39515316 -0.5347419 0.22962855 -0.25385916 -0.33159176 -0.29570043 -0.11703135 -0.4095415 -0.15411724 -0.069676444 0.22307628 -0.12823384 0.12939304 -0.2213891 0.05879641 -0.04689338 0.7252389 -0.30860475 -0.18441994 0.5905259 -0.0076473425 0.15179119 0.5264508 -0.22368652 0.03434737 -0.3589601 -0.19857752
19621 -0.48283228 0.412841 -0.6613728 0.19853196 -0.3715302 -0.17268537 -0.1762388 0.020876756 -0.085681334 0.20357487 0.04451144 0.14239956 -0.21327025 -0.15859978 0.28113264 0.2711814 -0.028308088 0.11241666 -0.12291684 -0.2186878 0.51755106 -0.37658533 0.040767454 0.16980025 0.5708382 0.012726801 -0.085052274 0.108725764 -0.14780566 -0.12431478 0.4279965 0.72520554 0.3305985 -0.16355859 -0.09178066 0.017724628 -0.77419233 0.35514438 0.09304527 0.4589172 -0.26781228 0.15505387 -0.52497065 0.002685827 0.52677494 0.5545488 -0.23084268 0.13165414 -0.33532345 0.04449058 -0.31712183 0.6681129 -0.18798055 -0.08121254 0.18102376 -0.21702524 0.3326991 0.18390681 0.04218448 -0.70324975 -0.0999166 0.2751245 0.2178091 0.3192318 -0.3440248 -0.24063526 -0.10715474 0.2693268 0.27221507 0.12506287 0.63954973 0.29298255 -0.29976064 -0.0095352335 0.089918874 0.2587169 -0.15755177 -0.5273245 -0.27724224 -0.40155602 -0.08771038 -0.2176611 0.42171705 0.06670589 -0.2053387 -0.62208146 0.3922589 -0.14326476 0.25262833 0.13543501 -1.0937413 -0.19910191 0.18559375 -0.28804892 0.55154413 -0.09129797 0.03291999 0.06272654 0.32434806 -0.67744344
4584 -0.50039387 0.28625882 -0.11025158 -0.13618197 -0.61655545 -0.41534626 -0.045668468 0.6796692 -0.1443983 0.051758155 -0.20960219 -0.3741056 0.36138308 -0.16885918 -0.11099238 -0.075079 0.03157435 0.079604566 -0.4869999 -0.3317408 -0.04260009 -0.19818097 0.35330126 -0.11148927 -0.23944326 0.01938434 -0.16553187 -0.050556462 0.33641425 -0.058961444 -0.21373445 0.04468671 0.1070083 0.11387003 0.34523505 -0.20926441 -0.10501497 0.57696027 -0.113508224 0.5230649 -0.7816093 0.08420469 -0.6660816 0.052357852 0.22288309 0.06119148 0.1419193 -0.14809991 -0.056177896 -0.02352377 0.37226167 -0.26772988 -0.003103303 0.12795328 -9.803598e-05 0.1603137 0.10727076 -0.1408421 -0.056312967 -0.782025 -0.3187253 -0.11097973 0.325902 0.019649094 -0.7766735 0.17241618 0.1632583 0.1381136 -0.004726306 0.031701893 0.040355388 0.27119088 0.045115396 0.29240152 0.07257617 0.67056274 -0.53923476 -0.37042385 -0.34981516 -0.17870566 0.05522075 -0.21626905 0.27835235 -0.04986706 -0.18335232 -0.2743984 0.021579048 0.26570788 0.32332742 0.66570526 -0.13431968 0.031839292 -0.0072193756 -0.5119047 0.096908465 -0.0773891 -0.25238645 -0.2223925 -0.16473775 -0.7021474
6214 -1.0685245 0.5268046 -0.541955 -0.1756483 -0.25369975 -0.111872986 -0.36718327 0.83796865 -0.118673876 0.33362842 0.1827825 -0.38866192 -0.33354264 -0.21915877 -0.16709495 -0.18707033 -0.02844764 0.00011149717 -0.29780623 -0.4195598 0.06239934 -0.3697459 0.42318574 -0.17327261 -0.39683124 0.26346794 -0.018183753 0.14626525 0.17884478 0.090137914 -0.3935263 -0.10175308 -0.4090612 0.20102108 -0.156366 0.28251222 -0.24855074 0.16997594 -0.2794775 0.42000875 -0.50815845 -0.4725351 -0.42256755 -0.035382614 -0.29840216 0.039774183 0.2066997 0.20293353 0.28268507 0.40898842 0.10429313 -0.16805908 -0.17110555 0.07315747 0.15700138 0.20288843 -0.073666595 0.013928283 -0.53303987 -0.57707804 -0.10450307 -0.07507183 -0.11926362 -0.45027095 -0.66960895 -0.047329832 -0.059665393 0.31270728 0.12639885 0.44963145 0.4115954 0.26164094 0.0633803 0.21549478 0.2876039 0.67696613 -0.4732299 -0.113136604 -0.008681229 0.61692715 -0.122459106 0.06114462 -0.25125194 -0.20210543 -0.020986212 -0.06450614 0.27037483 0.2520486 0.075550556 0.34761637 0.11162009 -0.25820675 -0.3405523 -0.32091165 0.29617062 0.059653424 -0.028045293 -0.15657564 0.24471352 -0.54802185
2440 0.054462727 -0.36124197 0.09250419 -0.5184417 0.27755925 0.1505523 -0.5030782 0.2758636 0.29793638 0.16790912 -0.099692345 -0.22086096 -0.0140111875 -0.17225716 -0.2591805 -0.72412 -0.57396346 -0.017074661 0.48480678 -0.15515684 0.41078833 0.5643427 0.005219223 0.3112195 0.42227328 0.6280274 -0.26941404 0.07195732 -0.19889945 -0.20546837 -0.31619757 0.10266379 -0.6987636 -0.37182465 -0.004391261 0.121455885 -0.5928027 0.053063117 0.16844705 0.046377067 -0.52728045 -0.5185549 -0.32161558 0.112465724 0.083114564 -0.15962525 -0.21732773 -0.16624978 0.24088761 0.04656023 0.28749418 -0.0014107157 0.21748652 -0.40134835 0.38769475 -0.01755904 0.5977236 0.59000623 -0.10937533 -0.528607 0.11015081 -0.029110821 0.51758695 -0.021586975 -0.545623 -0.17660831 -0.039393507 -0.15314217 0.50915754 -0.17371103 0.58828884 0.37913644 0.51762843 0.02955542 0.38388154 0.24547692 -0.5109937 -0.5491388 -0.3269607 0.35089204 -0.09787552 -0.14775482 -0.23792751 0.36085066 0.038927097 0.45824388 0.28456607 0.11250039 -0.056973793 0.6159012 0.037805136 -0.08976228 0.20890771 -0.47522593 -0.18209048 0.7277193 0.244794 0.3171856 -0.4258614 -0.09365816
24966 -0.5568831 0.6022123 -0.7652633 -0.15692447 -0.20886265 -0.47278804 -0.28825074 0.037308145 0.18309236 0.50273484 -0.58558625 0.6358487 0.00944111 -0.3320147 0.22127387 -0.15936029 0.5042694 0.5052596 -0.009334433 -0.6197589 0.24779375 0.46167508 0.5573568 0.13431203 -0.23757021 0.3575348 -0.16531444 -0.41652426 0.22528988 0.23980895 0.44466096 0.6716223 0.107833765 -0.3132328 0.19444096 -0.17506468 -0.64126796 0.19696724 0.16170034 -0.18484266 -0.30356938 -0.56456167 0.28217602 -0.056107137 0.58958167 -0.71141994 -0.6538474 0.22757465 0.24355665 -0.1681046 -0.0053529176 -0.09787954 -0.48564625 -0.27562723 0.10464705 0.28219226 0.48070693 0.15766688 -0.13631094 -0.43632093 0.23587225 0.5507372 0.5638397 0.16212863 -0.18665902 -0.49829888 -0.030026903 0.58558214 0.037335698 -0.14219894 -0.055282153 0.17146339 -0.24011858 0.4198461 0.10005768 0.6660657 -0.093427844 0.089100055 0.1407606 0.2737073 -0.1264046 -0.35746238 0.26348513 -0.035425425 -0.25051656 0.15085699 0.7039924 0.17667544 -0.2779299 -0.24911234 0.24817833 -0.14540836 -0.14707515 -0.022716489 -0.23360147 -0.52927715 -0.13783346 -0.0032639957 -0.1085111 -0.14337412
2665 -0.5481114 0.7615247 -1.1762615 -0.27759323 -0.26586184 0.062055644 -0.20287925 0.049414825 0.20112288 0.07737353 -0.16516219 -0.026398182 -0.17566499 -0.22392082 -0.19443178 0.35913858 0.2940427 -0.0698228 0.026859138 -0.08144386 0.5330871 0.23509623 0.47894812 0.61999464 0.50951385 0.06606066 -0.053484824 -0.23043293 0.31266093 0.31843966 0.08484103 0.30580088 -0.16519997 -0.6665294 -0.17026517 -0.04689468 -0.037287142 0.8479736 0.20929222 0.66843766 -0.34656134 -0.011964432 0.267238 -0.102626815 1.2409576 0.15423167 -0.4279513 -0.46612316 0.15864775 0.7400583 0.056847785 1.0078605 -0.27014837 -0.20549911 0.22128212 -0.38748765 0.43218666 0.117357805 -0.5594087 -0.43658954 -0.3134428 -0.4953445 0.24370347 0.43444383 -0.6104759 -0.19033776 -0.14313069 0.1482629 0.45202667 -0.058526248 0.49429965 -0.45901802 -0.04272393 0.270154 0.12664512 0.092713356 -0.04190699 -0.41364494 -0.29984605 -0.21068601 0.0947198 -0.4683709 -0.16200072 0.03514669 0.15611985 0.3091335 0.3627845 -0.1343348 -0.36470902 0.36792618 -0.5669215 -0.42876762 0.45947382 -0.69180083 0.20182662 -0.051990733 -0.3550639 -0.1391512 0.45293742 -0.08500556
887 -0.58846843 0.25869316 -0.4359058 -0.22933304 -0.62987524 -0.61960083 0.026739767 0.24265842 -0.24524395 0.10591739 0.122558996 -0.5773158 -0.5297488 0.3117516 0.051076774 -0.18435079 -0.5523402 0.5434747 -0.20785235 0.15523605 0.28530645 -0.050056003 0.08994765 0.013470228 0.02107925 0.98486865 -0.20223948 -0.12317299 0.1770235 -0.025938943 -0.3316217 0.090047695 0.49515036 0.14741723 0.27702323 -0.0040563294 -0.043938223 0.22106342 -0.29828677 0.35741517 0.02865943 -0.16479422 -0.36752555 0.41783893 0.47261238 0.3081551 -0.028508341 0.104275696 0.671107 0.019299917 0.04714678 -0.1252322 0.04029446 0.1894637 0.4549829 0.29789367 0.347424 0.29972053 -0.40149242 -0.4494166 0.20314634 0.0043651294 -0.45632556 0.07881152 -0.29377243 -0.23308934 -0.113446444 0.18575683 -0.11566625 0.13827024 -0.059807 -0.43221158 0.42835814 0.21416256 -0.14328195 0.22095096 -0.40570077 -0.60355693 -0.41768873 -0.021445798 -0.27275297 0.08257185 0.6137547 -0.295859 -0.28344652 -0.14470665 -0.28945026 0.056216493 0.6762999 0.37986326 0.20241572 -0.42735353 0.16608226 -0.04452889 0.027993724 0.23918083 0.10514798 0.027293477 0.4507968 0.025372885
8224 -0.28339055 -0.14431137 0.051924445 -0.6335162 -0.13022345 -0.20495887 -0.4650641 0.5699854 0.21051173 0.5428265 -0.010239361 0.03132549 0.11314123 0.049446825 -0.2558328 -0.14727397 -0.77513635 -0.23343758 0.18026142 0.015179642 0.23008287 0.33586338 -0.38557836 0.29489392 -0.1902217 0.5822647 0.4913095 -0.4723722 -0.037973356 -0.108095236 -0.36018184 0.29885712 -0.33985662 -0.49110696 0.4949175 0.25634807 -0.49720132 0.009685164 -0.50002354 -0.36124653 -0.44609904 -0.36222255 -0.0027752554 -0.009306997 0.13143718 0.19852464 -0.32462078 0.11091227 0.18375944 -0.2906231 0.21141689 0.13752347 0.02247607 0.4114269 0.05218246 0.0017869059 0.08218407 0.0071427077 -0.044271007 -0.7283711 0.3885062 0.8265807 -0.029422285 0.112753585 -0.56528986 0.022376249 -0.08567094 0.023671493 0.8056798 -0.036828797 0.59586143 0.2520805 0.4752439 0.58845514 -0.46208328 -0.043199856 -0.14191127 -0.24127117 -0.075062394 0.18962343 -0.22895369 -0.062093828 -0.33600983 -0.026058424 -0.11312384 -0.03791818 0.1391845 0.18161002 -0.24930945 0.116366625 -0.06526056 0.18525247 0.3221447 -0.0445467 -0.4520444 0.5684617 -0.5232619 -0.14149916 -0.083152525 -0.17651284
20193 -0.14139035 0.14751476 0.23221076 -0.011738735 0.18381083 -0.27896717 0.063141406 -0.086286835 -0.027652957 0.01950741 -0.27321514 -0.27455768 0.23839954 -0.37148082 0.459523 -0.13950123 -0.295578 -0.117917866 0.08421357 0.018124983 0.7361256 0.13395952 -0.3395095 -0.4054318 -0.17393383 0.5793155 -0.43798873 -0.5182017 -0.7386118 -0.09362397 -0.281263 0.7184033 -0.31706885 -0.31255168 0.48253983 0.5120994 -0.64567065 0.5970948 0.12975031 0.2609366 0.4954409 -0.56179035 -0.408028 -0.009379099 0.13431811 0.20307633 -0.47499412 -0.29228035 0.47941512 0.018958405 0.69762903 0.4124147 0.26096624 -0.64548695 0.7218048 -0.2604959 0.11774346 0.47612673 -0.21550323 -0.1708848 -0.09919054 -0.028396076 -0.032525733 -0.2504614 -0.33947423 -0.2762989 -0.37790513 -0.055450283 0.8769067 -0.41207615 0.6152507 -0.27518454 0.5408515 0.37919918 -0.17586161 0.51000214 -0.045503568 0.05073829 -0.09830209 0.31312674 -0.43797043 0.21438418 0.27243587 -0.1000975 0.46245167 0.37934813 0.58815503 0.31115362 0.39728564 0.4153184 0.4288269 0.12509103 0.605666 -0.16377097 -0.0715826 0.15155764 0.12765583 -0.18352023 0.07160278 -0.61266
12182 0.07406352 -0.24986541 -0.38947913 0.022611354 0.09973587 0.4400466 -0.5510103 0.52057445 -0.04787437 0.2717231 -0.31643468 -0.2632715 -0.17175469 0.22146828 0.12241136 -0.032543607 0.07893299 -0.03768996 0.4927287 -0.05608033 0.4543171 0.028550671 -0.26909542 -0.035407055 0.21065094 -0.07271498 -0.50802565 -0.05914808 0.3376559 -0.82364756 0.3835457 0.3933864 -0.4962653 -0.35227844 0.93417513 -0.3532933 -0.1018457 0.18668282 0.2453618 -0.19383566 -0.42859235 -0.5216732 0.073661454 -0.0874957 0.42492265 -0.031151518 -0.36372063 0.13158016 1.0274317 0.12100686 -0.067706764 -0.036475103 -0.43105465 0.2591603 -0.20424937 0.72608554 0.20756516 0.32600275 -0.0042107482 -0.20638758 0.6249446 0.21278839 -0.10573016 0.10363277 -0.43671903 0.09340448 0.23148175 -0.08814935 0.49510714 -0.5065274 0.14144187 -0.03835151 0.3714201 0.48293093 0.118096635 1.093331 -0.20020391 0.0069287894 -0.16918328 0.14862137 -0.23422745 0.36289385 -0.037506055 0.31039774 0.30695647 -0.18416753 0.25720167 0.45130742 -0.2816961 0.47327432 -0.16106199 -0.7489876 0.3190069 0.15967141 0.36929992 0.15028185 -0.44537222 0.008478632 -0.49107432 -0.22903836
82920 -0.5647966 -0.17301719 -0.13061137 -0.23183385 -0.8054283 -0.324578 -0.011322472 0.6091208 0.36962017 0.25162938 -0.5704303 0.24918042 0.033448912 -0.13498811 -0.37392756 -0.15382467 0.034819286 -0.14347172 -0.34494197 -0.2552926 0.17764483 0.093715146 -0.032046966 -0.6857122 -0.108621866 0.23422451 -0.31388712 -0.73612314 -0.30629918 -0.16483247 -0.11736922 0.58625615 -0.11294991 -0.31736073 0.16264832 -0.062459424 -0.15246284 -0.23411444 -0.006130183 -0.04740345 -0.15908521 -0.29369208 -0.039936267 0.23493676 0.09278182 0.48267436 -0.21334031 -0.1899138 0.41788867 0.34819326 -0.4597455 0.293577 -0.224184 -0.06302678 0.75208586 0.521414 0.5386152 0.052674547 0.21381019 -0.30100045 0.08140102 -0.15919201 -0.17302118 -0.09524173 -0.4566083 -0.04568098 -0.47390458 -0.12879656 0.201679 0.03987177 0.24970788 0.18198389 0.22407576 0.10797582 -0.11120422 -0.32318354 0.26656243 -0.6619588 -0.5785361 -0.05451404 -0.71456736 0.611328 0.28599995 -0.1275629 0.14400662 -0.17266119 0.31777808 -0.24883577 -0.10053226 0.47852573 -0.12777427 -0.47252592 -0.29975387 -0.3082795 -0.24903701 -0.39456633 -0.48128977 -0.24220915 0.6111012 0.41080546
10169 -0.27792197 0.22846101 0.1347787 0.020164046 -0.22512157 0.017252877 -0.36545238 0.39945477 -0.046987273 0.27241358 -0.4914655 0.055256367 0.3005259 0.5789486 0.44179997 -0.36692792 -0.08127275 -0.019985147 -0.4067089 -0.47216025 0.07799437 0.9853488 -0.70783406 -0.09673078 0.013472124 -0.11582278 -0.16051742 0.066643655 -0.26556805 -0.102771685 -0.33833045 0.24689645 -0.5151692 -0.17483166 -0.018493654 0.36360177 -0.12092225 -0.1042659 0.303792 -0.27943128 0.13432458 -0.10838782 0.07692893 0.36102074 0.26443103 -0.35123956 -0.37697032 -0.3033549 0.19152963 0.085544646 -0.08782456 0.09726157 -0.5381518 -0.40209502 -0.08324444 0.2921629 0.2548222 -0.031078076 -0.64353454 -0.4131687 0.49777526 0.53353745 0.42972797 -0.2702408 -0.38446355 0.039766096 -0.32485503 -0.2660872 0.3001407 -0.17747286 0.4620396 0.18614736 -0.0048500644 0.5549912 0.04805537 0.8626071 0.38963392 -0.3151078 -0.6277401 -0.22625837 -0.39508706 0.029283386 0.022939729 -0.5101689 -0.37707862 0.0754762 -0.013107261 0.08585786 0.08981995 0.755351 -0.33658186 -0.15186138 0.41068578 0.4109991 -0.15642972 0.20278372 -0.4063493 0.12713818 0.08636539 -0.2473783
22563 0.07858691 -0.12708184 0.10638164 0.1072493 -0.43790388 0.3334097 -0.71401876 0.6899751 -0.21374804 0.65943235 -0.26422665 0.26472878 0.08669723 -0.25839442 -0.41443643 -0.16734535 -0.4036417 -0.3331034 -0.27440053 0.032391325 -0.15864623 0.39036 -0.28035027 -0.123547494 -0.19531219 0.6567378 -0.18101838 0.3786915 -0.13337594 0.04559929 -0.07431351 0.0116961 -0.19655086 -0.60666573 0.33858436 -0.3253394 -0.61706966 0.2556116 0.19064665 -0.38363528 -0.16978058 -0.50832593 -0.33480045 0.37317124 0.32331848 0.3660403 -0.17109588 0.20004769 0.425547 -0.09748824 0.58429205 0.36284813 -0.17157434 -0.26346463 -0.19990583 -0.16832863 0.36306825 -0.18324381 -0.54829454 -0.5839068 0.053196814 0.8692446 0.03399853 0.259837 -0.15424748 -0.4756519 -0.016053196 -0.09445519 0.4370919 -0.3037649 0.4243603 0.25957328 0.22673607 -0.19411194 -0.1243018 -0.09893023 -0.13463198 -0.29581672 0.19000512 0.3377432 -0.06372767 -0.36579153 0.30076045 0.04739782 0.12982927 -0.16799204 0.4366252 0.47208163 -0.16718492 0.23901321 -0.097234726 -0.09852455 0.54051363 0.05682852 0.008925963 -0.16248958 -0.2361949 -0.55100846 -0.17486027 -0.68492156
12576 -0.45475668 0.14584118 -0.06570704 0.4703822 -0.44608676 -0.1399799 -0.030732123 0.3190313 -0.2130533 -0.051759396 -0.388059 -0.2620174 -0.13737078 -0.2817195 0.10549443 -0.19894129 -0.41759104 -0.08155951 0.14429988 -0.1641476 0.2299394 0.25216132 -0.19902268 -0.26459154 0.16936031 0.66575855 -0.41459766 -0.34520885 0.3655649 -0.08426474 -0.2664572 0.45010766 -0.23103555 0.17232741 0.0070964103 -0.05226438 0.4879718 0.32024878 0.13762534 0.49683842 -0.10470509 -0.39854753 -0.22270373 0.5649432 0.10779437 0.49542865 -0.17635073 -0.5900791 0.53539354 -0.042880364 0.2876156 0.15610297 -0.056897797 0.12949945 0.576849 0.79404855 0.29031834 -0.21476987 -0.12124348 -0.45651183 -0.019669015 0.1090001 -0.27376983 -0.010528072 -0.44790733 0.052363165 -0.08968378 -0.18816091 -0.046059836 0.18060553 0.29809788 -0.11612493 0.15679996 -0.427625 -0.31476867 0.07972841 -0.7863601 -0.38767403 -0.14025068 0.08345832 -0.37307024 0.10004353 0.375721 -0.0011816167 -0.7398585 0.14328906 0.49379355 0.06353596 0.55274266 0.5853594 0.100618415 -0.34711984 -0.48752254 -0.14723177 -0.4300693 0.25533903 -0.06697186 -0.048947666 0.36360544 -0.29649675
12350 -0.011395684 -0.14406358 0.16976112 -0.37336922 -0.08966465 -0.1106714 -0.28915867 0.74806446 0.31096488 0.18486084 -0.6047248 0.07404802 -0.04597057 0.07742676 -0.037879825 0.330007 -0.013183465 0.08074403 0.25066248 -0.22473702 0.3668209 0.33339816 -0.11613387 -0.5622708 -0.027900146 0.4267113 -0.37196633 -0.054321285 -0.035216838 -0.70385677 0.1514771 0.32470977 -0.3894461 -0.5085917 0.47786784 -0.4880723 -0.3371649 -0.0023337964 0.21379757 -0.12101486 -0.09701382 -0.8188321 -0.11351821 -0.1785407 0.13374059 -0.12957524 -0.18729107 -0.23018862 0.560754 0.23346362 -0.3465042 -0.4747161 -0.26002693 0.15349671 0.01826987 0.11706064 0.5869789 0.56732285 -0.48058632 -0.41782522 0.44235557 -0.38056856 0.44504374 -0.07807031 -0.6398416 0.29960993 -0.03220456 -0.775704 0.07020737 -0.20182215 0.32756996 0.32128063 0.34174854 0.43568397 -0.024525722 0.6258022 0.023417844 -0.22354586 0.1852508 0.22751144 -0.4230681 0.52044004 -0.08308715 0.33462805 0.22663128 -0.17435533 -0.10371329 0.26060244 -0.14469148 0.64481103 -0.16647777 -0.7655476 0.27977785 -0.10356994 0.15149516 -0.43626022 -0.11669713 -0.043471135 -0.5492374 0.03323599
31353 -0.6362546 0.21785077 -0.15559313 -0.26714075 -0.67975026 -0.06760272 -0.4331596 0.13382758 -0.26650894 0.11646961 -0.35115737 0.35970363 -0.2660031 -0.30213675 -0.12620333 0.33944732 0.17638609 0.38356784 -0.06329536 -0.27935567 -0.14589365 0.29296917 0.09737601 0.43514726 -0.3388092 0.28292793 0.27698964 -0.3958506 0.16871974 -0.37290862 0.26591837 0.824761 -0.24007438 -0.162422 0.5176122 -0.40908423 -0.39296123 -0.1799743 0.54007924 -0.030441428 -0.50469446 -0.4610927 0.5257261 -0.56809556 0.61343193 -0.2707959 -0.09405178 0.56415385 0.35323593 -0.31043637 -0.34114802 0.59986275 -0.018286971 0.39861047 0.17880476 0.45173115 0.33530313 0.31025314 -0.49515694 0.049890433 0.44208476 -0.10294356 0.22868967 0.6699867 -0.18208577 -0.55018115 -0.2816559 -0.43364415 0.56037503 0.26475132 0.34325072 -0.24037698 -0.13633929 0.765853 -0.113109596 1.0040859 -0.03191895 0.13555774 -0.055426903 0.13813396 -0.08913979 -0.037844587 0.047257148 -0.034292158 0.19116138 0.19668639 0.05307983 0.6213796 -0.11343195 0.6013625 -0.67977256 -0.7356836 0.3048701 0.27757037 0.034537576 -0.25353694 -0.28336015 -0.3516769 0.2460469 -0.7181493
15429 -0.087565765 0.037809502 0.028436907 0.12748365 -0.4889737 0.002582188 -0.9789797 0.7260121 0.19210769 0.10982603 -0.602925 0.45946878 -0.0542412 -0.21818727 0.03860624 0.059293985 0.14986338 0.28497812 0.28064305 -0.52312803 -0.111494675 0.73588216 -0.6730809 -0.4416602 -0.05903939 0.76324743 -0.89225215 -0.2769831 -0.18377763 0.1118406 -0.20541629 0.42450666 -0.5444345 -0.2548881 0.31590375 0.39020625 -0.13468057 0.061294504 0.2916203 -0.15771833 0.11556072 -0.62683094 -0.085262686 0.38070145 0.42592862 -0.13096924 -0.017873693 -0.23611902 0.1158035 -0.1611985 -0.29640052 -0.15536222 -0.65430593 0.22510736 0.20947897 0.48531333 0.50543135 0.14073105 -0.5106564 -0.2059805 0.31206915 -0.12142179 0.24497831 -0.29952008 -0.15826981 0.4122682 0.048025645 -0.36720923 0.41049916 -0.06364653 0.13914035 -0.18818244 0.06931188 0.24772017 0.1683317 1.04046 -0.06083986 0.065925516 -0.46275342 -0.14864603 -0.12168837 0.25728133 -0.16886745 0.07005507 0.21061018 0.18725753 0.24124609 0.09806291 -0.06888045 0.4267313 -0.121818736 -0.60854703 0.41661656 -0.010744239 -0.1271006 0.0030325246 -0.62437946 0.2816776 -0.8225645 -0.19017823
39890 -0.58045274 0.2726341 -0.5219689 0.10160384 0.30770326 0.0551488 -0.30135137 0.04747258 -0.7339164 0.5123105 -0.52705556 -0.18420355 0.28771585 0.020172233 -0.23315828 -0.612056 0.40311813 -0.4990146 0.23612742 -0.099546246 0.81627166 0.5186945 0.24186787 0.026413955 -0.26959488 0.1836062 0.10417556 -0.20320126 0.20231062 0.101806924 0.08250771 0.28074336 -0.7281249 -0.05483053 -0.32325292 0.10784739 -0.41225407 -0.12343155 -0.1256667 -0.1338004 0.10349283 -0.53651094 -0.5602329 -0.3839279 0.5750525 -0.53786063 0.001569748 -0.40114748 0.33218008 0.17385066 -0.016963428 0.37766925 0.114467904 0.39106667 0.33158675 -0.13420816 0.13134164 -0.033290226 -0.29339182 -1.0055169 0.44476038 0.22636272 -0.5960271 -0.0062664957 -0.5638176 0.0143278735 0.31967518 0.1923072 0.02015859 0.013695641 0.5306885 -0.009048166 -0.30994862 -0.22758384 0.11485506 0.43435562 -0.23193897 0.19550535 -0.4093052 0.38000825 -0.08376795 0.21733423 0.04179549 0.36517066 0.25484458 -0.35011274 0.013266369 0.7533722 -0.03682424 0.36826375 -0.098849714 -0.4345758 -0.10663195 -0.08345002 -0.53386265 0.27867824 0.20099266 0.025238657 0.2199418 -0.51383305
8703 -0.3008963 0.836452 -0.46146882 -0.085121185 -0.87250733 -0.2765074 -0.37278682 0.088656776 0.09366344 -0.10254998 -0.11569865 -0.6093735 -0.0591105 0.31926262 -0.03259908 -0.009193899 -0.39686874 -0.1752615 0.12583077 0.15384232 0.44510904 0.45845088 -0.31273368 0.0143062025 -0.09297316 0.28126284 -0.16039838 0.12013268 -0.29696816 -0.2143685 0.39996713 -0.07226785 -0.67032295 -0.13913399 0.380867 -0.13640977 -0.5978223 0.10022581 0.66116273 -0.20252857 -0.08399265 -0.4142573 -0.68836856 0.38624188 0.0003938764 0.13277057 -0.4782632 -0.3042735 0.23643287 -0.0053734262 0.0786601 -0.018729502 0.2781065 -0.49524266 0.1711778 -0.16384174 -0.023322428 -0.01162791 -0.42211127 -0.27227366 0.11199761 0.59107774 0.027570479 0.026353387 -0.22041734 -0.3815146 -0.061789494 0.03980157 0.5722208 0.012234817 0.7437793 -0.32693908 0.7151667 -0.32929254 -0.08109301 0.703857 -0.64868224 -0.18550155 -0.096269585 0.035428558 -0.4207806 -0.13375697 -0.16551349 -0.18579604 0.102660075 -0.03858635 0.26061535 0.25511307 0.22940879 0.5366489 0.3178868 0.23199424 0.38179874 -0.25912857 -0.35143444 0.39899915 -0.38712108 -0.11763442 -0.44288966 -0.3200123
2658 -0.45098212 0.74017614 -1.206251 -0.11328178 -0.53185415 0.3170273 -0.19931935 0.26543486 0.4051505 0.14066716 -0.37949157 -0.1620038 -0.11613062 -0.08839307 -0.11072757 0.47007713 0.62336797 -0.12403946 0.4109972 -0.18882757 0.53339237 0.20552346 0.06451227 0.61497015 0.2596729 0.2511872 -0.06718726 -0.42540708 0.17950393 0.102312535 0.012667857 0.42059892 -0.37387195 -0.98789513 -0.31077707 0.08223845 -0.01870088 0.8126485 0.13713546 0.651731 -0.41054648 -0.066072434 0.1739125 -0.03789394 1.3359436 0.4538502 -0.658582 -0.54448384 0.3262485 0.8284715 -0.11482157 0.8394207 -0.41725594 -0.019177483 0.53979677 -0.41184583 0.5015233 -0.0030662466 -0.83471453 -0.54458916 -0.23377153 -0.5664881 0.080696076 0.5311754 -0.5676275 -0.20645738 -0.5373611 -0.078869425 0.6869197 0.16354775 0.6015388 -0.65749896 0.17568782 0.06992782 0.2672539 0.19545275 -0.17095444 -0.3743753 -0.6308768 -0.12025559 0.16128369 -0.65841687 -0.1543142 0.13665727 0.11494007 0.27971476 0.47785664 0.034930773 -0.29770038 0.30941108 -0.49613383 -0.24228565 0.086034566 -0.5741319 0.013617165 -0.047400102 -0.33922502 -0.0049556396 0.45879295 -0.14966404
3220 -0.038910303 0.13078983 0.04938345 -0.29411304 -0.46959278 0.47092798 -0.4804749 0.1869473 -0.43158016 0.23459868 0.22783358 0.24205524 0.35637036 -0.20468535 -0.6385036 -0.18966883 -0.4209488 -0.44971907 -1.0957603 0.074671365 -0.10037737 0.62933487 -0.26766494 0.34599262 -0.20035592 0.7808744 0.00028286944 -0.448588 -0.010460756 -0.24983686 -0.21644717 0.23882934 -0.79130447 -0.22311477 0.46631506 -0.20230801 -0.56054795 0.2162889 0.43330213 0.23656929 -0.15102747 -0.67496496 0.0667018 0.18765168 0.2568483 -0.28445068 -0.6770468 0.011193353 0.13519204 -0.13671842 0.0017894226 0.35188186 -0.08844267 0.019619448 -0.3191847 0.048917796 0.37587482 0.09992527 -0.2724718 -0.59044987 0.48936045 0.29455334 -0.1711337 0.16496749 0.038714018 -0.36719888 -0.47851196 -0.009544007 0.39164785 -0.1968938 0.17910042 0.09622994 -0.11425156 0.40288195 -0.15806004 0.53453773 -0.11704927 -0.09415377 -0.053186275 0.51373595 -0.45978242 -0.57502854 -0.071522206 0.17089638 -0.23703653 0.43751338 -0.00038159147 0.51527375 -0.02091107 0.7654046 -0.04885829 -0.040821757 0.15087864 0.39505768 -0.16358854 -0.034535103 -0.35186598 -0.3917443 -0.38281336 -0.56946766
2653 0.06470155 -0.3739802 -0.07848753 -0.09784373 -0.51565206 -0.13336805 -0.55850565 0.40306893 -0.19875288 0.24062827 -0.3852962 0.04854495 0.14497054 0.04707901 0.006709619 -0.58223414 -0.35734287 -0.13957192 0.28248835 -0.028971625 0.4232946 0.17308149 -0.71514976 0.14051391 -0.2244049 0.015820075 -0.24401233 0.052401844 -0.15254532 -0.7751721 0.18768112 0.2673043 -0.49568355 -0.30555 0.5571887 -0.6271674 -0.30401134 0.4075076 0.025575586 -0.17090009 -0.18574965 -0.5355587 0.17053516 -0.031116022 0.25268805 0.011697738 -0.4924572 0.2609184 0.34017706 -0.2196704 -0.270198 0.38230765 -0.6870567 0.680834 -0.42569363 0.5241746 0.45072666 0.080415316 -0.37139586 -0.39929116 0.55701447 0.10047996 0.15235291 -0.1303344 -0.5913929 -0.023709493 -0.22031847 0.28193617 0.18630219 -0.557716 0.2637863 -0.26116163 0.19002281 0.5163355 0.05782139 0.36814103 -0.30273062 0.00813877 -0.4379987 -0.24920027 -0.08245507 0.11454458 -0.40895337 0.4670169 0.16952677 -0.27027526 0.32606685 0.38448417 -0.14860426 0.18608922 -0.62569547 -0.22131304 -0.018683327 0.04444445 0.18724331 0.27458903 -0.38888654 -0.20087194 -0.21966769 0.01770243
643221 -0.28782716 0.114303224 -0.2605056 -0.0018342296 -0.0010328387 0.08464334 -0.93355775 -0.40962213 -0.13292973 0.49727017 -0.6023575 -0.39404833 0.6679351 0.4595514 0.15628713 0.12836252 -0.15694794 -0.24064761 -0.04370721 -0.5931865 0.6386914 0.3451722 0.45328265 0.029180767 0.35270667 0.113096505 -0.84985375 -0.5647969 -0.39947316 0.26685145 0.05972385 1.2629955 -0.443841 -0.25301006 0.5883133 -0.2945957 0.013011372 0.28370562 0.15613146 0.2008872 -0.22021006 -0.76726913 -0.11618854 -0.32471222 0.34087852 0.5180522 -0.50399923 0.6185907 -0.018576814 0.2251005 -0.047391348 -0.013099032 -0.019410139 -0.54148525 0.43305486 0.02581311 -0.19212069 0.7840515 -0.33910987 -0.8431467 0.7134633 0.29067343 -0.24355114 -0.03267019 0.12503475 -0.057642505 -0.33984548 0.09890348 0.14353819 -0.010865888 -0.07626714 -0.10288134 -0.14169139 0.5581853 -0.06146701 0.32568285 -0.35699978 -0.8532097 -0.5402657 -0.12371807 0.9735146 -0.16800468 -0.46197125 0.297891 0.10590941 -0.008601163 0.58532184 -0.21338217 0.33332938 0.24692288 -0.028622292 -0.9557622 -1.0437614 -0.4755099 -0.11555796 0.3228862 -0.009889203 -0.02468896 0.13550319 -0.75696415
2696 -0.5639228 0.5336671 -0.6707028 -0.017678853 -0.41442138 0.11391623 -0.51665694 0.010255297 -0.050975837 -0.1422648 -0.49008942 0.71524906 -0.2029141 -0.03935474 -0.031116169 0.43154937 0.3784242 0.09421764 0.097490296 -0.3784899 -0.07342809 0.06411746 0.59591013 0.11914354 0.20555204 -0.12860607 -0.1678024 -0.21854456 -0.011195811 0.4608082 0.24322951 0.4390999 -0.40430272 -0.9279843 0.6811697 -0.53702796 -0.18957819 0.33488905 0.09008902 0.3176014 -0.35751528 -0.25123394 -0.17688896 0.08978109 1.5491611 -0.3133537 -0.21645617 -0.1274325 0.014842413 0.41967085 0.2113036 0.49916047 -0.13590296 -0.1647426 0.36368254 0.05997623 0.5024151 -0.22326368 -0.6797028 -0.44241628 -0.24924432 -0.37077808 0.08758106 0.5739306 -0.2786124 -0.12632078 0.08795972 0.87964666 0.37980247 0.4195701 0.30319205 0.073601685 -0.0889084 0.08932759 0.21627475 0.10470938 -0.4174411 -0.29199225 -0.44945842 -0.48213604 -0.17643972 -0.43933544 -0.11185409 0.08907748 0.42577955 0.29594103 0.2546639 0.20231317 -0.3131174 0.4860699 -0.36185744 -0.3722124 0.25019145 -0.62418467 0.05672186 -0.0670052 -0.030058566 0.013455444 0.2823072 -0.36048952
230879 -0.33734268 0.51904297 -1.2914866 -0.021954196 -0.5881114 0.25711748 -0.13120338 0.2601404 0.3263444 0.12438595 -0.4600965 -0.14689362 0.11708121 -0.110529706 -0.424457 0.305261 0.6354121 -0.3330049 0.22248167 -0.0052241157 0.40048793 0.048512865 -0.0018938867 0.61370206 0.09068011 0.08853778 0.15585962 -0.4085826 0.18846095 0.33231813 -0.036231164 0.32040277 -0.60759133 -0.90663505 -0.20067094 -0.041245196 0.0007356954 0.66644186 0.1238648 0.77263355 -0.5426714 -0.20292516 0.25584343 -0.017526355 1.2581363 0.38566563 -0.66081417 -0.540258 0.39397153 0.7912078 0.031818792 0.61301774 -0.3091489 0.047049187 0.35718146 -0.38072175 0.42774227 0.037389692 -0.74747705 -0.7310967 -0.36790416 -0.5777546 0.073042154 0.4721963 -0.56054306 -0.09038628 -0.5604161 -0.0020831574 0.63203883 0.14949837 0.54940313 -0.5773358 0.13587038 0.2561047 0.47561377 0.100437135 -0.122437045 -0.43316695 -0.9669115 -0.17513421 0.13308303 -0.7590463 -0.09217028 0.06152388 0.33507058 0.2177745 0.2993925 0.104073904 -0.26376617 0.47628865 -0.08556918 -0.33557725 0.2524184 -0.55553085 0.18424904 -0.028420331 -0.35262027 0.031013923 0.42503744 -0.005269949
3191 -0.041277334 0.23581468 -0.6860048 0.03787791 -0.040701702 0.16102915 -0.44579756 0.1134848 -0.38760304 0.626274 -0.97333694 -0.36846715 0.5282919 -0.11480984 -0.114414535 -0.18223935 0.12255283 -0.09895801 0.06801669 -0.5799059 0.40412894 0.5155343 0.14582269 0.5402566 0.049988147 -0.035882216 -0.30558914 -0.22545464 0.0009889088 0.2763168 -0.055860404 0.49036917 -0.504602 -0.036042143 -0.018952841 -0.23446143 -0.7437093 -0.6365918 -0.013762584 0.20002761 0.27611455 -0.60766566 -0.07308642 -0.5118701 0.882851 -0.5263434 -0.28649545 0.20817283 0.023083827 0.2181915 -0.11841843 0.09200191 0.07666178 0.0047478625 0.0039242567 0.03723131 0.30300298 -0.016251666 -0.18466781 -0.85491455 0.47857273 0.3262917 -0.35192478 -0.15716127 -0.49938524 0.02001285 0.14174703 0.06402058 -0.085628755 -0.30536947 0.41320443 0.018716093 -0.572173 -0.032906853 0.17294218 0.21815337 -0.34221712 0.13979726 -0.72543615 0.28505623 -0.0045110728 0.1444816 0.16582775 -0.123345524 0.27736807 -0.29812467 0.24734786 0.6183903 -0.3956884 -0.002557313 -0.11380398 -0.54329014 -0.03983602 0.0047112945 -0.35889757 0.18917693 0.43862653 -0.27289486 -0.026955687 -0.118100144
23738 0.12406005 -0.24064006 -0.091338284 -0.078158855 -0.08021639 0.1528308 -0.70902926 0.42184624 -0.33741787 0.84410125 -0.29122385 0.102977775 0.041376974 0.114130884 -0.7075566 0.015095089 -0.23300537 -0.3153599 0.48952684 -0.08311667 0.53531927 0.17111328 -0.05281854 0.042944983 0.046746794 0.9259962 0.23299953 0.08380901 -0.0919793 -0.11342713 0.30545393 0.23707311 -0.29816085 -0.12144275 0.51511836 -0.4684583 -0.34449697 0.021581147 -0.25631645 -0.39755112 -0.27871585 -0.44272152 -0.13667545 0.056005828 0.3593687 -0.11875705 -0.02588276 0.0044667926 0.73972034 0.35226047 -0.31562704 0.015603639 -0.009986933 0.25388208 0.20975797 0.39883304 -0.0857181 -0.017640078 -0.5078078 -0.48814848 0.45101112 0.6420198 0.09206847 0.14228939 -0.60303444 -0.050672967 0.04278003 -0.34171155 0.5567749 -0.3073158 0.18409684 -0.0351724 0.42722172 -0.10464672 -0.10364914 0.20952943 -0.16179949 -0.15987755 0.08523647 0.41489205 -0.39888862 0.04714956 -0.3931449 0.22723426 -0.06875382 -0.22222598 0.10373326 0.40250126 -0.42981312 0.18134105 -0.26346788 -0.13514316 0.11411147 0.20432138 -0.09124155 0.43258527 -0.2720455 -0.12714605 -0.12671663 -0.3228762
4335 -0.29109034 0.39703047 -0.06420824 0.09030139 -0.32206634 0.32640123 -0.36991286 0.022562755 -0.046837542 0.57604486 -0.5631165 -0.20796725 -0.32772273 -0.12936978 -0.14724582 0.31057447 -0.010846138 0.38011748 0.24317765 -0.18698016 -0.10934621 -0.025933722 0.19185024 0.5645249 0.09372844 0.37890118 0.07059474 -0.4599047 -0.5905665 -0.07632345 0.15733401 0.8330731 0.27002147 -0.32884324 0.75850403 -0.33121786 0.20586689 0.29953495 -0.22910923 0.12307547 -0.29898348 -0.6401309 0.16580829 -0.05146021 0.5969535 -0.29868144 -0.06193971 0.2658992 0.44911855 0.27267432 -0.48417124 -0.08491613 -0.090361044 -0.11962697 0.05717767 0.37489158 0.5155466 0.16598392 -0.23358847 -0.84005266 0.30754092 -0.073546514 -0.14962968 0.20673452 -0.5418088 -0.4889199 0.41005993 0.23301709 0.06310088 -0.27372906 0.2623272 0.18525235 -0.48758182 0.16195597 0.16873905 0.85669994 0.04550264 -0.10706911 0.0984707 0.62230444 0.14066762 -0.048266552 0.09036867 -0.38867387 0.097463526 -0.53655195 0.27179876 0.1572687 -0.39463964 0.1084481 -0.81637985 -0.6679696 0.05941025 0.20966227 -0.0022828463 0.3225141 0.5924701 -0.15742859 -0.14495297 -0.29402983
4804 -0.27213874 -0.20631847 -0.038922783 0.3982183 -0.25474662 0.014399852 -0.42943582 0.5972312 0.3687038 0.12667722 -0.09496232 0.07206597 -0.010652792 -0.050358508 0.09930082 -0.013896744 0.18659526 -0.041011598 0.55683404 0.13373937 -0.03314477 0.25898436 0.059040695 -0.44210973 0.35534397 0.15037969 -0.2774662 -0.49659503 0.20088391 -0.30192629 -0.23421316 0.28298017 -0.5887202 -0.6951102 0.41539866 0.09608375 -0.6697854 0.039271835 0.06878259 -0.002403081 -0.07956471 -1.053488 0.024676131 -0.12623587 0.7146096 -0.23103389 -0.18574429 -0.46517378 0.44985032 -0.45323214 -0.17637213 -0.16791254 -0.05613096 0.0058916756 -0.27480492 0.5546857 0.5434038 -0.020373194 -0.5533132 -0.027966568 0.6181338 -0.13499227 0.35716826 -0.095402494 -0.22090335 0.16278797 -0.049290232 -0.4047369 0.32055792 -0.2943217 0.08167602 -0.08827225 0.27845585 0.13866778 0.35914505 1.0280119 -0.26576853 0.12382804 -0.529605 0.33795813 -0.03685278 0.21823154 -0.27750513 0.14141731 0.41393796 0.06380958 0.04625839 0.371462 -0.05454273 0.6070056 -0.35987028 -1.126869 0.050226573 0.034681715 0.16048385 0.087965235 -0.8763886 0.12836824 -0.65538526 -0.046049386
35922 -0.80993134 0.03548641 -0.49332815 -0.3671345 -0.30419183 0.06842214 -0.23283169 -0.016318858 0.11317515 0.4483935 -0.26399288 0.025604876 -0.3412485 -0.19859913 0.036475737 0.1916485 0.24279967 0.5255483 -0.18921424 -0.031112786 0.24873255 0.16613328 0.17390649 0.71151817 -0.3714087 -0.029859137 0.17590997 -0.29453707 -0.47002155 -0.20950463 0.28679734 0.51042205 0.44442242 -0.1743385 0.21443911 -0.23466377 -0.053926088 0.37765697 0.19730304 0.61483806 -0.2171746 -0.12528116 0.20528157 -0.4088577 0.40163344 -0.32790515 -0.26397142 0.066316284 0.44475624 -0.055099122 -0.1382149 0.36175933 -0.19875932 -0.44763434 0.20325765 0.09886593 0.33520317 0.24505246 -0.22055562 -0.5097917 0.6187536 0.2739771 -0.12950157 0.23180367 -0.62954 -0.6927162 0.062198106 -0.14358562 0.2014618 0.0027711862 -0.06190179 -0.049583122 -0.5727414 0.18304968 -0.3042412 0.84255606 0.06022379 0.30775303 0.19334304 0.057867724 -0.16752283 -0.059917003 0.04052454 -0.19174905 0.17266156 -0.26060057 0.0050066295 0.30900458 -0.13790834 0.0029865692 -1.117406 -0.943768 0.00097096304 0.09689569 0.16606228 0.03275545 0.33591408 -0.22189589 -0.093085535 -0.5209177
117 -0.814795 0.45503122 -0.45269692 -0.2679542 -0.124295615 0.10006954 -0.26494157 0.40945727 -0.062825486 0.49952716 -0.102513656 -0.14931892 -0.58104104 -0.06735937 -0.028224215 -0.45200673 0.21653038 -0.13659877 0.18150061 0.24643908 0.25509998 -0.15576227 0.6084198 0.1762886 -0.46991688 0.40134233 -0.23838481 -0.30269378 0.049502023 0.26694366 -0.030021705 0.15100864 -0.005958153 0.07326803 -0.016320331 0.13312154 -0.017464956 0.025152879 -0.034046445 0.0956076 -0.29235286 -0.56673384 -0.51512986 0.30715984 0.15979752 0.1360497 0.21957935 0.083007954 -0.015026598 -0.099885866 -0.07179905 -0.10089079 0.24924327 0.5139944 0.13080487 0.10902375 0.07692953 -0.18860026 -0.62953645 -1.045041 0.3444103 0.36471605 -0.22323826 -0.26636052 -0.7363463 -0.14638443 0.29892263 -0.162237 -0.15203224 0.22246 -0.13918538 -0.25694674 -0.09830391 0.36502773 0.12785475 0.9787769 -0.6150965 0.087730065 0.13564818 -0.14696981 0.2511582 0.034139045 0.3990622 -0.15640143 0.13939582 -0.18740596 0.33091915 0.26460305 0.027097529 0.8276596 0.06316415 -0.70202684 -0.18189824 -0.476206 -0.04349078 0.13386069 -0.37343132 0.3585642 0.104667775 -0.4848198
10796 -0.8169585 0.0736467 -0.15123102 -0.086698204 -0.43406048 -0.3262315 -0.13596587 0.32037905 -0.2820408 0.15816393 -0.032295007 0.076750696 0.12383076 -0.083657645 -0.10460309 -0.51251864 -0.49950156 0.10479142 -0.18249583 0.43459216 0.31537923 0.41899374 0.3629137 -0.026852978 -0.14863747 0.86040735 0.11236546 -0.1309917 -0.115791865 -0.5952676 -0.007009238 -0.21249907 -0.23089758 -0.24570245 -0.044184122 0.27691188 -0.1641009 0.50813353 -0.17094867 0.3349985 -0.16925855 -0.09721947 -0.78106475 0.015944371 0.022689134 -0.21358219 0.05420833 -0.081794105 0.22540924 -0.13783012 -0.08924356 0.12299731 0.2442585 0.07363441 0.18394315 0.2157068 0.18468674 0.42146274 -0.17333208 -0.41602802 -0.19730483 0.45875174 0.0619562 0.075462416 -0.3359904 -0.20817225 -0.30913574 0.39428523 0.52416366 0.0314875 0.5815859 -0.41913208 0.17272934 -0.03159398 0.0063691637 0.30191436 -0.18341061 -0.44776514 -0.03786891 0.21554033 -0.9001485 -0.21529533 -0.026919976 0.06826106 -0.4682105 -0.260988 0.43367028 0.42013738 0.34861583 0.3308336 0.08742027 -0.102188416 0.45925483 -0.06704048 -0.030266972 0.69853026 -0.3701035 0.23297076 -0.49834868 -0.38915566
6334 -0.27579233 0.23650561 0.11926604 0.1031006 -0.50386274 -0.29529628 0.05234907 0.29697716 0.39346772 0.08118048 0.025626691 -0.13465555 0.25029868 0.22815883 0.24401145 -0.36169657 -0.4293403 -0.19794397 -0.21613064 -0.47861964 -0.3746563 0.7523818 -0.31863725 -0.023732224 -0.1748453 0.3404268 -0.09507528 0.090922415 -0.17138565 -0.073124126 -0.5921838 0.30235025 -0.7029235 0.022526274 -0.2490341 0.067911446 -0.4797971 0.3988525 -0.3119747 -0.25746214 -0.17880483 -0.3374558 0.093561314 0.3756303 0.55260944 -0.3928184 -0.6950103 -0.30260143 0.32925302 0.4093995 -0.120192386 0.06110629 -0.22263993 -0.073865496 -0.60823834 0.55272114 0.42025617 0.17994481 -0.2285029 -0.7153207 0.255301 0.34986433 0.1506189 -0.14953776 -0.11360138 -0.029915543 -0.53206277 0.2183233 -0.047551658 -0.132499 0.6995269 0.43488625 -0.1633265 0.4563012 0.20055489 0.46327043 -0.03073466 -0.40957826 -0.2891012 -0.21183382 -0.22643347 0.20667574 0.11117187 0.3333697 -0.37651128 0.052670024 0.06450506 0.43822405 0.17491381 0.35986063 0.18542631 -0.16770987 0.072176225 0.5457347 -0.24097835 0.34728444 -0.61939234 -0.44754562 -0.09087231 -0.19221646
1688 -0.3475964 -0.15437232 -0.5528479 0.18375003 -0.6246591 -0.7461667 -0.1554459 0.4407499 0.5987863 0.223479 -0.10233684 0.07184955 0.17907512 -0.3600356 -0.11538568 -0.2453793 -0.3407154 -0.05265265 -0.08340067 -0.07567183 0.058148533 0.26345083 -0.044848416 -0.09823312 0.0433445 0.3344336 -0.11041959 -0.53842705 0.3463042 0.03852702 -0.15044141 0.3902817 -0.05427978 0.05166341 0.46069905 -0.6493905 0.41316357 -0.3182731 0.049472854 0.19718245 0.46351105 -0.25388002 0.011255908 0.15060706 0.43598557 0.6009014 -0.6670777 -0.0035143665 0.5251946 0.4632956 0.061769888 0.48984343 0.18718193 -0.20704116 0.98388994 0.26180077 0.2624771 0.03809721 0.107182086 -0.3490431 0.6542 -0.026571352 -0.20213918 -0.39594206 -0.6671377 0.11790317 -0.28860885 -0.012557992 0.23778467 0.17918554 0.34161982 0.4491695 -0.06393377 -0.28542516 0.1712012 -0.43753707 -0.35012522 -0.6745946 -0.18073829 -0.33779776 -0.5108345 0.08400147 -0.1512254 0.3685632 -0.31420016 0.0005281983 0.25755274 -0.5008959 0.31837174 0.5816203 -0.31019792 -0.5777975 -0.37280816 0.09819022 -0.3165341 -0.13268267 -0.19028506 -0.35977829 0.022573158 0.04983317
85352 -0.47750562 0.30351144 -0.45821375 0.36646086 -0.47555333 -0.3359651 0.018469915 0.38232833 0.6892684 0.42650655 -0.4521852 -0.3184263 0.031524744 -0.13766259 -0.45851052 -0.021586904 0.20469902 0.120937824 -0.29228795 -0.7032466 0.19958639 -0.0074829096 -0.14277588 -0.6355352 -0.2078287 0.046797894 -0.10201887 -0.5876915 0.17251416 -0.21933892 -0.35057518 0.57944757 0.39234605 -0.35257328 0.37022915 -0.42765945 0.0022278815 -0.37699792 0.13362533 0.11687209 -0.14530562 -0.05884082 0.15022434 0.14919043 0.36387253 0.4003994 -0.22067891 -0.20404555 0.4821791 0.053015325 -0.039214928 0.47997925 0.100335345 0.050256602 0.8297651 0.6165045 0.75227565 -0.0008197168 0.20819351 -0.22965294 -0.17827445 -0.21143155 -0.453895 0.32845426 -0.30744573 -0.263565 -0.29596466 -0.33902058 0.19217435 -0.28123438 0.4192396 0.08244905 0.1553829 0.03190438 -0.25765234 -0.49813148 -0.07258022 -0.7184268 -0.18573709 -0.5673949 -0.19949542 0.13919158 0.16496718 0.43769282 -0.09848499 0.32616627 0.34637716 -0.016610662 0.33101285 0.80787754 -0.06821743 -0.29940775 -0.33582956 0.15754904 -0.085988805 -0.086730905 -0.3365519 -0.06817193 0.23811266 -0.37875703
39127 -0.47354075 0.56254405 0.05158644 -0.3615468 -0.13995044 -0.15276486 -0.13774024 -0.19513476 -0.05232459 0.23582987 -0.55802953 0.23672679 0.20917775 -0.05815709 -0.049316842 0.002757593 -0.33735687 -0.13077866 0.03203416 0.2155 0.021708049 1.1411695 0.0418004 0.29524484 0.29387704 -0.08739777 -0.10036259 -0.07812752 -0.15015772 -0.43043745 -0.27869996 0.7103537 -0.5098859 0.052198805 0.17767233 0.43088114 -0.6675614 0.3290986 -0.046062205 -0.41482225 0.028577609 -0.56537133 -0.09888129 0.21561739 0.4978347 -0.11271526 -0.34204936 -0.84170496 0.25357392 -0.24341244 -0.33529833 0.24401288 -0.48016435 -0.4651399 0.16928013 0.18624659 0.2942793 0.1368099 0.14676473 -0.84741926 0.27514663 0.38407254 0.1796854 -0.04393757 -0.53333944 0.10772791 -0.86749 0.067065075 0.35468456 -0.40490192 0.87422985 0.35138535 0.3206573 0.5895966 0.5775592 0.13486613 -0.24136756 -0.6975927 -0.28682712 0.11976276 0.09540419 -0.36565325 0.06327214 0.24799176 -0.43042314 0.22411837 0.16320978 -0.06928772 -0.28346506 0.52359635 -0.085728295 -0.04649567 0.37016526 0.12871562 -0.04707083 0.3795957 -0.33818737 0.28289524 -0.49973622 -0.7053105
3218 -0.20182776 -0.12585562 0.200377 -0.25115737 0.01970791 0.28491384 -0.6097849 0.19095767 0.22984229 0.6773013 -0.42791846 0.23246194 0.11428213 -0.1874545 0.010207505 -0.031284988 -0.31131408 -0.4364604 0.100178815 0.13443725 0.23976791 1.0035664 -0.3282044 -0.060682293 0.116514854 0.30572575 0.09334174 0.11332254 -0.39384606 -0.33450907 -0.2649187 0.15142083 -0.41790006 -0.12801903 0.47706985 0.33702108 -0.50761867 0.42143288 -0.15865755 -0.21650995 -0.52976394 -0.041466247 -0.16091509 0.7603159 0.28525272 0.02447761 -0.40619075 -0.16315083 0.40536544 0.30126876 0.04352642 -0.103727326 -0.08513604 -0.18574002 0.5515242 0.15478393 0.005184711 0.47398245 -0.06171644 -0.8009167 0.10939307 0.72972745 0.07787845 -0.026869662 -0.56595564 0.71825385 -0.13672045 0.035046536 0.13515332 0.29288244 0.77814484 0.16795515 0.47653058 0.08562375 0.03858092 0.35492364 -0.279844 -0.6994452 -0.33322477 0.1195072 -0.16076444 -0.26336482 -0.25122774 -0.06349923 -0.27603877 0.48153654 0.07869531 -0.0013808284 -0.05274393 0.5132134 -0.06760724 0.008505968 0.36801222 0.26681238 0.08022095 0.18275449 -0.43802872 -0.07559913 -0.3092804 -0.6911726
16819 -0.17237939 0.27651903 -0.4155416 0.15059493 -0.070337065 0.2114835 -0.74390656 -0.5082981 -0.20327583 0.84314203 -0.88309515 -0.39399937 0.8655526 0.23478821 0.26221544 0.28310135 -0.2587354 -0.45628065 0.070860386 -0.44349098 0.44927108 0.3801248 0.29907948 0.19172753 0.1907945 0.18741417 -0.7926578 -0.46246675 -0.117144376 0.5074626 0.16753474 1.0907712 -0.48985568 -0.365953 0.5976281 -0.21931697 -0.002553142 0.14726803 0.29316327 0.14519359 -0.5052869 -0.63724935 -0.22538397 -0.13811302 0.32937935 0.56104213 -0.56181085 0.36511657 -0.09211072 0.25890747 0.18600938 -0.24034359 -0.06036519 -0.5400949 0.30517653 0.2984368 -0.089128725 0.9450687 -0.5313011 -0.4827375 0.64134824 0.13863431 -0.43092158 0.030683925 0.15117662 0.07526674 -0.6475986 -0.04804169 0.12294267 -0.026122974 -0.12840205 0.014843298 -0.17834789 0.64097434 -0.2108132 0.2583369 -0.22385117 -0.71980584 -0.31326887 -0.22428365 0.6508496 -0.31207848 -0.4494723 0.27398798 0.038927827 -0.046844896 0.2877207 -0.20064034 0.33615738 -0.019475317 0.042916458 -1.1410323 -0.5906497 -0.422448 0.048315335 0.12683624 0.11112087 -0.3275297 0.039035246 -0.66976404
1481 -0.3542298 0.38077956 0.17805462 -0.3324575 0.030959383 -0.42116067 -0.550438 0.28702328 -0.14271522 0.29139972 -0.31511602 -0.19368476 0.32901812 -0.61411357 0.20264563 -0.46501952 -0.164549 -0.5155998 -0.45403188 0.37822032 0.061466232 -0.038798396 0.22822258 -0.123783015 0.22850789 0.3153723 -0.10688005 0.06789607 -0.27840477 -0.010388716 -0.5067806 0.66495484 -0.6562161 0.078305446 -0.19786032 0.4860438 -0.31632066 0.48316547 -0.10899473 0.5985249 -0.37299508 -0.47381696 -0.30501938 0.2870182 0.20131844 0.109090135 -0.10488248 -0.64974684 0.20963879 0.37766728 0.6353919 0.020859854 -0.10559739 -0.17759758 0.26022956 0.4609632 0.38191375 0.3595543 -0.5302555 -0.30879417 -0.21438554 0.19511148 -0.5642216 0.0981151 0.21933211 0.17647673 0.14352927 0.7558869 0.64672196 0.050091267 0.45829728 0.039687496 0.3516293 0.1194874 -0.14062093 0.521375 0.08777438 -0.18239382 -0.32395816 -0.022315657 -0.46194896 -0.13213125 -0.09663139 -0.1245714 0.09978535 0.1813149 0.17773542 0.5771697 0.069539115 0.7748008 -0.12927543 0.4304972 -0.2512417 0.41162336 0.06563476 0.40695742 -0.17149122 -0.06456482 -0.09804541 -0.586212
642894 -0.17478332 0.18734363 -0.08730034 0.17784669 -0.05473448 -0.13252498 -0.95705307 -0.293722 -0.2825391 0.45274472 -0.71593034 -0.28921613 0.6073675 0.42382035 0.237927 0.38392258 -0.36569956 -0.13053538 -0.06791564 -0.8242929 0.48548892 0.51969445 0.40812543 -0.07495225 0.33907634 0.36786616 -1.054518 -0.65651596 -0.37685597 0.055740904 0.1375472 1.3020464 -0.4480066 -0.16900353 0.73936254 -0.39983207 0.18704385 0.5366652 0.083230756 0.41494036 -0.24700308 -0.54068345 -0.3766011 -0.3211317 0.2356462 0.58710283 -0.2825202 0.46168298 -0.021139618 0.342156 -0.014316385 -0.11871278 -0.20817196 -0.6432811 0.38524 0.050725374 -0.13840598 0.77795196 -0.5856032 -0.91637504 0.6739437 0.35995457 -0.17324007 0.00957058 0.10519057 -0.27892542 -0.34012002 0.17266794 0.31961504 0.1287317 -0.12161928 -0.09602424 -0.030215103 0.7470554 -0.051438365 0.3253118 -0.36883503 -0.86173 -0.7550734 -0.32112148 0.96562785 -0.33238187 -0.35268956 0.50464886 0.076925695 0.04629629 0.501075 -0.25013572 0.18478535 0.17408796 0.04156612 -0.889145 -0.99813753 -0.55207473 -0.12691426 0.4122035 -0.16500063 -0.013641542 -0.014860298 -0.5976379
10177 -0.45716336 -0.017496333 -0.031514447 0.040147334 -0.3669852 -0.18349461 -0.6171858 0.5403994 0.06715781 -0.1415049 -0.3703253 0.38579628 -0.018957824 0.12207084 0.1848657 -0.0956136 -0.051098943 0.21982515 0.14332657 -0.24715061 0.21430941 0.61738646 -0.5394417 -0.5352444 0.03613046 0.23700006 -0.29155177 -0.14655508 -0.10853312 -0.31183243 -0.22746548 0.28996086 -0.8417953 -0.3601148 0.29830125 0.13894445 -0.40185162 0.13155884 0.24900337 -0.13920982 -0.06169946 -0.729052 0.23841503 -0.17496607 0.51215756 -0.26565656 -0.30929628 -0.5738504 0.20668975 -0.06775549 -0.24038671 -0.0625186 -0.4139774 0.015244983 -0.31084013 0.45475587 0.49336338 0.29525873 -0.6929497 -0.2495894 0.52069354 -0.27203545 0.48715684 -0.21843386 -0.37815815 0.40772197 -0.17506781 -0.39467457 0.45784438 -0.08555221 0.19822603 -0.11647018 -0.00011189814 0.5036317 0.20011175 0.9966503 0.18279903 0.008435544 -0.5271122 -0.045981478 -0.13305761 0.33750907 -0.2818938 -0.11560968 -0.12474699 0.025808614 -0.01050114 0.23475383 -0.18488662 0.5513456 -0.25467482 -1.0388875 0.109223224 0.19944428 -0.046631303 -0.23335259 -0.75114715 0.22951424 -0.31246153 -0.32574874
54131 -0.43293804 0.15965015 -0.613553 0.7941766 -0.91869545 -0.2508384 0.25292164 0.12100984 0.45250648 0.70005995 -0.2868003 0.31076846 -0.0016171961 0.34740478 0.05173248 -0.46221095 0.27630192 -0.09811091 -0.6016609 -0.3312603 0.058645748 0.34848017 0.07392949 -0.27491677 0.18027788 0.20080625 -0.49051058 -0.57200986 0.008331542 0.16859934 -0.4735359 0.4324082 -0.056492303 -0.51395935 0.252938 -0.43743452 0.10892204 0.50131917 -0.25518176 0.039688192 -0.10927845 -0.18684232 0.20400833 0.32033935 0.08307277 0.39116606 -0.3296346 0.12426906 0.50398403 -0.3453406 -0.08238863 0.06732045 0.32866162 -0.2856897 0.73619074 0.43217963 0.26746303 -0.070240036 -0.030429436 -0.33724084 0.033809315 -0.33493233 -0.0067943237 -0.12539063 -0.56574214 -0.34907877 -0.4636456 0.066567846 0.1438162 -0.3478517 0.22726505 0.34219417 -0.104684815 -0.082424775 0.088769406 -0.15037137 -0.4990938 -0.23954912 -0.0015123236 -0.40350556 -0.05722664 0.47159985 0.11848918 -0.20174254 -0.1717342 0.1925998 -0.01651407 -0.37840265 0.22876026 0.7364017 0.2109272 -0.503561 0.09861322 -0.22307564 0.036008537 0.061216682 0.43341377 0.0258428 0.47954383 -0.25043488
5348 -0.4239611 0.76038265 -0.69852984 0.12375532 -0.49745104 0.2521557 -0.34186426 0.061764635 0.18482673 -0.12376555 -0.39487252 0.67282957 0.08702161 -0.26309946 -0.028950669 0.38565862 0.21037255 -0.07661218 -0.062203325 -0.21676187 -0.036781393 -0.040487893 0.66216207 0.25624162 0.19592634 0.068262815 -0.14454181 -0.11402968 0.06374411 0.5916994 0.22167525 0.3407337 -0.24935693 -0.865805 0.61869556 -0.45891094 -0.19190033 0.3342719 0.17343494 0.5587694 -0.345378 -0.4534584 -0.15982178 0.07865043 1.5347786 -0.09814741 -0.21393724 -0.004592227 0.01703332 0.40602046 0.30452266 0.39831713 -0.11374384 -0.13129461 0.35834464 -0.07876211 0.6168499 -0.11355798 -0.74733514 -0.3785386 -0.20197645 -0.28453568 -0.049563397 0.6609317 -0.18790765 -0.1466859 0.0090705585 0.93726206 0.444731 0.39429507 0.27147636 0.030871104 -0.17280148 0.25078484 0.087797806 -0.088326566 -0.2512093 -0.42124343 -0.6219602 -0.40179688 -0.1296708 -0.520703 -0.24687663 0.21839574 0.27033913 0.38797575 0.09646196 0.11826115 -0.3630454 0.45852023 -0.070145406 -0.41613436 0.17767818 -0.7438823 0.30947027 -0.05573921 -0.12734255 -0.136646 0.4232216 -0.39136928
210871 -0.12950641 0.028982818 -0.3294943 0.25896138 -0.8870057 -0.13296868 0.39345184 0.29873374 0.14325884 0.36895105 -0.28190792 -0.17622079 -0.09268549 -0.034078114 -0.26745275 -0.32354432 -0.2149329 0.09443782 -0.40304154 -0.037629932 0.3652098 0.32477874 0.14616941 -0.3978147 -0.3068226 0.54210746 -0.32918152 -0.4112972 -0.07842289 -0.20123857 -0.4184412 0.2647346 0.06828632 0.16461295 0.17515242 -0.09617147 -0.46743175 0.25446698 0.04941392 0.14268227 -0.20626687 -0.06330722 0.13723978 0.7280287 0.29433894 0.8406401 -0.21128151 0.12422848 0.566307 -0.1709402 0.46283782 -0.33917117 -0.09848634 -0.36879125 0.78448606 -0.044238206 0.57527333 -0.1822873 0.08055404 -0.42801583 0.14397223 -0.046272814 -0.5899035 -0.33876663 -0.38978162 -0.31614515 -0.2710208 0.02407953 0.41456237 -0.07475945 0.15494388 -0.28418097 -0.036014963 -0.085721076 -0.03433264 0.20714718 -0.0957543 -0.7034283 -0.11749573 -0.2737609 -0.30915663 0.7507235 0.4910769 0.0028941398 -0.100780234 -0.27673998 0.22703049 -0.6224067 0.6729434 0.35085872 0.07692253 -0.4873545 0.15230168 -0.20933835 0.11173098 0.10012941 -0.18129842 0.06477503 0.27944237 -0.06101272
54129 -0.46548805 0.067585155 -0.45450205 0.20262285 -0.375459 -0.45264786 0.07483396 0.45113635 0.74615943 0.3409362 -0.18211123 -0.09614309 -0.023302576 -0.1558694 0.37277335 -0.13623378 -0.27852437 0.2104279 -0.41520613 0.05616391 0.24280612 0.20338638 -0.09304613 -0.2557156 -0.16795331 -0.10324016 -0.41898528 -0.6077102 -0.06325727 0.11154206 -0.55600214 0.20312543 -0.08958765 -0.13948692 0.0406192 -0.44500095 0.1732589 0.6300222 0.34764865 -0.07708506 -0.46496823 -0.39213645 -0.18068726 0.14824809 0.26293948 0.57095206 -0.21890827 0.56686145 0.36781734 0.13279358 -0.21223459 0.2969392 0.11511124 0.17072476 0.15251344 0.65239334 0.45498815 -0.21370389 0.2605093 -0.57118887 0.11961858 0.21375078 -0.4823924 -0.778489 -0.83916324 -0.5201874 -0.5297126 -0.25201568 -0.20199104 0.030862812 0.39138293 0.15533306 -0.2226659 0.019568399 -0.4519351 -0.0903664 -0.40956795 -0.3849083 -0.23983723 -0.3696677 -0.07985144 0.46235391 0.6063488 0.55297214 0.0021353438 0.22419748 -0.25655735 -0.21006589 0.14046238 0.80101264 0.030401705 -0.70404017 -0.1795665 -0.10095167 -0.2967372 0.42748216 -0.25408244 0.18328875 0.6684632 -0.421253
35797 -0.26690805 0.32233068 -0.33276024 0.39133635 -0.8007671 0.5145201 -0.123736925 0.2548597 0.24471138 0.13446875 -0.48044991 0.099005066 0.46335298 -0.13774809 -0.16378824 0.12015836 -0.17247623 0.09598837 -0.21450868 -0.36721942 0.18907496 -0.095755115 -0.13633104 0.17330879 -0.025410527 0.4473527 0.26775774 -0.11194432 -0.2013091 -0.24243973 0.114039704 0.6021384 -0.063201174 -0.41816434 0.5388685 -1.1933237 -0.02226154 0.08784065 0.1363651 0.4786743 -0.26071972 -0.432553 -0.11446873 -0.15645996 0.7203634 0.3451605 -0.13960908 0.14026003 0.23137955 0.49556196 0.15594871 -0.12454246 -0.47700366 0.33511275 -0.1530388 -0.09318811 0.278987 -0.10783519 -0.08184407 -0.634188 0.14549749 0.35104936 -0.3320085 0.3000308 -0.3379232 -0.14935984 0.009972147 0.19759719 -0.21618572 -0.054066714 0.35767522 0.18681575 0.06343724 0.13541953 -0.09170882 -0.12606801 0.27839434 -0.5730185 -0.81988364 0.111872844 -0.15225689 -0.6778575 0.10837111 -0.09526077 -0.4929794 -0.024512213 -0.3873506 0.11342143 0.06094455 0.34944898 0.21362609 0.12975374 0.40986475 0.006970527 0.3948318 0.2578446 0.172375 0.08100426 -0.1372051 0.14554177
35061 -0.5535669 0.3137378 -0.49856228 0.61935174 -0.29381016 -0.124990374 0.21610956 0.65509367 0.1857848 0.004292216 -0.056260843 0.019804265 0.06407341 -0.039053865 0.027436957 -0.33415076 -0.49675956 0.15463465 -0.5622047 -0.47919214 0.3701977 0.06886413 0.1914626 -0.2989152 -0.0145225935 0.20557813 -0.20703684 -0.52961075 0.091647506 -0.120129064 -0.70703936 0.6909808 0.037855525 -0.44701597 0.06156443 -0.42151502 -0.40940714 0.3960014 0.09943632 0.20883042 0.26219276 -0.20903586 0.053608105 0.43387863 0.23680907 0.8230047 0.104304515 -0.22198887 0.20541309 -0.11262175 0.069039516 0.14417155 -0.4120861 -0.010053769 0.80849534 -0.31836483 0.4648076 0.064389035 0.062434353 -0.4136746 0.46841156 0.05164208 -0.19047928 0.16684099 -0.39799833 -0.12229737 -0.48906568 -0.30775872 0.18556558 -0.037495002 0.010266222 0.06798862 0.110551335 -0.33444878 0.30198216 -0.38934076 -0.337266 -0.21562468 -0.15555085 -0.006006867 -0.38354006 0.33333683 0.6905218 -0.087352134 -0.20811081 -0.30338502 0.27153522 -0.069574036 0.6684885 0.23649387 -0.12094879 -0.12660658 0.121497914 -0.20462355 0.355613 -0.05162361 -0.4973964 -0.08023131 0.35273278 -0.45189038
34257 -0.09587056 0.6610636 -0.86676735 -0.028842585 -0.2732974 0.17212757 0.108498804 0.37963358 0.53024846 0.05084665 -0.4566599 0.015033939 0.2964807 -0.3630284 0.52442986 -0.04517476 -0.7209048 0.33928615 0.41779038 0.25188798 0.56557006 0.48505878 -0.51243895 0.1410812 0.36025357 0.7507171 -0.35739952 -0.36321336 0.054320794 0.5157193 -0.09163844 0.28101492 -0.81544393 -0.07369805 0.3462546 0.030413888 -0.48382106 0.15373908 0.45348692 0.6606161 -0.78943557 0.32762927 -0.45577565 0.5730994 0.91406643 -0.14030203 -0.46440512 -0.44993725 -0.15262231 -0.17542437 0.20356297 0.011618257 0.0715928 -0.47294474 0.8641624 -0.12990776 0.6058083 0.3204923 -0.46691382 -0.29032013 0.33913788 0.5058023 0.01543176 -0.024596602 -0.9802148 0.13861786 0.5434869 -0.30827087 0.43773335 -0.04304605 0.24158059 0.15527551 -0.24406366 0.21253762 0.19235799 0.45176676 -0.12052809 -0.28543848 -0.6509908 0.6067357 -0.06876529 -0.27571738 -0.1654739 0.8670119 -0.5385384 0.092951156 -0.3529068 0.0667259 -0.0028611026 0.40833312 0.025445454 -0.43980977 -0.2064612 -0.86116403 0.7073953 -0.040309828 -0.11424274 0.19169872 -0.5692083 -0.25124773
18777 -0.4938108 0.8216856 -0.017095402 0.31772617 0.006536593 0.2997364 -0.60863537 0.14235383 -0.18982328 0.5282748 -0.2290397 -0.29683167 -0.34132746 0.33774528 -0.10776751 -0.016714234 -0.06095179 -0.085557856 0.079133056 0.33142877 0.3264842 -0.06990774 -0.07954502 0.3650529 0.33738127 0.32817948 -0.0980897 -0.38286602 -0.09674765 0.07777455 0.36276534 0.15639387 0.23765019 -0.2530403 0.27620715 -0.08770686 -0.34131426 0.03237744 -0.16131991 0.06329657 -0.028061684 -0.664362 0.03740102 -0.2924855 0.10550175 -0.15921576 -0.7389119 0.28254375 0.65630156 0.10253213 -0.3456501 -0.4638744 -0.5390916 0.18685533 -0.04545882 0.5164413 -0.14375907 0.26630008 -0.074850306 -1.1006355 0.38204488 0.65417486 -0.34870672 -0.13610019 -0.8727895 0.07311868 0.42968166 -0.108750746 0.14520891 0.092514634 0.14275824 -0.3298608 0.048613116 -0.11721157 0.23439161 0.9893552 -0.058917243 0.015956458 -0.21381974 0.4263382 -0.04150862 0.14866954 0.07144002 0.104821265 0.5233617 -0.58464956 0.25539258 0.26523584 -0.048750434 0.44289836 -0.33637744 -0.5517241 -0.27856266 -0.23296611 -0.09190419 0.51858974 -0.10393038 -0.11836073 0.020421095 -0.2840046
38205 -0.536423 -0.028110458 -0.46073484 0.152008 -0.20529744 -0.5147066 0.19964865 0.8537506 0.3227844 0.1451796 -0.1974879 -0.29347232 -0.23037212 0.25012767 -0.028392605 -0.22775525 -0.46001223 0.30883065 -0.14231236 0.064491585 0.030782584 0.0738954 0.22846702 -0.1650227 -0.27870214 0.26233318 -0.57716125 -0.23499317 0.040570803 -0.45880648 -0.546804 0.2192491 0.13233712 0.28860262 -0.011173246 -0.34136388 0.3017964 0.25808698 0.357022 0.13111731 -0.1904489 -0.24421325 -0.11186949 0.62183297 0.12566893 0.702178 -0.49618655 0.1926172 0.36997214 0.11067691 0.057386506 -0.20583585 0.17409426 -0.128289 0.41859773 0.3133748 0.53133607 0.21514405 -0.23043808 -0.6039045 -0.068632945 0.049662117 -0.512147 -0.10545598 -0.51956946 -0.30185843 -0.5145823 -0.07768523 0.3892396 0.20075436 0.10658481 -0.24731971 0.04528491 -0.18136264 -0.21148238 0.08083813 -0.19964017 -0.6116184 -0.13244943 -0.14320692 -0.21506917 0.84666276 0.8159269 0.19648999 -0.18822347 -0.12635091 0.31708288 -0.22090015 0.5059994 0.36169368 0.13228896 -0.7017257 0.25099903 -0.38684547 0.030953731 0.399038 -0.23460935 0.110643536 0.22111823 -0.3889186
6910 -0.55297863 0.078658335 -0.44492954 0.026148153 -0.17904636 0.4076034 -0.102418676 -0.55053824 -0.3285385 0.17585808 -0.831078 0.092864834 0.1389383 -0.11522404 0.35157514 0.34561324 -0.24443083 0.29049543 -0.03331614 -0.6551544 0.36244863 0.5204063 0.014398722 0.75316805 0.13126068 0.011556917 -0.1739156 -0.62976986 -0.15813133 0.012666905 -0.09427787 1.2129574 -0.28163493 -0.3255879 0.55596936 -0.14626828 0.18659495 0.67555374 -0.13165814 0.7337861 0.25124508 -0.67057323 -0.31380725 -0.17650272 0.61912537 0.6698204 -0.45508373 0.08481755 -0.24135523 0.07834561 -0.041542333 -0.24888848 -0.40018383 -0.18740405 0.0041657835 -0.4515476 -0.056938622 0.43088254 -0.90070385 -0.058982827 -0.102348134 0.7958467 -0.38568482 -0.36227575 -0.848923 -0.58763194 -0.043411195 0.60949683 0.09033637 -0.06959876 0.008227381 0.2887789 -0.022355177 0.056853335 0.30389905 -0.099070884 -0.14931293 -0.5480968 -0.3302676 -0.05499454 0.0052499413 -0.2212695 -0.4530398 0.35158512 -0.41201556 -0.30769414 -0.31840172 0.5995103 -0.09580183 0.37102568 -0.048579723 -0.81624717 0.03291449 0.20435804 0.17215885 -0.08897697 0.62972003 -0.72798985 -0.0647446 -0.6844632
89547 -0.37970507 0.04226333 -0.029315203 0.011358267 -0.4680934 -0.17113076 -0.5590463 1.363702 0.35916972 0.25639084 0.04210097 -0.040521923 -0.19718525 0.18904184 0.1665663 -0.10856271 0.04214652 -0.01753215 -0.09122599 0.05846787 -0.3423143 0.2474806 -0.049447544 -0.19899508 -0.36613053 0.33464724 -0.63817376 -0.32909298 -0.0014719224 -0.1436304 -0.16957732 0.12131235 0.06964085 -0.5172319 0.17856564 0.26156142 -0.39164597 0.0018808495 0.27427936 0.034480568 0.122298054 -0.71639466 -0.40665624 0.27925372 0.37054765 0.50628567 -0.11503217 -0.21141863 0.07077027 -1.0329307 0.21166359 -0.105582125 -0.4354566 -0.15703978 0.15882427 0.0064648027 0.4906557 -0.6704666 -0.61602587 -0.6561194 0.40015045 -0.28360018 -0.0611019 -0.016823256 -0.6027257 -0.02190861 0.008005695 -0.03819074 0.05094333 -0.20494094 -0.03789113 -0.43993902 0.24067199 0.26159728 0.28111407 0.5353257 -0.5384191 0.13635732 -0.36126232 0.036728464 0.07727803 0.11076988 -0.16215456 0.5270558 -0.0072906287 -0.21966104 0.21622226 0.46274388 -0.18117821 0.62907594 0.027894663 -0.4645473 -0.26477104 0.31905428 -0.16185182 0.21960294 -0.64061695 0.37606803 -0.48466232 -0.07790956
6913 -0.31319126 0.6035954 -0.2831061 0.16296914 -0.40665793 0.41795236 -0.3222913 -0.21765816 -0.3359278 0.34315196 -0.54632473 -0.132482 0.13827261 0.16164924 -0.20990656 0.06006072 -0.20732106 -0.0044873385 0.12253096 -0.5969366 0.2726641 0.3524842 0.3837822 0.21470474 0.15825525 0.337707 -0.3772669 -0.5155151 -0.49416175 0.082303956 0.3839465 1.1984807 0.009409882 -0.14677308 0.63263977 -0.029970383 0.34295657 0.61199754 -0.033337653 0.33055237 0.017004304 -0.725359 -0.04595924 -0.3633303 0.23185875 0.41385093 -0.08571832 0.38306198 -0.33309397 0.22186536 -0.31688002 -0.5795372 -0.074887246 0.002350454 -0.12296869 0.10223834 0.2617817 0.20249529 -0.593298 -0.3128034 0.19761908 0.01691579 0.11012358 -0.055387564 0.09295091 -0.5858674 -0.34985596 0.27315792 0.08115967 -0.28220597 -0.09206573 0.51319134 -0.06793417 0.17773786 0.19982159 0.44553983 0.228632 -0.6790866 -0.523891 0.3272747 0.5994442 -0.24486832 -0.64594185 -0.13122724 -0.14200531 -0.1985071 0.18744528 0.19265175 0.0064417184 0.51807356 -0.080041766 -0.63988584 -0.28086296 -0.19677377 0.07693888 0.12785634 0.5586515 -0.2661233 -0.20521303 -0.38087085
2654 0.19137095 -0.16495772 -0.069846146 -0.0073458697 -0.3867053 -0.21370171 -0.4804437 0.19161181 0.11893626 0.70302176 -0.12497474 -0.07532474 0.22837232 -0.06352985 0.06971266 -0.44407448 -0.6480194 -0.44482037 0.24977215 -0.31934914 0.44856358 0.6020337 -0.17859122 0.22245374 -0.0103881825 0.38885054 -0.4229812 0.22903386 0.14340898 -0.62694055 0.31638628 0.64983493 -0.10724095 -0.67263234 0.1830246 -0.6358722 -0.39683142 0.665276 -0.20693953 -0.26843992 -0.03667229 -0.47724164 0.062167082 -0.1376015 0.7511572 -0.020269435 -0.3685907 -0.21834137 0.20423117 0.33686334 -0.17987084 0.4870735 0.03688436 0.1266457 -0.33797073 -0.06207428 0.47723255 -0.30479553 -0.25847194 -0.29150715 0.45987868 0.44894814 -0.1030532 -0.14111917 -0.47570777 -0.066220716 -0.2976032 0.17697099 0.089511774 -0.6933235 0.38582036 -0.120261945 0.11955904 0.26932028 0.1835367 0.18093562 -0.30783504 -0.350578 -0.50191665 0.21856168 0.10769746 -0.6423997 -0.25349385 0.47295368 -0.11425433 -0.45577586 0.5191746 0.4497324 -0.25091964 0.063512765 -0.50225246 0.028242748 0.01568358 0.46648034 0.22356194 0.31155407 -0.09521212 -0.26641577 -0.21506761 -0.054166786
28350 -0.7459723 0.67001307 -0.06534085 -0.18141748 -0.15852208 -0.3039145 -0.19456354 0.32344738 -0.2031186 0.07451571 -0.07270878 -0.14867313 -0.395847 0.09168127 0.068227574 0.14603677 -0.035485987 0.0599506 -0.05129023 -0.2716395 -0.0756747 -0.111869134 0.5313439 0.04072637 -0.025618117 0.5267699 -0.49684644 -0.3928838 0.2503821 0.21718825 0.36306423 0.09407568 0.10230023 0.31211755 0.021090545 0.33039021 -0.25609204 0.5636199 0.421369 0.6988951 -0.089688495 -0.6640488 -0.47412056 0.43020612 0.24031939 0.5162287 0.17188592 -0.44121423 -0.016679691 -0.092517436 0.17356974 0.13972217 -0.04391524 0.22877826 -0.34841567 0.43372965 0.10551685 0.092843555 -0.40051964 -0.9214101 0.23538588 0.42104352 0.07505998 -0.023921749 -0.35746178 -0.12259389 -0.015928073 0.072804235 0.3510713 0.14094366 -0.054498155 -0.2676653 -0.069630094 0.2816763 -0.26892915 0.5799624 -1.0557235 -0.48245874 0.08880186 0.08440458 -0.2448608 -0.09660058 0.15095814 -0.103825845 0.14798014 -0.060722455 -0.1388699 0.47996807 0.29659036 0.6340517 0.20451556 -0.3700862 -0.18216926 -0.5166035 -0.070632085 -0.2648938 -0.40814215 0.26692677 -0.18286137 -0.41484764
153063 -0.5148079 -0.26029742 -1.1225989 -0.19903204 -0.13581154 -0.13752389 -1.0625465 -0.35591108 -0.6073882 0.46946535 -0.8641786 -0.39306653 0.35139412 0.06727648 0.47056386 0.39719447 -0.05889409 -0.21014647 0.08295939 -0.5814 0.81441337 0.15525939 -0.022060178 0.48590395 0.5547354 -0.09880865 -0.7320948 -0.7674159 0.042252246 0.69400305 -0.38708314 0.9353393 -0.5690669 -0.628875 0.114672005 -0.13612966 -0.3968838 -0.28522116 0.1145485 -0.37640527 -0.46192655 -0.6648588 0.17777969 -0.51509506 0.26576126 0.3626529 -0.50800496 0.083126575 -0.15578502 0.22175512 0.36016512 -0.58808625 0.12347373 -0.5825691 0.41527703 0.10002269 0.2373411 0.8657546 -0.2677174 -0.9243487 0.5761846 0.2101501 -0.619527 -0.17004195 -0.36421674 0.43065798 -0.27741978 -0.23876162 0.5841245 -0.24639438 -0.075336866 -0.121431686 -0.2615681 0.18416351 0.10002941 0.2056521 -0.6135471 -0.2856396 -0.50955987 -0.11637072 0.06604448 0.07095506 -0.1215346 0.11048661 0.41374654 0.25468275 0.45633796 0.022813706 0.33728778 0.11097398 0.117936455 -0.909435 -0.35577226 -0.09400307 -0.37664664 0.18777083 0.47215128 -0.33732694 0.3610695 -0.58978015
36140 -0.08995663 -0.22248031 0.06470394 0.27960968 -0.76187444 0.3212897 -0.5036175 0.29730475 -0.039267063 0.46324506 -0.34813 0.5492316 0.27565524 -0.21180351 -0.108792596 -0.08366438 -0.4447142 -0.3257864 -0.1993284 0.006018984 0.107877 -0.007934385 -0.23916881 0.0015201962 -0.02293339 0.7032143 -0.3976944 0.026375914 -0.4418113 -0.0069698924 0.28488624 0.37281868 -0.3492529 -0.5047664 0.42109445 -0.6497503 -0.39723176 -0.10966355 0.014716474 0.19443363 -0.18036713 -0.81346935 -0.39767 0.1540803 0.5010029 -0.09233669 -0.3610737 0.20688048 0.6980609 0.25285506 0.113986604 -0.026112078 -0.1156629 0.5094136 -0.24235293 -0.229023 0.33209017 -0.27846038 -0.32434028 -0.6282619 -0.04791607 0.3385298 0.5503195 0.26029745 -0.30681455 -0.45072767 -0.07469064 0.018233031 0.1058123 -0.55199474 0.47434452 -0.06618761 0.27577567 0.24298428 0.18053192 0.12540255 0.07236813 -0.38613826 -0.18389842 0.05487432 -0.2300594 -0.20615086 0.082753964 -0.21676661 -0.54283124 -0.009226448 -0.28608933 0.66666144 -0.105580114 0.39208013 0.13851248 0.119159244 0.8100824 0.048802733 0.50361055 0.16502225 -0.025128346 -0.20511259 -0.05930135 -0.06501727
65074 -0.667481 0.5079658 -0.9435447 -0.14712583 -0.19878331 0.29064438 -0.21073332 -0.06381446 -0.13115837 0.17232706 -0.39195424 -0.10910076 0.583573 -0.5045227 0.12958074 -0.5296789 0.65721494 -1.1583047 0.1453154 -0.09908167 0.33026946 0.53297037 -0.59183806 -0.35837796 -0.17800772 0.25773782 -0.2656739 -0.2819107 0.8021981 0.06386742 -0.6417983 1.0388659 -0.9979688 0.17393166 0.5106066 0.10642215 -0.4061813 -0.307041 -0.03856191 -0.39546418 -0.017505608 -0.26406237 -0.3189147 -0.625668 1.1046948 -0.28886256 -0.40615696 -0.4327685 0.1532835 0.123467915 -0.075489275 0.47453186 -0.040754717 0.32958314 0.76189524 -0.60116976 -0.20292398 0.429322 -0.49007124 -0.4293209 0.8867796 0.26756397 -0.5898496 0.013181042 -0.76252407 -0.03960446 0.16720767 0.32504517 0.34276524 -0.033851806 0.4000533 -0.11441691 -0.4446449 -0.04261652 -0.3556093 0.7076495 -0.54551333 0.019212147 -0.10239069 -0.27156377 0.19795045 0.5346886 -0.24346061 0.58081144 0.14825456 0.09507474 0.026731621 0.44886285 0.22579703 0.55518013 -0.39885655 -0.7748389 0.11313472 -0.6190843 -0.24275766 -0.033936687 0.44404635 0.3059441 0.61563885 -0.43473816
3243 -0.35684916 -0.19298011 -0.16242032 -0.4305714 -0.5110563 -0.11532597 -0.31634775 0.0893145 0.05591667 0.36148667 -0.3102812 -0.13487758 0.3443262 -0.27820194 0.24649733 -0.14355971 -0.37052515 -0.062284384 -0.070527874 0.45412174 0.13968213 0.52849823 -0.11493531 -0.07482702 -0.697979 0.16678207 -0.064209394 -0.4868874 0.16707708 -0.19144568 0.30107412 -0.0028644893 -0.12918952 -0.50288916 0.38533592 0.12293603 -0.05097376 0.1577972 -0.18977918 0.05473635 -0.71999115 -0.5342796 -0.15345705 -0.34317857 0.35391912 0.06699912 0.014828864 0.21919514 0.5442715 -0.26093382 -0.03146196 0.23547298 0.06464855 0.5879283 -0.29870373 0.40010434 0.15883267 0.03635288 -0.68515843 -0.33230138 0.040345203 0.14398833 0.65128684 -0.035483044 -0.52494675 -0.110481806 -0.076751344 0.598932 0.45996428 0.22789732 0.3299099 -0.34584692 0.15717426 0.31813827 0.0026653542 0.11632319 -0.24903685 -0.036136776 -0.104160495 -0.044370595 -0.6917339 -0.08185254 0.2723355 0.46013075 -0.26352948 -0.19102815 0.16634282 0.9815694 0.392344 0.49096373 -0.6674125 0.21124443 0.25033543 0.30961776 0.6677443 0.5112118 0.117936105 -0.24047154 -0.23666903 -0.31186345
46491 -0.74473584 -0.04879191 -0.26604268 -0.27756318 -0.54519 -0.04887019 -0.5276577 0.20487213 0.044724785 0.601869 -0.23209858 0.12440771 -0.19841854 -0.052476518 0.10041115 -0.04943901 -0.45074975 -0.56365615 -0.15880582 0.016823182 0.37849712 0.86320096 -0.52611965 -0.086705066 -0.05096425 -0.030850787 0.12568675 0.016118784 -0.53995013 -0.21740396 0.05057354 -0.17290097 -0.5880657 -0.6617424 0.2772269 -0.73331845 -0.2988177 0.25132224 0.4971848 -0.20847979 -0.29641673 -0.09801576 -0.11525195 0.42400137 0.2905043 0.70800674 -0.22266516 -0.036121212 0.33550712 0.08025321 0.07821379 0.31764945 -0.4500497 -0.274408 -0.19109853 -0.3255894 0.18883358 -0.15198307 -0.3435534 -0.7438629 0.39671674 0.75448537 -0.07710086 0.31675088 -0.34593448 0.38137898 0.24961954 0.20908116 0.04409655 -0.03713018 0.65244514 0.23897213 0.4198469 -0.20318419 -0.24062397 0.38304996 -0.37221587 -0.59948206 -0.2567725 0.10642726 -0.16343693 -0.6320386 -0.102372766 0.18040808 -0.14619073 0.3036388 0.054758966 -0.32467675 0.15061675 0.45720023 -0.40423 0.27552128 0.53734225 0.016721 0.12417438 0.17033441 -0.47348213 -0.30266654 -0.43855387 -0.52236235
1956 -0.618717 0.0545312 -0.3082298 -0.35344806 -0.56666666 -0.65479004 -0.07906084 0.20315634 -0.17327699 0.034473095 -0.23734567 -0.022498135 -0.08310881 -0.14608298 0.1956554 -0.54614353 -0.85127825 -0.17409126 -0.37045723 -0.122667044 0.24768579 0.50175524 -0.08296921 0.11313332 -0.24700645 -0.14633797 -0.31655172 -0.07484887 0.22299491 -0.10112486 -0.6912852 0.30146718 -0.525043 -0.10946877 0.8364736 -0.19033362 -0.21390444 0.38409048 0.06679206 0.18921006 -0.28639728 -0.14707862 -0.12816691 0.26554424 0.13336822 0.23544016 -0.042776033 -0.020056508 0.779858 -0.18362154 0.036482982 0.19464463 0.2801356 -0.31761062 0.4582225 -0.4559304 0.5242722 0.44482434 0.047875103 0.04053195 0.016243268 -0.012144696 -0.5912118 -0.5680966 0.113794245 -0.43345657 -0.2844331 0.09195455 0.23979999 -0.586048 0.727558 0.11293639 0.4499607 -0.023130184 -0.13503087 -0.05630862 -0.15648486 -0.5228067 -0.31518525 -0.25851902 -0.039055806 0.16776362 0.11502212 0.50975305 0.552286 0.12831265 0.101880535 -0.11473993 -0.08290575 0.6227679 -0.41499335 0.28640562 -0.14885662 -0.008797442 -0.53133017 0.40528992 -0.278543 -0.15411401 0.03130903 0.37914342
5086 -0.09977468 0.08006087 -0.7835374 -0.02981512 0.23806676 -0.18093629 -0.96865416 0.04292873 -0.5783934 0.5117563 -0.7085237 -0.06575429 0.25684947 -0.16748156 -0.037141506 0.2095592 -0.005317919 -0.06370211 0.25703278 -0.749182 0.86681193 0.36374977 0.14953934 0.66962504 0.28780133 -0.06866632 -0.25085744 -0.49462768 -0.1323416 0.49189457 -0.085647754 0.75113136 -0.19373938 -0.43608606 0.25816867 -0.36271116 -0.48412234 -0.49613044 0.105910346 -0.17631607 -0.027086254 -0.7291377 0.18179527 -0.72849554 0.5319353 -0.25362736 -0.3364316 0.41441226 0.030109338 0.29764307 -0.037519176 -0.16973776 0.1461788 0.08115072 0.07049685 -0.16906902 0.2709498 0.3304093 -0.11448082 -1.1785715 0.5381377 0.34264106 -0.19659743 0.053707924 -0.35796875 0.018063148 0.20587176 -0.027607389 0.1919798 -0.34363404 0.47309962 -0.129394 -0.5146428 -0.08496528 0.23955534 0.16724412 -0.30790454 -0.14214909 -0.89918077 0.38469976 0.05637729 0.20454319 0.17003195 -0.21391004 0.38836202 -0.029713966 0.5031622 0.51359427 -0.11833553 0.15905339 0.030534875 -0.45965138 -0.12213931 -0.053286273 -0.5214397 0.34473938 0.27079564 -0.1466105 0.15631388 -0.19315118
6163 -0.46673182 0.3053437 -0.3877765 0.0065764324 -0.5475511 -0.50562924 -0.112172216 0.37771663 -0.22639528 0.28400886 -0.21598743 -0.38819402 -0.0033466374 0.0030195434 -0.31320444 -0.013059091 -0.20511931 -0.0113906395 -0.45755604 0.4398852 -0.3514073 0.059523452 0.19917119 0.055607177 -0.27704793 0.27303606 0.14365901 -0.4004799 0.3595332 0.2551129 0.08998792 -0.19632198 -0.2776007 0.11304018 0.18809147 0.28265432 0.16079473 0.38595837 0.16172062 0.3756214 -0.4872216 -0.7356919 -0.17495082 0.1636338 0.11573377 0.3864771 -0.09358106 0.15913533 0.1793072 -0.0915748 0.2753438 -0.1820929 0.32144958 0.43480158 -0.28470153 0.4643639 0.19870177 -0.07149108 -0.5002171 -0.9393036 0.071055755 0.17026241 -0.40614054 -0.16382335 -0.8383195 -0.14517617 -0.3336429 0.2151932 0.12636648 0.16273981 0.15012339 -0.7211946 0.071942426 0.32021275 0.009921646 0.6661087 -0.74796736 -0.41533905 0.018811299 -0.29525265 -0.05581304 -0.10042081 0.34273118 -0.010215026 0.25097635 -0.3985921 0.3474896 0.41702706 0.067746736 0.7364572 -0.25909358 0.098612666 -0.35468227 -0.39554656 0.0049281917 0.454599 0.11293415 -0.08243095 -0.019507617 -0.3282975
17476 -0.576595 0.83849335 -0.09053543 -0.29561573 -0.059801783 -0.02383138 0.2520354 0.4640266 0.05767786 0.15992306 -0.250059 -0.2668436 -0.7019011 -0.028898323 -0.022185173 -0.19177672 -0.4120886 0.10233039 -0.094023146 0.073475495 0.49312398 -0.30169496 0.19674252 0.45438376 -0.20314527 0.38875008 -0.19058761 -0.1499275 0.22059256 -0.121759035 -0.32942203 0.0632527 0.29863197 0.09596174 -0.113500744 0.17735305 -0.07533268 0.33320165 0.41494226 -0.037358835 -0.12744643 -0.11612808 0.010839638 -0.16304122 -0.036041427 -0.05601723 0.063677944 0.22769396 0.55032647 0.09534244 -0.4382596 -0.12997839 0.19016965 0.23108278 0.36829007 0.27122563 0.3463746 0.33701771 -0.08478345 -0.78652984 0.2946307 0.28842717 -0.24801576 -0.43078944 -0.6440224 -0.29937434 0.32566327 -0.027699027 -0.004821637 0.24806705 -0.15825047 -0.3513114 -0.0151340645 0.48386502 -0.10153019 0.77664226 -0.6216354 -0.36905664 0.20176272 0.25454482 -0.2517949 -0.20896631 0.6086694 -0.011856814 -0.20901701 0.1459887 0.04597385 0.1956882 0.28425857 0.789331 -0.15536237 -0.81185997 0.1565809 -0.3460379 0.052276507 0.29772082 -0.56155294 0.18812425 0.2844933 -0.23232639
3233 0.30330798 0.016895695 -0.34659415 -0.16100064 -0.46525902 0.009429822 -0.1895499 0.45976347 -0.19745803 0.42096078 -0.06871516 -0.22283687 0.075613596 0.14263137 0.29901338 -0.41812673 -0.14267667 -0.0756005 0.06627096 0.05317601 0.07935518 0.96834946 -0.0038964686 0.4766674 0.28788087 0.25602004 -0.71903205 0.016331285 0.066033274 -0.2655621 -0.24645719 0.54064155 -0.24145316 -0.6788964 0.048795756 0.28204954 -0.2623966 -0.26609692 -0.2906835 0.09152533 0.12904438 -0.70364976 -0.31865388 -0.27896112 0.7683283 -0.05769856 -0.5152282 0.03687605 0.32891792 -0.62198883 0.30068082 0.10245265 -0.2435416 0.13867529 -0.06946398 0.23054028 0.06473212 -0.37484643 -0.47325337 -0.05634549 0.5192035 0.040466975 0.04635068 0.057097416 -0.12516887 -0.22825257 -0.6343869 -0.213067 0.33067062 -0.4715678 0.35429445 0.05867599 0.4043258 0.47437292 0.05335108 0.5304271 -0.13120873 -0.3222789 -0.6652145 0.371635 -0.066476725 -0.060736112 -0.44935623 -0.085950315 -0.028475624 0.54737484 0.098786205 0.058393348 -0.116697244 0.43508723 -0.38627914 0.013332793 0.09534433 0.21533963 0.005841244 0.22045438 -0.011802063 0.24479564 -0.38279143 -0.1127113
41714 -0.24608675 0.09921289 -0.2867344 0.24919385 -0.32726368 -0.35075063 -0.064315796 0.5324256 0.31364417 0.42307502 -0.16412888 -0.0669677 -0.0432381 0.044593092 -0.16274151 -0.18926519 -0.52558106 -0.13391536 -0.4039991 -0.050482526 0.19952928 0.4517699 -0.07811134 0.3662118 -0.01648181 0.18012394 -0.27754346 -0.158779 0.32340634 0.09083669 -0.9781742 0.35143042 0.10767286 -0.09273886 0.28990227 -0.6432562 -0.27383348 -0.040882345 0.48798028 0.27951926 -0.38410196 -0.06814931 0.35191053 0.06014677 0.6050499 0.8042561 -0.037851125 -0.17862366 0.42045847 0.16919069 -0.10797476 0.20494108 -0.22641838 0.10061307 0.7854636 0.296293 0.41903806 -0.060933452 0.39261425 -0.24481454 0.006301768 -0.13408688 -0.79511917 -0.24443102 -0.5589327 -0.07637206 -0.20143016 -0.27706 0.49924946 -0.18211558 0.067934245 0.06396535 0.07466154 -0.17105417 -0.1917907 0.1038889 -0.2502993 -0.56644213 0.040975418 -0.5793432 -0.13591492 0.49875665 0.6520238 -0.15596454 -0.14942248 -0.27090046 0.24925962 0.032279495 0.6874435 0.30258027 -0.22348602 -0.26864222 -0.48342174 -0.3149458 0.02940134 -0.27711496 -0.2663905 0.22501975 -0.02498732 -0.37409005
20601 -0.40436745 0.2155299 -0.065602586 0.016200682 -0.4004376 -0.12689175 -0.7887051 0.73458 0.053560413 0.04466957 0.1286552 0.33100015 0.33257735 0.29916626 0.31224856 0.46170232 -0.058435727 -0.19365834 0.27837315 -0.17366797 0.34628657 0.024370475 -0.23177049 -0.57006764 0.10824355 0.35743997 -0.67186254 -0.26140118 0.048116554 -0.29947323 -0.12558407 0.23870665 -0.979787 -0.40370965 0.5206967 -0.039987482 -0.2808886 0.044269376 0.5794723 -0.32128945 -0.3137201 -0.6856606 -0.17773175 -0.3404165 0.53462803 -0.088153936 -0.30454776 -0.2669433 0.39221564 -0.025141817 -0.32440424 0.05454369 -0.6331936 0.026254527 0.010793333 0.2944269 0.4680832 0.48672158 -0.73281586 -0.11446214 0.32763892 -0.5334144 0.39030164 -0.34452167 -0.8219756 0.17601918 0.123184495 -0.25020903 0.78720284 -0.38282686 0.2448555 0.028014759 0.14292361 0.7856652 0.06415675 0.45235342 0.05100578 -0.24383067 -0.39735022 0.29498914 -0.36418808 0.34411132 -0.004120392 0.00660662 0.21658768 -0.015762942 -0.22210418 0.3039952 0.2550546 0.25380644 -0.46871063 -1.2775018 0.6510949 -0.22239602 -0.032106962 -0.5266497 -0.43129933 0.07459067 -0.5263852 0.021957312
10183 -0.8670318 0.42913288 0.53131187 -0.58457506 -0.22629721 -0.3664013 -0.42378742 -0.19329457 0.3712164 0.27384847 -0.51749957 -0.74838734 -0.08591663 -0.25720957 0.4690794 -0.4642432 -0.35382885 -0.1385302 0.13171186 0.6477936 0.7805924 0.10634591 -0.010101892 -0.12179837 -0.44014236 0.43636367 -0.21018812 -0.105764724 0.06042878 0.14168163 -0.06512434 0.06381908 -0.77704746 -0.17357078 0.27478257 0.19173405 -0.1605275 0.24747986 -0.11625274 0.23378964 -0.010086116 -0.10846411 -0.17027332 -0.09922256 0.22327825 -0.17620257 0.3786234 -0.27402812 0.65677994 0.07058661 0.19172114 0.16390748 0.6313082 0.046534177 0.18488401 0.7899673 0.3059278 -0.05410678 -0.31912848 -0.294297 -0.02083592 0.4564756 0.27528465 -0.5128571 0.037323214 -0.4194191 -0.19829665 0.25372726 0.70775014 0.0570009 0.6770535 -0.056259423 0.11701899 0.16642718 -0.0007626415 0.64272386 -0.36388746 0.073402196 -0.38069463 0.11081926 -0.72286916 -0.25263914 0.315688 0.28096256 0.046744127 0.61850035 0.27164227 0.40215144 0.49334273 0.6743078 -0.38096324 0.15237603 -0.19324414 -0.0077079935 0.37624347 0.4191468 -0.5847572 0.31605557 0.39020735 -0.2699566
22229 -0.5420742 0.347927 -0.884751 0.48850822 -0.3741776 -0.2801867 0.3318651 0.52674794 0.05874382 0.12020532 0.089117534 0.1333403 0.043920096 0.20691925 0.47351542 -0.09085533 -0.33187655 0.13355985 -0.7557962 -0.33055994 -0.13591604 0.40088814 -0.2654071 -0.4288787 -0.05836089 0.3387521 -0.10622336 -0.64337987 0.08237817 0.12647371 -0.72685796 0.401615 -0.27708137 -0.60086966 0.36778527 -0.6585192 0.11615932 0.4720131 -0.2753525 -0.0684475 0.14924832 -0.19978292 -0.060340866 0.44436765 0.059125885 0.57722884 0.21190342 -0.028896166 0.45826858 -0.08977524 -0.10741912 0.39668736 -0.19126502 0.2508989 0.67994535 0.16676423 0.44227424 0.39565623 0.08047614 -0.4895583 0.42758945 0.30216718 -0.51043266 -0.19741966 -0.498964 -0.4961867 -0.31672797 -0.30906355 0.411529 -0.030251488 0.33642995 -0.25355896 0.0057900464 -0.5962445 0.29724738 -0.10160442 -0.42741817 -0.3788377 -0.011320414 -0.18103203 -0.08176022 0.3831106 0.40344778 -0.3393516 -0.12361488 0.05144734 -0.0944158 -0.002966865 0.61900777 0.36907488 0.2498568 -0.57924944 -0.12664062 -0.32092485 0.15615267 0.26194865 -0.046858884 -0.28576583 0.021823471 -0.19217952
28287 -0.36161923 0.32869533 -0.21520102 0.29258615 -0.8145844 -0.6224349 -0.096788615 0.44415045 -0.15332526 0.2587723 -0.16410814 -0.19921152 -0.037167013 -0.039807606 -0.21079399 0.22617926 -0.35731804 -0.08145665 -0.15210898 0.09950206 0.09134305 0.16195582 0.016394613 0.00085744547 -0.13631883 0.60628325 -0.24999082 -0.085926436 0.27700743 0.41108313 -0.1447363 0.291803 -0.10391239 -0.014118313 0.07694325 -0.25010693 -0.0452727 -0.03816346 0.041582316 0.5240252 -0.4176702 -0.18703637 -0.4795312 0.10639825 0.21758087 0.39055455 0.25017527 -0.42744526 0.13161853 0.121246494 0.28238007 0.13114545 -0.22342002 -0.050226815 0.274969 0.49479294 -0.22796454 -0.5298876 -0.19212857 -0.40860534 0.009366854 -0.049500547 -0.3455571 -0.4302326 -0.9073676 0.13953246 0.07577637 -0.10353195 -0.22477934 0.120115586 0.2395089 0.2717125 0.29861054 0.014131177 -0.48088962 0.5224094 -0.8444971 -0.2808713 -0.24129741 -0.40738735 -0.20836166 -0.20665945 0.35211203 0.041250788 0.09204038 -0.06481003 0.52123433 0.28018665 0.77362585 0.633465 0.010215504 -0.14906679 -0.3024241 -0.30752346 -0.10613823 -0.34952694 0.06252871 0.2044853 0.37076813 -0.36489376
202639 -0.22641346 0.85645676 -0.30923757 0.60033435 -0.5849916 -0.48191074 -0.0045969654 -0.21049708 0.38852993 0.84017015 -0.58493084 0.2286613 -0.11055967 -0.17485489 -0.023437778 0.27001768 0.23309962 -0.28817338 0.31821132 -0.4216766 -0.03992429 0.5319578 0.59629965 -0.03739013 -0.07001537 0.23652612 0.19455118 -0.3280128 0.04354974 0.26921126 0.24163619 0.48817697 0.35902897 -0.40759805 0.1281073 -0.5368905 -0.5028019 0.24707566 -0.107325524 0.010208682 -0.23070773 -0.26581565 0.015159458 0.2728344 0.43813992 0.33564267 -0.48701513 -0.06508738 -0.20472156 -0.24882038 0.46874908 0.07093422 0.013725159 -0.61333257 -0.39500976 0.43648636 0.47495997 0.29196295 -0.55003566 -0.22658534 0.08485688 0.28036687 0.18123032 0.2634611 -0.3655969 -0.4206554 -0.21890713 0.20721135 -0.1405078 -0.5946152 0.11392069 0.054849513 -0.1775654 0.015165895 0.0013636261 0.63128334 -0.585754 0.16595498 0.28429627 0.24503435 -0.5039427 0.18248877 0.15157227 0.09233642 0.16195211 -0.32396752 0.2448208 0.3839452 -0.22372627 -0.044964723 0.09272647 -0.3217707 0.37162977 -0.35122067 -0.053217154 -0.2977473 0.46704835 -0.6770198 0.13781404 -0.23965994
6184 -0.5953781 0.49273545 -0.45706406 -0.27714065 -0.65997916 -0.053565707 -0.5622282 0.35108924 0.14049666 0.08020687 0.12809926 -0.250048 -0.43698105 0.13171932 -0.27619764 0.024855407 -0.06297507 0.30101264 -0.14804937 -0.628102 0.15453227 -0.00040723168 0.12779842 0.011337289 -0.42926404 0.11830982 0.031229049 0.3748267 0.09768105 -0.095534444 -0.01023975 0.044900853 -0.035898633 0.099935174 -0.20027561 -0.025278738 -0.19924007 0.15739113 0.015303719 0.48185307 -0.46760595 -0.20740882 -0.43533158 -0.07721264 0.2476689 0.5617408 -0.026043944 -0.37100092 -0.25646096 0.13205953 0.5863916 0.39477775 -0.35468072 -0.13354328 -0.1630182 0.060292035 -0.040505987 0.31192806 -0.1660945 -0.82191753 -0.34885627 0.54482436 0.32657853 -0.08172461 -0.7302739 -0.4328633 0.03527749 0.2154332 0.060473334 -0.0016135896 0.516002 -0.024603395 0.091528326 -0.17548266 -0.16109768 0.446536 -0.3015957 0.0071441345 0.10151745 0.15484004 -0.3207967 -0.07153904 0.12715605 -0.057651564 -0.02350306 -0.2775791 0.26288584 0.30976993 0.080336295 0.38625905 -0.25481662 -0.30689126 -0.012357857 -0.09910632 0.27228332 -0.16813421 -0.008990578 0.18680964 0.014871481 -0.5230286
108047 -0.36266083 0.16258277 -0.6623575 0.21307676 -0.27956244 -0.4762188 0.30469617 0.6368552 0.7329801 0.34330896 0.11056352 -0.16116723 0.17237052 0.12838526 0.6725189 -0.15261705 -0.53211296 0.26761615 -0.3230774 0.20079195 0.007923662 0.279516 -0.05723005 -0.43754634 -0.058485482 0.19563863 -0.56041664 -0.5437977 0.37253413 -0.3300982 -0.646263 0.29912862 -0.4437544 0.12404128 -0.015385662 -0.6289098 0.16916661 0.39561832 0.31239173 -0.33420503 -0.29302824 -0.12018994 -0.17722474 0.5822438 0.085242845 0.35066995 -0.33668986 0.19940896 0.35727578 0.33829316 -0.11695002 0.21006905 -0.097447 0.09292781 0.23596863 0.5959782 0.51921415 0.40614444 0.0049060914 -0.7046651 0.019008094 0.4907281 -0.3006092 -0.5403371 -0.88624954 -0.49815223 -0.49764428 -0.37869617 0.14758503 -0.13858785 0.35100865 0.056125317 -0.026817335 -0.05641021 -0.069197126 -0.11683632 -0.23314281 -0.34342146 -0.16381936 -0.1490727 -0.038760755 0.7558381 0.70837474 0.23708218 -0.19764197 0.31112516 -0.038848024 -0.074881196 0.11693675 0.46945092 0.25781173 -0.5067141 0.109408304 -0.21711358 -0.2573565 0.6765466 -0.15928233 0.053660158 0.17667127 -0.49986485
31489 -0.8092957 -0.02696879 -0.52267367 -0.04867251 -0.36118594 -0.05678603 -0.079347216 -0.17661364 -0.23837793 -0.23930512 -0.82915807 0.557604 -0.04622264 0.063183986 0.14407514 0.42080694 0.18143728 0.29647654 0.43180743 -0.5091064 0.22106591 0.058664788 0.38048458 0.602309 0.084370226 -0.44212303 -0.36062607 -0.25280145 -0.020572728 0.08694489 0.019816054 1.2411733 -0.75633615 -0.25003225 0.86151445 -0.10772977 0.39710507 0.58507603 -0.106120504 0.73516285 -0.19715042 -0.32359242 -0.3096785 0.16534738 0.5516717 0.5165639 -0.6641766 0.14030081 0.07499959 -0.467066 0.4826736 0.23724197 -0.20682096 -0.35842687 0.055764664 -0.9861199 0.20814785 0.026341056 -0.7939626 -0.16510497 -0.17777003 0.38421157 -0.3248344 -0.38298893 -0.9330241 -0.7837201 0.33469003 0.5971986 0.53149015 0.05589845 0.09863704 0.08343295 -0.22981925 0.26175696 0.2730181 0.046334546 -0.29253036 -0.5956894 -0.35631686 -0.16246994 -0.19319008 -0.0045893933 -0.20835163 -0.18128547 -0.50362253 -0.55809 -0.030345056 0.65310615 -0.21552022 0.6596738 -0.45698848 -0.625528 -0.42055178 0.36890456 0.13851991 -0.40297636 0.11139798 -0.2028437 0.10161209 -0.6259705
10798 -0.37541437 0.45589384 0.007018324 -0.61201864 -0.2617637 -0.25548986 -0.11991383 0.2617965 -0.10514245 -6.616507e-05 -0.10935845 -0.7335969 -0.13118291 0.19528547 0.25937822 -0.38362786 -0.21046135 0.19580936 0.28405824 0.22838575 0.509456 0.20060535 -0.021056954 -0.19184887 -0.540736 0.70896125 -0.45812193 -0.267165 -0.38181183 -0.44308522 0.006163484 -0.024692087 -0.6536805 -0.40769652 0.35980245 0.18003023 -0.6155855 0.38512683 0.05559154 -0.0008023876 0.4166081 -0.14576031 -0.6201159 -0.062604435 0.063060835 -0.21168508 -0.116300896 -0.19122663 0.41542736 -0.136767 0.2514952 0.14084621 0.31383127 -0.20267068 0.27475846 0.3714227 -0.1291844 0.26801857 -0.2610526 -0.16163754 -0.10062357 0.22111759 0.19940011 -0.022550868 -0.5204413 -0.3047422 -0.59072834 -0.009528311 0.5163603 -0.0887525 0.7804912 -0.16891293 0.60952395 0.10796909 0.069016345 0.70556146 -0.52861166 0.1512669 -0.41762233 0.4806877 -0.5460401 -0.32297942 -0.05165762 -0.016308922 0.24916925 0.3756073 0.5634085 0.31554756 0.10404725 0.54140735 0.16764899 0.24971579 0.26711705 -0.30801642 0.10083567 0.27954426 -0.13272819 -0.042155553 -0.28903076 -0.38789895
16008 -0.87580055 0.27360618 -0.8336425 0.12656331 -0.0026077698 0.19869861 -0.4448688 0.12175362 -0.45250493 0.66595125 -0.8125972 -0.1165611 0.49220192 -0.040772185 0.12030913 -0.5072291 0.27447754 -0.1349956 0.32905167 -0.39126366 0.62412316 0.3341337 0.25625178 0.52569836 -0.20160346 -0.18818025 0.15680328 -0.53360444 0.301839 0.10718562 -0.07019563 0.35165933 -0.11269327 -0.34813866 0.033888333 -0.04004931 -0.33315083 -0.45308006 -0.028967708 0.14365454 0.00168486 -0.48417872 0.07109571 -0.75728554 0.53036815 -0.40395528 -0.24946597 -0.08014008 0.3659007 0.08558896 0.035964757 0.30320042 -0.014207149 0.19314916 0.10833543 -0.18054245 0.06448343 0.3648678 -0.2641869 -0.6476588 0.9499125 0.33252782 -0.43463272 -0.15060835 -0.65646714 -0.20852435 0.44183943 -0.06893918 0.101196274 -0.31037128 0.049251817 -0.2298163 -0.40666655 -0.19227836 0.08481719 0.27265576 -0.20730254 0.10706636 -0.2213811 -0.030858291 0.179799 0.17983201 -0.10642815 0.08130555 0.054128136 -0.16168836 0.28203425 0.75997365 -0.23129594 0.0116615705 -0.6772748 -0.8241507 0.22648437 -0.30147734 -0.363875 0.27407923 0.49046007 -0.23530786 0.09409178 -0.35161364
79809 -0.32402697 0.3138072 -0.38094595 0.089495376 -0.06349357 -0.10015412 -0.7349907 0.2768927 -0.490408 0.35890162 -0.5877436 0.23993273 0.06349357 -0.37497357 0.15007402 -0.17493373 -0.52754796 -0.08795313 0.48178062 -0.3098973 0.5512774 -0.031444564 0.19376235 0.64942175 0.09307301 0.22019915 0.07210765 -0.3609985 0.10564567 0.61205584 0.36789495 0.6097826 0.19384901 -0.62770504 0.33299488 -0.3676717 -0.4424055 -0.4923429 0.17307061 -0.42998058 -0.36876038 -0.62455654 0.23131904 -0.2642835 0.59199154 -0.19497195 -0.70049375 0.40489313 0.23571661 -0.1741347 -0.2605991 -0.1707706 -0.053757086 0.11703106 -0.24437487 0.1183632 0.19345833 0.5607978 -0.22730859 -0.98817617 0.28483254 0.62356895 0.08575298 -0.14970067 -0.6570995 0.08835345 0.31246528 -0.05615813 0.3800003 -0.10283623 0.22962745 -0.3376622 -0.22170103 0.26368 0.36271346 0.269345 0.18971379 -0.16647904 -0.5459889 0.49951118 -0.106111616 -0.17132394 0.3822793 0.15879922 0.42709357 -0.06303306 0.46963388 0.3170412 -0.29022202 0.05566912 0.47750783 -0.14847979 0.25798625 0.09681536 -0.23187533 0.34668362 -0.32641405 -0.113298856 0.2032987 -0.020655423
57119 -0.78837967 -0.0777226 -0.21897925 0.13411617 -0.15540573 -0.42544794 0.28106946 0.90027916 0.30297607 0.29191405 -0.45937943 -0.34759253 -0.17518893 0.335874 -0.42124465 -0.51042944 -0.5482703 0.24873774 0.14845291 -0.07153664 -0.008226482 -0.23648591 0.13440408 -0.19325693 -0.3440317 0.1145702 -0.63885593 -0.2866469 0.54250014 -0.36016795 -0.18500382 0.32940498 0.12188085 0.1106589 0.04780112 -0.14192466 0.5892341 0.27665418 0.51210004 0.2206018 -0.19518487 -0.43867922 0.15830463 0.19414945 -0.07211262 0.87836134 -0.62505084 -0.17454822 0.61035603 0.25327054 -0.22627594 -0.24144596 0.08256922 -0.10846693 0.5048537 0.36156434 0.32116583 0.51266 -0.6982662 -0.7159913 0.13272366 -0.18143304 -0.5524449 0.22273085 -0.37345004 -0.4849492 -0.16924237 0.04556119 0.57935756 0.19079956 0.021435032 0.045624953 -0.13666621 0.09491879 -0.39829236 -0.15976046 -0.32681045 -0.5323663 -0.042911083 -0.09040729 -0.015770074 0.4381664 0.5741345 0.20629779 -0.24839775 -0.088898644 -0.07333864 -0.2540649 0.609671 0.53886485 0.17304769 -0.75619274 0.07874476 -0.3274084 0.102585845 0.28321743 -0.05734566 -0.038568392 0.072629556 -0.1457386
