34 128
1 0.013723797164857388 0.12994258105754852 -0.05301720276474953 -0.0005694559658877552 -0.1305721402168274 -0.00220378115773201 -0.003406853647902608 0.0017107806634157896 0.02962593361735344 -0.0073976898565888405 0.008310613222420216 -0.0014915339415892959 -0.4409036338329315 0.0032987408339977264 0.004945918917655945 0.006094849668443203 -0.08670151978731155 0.006636589299887419 -0.006631770636886358 -0.009044638834893703 0.0015239716740325093 -0.07225977629423141 -0.00629019271582365 0.07476574927568436 0.005200129933655262 -0.17463906109333038 -0.013945742510259151 0.0031108686234802008 0.004707576707005501 -0.0006254856125451624 -0.004024446941912174 0.007860807701945305 -0.004046154208481312 0.19364458322525024 -0.0001359640300506726 0.0009672493324615061 -0.07210619747638702 0.007701494265347719 -0.019041849300265312 0.007623681798577309 -0.005003495141863823 -0.006863571237772703 0.01123239379376173 -0.11332262307405472 0.0007180292159318924 0.017969191074371338 -0.0053099761717021465 0.006453529931604862 0.0031605747062712908 -0.00058660440845415 0.003645504591986537 0.004762723576277494 0.010177802294492722 -0.002684027887880802 0.003536936594173312 -0.0019427562365308404 0.001977661857381463 0.00725638959556818 0.006333338096737862 -0.23266133666038513 0.006392225157469511 0.00321393134072423 0.03710148110985756 0.001752251060679555 0.33422043919563293 -0.006665038410574198 -0.3540854752063751 -0.0002841812092810869 -0.02258075773715973 -0.005806517321616411 -0.07081203162670135 0.10183484852313995 -0.02429233118891716 -0.010783343575894833 -0.011096976697444916 -0.0045773060992360115 -0.005665316246449947 0.0018995823338627815 -0.1449694037437439 -0.01194703858345747 -0.21833503246307373 -0.0073621938936412334 -0.14179106056690216 -0.0035953051410615444 -0.015946652740240097 0.007724567782133818 -0.0020915905479341745 0.0079815573990345 -0.00827562715858221 -0.24902214109897614 0.0051043531857430935 0.009577804245054722 -0.149296373128891 0.002966513391584158 -0.17269267141819 -0.003781546140089631 -0.003938931040465832 0.00251501495949924 -0.0006520743481814861 -0.08470818400382996 -0.0004517932247836143 -0.005100486800074577 -0.006313424091786146 0.009633280336856842 0.002744512865319848 -0.002810368314385414 0.0009654446039348841 0.004937095567584038 0.08672808110713959 0.17173120379447937 -0.006011840887367725 -0.004912667907774448 0.11550293862819672 0.004682460334151983 0.032312843948602676 -0.220473051071167 8.658747537992895e-05 -0.004450538195669651 0.09728430956602097 0.00055308872833848 8.03685761638917e-05 -0.012479041703045368 0.0010043111396953464 -0.17580732703208923 0.006836724933236837 0.001897980342619121 0.0006121487822383642 0.0013222629204392433 
32 -0.06493260711431503 -0.11262374371290207 -0.059121228754520416 -0.15392132103443146 0.07193193584680557 0.046500544995069504 0.11340286582708359 0.05879364162683487 -0.11873399466276169 -0.08372818678617477 -0.0483253113925457 0.12389295548200607 0.16131152212619781 -0.13530468940734863 0.03480879217386246 0.0045706587843596935 0.29252466559410095 -0.06985949724912643 -0.05489892512559891 -0.029886726289987564 0.011223984882235527 -0.08585746586322784 0.16677618026733398 0.17053136229515076 -0.13909563422203064 -0.13532960414886475 0.07266673445701599 -0.0030695090536028147 -0.08146205544471741 -0.052061498165130615 0.0014844615943729877 0.03580823913216591 0.342267245054245 -0.04384458065032959 0.04030846059322357 0.019542472437024117 0.026922041550278664 0.03083019331097603 0.00047001466737128794 0.06108418107032776 -0.010923445224761963 0.032356031239032745 0.06399095803499222 -0.07882694900035858 0.01008090004324913 -0.02398618310689926 0.04756778106093407 -0.06071881204843521 0.029370231553912163 0.06811189651489258 0.004079690668731928 -0.04183800891041756 -0.03832894563674927 0.065605528652668 0.016916923224925995 -0.0033798199146986008 0.070688895881176 -0.01970568113029003 0.06195400282740593 -0.09108591824769974 0.034949589520692825 0.05015062540769577 0.030639562755823135 0.029899962246418 -0.05826679989695549 -0.030946021899580956 0.1352066695690155 -0.08301812410354614 -0.05080966651439667 0.05776519700884819 -0.054396942257881165 -0.03455090895295143 0.06673295795917511 0.022783329710364342 -0.0500272773206234 0.08793087303638458 0.08523190766572952 -0.014037459157407284 -0.0905105322599411 0.0800047367811203 0.044324327260255814 -0.0972633883357048 -0.16181787848472595 -0.02198028191924095 -0.011217890307307243 0.06596781313419342 0.01734432764351368 0.010649536736309528 -0.006503432989120483 0.2173227220773697 -0.053988341242074966 -0.03142798691987991 0.016962021589279175 -0.07255536317825317 -0.0279180146753788 -0.0293919388204813 -0.04152002930641174 -0.07305602729320526 0.018432067707180977 -0.004568214062601328 -0.0005492157652042806 -0.07153001427650452 -0.0013575623743236065 0.027169376611709595 -0.07926139235496521 -0.11630011349916458 -0.03497907146811485 -0.162088543176651 0.0019221296533942223 -0.15346269309520721 0.03881331905722618 0.011428500525653362 -0.20563958585262299 -0.016005944460630417 -0.044272616505622864 0.1561720222234726 0.01282411627471447 0.004759685602039099 0.253902792930603 -0.009531370364129543 -0.12468137592077255 0.029953457415103912 0.06092418357729912 0.1260892152786255 -0.03905383124947548 -0.05193834379315376 -0.1109609603881836 0.06592105329036713 
22 0.22775793075561523 0.10845054686069489 -0.0864490270614624 -0.1894914209842682 0.01160568930208683 -0.08604046702384949 0.03165042772889137 -0.0024026273749768734 -0.07531953603029251 -0.06150238588452339 0.06973013281822205 -0.12278776615858078 -0.22464008629322052 0.09639390558004379 -0.03000032529234886 0.039603251963853836 -0.05000266805291176 -0.025473702698946 -0.07551155984401703 -0.12656810879707336 -0.03419267758727074 -0.3582378029823303 -0.11790788173675537 0.0010216234950348735 -0.002333738375455141 0.11736059188842773 0.02196774072945118 -0.03216474503278732 0.0824882984161377 0.20220617949962616 0.13776060938835144 -0.022877901792526245 0.11855389177799225 -0.014570158906280994 -0.044192854315042496 -0.03277427703142166 -0.08801814168691635 -0.007178573403507471 0.0725526362657547 0.07273844629526138 0.009074903093278408 0.03406764939427376 -0.06725979596376419 0.024152271449565887 -0.11336490511894226 -0.0016153932083398104 -0.048626042902469635 -0.0645824745297432 0.02890681102871895 0.03583816438913345 -0.020528454333543777 0.10491947084665298 -0.02742133103311062 0.028286565095186234 -0.12666459381580353 0.061983320862054825 0.005975419655442238 0.02852974459528923 -0.020549776032567024 0.08963080495595932 0.009765855967998505 0.20828624069690704 -0.057390619069337845 0.033438995480537415 0.08321075141429901 0.08698419481515884 -0.013229358941316605 0.08231497555971146 0.05025428906083107 0.037486303597688675 -0.022646434605121613 -0.05742383003234863 0.01816067099571228 -0.0004241193237248808 -0.04270340874791145 -0.037040870636701584 -0.05939209833741188 -0.042894233018159866 -0.04573248699307442 -0.26475760340690613 0.11011555790901184 -0.10928437858819962 0.09723740816116333 0.0006225678371265531 -0.019208207726478577 -0.04390595853328705 0.06762158125638962 -0.056836433708667755 0.1010037511587143 0.07115859538316727 0.03486041724681854 -0.02714676782488823 0.09935688227415085 0.22250455617904663 0.06864671409130096 -0.01208438165485859 0.0038123924750834703 -0.053037334233522415 0.035671427845954895 0.09392217546701431 0.010116671212017536 0.04907834157347679 -0.039685238152742386 0.013176499865949154 0.023098723962903023 0.0372961200773716 -0.0411897636950016 -0.09439211338758469 -0.04067122936248779 0.06718660145998001 0.0581839345395565 0.02935204468667507 -0.1290631890296936 0.03271555155515671 -0.047339923679828644 -0.15161482989788055 0.008175556547939777 -0.05637368559837341 -0.11997798830270767 0.0900515541434288 0.13640832901000977 -0.07485897839069366 0.0006500816089101136 0.10191064327955246 0.04493507370352745 -0.07358969002962112 0.046964842826128006 0.008450071327388287 
20 0.338569700717926 0.20784012973308563 -0.06915035843849182 -0.11067384481430054 -0.01323633547872305 0.002984447870403528 -0.11742023378610611 -0.04952952638268471 0.18580567836761475 -0.05646544694900513 0.027423212304711342 -0.0018163194181397557 -0.07344084978103638 0.06375659257173538 -0.11640484631061554 0.015845071524381638 -0.07757755368947983 0.07663644850254059 0.08513045310974121 0.012923137284815311 0.02668210305273533 -0.17027968168258667 -0.08767998218536377 -0.04137485474348068 -0.024795083329081535 0.007917869836091995 -0.04987004026770592 -0.040778473019599915 0.03745192289352417 0.05924929678440094 0.08454427123069763 -0.0045766448602080345 -0.008732330054044724 9.603684156900272e-05 0.058405812829732895 0.01162682007998228 0.005098856985569 -0.03348151966929436 -0.0029782725032418966 -0.08654216676950455 0.0654902383685112 -0.009693875908851624 -0.09171801060438156 0.01779562421143055 -0.0014279123861342669 0.009480814449489117 -0.009439780376851559 0.14862899482250214 -0.00057557737454772 0.00017110827320721 -0.025944888591766357 0.006740763317793608 0.004848891869187355 -0.07267597317695618 -0.04209744185209274 0.02384045533835888 -0.06881746649742126 -0.0057735806331038475 0.23646216094493866 0.030307035893201828 -0.005108891520649195 0.11654812842607498 -0.021648120135068893 0.053607530891895294 0.02013024128973484 0.05769525468349457 -0.06486213952302933 0.004942834377288818 -0.04004227742552757 -0.07010646909475327 -0.02745296061038971 -0.04030781611800194 0.022551925852894783 0.052095722407102585 0.10918852686882019 -0.03210820257663727 -0.006638659164309502 0.0751284584403038 0.08386724442243576 -0.1903075873851776 -0.012076815590262413 0.04145736247301102 0.13603612780570984 0.11647215485572815 0.004988975822925568 -0.0032519132364541292 -0.1112322211265564 0.03669105842709541 0.011622420512139797 0.017371071502566338 0.04841941222548485 0.006368190515786409 -0.10126718133687973 0.38147273659706116 -0.10539907217025757 0.09396222233772278 0.03511916100978851 0.09057165682315826 0.05159369483590126 -0.17201082408428192 -0.011142568662762642 -0.0020608576014637947 0.062460072338581085 -0.017911497503519058 -0.04617032781243324 0.0023273280821740627 0.014760826714336872 -0.07141028344631195 -0.10312625765800476 0.033381033688783646 -0.03013426810503006 -0.0016445613000541925 0.1026604026556015 0.046702802181243896 0.02899106591939926 -0.03268031030893326 0.007369735278189182 -0.01586056686937809 -0.3458673059940338 0.035229139029979706 0.04798072949051857 -0.011544490233063698 -0.08520936965942383 -0.06382545828819275 0.04256356507539749 0.0741097703576088 0.01316240057349205 -0.0754798874258995 
18 0.1487482488155365 0.05695965886116028 0.042837969958782196 0.22626563906669617 -0.026676379144191742 -0.015843387693166733 -0.14659123122692108 -0.0005300620105117559 0.14711877703666687 0.0388578437268734 0.020990541204810143 -0.0072442456148564816 -0.005721071269363165 0.008285017684102058 5.3676500101573765e-05 0.009882018901407719 -0.29875051975250244 0.039377760142087936 0.040184855461120605 -0.008633347228169441 0.013000673614442348 0.12625080347061157 -0.05061769112944603 -0.08227018266916275 0.15584957599639893 0.04586917534470558 -0.06552746891975403 -0.013170875608921051 0.07838322967290878 -0.027199704200029373 0.061063189059495926 -0.004414789844304323 -0.11851205676794052 0.0067057134583592415 -0.05456190183758736 0.060806285589933395 0.003420561319217086 -0.06750462204217911 -0.017321554943919182 -0.04617428034543991 0.004938527476042509 -0.05434500426054001 -0.06240155175328255 0.029284195974469185 0.023130575194954872 -0.07143114507198334 -0.009441860020160675 0.11193088442087173 0.1555425077676773 -0.011110772378742695 0.025441333651542664 0.003939850255846977 0.002234411658719182 -0.06425558030605316 0.03570885583758354 -0.036069225519895554 -0.08654467016458511 -0.011974362656474113 0.042943015694618225 0.09214867651462555 -0.006944425404071808 -0.054311152547597885 -0.0430930070579052 -0.03372197970747948 -0.03647070378065109 0.042402248829603195 -0.029642095789313316 0.049411509186029434 -0.04682282730937004 0.023594608530402184 -0.02440246194601059 0.04772554337978363 -0.0008063222630880773 0.021833764389157295 0.03987470641732216 -0.020326195284724236 -0.012785084545612335 0.06625323742628098 0.07484322786331177 0.02416204661130905 0.11106730997562408 0.12225840985774994 0.14809714257717133 0.1060665100812912 0.005534326191991568 -0.01202626433223486 -0.01439464557915926 -0.00890575721859932 -0.0025451937690377235 -0.06307371705770493 0.06660017371177673 0.052081361413002014 0.11638490855693817 0.16015291213989258 0.2608901560306549 0.04338200390338898 0.023610977455973625 0.09721114486455917 -0.0503789447247982 0.06836201995611191 -0.015706101432442665 0.008631058968603611 0.011025856249034405 -0.028617192059755325 -0.015671033412218094 0.023861249908804893 0.09139376133680344 0.11445456743240356 0.006671512965112925 0.09996683895587921 -0.09639108180999756 -0.016365714371204376 0.38404691219329834 -0.06616915762424469 0.13059739768505096 0.12852221727371216 -0.054599329829216 -0.012847323901951313 -0.3589635491371155 0.02463875710964203 0.09611165523529053 -0.04703889787197113 -0.04716001823544502 -0.051738426089286804 0.020134253427386284 0.0623452328145504 -0.02181168459355831 0.021705735474824905 
14 -0.07102806866168976 0.11066115647554398 0.12078174948692322 -0.23969601094722748 0.2826128900051117 -0.015514109283685684 0.06303031742572784 0.06092972308397293 0.024274494498968124 0.08341588079929352 -0.0066842203959822655 0.0005559402634389699 0.02707412838935852 0.0010185082210227847 -0.1331280618906021 -0.015963075682520866 0.03229294344782829 -0.03197939693927765 0.011496673338115215 0.028949545696377754 -0.04394662380218506 -0.07025375962257385 0.0182842668145895 -0.17517127096652985 -0.045270733535289764 0.01939871348440647 0.08740251511335373 -0.011364909820258617 -0.07572618126869202 0.07118649780750275 0.014477577060461044 -0.02836565487086773 -0.18375781178474426 -0.10603424906730652 0.0034513191785663366 0.014971667900681496 0.1096995621919632 -0.05525687709450722 0.008321741595864296 0.015297787263989449 -0.022967128083109856 0.04540087655186653 0.022995643317699432 0.1764509081840515 -0.02789638750255108 0.02317729964852333 0.2506004273891449 -0.09983795136213303 -0.25560590624809265 -0.013301435858011246 0.00956073496490717 -0.01128455437719822 -0.04774310067296028 0.01902802661061287 -0.010700645856559277 -0.03976009041070938 0.034896593540906906 -0.017251595854759216 -0.02722690999507904 0.1576458066701889 -0.037366874516010284 -0.0397794209420681 0.014418366365134716 0.012926328927278519 -0.08999768644571304 0.0394313707947731 0.1287681758403778 -0.020055633038282394 -0.005629324354231358 -0.023404350504279137 0.10239886492490768 0.03500699624419212 -0.08586795628070831 0.028277860954403877 0.014315174892544746 0.01757582277059555 -0.0038673835806548595 -0.05266229063272476 -0.11387007683515549 0.11670675128698349 0.039648935198783875 -0.05099504068493843 0.13612566888332367 -0.005184682551771402 0.07641692459583282 -0.09224559366703033 0.004209559410810471 0.025865236297249794 0.08532652258872986 -0.014957169070839882 -0.0464034378528595 -0.09174976497888565 -0.019814012572169304 -0.09257715940475464 0.15520814061164856 -0.00400659441947937 0.14164899289608002 -0.0477764718234539 0.00423221942037344 -0.14568915963172913 -0.006203874945640564 0.04765583574771881 0.002981779631227255 0.012347468174993992 0.07420182973146439 0.030686069279909134 -0.08565177768468857 -0.045279610902071 -0.07345067709684372 -0.023752998560667038 0.12763261795043945 0.09705831110477448 -0.20974035561084747 0.03355593979358673 -0.18825431168079376 -0.03293813765048981 0.048031505197286606 -0.00626133568584919 -0.3166033923625946 0.026385188102722168 -0.02743690274655819 0.05624257028102875 0.05808368697762489 -0.036882683634757996 -0.03114897385239601 -0.09196881204843521 -0.0054190256632864475 0.040466245263814926 
13 -0.0901898667216301 0.05666833743453026 0.14840324223041534 -0.07287077605724335 0.06435861438512802 -0.0038193122018128633 0.008596008643507957 0.04395633190870285 0.29761749505996704 0.0812356024980545 -0.01749275252223015 0.016795841977000237 0.09369377791881561 -0.008693528361618519 -0.048629846423864365 -0.03322604298591614 0.0009475192637182772 -0.04183484613895416 0.002796656684949994 0.06129880249500275 -0.03984930366277695 -0.0830278992652893 0.04809217527508736 -0.25506484508514404 0.03613954409956932 0.12920115888118744 0.046455059200525284 -0.028488127514719963 -0.08214873820543289 0.02534780651330948 0.03605841100215912 -0.0813620463013649 -0.09965861588716507 -0.09442073851823807 -0.022368133068084717 0.01252794824540615 0.09700731188058853 -0.023316649720072746 0.0573410727083683 0.0026176574174314737 0.011141665279865265 0.02344430610537529 -0.06602171808481216 0.27519965171813965 -0.009376775473356247 -0.06498093158006668 0.1624184250831604 -0.09236699342727661 -0.03058432973921299 0.03995436802506447 -0.04018466919660568 -0.03358103334903717 -0.09177941083908081 0.07748796790838242 -0.017711050808429718 -0.03357217460870743 0.003615385154262185 -0.05072230473160744 -0.02577606774866581 0.1343943178653717 -0.07421134412288666 -0.0788029357790947 -0.08635015040636063 -0.0472244955599308 -0.02385704778134823 0.026630183681845665 0.011275763623416424 -0.04695035144686699 0.18157343566417694 0.030721047893166542 0.19733886420726776 -0.07474731653928757 0.05746281147003174 0.03531518206000328 0.029197335243225098 0.022798020392656326 0.013210926204919815 -0.04215278849005699 0.10222965478897095 0.05541587620973587 -0.024748878553509712 0.04735233634710312 0.3003023862838745 -0.016777008771896362 0.08597259223461151 -0.11754919588565826 -0.01786435768008232 -0.020346863195300102 0.09074530005455017 0.025000961497426033 -0.03987647220492363 -0.027369527146220207 -0.12034519016742706 -0.028946533799171448 -0.15276306867599487 0.011581185273826122 0.11284305900335312 -0.05440790206193924 -0.020110951736569405 -0.08219053596258163 0.0119986142963171 0.017994847148656845 0.009889362379908562 -0.01969681866466999 0.001387661905027926 0.030312204733490944 0.0014642481692135334 0.009322385303676128 -0.23190048336982727 -0.12247680127620697 0.07668200135231018 0.08571889251470566 -0.12013053148984909 -0.028032377362251282 -0.12957866489887238 -0.17544272541999817 -0.012531169690191746 0.023465221747756004 -0.22411058843135834 0.024542823433876038 -0.03784312307834625 0.048044390976428986 -0.012743114493787289 0.0770094022154808 -0.08321072906255722 -0.07206495106220245 -0.02963102050125599 0.012227743864059448 
12 0.25149014592170715 0.14162372052669525 0.013524933718144894 0.16737553477287292 -0.09687428176403046 -0.03843666985630989 -0.0014052416663616896 -0.06957969069480896 0.1888524442911148 -0.01847940683364868 0.08639457076787949 -0.08632923662662506 0.02429795451462269 0.04563593119382858 0.0018359384266659617 0.05355045199394226 -0.21383441984653473 0.06870478391647339 -0.008367643691599369 -0.007207286544144154 0.010862977243959904 0.06051667407155037 -0.11307884007692337 -0.21789243817329407 0.11462411284446716 0.15419121086597443 0.028198180720210075 -0.0034910328686237335 0.0976281613111496 -0.022302627563476562 -0.12439749389886856 0.006716374773532152 -0.1775990128517151 -0.09018465131521225 -0.00826328806579113 0.015265079215168953 -0.036017026752233505 0.034496765583753586 0.021853193640708923 0.04130493476986885 -0.021196274086833 -0.0477784238755703 -0.08928384631872177 0.10683029890060425 0.009301833808422089 -0.025208700448274612 -0.15654203295707703 0.056687984615564346 0.04933925345540047 -0.08188886195421219 0.06604251265525818 0.10453267395496368 0.05732906982302666 -0.10303013771772385 -0.07471806555986404 0.055219367146492004 0.012745499610900879 0.07137808948755264 0.06244707852602005 0.2036450356245041 0.011402922682464123 0.10796073079109192 0.01955154351890087 0.07720139622688293 -0.07231771945953369 -0.01917153038084507 0.02870241366326809 0.03470997512340546 -0.0020696683786809444 -0.010673810727894306 0.1338532716035843 -0.09026429057121277 0.049200866371393204 -0.0824655070900917 -0.03375200554728508 -0.09052909165620804 -0.0740593820810318 0.04817863181233406 0.07376085221767426 -0.11837038397789001 0.05293160304427147 0.05294928699731827 0.20960944890975952 0.027695409953594208 -0.05013010650873184 0.03489689156413078 -0.0878274068236351 0.05600863695144653 -0.0319024994969368 -0.037516918033361435 0.06380871683359146 0.11039220541715622 -0.012311541475355625 0.16224879026412964 0.12174522131681442 0.05362358316779137 -0.10799293220043182 0.06226614490151405 0.051638562232255936 -0.08348885923624039 -0.05258563160896301 0.006902334280312061 -0.031676992774009705 0.037286486476659775 0.0002720970078371465 0.029896393418312073 0.016086990013718605 -0.01886889524757862 -0.03744350001215935 0.04348873347043991 -0.055760882794857025 -0.11817820370197296 0.1228167861700058 0.024250062182545662 0.056744158267974854 -0.05091840773820877 0.02200351655483246 -0.037237487733364105 -0.33955302834510803 0.049629271030426025 0.01576395146548748 -0.05692978948354721 -0.04279981181025505 -0.018430501222610474 0.0800352469086647 0.10551205277442932 0.05879354104399681 -0.010955369099974632 
11 -0.051228247582912445 -0.142557293176651 0.08921068906784058 -0.22305989265441895 0.07440352439880371 -0.01564389280974865 0.06848470121622086 0.024726923555135727 0.2775275707244873 -0.03934371843934059 -0.0037654151674360037 -0.016202740371227264 0.24934139847755432 0.00810745544731617 -0.05525747314095497 -0.027684463188052177 0.15351296961307526 -0.06873071193695068 0.02950029820203781 0.038906265050172806 -0.03358721360564232 0.1613851636648178 0.008817221969366074 -0.10626351833343506 -0.10936611890792847 0.11150100082159042 0.05492601543664932 -0.03843443840742111 0.001694178325124085 0.03238533437252045 -0.0035244659520685673 0.033219143748283386 0.14242196083068848 -0.2564603388309479 -0.012675640173256397 0.0008277588640339673 0.08735211193561554 0.027213536202907562 0.06445904821157455 0.0023752565030008554 -0.01811961643397808 0.052751801908016205 0.026201516389846802 0.19326063990592957 -0.038559142500162125 0.04714588075876236 -0.062133584171533585 -0.01863056793808937 -0.037649523466825485 -0.04443243145942688 0.033148687332868576 0.010650583542883396 0.04060506820678711 0.018551267683506012 0.014355686493217945 0.030559906736016273 0.023804279044270515 0.053346265107393265 -0.0618523545563221 0.16055099666118622 -0.04444142058491707 0.037642788141965866 -0.13797646760940552 0.10527075082063675 -0.10164431482553482 0.0024016904644668102 0.000888209673576057 -0.01380151230841875 0.03389541804790497 -0.0603330172598362 0.13409505784511566 0.026053987443447113 0.013535953126847744 0.03229830414056778 -0.023422827944159508 0.030590873211622238 0.014898219145834446 -0.02775776945054531 0.16556599736213684 -0.02387589029967785 -0.05249951407313347 -0.040422990918159485 0.1425071507692337 0.0053810253739356995 -0.020326681435108185 0.029578903689980507 0.031018739566206932 -0.006116374861449003 -0.017397237941622734 0.17832429707050323 -0.06825562566518784 -0.04605863615870476 -0.002776489593088627 0.011170733720064163 -0.22855570912361145 -0.005327485967427492 -0.029683908447623253 -0.05687505379319191 0.08789103478193283 -0.20951540768146515 -0.020874125882983208 0.045494984835386276 -0.02317269891500473 -0.011440361849963665 -0.022347498685121536 -0.01574568822979927 -0.10201000422239304 -0.06681863218545914 -0.10846751928329468 -0.24030984938144684 0.02634180337190628 0.026737336069345474 0.18422700464725494 0.06249360740184784 -0.043383192270994186 0.18025952577590942 0.0883508250117302 -0.014531883411109447 -0.07641968131065369 -0.023428581655025482 -0.03801431879401207 0.035022344440221786 -0.003600939642637968 0.1317356675863266 0.03982805460691452 -0.02180498093366623 0.04321609064936638 0.03160574287176132 
9 0.20122000575065613 -0.14451634883880615 0.05886044353246689 -0.17792809009552002 0.1332903653383255 -0.09941843152046204 0.022790947929024696 -0.072318896651268 -0.15785296261310577 0.008078805170953274 0.057149507105350494 -0.06280913949012756 0.2791048586368561 0.12273792922496796 0.00016942816728260368 -0.012335929088294506 0.18234023451805115 0.025650613009929657 -0.06621105223894119 -0.08992420136928558 -0.006516033783555031 0.029051590710878372 -0.07606794685125351 0.018881091848015785 -0.08180034160614014 -0.024829931557178497 0.0569748654961586 -0.09504922479391098 -0.023661334067583084 0.11512263864278793 -0.1415393352508545 -0.0748281329870224 0.053783856332302094 -0.038189247250556946 -0.03475015610456467 0.03756203129887581 0.08200086653232574 0.030551521107554436 0.08648347854614258 -0.044005002826452255 -0.01844308152794838 -0.0344105139374733 -0.06397884339094162 -0.02516685612499714 0.06313928961753845 0.007503506727516651 0.032721955329179764 0.03051178716123104 0.04757838323712349 -0.10752026736736298 0.1239706352353096 0.060427770018577576 0.04887634515762329 -0.08567961305379868 -0.16833896934986115 0.0932486355304718 0.06239573284983635 0.14063362777233124 -0.003156149759888649 -0.062328290194272995 -0.0645134449005127 0.19478696584701538 -0.01389547809958458 0.15649890899658203 -0.11538373678922653 -0.008170188404619694 0.24284426867961884 0.15736143290996552 0.01098034530878067 0.0237765833735466 0.007047975901514292 0.03208574652671814 -0.027263684198260307 -0.042316656559705734 0.04232628643512726 -0.04990575090050697 -0.10661545395851135 0.03774387389421463 -0.035795558243989944 0.03831900656223297 0.08167895674705505 0.0067575001157820225 -0.0811523050069809 0.15035779774188995 0.0899372398853302 -0.011582843028008938 -0.015115520916879177 0.0768631175160408 -0.05358857288956642 0.13529612123966217 -0.008032301440834999 -0.07254256308078766 0.09130730479955673 0.09556581825017929 0.012591356411576271 0.19645556807518005 0.013758591376245022 0.023478155955672264 0.1456315666437149 0.0484127551317215 -0.06372030824422836 0.0034033884294331074 0.001976792234927416 0.07104872912168503 0.012316254898905754 0.08352678269147873 0.12167038023471832 -0.06934977322816849 0.05644892528653145 -0.05886346846818924 -0.05044693872332573 -0.021514784544706345 -0.1194562315940857 -0.0048158057034015656 -0.03337188810110092 0.07098974287509918 -0.028627734631299973 -0.04755454510450363 -0.11538992822170258 0.04866660386323929 0.016727708280086517 0.08922621607780457 0.10763154923915863 0.14686022698879242 0.03271385282278061 0.08991353213787079 0.02966671995818615 0.08579757064580917 
8 0.11340852081775665 -0.04359135404229164 0.01046875398606062 0.350873738527298 -0.09241903573274612 0.015813888981938362 -0.08586686104536057 0.025139691308140755 -0.008976141922175884 0.06936293095350266 -0.004781336989253759 0.01027056947350502 -0.010327668860554695 -0.03247489407658577 -0.048245348036289215 0.005263972096145153 -0.238195538520813 0.022763261571526527 0.0393020361661911 0.09761269390583038 -0.03272558003664017 0.09445589035749435 0.026712749153375626 -0.058950040489435196 0.152131125330925 0.08653932064771652 -0.008516444824635983 0.007831009104847908 0.02285752445459366 -0.06494025141000748 0.03021634928882122 0.010167393833398819 -0.19735640287399292 0.06511764228343964 0.005928870290517807 -0.03233083337545395 -0.027056554332375526 -0.02597518265247345 -0.09289397299289703 -0.017263075336813927 0.03474821150302887 0.01934141293168068 -0.012773782014846802 -0.023973193019628525 -0.026817895472049713 -0.0605434887111187 -0.046605415642261505 0.06465442478656769 0.12257077544927597 0.03528956323862076 -0.006910932715982199 -0.024457572028040886 -0.046966563910245895 0.029482750222086906 -0.0016201010439544916 -0.06816515326499939 -0.06860899180173874 -0.012303436174988747 0.034675855189561844 0.09197252988815308 0.011157473549246788 -0.06908265501260757 0.101451575756073 -0.03676758334040642 -0.041172515600919724 0.06384988129138947 0.05610965937376022 -0.08210333436727524 -0.05635342374444008 0.048178985714912415 -0.00697683822363615 0.023138944059610367 0.04897194355726242 0.019801678135991096 -0.013493167236447334 0.02522130124270916 0.017859987914562225 0.00414096936583519 0.06927284598350525 0.03273722156882286 0.17556338012218475 0.14599139988422394 0.08418626338243484 -0.03339004144072533 -0.03361933305859566 -0.022605836391448975 -0.0517534501850605 -0.023204628378152847 0.11621016263961792 -0.08350101858377457 0.023288732394576073 0.07444626837968826 0.17166709899902344 0.022181963548064232 0.3282845616340637 -0.030215930193662643 -0.018497435376048088 -0.019305430352687836 -0.01655040867626667 0.22432415187358856 0.004620126914232969 -0.042934030294418335 0.032468315213918686 -0.05065513402223587 -0.052910540252923965 0.0024786365684121847 -0.01946047693490982 0.10553324967622757 0.028181716799736023 0.16472065448760986 -0.08159796893596649 -0.010493441484868526 0.3326045870780945 0.06701298803091049 0.13130730390548706 0.13710615038871765 0.018616659566760063 0.016000349074602127 -0.22657720744609833 0.026986099779605865 0.012787614949047565 -0.050812847912311554 -0.09486710280179977 -0.07399903237819672 0.0011769322445616126 0.002620275365188718 -0.052613694220781326 -0.05191163718700409 
7 0.11043155938386917 0.0030263972003012896 -0.0402972474694252 0.3650555908679962 -0.0904754251241684 -0.039153147488832474 -0.07373161613941193 -0.014144804328680038 0.06253531575202942 0.04689662903547287 0.06110728532075882 -0.04388151690363884 -0.018036609515547752 0.05569269880652428 0.029075689613819122 0.03642182797193527 -0.2875210642814636 0.03697025775909424 -0.03372254595160484 -0.00438276119530201 0.003313977736979723 0.04979841038584709 -0.05251045152544975 -0.0586034432053566 0.16569805145263672 0.08027917891740799 -0.03742748498916626 0.011484386399388313 0.012320243753492832 -0.04450394958257675 -0.06086943671107292 -0.07432004809379578 -0.16118139028549194 0.08907142281532288 -0.06865619122982025 0.04859188571572304 -0.04859807342290878 0.03893813490867615 -0.0557335689663887 0.04197176173329353 -0.00992882251739502 -0.05263803154230118 -0.05345478281378746 -0.04651365429162979 -0.004200595896691084 -0.047896891832351685 -0.0231512151658535 0.04026535153388977 0.15634563565254211 -0.009413245134055614 0.019445989280939102 0.0474778413772583 0.026905477046966553 0.020031694322824478 -0.05161379277706146 0.006891882047057152 -0.036754027009010315 0.028295794501900673 0.044164080172777176 0.09990908205509186 -0.054655056446790695 -0.003186785615980625 0.07228768616914749 -0.012250818312168121 -0.07729492336511612 -0.033599548041820526 0.07451489567756653 0.014288733713328838 -0.007005884312093258 0.04992537200450897 -0.017495794221758842 -0.06644173711538315 0.05523039400577545 -0.06793955713510513 -0.045103054493665695 -0.05125008150935173 -0.0681336298584938 0.013220510445535183 0.08932306617498398 -0.01806960068643093 0.19661366939544678 0.09302370250225067 0.12282945215702057 0.013858999125659466 -0.04396039620041847 -0.040864814072847366 -0.0879097655415535 0.04324573650956154 -0.02524529956281185 -0.06004521995782852 0.03697086125612259 0.089627206325531 0.16867612302303314 0.08913599699735641 0.3483044505119324 0.048162929713726044 0.006633507087826729 0.012147951871156693 -0.01585020124912262 0.21783505380153656 -0.032412055879831314 -0.005194866098463535 -0.033592186868190765 0.024533569812774658 -0.0042955027893185616 0.05178205668926239 0.0929119884967804 0.06117944046854973 0.015493875369429588 0.12445611506700516 -0.059044044464826584 -0.012778624892234802 0.2647067904472351 -0.06765464693307877 0.12095101922750473 0.14494726061820984 -0.046264760196208954 -0.003894089488312602 -0.23585636913776398 0.07496456801891327 0.01050427183508873 -0.05826156958937645 -0.009173472411930561 -0.052674051374197006 -0.010162009857594967 0.04157203435897827 0.04300127923488617 0.005955871660262346 
6 0.157229945063591 0.18805214762687683 0.00045750659774057567 0.009393889456987381 -0.14767096936702728 -0.018814843147993088 -0.05677603930234909 -0.09099411219358444 0.2964591085910797 0.026842191815376282 0.06985946744680405 -0.04686708003282547 0.021720128133893013 0.05894370377063751 0.06813479959964752 0.004911231342703104 -0.28826284408569336 0.08895707130432129 -0.057924676686525345 -0.055832430720329285 0.04698075354099274 -0.02278042770922184 -0.08671373873949051 -0.17792563140392303 0.10716058313846588 0.16493302583694458 -0.057147037237882614 0.06988158077001572 0.07203346490859985 0.053037602454423904 -0.023094363510608673 0.026752939447760582 -0.044466160237789154 -0.03662605211138725 -0.026861906051635742 -0.012997482903301716 -0.10014697909355164 0.06055619567632675 -0.015240393579006195 0.05222901329398155 0.039778757840394974 -0.08045155555009842 -0.12688502669334412 0.08421018719673157 -0.0006103718769736588 -0.03448934108018875 -0.06952252238988876 0.0448407307267189 0.1675751954317093 0.020361918956041336 0.030662529170513153 0.09316309541463852 -0.032941415905952454 -0.025872284546494484 0.024642841890454292 0.06069430708885193 -0.05281798914074898 0.08568723499774933 0.04792458191514015 0.21707147359848022 -0.012832998298108578 0.09732149541378021 0.09741566330194473 0.0416593961417675 -0.061385903507471085 -0.005872218403965235 0.04814096540212631 0.10919056087732315 0.06882961839437485 0.02865075320005417 0.0725753903388977 -0.0001216773089254275 0.018843039870262146 -0.07752200216054916 -0.024266287684440613 -0.07080446183681488 -0.06541723757982254 0.01602097414433956 0.055443137884140015 -0.10759731382131577 0.11371206492185593 0.07378040999174118 0.2495327889919281 -0.012882551178336143 -0.0582612007856369 0.04330424219369888 0.005324857775121927 -0.014007458463311195 0.016891585662961006 -0.033362459391355515 0.09592919796705246 0.05534012243151665 0.036373987793922424 0.10791211575269699 0.10321226716041565 -0.04093806445598602 -0.042939022183418274 0.04351081699132919 0.019715115427970886 -0.0337265282869339 0.048877473920583725 -0.04933164641261101 -0.0290237944573164 0.02434193529188633 0.010906356386840343 -0.01825512759387493 0.0923902690410614 0.0454472191631794 -0.03133594989776611 0.10425980389118195 -0.07664045691490173 -0.043263647705316544 0.22107721865177155 -0.18050436675548553 0.11561326682567596 -0.06365014612674713 -0.045079540461301804 0.016998862847685814 -0.27608710527420044 0.016410591080784798 0.04749307036399841 -0.0900370180606842 0.004714493174105883 0.0025261645205318928 -0.021659482270479202 0.06734159588813782 -0.015185083262622356 -0.030112924054265022 
5 0.06573601812124252 -0.15547697246074677 0.05060975253582001 -0.011070244014263153 0.24353457987308502 0.01359748374670744 0.08523524552583694 -0.007866861298680305 -0.42858245968818665 0.005779464263468981 -0.03568238019943237 0.035513631999492645 0.1302107870578766 -0.03383941948413849 -0.07005460560321808 -0.03206438571214676 0.28309115767478943 -0.09451840072870255 0.04007251188158989 0.04931547865271568 -0.07991107553243637 0.1046237125992775 0.039959363639354706 0.15195254981517792 -0.04183366894721985 -0.0666399672627449 0.10748007893562317 -0.11290541291236877 -0.07103464752435684 0.014519593678414822 -0.006059629842638969 -0.023095017299056053 -0.016883790493011475 -0.06288740783929825 0.054530367255210876 -0.022880688309669495 0.1462315320968628 -0.08556955307722092 0.004998018033802509 -0.04575447738170624 0.012057382613420486 0.08224920183420181 0.09244738519191742 -0.07723016291856766 -0.01959300972521305 -0.01910257898271084 0.016677698120474815 0.011864977888762951 -0.12849658727645874 -0.020403821021318436 -0.004282471723854542 -0.08520831167697906 -0.036404047161340714 0.04572450742125511 -0.09683739393949509 -0.05740674212574959 0.022965090349316597 -0.032818861305713654 -0.05714397504925728 -0.04455751180648804 0.005264300853013992 -0.048455219715833664 -0.00015305704437196255 0.06605655699968338 -0.11175237596035004 0.0485864132642746 0.19253212213516235 -0.07663442939519882 -0.12150269746780396 0.05176317319273949 -0.05701427161693573 0.03180493414402008 -0.03163573518395424 0.04545501992106438 0.07197470963001251 0.047628484666347504 0.019797680899500847 -0.002605000976473093 -0.08492770045995712 0.15050633251667023 0.054100655019283295 -0.03858979418873787 -0.1995893269777298 0.017107034102082253 0.04825039580464363 -0.062172699719667435 -0.030309299007058144 0.016646867617964745 0.05945006012916565 0.0702701136469841 -0.09340965002775192 -0.040805306285619736 0.11242493242025375 -0.09506303071975708 0.12723691761493683 0.09028305113315582 0.03229951858520508 -0.06358008831739426 0.09515593945980072 0.0528159998357296 -0.045707907527685165 -0.02049965038895607 0.05884057655930519 0.003876657225191593 -0.001386885647661984 0.03272474184632301 -0.046503737568855286 -0.07889775931835175 0.08751911669969559 -0.056672438979148865 0.008939091116189957 0.03478901460766792 -0.1917256861925125 0.16945046186447144 -0.09064216911792755 0.09092090278863907 0.001826768391765654 -0.004186607431620359 -0.1344091147184372 0.0018854342633858323 -0.06860028952360153 0.09349597245454788 0.03617898002266884 0.06812020391225815 0.014482376165688038 -0.023111682385206223 -0.05532996729016304 0.018791502341628075 
4 -0.26632025837898254 -0.3630189895629883 -0.08657389134168625 0.15206271409988403 0.00581902964040637 -0.004622588865458965 0.02699780836701393 0.10832507163286209 -0.2737354338169098 -0.035128526389598846 -0.016802838072180748 0.013725772500038147 0.2116478830575943 -0.01103245746344328 -0.022917157039046288 0.017421361058950424 0.28909435868263245 -0.026264216750860214 -0.010737640783190727 0.026362719014286995 -0.041841406375169754 0.12770047783851624 0.06205255910754204 0.2088845670223236 -0.05169209837913513 -0.11259908974170685 0.010039557702839375 -0.05443335324525833 -0.05396939441561699 -0.0857347920536995 -0.002929241629317403 -0.013757799752056599 0.10439178347587585 -0.04218394681811333 -0.0182854812592268 0.04002257063984871 0.0666971281170845 0.016048703342676163 -0.023288801312446594 -0.01409602165222168 -0.034175191074609756 0.005796445067971945 0.06506919860839844 -0.10768774151802063 0.06878695636987686 0.08019435405731201 -0.002890653209760785 0.007416020147502422 0.018301555886864662 -0.013294448144733906 0.0195623729377985 -0.08984731137752533 0.022056711837649345 0.022225134074687958 -0.022148719057440758 -0.020942093804478645 0.07618148624897003 0.0004124319239053875 0.008433153852820396 -0.09860854595899582 -0.025400714948773384 -0.03298602253198624 -0.0012769976165145636 -0.0013096423353999853 -0.10278821736574173 -0.03263648599386215 0.07834253460168839 -0.059248536825180054 -0.0574721023440361 -0.003174895653501153 -0.10484971851110458 -0.03281418979167938 0.015718048438429832 0.021431410685181618 0.005081135779619217 0.0318242684006691 0.01222564559429884 0.006441030651330948 0.05971032753586769 0.12278345227241516 -0.03345325216650963 -0.046411216259002686 -0.21138669550418854 0.007680571638047695 -0.00826042890548706 -0.04968841373920441 -0.02690976671874523 0.026360465213656425 -0.037810489535331726 0.10490898042917252 -0.06463537365198135 0.023804156109690666 0.026631411164999008 -0.11080306023359299 0.013820374384522438 0.025846103206276894 -0.004951545037329197 -0.030988235026597977 0.0034519792534410954 0.10970806330442429 -0.050677090883255005 0.016728032380342484 0.019916901364922523 -0.0008277069428004324 -0.04232166334986687 0.0253561120480299 -0.05697543919086456 -0.02221102826297283 0.04027069732546806 -0.08864150196313858 0.01057486142963171 0.01207930687814951 -0.010881043039262295 0.08554273098707199 0.015264799818396568 0.24034297466278076 0.04184184595942497 -0.049253497272729874 0.35251766443252563 -0.003039057832211256 -0.04316640645265579 0.024748951196670532 -0.041140273213386536 0.017147433012723923 0.030543111264705658 -0.023593654856085777 -0.014766879379749298 0.05715496093034744 
3 0.17952854931354523 -0.14171230792999268 -0.07434151321649551 0.25173527002334595 0.025657007470726967 -0.09466341882944107 0.0627283900976181 0.11176279187202454 -0.44245055317878723 -0.015006285160779953 0.05969651788473129 -0.04072481766343117 0.10439106076955795 0.057489145547151566 -0.03480624407529831 0.009073738008737564 0.13619081676006317 -0.04719235748052597 -0.046079497784376144 0.022189203649759293 -0.08398552983999252 -0.05950284004211426 -0.01930106058716774 0.17626939713954926 0.010957080870866776 -0.0006902231252752244 0.04078225418925285 -0.10421819984912872 -0.037348903715610504 0.1082412526011467 -0.043351300060749054 -0.07404908537864685 0.04309166222810745 0.05722401663661003 -0.07218289375305176 0.056671563535928726 -0.059720344841480255 0.029313955456018448 -0.0157015398144722 0.07003828883171082 -0.09513311088085175 -0.0167895145714283 0.023329731076955795 -0.12444768100976944 -0.02295786328613758 0.09427660703659058 0.005371766164898872 -0.0691632404923439 -0.04661434888839722 -0.058444783091545105 0.03798550367355347 0.07200399786233902 0.04604143276810646 0.062239740043878555 -0.08643322438001633 -0.03371774032711983 0.08727727085351944 0.06564222276210785 -0.021751301363110542 -0.14356882870197296 -0.07987568527460098 0.0006913226097822189 0.058013301342725754 0.0501156747341156 0.010107249952852726 -0.02260422520339489 0.07133012264966965 -0.04316632077097893 -0.09003773331642151 -0.060315102338790894 -0.12335433065891266 -0.05155136436223984 -0.04847642406821251 -0.042450129985809326 -0.08759529888629913 0.0004146370920352638 -0.057129014283418655 -0.08876541256904602 -0.0236586332321167 -0.09064333140850067 0.038094621151685715 -0.05437449365854263 -0.16763916611671448 -0.013892244547605515 -0.07204487919807434 -0.10966925323009491 -0.03515522927045822 0.08095334470272064 -0.005225229077041149 0.10944481939077377 -0.06597372144460678 0.0163850337266922 0.0981910303235054 0.04747740551829338 0.00770033523440361 0.038154713809490204 0.06286892294883728 -0.07187562435865402 0.042862143367528915 0.2459292858839035 -0.06329566240310669 0.07166896015405655 -0.09184372425079346 0.10464521497488022 0.08861866593360901 0.08639518171548843 -0.06610457599163055 -0.03789854794740677 0.07520586997270584 -0.01975790597498417 0.0417347215116024 0.07935241609811783 -0.2265150099992752 0.06360682845115662 0.024782661348581314 0.023562798276543617 0.04685737565159798 -0.05650557950139046 0.024548731744289398 0.09126030653715134 -0.06549115478992462 -0.006603718269616365 0.038145385682582855 0.08414261043071747 0.02615427039563656 -0.09486589580774307 0.06309075653553009 0.11600697040557861 
2 -0.05521443113684654 -0.06114480271935463 -0.05665341019630432 0.337442547082901 -0.08650319278240204 -0.024292899295687675 0.009881219826638699 0.0529613271355629 -0.2713509798049927 0.07926267385482788 0.04224443808197975 -0.0006575447623617947 0.07479937374591827 0.025148073211312294 -0.031234025955200195 -0.014566924422979355 -0.12040410190820694 -0.03659812733530998 0.005128713324666023 0.0488123819231987 -0.1126522570848465 -0.09108485281467438 -0.0037519449833780527 -0.040191616863012314 0.14733457565307617 0.12483614683151245 0.003983984235674143 -0.01520444080233574 -0.015768831595778465 0.028738632798194885 -0.004504665732383728 -0.02161652408540249 -0.2545042932033539 0.06724231690168381 -0.05148869380354881 -0.008612867444753647 -0.07008400559425354 0.015582195483148098 -0.03576250001788139 0.05124768987298012 -0.03619140014052391 0.01376041118055582 -0.01405063085258007 0.0020819981582462788 -0.08120037615299225 0.02128494158387184 0.05571402609348297 -0.08115167915821075 -0.04260522872209549 0.032022878527641296 -0.05177180841565132 0.05953165516257286 -0.04742562398314476 0.11511602252721786 0.01798354461789131 -0.05201907828450203 -0.01599956676363945 -0.014467747882008553 -0.031967900693416595 -0.0031153166200965643 -0.04441875219345093 -0.10029588639736176 0.0942847728729248 -0.03514838591217995 -0.06165644899010658 0.01909651607275009 0.14585429430007935 -0.07294102758169174 0.0328916572034359 -0.007980558089911938 -0.0016263504512608051 -0.1530824452638626 -0.011788795702159405 -0.022809632122516632 -0.08358834683895111 0.004145805723965168 0.002340892795473337 -0.10080631822347641 0.05106136575341225 -0.03904891014099121 0.1403929740190506 0.01416736003011465 0.011605902574956417 -0.08721085637807846 -0.06053920090198517 -0.1274920105934143 -0.0391416922211647 -0.03161177039146423 0.07710082828998566 -0.052266668528318405 -0.011728842742741108 0.04464055970311165 0.05447918921709061 -0.17589567601680756 0.3019467294216156 -0.0869864672422409 0.07057026028633118 -0.08036987483501434 -0.027549343183636665 0.3239925503730774 0.03386919945478439 0.022440334782004356 -0.05189444124698639 0.0333421416580677 0.1026531457901001 0.038678042590618134 -0.03616407886147499 0.04097966477274895 -0.015873657539486885 0.09977642446756363 0.06188366189599037 0.08280064165592194 -0.24229666590690613 -0.027402278035879135 0.005019120406359434 -0.027647798880934715 -0.011260021477937698 0.043412063270807266 0.09183361381292343 0.08655551075935364 -0.1057451143860817 -0.05825379863381386 0.009558567777276039 -0.016823939979076385 -0.07759672403335571 -0.1290397346019745 0.009718828834593296 -0.004176870454102755 
31 -0.49436771869659424 0.03241286426782608 0.1370328664779663 -0.1313789337873459 -0.016005292534828186 -0.04171352460980415 -0.16197089850902557 -0.011269805952906609 -0.04237734153866768 -0.044476449489593506 0.10009709000587463 -0.05381651967763901 0.035354290157556534 0.075670026242733 -0.05411914363503456 0.004053513053804636 -0.013700619339942932 -0.04398757964372635 0.10591059923171997 -0.017931895330548286 0.03836054727435112 0.13642792403697968 -0.11299945414066315 0.026377107948064804 0.02526268921792507 0.12134679406881332 -0.15367595851421356 -0.06416565924882889 0.10673768818378448 0.11176826804876328 0.09179241955280304 0.015059529803693295 0.2713155448436737 -0.00429616030305624 -0.02615790255367756 0.02301427721977234 -0.05666278675198555 -0.09947467595338821 0.02495577000081539 -0.061871279031038284 0.00400681933388114 -0.09370163828134537 -0.035316262394189835 -0.028450671583414078 -0.021941957995295525 0.053950387984514236 -0.032605502754449844 0.15767839550971985 0.07998164743185043 -0.0359761007130146 -0.043459244072437286 0.05681847408413887 -0.011638766154646873 -0.013425714336335659 0.07223423570394516 -0.0224645733833313 -0.09301787614822388 0.026904454454779625 0.007242720574140549 -0.0008699172758497298 0.013202916830778122 -0.03180231153964996 -0.08217298984527588 -0.03551062196493149 0.002732614055275917 0.065340556204319 0.011875343509018421 0.03120589815080166 -0.031107386574149132 -0.07643905282020569 -0.1212150901556015 -0.019785156473517418 0.00026679987786337733 -0.00043174935854040086 0.0583239309489727 -0.08280729502439499 -0.035653360188007355 0.0778307095170021 -0.0011596567928791046 0.06850346177816391 -0.034317921847105026 0.10474687814712524 0.08411348611116409 0.17723838984966278 -0.048784587532281876 -0.009511332027614117 -0.037705324590206146 0.005573061294853687 -0.0030103232711553574 0.043545085936784744 0.07075916975736618 0.016350021585822105 0.11790990084409714 -0.08232393860816956 -0.3267946243286133 -0.013286510482430458 0.06124567613005638 0.06988123059272766 -0.07059776782989502 -0.012798651121556759 0.011535274796187878 0.026595473289489746 -0.0451446995139122 0.035656340420246124 0.022321702912449837 0.033786140382289886 0.056686803698539734 0.13483668863773346 0.06948594003915787 0.08287306129932404 -0.0841149091720581 0.02226005494594574 0.12689362466335297 -0.014430694282054901 0.1330050528049469 -9.676885383669287e-05 -0.051658451557159424 0.004991630092263222 0.08518682420253754 0.05903598293662071 0.09822874516248703 -0.06481210887432098 -0.053902652114629745 0.0027775464113801718 -0.024955792352557182 -0.03450760990381241 0.03474346175789833 0.06510283052921295 
10 -0.28833335638046265 0.08464774489402771 -0.03322960063815117 -0.41311973333358765 0.007636826951056719 -0.06225406751036644 0.06257273256778717 -0.03086162731051445 0.27822640538215637 -0.033611517399549484 0.05747484043240547 -0.055615540593862534 0.07082980126142502 0.10513104498386383 -0.011373245157301426 0.01128353551030159 -0.05722146853804588 0.0034110192209482193 -0.038962848484516144 -0.05172757804393768 -0.032896775752305984 0.05663307383656502 -0.06994170695543289 -0.07124302536249161 -0.049512334167957306 -0.018448814749717712 0.03052332065999508 -0.06405023485422134 0.04881312698125839 0.037088703364133835 -0.05454828590154648 0.03399691358208656 0.14235267043113708 -0.08114384859800339 -0.07359049469232559 0.03384077548980713 0.025091100484132767 0.10481873154640198 0.051089003682136536 0.03294898197054863 -0.012063778005540371 -0.04055431857705116 -0.06160251796245575 0.0093823978677392 0.006393273361027241 0.07679527997970581 -0.03935031592845917 0.0032973606139421463 0.051323022693395615 -0.044445138424634933 0.0625763088464737 0.06436300277709961 0.06828689575195312 -0.02383887767791748 -0.0414714552462101 0.09885524958372116 0.040521472692489624 0.10115441679954529 -0.012076267041265965 0.08818275481462479 -0.03507448360323906 0.1438164860010147 -0.00563595537096262 0.1389504224061966 -0.14077141880989075 -0.0333096869289875 0.12664452195167542 0.08917352557182312 -0.003811496775597334 -0.048395268619060516 0.02683090791106224 -0.07423937320709229 -0.03597058728337288 -0.05127032473683357 -0.03629118204116821 -0.042880766093730927 -0.046251364052295685 -0.03106408379971981 0.044984884560108185 -0.011611043475568295 0.09208109974861145 -0.06289301812648773 0.03667152673006058 0.0396399199962616 -0.07238543778657913 0.019126102328300476 0.015476562082767487 -0.009930748492479324 -0.09035007655620575 0.12270200997591019 -0.008316020481288433 -0.020193861797451973 0.033081550151109695 -0.057347141206264496 0.10271898657083511 0.0026020004879683256 -0.0408569797873497 -0.005903789307922125 0.08696353435516357 -0.09347345679998398 0.0035838212352246046 0.023000305518507957 -0.04635407403111458 0.04668111726641655 0.05134465917944908 0.03469179943203926 0.0011715157888829708 -0.1062106192111969 -0.02741323597729206 -0.05066128075122833 0.03449619188904762 -0.0006440877914428711 -0.015829190611839294 -0.07241196930408478 0.019294966012239456 0.17620863020420074 0.031456053256988525 -0.004423579201102257 0.46500080823898315 0.03285225108265877 -0.050702374428510666 -0.05096346512436867 0.0509721077978611 -0.00869737844914198 0.001079683075658977 0.00828876718878746 0.04644937068223953 0.0670660212635994 
33 -0.321645587682724 0.004406314343214035 -0.006924821063876152 0.03006814420223236 -0.039308883249759674 -0.03742621839046478 0.06855253875255585 -0.03367505595088005 0.027031127363443375 0.07653006911277771 0.04395069554448128 0.04086528718471527 0.013374734669923782 -0.03486436605453491 0.03297705948352814 0.00250779720954597 -0.07613226771354675 -0.07606804370880127 -0.0008908204617910087 0.013963551260530949 -0.03435438126325607 -0.04343969747424126 0.010381647385656834 -0.08256424218416214 0.0797601267695427 0.050571735948324203 0.04226159304380417 0.04665699601173401 -0.003189707174897194 -0.05000723898410797 -0.09255190938711166 0.026896297931671143 -0.24701377749443054 0.08671803027391434 -0.02820131927728653 -0.01885824464261532 -0.0420512817800045 0.03225696086883545 -0.02609575167298317 0.050413500517606735 -0.03120006062090397 0.014017976820468903 0.06638247519731522 -0.009931521490216255 -0.07979925721883774 -0.07511978596448898 0.050510574132204056 -0.09245036542415619 -0.05897102132439613 0.036412086337804794 -0.06094251945614815 0.07458744943141937 -0.06025499850511551 0.11184653639793396 0.029474450275301933 -0.013841775245964527 -0.022789960727095604 0.03631933778524399 -0.07663591206073761 -0.009296974167227745 0.04260842874646187 -0.044072225689888 0.09979601949453354 -0.012630023062229156 -0.006723874714225531 -0.012263897806406021 0.07429210096597672 -0.08592168241739273 -0.0003160399792250246 -0.007490314077585936 0.049919046461582184 -0.060830991715192795 0.012954842299222946 -0.04326874390244484 -0.0687461644411087 0.011498531326651573 0.04291505739092827 -0.07923030853271484 -0.0018268413841724396 0.12345807999372482 0.06564225256443024 0.021734507754445076 0.0009016952244564891 -0.09342563897371292 -0.0369659960269928 0.022060714662075043 -0.015304775908589363 -0.01596745476126671 0.07088655233383179 -0.1301356703042984 0.016849180683493614 0.007704275660216808 -0.03664510324597359 -0.5460411906242371 0.22963553667068481 -0.0938095897436142 0.0042413887567818165 -0.11108792573213577 -0.009718118235468864 0.06620625406503677 0.060683783143758774 -0.057252999395132065 -0.07050377130508423 0.07919300347566605 0.05746809020638466 -0.051774438470602036 0.014558624476194382 -0.01662314496934414 0.015418156050145626 0.060049157589673996 0.03419637307524681 0.027122337371110916 -0.20466037094593048 -0.008214237168431282 -0.0572580024600029 -0.07156442105770111 -0.008419779129326344 0.08425651490688324 0.2802106738090515 0.07101142406463623 -0.11378881335258484 -0.012059793807566166 0.043981097638607025 0.0169693473726511 -0.08585688471794128 -0.08998037874698639 -0.04610254615545273 -0.012313662096858025 
29 -0.08033321052789688 -0.2192699909210205 0.07989636808633804 0.31911802291870117 -0.10317417979240417 0.044409289956092834 -0.05639498308300972 -0.008623821660876274 -0.2148614078760147 -0.02765480987727642 0.026763929054141045 0.06263570487499237 -0.02500796876847744 -0.03160379081964493 0.009093649685382843 -0.054902467876672745 0.15546153485774994 0.07361312955617905 0.07131068408489227 0.04502372071146965 0.06441294401884079 0.27947041392326355 0.0015854225493967533 0.02466382458806038 0.019852755591273308 -0.0136843491345644 -0.08329369127750397 0.08792207390069962 -0.0635542944073677 -0.01942979358136654 -0.03613295406103134 0.008167872205376625 -0.025605568662285805 0.04081026837229729 0.1583261340856552 -0.023008335381746292 0.007516400422900915 -0.05106320604681969 -0.04541642218828201 -0.06359651684761047 -0.033528462052345276 -0.037839125841856 -0.030030354857444763 0.05510720610618591 0.03165413439273834 0.029764870181679726 -0.09783092141151428 -0.01238043699413538 -0.054737746715545654 0.03401075303554535 0.006333732046186924 -0.03709287941455841 -0.02108621597290039 -0.05139460042119026 0.08944852650165558 -0.07617831975221634 -0.017810458317399025 -0.02567804604768753 0.03989991545677185 -0.07356783002614975 -0.024348344653844833 -0.15225210785865784 0.0218217670917511 -0.06371103227138519 0.052545808255672455 -0.031700607389211655 -0.09763289988040924 -0.028138818219304085 -0.02599911205470562 -0.08998515456914902 -0.006551493890583515 0.016288746148347855 0.017596201971173286 -0.01527674775570631 0.08474285155534744 -0.05009288713335991 -0.02411177009344101 0.08728203177452087 0.10130918771028519 0.12972818315029144 -0.18135656416416168 0.06132053956389427 -0.03389560431241989 -0.04509548842906952 -0.02845042571425438 -0.02560703083872795 -0.09752936661243439 0.09227602928876877 -0.01048094592988491 -0.1169702410697937 0.017373045906424522 0.0443410761654377 -0.028331710025668144 -0.1912095993757248 -0.27368730306625366 0.04092675819993019 0.014147291891276836 0.08455386012792587 0.008811836130917072 -0.030090775340795517 0.06976351886987686 0.00519106350839138 0.07293219119310379 0.008424472063779831 0.04357795789837837 0.013288160786032677 0.05576781928539276 0.09332256764173508 0.0027798565570265055 0.10211552679538727 0.014437684789299965 -0.04232804477214813 0.16468538343906403 -0.0064688753336668015 0.06792797148227692 -0.04992545023560524 0.035912394523620605 0.012409040704369545 0.3691883087158203 -0.031234903261065483 -0.03657955676317215 -0.018905017524957657 0.016003595665097237 -0.12338745594024658 1.8426684619043954e-05 0.09588772803544998 0.0035154521465301514 -0.09270446747541428 
28 -0.20641179382801056 0.07913511246442795 -0.05109747499227524 0.10649790614843369 -0.0124244699254632 -0.05389925092458725 -0.1726827621459961 -0.07020343840122223 -0.08595117181539536 0.006631206255406141 0.053026892244815826 -0.07706843316555023 -0.08498746156692505 0.11433414369821548 -0.12619005143642426 0.03868778049945831 -0.11363832652568817 0.09984587132930756 0.15179161727428436 0.03965769708156586 0.02236008085310459 -0.1212872564792633 -0.17329861223697662 0.0010706315515562892 0.07522731274366379 0.194636732339859 -0.09614329785108566 -0.1074577271938324 0.07967280596494675 0.10254349559545517 0.07620952278375626 -0.09265809506177902 0.05711675435304642 0.004830590449273586 -0.041489627212285995 0.011470668017864227 -0.07951553165912628 -0.05097442492842674 -0.0020785252563655376 -0.1188511922955513 0.07551290839910507 -0.052796412259340286 -0.1183730885386467 -0.004678013734519482 0.010657566599547863 0.03461281955242157 0.02022564597427845 0.20933589339256287 0.023647641763091087 -0.10268140584230423 -0.09891722351312637 0.06373053789138794 0.039885763078927994 -0.10500927269458771 -0.06729208678007126 0.025318771600723267 -0.09022055566310883 0.0465010404586792 0.1706247329711914 0.029674069955945015 -0.04549957811832428 0.06997416913509369 -0.07806747406721115 0.04197282716631889 0.06918512284755707 0.11674779653549194 -0.07386447489261627 0.03166191652417183 -0.04377279058098793 -0.13200905919075012 -0.12470243126153946 -0.050592295825481415 0.007335833739489317 0.026380974799394608 0.14096857607364655 -0.06777485460042953 -0.06646270304918289 0.038657911121845245 0.11651071906089783 -0.07795828580856323 0.04282195121049881 0.07091258466243744 0.14756572246551514 0.23008038103580475 0.008748549036681652 -0.04242022708058357 -0.07913032919168472 0.05840003862977028 -0.009357963688671589 -0.07751992344856262 0.04410276561975479 0.02857370488345623 0.07293274253606796 -0.05285898596048355 -0.08925385028123856 0.12262893468141556 0.10067678242921829 0.1583498865365982 0.009615042246878147 0.06934817880392075 -0.07152248919010162 0.05614669248461723 0.0074009341187775135 -0.012378687970340252 0.020660400390625 0.09169774502515793 -0.0018269710708409548 0.02623223327100277 -0.032316867262125015 0.16601034998893738 -0.07768667489290237 0.05429539456963539 0.13318100571632385 0.06674928963184357 0.10422466695308685 -0.0324927493929863 0.009483058005571365 -0.014562535099685192 -0.15472085773944855 0.05061836168169975 0.12906675040721893 -0.029224950820207596 -0.16371074318885803 -0.026369186118245125 0.02672675997018814 0.06061471998691559 0.09898103028535843 -0.031882937997579575 
17 0.30333560705184937 0.13978491723537445 -0.025316715240478516 -0.14013071358203888 -0.05387891083955765 0.01844670996069908 0.00801481120288372 0.056791454553604126 0.23870719969272614 -0.011517824605107307 0.06637512147426605 -0.019014393910765648 0.08307342976331711 -0.11190714687108994 0.11372765153646469 -0.028332756832242012 -0.027311956509947777 0.04807927832007408 -0.0940680205821991 0.04282005503773689 0.05273579806089401 0.0032297675497829914 0.028556713834404945 -0.04140213131904602 -0.026142235845327377 -0.08239258825778961 -0.10206969827413559 0.1494777351617813 0.020674483850598335 -0.046988505870103836 -0.06751234829425812 -0.053474199026823044 -0.12786413729190826 0.11513363569974899 0.06621168553829193 -0.013650039210915565 0.027466358616948128 -0.00923787709325552 -0.019454428926110268 0.07580840587615967 -0.11495540291070938 -0.027999069541692734 0.011889999732375145 -0.013179521076381207 0.019555259495973587 -0.052882932126522064 -0.14906685054302216 -0.16890975832939148 -0.013269130140542984 0.017096547409892082 0.047317419201135635 0.016124127432703972 0.006163220852613449 -0.013328257948160172 0.0065688639879226685 -0.0844055563211441 0.020134204998612404 -6.021814260748215e-05 -0.046803947538137436 -0.013296665623784065 -0.029740186408162117 -0.09870320558547974 0.0631854459643364 -0.10719404369592667 0.013237252831459045 -0.14686107635498047 0.040732599794864655 -0.09538056701421738 -0.0538424551486969 0.015125058591365814 0.09011133760213852 -0.005880026146769524 -0.0116495406255126 -0.10710031539201736 -0.07343392074108124 -0.05278637632727623 -0.0633108839392662 0.026680603623390198 0.14688414335250854 -0.11181145161390305 0.011511476710438728 0.08017268031835556 -0.030040068551898003 -0.190092533826828 -0.05943063274025917 -0.004626772832125425 -0.022955577820539474 0.11496593058109283 -0.007471863180398941 -0.007134023122489452 0.050506796687841415 0.12877584993839264 -0.01811816170811653 0.36150428652763367 0.06773491203784943 -0.008447075262665749 -0.13398931920528412 -0.02156495675444603 -0.048583582043647766 -0.13849222660064697 -0.035239119082689285 0.013748356141149998 -0.09449721872806549 0.06402426958084106 -0.018567165359854698 -0.02767845056951046 0.0491180457174778 0.0929790586233139 0.03434659540653229 -0.07408400624990463 -0.03856838494539261 -0.12999367713928223 -0.0018603296484798193 0.0947083979845047 -0.015902165323495865 -0.08373846858739853 0.004676538053900003 -0.030580300837755203 -0.31076204776763916 0.003510011127218604 -0.04680947959423065 0.028861593455076218 0.06667538732290268 -0.038665901869535446 0.09092774242162704 0.08351645618677139 0.01707983948290348 -0.02314942516386509 
34 -0.4044358730316162 0.03201010823249817 0.03129275515675545 -0.48911482095718384 0.0658002644777298 -0.019748903810977936 0.00041815402801148593 0.0046926382929086685 0.2484339028596878 -0.00036614987766370177 -0.020096534863114357 0.015309637412428856 0.13572445511817932 -0.02287757210433483 0.02415505424141884 0.015496883541345596 0.0721714124083519 -0.0612771101295948 -0.013765216805040836 -0.02805250883102417 0.001163298962637782 0.020414844155311584 0.04802300035953522 0.0321415476500988 -0.06653479486703873 -0.03822456672787666 0.021746426820755005 -0.02777778171002865 0.027602622285485268 -0.04115414246916771 0.029799629002809525 0.04878857731819153 0.2680016756057739 -0.043986231088638306 -0.07300186157226562 0.021668456494808197 0.00782321859151125 0.016309861093759537 0.019567318260669708 -0.010001909919083118 0.021802807226777077 -0.013358755968511105 0.016756806522607803 -0.045861970633268356 0.006083349231630564 -0.032595403492450714 0.02813565358519554 0.01683102175593376 0.0921928659081459 0.017234759405255318 -0.02017596736550331 -0.034083716571331024 -0.007699417416006327 0.038993414491415024 0.04672101512551308 0.02929527498781681 -0.025163013488054276 0.03497820347547531 -0.03881162032485008 0.025851335376501083 0.05619727447628975 0.019953571259975433 -0.037367723882198334 0.009528717957437038 -0.08024635165929794 0.003165719797834754 0.11787213385105133 0.005867932923138142 0.01404900848865509 0.05853243172168732 -0.015469695441424847 0.04268091544508934 0.0047616856172680855 0.014794504269957542 -0.003091691294685006 0.0359339565038681 0.054603200405836105 -0.002507173689082265 -0.038150638341903687 0.14586935937404633 0.047125592827796936 0.010555270127952099 0.004335761535912752 0.03594767302274704 0.018383847549557686 0.07234589755535126 0.046513114124536514 -0.055320944637060165 -0.011827986687421799 0.1449110507965088 -0.01874161884188652 -0.024725379422307014 0.04523944482207298 -0.1842663735151291 -0.014399182051420212 -0.054124973714351654 -0.029483623802661896 -0.04860229045152664 -0.023131294175982475 -0.1223987564444542 0.009391932748258114 -0.052037313580513 -0.007858906872570515 -0.020250344648957253 -0.0749717503786087 -0.056220538914203644 -0.0060884240083396435 -0.026259833946824074 0.0043543865904212 -0.07868950068950653 -0.013894084841012955 0.006326114293187857 -0.04418405890464783 -0.03198300302028656 0.012424108572304249 0.17876535654067993 -0.004548828117549419 0.04416830837726593 0.3851587772369385 -0.022396450862288475 -0.020116450265049934 0.020128488540649414 0.0019178756047040224 0.07638859003782272 -0.0661487802863121 -0.022085782140493393 -0.06810783594846725 0.055687449872493744 
15 -0.019747579470276833 -0.10120674967765808 -0.003709858749061823 0.09991154819726944 0.09700190275907516 0.04632972553372383 0.08278838545084 0.09659314900636673 -0.2182348221540451 0.03218847140669823 -0.05014725401997566 0.08082851767539978 0.16508439183235168 -0.07430802285671234 -0.14302271604537964 -0.05983496084809303 0.20175467431545258 -0.12707147002220154 0.09000682830810547 0.11656395345926285 -0.11744064092636108 -0.0025478610768914223 0.12286850810050964 0.11864421516656876 -0.03929131478071213 -0.05017529055476189 0.08836309611797333 -0.0776340514421463 -0.1310899555683136 -0.05496904253959656 0.01064376626163721 -0.0007536309421993792 -0.13133256137371063 -0.03852740302681923 0.07364147156476974 -0.022636206820607185 0.07777450233697891 -0.06287045031785965 -0.042986270040273666 -0.08471959829330444 -0.05586889758706093 0.15032029151916504 0.14827615022659302 -0.024701721966266632 -0.03392490744590759 0.04504644498229027 0.07058126479387283 -0.06773519515991211 -0.20232193171977997 -0.01569908857345581 -0.033527251332998276 -0.08667796105146408 0.0045571355149149895 0.10025452822446823 -0.04961131885647774 -0.11954254657030106 0.05665260925889015 -0.107341468334198 -0.044509876519441605 -0.05401911586523056 -0.023198071867227554 -0.16408582031726837 0.014653598889708519 0.012806540355086327 -0.056101735681295395 0.04887881875038147 0.036536116153001785 -0.1776384860277176 -0.09757278859615326 -0.09497503191232681 -0.05717833340167999 0.06245683133602142 -0.07193093001842499 0.09851723909378052 -0.0032324751373380423 0.09651023894548416 0.07356332987546921 -0.04333323985338211 -0.04463086649775505 0.008013257756829262 -0.1010989099740982 -0.06454291194677353 -0.15336476266384125 -0.0366162434220314 0.05324692279100418 -0.12935759127140045 -0.05258757248520851 -0.0002013967023231089 0.08834444731473923 0.052500929683446884 -0.1262349933385849 -0.019966552034020424 -0.07622890174388885 -0.1427796483039856 -0.13571178913116455 0.05564514175057411 0.07444114983081818 -0.0912831649184227 0.07193723320960999 -0.07128071784973145 -0.029876869171857834 0.057839564979076385 0.05936061963438988 -0.04240689054131508 -0.007365426514297724 0.016089027747511864 -0.13658341765403748 -0.053850430995225906 0.051482561975717545 -0.07759087532758713 0.10229235142469406 0.05827454477548599 -0.13461321592330933 0.2551886737346649 -0.09493644535541534 -0.02037338726222515 0.08904475718736649 0.009861763566732407 -0.013515741564333439 0.013897509314119816 -0.1403832882642746 0.08921175450086594 -0.014608626253902912 0.010704458691179752 -0.009008824825286865 -0.08569984138011932 -0.0015588684473186731 -0.007166426628828049 
16 -0.12850572168827057 0.21810229122638702 0.046278610825538635 -0.4914892911911011 0.0990210548043251 -0.005500795319676399 0.05506323650479317 0.015127069316804409 0.47830435633659363 0.018243074417114258 -0.028720002621412277 0.003042249009013176 0.07252917438745499 0.020212888717651367 -0.03439399227499962 -0.027446871623396873 -0.04144108295440674 -0.03855358809232712 -0.009742038324475288 -0.018707089126110077 -0.04146568477153778 -0.0191024262458086 0.02734154649078846 -0.10020975023508072 -0.10720100998878479 0.031012210994958878 0.06287012249231339 -0.055063627660274506 -0.0462859645485878 0.05268028378486633 0.017868513241410255 -0.007852110080420971 0.15006119012832642 -0.08520949631929398 -0.033690568059682846 0.016841070726513863 0.024153046309947968 0.045899648219347 0.06556402146816254 -0.02917087823152542 0.025644635781645775 0.012464762665331364 -0.029478644952178 0.10230519622564316 0.015070135705173016 0.02219335176050663 0.05313361436128616 -0.04437556490302086 -0.006940620020031929 -0.0025829903315752745 0.016733666881918907 -0.024913491681218147 0.0120002506300807 0.01955527998507023 -0.003057796973735094 0.047415588051080704 0.02262021228671074 0.05436164140701294 -0.039446618407964706 0.16133344173431396 -0.058927565813064575 0.04767540469765663 -0.05060102045536041 0.07054123282432556 -0.08464433252811432 -0.024974079802632332 0.032518450170755386 0.035728294402360916 0.08824336528778076 -0.01994139514863491 0.08056198805570602 0.07596372812986374 -0.033217981457710266 0.03851833567023277 0.019221263006329536 0.03310934454202652 0.014993992634117603 -0.03399701043963432 -2.0476009012782015e-05 0.036180559545755386 0.035736095160245895 -0.036846235394477844 0.1792851984500885 0.024950027465820312 0.04520824924111366 -0.03032846935093403 0.0561123788356781 -0.015821421518921852 -0.03874903544783592 0.12550537288188934 -0.05831841006875038 -0.08491721749305725 -0.012092300690710545 -0.012451224960386753 -0.1861678510904312 0.010807915590703487 0.039438311010599136 -0.04458638280630112 0.06089004874229431 -0.2662171423435211 0.009814068675041199 0.0113393384963274 0.017491308972239494 -0.01933753676712513 -0.005124937277287245 -0.0022031781263649464 -0.041399724781513214 -0.06801732629537582 -0.0903778076171875 -0.14718206226825714 0.05456944927573204 0.05646996572613716 0.07737809419631958 -0.025059938430786133 -0.049331218004226685 0.02109174057841301 0.038573458790779114 0.0038415698800235987 -0.021090807393193245 -0.03553745523095131 -0.03574414551258087 0.052905723452568054 0.025356287136673927 0.10625652968883514 -0.03024640679359436 -0.029136046767234802 0.00027014740044251084 0.04064253345131874 
19 0.24588161706924438 -0.14139121770858765 -0.048320621252059937 0.2790239155292511 0.04004090651869774 -0.003104741219431162 0.022444147616624832 0.009127938188612461 -0.4753894507884979 -0.07458948343992233 0.02118469960987568 -0.01334130298346281 0.01909974031150341 0.029365288093686104 0.017732057720422745 0.004006686620414257 0.12336303293704987 0.008043261244893074 0.02791537530720234 0.02098906598985195 0.015728754922747612 -0.10882047563791275 -0.04963703826069832 0.15355409681797028 0.061550572514534 0.030165398493409157 -0.0016431799158453941 -0.0069415383040905 0.0348614938557148 0.10262882709503174 0.01679803431034088 -0.01847177930176258 0.06107090041041374 0.04160827025771141 0.023622659966349602 -0.015169475227594376 -0.07927899062633514 0.02556639537215233 0.019377920776605606 0.028666725382208824 -0.026879703626036644 0.020224392414093018 9.06574641703628e-05 -0.09452556818723679 -0.031371261924505234 0.012851493433117867 -0.02297789230942726 -0.042733658105134964 0.03406280279159546 -0.0466734915971756 -0.0574365109205246 0.04231080412864685 0.04107601195573807 -0.019271399825811386 -0.05309015512466431 0.019196489825844765 0.011508759111166 0.017451826483011246 0.008253327570855618 -0.13846012949943542 -0.008880804292857647 0.06379839032888412 -0.009090259671211243 0.030561044812202454 0.07339202612638474 -0.014068747870624065 0.05808527395129204 -0.04032435268163681 -0.024768883362412453 -0.11222124099731445 -0.08094696700572968 -0.08709197491407394 -0.009074722416698933 0.001982295187190175 -0.02498127892613411 -0.01346817146986723 -0.02986721135675907 -0.02329329587519169 0.021717378869652748 -0.1435636281967163 0.14150522649288177 -0.04604203626513481 -0.09182359278202057 -0.04122116416692734 -0.03328045457601547 -0.038490600883960724 -0.011060676537454128 0.07235527783632278 -0.014297714456915855 0.10275618731975555 -0.0007615987560711801 0.017276322469115257 0.128310889005661 0.19626286625862122 0.14834275841712952 0.0291766207665205 0.016794659197330475 0.009568393230438232 0.01859770342707634 0.31817662715911865 -0.005230558570474386 0.042188894003629684 -0.03684039041399956 0.0573992095887661 0.05584042891860008 0.04706563428044319 -0.02557254582643509 -0.005780871491879225 -0.009809919632971287 -0.015005655586719513 -0.0031731361523270607 0.025656741112470627 -0.33396267890930176 0.15243138372898102 0.04505079239606857 -0.034944117069244385 0.013776334933936596 -0.021044563502073288 -0.07802728563547134 0.038327403366565704 -0.015177959576249123 -0.02463921159505844 -0.00928809680044651 0.08123641461133957 0.03586163744330406 -0.02680101804435253 0.05625562742352486 -0.02018008753657341 
21 0.2023196816444397 -0.07745206356048584 0.04737098887562752 0.31345823407173157 -0.017789503559470177 -0.1381521224975586 -0.10099458694458008 0.04039645567536354 -0.36833786964416504 0.03721204400062561 0.0755874514579773 -0.08799216896295547 -0.018845725804567337 0.08854037523269653 0.020771758630871773 0.061896130442619324 -0.08334711939096451 -0.044570520520210266 0.015221048146486282 -0.05478672310709953 -0.04093308746814728 0.02512652426958084 -0.11676213890314102 0.030466262251138687 0.0536307692527771 0.18639616668224335 -0.08872498571872711 -0.07231942564249039 0.10506792366504669 0.0914190262556076 0.038798727095127106 -0.03797006234526634 -0.0703829750418663 -0.03828761354088783 -0.12925006449222565 0.06733293831348419 -0.03036423772573471 -0.11658602207899094 -0.01901358738541603 0.03095456399023533 -0.03377695754170418 -0.10764217376708984 0.08257154375314713 -0.04049506410956383 -0.06185823678970337 0.06158600375056267 -0.018840312957763672 0.0892908051609993 -0.04331354424357414 -0.04473971202969551 -0.013690966181457043 0.12475860863924026 -0.007689285092055798 0.0013435744913294911 0.008405725471675396 -0.03946147486567497 -0.046671975404024124 0.03515829145908356 -0.1311609297990799 -0.03167314827442169 0.04217574745416641 -0.07310463488101959 -0.07977087050676346 -0.06101791933178902 -0.013214170932769775 0.08708114176988602 -0.018185583874583244 0.04719100892543793 -0.07028552144765854 0.03050408698618412 -0.09113417565822601 -0.007079543080180883 -0.062173422425985336 -0.030592169612646103 -0.033777978271245956 -0.028286149725317955 -0.0406653955578804 -0.030120305716991425 0.03594264015555382 -0.13190500438213348 0.012348589487373829 0.08433937281370163 -0.06976965069770813 0.08367975801229477 -0.048474669456481934 -0.008190746419131756 0.046187590807676315 -0.05800554156303406 0.025705447420477867 -0.01401110365986824 0.014393133111298084 -0.012356662191450596 0.1441945880651474 0.15138541162014008 0.02945488505065441 -0.036988306790590286 0.056303463876247406 0.007035672198981047 -0.09368967264890671 0.29188406467437744 0.01179753988981247 0.031016703695058823 -0.12493234872817993 0.07132815569639206 0.0710998997092247 0.02298516221344471 0.014678399078547955 0.13010123372077942 0.13691270351409912 0.05152721330523491 -0.10518914461135864 0.017679482698440552 -0.10632344335317612 -0.10026901215314865 0.038254156708717346 -0.03269322216510773 -0.0810808390378952 -0.0494532473385334 -0.19132672250270844 0.042208198457956314 0.15437424182891846 -0.028772754594683647 -0.05195750296115875 0.053674064576625824 0.05351373180747032 -0.045918162912130356 0.02529885061085224 0.08423351496458054 
23 0.17009934782981873 -0.12995795905590057 0.015201421454548836 0.21936799585819244 0.009925877675414085 -0.1263328492641449 -0.12103209644556046 0.07998043298721313 -0.3562242388725281 -0.1074550524353981 0.1100328341126442 -0.10551033169031143 0.1096913293004036 0.07731977850198746 0.012532527558505535 0.017399661242961884 0.05285727232694626 0.031214121729135513 -0.039297766983509064 -0.08432018011808395 -0.0028977475594729185 0.02418201044201851 -0.11916031688451767 0.07837843149900436 0.004548124503344297 0.15118567645549774 -0.11140477657318115 -0.04458289593458176 0.11452242732048035 0.1277647465467453 0.10467749089002609 -0.02832857519388199 0.1074192076921463 -0.0516655333340168 -0.05184659734368324 0.08789133280515671 -0.05119858309626579 -0.09512046724557877 0.0760699212551117 0.06938943266868591 -0.08896678686141968 -0.092644602060318 -0.07498245686292648 -0.03481554612517357 -0.023574888706207275 0.09634550660848618 -0.0699499323964119 0.02454647608101368 0.027712590992450714 -0.010247156955301762 0.04440365359187126 0.1267510950565338 -0.018726283684372902 -0.03385697677731514 -0.05266131833195686 -0.045231159776449203 0.004839558154344559 -0.007800135295838118 0.010011536069214344 -0.017287015914916992 0.013315536081790924 0.019872665405273438 -0.12037163972854614 -0.08061788231134415 -0.04281143471598625 0.05456814914941788 0.12004014849662781 0.09308728575706482 -0.05525384098291397 0.0019159445073455572 -0.08859279006719589 -0.14760181307792664 0.01472507044672966 -0.018388895317912102 -0.023443296551704407 -0.08521805703639984 -0.07588928937911987 0.020680416375398636 0.06084446609020233 -0.10705544054508209 0.1021198034286499 0.004150336608290672 -0.016153205186128616 0.07917533069849014 -0.07813560217618942 -0.0780084878206253 0.02951136976480484 0.010159606114029884 0.02015385963022709 0.09482207894325256 0.04010729864239693 0.026910360902547836 0.1683722883462906 0.0566011480987072 0.0629306361079216 0.04616281017661095 0.024159448221325874 0.07869605720043182 -0.09659240394830704 0.2735033929347992 -0.039938002824783325 0.107060506939888 -0.13609664142131805 0.08719988912343979 0.0966358631849289 0.08529303222894669 0.05718746408820152 0.10043849796056747 0.04368232563138008 -0.003881242824718356 -0.05087434500455856 0.013780779205262661 -0.17123626172542572 -0.06931924819946289 0.015068494714796543 0.012317934073507786 -0.08635085076093674 -0.0833657830953598 0.021937940269708633 0.07869124412536621 0.14085793495178223 -0.06325223296880722 0.048108842223882675 0.09804728627204895 0.03858000785112381 -0.004433894995599985 0.0750042200088501 0.10412044078111649 
24 0.40098050236701965 -0.007839848287403584 -0.031064851209521294 -0.002524660900235176 -0.02977324090898037 0.0013943719677627087 -0.013823669403791428 0.0371045283973217 0.14560210704803467 -0.0021195486187934875 0.01415740605443716 0.02869780920445919 -0.08179833739995956 -0.0618245005607605 0.05200287327170372 0.057819921523332596 -0.030268656089901924 -0.014247260056436062 0.028993697836995125 -0.05704968422651291 0.056462060660123825 -0.038180433213710785 9.336383664049208e-05 0.030441030859947205 0.042453061789274216 -0.03227711096405983 -0.006054177414625883 0.019452564418315887 0.017520524561405182 -0.06848938763141632 -0.004471887834370136 -0.04434685409069061 -0.09468685835599899 -0.09197073429822922 -0.011727011762559414 0.07505619525909424 0.03035942278802395 -0.026580285280942917 -0.07089652866125107 0.044062044471502304 0.03725658729672432 -0.047701265662908554 0.028778668493032455 -0.033846549689769745 4.89475169160869e-05 0.012893999926745892 0.0018579683965072036 0.06825647503137589 0.04395962879061699 0.0037848311476409435 -0.00864320620894432 0.009322640486061573 -0.009464552626013756 0.011771561577916145 -0.0038661514408886433 -0.009100119583308697 -0.012117435224354267 -0.013346758671104908 0.07315894216299057 0.024558719247579575 -0.006217147223651409 0.004228805657476187 -0.021864373236894608 -0.004364627413451672 -0.014040594920516014 0.012336185202002525 -0.09921317547559738 0.015250607393682003 -0.009378577582538128 0.08263679593801498 -0.03232382610440254 0.047775156795978546 0.07567465305328369 -0.005891251843422651 -0.06240309029817581 -0.0045841713435947895 0.001218515681102872 0.06305339932441711 0.0012561001349240541 -0.09334934502840042 -0.042082104831933975 -0.054604846984148026 -0.04119417071342468 0.01889892667531967 -0.022184127941727638 0.02023603953421116 -0.04057471454143524 0.06654376536607742 0.007776881568133831 0.003917662892490625 0.014128445647656918 0.05063626915216446 -0.049551237374544144 0.5164439678192139 0.009119606576859951 0.0013069860870018601 -0.03313835710287094 0.015265333466231823 -0.03225107863545418 -0.051849111914634705 -0.03138547018170357 -0.017011305317282677 -0.022468948736786842 -0.004808694124221802 -0.0626114159822464 -0.03264477103948593 0.03723249211907387 -0.01430157944560051 0.051593318581581116 0.008981287479400635 -0.059274233877658844 -0.032996077090501785 0.20171217620372772 -0.049200985580682755 0.045566625893116 0.054480843245983124 -0.03462279215455055 -0.05636903643608093 -0.5516205430030823 0.026289312168955803 0.051380712538957596 -0.04462405666708946 -0.0740027129650116 0.008508820086717606 0.05274922400712967 0.005354319699108601 -0.041919391602277756 0.04927366226911545 
30 -0.07387570291757584 -0.2819930613040924 -0.15156406164169312 0.18992722034454346 0.0005415678606368601 -0.081794872879982 -0.012255105189979076 0.1400498002767563 -0.22455541789531708 -0.0798424631357193 0.05291172116994858 -0.016968460753560066 0.17652581632137299 -0.06549271196126938 0.0853632465004921 0.08258181810379028 0.21991990506649017 -0.02537970244884491 -0.08995730429887772 -0.05514376237988472 0.012536727823317051 -0.03184371069073677 0.015528244897723198 0.15733027458190918 -0.05557733774185181 -0.09906680881977081 -0.0544293113052845 0.004225686192512512 0.06178441643714905 -0.13295069336891174 -0.031472258269786835 -0.07557926326990128 -0.17208506166934967 -0.07051831483840942 -0.020734185352921486 0.11441167443990707 0.0654274970293045 -0.08000515401363373 0.007422843016684055 0.09859547019004822 -0.10746905207633972 -0.06254337728023529 0.12737838923931122 -0.08954993635416031 0.05108214169740677 0.06113066524267197 -0.05408914387226105 -0.05350852012634277 -0.048067186027765274 -0.010879568755626678 0.01879432238638401 0.011387204751372337 -0.02628161571919918 -0.004092124290764332 -0.06761795282363892 -0.06764067709445953 0.06919893622398376 -0.01206825952976942 -0.0545215904712677 -0.06023240461945534 0.01993613876402378 -0.046745821833610535 -0.012830648571252823 -0.05119043588638306 -0.06536652892827988 -0.05341998487710953 0.02435762621462345 -0.06381793320178986 -0.1254999190568924 0.11052796244621277 -0.049235567450523376 -0.07501360774040222 0.026153339073061943 -0.05449635908007622 -0.017398642376065254 0.0012742276303470135 -0.024255797266960144 0.0105002885684371 0.1005387008190155 -0.06601455807685852 -0.05498392879962921 -0.08948029577732086 -0.23371167480945587 -0.0404229536652565 -0.03453610837459564 -0.009308909066021442 0.02951871231198311 0.06201782077550888 -0.027630304917693138 0.08145084977149963 -0.012287580408155918 0.07632102817296982 -0.05292849242687225 0.09891798347234726 0.17499469220638275 0.02545170485973358 -0.10967616736888885 -0.023550864309072495 -0.07840008288621902 0.07684193551540375 -0.0956532433629036 0.03500836715102196 -0.09332326799631119 0.06895917654037476 -0.036899834871292114 0.0003359996771905571 0.0037038170266896486 -0.003253696486353874 0.08700405806303024 -0.16430674493312836 -0.0843263566493988 -0.08812206983566284 -0.10555274039506912 0.08267617970705032 -0.06322812288999557 0.14169974625110626 -0.049383122473955154 -0.12272829562425613 -0.1869276612997055 0.01810968481004238 0.05296819284558296 0.036935754120349884 -0.022533316165208817 0.04902209714055061 0.14726245403289795 0.008914637379348278 -0.04399369657039642 0.13138863444328308 
26 -0.013660801574587822 0.04027508571743965 0.0013558906503021717 0.19328615069389343 -0.08974568545818329 0.06614785641431808 0.1332758367061615 -0.05636302009224892 0.021269597113132477 0.11147896945476532 0.008763163350522518 0.05721989646553993 -0.1478220671415329 -0.10115715861320496 0.08563841879367828 -0.02861478552222252 -0.10965459793806076 -0.005954996682703495 -0.019026044756174088 0.028816530480980873 0.053402941673994064 -0.028309153392910957 0.07082191854715347 -0.12650956213474274 0.09703610092401505 -0.013165207579731941 0.04708410054445267 0.17066018283367157 -0.07797516137361526 -0.09073729813098907 -0.15243442356586456 -0.02992340363562107 -0.25806862115859985 0.14430725574493408 0.06827550381422043 -0.058186013251543045 -0.013760860078036785 0.08536212891340256 -0.08752943575382233 0.04728235676884651 0.006436627358198166 0.020960459485650063 0.004627977032214403 0.05880491062998772 -0.041581183671951294 -0.15834908187389374 -0.013277989812195301 -0.12834478914737701 -0.04133294150233269 0.05139674246311188 -0.015717027708888054 0.012617544271051884 -0.0376792773604393 0.08425461500883102 -0.001422561821527779 -0.005390596110373735 -0.004306301940232515 0.018908308818936348 -0.06608546525239944 0.05339714512228966 -0.0299836378544569 -0.04186970740556717 0.1648440808057785 -0.012758087366819382 0.050733521580696106 -0.09150169789791107 -0.08024878054857254 -0.08334488421678543 0.08663065731525421 0.018249427899718285 0.1500440239906311 0.036263614892959595 0.06189888343214989 -0.09275083243846893 -0.10291701555252075 -0.005464603658765554 0.004095437005162239 -0.02698993682861328 -0.01432845275849104 0.08304636180400848 0.004237242974340916 -0.017314638942480087 0.06959420442581177 -0.21336646378040314 -0.0020513006020337343 0.03765352442860603 -0.03167795017361641 0.06542998552322388 0.058998797088861465 -0.20231017470359802 0.045119039714336395 0.052575062960386276 -0.07686010748147964 -0.43033498525619507 0.11208567768335342 -0.07865720987319946 -0.05986068397760391 -0.10531014204025269 0.03659261763095856 0.023332005366683006 0.049276720732450485 -0.07279209792613983 0.0014245789498090744 0.0024700770154595375 -0.017159665003418922 -0.05961432307958603 0.04077276960015297 -0.03606480360031128 -0.010197346098721027 0.07811842858791351 0.032212380319833755 -0.03734384477138519 -0.06378632038831711 0.002262795576825738 -0.059145089238882065 -0.1375223696231842 0.047791317105293274 0.07315856963396072 0.17562389373779297 0.018588639795780182 -0.11840589344501495 -0.026484180241823196 0.040972430258989334 -0.05073112994432449 -0.04004378244280815 -0.0058467090129852295 -0.0347459502518177 -0.11101482063531876 
25 -0.2841299772262573 -0.046647585928440094 0.14644573628902435 -0.032581474632024765 -0.09876397252082825 0.07247160375118256 0.08795161545276642 -0.010935521684587002 0.04259788990020752 0.0470796562731266 -0.00787060335278511 0.13820120692253113 -0.0780024379491806 -0.09365750104188919 0.06490151584148407 -0.0725129097700119 0.03701364994049072 -0.025240860879421234 -0.01564580202102661 0.02368823066353798 0.038311924785375595 0.2336856573820114 0.14118394255638123 -0.05757248029112816 -0.019070647656917572 -0.0598321408033371 0.020252931863069534 0.10335595160722733 -0.10909153521060944 -0.06619701534509659 -0.09378690272569656 0.062232885509729385 0.012768436223268509 0.05237239971756935 0.10173456370830536 -0.052160609513521194 0.011965916492044926 0.006671978160738945 -0.0413527674973011 -0.0031918794848024845 -0.04905654117465019 0.004707165993750095 0.03393257036805153 0.07020388543605804 -0.010798640549182892 -0.050165217369794846 -0.030453180894255638 -0.1346675604581833 -0.06674638390541077 0.10229893028736115 0.02917778119444847 -0.04228478670120239 -0.07644440233707428 0.055946607142686844 0.1120176613330841 -0.05261951684951782 0.007881425321102142 -0.03013453632593155 -0.07794536650180817 -0.050041455775499344 0.027750182896852493 -0.1276436746120453 0.09142345935106277 -0.050552356988191605 0.04138766601681709 -0.0599922239780426 -0.07443525642156601 -0.06049699708819389 0.05409722775220871 0.008174065500497818 0.08068977296352386 0.09769926965236664 -0.002876426326110959 -0.04860999435186386 -0.013093344867229462 0.005961911752820015 0.05010822415351868 0.032735615968704224 -0.03943374752998352 0.22421963512897491 -0.14461848139762878 0.0198355820029974 -0.04661655053496361 -0.11311424523591995 0.0018843425204977393 0.042212117463350296 -0.03208395093679428 -0.004118106793612242 0.030919888988137245 -0.12243501842021942 0.003424791619181633 -0.003040097886696458 -0.05876714736223221 -0.30662891268730164 -0.20155948400497437 -0.0679326131939888 -0.01356779970228672 -0.06119445711374283 0.0004909990238957107 -0.09489256143569946 0.13220131397247314 -0.07803622633218765 0.05659928917884827 0.0031208249274641275 0.012026903219521046 -0.06441062688827515 0.052405063062906265 0.04899248853325844 0.03074292279779911 0.03144244849681854 0.05921350046992302 -0.022314580157399178 0.08946038782596588 -0.08983425050973892 -0.014148302376270294 -0.09460102021694183 0.017083141952753067 0.06383892148733139 0.36935800313949585 -0.04524015262722969 -0.15344327688217163 -0.005282577592879534 0.11468692123889923 -0.06642024964094162 -0.0838867798447609 -0.0031258421950042248 -0.08773559331893921 -0.0472869910299778 
27 0.09201867878437042 0.19388918578624725 0.04646655172109604 0.08983863890171051 -0.02337479032576084 -0.0769810676574707 0.043559566140174866 -0.05685212090611458 0.1107574999332428 0.03812682256102562 0.03810851648449898 -0.046362537890672684 -0.2042640596628189 0.03688649460673332 -0.012815781868994236 -0.029156550765037537 -0.1776410937309265 0.008797954767942429 -0.07821931689977646 -0.02518131211400032 -0.051213499158620834 -0.09852541238069534 -0.026471208781003952 -0.18298575282096863 0.012882632203400135 -0.007257122080773115 0.0801924392580986 0.022275710478425026 0.06694088131189346 0.03769838064908981 -0.04218323156237602 0.05535466969013214 -0.31950148940086365 0.101495660841465 -0.019862405955791473 -0.04893982410430908 -0.055820684880018234 0.07596351951360703 0.05359521880745888 0.040310293436050415 -0.025071576237678528 0.057141777127981186 -0.014248371124267578 0.08271807432174683 -0.05746907740831375 -0.07725934684276581 0.0025838359724730253 -0.11930137872695923 -0.06761420518159866 0.05584649369120598 0.03387388586997986 0.05256137624382973 -0.04411971569061279 0.027820037677884102 -0.01880640536546707 0.04279358685016632 -0.04235505312681198 0.007631202228367329 -0.04994697496294975 0.050506167113780975 0.07661812007427216 0.054269153624773026 0.07239298522472382 0.008391485549509525 0.054842259734869 0.015769988298416138 -0.05673246458172798 -0.009912683628499508 0.10834883898496628 0.01780884340405464 0.18108972907066345 0.004182729404419661 -0.0767742246389389 -0.027422819286584854 -0.024138884618878365 -0.020872386172413826 0.008409303613007069 -0.024286841973662376 -0.03423465043306351 -0.040283650159835815 0.0011526414891704917 0.008171063847839832 0.08645103871822357 -0.13674396276474 0.020202474668622017 0.014444406144320965 0.0258750282227993 -0.10496286302804947 0.07917321473360062 -0.2077907770872116 0.06738512217998505 -0.02893226034939289 -0.11200469732284546 -0.45453450083732605 0.10847532004117966 -0.04982057958841324 -0.0168027114123106 -0.05490535870194435 0.03440239280462265 -0.049481432884931564 0.042301129549741745 -0.024612663313746452 -0.010086641646921635 -0.005552266724407673 0.006980465725064278 -0.021848049014806747 0.02164151519536972 -0.0634685754776001 -0.06885356456041336 0.02067006751894951 0.026035558432340622 -0.0011901891557499766 -0.13813334703445435 0.009231235831975937 -0.11262590438127518 -0.2820570468902588 -0.0014466973952949047 0.04154064506292343 0.15520770847797394 0.06361235678195953 -0.014485377818346024 -0.01166706532239914 0.0832379013299942 -0.046194445341825485 -0.04091045260429382 0.00783037394285202 -0.016848988831043243 -0.07077202200889587 
