34 34
1 0.3223291856101527 0.2957615050661932 0.14545299175238968 -0.058907279840764736 -0.21275337893746266 0.08585659594234056 0.1987569402603111 -0.26623775589733656 0.024670436280356388 0.09004841566319473 -0.3282739742293816 0.029176938371085988 -0.016848477441804437 0.028291644212086513 -0.49278522982327605 0.3322397645737155 -0.3351909365701742 0.033140955283140774 0.11015529457611752 -0.1532429481497332 0.01655342436427149 6.14448750877683e-16 5.144751824746403e-16 -1.1213863778189925e-16 -5.590089580679915e-17 2.023348172375715e-16 -1.425489085852407e-17 -2.2680448621501475e-16 5.287356360771456e-17 2.1212738110112825e-16 -1.2109782757833192e-16 -5.940067628925901e-17 2.6235305513814832e-17 -1.8457022715347304e-17 
2 0.19738550848793074 -0.1295030999373081 -0.10782602567701736 -0.3314991764761221 0.1830947935933107 -0.18300584528416783 0.16280316901811911 -0.08147065264218534 0.05596473079053645 0.4347651290697006 0.12489576405368667 -0.12910927000694558 0.06472156809998897 -0.06874059659026142 0.0437214332391236 0.4249909717496011 0.2614408683138899 -0.23263701262264422 -0.08824560066894256 0.19378893751961976 -0.372714179992655 -1.8693253730530656e-15 1.2672985018185075e-16 2.5959062886178043e-17 6.260924012810635e-17 1.8409374072406852e-16 5.035221946613319e-17 -5.581157354387449e-17 1.8653950782992447e-16 1.880243079173236e-16 3.4140114045503017e-18 -1.1957990139306395e-16 2.2131270380728846e-16 3.9793798656485786e-17 
3 0.11396057645963789 0.09036568162864837 0.1527542510581348 -0.01815018930643506 0.11268894078265597 0.12069738050740063 0.25304325521876053 0.15074483640025868 0.09400889814618371 -0.008189485680645502 -0.0908205396023825 -0.09870233836517397 -0.08527675543170003 -0.018719910297972035 0.29218630229914005 -0.014422226706892477 -0.0031319161521376915 -0.008512602664959134 0.16578103726823168 -0.11164473259312488 -0.004809541101307371 -1.3767453121628243e-15 -0.13710142196424516 0.4253300333022794 -0.42323667232485623 -0.04148853913639841 -0.19662253931912074 0.3885174053805306 -0.23980833851584085 0.0030064977216780254 0.2682434668694885 0.2333594925915523 -0.43086422935851393 0.2695934964716856 
4 0.1395726315597706 0.029912367437510454 0.10678872121764392 0.03709814020304556 0.17998540902883298 0.08580564763581545 0.1975782827752393 0.1283588910284811 0.1669699362703416 0.06121192489723227 -0.025176619828711663 0.42381005018695306 0.3920892215047154 0.008474067342500896 0.19588754455545818 -0.019713229608718914 -0.024476727249310097 0.0582828992564458 0.12681659431442188 -0.09160021939124813 -0.01878342470549166 2.043987642825051e-16 -0.005444647305643064 -0.47665705274715053 0.11747265216830076 0.039398653311600286 0.33678141353524066 0.23899602491991861 0.05205162910844727 -0.15577208517399796 0.07202402820699647 -0.21982715346154552 0.2229568289152954 -0.143105603115507 
6 0.11396057645963786 0.09821437778059047 0.16411001399779018 -0.042703597640691704 0.05442002597151369 0.05635363121519542 -0.12717615602692292 -0.25771828718207834 -0.43355932906786115 0.16328207735737477 0.00734535606229278 0.24187322197235894 0.07978695621752326 -0.0173624504123869 0.18786503259564777 -0.06757230421372415 -0.17522648751071493 -0.00867490940079707 -0.14581903034463134 0.4282479632423456 0.16235309383548896 -4.85704949889095e-16 0.12381975374858584 -0.10046300273264942 -0.14331869508525805 0.042504221217397026 -0.20830694430843838 0.0005515401683530849 -0.30370066276805974 0.06194837393382936 0.11291752437252897 0.2847479652416391 -0.29645367776682097 -0.13846937665178818 
7 0.08058229640253808 0.08521239759326092 0.051022478161555765 -0.024132337382300636 0.07152846854286905 0.055963415326422274 0.1404602323868824 -0.22168856655706798 0.023647631693926384 0.10247552105945722 -0.5233111738327866 0.061746084874077435 0.03009472860458166 -0.011562607667779452 0.21632282160942592 -0.3156070814206547 0.2562488990058974 -0.016736663724138526 -0.062175873072663757 0.09257036081770316 -0.010515384486936324 1.3514966655593453e-16 0.2387564434811112 0.21065054532097183 0.2255431479900562 -0.13027738813744685 0.16758976257687916 -0.15136186327028175 0.3088604127067641 0.07069451868639358 -0.27448557176942934 -0.21119524793463645 0.1586997671985509 0.27352346450092074 
8 0.13957263155977087 0.266618096799134 -0.18585931941914013 0.017579286783734206 0.02002831977914433 0.030402877675990352 0.10585522577833496 -0.3562118143439003 0.1701291364764731 -0.24138441260537247 0.31751122774683654 -0.021012496567323118 0.005379757227610896 -0.0024044546251170136 0.03567698354754144 -0.09577418934571898 0.10218304159655767 0.0004133228460822251 0.11781688048000737 0.10881263225605925 -0.007471258840031214 0.5345224838248478 0.24906111853721646 0.053473544530990576 -0.07966548947021686 -0.024609218964384054 -0.09317060735864757 0.12202991917418936 0.10772908639163206 -0.013684561337675429 0.08440195549836794 0.0009462732130355667 -0.022169755206075812 -0.07963402338878346 
9 0.16116459280507617 -0.03911955118122309 0.03412999821985714 0.0834558719270496 0.20258900377074576 -0.15163297114669752 -0.04885318193779507 -0.12237952602485878 0.08134514918834056 -0.07755064888053956 -0.343556308427844 -0.25291035736737794 -0.32206073945479186 0.058653548923160576 -0.01011828078032797 -0.09506705005923154 0.23396299544331595 0.09136365712965838 -0.07098378006960393 0.037836420365979416 0.05569982458736515 5.107056139502282e-16 -0.33213856128442454 -0.49761942953886706 0.3064772173789815 -0.012251205454409494 0.23922692918796762 0.3229691842556431 -0.11856644068203227 -0.1814222977132529 0.10063545545950323 -0.17473136169024972 0.19830760227150623 -0.4088103505996634 
10 0.16116459280507622 0.08911380298933004 0.24555863573050715 -0.042884477785956956 0.0936172506305308 -0.0032298846342620918 -0.16222252501503745 0.0401969591835479 -0.10597902516273781 -0.05492973906587345 0.115595509848435 -0.25449504976611437 -0.351919853263724 0.05310154817380422 0.20967699410229312 0.22497969197635656 -0.11014158283964216 0.13439692383837543 0.022656567452170234 0.1695392181408173 0.1681924022063797 3.26405994116078e-16 0.22967445642651524 -0.05534596699835425 0.04608091828773502 0.2309723564182057 0.2626467180270534 -0.04096743618343855 0.09799245244834506 0.1837054432264734 -0.03162786754042486 -0.31204382454559676 0.189740334960379 0.38525517572289153 
11 0.1611645928050763 0.34567323487921925 -0.31697029027806317 0.046317032030495954 0.03165912726078489 -0.03764071088401656 -0.0918880884549084 0.17395639800175772 -0.05507470349156769 0.050008155044044114 -0.030002508125072415 0.0010758574220690465 -0.000396105867049365 -0.006274333384499398 0.1348123571222795 0.03178464646531815 -0.06615033342189226 -0.01775652945931127 -0.37188889671220804 -0.20502233685986454 0.010535965898177532 0.46291004988627676 -0.2875910076642625 -0.061745930658981034 0.09198978358150578 0.028416278387266607 0.10758415047815185 -0.14090801336881262 -0.12439483405552229 0.015801570344097345 -0.09745898345422696 -0.001092662188545672 0.025599428272191572 0.09195344968033421 
12 0.1395726315597707 -0.1464518781188343 -0.1564577958894066 -0.4652940012300539 -0.07464490126228904 0.05334364279597416 0.11862337386561245 0.028244404767304332 -0.13567395300733734 0.03024620049303993 0.05930991473356258 -0.08874926387377867 -0.13897502586027527 0.4478353462878267 0.03674738285473135 -0.36225429007590715 -0.28830870318317886 -0.10972652724119064 0.043714383753099495 -0.04097831850140153 -0.04867017344115299 3.209036552279174e-15 -0.14751459849680115 -0.16977449135598538 0.04661007723220913 -0.1516216244519453 0.04257099185112886 -0.04140187844953217 0.03926080280449873 -0.1713235919452164 0.14012580132393052 0.11865890111046307 0.046828298742069265 0.07916874540918045 
32 0.16116459280507597 -0.13598598660735078 -0.07313242947297131 -0.25903131137455293 0.07302323973499261 0.03211669992421445 -0.18002333564321488 0.0894137908239645 0.06277143522362015 -0.4323368393049765 -0.15581855961589977 0.25819585474345913 0.0409040425982258 0.4583083325479729 -0.011077426927670374 0.13419139597234356 0.038627294325734314 0.003723670747864643 -0.03275641879436813 0.05166218600731091 -0.19679698333945145 2.5801976251662087e-15 0.17033518630305516 0.1960386965718197 -0.05382068127393003 0.17507757138459773 -0.049156747209836905 0.04780677133558718 -0.04533447013555607 0.19782744385620846 -0.16180333822956658 -0.13701549699574242 -0.054072661768851255 -0.09141619294679071 
28 0.27914526311954097 -0.2531310995748795 -0.11288701977070417 0.2641646854644123 -0.4091466542253854 -0.18105464943160018 0.17090619488359923 -0.043888174841319745 -0.27926241016711223 -0.11298058328968792 -0.04050838163603968 -0.323898746415489 0.39173010203237696 0.12279751185670806 0.2355823747134704 0.10127590647209896 0.043681285935584416 0.3256292196382371 0.030534989305741497 5.017089845603381e-05 -0.060773411294582115 5.206326483622324e-16 -2.9378625408554314e-16 2.51627738275544e-16 -5.055506333261594e-16 4.945506868155469e-16 -7.250733907598218e-16 -1.1220359108577139e-16 -1.0209401070526734e-15 4.663308488944539e-16 1.1820252792695646e-16 5.767501764904318e-16 -9.348071985545753e-16 -2.259966228754428e-16 
27 0.1395726315597707 -0.08092622498471434 0.0006909375023131172 -0.08988425528403321 0.04289161339529466 -0.24118943433609893 -0.1095524036907948 -0.052915345313609925 0.30930921168340947 0.4034716046404722 0.13619287453423187 -0.12831779078995195 -0.031781028536869066 0.13434775967781495 -0.08572884353476559 -0.24404704450821116 -0.04396301239957156 0.3355582242809926 0.012382892930188672 -0.12010383866879339 0.26787255781178315 1.4896053595374763e-15 0.23080646897414112 0.17199951942380493 -0.23446172686216804 0.0016022046839270832 -0.14042490629404686 0.036177225627304056 0.030608422771482565 0.013574244756232753 -0.1278640973087424 0.08307362264013704 -0.15993084135573798 -0.20187496869081709 
34 0.11396057645963782 0.0903656816286485 0.15275425105813534 -0.018150189306435305 0.112688940782656 0.1206973805074004 0.2530432552187607 0.1507448364002589 0.09400889814618338 -0.008189485680645854 -0.09082053960238214 -0.09870233836517553 -0.0852767554317 -0.018719910297972164 0.2921863022991403 -0.014422226706892128 -0.0031319161521380593 -0.008512602664959405 0.16578103726823143 -0.11164473259312493 -0.004809541101306791 1.8103636926446813e-16 0.038751786376468554 0.01782403550376258 -0.2083576439987944 0.20222263304336413 -0.4845250323747654 -0.5979725430215205 -0.15564708898556465 0.1524886670866241 -0.010029634356294299 0.3683575412799203 -0.11583927258998326 -0.25049628281248043 
31 0.1973855084879309 0.11410298282027237 0.3160888413607574 -0.05420121928645093 -0.00989597282462082 0.022296228190255247 -0.2775627114247238 -0.10500494626288061 -0.4068208192361255 0.06911504137395795 0.2050163653122994 0.08111313538995549 -0.028366580127779945 0.019466184967081083 -0.06885453308908711 -0.1418511378046184 0.40376175191136754 -0.005418417667057362 0.15627604554199642 -0.5201103293628917 -0.23147379625042006 2.4859904119083046e-16 -8.973305943101703e-16 5.643705303475863e-16 2.4717828958642243e-16 -3.0821860625351463e-16 3.6814803123378253e-16 1.7394306814719045e-16 7.118648651450904e-16 -2.8809238968321873e-16 -9.367992569678186e-17 -4.0765510429202203e-16 4.997083629601484e-16 3.653295642973575e-16 
25 0.2548235957188129 -0.00892468116325097 0.21190886196529576 -0.0460081557026261 -0.05275547582556425 -0.24364384846937892 -0.4049513340276945 0.009483604747403066 0.2407371166687552 -0.15750050778296096 -0.08632496970040554 -0.24271429025925295 0.2947624971417151 -0.2817789261776866 0.07783286518725337 -0.20831628370770006 -0.29803561992880157 -0.4326309703876972 0.06315900942683218 0.02106496435314752 -0.12827191181383224 -1.8537841365982886e-15 -1.1928854185015362e-17 -5.505811283611922e-17 -4.244172992215503e-16 7.068488728618021e-16 -4.934797798671347e-16 1.2232291918936136e-16 -9.061370334303132e-16 2.7363907624327197e-16 3.5510498743744154e-16 3.779933304633824e-16 -6.376922519364508e-16 -2.9566353819923103e-16 
24 0.16116459280507636 0.3456732348792193 -0.31697029027806334 0.046317032030495704 0.0316591272607849 -0.03764071088401667 -0.09188808845490849 0.17395639800175725 -0.05507470349156797 0.05000815504404365 -0.030002508125072123 0.001075857422067903 -0.0003961058670477584 -0.006274333384500293 0.13481235712227932 0.03178464646531788 -0.06615033342189229 -0.01775652945931216 -0.37188889671220754 -0.20502233685986515 0.01053596589817914 -0.46291004988627515 0.2875910076642629 0.06174593065898098 -0.09198978358150563 -0.028416278387266986 -0.10758415047815174 0.14090801336881292 0.12439483405552254 -0.015801570344097373 0.09745898345422707 0.0010926621885457152 -0.025599428272191582 -0.09195344968033423 
33 0.13957263155977087 0.26661809679913384 -0.18585931941914 0.017579286783734334 0.020028319779144342 0.030402877675990096 0.10585522577833496 -0.35621181434389954 0.17012913647647343 -0.24138441260537208 0.3175112277468358 -0.021012496567322354 0.005379757227609681 -0.0024044546251183766 0.03567698354754095 -0.09577418934571894 0.10218304159655794 0.00041332284608182356 0.11781688048000634 0.10881263225605815 -0.007471258840029062 -0.5345224838248491 -0.24906111853721732 -0.05347354453099019 0.07966548947021682 0.024609218964384016 0.09317060735864749 -0.12202991917418951 -0.10772908639163216 0.013684561337675144 -0.08440195549836808 -0.0009462732130353774 0.02216975520607568 0.07963402338878378 
29 0.11396057645963786 -0.05603050946610218 0.0445211158286115 0.04672778369631375 0.12361134976488315 -0.15765400153059883 -0.2670242780741383 0.013525103985709412 0.31688153191672946 -0.07715536102799744 -0.06309935478248514 0.15834136455880535 0.09456617513205133 0.13210177284620186 -0.0828339887676201 0.16727450495411372 0.1769441875735445 0.27531314070455676 -0.04234882720609045 -0.011923605453911992 0.05468556190277799 6.440656761345551e-16 0.049779324643395594 -0.02765024090718979 -0.1305366467348731 -0.07393960093417452 -0.22805040302035037 -0.291165233363273 -0.2127968898267972 0.03926485941764879 0.2605703473460628 0.4373569541811568 -0.26786019712843206 0.3800744261303615 
30 0.13957263155977043 -0.06790508134341702 0.05093162668125532 0.1231772277934412 0.23039283516984518 -0.025182058370974418 0.19700239140434822 0.23198789243592613 -0.02513939658486124 -0.0836673019752334 0.23390682746930977 -0.06880909585545239 -0.09175784572337545 -0.018307944702433524 0.002049550328185906 0.09836540196708023 -0.19468459626012563 -0.04168584012445108 0.15122377198313317 -0.14506594681302026 0.013024738541768497 2.788179113991895e-16 0.27754546747555353 -0.18913516762077678 0.4805404107689626 -0.18420008353342981 0.24232771984066773 0.01820857668506015 0.06032454842445853 0.04120113281534599 -0.24997493643440807 -0.16837908773261148 0.08353535981785894 -0.04987327027054206 
26 0.2417468892076137 0.11085271224084987 0.3527918720100383 -0.0028118724757389213 -0.19594764768408732 0.13200849246041424 0.23071916537680706 0.3916976932363679 0.08552137666691914 -0.07516919869452407 0.18577768053881588 -0.07135180220377213 0.06327442973670765 0.02736405358832347 -0.33638954785179986 -0.2330765765739251 0.2557384712220878 -0.006977065069835938 -0.394142685359767 0.31096243732663104 -0.004384568142026576 6.580529976032879e-16 -3.1019934251850664e-16 -2.777309283796168e-16 2.072154987467739e-16 -8.480710546105447e-17 1.2931288947592284e-16 4.413264888031795e-16 -2.4179829858801576e-16 -1.3120373332612646e-16 1.4223665514061604e-16 -5.596322711520504e-17 1.2451908571148535e-17 -2.701361192092917e-16 
23 0.11396057645963834 0.2816902951516247 -0.31448681419821084 0.053668089493292194 -0.03010553799248138 -0.06939582698971676 -0.18366875861272547 0.4096934787678747 -0.1493165628188655 0.16096441850331666 -0.1352776687883717 0.0064397561317397906 0.002001179471006264 0.007252874896708123 -0.16738608524233017 -0.08539992857530077 0.1430364662211196 0.025363369419294058 0.5937104891036447 0.3502979782716349 -0.018930263446180456 -1.305946440669118e-15 -1.0026045455892784e-16 -2.4285698925912606e-16 -3.745766812816221e-17 2.724894227160381e-16 9.301031678368573e-18 -1.193666785690811e-16 -2.869799238163459e-16 1.754451212409747e-16 8.122580460574591e-17 1.817417615657644e-17 1.6194034715029306e-17 -6.818404327045608e-17 
13 0.1139605764596377 -0.11327781756606797 -0.05429766218765807 0.15194672790977934 0.22006176765153126 -0.11196686687266286 0.08755479611339648 -0.023376343638442088 -0.10807684445359439 -0.021820477469925083 0.007259847241040955 0.05808982643729926 -0.005823008853676445 -0.011878649372140506 -0.13671279196060282 -0.08827315917459218 -0.05411171049773539 -0.05437652465088853 -0.02453547957527385 -0.0005669119086031395 0.013326023154057766 8.192239702674265e-17 0.04889741459070398 0.1711323843248316 -0.22445822108134209 0.11022746655587262 -0.10992410228688884 -0.3265681760597277 -0.353494661571728 -0.1827708502278589 0.5680239176999166 0.010331505839131803 -0.3713806299630709 -0.07484510756766855 
16 0.1611645928050756 -0.18332321423724607 -0.1297534515036805 0.13692282170911607 0.08973391277417454 0.5430643704563217 -0.1723520177114697 -0.05072943597216564 0.034505541580033446 0.11704511908805697 0.005009320914105619 -0.21814525038793287 0.2183020833816932 0.20264068651492664 -0.0552425211816082 0.13560224113462271 0.19394081181306572 -0.36751147955179125 0.03106487311955439 -0.07011068951592045 0.4672957608989044 1.8009466995977358e-15 -2.61116027533182e-16 1.35828013496051e-16 -1.174001085688413e-16 5.170427361165459e-16 -2.0127979445599923e-16 3.641708839864577e-17 -7.081551453478378e-16 3.4961922953767465e-16 8.084727601682356e-17 6.07456334823628e-17 -4.2916673023076146e-16 -2.468019105467489e-17 
17 0.1139605764596377 -0.11327781756606797 -0.05429766218765807 0.15194672790977937 0.22006176765153151 -0.11196686687266286 0.08755479611339645 -0.023376343638442158 -0.1080768444535944 -0.021820477469925208 0.007259847241040884 0.05808982643729912 -0.005823008853676376 -0.011878649372140533 -0.1367127919606028 -0.08827315917459222 -0.05411171049773537 -0.05437652465088857 -0.024535479575273744 -0.0005669119086031985 0.01332602315405776 6.804460921891052e-17 0.05846683061241093 0.16836311549188743 -0.2221547105259631 -0.21345182122920986 -0.3630113350438938 -0.046727043760822824 0.09355989185213391 -0.20421407448328582 -0.3737142094770548 -0.20478695890642945 -0.23830020586783307 0.28761575903977354 
21 0.18018749253911157 -0.19750590930045725 -0.15467901475619578 -0.14550974496949126 0.11615555008310621 0.30043289864617834 -0.08077733467504088 0.03831581924166228 -0.11926794834510514 -0.29917490241921424 -0.11278878344536218 -0.08142761345019923 -0.1614188182246918 -0.43815012367483724 -0.07708559072136584 0.07034554284440679 0.03438841425817199 0.18716256039425774 -0.040146899481826426 0.035175047268792156 -0.11333143965565552 -2.975897473021578e-15 0.10752934241106794 0.0028724988838359482 -0.24251543685813962 -0.19367423812307769 -0.12632886033287477 -0.006744997790068699 0.09020078235606226 -0.20365353151267468 0.01582979181564864 0.2604355682914878 -0.14601475465215027 -0.15841305308192927 
20 0.1139605764596377 -0.11327781756606797 -0.05429766218765811 0.15194672790977926 0.22006176765153132 -0.11196686687266286 0.08755479611339653 -0.023376343638442196 -0.10807684445359415 -0.02182047746992539 0.007259847241040862 0.0580898264372993 -0.005823008853676363 -0.011878649372140568 -0.13671279196060274 -0.08827315917459222 -0.054111710497735444 -0.0543765246508886 -0.024535479575273817 -0.0005669119086031726 0.013326023154057735 1.7906691168140548e-16 -0.16709965397063914 -0.05499572441869083 0.06058924668307339 -0.28217204205742397 0.14930442991903656 -0.0005936723597518465 0.4060650012059714 0.7260944073454437 -0.15996924139733223 -0.013620556802493392 0.24640442706991386 0.026263786915951555 
19 0.13957263155977048 -0.13667708496949454 -0.13845970544574882 -0.5047238459250983 -0.05292412938490657 -0.041931555804983256 0.07334330271536404 0.05336931672903194 -0.053345065270427386 -0.055751782867171695 0.026955080781807257 0.12291501562077149 0.13762310020280022 -0.4338335053081407 -0.03398861841910346 -0.06899443934911144 0.07134173883870241 0.1824792159217351 0.035411033279107676 -0.11339865996348436 0.40879768839597663 -2.0078773530740966e-15 -0.08329187047734007 -0.0022250280678190416 0.18785164962995785 0.15001941976801791 0.09785391444291722 0.005224652822228525 -0.06986922557598205 0.15774934718898337 -0.012261704015187357 -0.20173252375059922 0.11310254261366764 0.12270622328163687 
18 0.33224931962249404 -0.2718570058265587 -0.09128048985341451 0.22626125219221613 -0.4671789489244117 -0.03490424052192168 -0.02281465921569289 0.011312969235298544 0.16802679678230975 0.10652264306439804 0.05485332340345981 0.42553042309228073 -0.4614998544923965 -0.10378920396479845 0.1735884595606227 0.014918164515614243 0.05119016884508277 -0.23061699667474042 0.02702226965486512 0.0013083397855515764 0.0417544587829739 -7.964050475831839e-16 3.868369488739375e-16 -2.3372059347040533e-16 5.905262777325364e-16 -8.753884767550582e-16 7.924719955765039e-16 -8.332932185170702e-17 1.4493566176976398e-15 -5.158951823780639e-16 -3.591358429179327e-16 -6.367648853505512e-16 1.1542369840532783e-15 2.695165848112895e-16 
15 0.11396057645963786 -0.12842601851021526 -0.08633372619401847 0.14291298781311015 0.0650820385691246 0.48499957184312803 -0.18331154359658497 -0.053275668397716726 0.1572617689888782 0.27152874873585175 0.07127881368663097 -0.03511411986428807 0.014040453051310063 -0.08802372629467474 -0.017978852091711017 -0.19189150701217317 -0.23652435272825661 0.3423703907485049 -0.03526017546115898 0.059352850893508356 -0.4379970178728316 -8.679720299620413e-16 -0.06800752746382317 -0.0018167278098429097 0.153380229644494 0.1224903433133483 0.07989738657303652 0.004265911165883785 -0.05704798379485761 0.12880180262338586 -0.010011639404748208 -0.16471391590428563 0.09234783933829223 0.10018921176801088 
22 0.1139605764596377 -0.11327781756606797 -0.054297662187658094 0.1519467279097793 0.22006176765153126 -0.111966866872663 0.08755479611339652 -0.0233763436384422 -0.10807684445359447 -0.02182047746992504 0.007259847241040918 0.05808982643729937 -0.0058230088536762896 -0.011878649372140547 -0.1367127919606029 -0.08827315917459223 -0.054111710497735395 -0.05437652465088858 -0.02453547957527381 -0.0005669119086032073 0.013326023154057781 6.804460921895473e-17 -0.06917535910819625 0.05470901555315518 -0.08207583767776755 0.6849105425410985 -0.12362955562169177 0.18040547340798882 0.17084839291286466 0.04270984563200998 -0.1617564737597259 0.23607241686552013 -0.04470825153501185 0.08224036638990025 
14 0.1139605764596377 -0.11327781756606797 -0.054297662187658094 0.1519467279097793 0.22006176765153132 -0.11196686687266302 0.08755479611339657 -0.023376343638442248 -0.10807684445359447 -0.021820477469925104 0.0072598472410409 0.05808982643729937 -0.005823008853676283 -0.011878649372140549 -0.13671279196060285 -0.08827315917459223 -0.054111710497735444 -0.054376524650888665 -0.024535479575273834 -0.0005669119086031873 0.013326023154057695 9.580018483454103e-17 0.06914574414388076 0.16527277201164542 0.012408031168167926 -0.01796215363081972 0.16013921102131057 -0.04549161097016715 -0.33944226150126106 -0.1583731727455168 0.25034803546255685 0.06832435727052763 0.2919015136294178 0.10870833277390769 
5 0.18018749253911223 0.04572355342125677 0.20574223742657483 0.0018582404670540453 0.1518791688593942 -0.012759853783744696 -0.15209136422087605 0.04004021704061585 -0.024912612975691712 0.0034633864514428685 0.1413299939976688 0.16307940070390622 0.04287807493792183 0.06589896373639832 0.15447980113721577 0.19507956899655193 -0.11549242025650835 0.17073784535302575 0.013647227417870451 0.15129759055470657 0.13892810051522195 1.422987858932355e-16 -0.4525600692158522 0.22072462685183677 0.17508672099780298 -0.32544001954652435 0.0357142404344014 0.04493092450849259 0.37063401814667624 -0.3033379089329146 -0.14317725148050897 -0.10135046280953301 0.256598277715893 -0.21178907259831017 
