34 100
1 8.531886100769043 6.668634414672852 4.921701908111572 -3.7334375381469727 5.799839019775391 2.0314314365386963 -1.8395764827728271 0.12698334455490112 -0.25613686442375183 -0.0015619806945323944 8.531886100769043 6.668634414672852 4.921701908111572 -3.7334375381469727 5.799839019775391 2.0314314365386963 -1.8395764827728271 0.12698334455490112 -0.25613686442375183 -0.0015619806945323944 8.531886100769043 6.668634414672852 4.921701908111572 -3.7334375381469727 5.799839019775391 2.0314314365386963 -1.8395764827728271 0.12698334455490112 -0.25613686442375183 -0.0015619806945323944 8.531886100769043 6.668634414672852 4.921701908111572 -3.7334375381469727 5.799839019775391 2.0314314365386963 -1.8395764827728271 0.12698334455490112 -0.25613686442375183 -0.0015619806945323944 8.531886100769043 6.668634414672852 4.921701908111572 -3.7334375381469727 5.799839019775391 2.0314314365386963 -1.8395764827728271 0.12698334455490112 -0.25613686442375183 -0.0015619806945323944 8.531886100769043 6.668634414672852 4.921701908111572 -3.7334375381469727 5.799839019775391 2.0314314365386963 -1.8395764827728271 0.12698334455490112 -0.25613686442375183 -0.0015619806945323944 8.531886100769043 6.668634414672852 4.921701908111572 -3.7334375381469727 5.799839019775391 2.0314314365386963 -1.8395764827728271 0.12698334455490112 -0.25613686442375183 -0.0015619806945323944 8.531886100769043 6.668634414672852 4.921701908111572 -3.7334375381469727 5.799839019775391 2.0314314365386963 -1.8395764827728271 0.12698334455490112 -0.25613686442375183 -0.0015619806945323944 8.531886100769043 6.668634414672852 4.921701908111572 -3.7334375381469727 5.799839019775391 2.0314314365386963 -1.8395764827728271 0.12698334455490112 -0.25613686442375183 -0.0015619806945323944 8.531886100769043 6.668634414672852 4.921701908111572 -3.7334375381469727 5.799839019775391 2.0314314365386963 -1.8395764827728271 0.12698334455490112 -0.25613686442375183 -0.0015619806945323944 
2 4.552427768707275 -1.8944377899169922 -4.167486190795898 2.2840845584869385 0.01945619285106659 1.4450591802597046 1.8626303672790527 3.1690690517425537 -0.45292651653289795 -0.0017538596875965595 4.552427768707275 -1.8944377899169922 -4.167486190795898 2.2840845584869385 0.01945619285106659 1.4450591802597046 1.8626303672790527 3.1690690517425537 -0.45292651653289795 -0.0017538596875965595 4.552427768707275 -1.8944377899169922 -4.167486190795898 2.2840845584869385 0.01945619285106659 1.4450591802597046 1.8626303672790527 3.1690690517425537 -0.45292651653289795 -0.0017538596875965595 4.552427768707275 -1.8944377899169922 -4.167486190795898 2.2840845584869385 0.01945619285106659 1.4450591802597046 1.8626303672790527 3.1690690517425537 -0.45292651653289795 -0.0017538596875965595 4.552427768707275 -1.8944377899169922 -4.167486190795898 2.2840845584869385 0.01945619285106659 1.4450591802597046 1.8626303672790527 3.1690690517425537 -0.45292651653289795 -0.0017538596875965595 4.552427768707275 -1.8944377899169922 -4.167486190795898 2.2840845584869385 0.01945619285106659 1.4450591802597046 1.8626303672790527 3.1690690517425537 -0.45292651653289795 -0.0017538596875965595 4.552427768707275 -1.8944377899169922 -4.167486190795898 2.2840845584869385 0.01945619285106659 1.4450591802597046 1.8626303672790527 3.1690690517425537 -0.45292651653289795 -0.0017538596875965595 4.552427768707275 -1.8944377899169922 -4.167486190795898 2.2840845584869385 0.01945619285106659 1.4450591802597046 1.8626303672790527 3.1690690517425537 -0.45292651653289795 -0.0017538596875965595 4.552427768707275 -1.8944377899169922 -4.167486190795898 2.2840845584869385 0.01945619285106659 1.4450591802597046 1.8626303672790527 3.1690690517425537 -0.45292651653289795 -0.0017538596875965595 4.552427768707275 -1.8944377899169922 -4.167486190795898 2.2840845584869385 0.01945619285106659 1.4450591802597046 1.8626303672790527 3.1690690517425537 -0.45292651653289795 -0.0017538596875965595 
3 2.231024980545044 2.273430824279785 -1.5360716581344604 1.4181712865829468 -2.1069893836975098 -0.19619053602218628 -1.6481060981750488 -0.15411272644996643 -0.3434010148048401 -0.0016651181504130363 2.231024980545044 2.273430824279785 -1.5360716581344604 1.4181712865829468 -2.1069893836975098 -0.19619053602218628 -1.6481060981750488 -0.15411272644996643 -0.3434010148048401 -0.0016651181504130363 2.231024980545044 2.273430824279785 -1.5360716581344604 1.4181712865829468 -2.1069893836975098 -0.19619053602218628 -1.6481060981750488 -0.15411272644996643 -0.3434010148048401 -0.0016651181504130363 2.231024980545044 2.273430824279785 -1.5360716581344604 1.4181712865829468 -2.1069893836975098 -0.19619053602218628 -1.6481060981750488 -0.15411272644996643 -0.3434010148048401 -0.0016651181504130363 2.231024980545044 2.273430824279785 -1.5360716581344604 1.4181712865829468 -2.1069893836975098 -0.19619053602218628 -1.6481060981750488 -0.15411272644996643 -0.3434010148048401 -0.0016651181504130363 2.231024980545044 2.273430824279785 -1.5360716581344604 1.4181712865829468 -2.1069893836975098 -0.19619053602218628 -1.6481060981750488 -0.15411272644996643 -0.3434010148048401 -0.0016651181504130363 2.231024980545044 2.273430824279785 -1.5360716581344604 1.4181712865829468 -2.1069893836975098 -0.19619053602218628 -1.6481060981750488 -0.15411272644996643 -0.3434010148048401 -0.0016651181504130363 2.231024980545044 2.273430824279785 -1.5360716581344604 1.4181712865829468 -2.1069893836975098 -0.19619053602218628 -1.6481060981750488 -0.15411272644996643 -0.3434010148048401 -0.0016651181504130363 2.231024980545044 2.273430824279785 -1.5360716581344604 1.4181712865829468 -2.1069893836975098 -0.19619053602218628 -1.6481060981750488 -0.15411272644996643 -0.3434010148048401 -0.0016651181504130363 2.231024980545044 2.273430824279785 -1.5360716581344604 1.4181712865829468 -2.1069893836975098 -0.19619053602218628 -1.6481060981750488 -0.15411272644996643 -0.3434010148048401 -0.0016651181504130363 
4 3.5390748977661133 0.9391506910324097 -3.356595516204834 0.25952279567718506 -1.747274398803711 -0.08940122276544571 -1.7884992361068726 -0.5454111099243164 -0.003866821527481079 0.00010534340981394053 3.5390748977661133 0.9391506910324097 -3.356595516204834 0.25952279567718506 -1.747274398803711 -0.08940122276544571 -1.7884992361068726 -0.5454111099243164 -0.003866821527481079 0.00010534340981394053 3.5390748977661133 0.9391506910324097 -3.356595516204834 0.25952279567718506 -1.747274398803711 -0.08940122276544571 -1.7884992361068726 -0.5454111099243164 -0.003866821527481079 0.00010534340981394053 3.5390748977661133 0.9391506910324097 -3.356595516204834 0.25952279567718506 -1.747274398803711 -0.08940122276544571 -1.7884992361068726 -0.5454111099243164 -0.003866821527481079 0.00010534340981394053 3.5390748977661133 0.9391506910324097 -3.356595516204834 0.25952279567718506 -1.747274398803711 -0.08940122276544571 -1.7884992361068726 -0.5454111099243164 -0.003866821527481079 0.00010534340981394053 3.5390748977661133 0.9391506910324097 -3.356595516204834 0.25952279567718506 -1.747274398803711 -0.08940122276544571 -1.7884992361068726 -0.5454111099243164 -0.003866821527481079 0.00010534340981394053 3.5390748977661133 0.9391506910324097 -3.356595516204834 0.25952279567718506 -1.747274398803711 -0.08940122276544571 -1.7884992361068726 -0.5454111099243164 -0.003866821527481079 0.00010534340981394053 3.5390748977661133 0.9391506910324097 -3.356595516204834 0.25952279567718506 -1.747274398803711 -0.08940122276544571 -1.7884992361068726 -0.5454111099243164 -0.003866821527481079 0.00010534340981394053 3.5390748977661133 0.9391506910324097 -3.356595516204834 0.25952279567718506 -1.747274398803711 -0.08940122276544571 -1.7884992361068726 -0.5454111099243164 -0.003866821527481079 0.00010534340981394053 3.5390748977661133 0.9391506910324097 -3.356595516204834 0.25952279567718506 -1.747274398803711 -0.08940122276544571 -1.7884992361068726 -0.5454111099243164 -0.003866821527481079 0.00010534340981394053 
5 2.231024980545044 2.273430824279785 -1.5360716581344604 1.4181712865829468 -2.1069893836975098 -0.19619053602218628 -1.6481060981750488 -0.15411272644996643 -0.3434010148048401 -0.0016651181504130363 2.231024980545044 2.273430824279785 -1.5360716581344604 1.4181712865829468 -2.1069893836975098 -0.19619053602218628 -1.6481060981750488 -0.15411272644996643 -0.3434010148048401 -0.0016651181504130363 2.231024980545044 2.273430824279785 -1.5360716581344604 1.4181712865829468 -2.1069893836975098 -0.19619053602218628 -1.6481060981750488 -0.15411272644996643 -0.3434010148048401 -0.0016651181504130363 2.231024980545044 2.273430824279785 -1.5360716581344604 1.4181712865829468 -2.1069893836975098 -0.19619053602218628 -1.6481060981750488 -0.15411272644996643 -0.3434010148048401 -0.0016651181504130363 2.231024980545044 2.273430824279785 -1.5360716581344604 1.4181712865829468 -2.1069893836975098 -0.19619053602218628 -1.6481060981750488 -0.15411272644996643 -0.3434010148048401 -0.0016651181504130363 2.231024980545044 2.273430824279785 -1.5360716581344604 1.4181712865829468 -2.1069893836975098 -0.19619053602218628 -1.6481060981750488 -0.15411272644996643 -0.3434010148048401 -0.0016651181504130363 2.231024980545044 2.273430824279785 -1.5360716581344604 1.4181712865829468 -2.1069893836975098 -0.19619053602218628 -1.6481060981750488 -0.15411272644996643 -0.3434010148048401 -0.0016651181504130363 2.231024980545044 2.273430824279785 -1.5360716581344604 1.4181712865829468 -2.1069893836975098 -0.19619053602218628 -1.6481060981750488 -0.15411272644996643 -0.3434010148048401 -0.0016651181504130363 2.231024980545044 2.273430824279785 -1.5360716581344604 1.4181712865829468 -2.1069893836975098 -0.19619053602218628 -1.6481060981750488 -0.15411272644996643 -0.3434010148048401 -0.0016651181504130363 2.231024980545044 2.273430824279785 -1.5360716581344604 1.4181712865829468 -2.1069893836975098 -0.19619053602218628 -1.6481060981750488 -0.15411272644996643 -0.3434010148048401 -0.0016651181504130363 
6 5.439544200897217 2.2568411827087402 -3.390866279602051 -1.5442371368408203 -2.0616750717163086 -1.76083505153656 -0.9238985776901245 -0.1871355175971985 0.6502751111984253 0.001012627501040697 5.439544200897217 2.2568411827087402 -3.390866279602051 -1.5442371368408203 -2.0616750717163086 -1.76083505153656 -0.9238985776901245 -0.1871355175971985 0.6502751111984253 0.001012627501040697 5.439544200897217 2.2568411827087402 -3.390866279602051 -1.5442371368408203 -2.0616750717163086 -1.76083505153656 -0.9238985776901245 -0.1871355175971985 0.6502751111984253 0.001012627501040697 5.439544200897217 2.2568411827087402 -3.390866279602051 -1.5442371368408203 -2.0616750717163086 -1.76083505153656 -0.9238985776901245 -0.1871355175971985 0.6502751111984253 0.001012627501040697 5.439544200897217 2.2568411827087402 -3.390866279602051 -1.5442371368408203 -2.0616750717163086 -1.76083505153656 -0.9238985776901245 -0.1871355175971985 0.6502751111984253 0.001012627501040697 5.439544200897217 2.2568411827087402 -3.390866279602051 -1.5442371368408203 -2.0616750717163086 -1.76083505153656 -0.9238985776901245 -0.1871355175971985 0.6502751111984253 0.001012627501040697 5.439544200897217 2.2568411827087402 -3.390866279602051 -1.5442371368408203 -2.0616750717163086 -1.76083505153656 -0.9238985776901245 -0.1871355175971985 0.6502751111984253 0.001012627501040697 5.439544200897217 2.2568411827087402 -3.390866279602051 -1.5442371368408203 -2.0616750717163086 -1.76083505153656 -0.9238985776901245 -0.1871355175971985 0.6502751111984253 0.001012627501040697 5.439544200897217 2.2568411827087402 -3.390866279602051 -1.5442371368408203 -2.0616750717163086 -1.76083505153656 -0.9238985776901245 -0.1871355175971985 0.6502751111984253 0.001012627501040697 5.439544200897217 2.2568411827087402 -3.390866279602051 -1.5442371368408203 -2.0616750717163086 -1.76083505153656 -0.9238985776901245 -0.1871355175971985 0.6502751111984253 0.001012627501040697 
7 2.0490012168884277 2.2159574031829834 -1.002065658569336 1.1497836112976074 -1.6793503761291504 -0.10682898759841919 1.2590396404266357 0.15206098556518555 0.46543920040130615 0.0013429797254502773 2.0490012168884277 2.2159574031829834 -1.002065658569336 1.1497836112976074 -1.6793503761291504 -0.10682898759841919 1.2590396404266357 0.15206098556518555 0.46543920040130615 0.0013429797254502773 2.0490012168884277 2.2159574031829834 -1.002065658569336 1.1497836112976074 -1.6793503761291504 -0.10682898759841919 1.2590396404266357 0.15206098556518555 0.46543920040130615 0.0013429797254502773 2.0490012168884277 2.2159574031829834 -1.002065658569336 1.1497836112976074 -1.6793503761291504 -0.10682898759841919 1.2590396404266357 0.15206098556518555 0.46543920040130615 0.0013429797254502773 2.0490012168884277 2.2159574031829834 -1.002065658569336 1.1497836112976074 -1.6793503761291504 -0.10682898759841919 1.2590396404266357 0.15206098556518555 0.46543920040130615 0.0013429797254502773 2.0490012168884277 2.2159574031829834 -1.002065658569336 1.1497836112976074 -1.6793503761291504 -0.10682898759841919 1.2590396404266357 0.15206098556518555 0.46543920040130615 0.0013429797254502773 2.0490012168884277 2.2159574031829834 -1.002065658569336 1.1497836112976074 -1.6793503761291504 -0.10682898759841919 1.2590396404266357 0.15206098556518555 0.46543920040130615 0.0013429797254502773 2.0490012168884277 2.2159574031829834 -1.002065658569336 1.1497836112976074 -1.6793503761291504 -0.10682898759841919 1.2590396404266357 0.15206098556518555 0.46543920040130615 0.0013429797254502773 2.0490012168884277 2.2159574031829834 -1.002065658569336 1.1497836112976074 -1.6793503761291504 -0.10682898759841919 1.2590396404266357 0.15206098556518555 0.46543920040130615 0.0013429797254502773 2.0490012168884277 2.2159574031829834 -1.002065658569336 1.1497836112976074 -1.6793503761291504 -0.10682898759841919 1.2590396404266357 0.15206098556518555 0.46543920040130615 0.0013429797254502773 
8 1.2814867496490479 1.3423014879226685 -1.07654869556427 1.0847516059875488 -1.8818610906600952 0.6993204355239868 0.8018184304237366 0.06193890422582626 0.11938188225030899 -0.0007071888539940119 1.2814867496490479 1.3423014879226685 -1.07654869556427 1.0847516059875488 -1.8818610906600952 0.6993204355239868 0.8018184304237366 0.06193890422582626 0.11938188225030899 -0.0007071888539940119 1.2814867496490479 1.3423014879226685 -1.07654869556427 1.0847516059875488 -1.8818610906600952 0.6993204355239868 0.8018184304237366 0.06193890422582626 0.11938188225030899 -0.0007071888539940119 1.2814867496490479 1.3423014879226685 -1.07654869556427 1.0847516059875488 -1.8818610906600952 0.6993204355239868 0.8018184304237366 0.06193890422582626 0.11938188225030899 -0.0007071888539940119 1.2814867496490479 1.3423014879226685 -1.07654869556427 1.0847516059875488 -1.8818610906600952 0.6993204355239868 0.8018184304237366 0.06193890422582626 0.11938188225030899 -0.0007071888539940119 1.2814867496490479 1.3423014879226685 -1.07654869556427 1.0847516059875488 -1.8818610906600952 0.6993204355239868 0.8018184304237366 0.06193890422582626 0.11938188225030899 -0.0007071888539940119 1.2814867496490479 1.3423014879226685 -1.07654869556427 1.0847516059875488 -1.8818610906600952 0.6993204355239868 0.8018184304237366 0.06193890422582626 0.11938188225030899 -0.0007071888539940119 1.2814867496490479 1.3423014879226685 -1.07654869556427 1.0847516059875488 -1.8818610906600952 0.6993204355239868 0.8018184304237366 0.06193890422582626 0.11938188225030899 -0.0007071888539940119 1.2814867496490479 1.3423014879226685 -1.07654869556427 1.0847516059875488 -1.8818610906600952 0.6993204355239868 0.8018184304237366 0.06193890422582626 0.11938188225030899 -0.0007071888539940119 1.2814867496490479 1.3423014879226685 -1.07654869556427 1.0847516059875488 -1.8818610906600952 0.6993204355239868 0.8018184304237366 0.06193890422582626 0.11938188225030899 -0.0007071888539940119 
9 1.850594401359558 2.3154048919677734 -0.7370772361755371 0.6614020466804504 -1.0831081867218018 3.342236280441284 0.3745224177837372 -0.3665443956851959 0.04726178199052811 3.5262491703033447 1.850594401359558 2.3154048919677734 -0.7370772361755371 0.6614020466804504 -1.0831081867218018 3.342236280441284 0.3745224177837372 -0.3665443956851959 0.04726178199052811 3.5262491703033447 1.850594401359558 2.3154048919677734 -0.7370772361755371 0.6614020466804504 -1.0831081867218018 3.342236280441284 0.3745224177837372 -0.3665443956851959 0.04726178199052811 3.5262491703033447 1.850594401359558 2.3154048919677734 -0.7370772361755371 0.6614020466804504 -1.0831081867218018 3.342236280441284 0.3745224177837372 -0.3665443956851959 0.04726178199052811 3.5262491703033447 1.850594401359558 2.3154048919677734 -0.7370772361755371 0.6614020466804504 -1.0831081867218018 3.342236280441284 0.3745224177837372 -0.3665443956851959 0.04726178199052811 3.5262491703033447 1.850594401359558 2.3154048919677734 -0.7370772361755371 0.6614020466804504 -1.0831081867218018 3.342236280441284 0.3745224177837372 -0.3665443956851959 0.04726178199052811 3.5262491703033447 1.850594401359558 2.3154048919677734 -0.7370772361755371 0.6614020466804504 -1.0831081867218018 3.342236280441284 0.3745224177837372 -0.3665443956851959 0.04726178199052811 3.5262491703033447 1.850594401359558 2.3154048919677734 -0.7370772361755371 0.6614020466804504 -1.0831081867218018 3.342236280441284 0.3745224177837372 -0.3665443956851959 0.04726178199052811 3.5262491703033447 1.850594401359558 2.3154048919677734 -0.7370772361755371 0.6614020466804504 -1.0831081867218018 3.342236280441284 0.3745224177837372 -0.3665443956851959 0.04726178199052811 3.5262491703033447 1.850594401359558 2.3154048919677734 -0.7370772361755371 0.6614020466804504 -1.0831081867218018 3.342236280441284 0.3745224177837372 -0.3665443956851959 0.04726178199052811 3.5262491703033447 
10 4.795654773712158 -0.709174394607544 -4.016990661621094 -0.8110785484313965 -0.6328000426292419 0.07621156424283981 1.465537667274475 -0.6549696922302246 0.2182285487651825 -0.001526899985037744 4.795654773712158 -0.709174394607544 -4.016990661621094 -0.8110785484313965 -0.6328000426292419 0.07621156424283981 1.465537667274475 -0.6549696922302246 0.2182285487651825 -0.001526899985037744 4.795654773712158 -0.709174394607544 -4.016990661621094 -0.8110785484313965 -0.6328000426292419 0.07621156424283981 1.465537667274475 -0.6549696922302246 0.2182285487651825 -0.001526899985037744 4.795654773712158 -0.709174394607544 -4.016990661621094 -0.8110785484313965 -0.6328000426292419 0.07621156424283981 1.465537667274475 -0.6549696922302246 0.2182285487651825 -0.001526899985037744 4.795654773712158 -0.709174394607544 -4.016990661621094 -0.8110785484313965 -0.6328000426292419 0.07621156424283981 1.465537667274475 -0.6549696922302246 0.2182285487651825 -0.001526899985037744 4.795654773712158 -0.709174394607544 -4.016990661621094 -0.8110785484313965 -0.6328000426292419 0.07621156424283981 1.465537667274475 -0.6549696922302246 0.2182285487651825 -0.001526899985037744 4.795654773712158 -0.709174394607544 -4.016990661621094 -0.8110785484313965 -0.6328000426292419 0.07621156424283981 1.465537667274475 -0.6549696922302246 0.2182285487651825 -0.001526899985037744 4.795654773712158 -0.709174394607544 -4.016990661621094 -0.8110785484313965 -0.6328000426292419 0.07621156424283981 1.465537667274475 -0.6549696922302246 0.2182285487651825 -0.001526899985037744 4.795654773712158 -0.709174394607544 -4.016990661621094 -0.8110785484313965 -0.6328000426292419 0.07621156424283981 1.465537667274475 -0.6549696922302246 0.2182285487651825 -0.001526899985037744 4.795654773712158 -0.709174394607544 -4.016990661621094 -0.8110785484313965 -0.6328000426292419 0.07621156424283981 1.465537667274475 -0.6549696922302246 0.2182285487651825 -0.001526899985037744 
11 4.131494045257568 3.591121196746826 -1.5703425407409668 -0.3855886459350586 -2.4213900566101074 -1.8676244020462036 -0.7835054397583008 0.20416289567947388 0.3107409179210663 -0.0007578341173939407 4.131494045257568 3.591121196746826 -1.5703425407409668 -0.3855886459350586 -2.4213900566101074 -1.8676244020462036 -0.7835054397583008 0.20416289567947388 0.3107409179210663 -0.0007578341173939407 4.131494045257568 3.591121196746826 -1.5703425407409668 -0.3855886459350586 -2.4213900566101074 -1.8676244020462036 -0.7835054397583008 0.20416289567947388 0.3107409179210663 -0.0007578341173939407 4.131494045257568 3.591121196746826 -1.5703425407409668 -0.3855886459350586 -2.4213900566101074 -1.8676244020462036 -0.7835054397583008 0.20416289567947388 0.3107409179210663 -0.0007578341173939407 4.131494045257568 3.591121196746826 -1.5703425407409668 -0.3855886459350586 -2.4213900566101074 -1.8676244020462036 -0.7835054397583008 0.20416289567947388 0.3107409179210663 -0.0007578341173939407 4.131494045257568 3.591121196746826 -1.5703425407409668 -0.3855886459350586 -2.4213900566101074 -1.8676244020462036 -0.7835054397583008 0.20416289567947388 0.3107409179210663 -0.0007578341173939407 4.131494045257568 3.591121196746826 -1.5703425407409668 -0.3855886459350586 -2.4213900566101074 -1.8676244020462036 -0.7835054397583008 0.20416289567947388 0.3107409179210663 -0.0007578341173939407 4.131494045257568 3.591121196746826 -1.5703425407409668 -0.3855886459350586 -2.4213900566101074 -1.8676244020462036 -0.7835054397583008 0.20416289567947388 0.3107409179210663 -0.0007578341173939407 4.131494045257568 3.591121196746826 -1.5703425407409668 -0.3855886459350586 -2.4213900566101074 -1.8676244020462036 -0.7835054397583008 0.20416289567947388 0.3107409179210663 -0.0007578341173939407 4.131494045257568 3.591121196746826 -1.5703425407409668 -0.3855886459350586 -2.4213900566101074 -1.8676244020462036 -0.7835054397583008 0.20416289567947388 0.3107409179210663 -0.0007578341173939407 
12 1.9380983114242554 2.519568681716919 -0.8150158524513245 0.7954908609390259 -1.3714665174484253 4.36882209777832 0.6094018220901489 -0.5976321697235107 0.093149334192276 3.52778959274292 1.9380983114242554 2.519568681716919 -0.8150158524513245 0.7954908609390259 -1.3714665174484253 4.36882209777832 0.6094018220901489 -0.5976321697235107 0.093149334192276 3.52778959274292 1.9380983114242554 2.519568681716919 -0.8150158524513245 0.7954908609390259 -1.3714665174484253 4.36882209777832 0.6094018220901489 -0.5976321697235107 0.093149334192276 3.52778959274292 1.9380983114242554 2.519568681716919 -0.8150158524513245 0.7954908609390259 -1.3714665174484253 4.36882209777832 0.6094018220901489 -0.5976321697235107 0.093149334192276 3.52778959274292 1.9380983114242554 2.519568681716919 -0.8150158524513245 0.7954908609390259 -1.3714665174484253 4.36882209777832 0.6094018220901489 -0.5976321697235107 0.093149334192276 3.52778959274292 1.9380983114242554 2.519568681716919 -0.8150158524513245 0.7954908609390259 -1.3714665174484253 4.36882209777832 0.6094018220901489 -0.5976321697235107 0.093149334192276 3.52778959274292 1.9380983114242554 2.519568681716919 -0.8150158524513245 0.7954908609390259 -1.3714665174484253 4.36882209777832 0.6094018220901489 -0.5976321697235107 0.093149334192276 3.52778959274292 1.9380983114242554 2.519568681716919 -0.8150158524513245 0.7954908609390259 -1.3714665174484253 4.36882209777832 0.6094018220901489 -0.5976321697235107 0.093149334192276 3.52778959274292 1.9380983114242554 2.519568681716919 -0.8150158524513245 0.7954908609390259 -1.3714665174484253 4.36882209777832 0.6094018220901489 -0.5976321697235107 0.093149334192276 3.52778959274292 1.9380983114242554 2.519568681716919 -0.8150158524513245 0.7954908609390259 -1.3714665174484253 4.36882209777832 0.6094018220901489 -0.5976321697235107 0.093149334192276 3.52778959274292 
13 1.9381136894226074 2.5195581912994385 -0.8150141835212708 0.7954634428024292 -1.371271014213562 4.368175983428955 0.6114102602005005 -0.5965980291366577 0.10129848122596741 -3.5249123573303223 1.9381136894226074 2.5195581912994385 -0.8150141835212708 0.7954634428024292 -1.371271014213562 4.368175983428955 0.6114102602005005 -0.5965980291366577 0.10129848122596741 -3.5249123573303223 1.9381136894226074 2.5195581912994385 -0.8150141835212708 0.7954634428024292 -1.371271014213562 4.368175983428955 0.6114102602005005 -0.5965980291366577 0.10129848122596741 -3.5249123573303223 1.9381136894226074 2.5195581912994385 -0.8150141835212708 0.7954634428024292 -1.371271014213562 4.368175983428955 0.6114102602005005 -0.5965980291366577 0.10129848122596741 -3.5249123573303223 1.9381136894226074 2.5195581912994385 -0.8150141835212708 0.7954634428024292 -1.371271014213562 4.368175983428955 0.6114102602005005 -0.5965980291366577 0.10129848122596741 -3.5249123573303223 1.9381136894226074 2.5195581912994385 -0.8150141835212708 0.7954634428024292 -1.371271014213562 4.368175983428955 0.6114102602005005 -0.5965980291366577 0.10129848122596741 -3.5249123573303223 1.9381136894226074 2.5195581912994385 -0.8150141835212708 0.7954634428024292 -1.371271014213562 4.368175983428955 0.6114102602005005 -0.5965980291366577 0.10129848122596741 -3.5249123573303223 1.9381136894226074 2.5195581912994385 -0.8150141835212708 0.7954634428024292 -1.371271014213562 4.368175983428955 0.6114102602005005 -0.5965980291366577 0.10129848122596741 -3.5249123573303223 1.9381136894226074 2.5195581912994385 -0.8150141835212708 0.7954634428024292 -1.371271014213562 4.368175983428955 0.6114102602005005 -0.5965980291366577 0.10129848122596741 -3.5249123573303223 1.9381136894226074 2.5195581912994385 -0.8150141835212708 0.7954634428024292 -1.371271014213562 4.368175983428955 0.6114102602005005 -0.5965980291366577 0.10129848122596741 -3.5249123573303223 
14 1.8506097793579102 2.315394401550293 -0.7370755672454834 0.6613746881484985 -1.0829126834869385 3.34158992767334 0.37653085589408875 -0.3655102252960205 0.05541093274950981 -3.5264527797698975 1.8506097793579102 2.315394401550293 -0.7370755672454834 0.6613746881484985 -1.0829126834869385 3.34158992767334 0.37653085589408875 -0.3655102252960205 0.05541093274950981 -3.5264527797698975 1.8506097793579102 2.315394401550293 -0.7370755672454834 0.6613746881484985 -1.0829126834869385 3.34158992767334 0.37653085589408875 -0.3655102252960205 0.05541093274950981 -3.5264527797698975 1.8506097793579102 2.315394401550293 -0.7370755672454834 0.6613746881484985 -1.0829126834869385 3.34158992767334 0.37653085589408875 -0.3655102252960205 0.05541093274950981 -3.5264527797698975 1.8506097793579102 2.315394401550293 -0.7370755672454834 0.6613746881484985 -1.0829126834869385 3.34158992767334 0.37653085589408875 -0.3655102252960205 0.05541093274950981 -3.5264527797698975 1.8506097793579102 2.315394401550293 -0.7370755672454834 0.6613746881484985 -1.0829126834869385 3.34158992767334 0.37653085589408875 -0.3655102252960205 0.05541093274950981 -3.5264527797698975 1.8506097793579102 2.315394401550293 -0.7370755672454834 0.6613746881484985 -1.0829126834869385 3.34158992767334 0.37653085589408875 -0.3655102252960205 0.05541093274950981 -3.5264527797698975 1.8506097793579102 2.315394401550293 -0.7370755672454834 0.6613746881484985 -1.0829126834869385 3.34158992767334 0.37653085589408875 -0.3655102252960205 0.05541093274950981 -3.5264527797698975 1.8506097793579102 2.315394401550293 -0.7370755672454834 0.6613746881484985 -1.0829126834869385 3.34158992767334 0.37653085589408875 -0.3655102252960205 0.05541093274950981 -3.5264527797698975 1.8506097793579102 2.315394401550293 -0.7370755672454834 0.6613746881484985 -1.0829126834869385 3.34158992767334 0.37653085589408875 -0.3655102252960205 0.05541093274950981 -3.5264527797698975 
15 5.1094818115234375 4.340567111968994 -0.34026777744293213 -0.2245718240737915 -0.6238639950752258 -2.347299337387085 -1.0403438806533813 0.19405803084373474 -0.7148489356040955 -0.000503323448356241 5.1094818115234375 4.340567111968994 -0.34026777744293213 -0.2245718240737915 -0.6238639950752258 -2.347299337387085 -1.0403438806533813 0.19405803084373474 -0.7148489356040955 -0.000503323448356241 5.1094818115234375 4.340567111968994 -0.34026777744293213 -0.2245718240737915 -0.6238639950752258 -2.347299337387085 -1.0403438806533813 0.19405803084373474 -0.7148489356040955 -0.000503323448356241 5.1094818115234375 4.340567111968994 -0.34026777744293213 -0.2245718240737915 -0.6238639950752258 -2.347299337387085 -1.0403438806533813 0.19405803084373474 -0.7148489356040955 -0.000503323448356241 5.1094818115234375 4.340567111968994 -0.34026777744293213 -0.2245718240737915 -0.6238639950752258 -2.347299337387085 -1.0403438806533813 0.19405803084373474 -0.7148489356040955 -0.000503323448356241 5.1094818115234375 4.340567111968994 -0.34026777744293213 -0.2245718240737915 -0.6238639950752258 -2.347299337387085 -1.0403438806533813 0.19405803084373474 -0.7148489356040955 -0.000503323448356241 5.1094818115234375 4.340567111968994 -0.34026777744293213 -0.2245718240737915 -0.6238639950752258 -2.347299337387085 -1.0403438806533813 0.19405803084373474 -0.7148489356040955 -0.000503323448356241 5.1094818115234375 4.340567111968994 -0.34026777744293213 -0.2245718240737915 -0.6238639950752258 -2.347299337387085 -1.0403438806533813 0.19405803084373474 -0.7148489356040955 -0.000503323448356241 5.1094818115234375 4.340567111968994 -0.34026777744293213 -0.2245718240737915 -0.6238639950752258 -2.347299337387085 -1.0403438806533813 0.19405803084373474 -0.7148489356040955 -0.000503323448356241 5.1094818115234375 4.340567111968994 -0.34026777744293213 -0.2245718240737915 -0.6238639950752258 -2.347299337387085 -1.0403438806533813 0.19405803084373474 -0.7148489356040955 -0.000503323448356241 
16 7.543468475341797 2.2060680389404297 0.49689027667045593 6.432730674743652 1.5891659259796143 -2.5310544967651367 -0.9396129846572876 0.6058389544487 -0.6458656787872314 0.000261437613517046 7.543468475341797 2.2060680389404297 0.49689027667045593 6.432730674743652 1.5891659259796143 -2.5310544967651367 -0.9396129846572876 0.6058389544487 -0.6458656787872314 0.000261437613517046 7.543468475341797 2.2060680389404297 0.49689027667045593 6.432730674743652 1.5891659259796143 -2.5310544967651367 -0.9396129846572876 0.6058389544487 -0.6458656787872314 0.000261437613517046 7.543468475341797 2.2060680389404297 0.49689027667045593 6.432730674743652 1.5891659259796143 -2.5310544967651367 -0.9396129846572876 0.6058389544487 -0.6458656787872314 0.000261437613517046 7.543468475341797 2.2060680389404297 0.49689027667045593 6.432730674743652 1.5891659259796143 -2.5310544967651367 -0.9396129846572876 0.6058389544487 -0.6458656787872314 0.000261437613517046 7.543468475341797 2.2060680389404297 0.49689027667045593 6.432730674743652 1.5891659259796143 -2.5310544967651367 -0.9396129846572876 0.6058389544487 -0.6458656787872314 0.000261437613517046 7.543468475341797 2.2060680389404297 0.49689027667045593 6.432730674743652 1.5891659259796143 -2.5310544967651367 -0.9396129846572876 0.6058389544487 -0.6458656787872314 0.000261437613517046 7.543468475341797 2.2060680389404297 0.49689027667045593 6.432730674743652 1.5891659259796143 -2.5310544967651367 -0.9396129846572876 0.6058389544487 -0.6458656787872314 0.000261437613517046 7.543468475341797 2.2060680389404297 0.49689027667045593 6.432730674743652 1.5891659259796143 -2.5310544967651367 -0.9396129846572876 0.6058389544487 -0.6458656787872314 0.000261437613517046 7.543468475341797 2.2060680389404297 0.49689027667045593 6.432730674743652 1.5891659259796143 -2.5310544967651367 -0.9396129846572876 0.6058389544487 -0.6458656787872314 0.000261437613517046 
17 6.321658134460449 4.626351356506348 2.1005115509033203 -1.1466773748397827 0.6920738220214844 -2.6081666946411133 5.607977390289307 -0.4440354108810425 0.9713339805603027 0.003636857494711876 6.321658134460449 4.626351356506348 2.1005115509033203 -1.1466773748397827 0.6920738220214844 -2.6081666946411133 5.607977390289307 -0.4440354108810425 0.9713339805603027 0.003636857494711876 6.321658134460449 4.626351356506348 2.1005115509033203 -1.1466773748397827 0.6920738220214844 -2.6081666946411133 5.607977390289307 -0.4440354108810425 0.9713339805603027 0.003636857494711876 6.321658134460449 4.626351356506348 2.1005115509033203 -1.1466773748397827 0.6920738220214844 -2.6081666946411133 5.607977390289307 -0.4440354108810425 0.9713339805603027 0.003636857494711876 6.321658134460449 4.626351356506348 2.1005115509033203 -1.1466773748397827 0.6920738220214844 -2.6081666946411133 5.607977390289307 -0.4440354108810425 0.9713339805603027 0.003636857494711876 6.321658134460449 4.626351356506348 2.1005115509033203 -1.1466773748397827 0.6920738220214844 -2.6081666946411133 5.607977390289307 -0.4440354108810425 0.9713339805603027 0.003636857494711876 6.321658134460449 4.626351356506348 2.1005115509033203 -1.1466773748397827 0.6920738220214844 -2.6081666946411133 5.607977390289307 -0.4440354108810425 0.9713339805603027 0.003636857494711876 6.321658134460449 4.626351356506348 2.1005115509033203 -1.1466773748397827 0.6920738220214844 -2.6081666946411133 5.607977390289307 -0.4440354108810425 0.9713339805603027 0.003636857494711876 6.321658134460449 4.626351356506348 2.1005115509033203 -1.1466773748397827 0.6920738220214844 -2.6081666946411133 5.607977390289307 -0.4440354108810425 0.9713339805603027 0.003636857494711876 6.321658134460449 4.626351356506348 2.1005115509033203 -1.1466773748397827 0.6920738220214844 -2.6081666946411133 5.607977390289307 -0.4440354108810425 0.9713339805603027 0.003636857494711876 
18 3.330751419067383 -1.5643808841705322 -3.2912111282348633 0.3063814640045166 1.540844202041626 -0.6533353924751282 -2.193584680557251 -1.2011138200759888 -0.6720209121704102 -0.0006347558228299022 3.330751419067383 -1.5643808841705322 -3.2912111282348633 0.3063814640045166 1.540844202041626 -0.6533353924751282 -2.193584680557251 -1.2011138200759888 -0.6720209121704102 -0.0006347558228299022 3.330751419067383 -1.5643808841705322 -3.2912111282348633 0.3063814640045166 1.540844202041626 -0.6533353924751282 -2.193584680557251 -1.2011138200759888 -0.6720209121704102 -0.0006347558228299022 3.330751419067383 -1.5643808841705322 -3.2912111282348633 0.3063814640045166 1.540844202041626 -0.6533353924751282 -2.193584680557251 -1.2011138200759888 -0.6720209121704102 -0.0006347558228299022 3.330751419067383 -1.5643808841705322 -3.2912111282348633 0.3063814640045166 1.540844202041626 -0.6533353924751282 -2.193584680557251 -1.2011138200759888 -0.6720209121704102 -0.0006347558228299022 3.330751419067383 -1.5643808841705322 -3.2912111282348633 0.3063814640045166 1.540844202041626 -0.6533353924751282 -2.193584680557251 -1.2011138200759888 -0.6720209121704102 -0.0006347558228299022 3.330751419067383 -1.5643808841705322 -3.2912111282348633 0.3063814640045166 1.540844202041626 -0.6533353924751282 -2.193584680557251 -1.2011138200759888 -0.6720209121704102 -0.0006347558228299022 3.330751419067383 -1.5643808841705322 -3.2912111282348633 0.3063814640045166 1.540844202041626 -0.6533353924751282 -2.193584680557251 -1.2011138200759888 -0.6720209121704102 -0.0006347558228299022 3.330751419067383 -1.5643808841705322 -3.2912111282348633 0.3063814640045166 1.540844202041626 -0.6533353924751282 -2.193584680557251 -1.2011138200759888 -0.6720209121704102 -0.0006347558228299022 3.330751419067383 -1.5643808841705322 -3.2912111282348633 0.3063814640045166 1.540844202041626 -0.6533353924751282 -2.193584680557251 -1.2011138200759888 -0.6720209121704102 -0.0006347558228299022 
19 2.441004753112793 -0.890245795249939 -1.929277777671814 -3.0274405479431152 -0.15719640254974365 -0.7584951519966125 0.26698631048202515 -0.12314486503601074 0.64761883020401 0.0006275770720094442 2.441004753112793 -0.890245795249939 -1.929277777671814 -3.0274405479431152 -0.15719640254974365 -0.7584951519966125 0.26698631048202515 -0.12314486503601074 0.64761883020401 0.0006275770720094442 2.441004753112793 -0.890245795249939 -1.929277777671814 -3.0274405479431152 -0.15719640254974365 -0.7584951519966125 0.26698631048202515 -0.12314486503601074 0.64761883020401 0.0006275770720094442 2.441004753112793 -0.890245795249939 -1.929277777671814 -3.0274405479431152 -0.15719640254974365 -0.7584951519966125 0.26698631048202515 -0.12314486503601074 0.64761883020401 0.0006275770720094442 2.441004753112793 -0.890245795249939 -1.929277777671814 -3.0274405479431152 -0.15719640254974365 -0.7584951519966125 0.26698631048202515 -0.12314486503601074 0.64761883020401 0.0006275770720094442 2.441004753112793 -0.890245795249939 -1.929277777671814 -3.0274405479431152 -0.15719640254974365 -0.7584951519966125 0.26698631048202515 -0.12314486503601074 0.64761883020401 0.0006275770720094442 2.441004753112793 -0.890245795249939 -1.929277777671814 -3.0274405479431152 -0.15719640254974365 -0.7584951519966125 0.26698631048202515 -0.12314486503601074 0.64761883020401 0.0006275770720094442 2.441004753112793 -0.890245795249939 -1.929277777671814 -3.0274405479431152 -0.15719640254974365 -0.7584951519966125 0.26698631048202515 -0.12314486503601074 0.64761883020401 0.0006275770720094442 2.441004753112793 -0.890245795249939 -1.929277777671814 -3.0274405479431152 -0.15719640254974365 -0.7584951519966125 0.26698631048202515 -0.12314486503601074 0.64761883020401 0.0006275770720094442 2.441004753112793 -0.890245795249939 -1.929277777671814 -3.0274405479431152 -0.15719640254974365 -0.7584951519966125 0.26698631048202515 -0.12314486503601074 0.64761883020401 0.0006275770720094442 
20 7.145157814025879 -5.769091606140137 4.622242450714111 -3.8933370113372803 -4.334826946258545 0.39470815658569336 -0.8982871174812317 -1.3520801067352295 1.1423543691635132 0.0009447891497984529 7.145157814025879 -5.769091606140137 4.622242450714111 -3.8933370113372803 -4.334826946258545 0.39470815658569336 -0.8982871174812317 -1.3520801067352295 1.1423543691635132 0.0009447891497984529 7.145157814025879 -5.769091606140137 4.622242450714111 -3.8933370113372803 -4.334826946258545 0.39470815658569336 -0.8982871174812317 -1.3520801067352295 1.1423543691635132 0.0009447891497984529 7.145157814025879 -5.769091606140137 4.622242450714111 -3.8933370113372803 -4.334826946258545 0.39470815658569336 -0.8982871174812317 -1.3520801067352295 1.1423543691635132 0.0009447891497984529 7.145157814025879 -5.769091606140137 4.622242450714111 -3.8933370113372803 -4.334826946258545 0.39470815658569336 -0.8982871174812317 -1.3520801067352295 1.1423543691635132 0.0009447891497984529 7.145157814025879 -5.769091606140137 4.622242450714111 -3.8933370113372803 -4.334826946258545 0.39470815658569336 -0.8982871174812317 -1.3520801067352295 1.1423543691635132 0.0009447891497984529 7.145157814025879 -5.769091606140137 4.622242450714111 -3.8933370113372803 -4.334826946258545 0.39470815658569336 -0.8982871174812317 -1.3520801067352295 1.1423543691635132 0.0009447891497984529 7.145157814025879 -5.769091606140137 4.622242450714111 -3.8933370113372803 -4.334826946258545 0.39470815658569336 -0.8982871174812317 -1.3520801067352295 1.1423543691635132 0.0009447891497984529 7.145157814025879 -5.769091606140137 4.622242450714111 -3.8933370113372803 -4.334826946258545 0.39470815658569336 -0.8982871174812317 -1.3520801067352295 1.1423543691635132 0.0009447891497984529 7.145157814025879 -5.769091606140137 4.622242450714111 -3.8933370113372803 -4.334826946258545 0.39470815658569336 -0.8982871174812317 -1.3520801067352295 1.1423543691635132 0.0009447891497984529 
21 3.1247830390930176 -1.2716225385665894 -1.0177572965621948 -3.6908161640167236 -0.16360342502593994 -0.26383233070373535 -0.5604758858680725 1.267337441444397 0.8651473522186279 0.0009701037779450417 3.1247830390930176 -1.2716225385665894 -1.0177572965621948 -3.6908161640167236 -0.16360342502593994 -0.26383233070373535 -0.5604758858680725 1.267337441444397 0.8651473522186279 0.0009701037779450417 3.1247830390930176 -1.2716225385665894 -1.0177572965621948 -3.6908161640167236 -0.16360342502593994 -0.26383233070373535 -0.5604758858680725 1.267337441444397 0.8651473522186279 0.0009701037779450417 3.1247830390930176 -1.2716225385665894 -1.0177572965621948 -3.6908161640167236 -0.16360342502593994 -0.26383233070373535 -0.5604758858680725 1.267337441444397 0.8651473522186279 0.0009701037779450417 3.1247830390930176 -1.2716225385665894 -1.0177572965621948 -3.6908161640167236 -0.16360342502593994 -0.26383233070373535 -0.5604758858680725 1.267337441444397 0.8651473522186279 0.0009701037779450417 3.1247830390930176 -1.2716225385665894 -1.0177572965621948 -3.6908161640167236 -0.16360342502593994 -0.26383233070373535 -0.5604758858680725 1.267337441444397 0.8651473522186279 0.0009701037779450417 3.1247830390930176 -1.2716225385665894 -1.0177572965621948 -3.6908161640167236 -0.16360342502593994 -0.26383233070373535 -0.5604758858680725 1.267337441444397 0.8651473522186279 0.0009701037779450417 3.1247830390930176 -1.2716225385665894 -1.0177572965621948 -3.6908161640167236 -0.16360342502593994 -0.26383233070373535 -0.5604758858680725 1.267337441444397 0.8651473522186279 0.0009701037779450417 3.1247830390930176 -1.2716225385665894 -1.0177572965621948 -3.6908161640167236 -0.16360342502593994 -0.26383233070373535 -0.5604758858680725 1.267337441444397 0.8651473522186279 0.0009701037779450417 3.1247830390930176 -1.2716225385665894 -1.0177572965621948 -3.6908161640167236 -0.16360342502593994 -0.26383233070373535 -0.5604758858680725 1.267337441444397 0.8651473522186279 0.0009701037779450417 
22 3.1810073852539062 -1.8830499649047852 -1.6504368782043457 -3.6816234588623047 -0.9990139603614807 -0.26862144470214844 0.846373975276947 2.3570287227630615 -2.484834909439087 -0.0014007845893502235 3.1810073852539062 -1.8830499649047852 -1.6504368782043457 -3.6816234588623047 -0.9990139603614807 -0.26862144470214844 0.846373975276947 2.3570287227630615 -2.484834909439087 -0.0014007845893502235 3.1810073852539062 -1.8830499649047852 -1.6504368782043457 -3.6816234588623047 -0.9990139603614807 -0.26862144470214844 0.846373975276947 2.3570287227630615 -2.484834909439087 -0.0014007845893502235 3.1810073852539062 -1.8830499649047852 -1.6504368782043457 -3.6816234588623047 -0.9990139603614807 -0.26862144470214844 0.846373975276947 2.3570287227630615 -2.484834909439087 -0.0014007845893502235 3.1810073852539062 -1.8830499649047852 -1.6504368782043457 -3.6816234588623047 -0.9990139603614807 -0.26862144470214844 0.846373975276947 2.3570287227630615 -2.484834909439087 -0.0014007845893502235 3.1810073852539062 -1.8830499649047852 -1.6504368782043457 -3.6816234588623047 -0.9990139603614807 -0.26862144470214844 0.846373975276947 2.3570287227630615 -2.484834909439087 -0.0014007845893502235 3.1810073852539062 -1.8830499649047852 -1.6504368782043457 -3.6816234588623047 -0.9990139603614807 -0.26862144470214844 0.846373975276947 2.3570287227630615 -2.484834909439087 -0.0014007845893502235 3.1810073852539062 -1.8830499649047852 -1.6504368782043457 -3.6816234588623047 -0.9990139603614807 -0.26862144470214844 0.846373975276947 2.3570287227630615 -2.484834909439087 -0.0014007845893502235 3.1810073852539062 -1.8830499649047852 -1.6504368782043457 -3.6816234588623047 -0.9990139603614807 -0.26862144470214844 0.846373975276947 2.3570287227630615 -2.484834909439087 -0.0014007845893502235 3.1810073852539062 -1.8830499649047852 -1.6504368782043457 -3.6816234588623047 -0.9990139603614807 -0.26862144470214844 0.846373975276947 2.3570287227630615 -2.484834909439087 -0.0014007845893502235 
23 0.5821316838264465 1.0143383741378784 0.3565906286239624 -0.46248194575309753 0.8918001651763916 2.998605728149414 -0.5331103801727295 -0.5333782434463501 -0.0981091782450676 -0.003069639205932617 0.5821316838264465 1.0143383741378784 0.3565906286239624 -0.46248194575309753 0.8918001651763916 2.998605728149414 -0.5331103801727295 -0.5333782434463501 -0.0981091782450676 -0.003069639205932617 0.5821316838264465 1.0143383741378784 0.3565906286239624 -0.46248194575309753 0.8918001651763916 2.998605728149414 -0.5331103801727295 -0.5333782434463501 -0.0981091782450676 -0.003069639205932617 0.5821316838264465 1.0143383741378784 0.3565906286239624 -0.46248194575309753 0.8918001651763916 2.998605728149414 -0.5331103801727295 -0.5333782434463501 -0.0981091782450676 -0.003069639205932617 0.5821316838264465 1.0143383741378784 0.3565906286239624 -0.46248194575309753 0.8918001651763916 2.998605728149414 -0.5331103801727295 -0.5333782434463501 -0.0981091782450676 -0.003069639205932617 0.5821316838264465 1.0143383741378784 0.3565906286239624 -0.46248194575309753 0.8918001651763916 2.998605728149414 -0.5331103801727295 -0.5333782434463501 -0.0981091782450676 -0.003069639205932617 0.5821316838264465 1.0143383741378784 0.3565906286239624 -0.46248194575309753 0.8918001651763916 2.998605728149414 -0.5331103801727295 -0.5333782434463501 -0.0981091782450676 -0.003069639205932617 0.5821316838264465 1.0143383741378784 0.3565906286239624 -0.46248194575309753 0.8918001651763916 2.998605728149414 -0.5331103801727295 -0.5333782434463501 -0.0981091782450676 -0.003069639205932617 0.5821316838264465 1.0143383741378784 0.3565906286239624 -0.46248194575309753 0.8918001651763916 2.998605728149414 -0.5331103801727295 -0.5333782434463501 -0.0981091782450676 -0.003069639205932617 0.5821316838264465 1.0143383741378784 0.3565906286239624 -0.46248194575309753 0.8918001651763916 2.998605728149414 -0.5331103801727295 -0.5333782434463501 -0.0981091782450676 -0.003069639205932617 
24 8.708011627197266 -6.629231929779053 8.323230743408203 3.9860169887542725 -1.1060808897018433 0.3173125982284546 0.3321323096752167 -0.8889800310134888 -0.7062252163887024 -0.0013814204139634967 8.708011627197266 -6.629231929779053 8.323230743408203 3.9860169887542725 -1.1060808897018433 0.3173125982284546 0.3321323096752167 -0.8889800310134888 -0.7062252163887024 -0.0013814204139634967 8.708011627197266 -6.629231929779053 8.323230743408203 3.9860169887542725 -1.1060808897018433 0.3173125982284546 0.3321323096752167 -0.8889800310134888 -0.7062252163887024 -0.0013814204139634967 8.708011627197266 -6.629231929779053 8.323230743408203 3.9860169887542725 -1.1060808897018433 0.3173125982284546 0.3321323096752167 -0.8889800310134888 -0.7062252163887024 -0.0013814204139634967 8.708011627197266 -6.629231929779053 8.323230743408203 3.9860169887542725 -1.1060808897018433 0.3173125982284546 0.3321323096752167 -0.8889800310134888 -0.7062252163887024 -0.0013814204139634967 8.708011627197266 -6.629231929779053 8.323230743408203 3.9860169887542725 -1.1060808897018433 0.3173125982284546 0.3321323096752167 -0.8889800310134888 -0.7062252163887024 -0.0013814204139634967 8.708011627197266 -6.629231929779053 8.323230743408203 3.9860169887542725 -1.1060808897018433 0.3173125982284546 0.3321323096752167 -0.8889800310134888 -0.7062252163887024 -0.0013814204139634967 8.708011627197266 -6.629231929779053 8.323230743408203 3.9860169887542725 -1.1060808897018433 0.3173125982284546 0.3321323096752167 -0.8889800310134888 -0.7062252163887024 -0.0013814204139634967 8.708011627197266 -6.629231929779053 8.323230743408203 3.9860169887542725 -1.1060808897018433 0.3173125982284546 0.3321323096752167 -0.8889800310134888 -0.7062252163887024 -0.0013814204139634967 8.708011627197266 -6.629231929779053 8.323230743408203 3.9860169887542725 -1.1060808897018433 0.3173125982284546 0.3321323096752167 -0.8889800310134888 -0.7062252163887024 -0.0013814204139634967 
25 2.3812129497528076 -2.4955101013183594 -2.831688165664673 -0.027038216590881348 1.765972375869751 0.24217557907104492 0.25633981823921204 -0.9850621819496155 -0.2092379629611969 0.0003231734735891223 2.3812129497528076 -2.4955101013183594 -2.831688165664673 -0.027038216590881348 1.765972375869751 0.24217557907104492 0.25633981823921204 -0.9850621819496155 -0.2092379629611969 0.0003231734735891223 2.3812129497528076 -2.4955101013183594 -2.831688165664673 -0.027038216590881348 1.765972375869751 0.24217557907104492 0.25633981823921204 -0.9850621819496155 -0.2092379629611969 0.0003231734735891223 2.3812129497528076 -2.4955101013183594 -2.831688165664673 -0.027038216590881348 1.765972375869751 0.24217557907104492 0.25633981823921204 -0.9850621819496155 -0.2092379629611969 0.0003231734735891223 2.3812129497528076 -2.4955101013183594 -2.831688165664673 -0.027038216590881348 1.765972375869751 0.24217557907104492 0.25633981823921204 -0.9850621819496155 -0.2092379629611969 0.0003231734735891223 2.3812129497528076 -2.4955101013183594 -2.831688165664673 -0.027038216590881348 1.765972375869751 0.24217557907104492 0.25633981823921204 -0.9850621819496155 -0.2092379629611969 0.0003231734735891223 2.3812129497528076 -2.4955101013183594 -2.831688165664673 -0.027038216590881348 1.765972375869751 0.24217557907104492 0.25633981823921204 -0.9850621819496155 -0.2092379629611969 0.0003231734735891223 2.3812129497528076 -2.4955101013183594 -2.831688165664673 -0.027038216590881348 1.765972375869751 0.24217557907104492 0.25633981823921204 -0.9850621819496155 -0.2092379629611969 0.0003231734735891223 2.3812129497528076 -2.4955101013183594 -2.831688165664673 -0.027038216590881348 1.765972375869751 0.24217557907104492 0.25633981823921204 -0.9850621819496155 -0.2092379629611969 0.0003231734735891223 2.3812129497528076 -2.4955101013183594 -2.831688165664673 -0.027038216590881348 1.765972375869751 0.24217557907104492 0.25633981823921204 -0.9850621819496155 -0.2092379629611969 0.0003231734735891223 
26 2.3812129497528076 -2.4955101013183594 -2.831688165664673 -0.027038216590881348 1.765972375869751 0.24217557907104492 0.25633981823921204 -0.9850621819496155 -0.2092379629611969 0.0003231734735891223 2.3812129497528076 -2.4955101013183594 -2.831688165664673 -0.027038216590881348 1.765972375869751 0.24217557907104492 0.25633981823921204 -0.9850621819496155 -0.2092379629611969 0.0003231734735891223 2.3812129497528076 -2.4955101013183594 -2.831688165664673 -0.027038216590881348 1.765972375869751 0.24217557907104492 0.25633981823921204 -0.9850621819496155 -0.2092379629611969 0.0003231734735891223 2.3812129497528076 -2.4955101013183594 -2.831688165664673 -0.027038216590881348 1.765972375869751 0.24217557907104492 0.25633981823921204 -0.9850621819496155 -0.2092379629611969 0.0003231734735891223 2.3812129497528076 -2.4955101013183594 -2.831688165664673 -0.027038216590881348 1.765972375869751 0.24217557907104492 0.25633981823921204 -0.9850621819496155 -0.2092379629611969 0.0003231734735891223 2.3812129497528076 -2.4955101013183594 -2.831688165664673 -0.027038216590881348 1.765972375869751 0.24217557907104492 0.25633981823921204 -0.9850621819496155 -0.2092379629611969 0.0003231734735891223 2.3812129497528076 -2.4955101013183594 -2.831688165664673 -0.027038216590881348 1.765972375869751 0.24217557907104492 0.25633981823921204 -0.9850621819496155 -0.2092379629611969 0.0003231734735891223 2.3812129497528076 -2.4955101013183594 -2.831688165664673 -0.027038216590881348 1.765972375869751 0.24217557907104492 0.25633981823921204 -0.9850621819496155 -0.2092379629611969 0.0003231734735891223 2.3812129497528076 -2.4955101013183594 -2.831688165664673 -0.027038216590881348 1.765972375869751 0.24217557907104492 0.25633981823921204 -0.9850621819496155 -0.2092379629611969 0.0003231734735891223 2.3812129497528076 -2.4955101013183594 -2.831688165664673 -0.027038216590881348 1.765972375869751 0.24217557907104492 0.25633981823921204 -0.9850621819496155 -0.2092379629611969 0.0003231734735891223 
27 2.3812129497528076 -2.4955101013183594 -2.831688165664673 -0.027038216590881348 1.765972375869751 0.24217557907104492 0.25633981823921204 -0.9850621819496155 -0.2092379629611969 0.0003231734735891223 2.3812129497528076 -2.4955101013183594 -2.831688165664673 -0.027038216590881348 1.765972375869751 0.24217557907104492 0.25633981823921204 -0.9850621819496155 -0.2092379629611969 0.0003231734735891223 2.3812129497528076 -2.4955101013183594 -2.831688165664673 -0.027038216590881348 1.765972375869751 0.24217557907104492 0.25633981823921204 -0.9850621819496155 -0.2092379629611969 0.0003231734735891223 2.3812129497528076 -2.4955101013183594 -2.831688165664673 -0.027038216590881348 1.765972375869751 0.24217557907104492 0.25633981823921204 -0.9850621819496155 -0.2092379629611969 0.0003231734735891223 2.3812129497528076 -2.4955101013183594 -2.831688165664673 -0.027038216590881348 1.765972375869751 0.24217557907104492 0.25633981823921204 -0.9850621819496155 -0.2092379629611969 0.0003231734735891223 2.3812129497528076 -2.4955101013183594 -2.831688165664673 -0.027038216590881348 1.765972375869751 0.24217557907104492 0.25633981823921204 -0.9850621819496155 -0.2092379629611969 0.0003231734735891223 2.3812129497528076 -2.4955101013183594 -2.831688165664673 -0.027038216590881348 1.765972375869751 0.24217557907104492 0.25633981823921204 -0.9850621819496155 -0.2092379629611969 0.0003231734735891223 2.3812129497528076 -2.4955101013183594 -2.831688165664673 -0.027038216590881348 1.765972375869751 0.24217557907104492 0.25633981823921204 -0.9850621819496155 -0.2092379629611969 0.0003231734735891223 2.3812129497528076 -2.4955101013183594 -2.831688165664673 -0.027038216590881348 1.765972375869751 0.24217557907104492 0.25633981823921204 -0.9850621819496155 -0.2092379629611969 0.0003231734735891223 2.3812129497528076 -2.4955101013183594 -2.831688165664673 -0.027038216590881348 1.765972375869751 0.24217557907104492 0.25633981823921204 -0.9850621819496155 -0.2092379629611969 0.0003231734735891223 
28 2.3812129497528076 -2.4955101013183594 -2.831688165664673 -0.027038216590881348 1.765972375869751 0.24217557907104492 0.25633981823921204 -0.9850621819496155 -0.2092379629611969 0.0003231734735891223 2.3812129497528076 -2.4955101013183594 -2.831688165664673 -0.027038216590881348 1.765972375869751 0.24217557907104492 0.25633981823921204 -0.9850621819496155 -0.2092379629611969 0.0003231734735891223 2.3812129497528076 -2.4955101013183594 -2.831688165664673 -0.027038216590881348 1.765972375869751 0.24217557907104492 0.25633981823921204 -0.9850621819496155 -0.2092379629611969 0.0003231734735891223 2.3812129497528076 -2.4955101013183594 -2.831688165664673 -0.027038216590881348 1.765972375869751 0.24217557907104492 0.25633981823921204 -0.9850621819496155 -0.2092379629611969 0.0003231734735891223 2.3812129497528076 -2.4955101013183594 -2.831688165664673 -0.027038216590881348 1.765972375869751 0.24217557907104492 0.25633981823921204 -0.9850621819496155 -0.2092379629611969 0.0003231734735891223 2.3812129497528076 -2.4955101013183594 -2.831688165664673 -0.027038216590881348 1.765972375869751 0.24217557907104492 0.25633981823921204 -0.9850621819496155 -0.2092379629611969 0.0003231734735891223 2.3812129497528076 -2.4955101013183594 -2.831688165664673 -0.027038216590881348 1.765972375869751 0.24217557907104492 0.25633981823921204 -0.9850621819496155 -0.2092379629611969 0.0003231734735891223 2.3812129497528076 -2.4955101013183594 -2.831688165664673 -0.027038216590881348 1.765972375869751 0.24217557907104492 0.25633981823921204 -0.9850621819496155 -0.2092379629611969 0.0003231734735891223 2.3812129497528076 -2.4955101013183594 -2.831688165664673 -0.027038216590881348 1.765972375869751 0.24217557907104492 0.25633981823921204 -0.9850621819496155 -0.2092379629611969 0.0003231734735891223 2.3812129497528076 -2.4955101013183594 -2.831688165664673 -0.027038216590881348 1.765972375869751 0.24217557907104492 0.25633981823921204 -0.9850621819496155 -0.2092379629611969 0.0003231734735891223 
29 2.3812129497528076 -2.4955101013183594 -2.831688165664673 -0.027038216590881348 1.765972375869751 0.24217557907104492 0.25633981823921204 -0.9850621819496155 -0.2092379629611969 0.0003231734735891223 2.3812129497528076 -2.4955101013183594 -2.831688165664673 -0.027038216590881348 1.765972375869751 0.24217557907104492 0.25633981823921204 -0.9850621819496155 -0.2092379629611969 0.0003231734735891223 2.3812129497528076 -2.4955101013183594 -2.831688165664673 -0.027038216590881348 1.765972375869751 0.24217557907104492 0.25633981823921204 -0.9850621819496155 -0.2092379629611969 0.0003231734735891223 2.3812129497528076 -2.4955101013183594 -2.831688165664673 -0.027038216590881348 1.765972375869751 0.24217557907104492 0.25633981823921204 -0.9850621819496155 -0.2092379629611969 0.0003231734735891223 2.3812129497528076 -2.4955101013183594 -2.831688165664673 -0.027038216590881348 1.765972375869751 0.24217557907104492 0.25633981823921204 -0.9850621819496155 -0.2092379629611969 0.0003231734735891223 2.3812129497528076 -2.4955101013183594 -2.831688165664673 -0.027038216590881348 1.765972375869751 0.24217557907104492 0.25633981823921204 -0.9850621819496155 -0.2092379629611969 0.0003231734735891223 2.3812129497528076 -2.4955101013183594 -2.831688165664673 -0.027038216590881348 1.765972375869751 0.24217557907104492 0.25633981823921204 -0.9850621819496155 -0.2092379629611969 0.0003231734735891223 2.3812129497528076 -2.4955101013183594 -2.831688165664673 -0.027038216590881348 1.765972375869751 0.24217557907104492 0.25633981823921204 -0.9850621819496155 -0.2092379629611969 0.0003231734735891223 2.3812129497528076 -2.4955101013183594 -2.831688165664673 -0.027038216590881348 1.765972375869751 0.24217557907104492 0.25633981823921204 -0.9850621819496155 -0.2092379629611969 0.0003231734735891223 2.3812129497528076 -2.4955101013183594 -2.831688165664673 -0.027038216590881348 1.765972375869751 0.24217557907104492 0.25633981823921204 -0.9850621819496155 -0.2092379629611969 0.0003231734735891223 
30 3.550863027572632 -3.8954098224639893 -2.2869668006896973 1.4622676372528076 2.0028772354125977 0.6913081407546997 -0.25600114464759827 1.4753721952438354 3.7296695709228516 0.004461042582988739 3.550863027572632 -3.8954098224639893 -2.2869668006896973 1.4622676372528076 2.0028772354125977 0.6913081407546997 -0.25600114464759827 1.4753721952438354 3.7296695709228516 0.004461042582988739 3.550863027572632 -3.8954098224639893 -2.2869668006896973 1.4622676372528076 2.0028772354125977 0.6913081407546997 -0.25600114464759827 1.4753721952438354 3.7296695709228516 0.004461042582988739 3.550863027572632 -3.8954098224639893 -2.2869668006896973 1.4622676372528076 2.0028772354125977 0.6913081407546997 -0.25600114464759827 1.4753721952438354 3.7296695709228516 0.004461042582988739 3.550863027572632 -3.8954098224639893 -2.2869668006896973 1.4622676372528076 2.0028772354125977 0.6913081407546997 -0.25600114464759827 1.4753721952438354 3.7296695709228516 0.004461042582988739 3.550863027572632 -3.8954098224639893 -2.2869668006896973 1.4622676372528076 2.0028772354125977 0.6913081407546997 -0.25600114464759827 1.4753721952438354 3.7296695709228516 0.004461042582988739 3.550863027572632 -3.8954098224639893 -2.2869668006896973 1.4622676372528076 2.0028772354125977 0.6913081407546997 -0.25600114464759827 1.4753721952438354 3.7296695709228516 0.004461042582988739 3.550863027572632 -3.8954098224639893 -2.2869668006896973 1.4622676372528076 2.0028772354125977 0.6913081407546997 -0.25600114464759827 1.4753721952438354 3.7296695709228516 0.004461042582988739 3.550863027572632 -3.8954098224639893 -2.2869668006896973 1.4622676372528076 2.0028772354125977 0.6913081407546997 -0.25600114464759827 1.4753721952438354 3.7296695709228516 0.004461042582988739 3.550863027572632 -3.8954098224639893 -2.2869668006896973 1.4622676372528076 2.0028772354125977 0.6913081407546997 -0.25600114464759827 1.4753721952438354 3.7296695709228516 0.004461042582988739 
31 3.182772159576416 -3.6979589462280273 -2.030391216278076 -0.12578856945037842 1.1168031692504883 0.5868074893951416 0.5254948139190674 -0.628403902053833 -2.8077874183654785 -0.003992343321442604 3.182772159576416 -3.6979589462280273 -2.030391216278076 -0.12578856945037842 1.1168031692504883 0.5868074893951416 0.5254948139190674 -0.628403902053833 -2.8077874183654785 -0.003992343321442604 3.182772159576416 -3.6979589462280273 -2.030391216278076 -0.12578856945037842 1.1168031692504883 0.5868074893951416 0.5254948139190674 -0.628403902053833 -2.8077874183654785 -0.003992343321442604 3.182772159576416 -3.6979589462280273 -2.030391216278076 -0.12578856945037842 1.1168031692504883 0.5868074893951416 0.5254948139190674 -0.628403902053833 -2.8077874183654785 -0.003992343321442604 3.182772159576416 -3.6979589462280273 -2.030391216278076 -0.12578856945037842 1.1168031692504883 0.5868074893951416 0.5254948139190674 -0.628403902053833 -2.8077874183654785 -0.003992343321442604 3.182772159576416 -3.6979589462280273 -2.030391216278076 -0.12578856945037842 1.1168031692504883 0.5868074893951416 0.5254948139190674 -0.628403902053833 -2.8077874183654785 -0.003992343321442604 3.182772159576416 -3.6979589462280273 -2.030391216278076 -0.12578856945037842 1.1168031692504883 0.5868074893951416 0.5254948139190674 -0.628403902053833 -2.8077874183654785 -0.003992343321442604 3.182772159576416 -3.6979589462280273 -2.030391216278076 -0.12578856945037842 1.1168031692504883 0.5868074893951416 0.5254948139190674 -0.628403902053833 -2.8077874183654785 -0.003992343321442604 3.182772159576416 -3.6979589462280273 -2.030391216278076 -0.12578856945037842 1.1168031692504883 0.5868074893951416 0.5254948139190674 -0.628403902053833 -2.8077874183654785 -0.003992343321442604 3.182772159576416 -3.6979589462280273 -2.030391216278076 -0.12578856945037842 1.1168031692504883 0.5868074893951416 0.5254948139190674 -0.628403902053833 -2.8077874183654785 -0.003992343321442604 
32 1.4237807989120483 -1.374180793762207 1.1903612613677979 -1.3175584077835083 -0.8482245802879333 0.9845365285873413 -0.24807453155517578 3.8706557750701904 -2.9149250984191895 -0.0016858349554240704 1.4237807989120483 -1.374180793762207 1.1903612613677979 -1.3175584077835083 -0.8482245802879333 0.9845365285873413 -0.24807453155517578 3.8706557750701904 -2.9149250984191895 -0.0016858349554240704 1.4237807989120483 -1.374180793762207 1.1903612613677979 -1.3175584077835083 -0.8482245802879333 0.9845365285873413 -0.24807453155517578 3.8706557750701904 -2.9149250984191895 -0.0016858349554240704 1.4237807989120483 -1.374180793762207 1.1903612613677979 -1.3175584077835083 -0.8482245802879333 0.9845365285873413 -0.24807453155517578 3.8706557750701904 -2.9149250984191895 -0.0016858349554240704 1.4237807989120483 -1.374180793762207 1.1903612613677979 -1.3175584077835083 -0.8482245802879333 0.9845365285873413 -0.24807453155517578 3.8706557750701904 -2.9149250984191895 -0.0016858349554240704 1.4237807989120483 -1.374180793762207 1.1903612613677979 -1.3175584077835083 -0.8482245802879333 0.9845365285873413 -0.24807453155517578 3.8706557750701904 -2.9149250984191895 -0.0016858349554240704 1.4237807989120483 -1.374180793762207 1.1903612613677979 -1.3175584077835083 -0.8482245802879333 0.9845365285873413 -0.24807453155517578 3.8706557750701904 -2.9149250984191895 -0.0016858349554240704 1.4237807989120483 -1.374180793762207 1.1903612613677979 -1.3175584077835083 -0.8482245802879333 0.9845365285873413 -0.24807453155517578 3.8706557750701904 -2.9149250984191895 -0.0016858349554240704 1.4237807989120483 -1.374180793762207 1.1903612613677979 -1.3175584077835083 -0.8482245802879333 0.9845365285873413 -0.24807453155517578 3.8706557750701904 -2.9149250984191895 -0.0016858349554240704 1.4237807989120483 -1.374180793762207 1.1903612613677979 -1.3175584077835083 -0.8482245802879333 0.9845365285873413 -0.24807453155517578 3.8706557750701904 -2.9149250984191895 -0.0016858349554240704 
33 1.3754554986953735 -1.0368945598602295 1.0122551918029785 0.7888122797012329 0.5936036705970764 0.7407405376434326 -1.1098556518554688 4.132474422454834 2.8112640380859375 0.004144542384892702 1.3754554986953735 -1.0368945598602295 1.0122551918029785 0.7888122797012329 0.5936036705970764 0.7407405376434326 -1.1098556518554688 4.132474422454834 2.8112640380859375 0.004144542384892702 1.3754554986953735 -1.0368945598602295 1.0122551918029785 0.7888122797012329 0.5936036705970764 0.7407405376434326 -1.1098556518554688 4.132474422454834 2.8112640380859375 0.004144542384892702 1.3754554986953735 -1.0368945598602295 1.0122551918029785 0.7888122797012329 0.5936036705970764 0.7407405376434326 -1.1098556518554688 4.132474422454834 2.8112640380859375 0.004144542384892702 1.3754554986953735 -1.0368945598602295 1.0122551918029785 0.7888122797012329 0.5936036705970764 0.7407405376434326 -1.1098556518554688 4.132474422454834 2.8112640380859375 0.004144542384892702 1.3754554986953735 -1.0368945598602295 1.0122551918029785 0.7888122797012329 0.5936036705970764 0.7407405376434326 -1.1098556518554688 4.132474422454834 2.8112640380859375 0.004144542384892702 1.3754554986953735 -1.0368945598602295 1.0122551918029785 0.7888122797012329 0.5936036705970764 0.7407405376434326 -1.1098556518554688 4.132474422454834 2.8112640380859375 0.004144542384892702 1.3754554986953735 -1.0368945598602295 1.0122551918029785 0.7888122797012329 0.5936036705970764 0.7407405376434326 -1.1098556518554688 4.132474422454834 2.8112640380859375 0.004144542384892702 1.3754554986953735 -1.0368945598602295 1.0122551918029785 0.7888122797012329 0.5936036705970764 0.7407405376434326 -1.1098556518554688 4.132474422454834 2.8112640380859375 0.004144542384892702 1.3754554986953735 -1.0368945598602295 1.0122551918029785 0.7888122797012329 0.5936036705970764 0.7407405376434326 -1.1098556518554688 4.132474422454834 2.8112640380859375 0.004144542384892702 
34 1.7860229015350342 -2.0786619186401367 -1.3765374422073364 -1.121530532836914 -0.0033909082412719727 0.30984410643577576 -0.37034061551094055 -0.6728562116622925 1.6847060918807983 0.0021063147578388453 1.7860229015350342 -2.0786619186401367 -1.3765374422073364 -1.121530532836914 -0.0033909082412719727 0.30984410643577576 -0.37034061551094055 -0.6728562116622925 1.6847060918807983 0.0021063147578388453 1.7860229015350342 -2.0786619186401367 -1.3765374422073364 -1.121530532836914 -0.0033909082412719727 0.30984410643577576 -0.37034061551094055 -0.6728562116622925 1.6847060918807983 0.0021063147578388453 1.7860229015350342 -2.0786619186401367 -1.3765374422073364 -1.121530532836914 -0.0033909082412719727 0.30984410643577576 -0.37034061551094055 -0.6728562116622925 1.6847060918807983 0.0021063147578388453 1.7860229015350342 -2.0786619186401367 -1.3765374422073364 -1.121530532836914 -0.0033909082412719727 0.30984410643577576 -0.37034061551094055 -0.6728562116622925 1.6847060918807983 0.0021063147578388453 1.7860229015350342 -2.0786619186401367 -1.3765374422073364 -1.121530532836914 -0.0033909082412719727 0.30984410643577576 -0.37034061551094055 -0.6728562116622925 1.6847060918807983 0.0021063147578388453 1.7860229015350342 -2.0786619186401367 -1.3765374422073364 -1.121530532836914 -0.0033909082412719727 0.30984410643577576 -0.37034061551094055 -0.6728562116622925 1.6847060918807983 0.0021063147578388453 1.7860229015350342 -2.0786619186401367 -1.3765374422073364 -1.121530532836914 -0.0033909082412719727 0.30984410643577576 -0.37034061551094055 -0.6728562116622925 1.6847060918807983 0.0021063147578388453 1.7860229015350342 -2.0786619186401367 -1.3765374422073364 -1.121530532836914 -0.0033909082412719727 0.30984410643577576 -0.37034061551094055 -0.6728562116622925 1.6847060918807983 0.0021063147578388453 1.7860229015350342 -2.0786619186401367 -1.3765374422073364 -1.121530532836914 -0.0033909082412719727 0.30984410643577576 -0.37034061551094055 -0.6728562116622925 1.6847060918807983 0.0021063147578388453 
