34 34
1 -0.3223291856101524 -0.295761505066193 -0.14545299175238952 0.05890727984076482 0.2127533789374641 -0.0858565959423413 0.19875694026031562 0.26623775589733484 -0.0246704362803548 0.0900484156631966 -0.3282739742293814 0.02917693837108598 -0.016848477441805003 0.028291644212092924 -0.4927852298232758 0.33223976457371507 -0.3351909365701745 0.03314095528314805 0.11015529457611994 -0.1532429481497336 0.016553424364273105 8.319096572086472e-16 5.2470414695067264e-17 -1.889754799399425e-16 -7.034389565143494e-17 -1.9026753130175828e-17 2.0626453636530257e-16 2.3973991584314747e-17 2.5915399128997206e-17 -5.370836165410386e-17 5.3527408681486046e-17 6.360824616774689e-17 -1.5653646371596565e-16 4.774459101026945e-17 
2 -0.1973855084879306 0.12950309993730758 0.10782602567701635 0.3314991764761232 -0.18309479359331066 0.18300584528416763 0.16280316901811728 0.0814706526421821 -0.055964730790539416 0.4347651290696995 0.12489576405368956 -0.1291092700069448 0.06472156809998698 -0.06874059659025994 0.04372143323911588 0.42499097174960127 0.26144086831389046 -0.23263701262264672 -0.08824560066894162 0.19378893751961845 -0.37271417999265777 -5.682489899182192e-16 -1.0774867430281062e-16 1.595612543292665e-17 -5.227224010194147e-16 6.929643755031805e-17 -8.542375381642421e-16 -6.856281535568028e-17 4.1812516023121365e-17 -1.2585577559776392e-16 -1.575014954872113e-16 -2.405904649726168e-16 1.223498616932151e-16 -2.576023299900565e-16 
3 -0.11396057645963775 -0.09036568162864829 -0.15275425105813512 0.018150189306433934 -0.11268894078265528 -0.1206973805074005 0.2530432552187617 -0.15074483640026135 -0.09400889814618245 -0.008189485680646634 -0.09082053960238247 -0.09870233836517434 -0.08527675543169883 -0.018719910297975526 0.29218630229914144 -0.01442222670689129 -0.0031319161521374205 -0.008512602664959061 0.16578103726823268 -0.11164473259312108 -0.004809541101307085 -5.755815454818306e-16 0.13831617248803724 0.1436606168167112 -0.2948775472251929 -0.030751127499822953 0.14929671455870988 0.1525459749582485 5.639891540475046e-05 0.14677956046199556 -0.002558768209565764 0.027527157887214673 0.097300904574416 -0.25354635755595306 
4 -0.13957263155977087 -0.02991236743751028 -0.10678872121764399 -0.0370981402030465 -0.1799854090288324 -0.08580564763581552 0.19757828277523978 -0.12835889102848394 -0.16696993627034362 0.06121192489722797 -0.02517661982871275 0.42381005018695467 0.3920892215047126 0.008474067342497643 0.19588754455546073 -0.01971322960871751 -0.02447672724930868 0.05828289925644543 0.12681659431442058 -0.09160021939124628 -0.018783424705492265 -2.229393285912933e-16 -0.048898161696308416 -0.07336674672832731 0.14675827383762385 0.2985132204187543 -0.21137097477332784 -0.11407533663578803 -0.13770342159144885 0.22545024547162343 0.19660277139369164 0.0014905184628577419 0.12736631275101185 0.1129681675239779 
6 -0.11396057645963806 -0.09821437778059086 -0.1641100139977898 0.042703597640691725 -0.05442002597151408 -0.05635363121519557 -0.12717615602692003 0.2577182871820816 0.4335593290678609 0.1632820773573813 0.007345356062294242 0.2418732219723578 0.07978695621752559 -0.017362450412388167 0.1878650325956471 -0.06757230421372325 -0.1752264875107131 -0.008674909400796559 -0.145819030344639 0.4282479632423462 0.16235309383548288 -4.1139768376289804e-16 0.15418353198184861 -0.14163166722971865 0.13696024014923616 0.19033507595210625 0.29585264132225636 -0.03690549300922661 -0.18970194205030605 0.09708180586168574 0.14151359696419438 0.08070233247452481 -0.14105036759865253 -0.03431155635876874 
7 -0.08058229640253813 -0.0852123975932611 -0.051022478161555716 0.024132337382300344 -0.07152846854286879 -0.05596341532642263 0.14046023238688624 0.2216885665570657 -0.023647631693925458 0.10247552105946063 -0.5233111738327864 0.0617460848740765 0.030094728604582042 -0.011562607667783333 0.21632282160942753 -0.3156070814206539 0.25624889900589715 -0.016736663724142082 -0.0621758730726656 0.09257036081770299 -0.010515384486937071 -1.6831137205055532e-16 0.005232518758306228 0.00392380496431433 0.014901207077660957 -0.04772141288483073 -0.3446454532456537 0.1079330452693274 0.11419126407264195 -0.19322468241706617 -0.307644854391842 -0.0926518109074829 -0.0014975890245953595 -0.33304001583037396 
8 -0.13957263155977087 -0.26661809679913384 0.18585931941914036 -0.017579286783732898 -0.020028319779144436 -0.030402877675988683 0.10585522577833674 0.35621181434389887 -0.17012913647647387 -0.24138441260537535 0.3175112277468329 -0.021012496567320797 0.005379757227608519 -0.0024044546251247756 0.03567698354754494 -0.09577418934571948 0.10218304159655817 0.0004133228460864637 0.11781688048000519 0.1088126322560585 -0.007471258840032788 0.5345224838248491 0.03697388340870613 -0.20057804251864597 -0.25156818826418675 0.014894328247498109 -0.05289841346142306 -0.025131583471023965 0.03849702662576702 -0.12747881590968502 0.05547748799132713 -0.06790525515591231 -0.13007859680048262 0.10791645586821348 
9 -0.1611645928050759 0.03911955118122301 -0.034129998219856725 -0.08345587192705013 -0.20258900377074485 0.15163297114669713 -0.048853181937795524 0.12237952602485849 -0.08134514918833853 -0.07755064888053735 -0.34355630842784557 -0.2529103573673801 -0.3220607394547913 0.058653548923160964 -0.0101182807803267 -0.09506705005923224 0.23396299544331517 0.09136365712965576 -0.07098378006960536 0.037836420365978216 0.05569982458736491 2.7438992687888575e-16 0.39045694531467573 0.08945657378971658 0.016859797382751122 0.10897379407027549 0.08825028037794486 -0.24119687839848458 -0.2175446991328852 0.11025917891711734 0.4449029086391038 0.09910422380558925 -0.06676573201592954 0.4200255119285016 
10 -0.16116459280507633 -0.08911380298933003 -0.24555863573050707 0.04288447778595657 -0.09361725063053036 0.0032298846342618676 -0.16222252501503806 -0.04019695918354686 0.10597902516273668 -0.05492973906587268 0.11559550984843489 -0.25449504976611204 -0.3519198532637254 0.053101548173803415 0.2096769941022932 0.22497969197635675 -0.1101415828396388 0.13439692383837765 0.022656567452166553 0.16953921814081793 0.16819240220637663 -2.647388861791975e-17 -0.15898567023504453 -0.3050839643572157 0.2828128474689667 0.173890124566688 -0.27104453676881457 0.1575086550964287 0.1524200902714705 0.25327530163365836 -0.17545723149983627 -0.04913816479669317 0.09313435721798269 -0.025513694222418476 
11 -0.1611645928050765 -0.34567323487921975 0.3169702902780637 -0.04631703203049553 -0.03165912726078486 0.037640710884016104 -0.09188808845490998 -0.17395639800175683 0.05507470349156756 0.05000815504404375 -0.030002508125071405 0.0010758574220674424 -0.0003961058670480781 -0.006274333384506068 0.13481235712227974 0.0317846464653186 -0.06615033342189262 -0.017756529459321307 -0.3718888967122036 -0.2050223368598693 0.010535965898185739 0.4629100498862748 -0.04269376307800492 0.23160757368333706 0.2904859224277513 -0.01719848884618296 0.06108182650331393 0.029019452964315046 -0.04445253737077372 0.14719985736286398 -0.06405988525151433 0.07841023468731272 0.1502018257571353 -0.12461118969100765 
12 -0.16116459280507586 0.1833232142372461 0.12975345150368092 -0.13692282170911552 -0.0897339127741755 -0.543064370456323 -0.17235201771146122 0.050729435972168585 -0.034505541580032474 0.11704511908805613 0.005009320914107369 -0.21814525038793287 0.21830208338169294 0.20264068651492767 -0.055242521181613755 0.1356022411346212 0.19394081181306588 -0.3675114795517917 0.031064873119568216 -0.07011068951591601 0.4672957608989056 3.132010369985156e-15 -1.1009307905579418e-16 -2.6504835700146505e-17 -5.714313896248816e-16 4.796312576277199e-16 -6.242769273835064e-16 9.034450791609916e-17 1.2801981524112423e-16 1.815838100251902e-16 -3.8827795391382445e-17 -8.952347957773304e-17 -1.560568279030178e-16 -2.7112097854767635e-17 
31 -0.1973855084879308 -0.11410298282027237 -0.31608884136075716 0.05420121928645031 0.00989597282461958 -0.022296228190255143 -0.2775627114247224 0.10500494626288454 0.40682081923612495 0.06911504137396293 0.2050163653123 0.08111313538995592 -0.028366580127780136 0.01946618496708033 -0.06885453308908336 -0.1418511378046217 0.4037617519113645 -0.005418417667060677 0.1562760455420059 -0.5201103293628916 -0.23147379625041206 3.4834270488302787e-16 -5.668897505998467e-16 5.352713384408364e-16 -4.6039082406502847e-17 -6.295888586699938e-16 -1.8389124957057702e-16 3.9707644137438786e-17 1.330479185959972e-16 -2.794296850551945e-16 -2.4698142081197656e-16 -1.8656620043594456e-16 5.254694220194634e-16 -1.589207585973057e-16 
23 -0.3322493196224941 0.2718570058265587 0.09128048985341493 -0.226261252192216 0.46717894892441153 0.03490424052192139 -0.02281465921569325 -0.011312969235298674 -0.16802679678231003 0.10652264306439488 0.05485332340345895 0.4255304230922807 -0.46149985449239844 -0.10378920396479889 0.1735884595606191 0.014918164515614278 0.05119016884508146 -0.23061699667474003 0.02702226965487134 0.0013083397855542902 0.04175445878297371 -1.5631765016921208e-15 2.617432017537299e-16 7.086222843570654e-16 8.379704770600241e-16 -6.194418450654985e-16 1.0843194123034882e-15 -4.530363313821463e-16 -4.627442333505318e-16 -5.654714975738213e-16 2.585704550102116e-16 3.435131332362969e-16 -7.065104992207078e-17 6.224998674969324e-17 
34 -0.11396057645963797 -0.09036568162864825 -0.15275425105813487 0.018150189306434 -0.1126889407826557 -0.12069738050739967 0.2530432552187618 -0.15074483640026135 -0.0940088981461832 -0.008189485680647134 -0.09082053960238114 -0.0987023383651791 -0.08527675543169727 -0.01871991029797548 0.2921863022991418 -0.014422226706892562 -0.0031319161521386157 -0.00851260266495935 0.16578103726823393 -0.11164473259312226 -0.004809541101305954 -2.520049502804278e-16 -0.38188564343611026 -0.15256136710430546 0.14205475221018465 -0.22255173577519902 0.4482868661444407 -0.041492280758465096 0.10471447160805475 -0.13556296169979853 -0.03748506062738868 0.03220801775068089 -0.15196665089219807 0.33529505446322583 
29 -0.11396057645963775 0.05603050946610214 -0.04452111582861151 -0.046727783696314015 -0.12361134976488279 0.15765400153059744 -0.26702427807414064 -0.01352510398570819 -0.3168815319167291 -0.07715536102800116 -0.06309935478248829 0.15834136455880465 0.09456617513205132 0.13210177284620267 -0.08283398876761805 0.16727450495411314 0.1769441875735468 0.2753131407045564 -0.04234882720609557 -0.011923605453915727 0.05468556190277835 1.2728044300746843e-15 -0.1029956739695187 -0.422854369105472 0.1321721334857279 -0.33236823742793364 0.3193354938305276 -0.005046287474530361 -0.2026609955886313 -0.03595368279192837 0.05423318498652949 0.007262040240396704 0.3510967948190254 -0.2108551274309478 
27 -0.1395726315597706 0.08092622498471402 -0.000690937502313254 0.08988425528403353 -0.04289161339529428 0.24118943433609774 -0.10955240369079697 0.05291534531360815 -0.30930921168341247 0.4034716046404672 0.13619287453423187 -0.12831779078995134 -0.03178102853686821 0.13434775967781468 -0.08572884353475939 -0.24404704450821108 -0.04396301239956965 0.335558224280993 0.012382892930183926 -0.12010383866879544 0.26787255781178504 1.6081393571584935e-15 -0.13626244318536332 0.1901632238293382 -0.06075132658977313 0.2996750046875475 -0.07912699647324803 0.0641320080813707 0.06148345718046729 -0.01096628366898727 -0.15757250705263734 -0.018831256068284116 -0.22020173982487723 -0.18811050951125163 
33 -0.13957263155977087 -0.26661809679913384 0.1858593194191405 -0.017579286783732977 -0.020028319779144665 -0.030402877675988607 0.10585522577833721 0.3562118143438991 -0.17012913647647382 -0.24138441260537644 0.3175112277468335 -0.02101249656732273 0.005379757227610779 -0.0024044546251122956 0.03567698354753829 -0.09577418934571928 0.10218304159655776 0.0004133228460839171 0.11781688048000494 0.10881263225606123 -0.007471258840033778 -0.5345224838248496 -0.03697388340870651 0.20057804251864625 0.2515681882641884 -0.014894328247497741 0.05289841346142307 0.02513158347102419 -0.03849702662576727 0.12747881590968604 -0.05547748799132761 0.06790525515591253 0.13007859680048325 -0.10791645586821443 
32 -0.16116459280507597 0.1359859866073508 0.07313242947296994 0.25903131137455243 -0.07302323973499249 -0.03211669992421611 -0.18002333564321565 -0.08941379082396278 -0.06277143522361653 -0.4323368393049772 -0.15581855961590382 0.25819585474345846 0.040904042598224694 0.4583083325479733 -0.01107742692767094 0.1341913959723421 0.038627294325736146 0.0037236707478664967 -0.03275641879436723 0.05166218600730905 -0.19679698333945295 4.294219647607575e-15 0.1305916922091034 0.08867080831450769 0.060061197519337965 0.28420543155761707 -0.03009206345035438 0.12208789358598353 0.16487658729459903 0.09054418707035645 -0.13952070756332952 0.026500495016964404 -0.3749683922307521 0.046856107238990016 
26 -0.24174688920761417 -0.11085271224084962 -0.3527918720100387 0.0028118724757372417 0.19594764768408632 -0.13200849246041316 0.23071916537680517 -0.3916976932363693 -0.0855213766669193 -0.07516919869452748 0.18577768053881646 -0.07135180220377217 0.06327442973670809 0.027364053588326782 -0.33638954785180336 -0.2330765765739254 0.25573847122208776 -0.006977065069841131 -0.3941426853597709 0.3109624373266254 -0.004384568142029175 3.177835168831114e-16 1.414733256160251e-16 4.1161028034999635e-17 -3.8818894461017866e-16 1.6737703568959327e-17 -4.586372804455116e-16 -1.2246697982706182e-16 7.799703005683028e-17 -3.404211078103268e-16 3.329686889388795e-17 -1.9089826902608174e-16 -1.4980997448318307e-16 2.1587690716765693e-16 
30 -0.13957263155977048 0.06790508134341716 -0.05093162668125521 -0.12317722779344131 -0.2303928351698456 0.02518205837097633 0.19700239140434603 -0.23198789243592738 0.025139396584860335 -0.08366730197523453 0.23390682746931035 -0.06880909585545207 -0.09175784572337335 -0.01830794470243305 0.002049550328186738 0.09836540196708084 -0.19468459626012657 -0.041685840124447045 0.15122377198313605 -0.14506594681301865 0.013024738541770274 8.025271521502806e-17 0.5360441121153335 -0.08919476307164267 0.2081520122960722 0.2448300704044043 -0.15817244577358835 -0.06713691907371563 -0.22295064537252754 -0.12028727344554835 0.025758754719324532 0.024188899340467283 -0.23316543463186312 -0.25511236748397104 
28 -0.27914526311954124 0.25313109957487984 0.11288701977070505 -0.2641646854644118 0.40914665422538643 0.18105464943160135 0.17090619488359574 0.04388817484131979 0.27926241016711206 -0.11298058328968351 -0.040508381636037934 -0.3238987464154885 0.3917301020323785 0.1227975118567048 0.23558237471347349 0.10127590647210012 0.043681285935587115 0.3256292196382343 0.03053498930573324 5.017089845442472e-05 -0.06077341129458256 5.600898044599174e-16 -3.1983527304903136e-16 -6.04085582884016e-16 -7.660310923012348e-16 5.336838213505979e-16 -1.3327137759730586e-15 4.2908409823215494e-16 3.749153770317204e-16 3.4650377569636713e-16 -3.7014079833961004e-16 -4.333708873460513e-16 5.4092393364145484e-17 -1.6849934046820408e-16 
25 -0.254823595718813 0.008924681163251028 -0.21190886196529585 0.04600815570262572 0.052755475825564065 0.24364384846937753 -0.40495133402769884 -0.009483604747399529 -0.2407371166687539 -0.15750050778296215 -0.086324969700408 -0.24271429025925206 0.294762497141715 -0.28177892617768835 0.07783286518724862 -0.20831628370769678 -0.2980356199288048 -0.4326309703876971 0.06315900942683819 0.02106496435315284 -0.1282719118138329 -1.8695513778378083e-15 -1.962690910577477e-16 -3.4194368753322235e-16 -4.1380260934798937e-16 4.794257699831512e-16 -3.741131963358231e-16 2.1020213423021565e-16 6.120929898362118e-17 5.102440045397188e-16 -1.7350059156192504e-16 -8.691320516054614e-17 1.8437183129858828e-16 -3.533279942170221e-16 
24 -0.1611645928050765 -0.3456732348792197 0.31697029027806384 -0.0463170320304951 -0.03165912726078493 0.03764071088401594 -0.09188808845491067 -0.17395639800175655 0.055074703491568074 0.05000815504404535 -0.030002508125071457 0.0010758574220694646 -0.0003961058670496928 -0.006274333384494288 0.1348123571222738 0.03178464646531971 -0.06615033342189235 -0.017756529459323912 -0.3718888967122044 -0.20502233685986693 0.010535965898185838 -0.4629100498862755 0.04269376307800512 -0.2316075736833373 -0.2904859224277511 0.017198488846183038 -0.06108182650331336 -0.029019452964315004 0.04445253737077357 -0.14719985736286387 0.0640598852515147 -0.07841023468731258 -0.1502018257571354 0.12461118969100796 
13 -0.11396057645963821 -0.28169029515162475 0.31448681419821095 -0.05366808949329167 0.030105537992480766 0.06939582698971548 -0.18366875861272902 -0.4096934787678732 0.14931656281886482 0.16096441850331888 -0.1352776687883699 0.006439756131738877 0.0020011794710081713 0.007252874896707599 -0.16738608524232587 -0.0853999285753028 0.14303646622111954 0.025363369419311044 0.5937104891036387 0.35029797827164016 -0.018930263446192586 4.477869688522665e-16 7.321720400178509e-17 -5.1992394423198226e-17 -7.546991398271644e-16 -6.939482294732987e-17 -2.825540799626306e-16 -1.6166416308518413e-16 1.974355980209548e-17 -5.027203518915202e-16 1.4685810753263816e-16 -1.8452389152151316e-16 -2.44381122603593e-16 2.7926007115795326e-16 
16 -0.11396057645963775 0.11327781756606793 0.054297662187658545 -0.15194672790977942 -0.22006176765153126 0.11196686687266325 0.08755479611339514 0.023376343638441426 0.10807684445359367 -0.02182047746992392 0.0072598472410405675 0.058089826437299485 -0.005823008853676473 -0.011878649372139222 -0.13671279196060254 -0.08827315917459212 -0.05411171049773634 -0.05437652465088793 -0.024535479575272256 -0.0005669119086032037 0.01332602315405782 1.1372302221117946e-16 -0.07022759248498854 0.16010617065332486 0.03808487825561827 -0.048651502646839095 0.19477950575502917 0.741266519711537 -0.08843372207153204 -0.16146763343397397 0.04086138487141824 -0.28004551721513155 0.015594319868527159 0.08573309228793886 
17 -0.13957263155977062 0.13667708496949466 0.13845970544574707 0.5047238459250989 0.05292412938490632 0.04193155580498359 0.07334330271536282 -0.05336931672903324 0.05334506527042669 -0.0557517828671714 0.026955080781806477 0.12291501562077142 0.1376231002028007 -0.4338335053081412 -0.03398861841909988 -0.06899443934911033 0.07134173883870201 0.1824792159217324 0.03541103327910485 -0.11339865996348374 0.40879768839597785 -3.801161999163698e-15 0.24935816616164624 -0.11337205125487324 0.1127658494232339 -0.05354588106513097 0.05306650507294878 0.04159920925862239 0.08130385590593779 0.0893798498369275 0.03674402994881507 0.041781357965838706 -0.10453041346316197 0.22868908870266522 
21 -0.11396057645963775 0.11327781756606793 0.054297662187658524 -0.15194672790977942 -0.22006176765153135 0.11196686687266322 0.08755479611339508 0.023376343638441426 0.10807684445359374 -0.021820477469923796 0.0072598472410406924 0.05808982643729955 -0.0058230088536765316 -0.01187864937213924 -0.13671279196060265 -0.08827315917459208 -0.05411171049773628 -0.0543765246508879 -0.024535479575272266 -0.0005669119086032311 0.01332602315405796 1.63634127932972e-16 -0.08390941731261749 -0.043139382980947424 0.005450867969802064 -0.08208623533113131 0.32751333940201083 0.2068658484673358 0.702179234901072 -0.08916620088187298 0.4599478740122678 0.08715396796552724 0.47615757748903015 0.26508899196994146 
20 -0.18018749253911182 0.19750590930045733 0.154679014756195 0.1455097449694913 -0.11615555008310666 -0.3004328986461779 -0.08077733467503671 -0.03831581924166016 0.1192679483451086 -0.29917490241921163 -0.11278878344536261 -0.08142761345019854 -0.16141881822469276 -0.43815012367483624 -0.07708559072136441 0.07034554284440674 0.03438841425817091 0.18716256039425624 -0.040146899481833746 0.035175047268789776 -0.113331439655656 -4.586066673631826e-15 -0.32192000826162565 0.1463626888118329 -0.14558008561237304 0.06912743520775129 -0.06850856346298649 -0.053704348224681064 -0.1049628266353821 -0.11538888996831372 -0.04743633868810173 -0.05393950119454105 0.13494818350500065 -0.29523634400159077 
19 -0.11396057645963775 0.11327781756606793 0.054297662187658524 -0.15194672790977945 -0.22006176765153135 0.11196686687266327 0.08755479611339509 0.023376343638441453 0.10807684445359367 -0.02182047746992376 0.007259847241040773 0.05808982643729964 -0.005823008853676402 -0.011878649372139265 -0.1367127919606026 -0.08827315917459211 -0.05411171049773634 -0.05437652465088787 -0.024535479575272294 -0.0005669119086032164 0.01332602315405807 1.7851813840923559e-16 -0.050618922355247155 -0.09865194371970724 -0.009211302489092599 -0.11678167007152064 -0.3030758570997542 -0.0434127055162561 -0.301730574195395 -0.148934181964952 -0.24129572715575645 0.7940257370984481 -0.2046627151614853 -0.10094675199253562 
18 -0.1395726315597707 0.14645187811883398 0.15645779588940464 0.4652940012300538 0.07464490126228879 -0.053343642795973145 0.11862337386561324 -0.02824440476730584 0.13567395300733656 0.030246200493041896 0.059309914733563174 -0.08874926387377875 -0.1389750258602734 0.44783534628782484 0.03674738285473426 -0.3622542900759083 -0.2883087031831797 -0.10972652724118692 0.04371438375310367 -0.040978318501400005 -0.048670173441151966 4.3190143392401605e-15 -0.11309572297628194 -0.0767911725744643 -0.0520145228334608 -0.24612912362241612 0.026060491400300718 -0.10573121733999273 -0.14278731308640527 -0.07841356616793901 0.12082847710382294 -0.022950101897553993 0.324732153288039 -0.040578579191413174 
15 -0.11396057645963771 0.11327781756606783 0.05429766218765846 -0.15194672790977937 -0.22006176765153118 0.11196686687266325 0.0875547961133951 0.0233763436384414 0.10807684445359353 -0.021820477469923865 0.007259847241040763 0.05808982643729943 -0.005823008853676587 -0.011878649372139208 -0.1367127919606026 -0.08827315917459203 -0.05411171049773632 -0.05437652465088787 -0.02453547957527229 -0.0005669119086030912 0.013326023154058068 1.5301084398588158e-16 -0.09996193520513251 -0.06873836262535278 0.12564370174203537 -0.25661942028449336 0.0378069233849073 -0.37869636307427545 0.22765395043424952 0.6240091640064092 -0.05532352707710194 -0.37205828426426535 -0.20624705224042642 0.06140917129171532 
22 -0.11396057645963771 0.11327781756606788 0.0542976621876585 -0.15194672790977945 -0.22006176765153118 0.11196686687266331 0.08755479611339502 0.0233763436384414 0.10807684445359372 -0.02182047746992375 0.007259847241040629 0.0580898264372996 -0.005823008853676472 -0.011878649372139324 -0.13671279196060254 -0.08827315917459215 -0.054111710497736394 -0.054376524650887915 -0.024535479575272325 -0.0005669119086031942 0.013326023154057912 1.0957322091518161e-16 -0.20545498110662394 -0.03257250441345305 -0.24977229839062504 0.18345977536933328 -0.1469504020140953 -0.2666886742650726 -0.13741879707460536 -0.13121367153287147 -0.5098144286537291 -0.28478898996401203 0.07139842687551198 -0.21326515648881147 
14 -0.11396057645963766 0.12842601851021554 0.08633372619401881 -0.14291298781310968 -0.0650820385691251 -0.48499957184312914 -0.18331154359657678 0.05327566839771851 -0.15726176898887845 0.27152874873584926 0.07127881368663272 -0.035114119864289535 0.014040453051311373 -0.08802372629467625 -0.01797885209170638 -0.19189150701217242 -0.23652435272825556 0.3423703907485054 -0.03526017546117182 0.05935285089350379 -0.43799701787283174 -1.6752860963137358e-15 0.20360009009739166 -0.09256789222236793 0.09207293049948208 -0.04372002881244174 0.043328619953846355 0.033965612128962236 0.06638432036343898 0.07297834179568534 0.03000137482271325 0.03411433592562472 -0.08534872519563337 0.1867238590212038 
5 -0.18018749253911218 -0.04572355342125639 -0.2057422374265744 -0.0018582404670545285 -0.15187916885939318 0.012759853783744201 -0.152091364220876 -0.040040217040613016 0.024912612975690786 0.0034633864514429864 0.1413299939976691 0.16307940070390647 0.04287807493792119 0.06589896373639766 0.15447980113721785 0.19507956899655327 -0.11549242025650718 0.170737845353028 0.013647227417862926 0.15129759055470615 0.13892810051521978 3.1245846358605255e-16 -0.0660341863290655 0.5650335702004002 -0.5327475298030575 -0.4953612488884095 -0.16474709460508472 -0.11774732187980222 0.12953426522628905 -0.4366702086799184 -0.02758549475619616 -0.07266345316633889 0.11889283631779957 0.08277651139870731 
