34 100
34 -0.05804519 0.19277407 0.08894311 0.13316102 -0.0638351 -0.100830615 0.07505656 0.22852075 -0.19022585 -0.16705118 0.05706669 -0.14371705 0.05296061 0.08639632 0.04442194 -0.052955363 0.26415393 0.013771812 -0.19585307 -0.28252053 0.011319343 0.1310466 0.13399094 0.07492278 0.045861684 0.14509834 -0.18391779 0.12490872 0.038355384 0.08055005 0.009953995 -0.14866938 0.0164836 -0.2732645 -0.030335315 0.0029441474 0.21073726 -0.08708932 -0.044217426 -0.0049203853 -0.05031545 -0.073982224 -0.16322736 0.015797984 -0.061220616 -0.13668938 -0.20808868 -0.011594767 0.002756395 0.011989888 0.009656357 -0.16356748 -0.27271608 0.01763909 -0.030097041 0.007875133 0.22265686 -0.11633677 -0.03674145 0.109502375 -0.14155422 -0.13970706 0.23214002 0.10930128 -0.042771593 0.25319174 0.02863935 0.14312202 -0.29341763 0.086036004 0.048636716 0.21036677 0.063824475 -0.12786669 0.0048663146 0.03710109 0.06293521 0.11876139 -0.11508918 -0.03260826 -0.22430761 -0.030037478 0.2151153 0.16140337 -0.10677895 0.036054987 0.16277403 0.056638647 0.053932182 0.09149329 0.17801096 0.053515233 0.053506803 -0.056186475 0.17874955 0.03185197 0.18367791 -0.05234051 0.0017245372 0.19272953
1 -0.076166764 0.075299665 0.12164323 0.1590086 0.07339234 -0.18184634 0.12519081 0.33743858 -0.074740425 -0.22151878 -0.0016636478 -0.263618 -0.05007552 0.11192086 -0.05516634 -0.043299437 0.19227563 0.034178674 -0.02355435 -0.37596315 0.13882504 -0.07769019 0.10049734 0.08890714 0.031772677 0.11530895 -0.18509437 0.13828968 -0.11253343 0.007906579 0.17185043 0.015812775 0.033563416 -0.29009414 0.04821703 0.038718816 0.24445781 -0.06260357 -0.104526274 0.13498913 0.050492425 -0.25963917 -0.098418556 0.064722784 0.020360474 -0.08244195 0.022332096 -0.10556304 0.06986866 0.07915399 0.17177421 -0.112028964 -0.06278107 0.10516068 -0.10499985 0.022434836 0.11491396 -0.082640365 -0.1042852 0.20325491 -0.030428592 -0.07684825 0.1946214 0.06818286 -0.021002077 0.15736434 -0.020942636 0.08295834 -0.06741978 0.039934177 0.02958791 0.08727977 0.10419773 0.04173922 0.1575438 -0.033713832 0.016855465 0.16832909 0.12712392 -0.030062312 -0.24767467 0.01638626 -0.043464094 0.039599802 -0.18612637 -0.067688376 0.19631428 -0.10119387 0.16037107 -0.00074978755 0.108861715 0.053781733 0.12906344 -0.047353085 0.2697493 -0.05163781 0.021589283 -0.14351347 -0.14334984 0.102618
33 -0.06275924 0.22759162 0.07996097 0.121635504 -0.07445437 -0.07889032 0.05804977 0.20946415 -0.22396804 -0.15587571 0.05331971 -0.14104573 0.08168264 0.07070586 0.072061405 -0.060908876 0.2857295 0.0150102405 -0.23479906 -0.2847539 -0.025627809 0.16456807 0.1277116 0.061184563 0.049578987 0.15572906 -0.18903647 0.1185119 0.063012354 0.10339732 -0.0026891495 -0.19013454 -0.0010321368 -0.27194628 -0.053733464 0.0013667857 0.20469403 -0.075099505 -0.029377313 -0.02418319 -0.059048932 -0.05052325 -0.17957735 0.025149364 -0.08317757 -0.14662495 -0.24132492 -0.004768486 -0.015591943 -0.0023545253 -0.002059108 -0.1841098 -0.31122193 0.004380382 -0.03664201 0.0048270286 0.24889778 -0.1278026 -0.032199714 0.08527009 -0.15872577 -0.15693015 0.256494 0.11974146 -0.051345218 0.28816587 0.0433153 0.14852013 -0.34071797 0.09281933 0.04826251 0.24172822 0.06709387 -0.1528133 -0.029947357 0.06516383 0.079236045 0.11556234 -0.14700043 -0.023748836 -0.22653276 -0.04621437 0.25490212 0.17237186 -0.09072223 0.043935012 0.14168821 0.07908422 0.058675304 0.106239006 0.19747846 0.071969904 0.048811924 -0.057484347 0.17218384 0.04488287 0.21923986 -0.026203234 0.026250644 0.20270155
3 -0.06358818 0.17688699 0.08005692 0.11820581 -0.03082351 -0.09094302 0.077068165 0.22141069 -0.15967065 -0.1642266 0.05257764 -0.13602881 0.056568876 0.081768185 0.03988942 -0.052800298 0.26181722 0.023484483 -0.16950879 -0.25562045 0.0141996695 0.092514284 0.14261536 0.09545987 0.023305222 0.14022918 -0.1637561 0.1411424 0.023035677 0.081447355 0.028720334 -0.11639782 -0.0012573516 -0.25615454 -0.014197923 0.013513156 0.2020227 -0.09387012 -0.06716066 0.040507928 -0.020019904 -0.08258767 -0.14071414 0.014559033 -0.030539962 -0.11911528 -0.16538368 -0.042798284 -0.0052856766 -0.0022655746 0.03914676 -0.15442239 -0.24714631 -0.0037204397 -0.05653116 0.006605057 0.18255459 -0.08886903 -0.027510392 0.10132242 -0.1256551 -0.13770062 0.22520693 0.109838255 -0.03905333 0.21309868 0.020494256 0.13194996 -0.25571308 0.07296844 0.046278488 0.16780493 0.061324652 -0.075673334 0.007396979 0.02315287 0.044096 0.120780714 -0.09982313 -0.018337188 -0.22670794 -0.01747254 0.17446847 0.14553723 -0.11853251 0.0147347655 0.1802863 0.05228496 0.055283315 0.05647197 0.13771272 0.03436843 0.044677 -0.07005734 0.16738471 0.011309879 0.1976328 -0.06861581 -0.0016503541 0.16015825
2 -0.07278086 0.12544927 0.087893285 0.13593003 0.018020954 -0.11189321 0.1024225 0.27319205 -0.12772265 -0.17523848 0.018374277 -0.18198863 0.0035612106 0.10851725 -0.018326066 -0.05970402 0.23360687 0.04727086 -0.097454436 -0.3162299 0.06678964 0.005037969 0.1402242 0.11354066 0.025802698 0.12918073 -0.1679074 0.15860829 -0.055454846 0.056542423 0.09821001 -0.047309514 0.018397622 -0.28382975 0.017536331 0.012510922 0.20647377 -0.08944617 -0.09118654 0.08477456 0.013963012 -0.16218376 -0.13208495 0.04354557 0.010217275 -0.10915492 -0.080711454 -0.080991365 0.029618887 0.019843187 0.09833849 -0.12907821 -0.15353344 0.026070846 -0.083927095 -0.0037034512 0.12446334 -0.09879821 -0.062792085 0.13562843 -0.07311483 -0.12669215 0.20896655 0.09594524 -0.039671734 0.17567584 0.015366022 0.12065599 -0.17680149 0.07429443 0.0342385 0.1331553 0.0718741 -0.01834737 0.071872026 0.0072176633 0.035225872 0.14304206 -0.0016807867 -0.033396788 -0.23662406 -0.019051168 0.07173216 0.10085935 -0.15823503 -0.032614604 0.20235325 -0.012105258 0.07738921 0.025254114 0.1145935 0.027099015 0.07960954 -0.07321238 0.19670382 -0.026196314 0.13796 -0.093858846 -0.044021122 0.13599528
32 -0.07691848 0.19691202 0.07580815 0.116720386 -0.09210301 -0.09194676 0.08334466 0.20221902 -0.21505205 -0.18074925 0.035461135 -0.14124307 0.056752823 0.060941715 0.06753506 -0.055563953 0.24618654 0.0004202082 -0.20309883 -0.26231793 -0.011670854 0.14223552 0.13117896 0.075491115 0.031105435 0.14416747 -0.18422043 0.07603281 0.06466939 0.10333579 0.03058037 -0.17932203 0.009501261 -0.2603751 -0.041762 0.04033502 0.20066662 -0.054720704 -0.019315073 -0.031448767 -0.02806879 -0.071168385 -0.16547263 0.035430655 -0.07789404 -0.13464765 -0.21266583 0.0013723723 0.012220184 -0.003666868 7.277023e-05 -0.18664709 -0.27001476 0.028680075 -0.041185126 0.050921474 0.24548951 -0.12453497 -0.021627776 0.07804265 -0.12516093 -0.1269794 0.25439608 0.08991666 -0.03728955 0.26897922 0.022830144 0.13937438 -0.30359018 0.06344738 0.046834514 0.2165412 0.080870435 -0.11323073 -0.0059235278 0.06429155 0.041802574 0.119145684 -0.12364414 -0.029594257 -0.20363623 -0.050549943 0.24127768 0.13534462 -0.0748771 0.021131542 0.12458002 0.06991649 0.0522985 0.07845349 0.20562275 0.07589225 0.020307781 -0.035118703 0.16945712 0.033539232 0.17316407 -0.05320458 0.019221788 0.1813433
4 -0.05000919 0.11882582 0.09593854 0.1346034 0.010502139 -0.118170954 0.1034882 0.26219228 -0.12224574 -0.1801154 0.03547611 -0.1810003 0.008856368 0.10941081 -0.016494239 -0.05217659 0.23595639 0.043158654 -0.10125036 -0.30813134 0.06221011 0.01929935 0.13315073 0.094580896 0.029557329 0.12633525 -0.167221 0.13742389 -0.039054766 0.048810415 0.088252224 -0.045220874 0.015739556 -0.26085162 -8.93625e-05 0.013860767 0.19676867 -0.09281333 -0.08657595 0.065212205 0.016873157 -0.1550337 -0.112347886 0.023121487 0.0011690162 -0.08986208 -0.095544316 -0.08070099 0.01907937 0.027387192 0.088291705 -0.13832825 -0.16386567 0.036049005 -0.08357455 -0.004911607 0.13602003 -0.09494152 -0.06890683 0.1295123 -0.08097128 -0.11944002 0.20254362 0.092145815 -0.03685669 0.18424645 -0.0021868183 0.10015122 -0.1756521 0.058568507 0.034570232 0.13415961 0.07143912 -0.023889937 0.07370475 -0.006974834 0.04179848 0.13487926 -0.0105411755 -0.016923064 -0.21438684 -0.016197516 0.065474145 0.098942235 -0.14404228 -0.025241716 0.19356981 -0.018493364 0.079751484 0.036280118 0.11338441 0.03339278 0.0692076 -0.06354381 0.19199376 -0.014520287 0.13142404 -0.09812841 -0.052199647 0.13645814
14 -0.04855341 0.09564301 0.11006419 0.14407082 0.024404647 -0.12825613 0.10054974 0.2666023 -0.10514226 -0.18465172 0.01786581 -0.19594091 0.0005110607 0.10110337 -0.02972346 -0.048109125 0.21458714 0.033900134 -0.08073587 -0.32112408 0.080557615 -0.0034171455 0.11283985 0.08641765 0.014689793 0.12199355 -0.16468431 0.1482648 -0.0711692 0.04313432 0.09581575 -0.018845445 0.017811615 -0.27149773 0.014261811 0.01504084 0.20310053 -0.084153585 -0.106153004 0.09672971 0.02748003 -0.17831321 -0.108167715 0.044463553 0.01918776 -0.100443736 -0.062770344 -0.08794927 0.04326403 0.04245543 0.10339749 -0.11671775 -0.11264392 0.041675944 -0.096094675 0.013738745 0.10749809 -0.07907694 -0.07327515 0.15737613 -0.049722258 -0.106780276 0.18530567 0.09705298 -0.031127144 0.16883706 -0.018990083 0.104695246 -0.13288386 0.049855743 0.039222624 0.11810009 0.076898485 -0.00933052 0.089940645 -0.005414049 0.045920096 0.13253097 0.036736056 -0.028859008 -0.22981016 -0.0022916931 0.016849302 0.08372167 -0.15935484 -0.03498965 0.18851036 -0.02587704 0.11645561 0.026189577 0.109765336 0.030715493 0.075908706 -0.0509709 0.20523806 -0.03131199 0.09233396 -0.11350873 -0.07332106 0.11326748
24 -0.07668899 0.18039887 0.094632104 0.14716591 -0.044459876 -0.117101885 0.10165334 0.23854761 -0.183978 -0.18980344 0.038801577 -0.18246672 0.050070643 0.07214433 0.050842848 -0.048695635 0.23318793 0.0005207381 -0.16843261 -0.30242848 0.031403966 0.10482776 0.12324958 0.0711598 0.03407477 0.14666285 -0.19520424 0.08564096 0.027446978 0.065119125 0.06517717 -0.13976695 0.028049087 -0.25631943 -0.020471683 0.039454795 0.21486682 -0.05454295 -0.045715474 8.249341e-05 -0.023096442 -0.11558844 -0.14622928 0.048978634 -0.059588928 -0.13290483 -0.1622514 -0.026370574 0.024305917 0.016369486 0.036216285 -0.17048933 -0.23399502 0.04475751 -0.047759026 0.045366783 0.22002378 -0.11268407 -0.032207053 0.112331755 -0.11535189 -0.12190121 0.25811434 0.094283625 -0.049790766 0.2490355 -0.0012760612 0.13596374 -0.26187584 0.062983036 0.034875803 0.19291253 0.090520985 -0.078919575 0.029059116 0.033418566 0.035915922 0.12713602 -0.077235505 -0.034342144 -0.22363096 -0.037586845 0.17778908 0.1271143 -0.09988813 0.012172805 0.14415954 0.021044692 0.08474477 0.06735314 0.17890856 0.07294959 0.05519022 -0.02909067 0.2048981 0.016533257 0.1417822 -0.063467905 -0.020333346 0.16261801
7 -0.08765138 0.008125396 0.14374843 0.18585446 0.13295054 -0.25352272 0.15551385 0.43602806 -0.027845565 -0.27197498 -0.03816715 -0.36085603 -0.11280714 0.1194295 -0.12169368 -0.052393574 0.15199615 0.011503155 0.07784897 -0.49225536 0.22659878 -0.18135464 0.059672553 0.11084001 0.026762003 0.102929436 -0.21090221 0.1373928 -0.20111601 -0.06097684 0.27235645 0.10930155 0.052972477 -0.31787276 0.07983186 0.06562694 0.29268134 -0.05056945 -0.1577089 0.19182071 0.09266286 -0.38366848 -0.06109034 0.10428833 0.05312074 -0.08078837 0.12780511 -0.1423634 0.123242885 0.1399765 0.2661036 -0.07517548 0.04467385 0.19416788 -0.15074593 0.014587056 0.073134236 -0.102610774 -0.15609787 0.26180995 0.04511579 -0.037795294 0.22491527 0.055675704 -0.020251224 0.12368992 -0.069362655 0.061375838 0.0315433 -0.003671674 0.032678273 0.07468879 0.12417617 0.102844395 0.2689924 -0.061666388 0.01499805 0.21877845 0.27898383 -0.025203766 -0.25827485 0.030123163 -0.19377933 -0.0109377345 -0.24407116 -0.12786026 0.20196305 -0.18101573 0.24249603 -0.024155522 0.09779416 0.09242372 0.19411887 -0.008416023 0.38431653 -0.102274805 -0.11040103 -0.19661455 -0.22929907 0.06489061
30 -0.055359665 0.20041028 0.09927027 0.12622969 -0.07494206 -0.11581362 0.067643814 0.2332937 -0.20599754 -0.18874581 0.06264839 -0.1594406 0.069707535 0.07284937 0.061280828 -0.04286491 0.27327892 0.0010378363 -0.19630054 -0.30353233 0.00023307995 0.1334851 0.13665661 0.065527864 0.025797037 0.16135249 -0.19994745 0.11477527 0.05716532 0.0932999 0.017833035 -0.15913212 0.021459945 -0.26438066 -0.021529505 0.020414028 0.21826923 -0.07866713 -0.053955946 0.0027279607 -0.03594611 -0.092023656 -0.17628203 0.03858521 -0.07541462 -0.15337108 -0.21338762 -0.021622518 0.000121153076 0.0077421144 0.010414696 -0.18193446 -0.28158584 0.033993952 -0.037579816 0.030744413 0.2314328 -0.11596783 -0.024348946 0.11403107 -0.1523911 -0.14415598 0.24995472 0.11881782 -0.052274536 0.2734265 0.0096132355 0.13347684 -0.29442677 0.07700524 0.04728817 0.22562842 0.068164214 -0.115111716 0.0038984441 0.057419952 0.06368497 0.114924125 -0.111848444 -0.02266928 -0.22750607 -0.020787163 0.22751403 0.16737492 -0.11215738 0.039570436 0.14302963 0.06946501 0.0815836 0.095536605 0.20043887 0.06471689 0.041382305 -0.040555246 0.17000587 0.024650056 0.20485064 -0.056523353 -0.000787906 0.18274875
6 -0.05929648 0.04375114 0.13189246 0.15908566 0.09695972 -0.21271595 0.12884943 0.3653399 -0.042269286 -0.2330073 -0.014251728 -0.29458013 -0.080702804 0.09776498 -0.07908871 -0.05725369 0.14224584 0.00663022 0.027888915 -0.4146175 0.17238419 -0.13343732 0.063758895 0.083995156 0.011799051 0.09220614 -0.18729544 0.118259884 -0.1409145 -0.03737441 0.19898468 0.05508674 0.04206268 -0.27925593 0.06334074 0.047058135 0.2522767 -0.052979756 -0.13576227 0.13839029 0.04939904 -0.30680856 -0.0572696 0.09061564 0.028882226 -0.079146326 0.08784045 -0.11380976 0.08735824 0.1152114 0.20791961 -0.087062396 0.009678479 0.15442005 -0.12848666 0.018162474 0.090912245 -0.08060807 -0.12899387 0.21626773 0.019681731 -0.048449006 0.19264953 0.052965082 -0.020711508 0.13302034 -0.041847713 0.07438611 -0.015855044 0.012459389 0.023241779 0.0864895 0.10850515 0.07420433 0.20970738 -0.035272423 0.0094171 0.19081075 0.19473417 -0.025630921 -0.22708014 0.03444924 -0.1310623 0.0006467052 -0.19298612 -0.08628219 0.16916034 -0.14493112 0.19962473 -0.0036493284 0.10665521 0.06936692 0.14088778 -0.012469145 0.31285352 -0.074468315 -0.07058878 -0.16118579 -0.19201541 0.06675313
8 -0.06352747 0.11595417 0.10815098 0.12838389 0.013548363 -0.11628612 0.09769184 0.27580258 -0.1115715 -0.18559483 0.018791534 -0.19348697 0.0008087756 0.10066669 -0.020596156 -0.061322913 0.22820836 0.035479672 -0.09571133 -0.30792877 0.061433837 0.021447347 0.12527418 0.106655754 0.028773801 0.1310279 -0.17647833 0.1526146 -0.044334497 0.05841379 0.07911434 -0.048981193 0.018569347 -0.27342978 0.0013940478 0.0061813956 0.20556514 -0.09562555 -0.08481507 0.07589664 0.0037913504 -0.14652984 -0.12432476 0.030599402 -0.010970874 -0.11292674 -0.07988555 -0.07687025 0.02107074 0.038336318 0.09799626 -0.13786945 -0.15739115 0.031992286 -0.07747373 0.0022738262 0.1367452 -0.088021696 -0.054704558 0.15043424 -0.08711898 -0.12251631 0.2118351 0.09584667 -0.040089484 0.18112893 0.009200973 0.107668705 -0.18025313 0.066560514 0.04686566 0.14127722 0.07982202 -0.035065714 0.07223969 -0.0018876583 0.04263607 0.12547536 -0.012073722 -0.02428864 -0.23593791 -0.0049183546 0.068328634 0.109890215 -0.15570216 -0.023214715 0.19372293 -0.019013548 0.08694319 0.038653556 0.123792045 0.033089146 0.081540816 -0.07095582 0.20544782 -0.016050775 0.12752764 -0.09523519 -0.04679362 0.14327456
28 -0.070494495 0.20091711 0.0790312 0.12331389 -0.074701734 -0.10662237 0.068225145 0.20992859 -0.20022754 -0.18175575 0.03985819 -0.145141 0.04906983 0.070804164 0.06554546 -0.040523734 0.26503065 0.012067507 -0.18974935 -0.28117976 0.010768261 0.13242628 0.12783605 0.078937635 0.042336542 0.15791883 -0.20039171 0.09283363 0.055764627 0.0942658 0.032661814 -0.1486675 0.01777006 -0.26460326 -0.02778958 0.021594692 0.19992946 -0.06279661 -0.038204815 -0.01116596 -0.03509315 -0.084229514 -0.15124382 0.035657827 -0.07581568 -0.14043115 -0.20565917 -0.018684626 0.014045023 0.0033619762 0.0151927415 -0.17718521 -0.28001836 0.031405978 -0.041098326 0.039678447 0.23455642 -0.11512649 -0.027864845 0.10558349 -0.13060679 -0.12252068 0.24750064 0.11241336 -0.03210281 0.26134887 0.026012981 0.13225801 -0.28082067 0.069954835 0.042793635 0.20287517 0.0624004 -0.111759916 0.014177144 0.055757992 0.051863365 0.12737806 -0.10604045 -0.027697982 -0.2174503 -0.035160907 0.22521313 0.1513761 -0.09068055 0.03404657 0.15010846 0.06380913 0.063351184 0.072319046 0.19826593 0.071233846 0.038873326 -0.03859554 0.1637305 0.017399427 0.1840131 -0.055871144 -0.0071770544 0.19770157
9 -0.05325144 0.16347788 0.096211545 0.12622648 -0.011259569 -0.123614796 0.09178992 0.254219 -0.13859421 -0.18902384 0.04379962 -0.1864502 0.0217898 0.076018 0.013472846 -0.04451577 0.24297766 0.010259562 -0.12887768 -0.30226862 0.053192854 0.0698212 0.11657848 0.080857046 0.023288168 0.14142725 -0.18197219 0.120334834 0.0060618287 0.053409193 0.052374974 -0.09738901 0.016999725 -0.27426106 -0.008350667 0.0076424344 0.22166839 -0.06677478 -0.06858197 0.048891746 -0.006282919 -0.13435018 -0.12993295 0.040278126 -0.0326545 -0.11859896 -0.13744362 -0.048800465 0.021466142 0.030071026 0.066531114 -0.1444898 -0.19838727 0.035903323 -0.063193455 0.012086407 0.19313864 -0.09644474 -0.05114172 0.13598634 -0.111594886 -0.12725933 0.22912471 0.10890016 -0.033872295 0.22245118 0.004809616 0.1188647 -0.21850744 0.06145003 0.035078343 0.16055104 0.08094524 -0.06846705 0.047938477 0.012769019 0.050494723 0.13395555 -0.039873645 -0.02318837 -0.23643447 -0.014066823 0.1345893 0.11245433 -0.123417184 0.006491564 0.17444898 0.021047156 0.08596184 0.05128859 0.16142206 0.054517493 0.07236932 -0.04230046 0.19954126 -0.004982657 0.13772672 -0.0687811 -0.04775956 0.16340768
29 -0.07004422 0.17499375 0.08949359 0.14316465 -0.042940233 -0.11220909 0.079994015 0.23806505 -0.17773008 -0.17082989 0.035593603 -0.174154 0.041195765 0.0920006 0.026220705 -0.055927757 0.24675581 0.024898803 -0.15923649 -0.28952265 0.025672594 0.09777864 0.1221765 0.081729084 0.02757744 0.14124714 -0.18842888 0.13172369 0.016501151 0.067748345 0.042577095 -0.12436924 0.01724354 -0.259379 -0.024632307 0.030408772 0.22107486 -0.08363524 -0.06899778 0.035561353 -0.0107245585 -0.11595321 -0.15506947 0.042021494 -0.041507628 -0.118001275 -0.17205293 -0.049327854 0.017997274 0.003423871 0.03748201 -0.16659176 -0.22741973 0.03695232 -0.060241364 0.03074329 0.20616429 -0.11109217 -0.032919724 0.12546612 -0.11336917 -0.13462071 0.23244378 0.101675734 -0.033770874 0.22871327 0.00817765 0.13704908 -0.24685454 0.07571006 0.034981675 0.17981295 0.0781969 -0.0871405 0.034826938 0.03974704 0.04729878 0.12544183 -0.07556059 -0.031590723 -0.23410314 -0.02576188 0.16192436 0.13843414 -0.12403434 0.015638974 0.15681832 0.02731211 0.08546907 0.07118051 0.15985228 0.05766481 0.04676421 -0.057882104 0.17865357 0.012847311 0.1689114 -0.061733387 -0.011719506 0.17475589
11 -0.07432697 0.015595849 0.15220806 0.17064568 0.12239042 -0.22673725 0.1480277 0.41925728 -0.03662727 -0.2575525 -0.032443542 -0.3402142 -0.102990225 0.12995419 -0.115661435 -0.05172997 0.15236294 0.024056433 0.04162964 -0.47030258 0.20915991 -0.14461355 0.07872481 0.11841521 0.022426832 0.11892981 -0.18790197 0.12262231 -0.1814567 -0.04122385 0.23534444 0.08041954 0.044527642 -0.32984024 0.07590023 0.054240935 0.28360847 -0.07034771 -0.1587169 0.15873693 0.07152284 -0.3579878 -0.073676914 0.09827702 0.05528919 -0.08515984 0.08581327 -0.14319022 0.11199033 0.12455535 0.23323391 -0.09880073 0.014344283 0.16525555 -0.14177512 0.019077325 0.078661904 -0.109507866 -0.15512124 0.24635346 0.031966865 -0.053155277 0.21707375 0.07083056 -0.02091896 0.14369136 -0.06595952 0.084248036 0.0016599209 0.01791017 0.04429743 0.094384715 0.11930683 0.085268095 0.24050944 -0.060110744 0.03127462 0.20161144 0.23694982 -0.028482903 -0.25616577 0.016587703 -0.16646548 -0.005209393 -0.24243304 -0.105200246 0.20318021 -0.16320378 0.2077682 -0.018767793 0.11689717 0.079817146 0.18225622 -0.016604902 0.34455433 -0.07349208 -0.07307063 -0.1936447 -0.2165579 0.07964618
5 -0.06562216 0.053962305 0.13093744 0.14429043 0.0926823 -0.20323133 0.14144497 0.3569176 -0.058560938 -0.23746622 -0.018915242 -0.292454 -0.059657805 0.101141855 -0.06638145 -0.060804192 0.16410588 0.017943306 0.018220356 -0.4145248 0.17188089 -0.1108486 0.070609674 0.09079469 0.01615108 0.104386516 -0.18480697 0.107800685 -0.1332416 -0.021151783 0.18942656 0.049354028 0.029833894 -0.29445454 0.06276887 0.053138264 0.23928316 -0.05020405 -0.11798894 0.1297912 0.065199055 -0.30213007 -0.066328816 0.0865823 0.03132111 -0.09184047 0.046850957 -0.11546622 0.08994954 0.10127134 0.19909398 -0.085690245 -0.011240052 0.12877516 -0.106526926 0.02097136 0.10456355 -0.08827776 -0.12123139 0.21645187 -0.0014082305 -0.066831835 0.19347763 0.06634788 -0.013545629 0.14729284 -0.04272523 0.08263136 -0.02745507 0.0099834595 0.036231 0.08326912 0.11110585 0.06855748 0.20028752 -0.027607575 0.03174059 0.18957469 0.17843728 -0.017556844 -0.2408245 0.02816749 -0.09071035 0.015891057 -0.18718156 -0.07567895 0.19693205 -0.11697999 0.19017881 -0.0048744683 0.12393975 0.072905496 0.150527 -0.02451726 0.3086958 -0.05496548 -0.033463303 -0.16132076 -0.16621572 0.075275995
26 -0.053556804 0.16027083 0.07404863 0.13172567 -0.06254876 -0.11418001 0.08722522 0.21943942 -0.1917945 -0.19000928 0.025974683 -0.15965708 0.05013558 0.07689883 0.06405901 -0.04285523 0.22639719 0.008078466 -0.15516041 -0.25672266 0.0260864 0.10249139 0.100732766 0.05876317 0.03615499 0.1343542 -0.19279099 0.07956439 0.057452112 0.07335908 0.056518875 -0.14616166 0.016068403 -0.24289154 -0.030712496 0.04107531 0.20268929 -0.043456197 -0.028499793 -0.024826162 -0.024816755 -0.097992375 -0.12869403 0.05704931 -0.072883755 -0.11800082 -0.18149814 -0.01613341 0.03785592 0.007233749 0.009955484 -0.17490527 -0.24084361 0.042284876 -0.0387955 0.071945705 0.21464887 -0.107141174 -0.011713418 0.098085396 -0.105185986 -0.09267682 0.24627773 0.094961636 -0.04039717 0.2578474 0.011768121 0.13487749 -0.25259313 0.05789891 0.048273828 0.18391831 0.08495044 -0.08777369 0.03447852 0.045563262 0.035347987 0.12809786 -0.094003715 -0.038688526 -0.20772369 -0.03549809 0.18749101 0.12579541 -0.06894847 0.016734876 0.120676026 0.038790204 0.07053602 0.052488234 0.19633946 0.067108594 0.036439918 -0.005686697 0.17335726 0.017760267 0.13305086 -0.060717255 -0.0057816003 0.16636653
25 -0.061372027 0.18292367 0.089798294 0.14081343 -0.06905826 -0.104203105 0.09693331 0.2275626 -0.18473788 -0.19425546 0.040079653 -0.16176355 0.055295315 0.07807926 0.05027355 -0.048842534 0.25387278 0.0022087202 -0.18252061 -0.2920108 0.015248042 0.112391055 0.11174994 0.071603455 0.02408408 0.14929852 -0.19050898 0.08744053 0.03950163 0.0911344 0.044849094 -0.1499441 0.02158134 -0.26334864 -0.038258236 0.043347284 0.20525569 -0.07158595 -0.04654931 -0.0054391213 -0.021692509 -0.092272975 -0.14435285 0.05295389 -0.0597539 -0.12623961 -0.17980874 -0.033785466 0.025584172 0.013762676 0.016331125 -0.17961381 -0.25541118 0.032560073 -0.04693674 0.054091014 0.2248693 -0.10983051 -0.02362343 0.10593104 -0.11427852 -0.12913392 0.24590279 0.091651544 -0.039392594 0.26132298 0.0030913614 0.12723555 -0.2732441 0.062222175 0.03974319 0.1992536 0.08384631 -0.09824557 0.018463358 0.045748495 0.050406348 0.13507828 -0.08896849 -0.036162872 -0.22336525 -0.035201255 0.18766278 0.13125706 -0.09085338 0.01243709 0.13949062 0.030426092 0.07317996 0.05957271 0.18285166 0.06983499 0.032539558 -0.02210459 0.17437422 0.002955917 0.14310017 -0.05700553 -0.0074305786 0.18145053
20 -0.059488382 0.112592846 0.09743783 0.14520256 0.014153656 -0.1276276 0.10158404 0.27342382 -0.11158494 -0.19096223 0.022114186 -0.20158084 0.010927741 0.10005462 -0.0107700825 -0.05952198 0.20835401 0.027781788 -0.09517936 -0.31775483 0.07515672 0.014094887 0.10275152 0.10424824 0.02255101 0.118548654 -0.1664339 0.12473928 -0.05234859 0.036236685 0.09885101 -0.056707494 0.021833375 -0.2700493 0.0077888435 0.030880978 0.22127569 -0.06813211 -0.08697226 0.074101925 0.014314441 -0.17617679 -0.12287207 0.05788502 -0.005422691 -0.11519401 -0.0862003 -0.075993724 0.044150695 0.042810265 0.10367083 -0.13745612 -0.14468104 0.052089844 -0.08794738 0.02698462 0.14736108 -0.09751156 -0.0731136 0.14301355 -0.064255506 -0.09874981 0.2199015 0.081165925 -0.044192225 0.19301338 -0.014131903 0.10644897 -0.15538634 0.048046403 0.0462889 0.13843498 0.07598201 -0.020721445 0.09446486 0.013532993 0.039623853 0.14829414 0.009822312 -0.025440153 -0.230084 -0.010321555 0.053310968 0.08486215 -0.15622723 -0.016874531 0.17707904 -0.025972873 0.10223263 0.03984364 0.1254977 0.05254726 0.08082439 -0.03597452 0.22263594 -0.024106711 0.09760326 -0.10673029 -0.075009815 0.12184172
31 -0.06055061 0.18324392 0.10306472 0.14493772 -0.044341344 -0.10540855 0.075614095 0.24239776 -0.17489658 -0.17339855 0.045355905 -0.1662252 0.049500667 0.08970858 0.023132024 -0.055425074 0.26580396 0.018394498 -0.16768064 -0.29722998 0.02619305 0.08854222 0.12516603 0.080705665 0.037896916 0.15237279 -0.19479778 0.13196656 0.021193337 0.07824537 0.04994363 -0.124362566 0.020446738 -0.28273386 -0.015148109 0.0046185656 0.21138889 -0.087394334 -0.06199454 0.023365099 -0.022409976 -0.11087292 -0.15159735 0.03208786 -0.054162744 -0.13307059 -0.16788556 -0.046039756 0.0056233723 0.01615041 0.050110236 -0.1566682 -0.2449451 0.032104276 -0.059862062 0.009051077 0.199901 -0.10927704 -0.05164076 0.11754389 -0.12374864 -0.12424118 0.22180477 0.115998544 -0.03902078 0.23891799 0.025904348 0.13331614 -0.25169602 0.078206144 0.04624554 0.18935029 0.072633654 -0.0942675 0.02934108 0.02603038 0.057365958 0.1299829 -0.06516269 -0.019159466 -0.23974276 -0.02792078 0.17347518 0.13827306 -0.12617257 0.014994656 0.16924773 0.031331617 0.07442055 0.07273519 0.17596622 0.046661623 0.059590533 -0.05661296 0.17656966 0.00924887 0.16300005 -0.05681766 -0.026989719 0.17940396
16 -0.06167963 0.19356333 0.093699686 0.14311008 -0.04956125 -0.11309836 0.0720775 0.23560137 -0.19009978 -0.18255404 0.041078575 -0.17053357 0.05685507 0.08611669 0.047034726 -0.043381732 0.25972012 0.016393162 -0.17063576 -0.29625323 0.01831679 0.118312515 0.116890304 0.08417708 0.043798845 0.15900916 -0.20375328 0.13187478 0.037610747 0.07760864 0.028521284 -0.13075267 0.004951884 -0.27688098 -0.019802293 0.017355869 0.22238345 -0.082212396 -0.0625962 0.027039945 -0.021581452 -0.10327257 -0.16932304 0.02179187 -0.06485243 -0.13877909 -0.18502706 -0.030540822 0.0027194975 0.0074648284 0.042401724 -0.17137638 -0.2610931 0.040340405 -0.04449738 0.023881601 0.21072827 -0.11955176 -0.040554095 0.11339939 -0.14289972 -0.13694516 0.23732036 0.118986346 -0.034062568 0.25097135 0.015100487 0.12759392 -0.27386484 0.082206614 0.036317125 0.20066202 0.06938959 -0.114977434 0.0066387877 0.042552713 0.04916043 0.12192025 -0.083723456 -0.016058663 -0.23737732 -0.022325689 0.20223454 0.14118344 -0.11654619 0.027940791 0.16215718 0.051188733 0.08502125 0.08224989 0.17821299 0.056644764 0.046556626 -0.05021228 0.1814539 0.010341932 0.17926206 -0.054930236 -0.013440125 0.19150427
15 -0.061504934 0.19840944 0.09398464 0.11863375 -0.07026451 -0.09529056 0.053844538 0.21857588 -0.19212437 -0.16706283 0.047253948 -0.14475237 0.061620947 0.07919669 0.06398705 -0.04607249 0.2776289 -0.0021539575 -0.18820284 -0.27885252 0.004640478 0.13787955 0.1330778 0.06383566 0.025288403 0.16365273 -0.19175492 0.12842731 0.05757503 0.08930255 0.020995943 -0.16221063 -0.0030958934 -0.27736777 -0.030095354 -0.0057808342 0.21458754 -0.075267695 -0.05607036 0.013430054 -0.032740023 -0.069283 -0.16151051 0.0156088965 -0.06723971 -0.15346481 -0.21496943 -0.019115625 -0.006780823 0.004884023 0.017912736 -0.17102705 -0.2707939 0.024378154 -0.046024285 0.021232571 0.2334955 -0.10093397 -0.024698062 0.09853765 -0.15375908 -0.14596614 0.23883444 0.13123067 -0.04332195 0.26284203 0.032891065 0.13346165 -0.29170203 0.09298031 0.043558575 0.21614847 0.05934727 -0.13267621 0.0021179267 0.042207096 0.06587201 0.11927047 -0.119242325 -0.023376226 -0.23868063 -0.033714026 0.22561358 0.16548596 -0.10523295 0.038723044 0.14636089 0.07859333 0.054081626 0.09789337 0.18634292 0.049331054 0.04077211 -0.064088576 0.16197108 0.037474494 0.21348728 -0.039425924 0.004125445 0.20044963
13 -0.07192932 0.10892647 0.109930746 0.13523339 0.012591155 -0.15401472 0.11476916 0.2979068 -0.11882733 -0.20801571 0.013763543 -0.2149249 -0.011155485 0.10059458 -0.027996905 -0.047758512 0.21552473 0.033892453 -0.08948493 -0.34466743 0.07867492 -0.006530637 0.10080269 0.10001988 0.021085383 0.119259655 -0.17478555 0.120315306 -0.057010908 0.028893579 0.12645769 -0.02842175 0.024949497 -0.27352116 0.022299465 0.02134864 0.23408817 -0.08400758 -0.08274842 0.085607 0.014163838 -0.19547778 -0.10506525 0.04531864 0.0030189864 -0.1106075 -0.04937151 -0.07932537 0.052307636 0.04696926 0.12102649 -0.1208931 -0.13057552 0.071988985 -0.08234458 0.02563019 0.15030774 -0.08777687 -0.07113688 0.16758028 -0.0508401 -0.10035589 0.210762 0.088012 -0.031365156 0.1849753 -0.017999765 0.09225252 -0.14806145 0.059529707 0.035639536 0.12599428 0.09121239 -0.012609139 0.10396256 0.00060507527 0.03861656 0.15539657 0.041327927 -0.023505256 -0.22108448 -0.002248183 0.033859115 0.08724271 -0.1530551 -0.03287841 0.1752858 -0.035423957 0.12663448 0.03601739 0.13333546 0.044535194 0.09459426 -0.046713334 0.2341087 -0.03649143 0.09066044 -0.119361974 -0.079545684 0.11846705
23 -0.050007276 0.170548 0.09631516 0.124590665 -0.025440417 -0.11573606 0.06835264 0.25190982 -0.15502754 -0.16958797 0.029006368 -0.16711181 0.029858636 0.07756388 0.01313952 -0.0471266 0.24217194 0.016943667 -0.14997208 -0.31149453 0.02905948 0.07764535 0.10130864 0.065333694 0.031181209 0.14148869 -0.19298236 0.1130052 0.0068831425 0.0649386 0.05233538 -0.10828825 0.0056488966 -0.27015978 -0.011053702 0.018497007 0.21500893 -0.07223129 -0.060972244 0.021726828 -0.018977096 -0.12879078 -0.13608617 0.03360075 -0.052557018 -0.13718365 -0.14754157 -0.045961738 0.012185353 0.022411512 0.05325467 -0.15340264 -0.21848994 0.04651444 -0.05415001 0.005392784 0.18490899 -0.11178756 -0.06240829 0.12169506 -0.10490142 -0.1238574 0.22937237 0.10891374 -0.028954301 0.23318228 0.021552172 0.111266784 -0.24023806 0.056983612 0.03277607 0.17572667 0.063642345 -0.088278 0.041009147 0.023638729 0.044508103 0.13320954 -0.04466404 -0.017910402 -0.21748668 -0.011801325 0.14325295 0.12809296 -0.12840772 0.012641124 0.15972805 0.03399 0.08545679 0.07290455 0.15604864 0.060013503 0.07997948 -0.048433453 0.19520059 0.0010385517 0.13273312 -0.054256752 -0.044279475 0.16724046
10 -0.0686999 0.16308266 0.08543363 0.13875553 -0.03024414 -0.10750908 0.0899501 0.23598136 -0.17419998 -0.169001 0.030853888 -0.16130483 0.044478737 0.08157533 0.020808412 -0.05141598 0.24902655 0.009304297 -0.15164421 -0.2995101 0.037793733 0.08342521 0.12536936 0.07325007 0.022956453 0.13095416 -0.18907349 0.11953008 0.013915472 0.07737936 0.055131402 -0.10746209 0.015764702 -0.25459644 -0.019176926 0.025978727 0.20048365 -0.070332095 -0.0584378 0.025572915 -0.010936102 -0.117244355 -0.14347816 0.03320257 -0.048287086 -0.12889925 -0.14857933 -0.0450801 0.024136834 0.017418988 0.051521692 -0.15326953 -0.22230631 0.038932025 -0.059314363 0.028962942 0.19470793 -0.10796197 -0.052131165 0.10819065 -0.109862395 -0.12793359 0.22712727 0.09764913 -0.045866378 0.230787 0.015241484 0.116771154 -0.24479884 0.069736734 0.04013638 0.17373015 0.07077845 -0.08306098 0.030756043 0.020687276 0.055331428 0.1296488 -0.064038575 -0.015246794 -0.21971326 -0.014678238 0.15349464 0.13413145 -0.11562173 0.0045335027 0.14972892 0.038385652 0.08245026 0.0672903 0.17186794 0.04954716 0.054263152 -0.05422058 0.17941701 -0.0024305598 0.15464792 -0.06562587 -0.021791982 0.16635217
19 -0.060723867 0.1957258 0.08882348 0.13917974 -0.04792114 -0.103892565 0.081559904 0.22321096 -0.18042529 -0.17001057 0.050984364 -0.16711035 0.053674575 0.08456124 0.039970364 -0.05620635 0.26587328 0.0034509173 -0.18656479 -0.27751568 0.0059967325 0.12662007 0.128158 0.08089706 0.03068967 0.14493987 -0.19866791 0.118886404 0.031173829 0.08131064 0.03872492 -0.15274212 0.007946178 -0.27582818 -0.0312872 0.0052648536 0.20878144 -0.06494085 -0.04363058 0.005964008 -0.03813032 -0.09515171 -0.17173095 0.027678564 -0.0656636 -0.13519467 -0.1995627 -0.026271192 0.01063961 0.014570677 0.022871256 -0.17960806 -0.25092277 0.020535296 -0.041326765 0.028232543 0.22587416 -0.1097672 -0.036830954 0.11689835 -0.14025521 -0.1434163 0.24058516 0.10923518 -0.046687815 0.2493838 0.009233032 0.13656546 -0.2746519 0.07553277 0.046817165 0.20524426 0.07708969 -0.11635019 0.007210814 0.03255615 0.045270372 0.118282326 -0.0965421 -0.037150733 -0.23745015 -0.032857433 0.20657094 0.14831312 -0.10157189 0.018015573 0.150493 0.05091774 0.07936383 0.080677815 0.18166329 0.058279064 0.05003686 -0.05935639 0.17724769 0.025066182 0.18615897 -0.050882503 -0.016541604 0.17970406
22 -0.054370817 0.08584216 0.09398802 0.14579749 0.032797225 -0.13419557 0.11546362 0.28440353 -0.08720394 -0.18320797 0.005713036 -0.21632117 -0.0074104 0.11134092 -0.048442427 -0.047634672 0.20431493 0.025351182 -0.05220276 -0.33403307 0.1098387 -0.0341172 0.11202666 0.10916979 0.02671727 0.10398227 -0.16433978 0.13553771 -0.080172524 0.02567127 0.13320962 -0.0056593465 0.03631817 -0.27893522 0.021457797 0.029337162 0.22065659 -0.07889009 -0.11034257 0.09633804 0.014264069 -0.19175996 -0.09682672 0.043624073 0.019561527 -0.08897213 -0.034030378 -0.093789235 0.049118455 0.062214468 0.11533599 -0.11111542 -0.10669215 0.06645882 -0.0906328 0.0051439917 0.10859326 -0.08755533 -0.08985119 0.17072122 -0.034971744 -0.104852155 0.19243075 0.080868416 -0.04036832 0.14748204 -0.02625056 0.09246194 -0.103922635 0.053693313 0.039935205 0.1028843 0.08929727 0.01500634 0.11568344 -0.021191077 0.027416809 0.14901792 0.05337306 -0.023140738 -0.22161108 -0.008024642 -0.010153582 0.07275407 -0.1768089 -0.052847944 0.18879226 -0.05702226 0.11769167 0.011509749 0.1050116 0.048613206 0.09081627 -0.054483272 0.22519527 -0.040426403 0.051668614 -0.13132243 -0.08393058 0.11206535
21 -0.06438285 0.1864271 0.08952059 0.12592706 -0.045972142 -0.09954486 0.063994005 0.22754398 -0.19992888 -0.16806097 0.047728803 -0.15778854 0.060884252 0.088272765 0.047315028 -0.060071684 0.27555406 0.0017806202 -0.19411343 -0.3004626 0.003531009 0.122867145 0.12841123 0.077165104 0.044598646 0.1577084 -0.19409269 0.13827801 0.04013572 0.082739145 0.01626212 -0.13874866 0.0012795558 -0.27415848 -0.018869584 0.0025057092 0.21345079 -0.09009931 -0.047463734 0.01850349 -0.04457227 -0.09352503 -0.15783034 0.025763234 -0.06242582 -0.14086439 -0.20705612 -0.016043412 -0.003727693 0.004053428 0.029403603 -0.16912423 -0.2696405 0.031124393 -0.047963616 0.004125625 0.22748335 -0.1074419 -0.030002015 0.11085384 -0.14156821 -0.15318546 0.24418889 0.1261384 -0.04545333 0.2520931 0.021057917 0.13478796 -0.29595459 0.08913339 0.044796053 0.21869153 0.061712366 -0.12234778 -0.000618809 0.032920178 0.062057514 0.12563711 -0.101092875 -0.019282304 -0.23998417 -0.028783804 0.1981435 0.1594717 -0.11543963 0.037774336 0.15446497 0.0654145 0.07405283 0.091534354 0.17999832 0.06370822 0.053077374 -0.0513714 0.17974524 0.02848797 0.19930226 -0.057676587 -0.009930145 0.1874812
17 -0.07547237 -0.003420825 0.15224415 0.18030469 0.15092094 -0.25019825 0.1677674 0.434195 0.009790132 -0.25931507 -0.042049576 -0.37107044 -0.12123777 0.10461773 -0.1343581 -0.06898181 0.1233234 0.0083492035 0.10484669 -0.4870531 0.25207853 -0.22110981 0.04585758 0.11336741 0.015252533 0.09629595 -0.19342439 0.12017554 -0.2224771 -0.08635164 0.27704555 0.13004832 0.057434842 -0.3220396 0.10298638 0.04696016 0.29184097 -0.04611168 -0.1710956 0.20640703 0.08239958 -0.40720862 -0.034681924 0.109514624 0.0567497 -0.08024039 0.17822395 -0.15007937 0.122585535 0.14787629 0.27533048 -0.06127522 0.0825864 0.20494981 -0.16055673 0.015932363 0.06133287 -0.095814094 -0.18080904 0.2764758 0.07289851 -0.035160393 0.2024537 0.04723351 -0.015262792 0.098697625 -0.076912016 0.0644804 0.06940794 -0.018212773 0.026040534 0.044049874 0.13300626 0.12933716 0.28837234 -0.06791136 0.0014674386 0.22983819 0.30520383 -0.026104873 -0.25200135 0.038814303 -0.23912826 -0.0369674 -0.256307 -0.13505195 0.20842145 -0.20420644 0.24794766 -0.04412384 0.085567 0.08432286 0.20463352 -0.0074222223 0.3873639 -0.09815015 -0.14473486 -0.20635484 -0.2660303 0.03341445
18 -0.062256493 0.084380694 0.110044494 0.1372261 0.026997246 -0.13841446 0.09660478 0.26420817 -0.08908561 -0.18739691 0.019113397 -0.20797701 0.0032443942 0.101793036 -0.025134884 -0.056448475 0.19785997 0.021977397 -0.06135215 -0.309565 0.08751711 -0.010165164 0.11077961 0.086135074 0.031573396 0.114247695 -0.16732934 0.13648923 -0.063744076 0.03821025 0.109455466 -0.020408334 0.027040655 -0.26741976 0.015915701 0.033834 0.21244386 -0.0812736 -0.09070684 0.08211708 0.017731879 -0.19076848 -0.095286205 0.04956147 0.015583033 -0.09112819 -0.053111598 -0.07474924 0.042500973 0.037241276 0.11878995 -0.10803835 -0.10503513 0.054957435 -0.09368773 0.019835211 0.116665386 -0.075085096 -0.06819177 0.15978782 -0.045293435 -0.09790203 0.19518329 0.082128175 -0.024813434 0.15723412 -0.01579062 0.09826905 -0.12567796 0.057936624 0.033950664 0.12241391 0.079642124 0.0015017783 0.10820685 -0.005028379 0.026255397 0.13796896 0.045103755 -0.016265972 -0.21392736 -0.008564023 0.020166995 0.0686789 -0.15720138 -0.03273423 0.16771653 -0.049580842 0.11929507 0.03340192 0.12350575 0.044588145 0.07839928 -0.054884125 0.22051391 -0.0364211 0.06835835 -0.10993999 -0.080876336 0.10070884
27 -0.056495782 0.16606145 0.08334892 0.13000189 -0.035003524 -0.11558457 0.07454211 0.2498904 -0.16154839 -0.18577704 0.054200914 -0.16053255 0.031991042 0.077612095 0.03997704 -0.043058705 0.24525386 -0.0005828379 -0.15430085 -0.30682164 0.023259586 0.09158912 0.13266027 0.07216051 0.036881592 0.1460093 -0.18517147 0.12917812 0.023037724 0.07835703 0.04427376 -0.13449685 0.025021823 -0.2757222 -0.004762128 0.007480554 0.20559457 -0.08066707 -0.052890453 0.024430983 -0.023863211 -0.12446496 -0.15632606 0.026892366 -0.04093706 -0.14244425 -0.15826751 -0.03241297 0.0137322415 0.026058028 0.03636826 -0.16746749 -0.22985873 0.04650675 -0.039219126 0.01618046 0.2097578 -0.101896346 -0.04894646 0.1289416 -0.12882105 -0.12839632 0.23986667 0.11458782 -0.04552181 0.24037573 0.023030447 0.14542122 -0.26521975 0.08005199 0.047663473 0.18732248 0.08600108 -0.09606821 0.025779739 0.021713622 0.04293775 0.12986918 -0.07431531 -0.03492239 -0.22506268 -0.029962428 0.16531602 0.1454841 -0.10702339 0.020453596 0.15994856 0.040048867 0.080117054 0.077665456 0.16682327 0.057724938 0.06630913 -0.052817825 0.19160153 0.019444298 0.17576319 -0.0627929 -0.015558152 0.16362889
12 -0.06104456 0.11270522 0.10160775 0.14582361 0.011127392 -0.14921336 0.10995284 0.29678848 -0.12649228 -0.20861483 0.01316756 -0.2076003 -0.01120202 0.107685596 -0.014455209 -0.052446157 0.21201557 0.0153523665 -0.08470308 -0.3294719 0.07738007 0.0027843008 0.10887611 0.095960595 0.035568975 0.1213972 -0.1714622 0.11747019 -0.05142644 0.04468215 0.115836464 -0.056700002 0.02206295 -0.2870375 0.010364678 0.03624193 0.21907909 -0.06830856 -0.08250561 0.068985 0.0010457374 -0.18786934 -0.11595022 0.05668294 0.0004617154 -0.10369162 -0.07115485 -0.07010031 0.036295377 0.04596152 0.10605535 -0.12296959 -0.1492334 0.06185061 -0.08319306 0.024752805 0.14493532 -0.10402473 -0.075453274 0.15189391 -0.07204784 -0.10624024 0.21585271 0.093263455 -0.032694507 0.19485195 -0.0100392345 0.10499856 -0.15550949 0.053749677 0.045339745 0.140936 0.07871401 -0.019017324 0.10854649 -0.0032641904 0.031177362 0.14914697 0.036516726 -0.025884593 -0.22043681 -0.017704153 0.058709458 0.0737395 -0.14266165 -0.02764994 0.17670824 -0.043033395 0.12735486 0.04049652 0.13293862 0.046715964 0.096759275 -0.048319425 0.22348246 -0.020098127 0.07721403 -0.116622776 -0.0699814 0.12819125
