34 100
34 -0.106463484 0.061529532 0.101581015 0.11037062 -0.041408975 -0.22233343 0.099571936 0.3243993 -0.17644101 -0.25834018 0.032312974 -0.20902704 0.017163932 0.09721218 0.06044985 0.08862721 0.2771989 -0.10867478 -0.04737255 -0.41224298 0.1587745 0.072868206 0.22834936 -0.14239238 -0.024438784 0.092707664 -0.1686574 0.092605375 0.02454537 0.06359087 0.25968486 -0.14659567 0.04859386 -0.26318008 -0.028517582 0.093067475 0.2711587 0.063770436 -0.038884234 0.04827745 0.1187423 -0.15775296 -0.06929432 0.005062005 0.090968564 -0.13470696 -0.15514667 -0.019595772 0.10661815 0.09049525 0.0634766 -0.032450367 -0.053555675 0.091117926 -0.04768469 0.08009977 0.21886419 0.01525205 -0.025503416 0.13033535 -0.09964087 -0.07210481 0.22148746 0.12589142 -0.07166588 0.2190001 0.0006158433 0.05734918 -0.09078471 0.10625273 0.034297653 0.07183133 0.11231501 0.007170792 0.16395622 -0.09838951 0.09190532 0.095150195 0.00021759873 -0.01667174 -0.14823544 -0.06807328 0.08408463 0.13303578 -0.04246193 -0.020769298 0.034246873 0.053702526 0.09112779 0.14161113 0.16835049 0.047704272 0.09997867 -0.097633354 0.22241792 0.06429659 0.108770214 -0.07176814 0.07164687 0.0963664
1 -0.10913344 -0.044112913 0.14007625 -0.046255052 -0.014947058 -0.27130258 0.09153983 0.31754243 -0.13131385 -0.31839082 -0.005826791 -0.20831928 -0.086786546 0.078946225 0.04487677 0.027371116 0.18912663 -0.060696185 0.025184425 -0.22044344 0.026579464 -0.016262485 0.15584083 -0.1302809 -0.08787939 0.015897814 -0.15051171 0.1151244 0.047293156 0.06872346 0.2533428 -0.086257346 -0.046802767 -0.15879515 -0.0056094406 0.02526971 0.21466632 0.059333812 0.08800963 0.073875844 0.14804284 -0.14730771 -0.023073623 0.0006915575 0.072925836 -0.07599739 -0.038083293 0.019146932 0.11415801 0.07367563 0.1418554 -0.024757622 0.13577652 0.058239873 -0.031367965 0.15166666 0.19070964 0.15476307 0.13844892 0.15044276 -0.08662886 -0.0057591717 0.13939904 0.07513816 -0.027970476 0.16377293 0.03041538 -0.0041496484 -0.01984177 0.10427264 0.06665537 0.041736547 0.15951547 0.05880767 0.17527278 -0.056383476 0.038813718 0.043959957 0.032274023 -0.034932803 -0.1272429 0.028994333 0.055952918 0.087181434 0.077674896 -0.05967697 -0.05467811 0.041667335 0.13363795 0.12259872 0.2031294 -0.038412843 0.046610292 -0.11372558 0.1947982 0.06033151 0.16015211 -0.10053967 0.093258746 -0.017804213
33 -0.110122874 0.0714407 0.08118473 0.110821 -0.019989735 -0.20030457 0.08041404 0.31764275 -0.18476583 -0.23877564 0.013843636 -0.21092787 0.043528248 0.092815936 0.07867976 0.09241486 0.2929908 -0.10596623 -0.04756327 -0.42337772 0.15585448 0.06662796 0.22698659 -0.15675555 -0.01762603 0.102214456 -0.16662338 0.09951522 0.026626077 0.07988384 0.28220943 -0.1602105 0.030919194 -0.2723895 -0.03309093 0.10623542 0.27482027 0.07893872 -0.049593844 0.061818518 0.12938873 -0.16796488 -0.06980744 0.016268589 0.09309685 -0.1393271 -0.15566444 -0.03883557 0.09610434 0.07728448 0.070156224 -0.048183613 -0.07582955 0.09076112 -0.0711853 0.0794111 0.21421659 0.008861243 -0.040088564 0.1163085 -0.09824602 -0.08298356 0.24831256 0.14634667 -0.08018522 0.2304427 0.012350113 0.060750384 -0.09937843 0.10975933 0.031104516 0.065784484 0.112039775 0.016461322 0.15137467 -0.09655811 0.091080315 0.10234182 -0.0035428267 -0.002033713 -0.15171616 -0.08563025 0.073253766 0.13277324 -0.05189767 -0.027267462 0.027876068 0.061502878 0.10186832 0.13136816 0.15596634 0.06274619 0.11116529 -0.1069119 0.21723326 0.06692012 0.12677555 -0.059422273 0.07697149 0.09251259
3 -0.11506267 -0.012311061 0.1241942 -0.012783901 -0.022039585 -0.25198606 0.08819498 0.31419438 -0.13334838 -0.30194432 0.008673404 -0.19353142 -0.049234226 0.069912516 0.054639768 0.035358887 0.2158388 -0.08681129 0.0041655423 -0.25963554 0.058791913 0.007110176 0.1762374 -0.11553409 -0.09171028 0.039221603 -0.14592454 0.11810624 0.04313203 0.06780834 0.25039095 -0.10003538 -0.033051107 -0.18673672 -0.008628048 0.05343282 0.2361667 0.048403297 0.03391034 0.081278905 0.14566351 -0.1408644 -0.02177973 0.0009702388 0.09346155 -0.09875582 -0.06876599 0.004920156 0.10979896 0.06877476 0.124259636 -0.014991576 0.08232539 0.053867526 -0.046145592 0.12984137 0.18856585 0.12800568 0.10635215 0.13421382 -0.0797404 -0.02216539 0.17139398 0.095925905 -0.033717178 0.16305795 0.017172622 0.025211629 -0.044552196 0.09190179 0.065161325 0.05019581 0.1381897 0.050209157 0.1683165 -0.06528076 0.051938783 0.06643913 0.019293886 -0.02352337 -0.13408375 0.0065941243 0.060871616 0.107171215 0.039471023 -0.051734366 -0.024065701 0.06371295 0.120369405 0.12022397 0.18168071 -0.017479854 0.05461056 -0.10958218 0.20898502 0.05370498 0.14998795 -0.09411426 0.09418969 0.0010812171
2 -0.118383944 -0.058415808 0.12990105 -0.0650709 -0.01615709 -0.26606256 0.08463567 0.31742975 -0.13370147 -0.31073916 -0.02055258 -0.2000795 -0.106259175 0.076972604 0.034868967 0.01860307 0.17974804 -0.06008106 0.048128672 -0.2196205 0.023155518 -0.029361203 0.16646531 -0.1151692 -0.102678925 0.015648058 -0.15186228 0.12791274 0.03570653 0.071680866 0.26853415 -0.078118436 -0.04651625 -0.16631585 0.007461676 0.007169716 0.1997429 0.06466478 0.0855141 0.073551334 0.149561 -0.15296641 -0.030927649 0.014344385 0.08494257 -0.09188461 -0.033151284 0.02184182 0.12512115 0.061435934 0.140627 -0.009882259 0.16802464 0.048839882 -0.030356564 0.14310241 0.16190632 0.14750507 0.14911878 0.14242744 -0.069523536 -0.008940598 0.13651262 0.08136746 -0.032259632 0.15066357 0.04261007 0.013638333 -0.017701458 0.11527584 0.06744686 0.053981133 0.15140297 0.06112966 0.18496607 -0.040631957 0.037559062 0.04832074 0.04526733 -0.05331329 -0.13023527 0.016643027 0.053471334 0.091573484 0.07166316 -0.07469349 -0.05259472 0.05509919 0.12018932 0.11558892 0.20976761 -0.048922196 0.05068448 -0.12050884 0.1884204 0.05082436 0.17174649 -0.09064692 0.103717834 -0.023568517
4 -0.1121438 -0.0550023 0.14346988 -0.06953233 -0.030774806 -0.27701187 0.09858749 0.32953104 -0.137713 -0.33058903 -0.012997458 -0.20929638 -0.098866895 0.06641903 0.035662923 0.0058241715 0.17935744 -0.071645945 0.03446405 -0.22637407 0.014582489 -0.020402076 0.15976802 -0.12011744 -0.113865785 0.0058001326 -0.14977823 0.1117904 0.05169333 0.06880398 0.25891143 -0.08977797 -0.053376716 -0.1610772 -0.00991253 0.024491007 0.21970904 0.058346555 0.08844858 0.06586053 0.15680349 -0.15327153 -0.017489828 0.0018557712 0.07785601 -0.09077126 -0.03849399 0.02677459 0.118042976 0.072019555 0.14610481 -0.021907404 0.162454 0.06427855 -0.043810364 0.15272406 0.19585337 0.15184999 0.14446773 0.1396415 -0.07065117 -0.009856443 0.15330951 0.07191797 -0.031545028 0.16606289 0.030408612 0.0024515544 -0.03487609 0.0966671 0.0733095 0.05874206 0.16562966 0.060622454 0.18576694 -0.039727323 0.041001298 0.052025802 0.027130336 -0.031178035 -0.116231576 0.025650766 0.05149823 0.08859317 0.07875612 -0.06851588 -0.06378494 0.059090015 0.12853079 0.13566744 0.21829283 -0.03789564 0.035322767 -0.11401054 0.20991856 0.06201264 0.16154307 -0.10639453 0.10814945 -0.030330488
32 -0.0930403 0.056348786 0.091680884 0.102848284 -0.034230504 -0.19849153 0.09915405 0.29792428 -0.16366786 -0.24847484 0.032712 -0.19330135 0.020731486 0.09767532 0.053515326 0.07653394 0.2762715 -0.0961306 -0.041226227 -0.38921508 0.1362608 0.06343931 0.21230884 -0.12596181 -0.034814686 0.092719465 -0.16581346 0.077419005 0.028481307 0.06652798 0.26173484 -0.13073914 0.03639418 -0.23661937 -0.039994814 0.09268036 0.2370361 0.052814513 -0.04055024 0.04134213 0.13390572 -0.15696543 -0.049813773 0.005025696 0.08646414 -0.12089041 -0.14807488 -0.04730413 0.0949491 0.07723802 0.073456526 -0.049635537 -0.05976171 0.08448904 -0.06472224 0.07624225 0.20819077 0.014850639 -0.022403719 0.105039425 -0.097368814 -0.073899835 0.22578712 0.123629205 -0.07363123 0.21718454 -0.0057572653 0.039711818 -0.09726465 0.08954301 0.028921159 0.072627656 0.103626706 0.01471314 0.16066706 -0.098612264 0.090260155 0.103599414 -0.0023678038 -0.0016763667 -0.13972549 -0.07059929 0.069204725 0.12762459 -0.03419201 -0.03009729 0.03953898 0.04557385 0.083365954 0.12977709 0.15486343 0.042939607 0.083682165 -0.09216096 0.2000884 0.04806744 0.12543145 -0.062744305 0.06563436 0.095894136
14 -0.09147621 -0.05310892 0.1462713 -0.034767907 -0.026258487 -0.26653877 0.10069288 0.31767473 -0.14125498 -0.32167146 -0.006569921 -0.20753403 -0.072558895 0.07547313 0.04022291 0.022139398 0.19087343 -0.066449575 0.02458075 -0.24507105 0.033918396 -0.0060027433 0.15087251 -0.13630836 -0.10215739 0.019389426 -0.15555634 0.12116445 0.041544776 0.06619711 0.2393888 -0.07917922 -0.041038714 -0.16119602 -0.015352192 0.022112172 0.2088061 0.052382655 0.06771664 0.06561468 0.14917558 -0.14637327 -0.016648289 0.007878953 0.08226538 -0.09535106 -0.052080803 0.014493026 0.12509808 0.07499221 0.12490654 -0.017627347 0.14169979 0.052210983 -0.03515868 0.15248935 0.17449585 0.14510179 0.1356465 0.14852548 -0.07212177 -0.0167225 0.14450319 0.08802179 -0.038787156 0.17199764 0.014927606 0.011176765 -0.034754578 0.09711194 0.068847656 0.05230061 0.15628572 0.04625175 0.17355019 -0.047120642 0.059670743 0.04505979 0.024302863 -0.039072946 -0.12631555 0.025132678 0.038274504 0.10031075 0.07027996 -0.056422517 -0.04645726 0.055646885 0.13327217 0.1274773 0.20080169 -0.041226424 0.03889874 -0.0951412 0.195296 0.054061078 0.14914802 -0.09708121 0.10576479 -0.019541334
24 -0.11379358 0.08910717 0.0923289 0.14158417 -0.03448477 -0.20229812 0.10828216 0.30928937 -0.18862487 -0.2426573 0.034518767 -0.21238713 0.053818442 0.09329888 0.078214765 0.103931464 0.29179683 -0.12400113 -0.05840719 -0.44547012 0.1752823 0.09354177 0.2401538 -0.147032 -0.019295326 0.11668134 -0.18049929 0.06724675 0.032322336 0.06326188 0.28357267 -0.16050982 0.06465549 -0.26282007 -0.03052218 0.11431675 0.26438993 0.079209 -0.056411445 0.038517214 0.12392827 -0.16188735 -0.06865771 0.014922673 0.087666854 -0.15054324 -0.17191364 -0.038541526 0.099782206 0.08088818 0.056165103 -0.0425652 -0.09065877 0.09346549 -0.052074082 0.07518864 0.2238911 -0.0035093022 -0.040359262 0.11038024 -0.110437535 -0.091198884 0.25238627 0.14290039 -0.09123324 0.22931431 -0.015401428 0.06186567 -0.10930485 0.10262332 0.014343934 0.07244359 0.10668814 0.013217069 0.1488087 -0.11084015 0.089006424 0.10022155 -0.010591297 -0.0061942553 -0.15429957 -0.09563484 0.09246132 0.13804604 -0.05188694 -0.014515185 0.04664547 0.054064725 0.08372112 0.1355909 0.15524723 0.06638146 0.10437461 -0.0872262 0.21579014 0.06025928 0.111789115 -0.050087437 0.06951502 0.10969706
9 -0.10526963 -0.0072539607 0.110101 0.022176972 -0.025231836 -0.24829833 0.09153525 0.3176667 -0.14995396 -0.28957194 0.008219815 -0.20650156 -0.03670572 0.07967623 0.048884425 0.057604425 0.22232763 -0.09545916 0.008195088 -0.31085193 0.08538133 0.0270674 0.1723558 -0.13187945 -0.058469504 0.04475299 -0.16386987 0.10717311 0.040166665 0.05510788 0.25653702 -0.10123478 -0.0030138483 -0.1883529 -0.022486297 0.05793186 0.23439991 0.064596444 0.029041601 0.061582655 0.13623177 -0.14554141 -0.035102773 0.0013633101 0.080206595 -0.10770153 -0.090968505 0.006316979 0.113716334 0.08434325 0.109091334 -0.014885504 0.054103717 0.07907595 -0.03300615 0.10837468 0.19199766 0.08813704 0.07331673 0.1328342 -0.09069437 -0.033084955 0.19016369 0.102357574 -0.05545279 0.1777835 0.0081139635 0.014712475 -0.05560762 0.09631055 0.050891154 0.060437027 0.12933156 0.025567625 0.16597787 -0.07617073 0.06581372 0.06482099 0.02031064 -0.01968552 -0.12522595 -0.016325181 0.059282985 0.11429126 0.02696005 -0.043121926 -0.021749804 0.05536345 0.11610317 0.1329855 0.17503348 0.008473703 0.07256472 -0.0887706 0.21228139 0.04887686 0.12500468 -0.07528412 0.0957254 0.031527817
8 -0.093857855 -0.07821339 0.16021569 -0.09640343 -0.028801955 -0.29334748 0.09205512 0.33196163 -0.13110936 -0.34388533 -0.0022146842 -0.2148256 -0.09849935 0.06911869 0.03691404 0.008267957 0.17127348 -0.06313566 0.04985958 -0.20806593 -0.0010588965 -0.033004064 0.14643507 -0.12903742 -0.12139483 -0.00036568788 -0.14888036 0.11847742 0.060317047 0.060380287 0.2406484 -0.06759664 -0.051880818 -0.12636782 0.00086173223 0.007918283 0.2087271 0.04608656 0.09761197 0.06691437 0.14317365 -0.1436051 -0.009846212 0.008599056 0.06783821 -0.08528559 -0.025972594 0.029628124 0.11142623 0.071322605 0.14334771 -0.011475861 0.17691183 0.054342743 -0.02149098 0.15561083 0.17286743 0.17401524 0.18393917 0.15440021 -0.083062164 -0.0051996736 0.13116564 0.07114112 -0.03906688 0.15594327 0.018991217 -0.016283197 -0.016460147 0.10118185 0.07851661 0.061863855 0.16092956 0.06812071 0.18600512 -0.029653462 0.04791193 0.02854559 0.026343625 -0.03201004 -0.10833847 0.056286268 0.04735783 0.100596055 0.08670571 -0.059365787 -0.079329476 0.05201938 0.14192706 0.13685964 0.22094077 -0.056070637 0.03391846 -0.10257623 0.19193886 0.057979997 0.17636664 -0.10784659 0.11374356 -0.05285421
7 -0.07328747 -0.17799227 0.228099 -0.23097013 -0.010539035 -0.3925707 0.14407973 0.39547288 -0.11855741 -0.4557724 -0.02962998 -0.24287942 -0.21471481 0.065492354 0.020292856 -0.084342 0.09503405 -0.023204146 0.10514749 -0.0991479 -0.1143942 -0.11906916 0.07051406 -0.14828396 -0.21099186 -0.11235161 -0.16929248 0.15597321 0.091683395 0.03565609 0.24650368 -0.022512771 -0.13794434 -0.047308743 -0.0035955873 -0.07566303 0.19803606 0.03510114 0.2341558 0.05597248 0.15297055 -0.1517796 0.06718651 0.006812432 0.06335507 -0.05984255 0.0918871 0.07970734 0.15772976 0.10393233 0.24296786 0.005772842 0.40495667 0.034619723 0.00020285709 0.24513605 0.20424241 0.33519748 0.35866237 0.20650344 -0.07145114 0.04690334 0.08286458 0.023806771 -0.02690764 0.15799636 0.055588745 -0.049483526 -0.0007349582 0.12954578 0.11440409 0.05916719 0.25313827 0.10413323 0.242082 0.014661699 0.029040432 0.017915426 0.030209798 -0.07055753 -0.10639879 0.17798698 -0.0038710602 0.08377327 0.24819216 -0.08694656 -0.16225675 0.021071758 0.20884828 0.17435275 0.30042586 -0.16208416 -0.015313474 -0.10837386 0.24854219 0.0550879 0.2099158 -0.15948956 0.16056792 -0.15949248
6 -0.081181385 -0.20092782 0.23919715 -0.25689083 -0.0012898665 -0.3867043 0.14266463 0.4049694 -0.098501734 -0.4666018 -0.044444732 -0.25407654 -0.23088752 0.064570054 0.009135027 -0.092048414 0.09317472 -0.010536816 0.12446347 -0.083235405 -0.124115035 -0.1194679 0.06272948 -0.13489547 -0.20024377 -0.10382085 -0.17475851 0.16562407 0.08942927 0.048839346 0.23900983 -0.010555187 -0.14436948 -0.04792641 -0.008200205 -0.08870751 0.19167401 0.026391415 0.25551498 0.064400055 0.16071436 -0.14747874 0.06431473 -0.004121882 0.051584505 -0.06729417 0.10378366 0.07710938 0.15316847 0.105089225 0.25518727 -0.00080897997 0.4082568 0.026246099 0.012301904 0.24633782 0.20077175 0.342147 0.3780463 0.22279538 -0.08810343 0.043365326 0.09005412 0.026126191 -0.023128532 0.15195817 0.06724275 -0.06376591 -0.0030078948 0.12982048 0.12664096 0.0530464 0.2606772 0.0948414 0.24006572 0.007828093 0.03222255 -0.0001409651 0.023897626 -0.06628548 -0.11253971 0.18534365 -0.00013502745 0.094934426 0.24467082 -0.08892968 -0.15251756 0.020045523 0.20025642 0.17018552 0.30108535 -0.16661397 0.00075310393 -0.1230451 0.248301 0.060520824 0.22833236 -0.15262343 0.1744613 -0.15364003
28 -0.1172601 0.07981926 0.08379374 0.10966091 -0.041458733 -0.21250466 0.08147077 0.30125517 -0.17689973 -0.25325206 0.020273022 -0.19789465 0.020613909 0.08747378 0.07762852 0.099927925 0.2943114 -0.11226597 -0.041437633 -0.41465166 0.16149908 0.07684771 0.23451534 -0.12983017 -0.020692576 0.11425584 -0.18182187 0.076225154 0.030253556 0.08632638 0.2836874 -0.14747326 0.050475392 -0.26962483 -0.024499109 0.10168175 0.24502616 0.08385625 -0.047187895 0.049113214 0.12983172 -0.16442895 -0.06258217 0.019269109 0.08744819 -0.1447284 -0.16406117 -0.03884311 0.10457595 0.077595 0.06693886 -0.039432023 -0.07410645 0.08848754 -0.062892675 0.08455639 0.2141168 0.008721774 -0.035579745 0.12095221 -0.09618239 -0.06855644 0.23412849 0.14515728 -0.063263886 0.21760683 0.007229576 0.05645285 -0.080154724 0.093653135 0.02999673 0.06409818 0.09404641 0.017937105 0.16963898 -0.08928712 0.08561632 0.10506717 0.010437675 -0.00904523 -0.14840785 -0.086260155 0.09517596 0.13162175 -0.04207099 -0.020657832 0.04470402 0.06699453 0.091172114 0.12313377 0.17145893 0.06318214 0.09744749 -0.099887215 0.19776161 0.051163513 0.12364165 -0.06371805 0.0607317 0.10942101
30 -0.09485355 0.085411966 0.087932445 0.11157153 -0.025585162 -0.20287828 0.09586126 0.30939707 -0.16206934 -0.24458127 0.03607825 -0.2090006 0.030469265 0.0788976 0.06024818 0.10373925 0.28622425 -0.11549214 -0.04720563 -0.4189087 0.1720088 0.08433294 0.2228507 -0.13965365 -0.028382609 0.11132072 -0.1609389 0.0768291 0.03467859 0.05942516 0.24518378 -0.1496989 0.04722217 -0.26995957 -0.031062089 0.09586141 0.27557042 0.073134474 -0.060129438 0.058811944 0.12770985 -0.1612443 -0.059529245 0.012397715 0.09476795 -0.13243915 -0.16406628 -0.0363542 0.09749874 0.082711555 0.05971328 -0.03626992 -0.07515685 0.08511348 -0.061113633 0.06643178 0.22094296 0.004565449 -0.045150843 0.119534224 -0.10225999 -0.08767025 0.2368939 0.14525403 -0.066704005 0.21918087 -0.008476946 0.0566157 -0.09591859 0.09175964 0.016644 0.05522544 0.107481144 0.0074002817 0.144115 -0.108624466 0.09347426 0.10055602 -0.0014610821 -0.0018962967 -0.15168436 -0.079830855 0.081627995 0.118446365 -0.053116985 -0.013421065 0.050001103 0.06700676 0.08166199 0.1195075 0.15625231 0.062352616 0.10530522 -0.08325086 0.20928793 0.05221813 0.10405176 -0.05186007 0.055282153 0.11130585
20 -0.10169807 -0.0297709 0.13089262 -0.021414435 -0.026974898 -0.25480485 0.087002166 0.30943003 -0.13530552 -0.2873134 -0.0036609566 -0.20425786 -0.07008233 0.08143145 0.032953545 0.017921204 0.18290527 -0.06092168 0.021088159 -0.23878783 0.03604402 0.0023183827 0.14161432 -0.12361854 -0.0929987 0.017224852 -0.14862843 0.115244284 0.045364957 0.0471425 0.23235127 -0.09176062 -0.02996969 -0.14879444 -0.021239342 0.034605633 0.22154441 0.044229493 0.05553501 0.069573954 0.1427708 -0.14438796 -0.023047427 0.010971118 0.07712299 -0.08270501 -0.060638547 0.00183265 0.11255817 0.06491183 0.12311627 -0.02080761 0.12067181 0.0669691 -0.036585003 0.13840945 0.1938951 0.12811027 0.12703562 0.14331926 -0.078639925 -0.022043 0.14772089 0.07884692 -0.03486143 0.16199145 0.018561453 0.01288902 -0.037026584 0.106027514 0.05385013 0.052828558 0.15060815 0.03875323 0.17984177 -0.04452888 0.055707518 0.053687554 0.018009974 -0.03292505 -0.12948988 0.016958585 0.04649907 0.10434707 0.053612154 -0.04429081 -0.048819844 0.038735013 0.1294684 0.13960586 0.18998305 -0.026869934 0.044727758 -0.10837178 0.19310944 0.058732305 0.15469123 -0.07985895 0.10261505 0.0016549303
31 -0.10730393 -0.01487874 0.12354534 0.010935453 -0.020136839 -0.24815708 0.0885875 0.33148843 -0.15113993 -0.29266998 -0.0038581977 -0.21675088 -0.04606952 0.09152855 0.044423804 0.06191357 0.2173892 -0.09063929 0.002490911 -0.31674397 0.09121176 0.027480729 0.18901363 -0.12842023 -0.070047915 0.05924989 -0.15249906 0.09954877 0.037953015 0.06605089 0.26809534 -0.11537529 -0.011486972 -0.21561393 -0.0104121035 0.060122244 0.2482863 0.058829058 0.018153101 0.05786025 0.13870314 -0.16335379 -0.042760164 0.008732912 0.09522764 -0.11095893 -0.096452326 -0.0051397937 0.12059605 0.08009429 0.10422023 -0.031005017 0.06272562 0.077886276 -0.039355688 0.12579226 0.19080386 0.087698385 0.06645202 0.13849626 -0.081081 -0.03530973 0.18584818 0.115162365 -0.049527705 0.18783753 0.006542372 0.034571312 -0.047964785 0.11272595 0.061376277 0.0632227 0.14172149 0.036405858 0.17210732 -0.082365535 0.06892107 0.06257833 0.025216758 -0.027416063 -0.13405597 -0.026642397 0.051514927 0.105593584 0.017673109 -0.044900473 -0.028223893 0.056608524 0.113302 0.12861948 0.19625168 0.0029795384 0.077809624 -0.10256069 0.2034596 0.06895531 0.1331126 -0.08887749 0.08780985 0.028931295
11 -0.089284696 -0.11570486 0.19029076 -0.15307789 -0.010142775 -0.3424187 0.13239564 0.36705947 -0.13054651 -0.3995691 -0.02630822 -0.23672377 -0.14393461 0.07143854 0.034473952 -0.038528305 0.14281286 -0.042513456 0.078707576 -0.1730903 -0.03573543 -0.06998165 0.10509311 -0.14440231 -0.15585259 -0.05420129 -0.16304024 0.12828614 0.07169759 0.04867201 0.2542647 -0.047820285 -0.10072588 -0.10952667 -0.0019965705 -0.019387176 0.20569022 0.052541666 0.1716086 0.059788555 0.1622102 -0.16257478 0.033003096 0.004887544 0.07514324 -0.08007536 0.019406179 0.04926355 0.14475745 0.09072308 0.20055634 0.0066181514 0.28751853 0.04352268 -0.0016444881 0.2027633 0.20413946 0.24858314 0.25394624 0.18740787 -0.08186154 0.013008027 0.108972006 0.056104224 -0.023285149 0.1646044 0.03959835 -0.025560224 -0.0045030927 0.11368508 0.09767978 0.042765792 0.21595626 0.08752809 0.22273304 -0.015322782 0.048430104 0.035899494 0.03580374 -0.04295622 -0.117185816 0.11056062 0.028294899 0.089506924 0.17261678 -0.06820433 -0.10135853 0.040773146 0.18118086 0.1570118 0.26659772 -0.10017657 0.02612338 -0.11567382 0.23541239 0.06758849 0.18557304 -0.13453537 0.14242263 -0.10035631
5 -0.07318075 -0.16372609 0.20395045 -0.1900542 -0.0046232874 -0.36689726 0.14370212 0.3863336 -0.12684919 -0.4297106 -0.03002759 -0.24125253 -0.17778592 0.08006384 0.02749918 -0.05777345 0.12228805 -0.016394341 0.09735156 -0.12076067 -0.0748167 -0.098835945 0.077763245 -0.14858069 -0.17143959 -0.08410607 -0.17217144 0.14852603 0.09240882 0.03218721 0.25548455 -0.028387215 -0.12147231 -0.067541204 -0.0056367884 -0.060517255 0.20944475 0.04248389 0.21961059 0.05162738 0.15225752 -0.15436992 0.059698835 0.0045412034 0.056651358 -0.06264278 0.055299472 0.067416325 0.15946794 0.090952165 0.2165767 -0.0035401112 0.33555713 0.036950994 0.007752598 0.2342883 0.20165575 0.29596785 0.3265711 0.19792373 -0.07933102 0.042274028 0.10627019 0.043310862 -0.035036843 0.16851123 0.0497743 -0.041472767 -0.010124315 0.12647271 0.11020753 0.04448783 0.23913406 0.0899199 0.23065095 -0.009556882 0.03515589 0.025475679 0.015945088 -0.063394725 -0.11395581 0.14578557 0.00982394 0.09741645 0.21889412 -0.077632844 -0.13203229 0.029672075 0.1824971 0.15262273 0.28101364 -0.1414114 0.010886299 -0.095958546 0.23780595 0.059845034 0.20826125 -0.14380008 0.15503712 -0.12746839
25 -0.10331837 0.079925366 0.09870014 0.13587442 -0.053968456 -0.20593096 0.11885087 0.32011712 -0.18128984 -0.26976615 0.033025775 -0.20549442 0.040951185 0.10140699 0.066697046 0.091839015 0.31043398 -0.121930815 -0.06102435 -0.44054005 0.15757826 0.08489694 0.21585082 -0.14210777 -0.041585784 0.11021328 -0.18555763 0.0705129 0.032840725 0.08279531 0.28219536 -0.16136579 0.057537768 -0.26519305 -0.053119034 0.11311917 0.2550483 0.064910166 -0.047777325 0.039519854 0.13443236 -0.15257563 -0.057756286 0.027835965 0.08961919 -0.14701931 -0.16727884 -0.05400858 0.115251034 0.09147565 0.062065665 -0.047203064 -0.08716847 0.08478574 -0.05822858 0.09700529 0.23681478 0.011912908 -0.020667408 0.11689926 -0.10679009 -0.08985211 0.24851437 0.13370498 -0.08559862 0.24912827 -0.013277579 0.044199932 -0.113293774 0.09759543 0.026192691 0.08001848 0.112040184 -5.010239e-06 0.16678505 -0.101259656 0.109012805 0.12084887 -0.0034767638 -0.013856053 -0.16520345 -0.08285546 0.08726497 0.14196087 -0.03426948 -0.026254253 0.042106397 0.046020675 0.08917916 0.1321195 0.16618587 0.054668702 0.08983384 -0.07862333 0.20742816 0.0342966 0.10746427 -0.050320853 0.07622012 0.12217173
26 -0.10147226 0.05556498 0.107269816 0.10172787 -0.036270812 -0.22202168 0.10955063 0.32868502 -0.16710982 -0.27862123 0.031946063 -0.21149427 0.016367957 0.09705205 0.06362124 0.06617509 0.27627984 -0.09993845 -0.04681934 -0.3992012 0.13191144 0.06328253 0.20072985 -0.13208422 -0.053368986 0.07966227 -0.17339665 0.083566576 0.028895944 0.0628922 0.27295786 -0.15114298 0.034039248 -0.23504534 -0.04269734 0.08879938 0.25670695 0.07311876 -0.021634184 0.049995366 0.13728715 -0.1601985 -0.05618176 0.023228575 0.0821151 -0.1438903 -0.14399168 -0.04002002 0.111784 0.09221014 0.09228706 -0.047833733 -0.035477698 0.08179601 -0.06514325 0.10491823 0.23262191 0.035497162 -0.004612635 0.11617402 -0.10303788 -0.062424447 0.23536097 0.11414337 -0.086961634 0.23581347 -0.0013934255 0.03455305 -0.09125133 0.09289026 0.03880519 0.07223536 0.11275976 0.015498418 0.17727737 -0.080737695 0.09694255 0.10924437 -0.0077889115 -0.011213758 -0.15662849 -0.05319611 0.07375686 0.12903658 -0.024461923 -0.018088631 0.027317986 0.04567185 0.09378102 0.14768767 0.16756357 0.036564346 0.08628079 -0.082987696 0.22235459 0.045488987 0.13008371 -0.06667051 0.065460816 0.08369998
29 -0.10150005 0.024385452 0.12057768 0.04958533 -0.039765976 -0.22283393 0.087157875 0.30544546 -0.1483813 -0.26769304 0.023009326 -0.1929301 -0.0091509465 0.08214502 0.043257527 0.051541593 0.24494757 -0.095651425 -0.01890054 -0.31504986 0.091395274 0.029688193 0.18334249 -0.12485741 -0.060140017 0.06600672 -0.15989333 0.09949892 0.04410315 0.06515167 0.2563709 -0.12050404 0.0109796235 -0.21284282 -0.019655814 0.055966303 0.23582312 0.047888644 0.0064750863 0.056194555 0.13121629 -0.14566015 -0.038151324 0.0045374376 0.07537077 -0.11576327 -0.10489069 -0.016020846 0.09622683 0.07434909 0.10326105 -0.02115657 0.01272486 0.074647464 -0.053910315 0.09760336 0.20114541 0.07379627 0.040953204 0.11986716 -0.09168661 -0.0388334 0.18335934 0.113130055 -0.055478036 0.19217725 0.015088138 0.030071214 -0.06817857 0.09900012 0.04939567 0.06576684 0.12519453 0.02376494 0.16572702 -0.08312893 0.07297193 0.08257496 0.01652914 -0.0074750492 -0.14335151 -0.033023786 0.07453605 0.11664618 -0.00074611674 -0.037476566 -0.00074692606 0.053305324 0.10020485 0.13458379 0.18395689 0.0036001431 0.07055357 -0.09985728 0.19663884 0.04957847 0.12886302 -0.06627479 0.075340204 0.04870736
15 -0.10510942 0.059802823 0.09456183 0.10256315 -0.026802229 -0.21284856 0.08524514 0.30955625 -0.16789593 -0.25249436 0.012977866 -0.20693228 0.029611012 0.089876756 0.07062363 0.08983402 0.25834185 -0.10506542 -0.029498711 -0.38721243 0.14497566 0.06816233 0.20134564 -0.12750362 -0.02586442 0.0999625 -0.17006217 0.096008055 0.03850249 0.06579119 0.25318068 -0.1351407 0.021458326 -0.25838998 -0.017702868 0.104524985 0.27509496 0.059649672 -0.045176156 0.06894303 0.13479719 -0.16833988 -0.067550704 0.0012316714 0.08486274 -0.1393992 -0.1397925 -0.027688457 0.09779486 0.07182523 0.084543996 -0.04442387 -0.051771358 0.100708336 -0.05300596 0.09630734 0.20921497 0.021180082 -0.015825192 0.12152562 -0.103426404 -0.07333885 0.22935334 0.1399948 -0.05935568 0.21459632 -0.0016245841 0.04925648 -0.093520895 0.107592665 0.025694227 0.06237401 0.113869905 0.010418371 0.1459754 -0.09139708 0.06939263 0.09494782 0.004762672 0.0031796712 -0.15302515 -0.060042482 0.08260199 0.119559355 -0.042002954 -0.017424304 0.028924862 0.06716295 0.1053667 0.13401464 0.16442029 0.045126434 0.08699092 -0.096128315 0.2159473 0.051580172 0.11781103 -0.0665878 0.07029774 0.08935945
22 -0.10094605 -0.08918187 0.15717854 -0.10560475 -0.027393974 -0.28418645 0.0869251 0.31721127 -0.11753475 -0.3349241 -0.023268286 -0.203505 -0.119857065 0.0726952 0.0387888 0.0008466757 0.16285178 -0.063093275 0.06295181 -0.18073379 -0.00018259301 -0.037956636 0.13171414 -0.13038522 -0.12842044 -0.006893727 -0.1470736 0.12518291 0.05845462 0.05610217 0.24974994 -0.062868185 -0.07635891 -0.13068983 -0.0056541013 -0.015428096 0.20105498 0.0525354 0.10682551 0.07536778 0.15059827 -0.13215302 0.00945925 -0.007238729 0.07374964 -0.08228982 -0.010203503 0.035529226 0.12037629 0.073831595 0.15863301 -0.0028506033 0.20886374 0.05425958 -0.02814115 0.16858035 0.17998661 0.19660993 0.19225946 0.14886701 -0.073458634 0.0045456057 0.11495494 0.071794465 -0.024311185 0.1476612 0.03788688 -0.02034009 -0.005277586 0.113230586 0.075982444 0.049818337 0.16150926 0.05611077 0.19372 -0.035301846 0.04537113 0.036561564 0.031415455 -0.040149547 -0.11491688 0.054335427 0.036726896 0.090513 0.1093408 -0.06622676 -0.087390326 0.052546702 0.13012274 0.1359613 0.21888764 -0.07402508 0.025057508 -0.11716295 0.18902825 0.062344544 0.17392465 -0.10282497 0.11300588 -0.04414884
17 -0.08587964 -0.14554231 0.1912155 -0.18114668 -0.024099277 -0.33836627 0.1331352 0.34872335 -0.114353515 -0.39598358 -0.0246663 -0.21173322 -0.16956688 0.06615989 0.013312106 -0.038941767 0.11198961 -0.017426487 0.07172621 -0.11900924 -0.0817969 -0.08012088 0.07432388 -0.123626225 -0.1675653 -0.07741094 -0.14178741 0.12068609 0.07488389 0.034493394 0.24162316 -0.019764042 -0.10279369 -0.056587156 -0.0010645846 -0.054641947 0.19083935 0.025906553 0.19769552 0.05998842 0.14157231 -0.1369915 0.049470726 -0.010486638 0.06807832 -0.06406065 0.061509065 0.05883231 0.14561929 0.08136747 0.20057511 0.009734111 0.30732054 0.036819384 0.006880198 0.21315005 0.18911919 0.27132955 0.28770122 0.18440711 -0.06018717 0.03172311 0.084978856 0.034539133 -0.024391506 0.14221406 0.030287845 -0.05561078 -0.0043756156 0.1204953 0.09333511 0.034328047 0.215744 0.08011184 0.20295392 -0.0068251803 0.036493238 0.019501287 0.027610911 -0.052656565 -0.085940175 0.12743942 0.0068638152 0.08911161 0.19277908 -0.072413616 -0.12730113 0.034371007 0.17326209 0.15158467 0.24940425 -0.13042 0.0046079205 -0.10083107 0.21168858 0.04330379 0.19587079 -0.13673647 0.14619803 -0.12336605
27 -0.093532905 0.09899531 0.081358135 0.14017169 -0.032977954 -0.18932202 0.07766918 0.31154537 -0.17333558 -0.22244526 0.02574021 -0.19495833 0.056471884 0.09174617 0.059326414 0.11352698 0.30286232 -0.11328412 -0.06734352 -0.45118994 0.17683211 0.090833165 0.22639252 -0.15237422 -0.0097583495 0.12254625 -0.17733392 0.078772604 0.027781243 0.075262 0.2602616 -0.16201407 0.051180836 -0.29075566 -0.02970586 0.12692155 0.2900626 0.06711371 -0.073795155 0.045801666 0.12073738 -0.17137857 -0.07118755 0.0069264714 0.08549084 -0.15599456 -0.18029246 -0.048470244 0.09175106 0.07519917 0.04607336 -0.051831715 -0.119590364 0.100770235 -0.061862268 0.060306426 0.21369086 -0.019656263 -0.07716275 0.11512057 -0.09704348 -0.0947165 0.2556983 0.15440406 -0.06862363 0.2342816 0.0027591258 0.055161946 -0.11647099 0.09242582 0.00989788 0.05757024 0.09193626 -0.00091074104 0.14705686 -0.11756517 0.079939164 0.11211044 -0.006377125 0.006585796 -0.14720461 -0.088142484 0.08498644 0.13895695 -0.08431768 -0.008466317 0.056432657 0.07671548 0.07728965 0.13321936 0.13926119 0.07464713 0.11885647 -0.09476552 0.21106383 0.049888857 0.09162413 -0.042929403 0.050000604 0.1255637
23 -0.104843415 0.026404183 0.097655915 0.06251098 -0.020669801 -0.21643145 0.09460125 0.30571118 -0.1621945 -0.25196594 0.008331857 -0.19187345 -0.00041629467 0.082879856 0.048864093 0.06369563 0.24889858 -0.10059174 -0.016007936 -0.34934032 0.11999768 0.037933957 0.20107296 -0.14135757 -0.05921269 0.062043298 -0.16313198 0.09957368 0.03605953 0.07438253 0.2559491 -0.12121496 0.0128557095 -0.21632513 -0.023147034 0.080476224 0.23688236 0.06597454 -0.0073740385 0.0589896 0.13668062 -0.15912339 -0.0481734 0.0075216484 0.08128346 -0.12314288 -0.108330585 -0.023915272 0.108341165 0.07564458 0.09139046 -0.030246334 0.002893174 0.08214172 -0.05350126 0.10555363 0.2004812 0.053793747 0.013338837 0.115204655 -0.09039254 -0.06051138 0.19660054 0.11267236 -0.065707445 0.19885659 0.016032794 0.03294755 -0.07663709 0.10219601 0.039287303 0.051883474 0.11920436 0.024514258 0.15804313 -0.09093279 0.07785011 0.08500434 0.0057391557 -0.0046573966 -0.13615006 -0.031156722 0.06483115 0.1217192 -0.008512738 -0.03575851 -0.00019298668 0.06556561 0.10342204 0.13106045 0.17829277 0.015561922 0.07795088 -0.10721645 0.19428535 0.049580645 0.1286656 -0.067930885 0.07911676 0.058782168
13 -0.09554524 -0.07807267 0.15899177 -0.095406875 -0.013852238 -0.2956923 0.10692334 0.32672435 -0.116741575 -0.34333947 -0.0053653484 -0.2218755 -0.11577717 0.07505102 0.024200542 -0.010022904 0.16959012 -0.06512684 0.043471616 -0.1839369 -0.0137204565 -0.027145624 0.13546155 -0.12049276 -0.1271498 -0.019919984 -0.15687719 0.12531719 0.051831752 0.053531375 0.2520671 -0.07306176 -0.07490498 -0.13899244 -0.01252014 -0.009239592 0.2118954 0.0525566 0.121205844 0.06349216 0.1405412 -0.14774092 -0.0061397287 -0.0086762225 0.07316806 -0.075746186 -0.02207532 0.036844403 0.12597173 0.08308936 0.15932174 -0.016093273 0.20864661 0.04511452 -0.01941307 0.16735117 0.19313708 0.19391885 0.18735658 0.16603483 -0.08157299 -0.004631821 0.12976016 0.065123856 -0.030133214 0.15126197 0.018800136 -0.011225685 -0.018604498 0.10393421 0.08529004 0.056096677 0.18352859 0.055932857 0.18802753 -0.046514563 0.035068113 0.03315369 0.02942863 -0.045841433 -0.119835466 0.058424387 0.0438455 0.0939963 0.117475875 -0.073254354 -0.084273 0.047981832 0.15557642 0.14296465 0.22776182 -0.06665253 0.034148246 -0.122862756 0.21424757 0.06541991 0.17498711 -0.11048747 0.10933764 -0.0602297
16 -0.09425509 0.046113312 0.081632525 0.08714241 -0.031926926 -0.2011099 0.08655906 0.2949438 -0.15749696 -0.24045563 0.01325298 -0.19776762 0.0223964 0.09351483 0.053778194 0.09027265 0.26239553 -0.10390029 -0.026642142 -0.36790442 0.14036253 0.056354415 0.20787802 -0.12573867 -0.027222512 0.07992697 -0.16001089 0.09102037 0.034702435 0.069358155 0.26225796 -0.12978809 0.034894347 -0.24607196 -0.025393773 0.091674305 0.25573546 0.06570819 -0.033103358 0.055216637 0.11825133 -0.14723465 -0.05429751 0.0013032665 0.08758093 -0.12161944 -0.13866398 -0.028168513 0.09923156 0.08238791 0.06418879 -0.036623515 -0.04161959 0.08523231 -0.047072418 0.08307265 0.1971417 0.03299965 -0.010164093 0.12601924 -0.08932888 -0.070649356 0.2110237 0.12961604 -0.07028762 0.1950935 -0.002918358 0.040188625 -0.07010627 0.105527915 0.035624955 0.0491839 0.11652049 0.023022713 0.15137917 -0.100016974 0.07054246 0.08625915 -0.0020321736 -0.0069120056 -0.13947955 -0.06563399 0.06574813 0.12509365 -0.03708261 -0.02930547 0.02352253 0.060176466 0.090814516 0.11879635 0.15459357 0.046261363 0.08429119 -0.09765754 0.1941505 0.05267389 0.10761118 -0.0719229 0.0770256 0.08264246
10 -0.095516406 -0.0012891693 0.112193376 0.018169178 -0.017753698 -0.22917111 0.08696503 0.30124038 -0.15700835 -0.2731675 0.0059688967 -0.20154792 -0.019385248 0.08323518 0.05467175 0.042493917 0.22732864 -0.09280453 -0.013398065 -0.31917965 0.08244355 0.025821937 0.16932076 -0.13092573 -0.05414271 0.055787437 -0.15687887 0.1027288 0.044509068 0.05739411 0.23659171 -0.10204873 -0.010574448 -0.2013986 -0.01003483 0.053370778 0.23805949 0.051243976 0.026873225 0.06031799 0.1174763 -0.15489422 -0.024002746 0.009968947 0.07649663 -0.11308391 -0.101801984 0.005740646 0.1038998 0.07282674 0.10275646 -0.025722535 0.036295626 0.079653434 -0.04181565 0.105506085 0.20574391 0.08959066 0.06596453 0.13490312 -0.085526794 -0.0528667 0.1892445 0.11442213 -0.05540398 0.18885507 0.00773984 0.024308555 -0.072150625 0.10416877 0.047377378 0.06518934 0.12706321 0.027497724 0.15683363 -0.07516091 0.06936005 0.07710964 0.00912594 -0.012890591 -0.13565968 -0.01625692 0.05150392 0.11441497 0.015701244 -0.024574388 -0.014791362 0.06133164 0.1145046 0.13209763 0.18076989 0.013836372 0.07179986 -0.08453314 0.2060428 0.06005021 0.13454592 -0.086282305 0.078067526 0.032349687
19 -0.10097738 0.026460785 0.10336258 0.061534293 -0.03217021 -0.22030017 0.09296623 0.31108335 -0.1518854 -0.25491473 0.009104379 -0.20865123 -0.005010615 0.075351246 0.051203515 0.05955087 0.23824066 -0.09894686 -0.009075424 -0.34893796 0.12103895 0.031089753 0.18936475 -0.1317083 -0.050003078 0.0720146 -0.1607435 0.09584917 0.029989725 0.05309206 0.2585346 -0.12151902 0.020073421 -0.22883956 -0.0126443505 0.060470328 0.25476414 0.06455852 -0.013125372 0.067558765 0.121727616 -0.16543092 -0.04863676 0.0075034574 0.07362013 -0.13069081 -0.10214858 -0.014111859 0.10364682 0.07663633 0.08095413 -0.034373183 0.0035046912 0.095748 -0.05181603 0.10243627 0.20635135 0.047175296 0.01305203 0.1367183 -0.08111998 -0.059733976 0.20609577 0.11853695 -0.06499693 0.1946013 0.0051122257 0.04408091 -0.071444705 0.09624263 0.038439963 0.053753346 0.13066806 0.022088984 0.16428958 -0.08048443 0.06426366 0.08758539 0.008295599 -0.018835658 -0.13998891 -0.044486035 0.05844716 0.12243603 -0.022155456 -0.03659205 0.006625943 0.058914788 0.10546415 0.12438055 0.1672702 0.024968648 0.086845756 -0.09693675 0.20937164 0.06256252 0.12109493 -0.07226748 0.06950331 0.0506469
18 -0.10575024 -0.08823222 0.16358383 -0.09179454 -0.021109218 -0.2973812 0.08589175 0.31748018 -0.11473348 -0.34369805 -0.009588768 -0.21571349 -0.107044406 0.07723379 0.032056317 -0.0027784929 0.16572852 -0.0611409 0.05709367 -0.18686938 -0.001979893 -0.027336095 0.14288981 -0.12879822 -0.1080583 -0.007910725 -0.15508233 0.13313332 0.051134154 0.06983543 0.24713533 -0.062017065 -0.065067396 -0.14371176 -0.010653287 0.013799289 0.21017696 0.044667974 0.11080864 0.067393295 0.15230618 -0.15405843 0.0026948475 -0.0007609037 0.087351 -0.07153541 -0.024985095 0.03756656 0.12170199 0.064582564 0.16711104 0.0017675414 0.20787092 0.046618734 -0.034159686 0.16669707 0.17362419 0.19220369 0.18334825 0.16179658 -0.06936124 0.003192579 0.12400466 0.06892956 -0.012445919 0.14446396 0.029880198 -0.012837815 -0.008554672 0.113807 0.07663311 0.055524293 0.16754343 0.066027075 0.20293127 -0.03537991 0.03721867 0.033668734 0.044412263 -0.029464744 -0.110539734 0.048518438 0.042187978 0.08306426 0.101323776 -0.063880466 -0.08447151 0.0427439 0.15441355 0.15011196 0.23426898 -0.05972716 0.026004784 -0.12759434 0.2094576 0.051458526 0.16340142 -0.10929283 0.11197298 -0.05723462
21 -0.09181445 0.012876133 0.09779948 0.044360682 -0.0225839 -0.22468367 0.08238701 0.31165737 -0.14422368 -0.27181625 0.017790379 -0.19229741 -0.018178629 0.07887564 0.06066608 0.06986302 0.23029242 -0.09755551 -0.009274145 -0.33824542 0.09958821 0.034488406 0.19056487 -0.14078236 -0.04753991 0.06447274 -0.15358804 0.101588435 0.040392373 0.07157968 0.24969676 -0.12851512 0.012623262 -0.22221272 -0.0127516175 0.066530585 0.23740946 0.05632753 0.006184081 0.058361284 0.13176763 -0.16488683 -0.047268044 0.0015669952 0.08966104 -0.12489934 -0.10180471 -0.013005075 0.10500723 0.08303243 0.08730653 -0.039393444 0.0147981 0.08728819 -0.037710253 0.10439874 0.20224445 0.070096225 0.027403293 0.13458693 -0.09313651 -0.0476081 0.19916332 0.11950758 -0.058266267 0.19695026 0.018113151 0.043924995 -0.076259054 0.104729794 0.047004256 0.051149033 0.1358679 0.023764882 0.15681222 -0.085915945 0.062702134 0.07882616 0.005807164 -0.019699395 -0.1284029 -0.037766065 0.057206254 0.11882835 0.010058522 -0.027978726 -0.0018587852 0.05932355 0.10488654 0.13188517 0.16655841 0.01824284 0.0812497 -0.09813166 0.20191257 0.062015247 0.13350199 -0.072023444 0.08657841 0.042039394
12 -0.0920784 -0.07328497 0.1474712 -0.076768555 -0.02288384 -0.29105031 0.1067312 0.33736548 -0.1345755 -0.34645006 -0.0144243445 -0.20281634 -0.11214664 0.08369227 0.03763744 0.006183078 0.16818294 -0.06536949 0.044347014 -0.20368272 0.00038340478 -0.027977286 0.13768983 -0.12330859 -0.10668069 -0.009884929 -0.14450295 0.11281767 0.053143222 0.065796986 0.2530289 -0.08169233 -0.061314296 -0.14760686 -0.012470869 0.012067774 0.20207183 0.05548216 0.10906617 0.059168246 0.13411368 -0.14640547 -0.0024599098 0.004934216 0.084470645 -0.08097492 -0.02386859 0.03059608 0.11587123 0.07764236 0.15203606 -0.0029045185 0.17340268 0.045868523 -0.022682432 0.16412722 0.18083659 0.17066461 0.17014492 0.14957316 -0.086903006 -0.0069262856 0.13334702 0.077940315 -0.03192874 0.16224238 0.02855295 -0.010541523 -0.022521924 0.10732077 0.08090985 0.049959697 0.16129643 0.058880553 0.1960943 -0.045517217 0.042244233 0.041191194 0.033643156 -0.038048584 -0.108022265 0.040696643 0.047989365 0.08291873 0.11255358 -0.058107395 -0.06726287 0.037927203 0.1490994 0.14318356 0.21266928 -0.06731913 0.043491095 -0.11224518 0.19897412 0.059669074 0.15823035 -0.11384593 0.122267276 -0.041872457
